{"learner":{"attributes":{"best_iteration":"0","best_score":"0.961970639842675"},"feature_names":[],"feature_types":[],"gradient_booster":{"model":{"gbtree_model_param":{"num_parallel_tree":"1","num_trees":"51"},"iteration_indptr":[0,1,2,3,4,5,6,7,8,9,10,11,12,13,14,15,16,17,18,19,20,21,22,23,24,25,26,27,28,29,30,31,32,33,34,35,36,37,38,39,40,41,42,43,44,45,46,47,48,49,50,51],"tree_info":[0,0,0,0,0,0,0,0,0,0,0,0,0,0,0,0,0,0,0,0,0,0,0,0,0,0,0,0,0,0,0,0,0,0,0,0,0,0,0,0,0,0,0,0,0,0,0,0,0,0,0],"trees":[{"base_weights":[-9.827401E-3,-7.832296E-2,5.5770863E-2,-5.03156E-2,-3.197304E-2,2.7681451E-2,-2.9109096E-2,1.0687885E-1,-7.072988E-2,1.8521814E-2,3.7453644E-2,-1.5554456E-1,8.255657E-3,1.3096559E-1,-1.6477814E-2,-6.376549E-3,-2.3602022E-2,7.9939E-3,1.7525172E-2],"categories":[],"categories_nodes":[],"categories_segments":[],"categories_sizes":[],"default_left":[0,0,0,0,0,0,0,0,0,0,0,0,0,0,0,0,0,0,0],"id":0,"left_children":[1,3,-1,-1,5,7,-1,9,11,13,-1,15,-1,17,-1,-1,-1,-1,-1],"loss_changes":[1.1550296E1,5.2020226E0,0E0,0E0,3.7178693E0,1.535168E0,0E0,2.5708508E0,1.156924E0,1.732288E0,0E0,4.0595078E-1,0E0,1.0349864E-1,0E0,0E0,0E0,0E0,0E0],"parents":[2147483647,0,0,1,1,4,4,5,5,7,7,8,8,9,9,11,11,13,13],"right_children":[2,4,-1,-1,6,8,-1,10,12,14,-1,16,-1,18,-1,-1,-1,-1,-1],"split_conditions":[8.79E0,-3.14E0,5.5770863E-2,-5.03156E-2,6.97E0,3.1E0,-2.9109096E-2,1.5E0,7.14E0,4.21E0,3.7453644E-2,4.7E0,8.255657E-3,1.3E0,-1.6477814E-2,-6.376549E-3,-2.3602022E-2,7.9939E-3,1.7525172E-2],"split_indices":[2,0,0,0,2,0,0,0,0,2,0,0,0,2,0,0,0,0,0],"split_type":[0,0,0,0,0,0,0,0,0,0,0,0,0,0,0,0,0,0,0],"sum_hessian":[2.95E2,2.64E2,3.1E1,2.5E1,2.39E2,1.95E2,4.4E1,1.08E2,8.7E1,8.2E1,2.6E1,5.6E1,3.1E1,5.1E1,3.1E1,2.7E1,2.9E1,2.5E1,2.6E1],"tree_param":{"num_deleted":"0","num_feature":"14","num_nodes":"19","size_leaf_vector":"1"}},{"base_weights":[-1.3114814E-2,-7.1052395E-2,5.7567894E-2,-3.0610835E-2,-3.8547624E-2,-1.5834716E-1,1.06357954E-1,8.1902376E-4,-4.4052403E-2,2.0910954E-1,-1.3154161E-2,1.4735656E-2,-1.1317282E-2,3.9126575E-2,3.4985691E-3],"categories":[],"categories_nodes":[],"categories_segments":[],"categories_sizes":[],"default_left":[0,0,0,0,0,0,0,0,0,0,0,0,0,0,0],"id":1,"left_children":[1,3,-1,5,-1,7,9,11,-1,13,-1,-1,-1,-1,-1],"loss_changes":[9.899643E0,3.345169E0,0E0,4.1283755E0,0E0,5.4797487E0,2.8141859E0,1.3362993E0,0E0,2.5237308E0,0E0,0E0,0E0,0E0,0E0],"parents":[2147483647,0,0,1,1,3,3,5,5,6,6,7,7,9,9],"right_children":[2,4,-1,6,-1,8,10,12,-1,14,-1,-1,-1,-1,-1],"split_conditions":[9.01E0,1E0,5.7567894E-2,6.78E0,-3.8547624E-2,5.37E0,1.042E1,3.69E0,-4.4052403E-2,5.17E0,-1.3154161E-2,1.4735656E-2,-1.1317282E-2,3.9126575E-2,3.4985691E-3],"split_indices":[2,13,0,1,0,2,1,1,0,2,0,0,0,0,0],"split_type":[0,0,0,0,0,0,0,0,0,0,0,0,0,0,0],"sum_hessian":[2.88E2,2.63E2,2.5E1,2.34E2,2.9E1,1.21E2,1.13E2,7.8E1,4.3E1,7.9E1,3.4E1,3.4E1,4.4E1,3.8E1,4.1E1],"tree_param":{"num_deleted":"0","num_feature":"14","num_nodes":"15","size_leaf_vector":"1"}},{"base_weights":[-1.8975748E-2,-4.717177E-2,2.7050603E-2,-4.163758E-3,2.925214E-2,5.836013E-2,-1.4714082E-1,-3.8214706E-2,1.6136816E-1,-2.523083E-2,-4.898691E-3,6.1341804E-2,-2.200375E-2,2.1644976E-2,9.649954E-3,-2.0328278E-3,1.5949953E-2],"categories":[],"categories_nodes":[],"categories_segments":[],"categories_sizes":[],"default_left":[0,0,0,0,0,0,0,0,0,0,0,0,0,0,0,0,0],"id":2,"left_children":[1,-1,3,5,-1,7,9,11,13,-1,-1,15,-1,-1,-1,-1,-1],"loss_changes":[6.0974746E0,0E0,2.2054272E0,2.1451232E0,0E0,1.66748E0,7.411901E-1,1.5883403E0,2.6853108E-1,0E0,0E0,4.601857E-1,0E0,0E0,0E0,0E0,0E0],"parents":[2147483647,0,0,2,2,3,3,5,5,6,6,7,7,8,8,11,11],"right_children":[2,-1,4,6,-1,8,10,12,14,-1,-1,16,-1,-1,-1,-1,-1],"split_conditions":[-3.3E0,-4.717177E-2,1E0,4.88E0,2.925214E-2,8.9E-1,7.21E0,-7.4E-1,3.1E0,-2.523083E-2,-4.898691E-3,-1.82E0,-2.200375E-2,2.1644976E-2,9.649954E-3,-2.0328278E-3,1.5949953E-2],"split_indices":[0,0,12,0,0,0,0,0,0,0,0,0,0,0,0,0,0],"split_type":[0,0,0,0,0,0,0,0,0,0,0,0,0,0,0,0,0],"sum_hessian":[2.91E2,2.6E1,2.65E2,2.38E2,2.7E1,1.66E2,7.2E1,8.6E1,8E1,3.4E1,3.8E1,5.6E1,3E1,4.2E1,3.8E1,3.1E1,2.5E1],"tree_param":{"num_deleted":"0","num_feature":"14","num_nodes":"17","size_leaf_vector":"1"}},{"base_weights":[-9.658166E-3,-6.952419E-2,4.44165E-2,9.048721E-2,-1.2506837E-1,-6.337441E-3,2.5113747E-2,-3.3042636E-2,-9.1128156E-2,4.5832034E-2,-1.6262478E-1,7.618241E-3,7.882276E-4,-3.198759E-2,-1.101414E-1,5.415403E-3,-2.0280911E-1,-3.420158E-2,-5.044799E-3],"categories":[],"categories_nodes":[],"categories_segments":[],"categories_sizes":[],"default_left":[0,0,0,0,0,0,0,0,0,0,0,0,0,0,0,0,0,0,0],"id":3,"left_children":[1,3,-1,5,7,-1,-1,-1,9,11,13,-1,-1,-1,15,-1,17,-1,-1],"loss_changes":[7.692422E0,2.2332425E0,0E0,1.6225796E0,1.2662892E0,0E0,0E0,0E0,1.5839962E0,6.389972E-2,8.3959365E-1,0E0,0E0,0E0,1.2441986E0,0E0,1.0856495E0,0E0,0E0],"parents":[2147483647,0,0,1,1,3,3,4,4,8,8,9,9,10,10,14,14,16,16],"right_children":[2,4,-1,6,8,-1,-1,-1,10,12,14,-1,-1,-1,16,-1,18,-1,-1],"split_conditions":[8.79E0,1.66E0,4.44165E-2,4.3E-1,2.98E0,-6.337441E-3,2.5113747E-2,-3.3042636E-2,5.16E0,4.26E0,5.82E0,7.618241E-3,7.882276E-4,-3.198759E-2,6.97E0,5.415403E-3,8.12E0,-3.420158E-2,-5.044799E-3],"split_indices":[2,2,0,2,2,0,0,0,2,2,2,0,0,0,2,0,2,0,0],"split_type":[0,0,0,0,0,0,0,0,0,0,0,0,0,0,0,0,0,0,0],"sum_hessian":[2.81E2,2.49E2,3.2E1,6.4E1,1.85E2,3.3E1,3.1E1,2.5E1,1.6E2,5.5E1,1.05E2,3E1,2.5E1,2.5E1,8E1,2.9E1,5.1E1,2.6E1,2.5E1],"tree_param":{"num_deleted":"0","num_feature":"14","num_nodes":"19","size_leaf_vector":"1"}},{"base_weights":[1.2469148E-2,-3.60496E-2,4.032619E-2,-1.963143E-1,3.4489073E-2,-1.3535608E-3,-3.2047138E-2,1.6240868E-1,-1.3487257E-1,2.6347798E-1,-8.083225E-3,-3.6033254E-2,1.674972E-2,4.9638595E-2,1.318304E-2],"categories":[],"categories_nodes":[],"categories_segments":[],"categories_sizes":[],"default_left":[0,0,0,0,0,0,0,0,0,0,0,0,0,0,0],"id":4,"left_children":[1,3,-1,5,7,-1,-1,9,11,13,-1,-1,-1,-1,-1],"loss_changes":[5.494201E0,2.9234242E0,0E0,1.7884305E0,3.9215462E0,0E0,0E0,2.5534694E0,5.3777924E0,2.172871E0,0E0,0E0,0E0,0E0,0E0],"parents":[2147483647,0,0,1,1,3,3,4,4,7,7,8,8,9,9],"right_children":[2,4,-1,6,8,-1,-1,10,12,14,-1,-1,-1,-1,-1],"split_conditions":[8.79E0,4.63E0,4.032619E-2,2.32E0,5.17E0,-1.3535608E-3,-3.2047138E-2,9.72E0,9.4E0,1.07E0,-8.083225E-3,-3.6033254E-2,1.674972E-2,4.9638595E-2,1.318304E-2],"split_indices":[2,1,0,2,2,0,0,1,1,2,0,0,0,0,0],"split_type":[0,0,0,0,0,0,0,0,0,0,0,0,0,0,0],"sum_hessian":[2.88E2,2.57E2,3.1E1,7.8E1,1.79E2,3.2E1,4.6E1,1.02E2,7.7E1,7.2E1,3E1,4.4E1,3.3E1,2.5E1,4.7E1],"tree_param":{"num_deleted":"0","num_feature":"14","num_nodes":"15","size_leaf_vector":"1"}},{"base_weights":[-2.9776024E-2,-7.393627E-2,3.1637914E-2,3.228027E-2,-1.4587654E-1,-2.0845106E-2,1.3135214E-1,-3.219496E-2,-1.09258115E-1,5.785178E-3,2.67647E-2,-1.1215828E-3,-1.4015704E-1,-2.7928669E-2,-7.161518E-2,-4.6224418E-4,-1.1398564E-2],"categories":[],"categories_nodes":[],"categories_segments":[],"categories_sizes":[],"default_left":[0,0,0,0,0,0,0,0,0,0,0,0,0,0,0,0,0],"id":5,"left_children":[1,3,-1,5,7,-1,9,-1,11,-1,-1,-1,13,-1,15,-1,-1],"loss_changes":[4.456418E0,1.9761504E0,0E0,2.5315993E0,9.577422E-1,0E0,7.3584557E-1,0E0,3.8922083E-1,0E0,0E0,0E0,9.1454697E-1,0E0,1.8965352E-1,0E0,0E0],"parents":[2147483647,0,0,1,1,3,3,4,4,6,6,8,8,12,12,14,14],"right_children":[2,4,-1,6,8,-1,10,-1,12,-1,-1,-1,14,-1,16,-1,-1],"split_conditions":[8.79E0,3.56E0,3.1637914E-2,2.8E-1,4.8E0,-2.0845106E-2,2.47E0,-3.219496E-2,5.5E0,5.785178E-3,2.67647E-2,-1.1215828E-3,6.56E0,-2.7928669E-2,7.61E0,-4.6224418E-4,-1.1398564E-2],"split_indices":[2,2,0,2,2,0,2,0,2,0,0,0,2,0,2,0,0],"split_type":[0,0,0,0,0,0,0,0,0,0,0,0,0,0,0,0,0],"sum_hessian":[2.89E2,2.57E2,3.2E1,1.04E2,1.53E2,3E1,7.4E1,2.5E1,1.28E2,4.9E1,2.5E1,3.1E1,9.7E1,3.1E1,6.6E1,2.6E1,4E1],"tree_param":{"num_deleted":"0","num_feature":"14","num_nodes":"17","size_leaf_vector":"1"}},{"base_weights":[9.465128E-3,3.2654773E-2,-2.4073653E-2,-9.631952E-2,1.15125254E-1,-4.132801E-2,-3.7174825E-2,3.329321E-2,-1.4690967E-2,-1.4140038E-1,6.4877935E-2,-2.2964602E-2,-6.8336367E-3,2.7589574E-2,-5.3235698E-3],"categories":[],"categories_nodes":[],"categories_segments":[],"categories_sizes":[],"default_left":[0,0,0,0,0,0,0,0,0,0,0,0,0,0,0],"id":6,"left_children":[1,-1,3,5,7,9,-1,-1,-1,11,13,-1,-1,-1,-1],"loss_changes":[3.1131535E0,0E0,2.6760736E0,2.6352286E0,5.2425537E0,1.571531E0,0E0,0E0,0E0,4.7432303E-1,1.8092214E0,0E0,0E0,0E0,0E0],"parents":[2147483647,0,0,2,2,3,3,4,4,5,5,9,9,10,10],"right_children":[2,-1,4,6,8,10,-1,-1,-1,12,14,-1,-1,-1,-1],"split_conditions":[4.80306E3,3.2654773E-2,2.886202E4,2.41583E4,3.435307E4,1.650048E4,-3.7174825E-2,3.329321E-2,-1.4690967E-2,9.91908E3,1.851431E4,-2.2964602E-2,-6.8336367E-3,2.7589574E-2,-5.3235698E-3],"split_indices":[3,0,3,3,3,3,0,0,0,3,3,0,0,0,0],"split_type":[0,0,0,0,0,0,0,0,0,0,0,0,0,0,0],"sum_hessian":[2.91E2,2.7E1,2.64E2,1.74E2,9E1,1.46E2,2.8E1,4.9E1,4.1E1,7.5E1,7.1E1,3.3E1,4.2E1,2.5E1,4.6E1],"tree_param":{"num_deleted":"0","num_feature":"14","num_nodes":"15","size_leaf_vector":"1"}},{"base_weights":[-4.462158E-3,-7.045329E-2,1.4736703E-1,2.7666217E-2,-1.19654104E-1,3.5061464E-2,-7.3087635E-3,-2.9393893E-1,-5.1410314E-2,-1.3832784E-2,-4.382447E-2,1.717771E-2,-2.851822E-2,1.3828743E-1,-2.8213218E-2,6.0071065E-3,2.72217E-2],"categories":[],"categories_nodes":[],"categories_segments":[],"categories_sizes":[],"default_left":[0,0,0,0,0,0,0,0,0,0,0,0,0,0,0,0,0],"id":7,"left_children":[1,3,5,-1,7,-1,-1,9,11,-1,-1,13,-1,15,-1,-1,-1],"loss_changes":[2.9761188E0,3.5683255E0,4.0582457E0,0E0,2.1495712E0,0E0,0E0,1.0846133E0,2.1213803E0,0E0,0E0,3.7726972E0,0E0,7.5883365E-1,0E0,0E0,0E0],"parents":[2147483647,0,0,1,1,2,2,4,4,7,7,8,8,11,11,13,13],"right_children":[2,4,6,-1,8,-1,-1,10,12,-1,-1,14,-1,16,-1,-1,-1],"split_conditions":[2.886202E4,4.70707E3,3.435307E4,2.7666217E-2,4.63E0,3.5061464E-2,-7.3087635E-3,3.25E0,1.042E1,-1.3832784E-2,-4.382447E-2,4.91E0,-2.851822E-2,1.5E0,-2.8213218E-2,6.0071065E-3,2.72217E-2],"split_indices":[3,3,3,0,1,0,0,1,1,0,0,0,0,0,0,0,0],"split_type":[0,0,0,0,0,0,0,0,0,0,0,0,0,0,0,0,0],"sum_hessian":[2.95E2,2.06E2,8.9E1,2.5E1,1.81E2,4.6E1,4.3E1,5E1,1.31E2,2.5E1,2.5E1,1.02E2,2.9E1,7.3E1,2.9E1,4.7E1,2.6E1],"tree_param":{"num_deleted":"0","num_feature":"14","num_nodes":"17","size_leaf_vector":"1"}},{"base_weights":[4.739959E-2,7.2826985E-3,3.7312176E-2,-1.2718678E-1,6.741941E-2,-3.6902155E-3,-2.1014389E-2,3.4759127E-2,7.199958E-3,-4.184345E-2,9.567432E-2,1.5790036E-1,-1.4733638E-2,2.3182243E-1,-6.1409473E-3,2.9306924E-2,1.05123855E-2],"categories":[],"categories_nodes":[],"categories_segments":[],"categories_sizes":[],"default_left":[0,0,0,0,0,0,0,0,0,0,0,0,0,0,0,0,0],"id":8,"left_children":[1,3,-1,5,7,-1,-1,-1,9,-1,11,13,-1,15,-1,-1,-1],"loss_changes":[3.8128362E0,2.1191652E0,0E0,5.98915E-1,3.0512924E0,0E0,0E0,0E0,5.6886945E0,0E0,1.9134636E0,1.6354196E0,0E0,5.5118275E-1,0E0,0E0,0E0],"parents":[2147483647,0,0,1,1,3,3,4,4,8,8,10,10,11,11,13,13],"right_children":[2,4,-1,6,8,-1,-1,-1,10,-1,12,14,-1,16,-1,-1,-1],"split_conditions":[8.79E0,4.63E0,3.7312176E-2,3.22E0,5.93E0,-3.6902155E-3,-2.1014389E-2,3.4759127E-2,6.96E0,-4.184345E-2,1.111E1,7.1E0,-1.4733638E-2,9.8E0,-6.1409473E-3,2.9306924E-2,1.05123855E-2],"split_indices":[2,1,0,1,1,0,0,0,1,0,1,2,0,1,0,0,0],"split_type":[0,0,0,0,0,0,0,0,0,0,0,0,0,0,0,0,0],"sum_hessian":[2.91E2,2.6E2,3.1E1,8E1,1.8E2,3.9E1,4.1E1,3.1E1,1.49E2,2.5E1,1.24E2,9.9E1,2.5E1,7.4E1,2.5E1,4.9E1,2.5E1],"tree_param":{"num_deleted":"0","num_feature":"14","num_nodes":"17","size_leaf_vector":"1"}},{"base_weights":[3.2455068E-2,6.254149E-2,-1.5338781E-2,2.308719E-3,4.138352E-2,3.5713356E-2,-2.2666043E-2,9.1609344E-2,-1.8292662E-2,2.9325541E-2,2.7113283E-2,2.3690987E-2,-6.15359E-2,-1.5705531E-2,9.653033E-3],"categories":[],"categories_nodes":[],"categories_segments":[],"categories_sizes":[],"default_left":[0,0,0,0,0,0,0,0,0,0,0,0,0,0,0],"id":9,"left_children":[1,3,-1,5,-1,7,-1,9,-1,11,-1,-1,13,-1,-1],"loss_changes":[1.603127E0,5.204256E0,0E0,1.6219561E0,0E0,2.2776606E0,0E0,1.6468968E0,0E0,2.108195E0,0E0,0E0,1.1928351E0,0E0,0E0],"parents":[2147483647,0,0,1,1,3,3,5,5,7,7,9,9,12,12],"right_children":[2,4,-1,6,-1,8,-1,10,-1,12,-1,-1,14,-1,-1],"split_conditions":[3.459147E4,3.060369E4,-1.5338781E-2,1E0,4.138352E-2,2.401907E4,-2.2666043E-2,5.58E0,-1.8292662E-2,-8.1E-1,2.7113283E-2,2.3690987E-2,1.650048E4,-1.5705531E-2,9.653033E-3],"split_indices":[3,3,0,13,0,3,0,0,0,0,0,0,3,0,0],"split_type":[0,0,0,0,0,0,0,0,0,0,0,0,0,0,0],"sum_hessian":[2.84E2,2.45E2,3.9E1,2.1E2,3.5E1,1.84E2,2.6E1,1.47E2,3.7E1,1.1E2,3.7E1,3.3E1,7.7E1,4.8E1,2.9E1],"tree_param":{"num_deleted":"0","num_feature":"14","num_nodes":"15","size_leaf_vector":"1"}},{"base_weights":[-1.9961927E-2,-2.0185475E-1,2.3101194E-2,2.614059E-3,-3.865652E-2,5.7049163E-2,-2.5459383E-2,-4.867842E-3,2.4289203E-1,2.783976E-2,-6.446607E-2,3.0682547E-2,1.6469862E-2,1.1066261E-1,-1.7473711E-1,1.9812863E-3,1.9404894E-2,-3.313562E-2,-9.610404E-2,5.5035675E-4,-2.1355527E-2],"categories":[],"categories_nodes":[],"categories_segments":[],"categories_sizes":[],"default_left":[0,0,0,0,0,0,0,0,0,0,0,0,0,0,0,0,0,0,0,0,0],"id":10,"left_children":[1,3,5,-1,-1,7,-1,9,11,-1,13,-1,-1,15,17,-1,-1,-1,19,-1,-1],"loss_changes":[2.291862E0,2.36844E0,2.2487664E0,0E0,0E0,2.440631E0,0E0,2.719086E0,2.1442246E-1,0E0,2.5877826E0,0E0,0E0,3.9008802E-1,9.780214E-1,0E0,0E0,0E0,6.6947585E-1,0E0,0E0],"parents":[2147483647,0,0,1,1,2,2,5,5,7,7,8,8,10,10,13,13,14,14,18,18],"right_children":[2,4,6,-1,-1,8,-1,10,12,-1,14,-1,-1,16,18,-1,-1,-1,20,-1,-1],"split_conditions":[3.83E0,3.57E0,1.13E1,2.614059E-3,-3.865652E-2,9.56E0,-2.5459383E-2,1.07E0,1.047E1,2.783976E-2,5.93E0,3.0682547E-2,1.6469862E-2,4.85E0,7.02E0,1.9812863E-3,1.9404894E-2,-3.313562E-2,8.55E0,5.5035675E-4,-2.1355527E-2],"split_indices":[1,2,1,0,0,1,0,2,1,0,1,0,0,2,1,0,0,0,1,0,0],"split_type":[0,0,0,0,0,0,0,0,0,0,0,0,0,0,0,0,0,0,0,0,0],"sum_hessian":[2.91E2,5.5E1,2.36E2,2.5E1,3E1,2.11E2,2.5E1,1.59E2,5.2E1,2.7E1,1.32E2,2.7E1,2.5E1,5.1E1,8.1E1,2.5E1,2.6E1,2.6E1,5.5E1,3E1,2.5E1],"tree_param":{"num_deleted":"0","num_feature":"14","num_nodes":"21","size_leaf_vector":"1"}},{"base_weights":[-1.3522648E-2,-4.6772014E-2,2.4582917E-2,3.1043991E-2,-8.6602785E-2,-1.719444E-1,7.461362E-2,-2.087857E-3,-2.2571006E-1,2.6819548E-2,-2.0087294E-2,-2.9915917E-1,-5.177854E-4,-4.51378E-2,-1.9181408E-1,-4.388021E-3,-3.323705E-2],"categories":[],"categories_nodes":[],"categories_segments":[],"categories_sizes":[],"default_left":[0,0,0,0,0,0,0,0,0,0,0,0,0,0,0,0,0],"id":11,"left_children":[1,3,-1,-1,5,7,9,-1,11,-1,-1,13,-1,-1,15,-1,-1],"loss_changes":[2.5036268E0,3.6834874E0,0E0,0E0,3.204794E0,1.2298551E0,4.3735385E0,0E0,1.8126149E0,0E0,0E0,1.2859745E0,0E0,0E0,1.045861E0,0E0,0E0],"parents":[2147483647,0,0,1,1,4,4,5,5,6,6,8,8,11,11,14,14],"right_children":[2,4,-1,-1,6,8,10,-1,12,-1,-1,14,-1,-1,16,-1,-1],"split_conditions":[8.79E0,5.45715E3,2.4582917E-2,3.1043991E-2,2.81361E4,1.66E0,3.459147E4,-2.087857E-3,7.2E0,2.6819548E-2,-2.0087294E-2,6.45E0,-5.177854E-4,-4.51378E-2,9.03E0,-4.388021E-3,-3.323705E-2],"split_indices":[2,3,0,0,3,2,3,0,2,0,0,1,0,0,1,0,0],"split_type":[0,0,0,0,0,0,0,0,0,0,0,0,0,0,0,0,0],"sum_hessian":[2.88E2,2.56E2,3.2E1,2.5E1,2.31E2,1.51E2,8E1,4E1,1.11E2,4.7E1,3.3E1,8.3E1,2.8E1,3.3E1,5E1,2.5E1,2.5E1],"tree_param":{"num_deleted":"0","num_feature":"14","num_nodes":"17","size_leaf_vector":"1"}},{"base_weights":[-3.0039405E-2,-3.7946828E-2,5.6761364E-3,-5.8887582E-2,1.5306641E-1,2.0725137E-2,-1.9941035E-1,2.6071906E-2,-1.9924187E-3,-3.9293665E-2,1.54801775E-2,-3.7550963E-2,-1.744609E-3,4.4644163E-3,-1.3513747E-2],"categories":[],"categories_nodes":[],"categories_segments":[],"categories_sizes":[],"default_left":[0,0,0,0,0,0,0,0,0,0,0,0,0,0,0],"id":12,"left_children":[1,-1,3,5,7,9,11,-1,-1,13,-1,-1,-1,-1,-1],"loss_changes":[3.633846E0,0E0,2.5307705E0,2.073802E0,1.5136491E0,9.636898E-1,2.1403818E0,0E0,0E0,6.7376155E-1,0E0,0E0,0E0,0E0,0E0],"parents":[2147483647,0,0,2,2,3,3,4,4,5,5,6,6,9,9],"right_children":[2,-1,4,6,8,10,12,-1,-1,14,-1,-1,-1,-1,-1],"split_conditions":[-3.3E0,-3.7946828E-2,2.886202E4,4.6E0,3.459147E4,1.981752E4,7.21E0,2.6071906E-2,-1.9924187E-3,1.174637E4,1.54801775E-2,-3.7550963E-2,-1.744609E-3,4.4644163E-3,-1.3513747E-2],"split_indices":[0,0,3,0,3,3,0,0,0,3,0,0,0,0,0],"split_type":[0,0,0,0,0,0,0,0,0,0,0,0,0,0,0],"sum_hessian":[2.9E2,2.6E1,2.64E2,1.84E2,8E1,1.18E2,6.6E1,4.9E1,3.1E1,8.2E1,3.6E1,3.3E1,3.3E1,4.4E1,3.8E1],"tree_param":{"num_deleted":"0","num_feature":"14","num_nodes":"15","size_leaf_vector":"1"}},{"base_weights":[2.8468512E-2,1.0441313E-1,-3.0877713E-2,9.11205E-3,1.8696682E-1,-3.515267E-2,2.9758168E-2,2.307847E-2,-1.558194E-2,2.754649E-2,1.2910831E-2,-8.0589345E-3,8.401868E-2,3.0605128E-2,-1.1449985E-2,-6.2938267E-3,6.0674767E-3],"categories":[],"categories_nodes":[],"categories_segments":[],"categories_sizes":[],"default_left":[0,0,0,0,0,0,0,0,0,0,0,0,0,0,0,0,0],"id":13,"left_children":[1,3,5,7,9,-1,11,-1,-1,-1,-1,-1,13,-1,15,-1,-1],"loss_changes":[1.3057547E0,9.9746335E-1,3.1796432E0,2.2296083E0,3.1262016E-1,0E0,8.330476E-1,0E0,0E0,0E0,0E0,0E0,1.9748394E0,0E0,2.4891499E-1,0E0,0E0],"parents":[2147483647,0,0,1,1,2,2,3,3,4,4,6,6,12,12,14,14],"right_children":[2,4,6,8,10,-1,12,-1,-1,-1,-1,-1,14,-1,16,-1,-1],"split_conditions":[1.850373E4,9.91908E3,2.103083E4,5.45715E3,1.400504E4,-3.515267E-2,2.886202E4,2.307847E-2,-1.558194E-2,2.754649E-2,1.2910831E-2,-8.0589345E-3,3.166795E4,3.0605128E-2,3.615394E4,-6.2938267E-3,6.0674767E-3],"split_indices":[3,3,3,3,3,0,3,0,0,0,0,0,3,0,3,0,0],"split_type":[0,0,0,0,0,0,0,0,0,0,0,0,0,0,0,0,0],"sum_hessian":[2.88E2,1.26E2,1.62E2,5.9E1,6.7E1,2.5E1,1.37E2,2.5E1,3.4E1,2.5E1,4.2E1,4.5E1,9.2E1,2.7E1,6.5E1,3.8E1,2.7E1],"tree_param":{"num_deleted":"0","num_feature":"14","num_nodes":"17","size_leaf_vector":"1"}},{"base_weights":[-9.7469497E-4,-3.426063E-2,3.2421533E-2,-3.1359654E-2,7.773568E-2,3.903265E-2,3.3779573E-2,-2.7072692E-2,8.662183E-2,1.3716958E-1,-1.396386E-2,2.3001543E-1,6.590224E-2,7.913264E-3,4.1579273E-2,-4.2239637E-3,2.957662E-2],"categories":[],"categories_nodes":[],"categories_segments":[],"categories_sizes":[],"default_left":[0,0,0,0,0,0,0,0,0,0,0,0,0,0,0,0,0],"id":14,"left_children":[1,-1,3,-1,5,-1,7,-1,9,11,-1,13,15,-1,-1,-1,-1],"loss_changes":[3.3311868E0,0E0,4.1951284E0,0E0,3.2295198E0,0E0,3.3703396E0,0E0,2.0549326E0,9.509053E-1,0E0,1.7330248E0,2.100558E0,0E0,0E0,0E0,0E0],"parents":[2147483647,0,0,2,2,4,4,6,6,8,8,9,9,11,11,12,12],"right_children":[2,-1,4,-1,6,-1,8,-1,10,12,-1,14,16,-1,-1,-1,-1],"split_conditions":[-3.24E0,-3.426063E-2,3.05E0,-3.1359654E-2,4.16E0,3.903265E-2,-1.54E0,-2.7072692E-2,7.54E0,4.8E0,-1.396386E-2,2.06E0,9.4E0,7.913264E-3,4.1579273E-2,-4.2239637E-3,2.957662E-2],"split_indices":[0,0,1,0,1,0,0,0,0,2,0,2,1,0,0,0,0],"split_type":[0,0,0,0,0,0,0,0,0,0,0,0,0,0,0,0,0],"sum_hessian":[2.9E2,2.5E1,2.65E2,3E1,2.35E2,2.8E1,2.07E2,3E1,1.77E2,1.45E2,3.2E1,6.2E1,8.3E1,3.5E1,2.7E1,5.7E1,2.6E1],"tree_param":{"num_deleted":"0","num_feature":"14","num_nodes":"17","size_leaf_vector":"1"}},{"base_weights":[-2.4450777E-2,-2.51151E-3,-2.3481222E-2,-4.660197E-2,1.9319223E-2,2.3457827E-2,-9.9454895E-2,-1.4840998E-1,1.9621795E-2,-9.376896E-3,-2.4871857E-1,1.5267983E-2,-2.3476388E-2,-5.0833285E-2,-1.4104643E-1,8.0161553E-4,-2.6904339E-2],"categories":[],"categories_nodes":[],"categories_segments":[],"categories_sizes":[],"default_left":[0,0,0,0,0,0,0,0,0,0,0,0,0,0,0,0,0],"id":15,"left_children":[1,3,-1,5,-1,-1,7,9,-1,11,13,-1,-1,-1,15,-1,-1],"loss_changes":[1.3193506E0,2.252457E0,0E0,3.1887648E0,0E0,0E0,2.634565E0,2.1593308E0,0E0,2.446525E0,2.4440918E0,0E0,0E0,0E0,1.2423278E0,0E0,0E0],"parents":[2147483647,0,0,1,1,3,3,6,6,7,7,9,9,10,10,14,14],"right_children":[2,4,-1,6,-1,-1,8,10,-1,12,14,-1,-1,-1,16,-1,-1],"split_conditions":[1.12E1,9.58E0,-2.3481222E-2,8.2E-1,1.9319223E-2,2.3457827E-2,8.67E0,1.840185E4,1.9621795E-2,5.9E0,3.71E0,1.5267983E-2,-2.3476388E-2,-5.0833285E-2,6.5E0,8.0161553E-4,-2.6904339E-2],"split_indices":[1,1,0,2,0,0,2,3,0,1,1,0,0,0,1,0,0],"split_type":[0,0,0,0,0,0,0,0,0,0,0,0,0,0,0,0,0],"sum_hessian":[2.85E2,2.59E2,2.6E1,2.12E2,4.7E1,3.3E1,1.79E2,1.54E2,2.5E1,6.5E1,8.9E1,3.8E1,2.7E1,2.5E1,6.4E1,3E1,3.4E1],"tree_param":{"num_deleted":"0","num_feature":"14","num_nodes":"17","size_leaf_vector":"1"}},{"base_weights":[-1.6516836E-2,-9.9621065E-2,5.7461545E-2,6.6677976E-4,-4.5399368E-2,3.0995876E-2,-2.8667614E-2,-2.1179475E-2,7.865055E-2,-2.9274568E-2,4.794014E-2,-1.6268058E-2,1.9339052E-1,-1.2745971E-2,2.0407042E-2,2.7949974E-2,9.692945E-3],"categories":[],"categories_nodes":[],"categories_segments":[],"categories_sizes":[],"default_left":[0,0,0,0,0,0,0,0,0,0,0,0,0,0,0,0,0],"id":16,"left_children":[1,3,5,7,-1,-1,9,-1,11,-1,13,-1,15,-1,-1,-1,-1],"loss_changes":[1.7763244E0,4.833644E0,3.3362339E0,1.7894927E0,0E0,0E0,2.3405333E0,0E0,2.2189965E0,0E0,2.490681E0,0E0,4.214425E-1,0E0,0E0,0E0,0E0],"parents":[2147483647,0,0,1,1,2,2,3,3,6,6,8,8,10,10,12,12],"right_children":[2,4,6,8,-1,-1,10,-1,12,-1,14,-1,16,-1,-1,-1,-1],"split_conditions":[6.78E0,6.64E0,8.16E0,-1.82E0,-4.5399368E-2,3.0995876E-2,2.63E0,-2.1179475E-2,1.47515E4,-2.9274568E-2,2.43E0,-1.6268058E-2,3.95E0,-1.2745971E-2,2.0407042E-2,2.7949974E-2,9.692945E-3],"split_indices":[1,0,1,0,0,0,2,0,3,0,0,0,2,0,0,0,0],"split_type":[0,0,0,0,0,0,0,0,0,0,0,0,0,0,0,0,0],"sum_hessian":[2.87E2,1.35E2,1.52E2,1.06E2,2.9E1,3.8E1,1.14E2,2.8E1,7.8E1,2.5E1,8.9E1,2.5E1,5.3E1,4.2E1,4.7E1,2.7E1,2.6E1],"tree_param":{"num_deleted":"0","num_feature":"14","num_nodes":"17","size_leaf_vector":"1"}},{"base_weights":[-2.2767592E-2,-2.001721E-1,1.963753E-2,-6.6162683E-3,-3.366046E-2,-1.9540358E-2,2.8313888E-2,7.466024E-2,-9.4250746E-2,-1.8909648E-2,1.8542582E-1,-2.0341732E-1,5.1012214E-2,5.5601574E-3,2.6842153E-2,-1.6462042E-3,-3.2157283E-2,1.1755904E-3,8.830652E-3],"categories":[],"categories_nodes":[],"categories_segments":[],"categories_sizes":[],"default_left":[0,0,0,0,0,0,0,0,0,0,0,0,0,0,0,0,0,0,0],"id":17,"left_children":[1,3,5,-1,-1,7,-1,9,11,-1,13,15,17,-1,-1,-1,-1,-1,-1],"loss_changes":[2.2231743E0,1.0198739E0,2.4728315E0,0E0,0E0,1.4779294E0,0E0,2.7520735E0,1.8657465E0,0E0,6.9621587E-1,1.4747226E0,7.3627755E-2,0E0,0E0,0E0,0E0,0E0,0E0],"parents":[2147483647,0,0,1,1,2,2,5,5,7,7,8,8,10,10,11,11,12,12],"right_children":[2,4,6,-1,-1,8,-1,10,12,-1,14,16,18,-1,-1,-1,-1,-1,-1],"split_conditions":[-1.54E0,2.115481E4,1E0,-6.6162683E-3,-3.366046E-2,3.1E0,2.8313888E-2,1.401066E4,5.96E0,-1.8909648E-2,3.31E0,1.62366E4,1.782385E4,5.5601574E-3,2.6842153E-2,-1.6462042E-3,-3.2157283E-2,1.1755904E-3,8.830652E-3],"split_indices":[0,3,10,0,0,0,0,3,2,0,2,3,3,0,0,0,0,0,0],"split_type":[0,0,0,0,0,0,0,0,0,0,0,0,0,0,0,0,0,0,0],"sum_hessian":[2.94E2,5.6E1,2.38E2,2.9E1,2.7E1,2.08E2,3E1,9.2E1,1.16E2,2.7E1,6.5E1,6.6E1,5E1,2.6E1,3.9E1,2.6E1,4E1,2.5E1,2.5E1],"tree_param":{"num_deleted":"0","num_feature":"14","num_nodes":"19","size_leaf_vector":"1"}},{"base_weights":[2.3187472E-2,4.4276513E-2,-1.830942E-2,1.3690166E-1,-2.7509857E-2,-3.7491147E-3,2.3775083E-1,-1.8233076E-1,1.1962567E-1,4.120227E-2,1.065839E-2,-3.5420705E-2,-3.167766E-3,2.1233882E-1,-7.0401616E-3,2.4887701E-2,1.692895E-2],"categories":[],"categories_nodes":[],"categories_segments":[],"categories_sizes":[],"default_left":[0,0,0,0,0,0,0,0,0,0,0,0,0,0,0,0,0],"id":18,"left_children":[1,3,-1,5,7,-1,9,11,13,-1,-1,-1,-1,15,-1,-1,-1],"loss_changes":[1.2653384E0,1.7525119E0,0E0,2.0314605E0,3.41598E0,0E0,1.6247711E0,1.8790193E0,1.3715374E0,0E0,0E0,0E0,0E0,3.9660692E-2,0E0,0E0,0E0],"parents":[2147483647,0,0,1,1,3,3,4,4,6,6,7,7,8,8,13,13],"right_children":[2,4,-1,6,8,-1,10,12,14,-1,-1,-1,-1,16,-1,-1,-1],"split_conditions":[1.12E1,1.850373E4,-1.830942E-2,7.86772E3,2.886202E4,-3.7491147E-3,5.93E0,6.43E0,3.542664E4,4.120227E-2,1.065839E-2,-3.5420705E-2,-3.167766E-3,3.166795E4,-7.0401616E-3,2.4887701E-2,1.692895E-2],"split_indices":[1,3,0,3,3,0,1,1,3,0,0,0,0,3,0,0,0],"split_type":[0,0,0,0,0,0,0,0,0,0,0,0,0,0,0,0,0],"sum_hessian":[2.88E2,2.62E2,2.6E1,1.14E2,1.48E2,4.2E1,7.2E1,7.2E1,7.6E1,3E1,4.2E1,3.3E1,3.9E1,5.1E1,2.5E1,2.5E1,2.6E1],"tree_param":{"num_deleted":"0","num_feature":"14","num_nodes":"17","size_leaf_vector":"1"}},{"base_weights":[-9.1637615E-3,-3.5057697E-2,2.4241904E-2,-2.5920844E-2,5.7348046E-2,3.6292102E-2,1.6718842E-2,-2.7698739E-2,6.1081305E-2,1.188609E-1,-4.7417346E-2,3.5513792E-2,2.6221355E-2,-2.6697068E-2,9.6477745E-3,-9.557656E-3,3.2033857E-2],"categories":[],"categories_nodes":[],"categories_segments":[],"categories_sizes":[],"default_left":[0,0,0,0,0,0,0,0,0,0,0,0,0,0,0,0,0],"id":19,"left_children":[1,-1,3,-1,5,-1,7,-1,9,11,13,-1,15,-1,-1,-1,-1],"loss_changes":[3.327393E0,0E0,2.510995E0,0E0,2.961162E0,0E0,2.7791793E0,0E0,1.1654024E0,2.6392083E0,2.0792787E0,0E0,3.1830285E0,0E0,0E0,0E0,0E0],"parents":[2147483647,0,0,2,2,4,4,6,6,8,8,9,9,10,10,12,12],"right_children":[2,-1,4,-1,6,-1,8,-1,10,12,14,-1,16,-1,-1,-1,-1],"split_conditions":[-3.24E0,-3.5057697E-2,3.05E0,-2.5920844E-2,4.16E0,3.6292102E-2,-1.54E0,-2.7698739E-2,4.91E0,5.93E0,7.02E0,3.5513792E-2,3.6E0,-2.6697068E-2,9.6477745E-3,-9.557656E-3,3.2033857E-2],"split_indices":[0,0,1,0,1,0,0,0,0,1,1,0,0,0,0,0,0],"split_type":[0,0,0,0,0,0,0,0,0,0,0,0,0,0,0,0,0],"sum_hessian":[2.9E2,2.5E1,2.65E2,2.7E1,2.38E2,2.7E1,2.11E2,2.7E1,1.84E2,1.2E2,6.4E1,3.3E1,8.7E1,2.5E1,3.9E1,6.2E1,2.5E1],"tree_param":{"num_deleted":"0","num_feature":"14","num_nodes":"17","size_leaf_vector":"1"}},{"base_weights":[-1.578254E-2,1.8380374E-2,-9.144327E-2,-6.465598E-2,1.3821149E-1,-1.7839385E-2,-1.3273497E-3,6.536465E-3,-2.3095326E-2,2.3271684E-2,1.4428712E-3,-9.3862325E-2,2.2568433E-2,-1.6929016E-2,-3.342156E-3],"categories":[],"categories_nodes":[],"categories_segments":[],"categories_sizes":[],"default_left":[0,0,0,0,0,0,0,0,0,0,0,0,0,0,0],"id":20,"left_children":[1,3,5,7,9,-1,-1,11,-1,-1,-1,13,-1,-1,-1],"loss_changes":[7.5643975E-1,2.0189047E0,6.1615074E-1,1.4222031E0,9.6758723E-1,0E0,0E0,1.8913683E0,0E0,0E0,0E0,2.6331812E-1,0E0,0E0,0E0],"parents":[2147483647,0,0,1,1,2,2,3,3,4,4,7,7,11,11],"right_children":[2,4,6,8,10,-1,-1,12,-1,-1,-1,14,-1,-1,-1],"split_conditions":[4.7E0,8.9E-1,7.21E0,-8.1E-1,3.1E0,-1.7839385E-2,-1.3273497E-3,-1.69E0,-2.3095326E-2,2.3271684E-2,1.4428712E-3,-3.3E0,2.2568433E-2,-1.6929016E-2,-3.342156E-3],"split_indices":[0,0,0,0,0,0,0,0,0,0,0,0,0,0,0],"split_type":[0,0,0,0,0,0,0,0,0,0,0,0,0,0,0],"sum_hessian":[2.91E2,2.01E2,9E1,1.19E2,8.2E1,4.2E1,4.8E1,8.4E1,3.5E1,4.6E1,3.6E1,5.8E1,2.6E1,2.5E1,3.3E1],"tree_param":{"num_deleted":"0","num_feature":"14","num_nodes":"15","size_leaf_vector":"1"}},{"base_weights":[-1.0352384E-2,1.2880485E-1,-5.2605674E-2,-9.044268E-3,2.719031E-2,-9.380489E-2,1.7608156E-2,-1.4781713E-1,5.549403E-2,-3.3823293E-2,-3.634825E-2,-1.441922E-2,2.6072612E-2,-1.4998282E-1,1.574888E-2,-2.78072E-2,-4.762101E-3],"categories":[],"categories_nodes":[],"categories_segments":[],"categories_sizes":[],"default_left":[0,0,0,0,0,0,0,0,0,0,0,0,0,0,0,0,0],"id":21,"left_children":[1,3,5,-1,-1,7,-1,9,11,13,-1,-1,-1,15,-1,-1,-1],"loss_changes":[1.7413319E0,2.189393E0,2.155251E0,0E0,0E0,1.5645491E0,0E0,3.4787087E0,2.1686597E0,2.1125565E0,0E0,0E0,0E0,7.6033306E-1,0E0,0E0,0E0],"parents":[2147483647,0,0,1,1,2,2,5,5,7,7,8,8,9,9,13,13],"right_children":[2,4,6,-1,-1,8,-1,10,12,14,-1,-1,-1,16,-1,-1,-1],"split_conditions":[1.66E0,4.91E0,8.73E0,-9.044268E-3,2.719031E-2,9.53E0,1.7608156E-2,6.32E0,5.98E0,4.98E0,-3.634825E-2,-1.441922E-2,2.6072612E-2,4.68E0,1.574888E-2,-2.78072E-2,-4.762101E-3],"split_indices":[2,1,2,0,0,1,0,2,2,2,0,0,0,1,0,0,0],"split_type":[0,0,0,0,0,0,0,0,0,0,0,0,0,0,0,0,0],"sum_hessian":[2.94E2,6.8E1,2.26E2,2.7E1,4.1E1,1.92E2,3.4E1,1.41E2,5.1E1,9.3E1,4.8E1,2.6E1,2.5E1,5.8E1,3.5E1,2.5E1,3.3E1],"tree_param":{"num_deleted":"0","num_feature":"14","num_nodes":"17","size_leaf_vector":"1"}},{"base_weights":[3.2404358E-3,-2.3986004E-2,2.1054653E-2,-1.4231005E-1,2.7790712E-2,-5.3605985E-2,-2.933996E-2,2.6497707E-2,-2.2994313E-2,-1.4822598E-2,4.307579E-3,-2.6790444E-2,4.3057095E-2,1.1804276E-1,-8.7442165E-3,4.2390125E-3,2.4621908E-2],"categories":[],"categories_nodes":[],"categories_segments":[],"categories_sizes":[],"default_left":[0,0,0,0,0,0,0,0,0,0,0,0,0,0,0,0,0],"id":22,"left_children":[1,3,-1,5,7,9,-1,-1,11,-1,-1,-1,13,15,-1,-1,-1],"loss_changes":[1.6531585E0,1.5907003E0,0E0,1.0430505E0,2.1863313E0,4.7293437E-1,0E0,0E0,2.4380336E0,0E0,0E0,0E0,1.1748052E0,7.265253E-1,0E0,0E0,0E0],"parents":[2147483647,0,0,1,1,3,3,4,4,5,5,8,8,12,12,13,13],"right_children":[2,4,-1,6,8,10,-1,-1,12,-1,-1,-1,14,16,-1,-1,-1],"split_conditions":[8.79E0,4.63E0,2.1054653E-2,3.57E0,5.93E0,2.93E0,-2.933996E-2,2.6497707E-2,7.24E0,-1.4822598E-2,4.307579E-3,-2.6790444E-2,1.042E1,9.4E0,-8.7442165E-3,4.2390125E-3,2.4621908E-2],"split_indices":[2,1,0,1,1,1,0,0,1,0,0,0,1,1,0,0,0],"split_type":[0,0,0,0,0,0,0,0,0,0,0,0,0,0,0,0,0],"sum_hessian":[2.91E2,2.58E2,3.3E1,7.8E1,1.8E2,5E1,2.8E1,3.1E1,1.49E2,2.5E1,2.5E1,3.1E1,1.18E2,7.5E1,4.3E1,4.8E1,2.7E1],"tree_param":{"num_deleted":"0","num_feature":"14","num_nodes":"17","size_leaf_vector":"1"}},{"base_weights":[-6.5230555E-3,-3.197646E-2,2.0963078E-2,-1.1253975E-1,4.5243096E-2,-1.4121983E-2,-3.2343347E-2,-4.595791E-2,1.635013E-1,-7.323335E-2,9.883584E-3,2.3050262E-2,-2.0863948E-2,2.9106501E-2,-9.60127E-4,-2.7561465E-2,9.457055E-3],"categories":[],"categories_nodes":[],"categories_segments":[],"categories_sizes":[],"default_left":[0,0,0,0,0,0,0,0,0,0,0,0,0,0,0,0,0],"id":23,"left_children":[1,3,-1,5,7,9,-1,11,13,15,-1,-1,-1,-1,-1,-1,-1],"loss_changes":[1.6187458E0,1.641231E0,0E0,2.6729157E0,1.4635255E0,6.014992E-1,0E0,3.5111694E0,1.3056095E0,2.0297267E0,0E0,0E0,0E0,0E0,0E0,0E0,0E0],"parents":[2147483647,0,0,1,1,3,3,4,4,5,5,7,7,8,8,9,9],"right_children":[2,4,-1,6,8,10,-1,12,14,16,-1,-1,-1,-1,-1,-1,-1],"split_conditions":[8.79E0,6.78E0,2.0963078E-2,5.37E0,2.118626E4,4.63E0,-3.2343347E-2,9.34432E3,3.166795E4,1.906845E4,9.883584E-3,2.3050262E-2,-2.0863948E-2,2.9106501E-2,-9.60127E-4,-2.7561465E-2,9.457055E-3],"split_indices":[2,1,0,2,3,1,0,3,3,3,0,0,0,0,0,0,0],"split_type":[0,0,0,0,0,0,0,0,0,0,0,0,0,0,0,0,0],"sum_hessian":[2.92E2,2.62E2,3E1,1.28E2,1.34E2,8.8E1,4E1,7.6E1,5.8E1,5.8E1,3E1,2.8E1,4.8E1,3.3E1,2.5E1,2.6E1,3.2E1],"tree_param":{"num_deleted":"0","num_feature":"14","num_nodes":"17","size_leaf_vector":"1"}},{"base_weights":[1.894459E-2,1.8894557E-2,-1.1720626E-2,-5.8146965E-2,1.0833127E-1,2.3205196E-2,-1.6475652E-1,2.8741298E-2,-5.1081483E-4,-1.2930249E-2,1.475623E-1,-3.64617E-2,-5.753395E-3,2.7253335E-2,1.7321153E-3],"categories":[],"categories_nodes":[],"categories_segments":[],"categories_sizes":[],"default_left":[0,0,0,0,0,0,0,0,0,0,0,0,0,0,0],"id":24,"left_children":[1,-1,3,5,7,9,11,-1,-1,-1,13,-1,-1,-1,-1],"loss_changes":[1.4671001E0,0E0,1.3383824E0,1.5042381E0,1.3625684E0,1.896656E0,1.5862389E0,0E0,0E0,0E0,8.904799E-1,0E0,0E0,0E0,0E0],"parents":[2147483647,0,0,2,2,3,3,4,4,5,5,6,6,10,10],"right_children":[2,-1,4,6,8,10,12,-1,-1,-1,14,-1,-1,-1,-1],"split_conditions":[8.2E-1,1.8894557E-2,9.4E0,5.93E0,1.031E1,3.83E0,7.02E0,2.8741298E-2,-5.1081483E-4,-1.2930249E-2,4.76E0,-3.64617E-2,-5.753395E-3,2.7253335E-2,1.7321153E-3],"split_indices":[2,0,1,1,1,1,1,0,0,0,1,0,0,0,0],"split_type":[0,0,0,0,0,0,0,0,0,0,0,0,0,0,0],"sum_hessian":[2.8E2,4.2E1,2.38E2,1.72E2,6.6E1,9.8E1,7.4E1,2.5E1,4.1E1,4.4E1,5.4E1,2.5E1,4.9E1,2.7E1,2.7E1],"tree_param":{"num_deleted":"0","num_feature":"14","num_nodes":"15","size_leaf_vector":"1"}},{"base_weights":[-1.8941226E-3,-2.0220408E-2,1.8521965E-2,-1.1044873E-2,2.1972738E-2,-1.8485239E-1,4.272175E-2,-3.5127148E-2,-2.3536251E-3,1.774903E-1,-5.2664865E-2,3.5210427E-2,-1.5841642E-2,-2.3042606E-2,8.983413E-2,-9.281485E-3,2.4684468E-2],"categories":[],"categories_nodes":[],"categories_segments":[],"categories_sizes":[],"default_left":[0,0,0,0,0,0,0,0,0,0,0,0,0,0,0,0,0],"id":25,"left_children":[1,-1,3,5,-1,7,9,-1,-1,11,13,-1,-1,-1,15,-1,-1],"loss_changes":[1.193803E0,0E0,1.5789139E0,2.1759472E0,0E0,1.4682672E0,2.2975578E0,0E0,0E0,4.3961754E0,2.6804333E0,0E0,0E0,0E0,1.714902E0,0E0,0E0],"parents":[2147483647,0,0,2,2,3,3,5,5,6,6,9,9,10,10,14,14],"right_children":[2,-1,4,6,-1,8,10,-1,-1,12,14,-1,-1,-1,16,-1,-1],"split_conditions":[-3.3E0,-2.0220408E-2,1E0,1.050545E4,2.1972738E-2,6.62E0,5.93E0,-3.5127148E-2,-2.3536251E-3,4.13E0,4.91E0,3.5210427E-2,-1.5841642E-2,-2.3042606E-2,2.9E0,-9.281485E-3,2.4684468E-2],"split_indices":[0,0,10,3,0,1,1,0,0,0,2,0,0,0,0,0,0],"split_type":[0,0,0,0,0,0,0,0,0,0,0,0,0,0,0,0,0],"sum_hessian":[2.9E2,2.6E1,2.64E2,2.31E2,3.3E1,5.4E1,1.77E2,2.6E1,2.8E1,7.3E1,1.04E2,4.8E1,2.5E1,4.6E1,5.8E1,2.7E1,3.1E1],"tree_param":{"num_deleted":"0","num_feature":"14","num_nodes":"17","size_leaf_vector":"1"}},{"base_weights":[-6.6646044E-3,-1.9976728E-2,1.6121889E-2,-3.3183184E-2,1.356534E-1,8.659226E-3,-2.440243E-2,2.803731E-2,-5.221644E-4,5.921273E-2,-2.2636274E-2,-4.087963E-2,1.4559017E-1,-2.4147809E-2,1.0513258E-2,2.2653596E-2,7.921743E-3],"categories":[],"categories_nodes":[],"categories_segments":[],"categories_sizes":[],"default_left":[0,0,0,0,0,0,0,0,0,0,0,0,0,0,0,0,0],"id":26,"left_children":[1,-1,3,5,7,9,-1,-1,-1,11,-1,13,15,-1,-1,-1,-1],"loss_changes":[1.2924596E0,0E0,1.5544944E0,1.6518458E0,1.5712932E0,1.8787496E0,0E0,0E0,0E0,1.1298957E0,0E0,1.8120664E0,3.5813582E-1,0E0,0E0,0E0,0E0],"parents":[2147483647,0,0,2,2,3,3,4,4,5,5,9,9,11,11,12,12],"right_children":[2,-1,4,6,8,10,-1,-1,-1,12,-1,14,16,-1,-1,-1,-1],"split_conditions":[3.05E0,-1.9976728E-2,2.886202E4,2.284358E4,3.358091E4,1.025E1,-2.440243E-2,2.803731E-2,-5.221644E-4,6.62E0,-2.2636274E-2,1.089902E4,8.59E0,-2.4147809E-2,1.0513258E-2,2.2653596E-2,7.921743E-3],"split_indices":[1,0,3,3,3,1,0,0,0,1,0,3,1,0,0,0,0],"split_type":[0,0,0,0,0,0,0,0,0,0,0,0,0,0,0,0,0],"sum_hessian":[2.92E2,3E1,2.62E2,1.86E2,7.6E1,1.56E2,3E1,3.7E1,3.9E1,1.29E2,2.7E1,6E1,6.9E1,2.5E1,3.5E1,3E1,3.9E1],"tree_param":{"num_deleted":"0","num_feature":"14","num_nodes":"17","size_leaf_vector":"1"}},{"base_weights":[6.232501E-4,2.1302495E-2,-1.4759532E-2,-5.816778E-2,9.9997595E-2,2.1013465E-2,-3.7265554E-2,1.5743889E-1,-1.9882207E-3,-6.1496023E-2,2.5859594E-2,1.0173254E-1,2.7952611E-2,1.6557384E-2,-2.1823967E-2,2.0373106E-2,-3.8033368E-3,-1.5876103E-2,1.7876172E-2],"categories":[],"categories_nodes":[],"categories_segments":[],"categories_sizes":[],"default_left":[0,0,0,0,0,0,0,0,0,0,0,0,0,0,0,0,0,0,0],"id":27,"left_children":[1,3,-1,5,7,9,-1,11,-1,13,-1,15,-1,17,-1,-1,-1,-1,-1],"loss_changes":[9.012033E-1,1.6193285E0,0E0,3.2201285E0,8.9831674E-1,2.0545948E0,0E0,5.700543E-1,0E0,9.5789474E-1,0E0,8.9161533E-1,0E0,1.5355629E0,0E0,0E0,0E0,0E0,0E0],"parents":[2147483647,0,0,1,1,3,3,4,4,5,5,7,7,9,9,11,11,13,13],"right_children":[2,4,-1,6,8,10,-1,12,-1,14,-1,16,-1,18,-1,-1,-1,-1,-1],"split_conditions":[1E0,6.78E0,-1.4759532E-2,5.79E0,1.042E1,4.63E0,-3.7265554E-2,9.4E0,-1.9882207E-3,3.67E0,2.5859594E-2,8.16E0,2.7952611E-2,2.98E0,-2.1823967E-2,2.0373106E-2,-3.8033368E-3,-1.5876103E-2,1.7876172E-2],"split_indices":[13,1,0,1,1,1,0,1,0,1,0,1,0,1,0,0,0,0,0],"split_type":[0,0,0,0,0,0,0,0,0,0,0,0,0,0,0,0,0,0,0],"sum_hessian":[2.92E2,2.57E2,3.5E1,1.28E2,1.29E2,1.03E2,2.5E1,8.7E1,4.2E1,7.7E1,2.6E1,6.1E1,2.6E1,5.2E1,2.5E1,3.5E1,2.6E1,2.5E1,2.7E1],"tree_param":{"num_deleted":"0","num_feature":"14","num_nodes":"19","size_leaf_vector":"1"}},{"base_weights":[1.9932536E-2,-2.2130175E-2,1.1734082E-1,1.4820375E-2,-2.1808857E-2,2.8856335E-2,3.5610672E-2,-3.2001305E-2,2.355014E-2,-6.1499206E-3,1.1104237E-2,5.3943045E-2,-1.7352463E-1,1.9408958E-3,1.2611434E-2,-1.942219E-2,-1.453573E-2,9.300792E-3,-8.920077E-3],"categories":[],"categories_nodes":[],"categories_segments":[],"categories_sizes":[],"default_left":[0,0,0,0,0,0,0,0,0,0,0,0,0,0,0,0,0,0,0],"id":28,"left_children":[1,3,5,7,-1,-1,9,11,-1,-1,-1,13,15,17,-1,-1,-1,-1,-1],"loss_changes":[1.1416341E0,1.4151824E0,1.1652236E0,1.7124246E0,0E0,0E0,4.316885E-1,1.6757094E0,0E0,0E0,0E0,3.225186E-1,2.0837784E-3,4.3159637E-1,0E0,0E0,0E0,0E0,0E0],"parents":[2147483647,0,0,1,1,2,2,3,3,6,6,7,7,11,11,12,12,13,13],"right_children":[2,4,6,8,-1,-1,10,12,-1,-1,-1,14,16,18,-1,-1,-1,-1,-1],"split_conditions":[2.886202E4,2.284358E4,3.166795E4,1.981752E4,-2.1808857E-2,2.8856335E-2,3.509266E4,1.377453E4,2.355014E-2,-6.1499206E-3,1.1104237E-2,8.94302E3,1.722181E4,4.70707E3,1.2611434E-2,-1.942219E-2,-1.453573E-2,9.300792E-3,-8.920077E-3],"split_indices":[3,3,3,3,0,0,3,3,0,0,0,3,3,3,0,0,0,0,0],"split_type":[0,0,0,0,0,0,0,0,0,0,0,0,0,0,0,0,0,0,0],"sum_hessian":[2.77E2,1.94E2,8.3E1,1.64E2,3E1,2.6E1,5.7E1,1.36E2,2.8E1,2.5E1,3.2E1,8.5E1,5.1E1,5E1,3.5E1,2.6E1,2.5E1,2.5E1,2.5E1],"tree_param":{"num_deleted":"0","num_feature":"14","num_nodes":"19","size_leaf_vector":"1"}},{"base_weights":[1.261773E-2,-1.2104255E-2,1.1129181E-1,-2.496409E-2,1.977675E-2,2.0556059E-2,1.3313318E-3,2.1710996E-2,-8.21477E-3,-7.549165E-2,5.031075E-2,-1.7553759E-1,1.6213505E-2,1.3246188E-1,-1.7366491E-2,9.688283E-3,-3.6740962E-2,-9.896807E-3,2.5506014E-2],"categories":[],"categories_nodes":[],"categories_segments":[],"categories_sizes":[],"default_left":[0,0,0,0,0,0,0,0,0,0,0,0,0,0,0,0,0,0,0],"id":29,"left_children":[1,3,5,-1,7,-1,-1,-1,9,11,13,15,-1,17,-1,-1,-1,-1,-1],"loss_changes":[7.185364E-1,1.7921432E0,5.422057E-1,0E0,1.1562276E0,0E0,0E0,0E0,7.282823E-1,2.0729892E0,1.8445892E0,3.2240572E0,0E0,2.0964653E0,0E0,0E0,0E0,0E0,0E0],"parents":[2147483647,0,0,1,1,2,2,4,4,8,8,9,9,10,10,11,11,13,13],"right_children":[2,4,6,-1,8,-1,-1,-1,10,12,14,16,-1,18,-1,-1,-1,-1,-1],"split_conditions":[3.210435E4,4.3E-1,3.94E0,-2.496409E-2,1.82E0,2.0556059E-2,1.3313318E-3,2.1710996E-2,5.68E0,2.232072E4,2.337981E4,9.65412E3,1.6213505E-2,1.004955E4,-1.7366491E-2,9.688283E-3,-3.6740962E-2,-9.896807E-3,2.5506014E-2],"split_indices":[3,2,2,0,2,0,0,0,2,3,3,3,0,3,0,0,0,0,0],"split_type":[0,0,0,0,0,0,0,0,0,0,0,0,0,0,0,0,0,0,0],"sum_hessian":[2.93E2,2.35E2,5.8E1,2.7E1,2.08E2,2.9E1,2.9E1,2.5E1,1.83E2,8.5E1,9.8E1,6E1,2.5E1,7.2E1,2.6E1,2.5E1,3.5E1,2.5E1,4.7E1],"tree_param":{"num_deleted":"0","num_feature":"14","num_nodes":"19","size_leaf_vector":"1"}},{"base_weights":[-3.1280283E-2,-5.2031152E-2,1.6509011E-2,-1.2837835E-2,-1.5286973E-1,-4.756452E-2,1.8233815E-2,-9.1913296E-4,-2.7052402E-2,-2.257696E-2,-1.6703881E-2,2.0019555E-2,-1.9537134E-2,-3.3768535E-2,1.7865023E-2,5.0495565E-3,-1.6858907E-2],"categories":[],"categories_nodes":[],"categories_segments":[],"categories_sizes":[],"default_left":[0,0,0,0,0,0,0,0,0,0,0,0,0,0,0,0,0],"id":30,"left_children":[1,3,-1,5,7,9,-1,-1,-1,11,-1,13,-1,15,-1,-1,-1],"loss_changes":[1.1495495E0,1.0018958E0,0E0,1.2557907E0,1.1977245E0,4.6493208E-1,0E0,0E0,0E0,9.681287E-1,0E0,9.104713E-1,0E0,9.173555E-1,0E0,0E0,0E0],"parents":[2147483647,0,0,1,1,3,3,4,4,5,5,9,9,11,11,13,13],"right_children":[2,4,-1,6,8,10,-1,-1,-1,12,-1,14,-1,16,-1,-1,-1],"split_conditions":[9.01E0,4.91E0,1.6509011E-2,3.89E0,4.79E0,7.07E0,1.8233815E-2,-9.1913296E-4,-2.7052402E-2,2.19E0,-1.6703881E-2,8.9E-1,-1.9537134E-2,-1.2E0,1.7865023E-2,5.0495565E-3,-1.6858907E-2],"split_indices":[2,0,0,0,2,2,0,0,0,0,0,0,0,0,0,0,0],"split_type":[0,0,0,0,0,0,0,0,0,0,0,0,0,0,0,0,0],"sum_hessian":[2.79E2,2.53E2,2.6E1,1.83E2,7E1,1.56E2,2.7E1,3.2E1,3.8E1,1.3E2,2.6E1,1.05E2,2.5E1,7.9E1,2.6E1,4.9E1,3E1],"tree_param":{"num_deleted":"0","num_feature":"14","num_nodes":"17","size_leaf_vector":"1"}},{"base_weights":[3.1558834E-2,8.0760516E-2,-8.500497E-3,-1.4726974E-3,1.3450627E-1,-1.673394E-2,2.6998186E-2,2.2635592E-2,6.1291503E-3,5.8317754E-2,-6.682956E-3,2.3152472E-3,1.9824132E-2,-1.1468775E-2,1.3301521E-2],"categories":[],"categories_nodes":[],"categories_segments":[],"categories_sizes":[],"default_left":[0,0,0,0,0,0,0,0,0,0,0,0,0,0,0],"id":31,"left_children":[1,3,5,-1,7,-1,9,-1,-1,11,-1,13,-1,-1,-1],"loss_changes":[5.624176E-1,6.5888286E-1,8.9541227E-1,0E0,5.3755593E-1,0E0,3.8592112E-1,0E0,0E0,7.6747596E-1,0E0,1.1010075E0,0E0,0E0,0E0],"parents":[2147483647,0,0,1,1,2,2,4,4,6,6,9,9,11,11],"right_children":[2,4,6,-1,8,-1,10,-1,-1,12,-1,14,-1,-1,-1],"split_conditions":[1.850373E4,7.86772E3,2.186599E4,-1.4726974E-3,1.342575E4,-1.673394E-2,3.542664E4,2.2635592E-2,6.1291503E-3,3.210435E4,-6.682956E-3,6.43E0,1.9824132E-2,-1.1468775E-2,1.3301521E-2],"split_indices":[3,3,3,0,3,0,3,0,0,3,0,1,0,0,0],"split_type":[0,0,0,0,0,0,0,0,0,0,0,0,0,0,0],"sum_hessian":[2.84E2,1.27E2,1.57E2,4.6E1,8.1E1,2.8E1,1.29E2,3.5E1,4.6E1,9.7E1,3.2E1,7E1,2.7E1,3.7E1,3.3E1],"tree_param":{"num_deleted":"0","num_feature":"14","num_nodes":"15","size_leaf_vector":"1"}},{"base_weights":[1.9733457E-2,7.681083E-2,-2.8305164E-2,2.5387961E-2,2.7424946E-2,-2.5756842E-2,3.0110164E-2,2.2313584E-2,-6.7232884E-2,1.1447606E-1,-2.3183776E-2,-2.2947095E-2,6.5703476E-3,1.9818947E-1,-6.6992315E-3,3.476534E-2,8.582434E-4],"categories":[],"categories_nodes":[],"categories_segments":[],"categories_sizes":[],"default_left":[0,0,0,0,0,0,0,0,0,0,0,0,0,0,0,0,0],"id":32,"left_children":[1,3,5,7,-1,-1,9,-1,11,13,-1,-1,-1,15,-1,-1,-1],"loss_changes":[8.165239E-1,1.3738265E0,2.1773384E0,2.0113997E0,0E0,0E0,2.8994713E0,0E0,1.6326274E0,1.5172195E0,0E0,0E0,0E0,1.9240961E0,0E0,0E0,0E0],"parents":[2147483647,0,0,1,1,2,2,3,3,6,6,8,8,9,9,13,13],"right_children":[2,4,6,8,-1,-1,10,-1,12,14,-1,-1,-1,16,-1,-1,-1],"split_conditions":[1.890838E4,1.650048E4,-1.69E0,2.89E0,2.7424946E-2,-2.5756842E-2,6.55E0,2.2313584E-2,5.98E0,6.16E0,-2.3183776E-2,-2.2947095E-2,6.5703476E-3,3.082405E4,-6.6992315E-3,3.476534E-2,8.582434E-4],"split_indices":[3,3,0,2,0,0,0,0,2,2,0,0,0,3,0,0,0],"split_type":[0,0,0,0,0,0,0,0,0,0,0,0,0,0,0,0,0],"sum_hessian":[2.96E2,1.35E2,1.61E2,1.08E2,2.7E1,3.2E1,1.29E2,3.4E1,7.4E1,9.8E1,3.1E1,3.3E1,4.1E1,6.7E1,3.1E1,3.7E1,3E1],"tree_param":{"num_deleted":"0","num_feature":"14","num_nodes":"17","size_leaf_vector":"1"}},{"base_weights":[-9.456832E-3,-2.2620892E-2,1.1528338E-2,4.695542E-2,-5.4925863E-2,1.3205773E-1,-6.940978E-2,-2.1555899E-2,3.145831E-2,7.300519E-2,2.9338865E-2,-1.972706E-2,1.1843366E-2,-6.763976E-3,1.0490802E-2,1.2400468E-2,6.3586276E-4],"categories":[],"categories_nodes":[],"categories_segments":[],"categories_sizes":[],"default_left":[0,0,0,0,0,0,0,0,0,0,0,0,0,0,0,0,0],"id":33,"left_children":[1,-1,3,5,7,9,11,-1,13,15,-1,-1,-1,-1,-1,-1,-1],"loss_changes":[1.3398901E0,0E0,6.3587993E-1,1.7520846E0,1.3111401E0,9.50335E-1,1.8246996E0,0E0,4.5837685E-1,2.5753102E-1,0E0,0E0,0E0,0E0,0E0,0E0,0E0],"parents":[2147483647,0,0,2,2,3,3,4,4,5,5,6,6,8,8,9,9],"right_children":[2,-1,4,6,8,10,12,-1,14,16,-1,-1,-1,-1,-1,-1,-1],"split_conditions":[-3.3E0,-2.2620892E-2,6.32E0,3.1E0,7.8E0,1.36E0,7.14E0,-2.1555899E-2,2.65E0,-8.1E-1,2.9338865E-2,-1.972706E-2,1.1843366E-2,-6.763976E-3,1.0490802E-2,1.2400468E-2,6.3586276E-4],"split_indices":[0,0,2,0,2,0,0,0,0,0,0,0,0,0,0,0,0],"split_type":[0,0,0,0,0,0,0,0,0,0,0,0,0,0,0,0,0],"sum_hessian":[2.93E2,2.5E1,2.68E2,1.75E2,9.3E1,1.01E2,7.4E1,3.2E1,6.1E1,7.5E1,2.6E1,4.4E1,3E1,2.6E1,3.5E1,4.2E1,3.3E1],"tree_param":{"num_deleted":"0","num_feature":"14","num_nodes":"17","size_leaf_vector":"1"}},{"base_weights":[1.198885E-2,3.493871E-2,-2.1885358E-2,-1.9641183E-2,9.3573056E-2,-2.3063738E-2,3.4739867E-2,4.0138606E-2,2.6322534E-2,2.341578E-2,-8.425832E-2,1.1004614E-1,-1.4517895E-2,-2.6527852E-2,5.3613293E-3,-4.664273E-3,2.1934664E-2],"categories":[],"categories_nodes":[],"categories_segments":[],"categories_sizes":[],"default_left":[0,0,0,0,0,0,0,0,0,0,0,0,0,0,0,0,0],"id":34,"left_children":[1,3,-1,5,7,-1,9,11,-1,-1,13,15,-1,-1,-1,-1,-1],"loss_changes":[1.5228179E0,8.371049E-1,0E0,1.5685028E0,1.1316594E0,0E0,2.60634E0,1.2726204E0,0E0,0E0,1.7362932E0,1.2261889E0,0E0,0E0,0E0,0E0,0E0],"parents":[2147483647,0,0,1,1,3,3,4,4,6,6,7,7,10,10,11,11],"right_children":[2,4,-1,6,8,-1,10,12,-1,-1,14,16,-1,-1,-1,-1,-1],"split_conditions":[1.12E1,6.78E0,-2.1885358E-2,1.089902E4,5.86E0,-2.3063738E-2,2.211341E4,3.23E0,2.6322534E-2,2.341578E-2,3.060369E4,-1.14E0,-1.4517895E-2,-2.6527852E-2,5.3613293E-3,-4.664273E-3,2.1934664E-2],"split_indices":[1,1,0,3,0,0,3,0,0,0,3,0,0,0,0,0,0],"split_type":[0,0,0,0,0,0,0,0,0,0,0,0,0,0,0,0,0],"sum_hessian":[2.85E2,2.6E2,2.5E1,1.35E2,1.25E2,2.7E1,1.08E2,9.6E1,2.9E1,4E1,6.8E1,7E1,2.6E1,2.9E1,3.9E1,2.9E1,4.1E1],"tree_param":{"num_deleted":"0","num_feature":"14","num_nodes":"17","size_leaf_vector":"1"}},{"base_weights":[-6.216636E-4,-2.3093663E-2,1.6247861E-2,-1.3907584E-2,-5.7490426E-3,1.9219974E-2,-3.2988165E-2,-1.9603383E-2,-4.6470193E-3,2.398692E-2,-4.907202E-2,-1.340358E-1,1.2200588E-2,-3.4200803E-3,-2.6327386E-2,1.8122008E-2,-9.529641E-3],"categories":[],"categories_nodes":[],"categories_segments":[],"categories_sizes":[],"default_left":[0,0,0,0,0,0,0,0,0,0,0,0,0,0,0,0,0],"id":35,"left_children":[1,3,-1,-1,5,-1,7,-1,9,-1,11,13,15,-1,-1,-1,-1],"loss_changes":[1.0593266E0,5.101639E-1,0E0,0E0,1.2033533E0,0E0,9.047855E-1,0E0,1.8366932E0,0E0,7.4608654E-1,7.651447E-1,1.5434729E0,0E0,0E0,0E0,0E0],"parents":[2147483647,0,0,1,1,4,4,6,6,8,8,10,10,11,11,12,12],"right_children":[2,4,-1,-1,6,-1,8,-1,10,-1,12,14,16,-1,-1,-1,-1],"split_conditions":[8.73E0,4.3E-1,1.6247861E-2,-1.3907584E-2,1.36E0,1.9219974E-2,2.47E0,-1.9603383E-2,3.65E0,2.398692E-2,5.68E0,5.04E0,6.97E0,-3.4200803E-3,-2.6327386E-2,1.8122008E-2,-9.529641E-3],"split_indices":[2,2,0,0,2,0,2,0,2,0,2,2,2,0,0,0,0],"split_type":[0,0,0,0,0,0,0,0,0,0,0,0,0,0,0,0,0],"sum_hessian":[2.87E2,2.53E2,3.4E1,3.2E1,2.21E2,2.6E1,1.95E2,2.8E1,1.67E2,2.5E1,1.42E2,5.9E1,8.3E1,3.4E1,2.5E1,3.2E1,5.1E1],"tree_param":{"num_deleted":"0","num_feature":"14","num_nodes":"17","size_leaf_vector":"1"}},{"base_weights":[7.854976E-3,2.5227213E-2,-1.7017849E-2,-4.5060087E-2,1.0251063E-1,2.5250452E-2,-2.1545019E-2,1.7763881E-1,-5.940795E-3,-1.1362651E-1,1.7806772E-2,2.6408216E-2,1.3433793E-1,-2.4317692E-3,-1.9872693E-2,6.2668794E-3,2.2564879E-2],"categories":[],"categories_nodes":[],"categories_segments":[],"categories_sizes":[],"default_left":[0,0,0,0,0,0,0,0,0,0,0,0,0,0,0,0,0],"id":36,"left_children":[1,3,-1,5,7,9,-1,11,-1,13,-1,-1,15,-1,-1,-1,-1],"loss_changes":[9.043094E-1,1.4495426E0,0E0,1.6826708E0,1.5554633E0,2.1425128E0,0E0,2.9017115E-1,0E0,3.9797896E-1,0E0,0E0,3.7850916E-1,0E0,0E0,0E0,0E0],"parents":[2147483647,0,0,1,1,3,3,4,4,5,5,7,7,9,9,12,12],"right_children":[2,4,-1,6,8,10,-1,12,-1,14,-1,-1,16,-1,-1,-1,-1],"split_conditions":[1.12E1,6.78E0,-1.7017849E-2,5.15E0,6.97E0,4.47E0,-2.1545019E-2,1.99E0,-5.940795E-3,3.41E0,1.7806772E-2,2.6408216E-2,5.41E0,-2.4317692E-3,-1.9872693E-2,6.2668794E-3,2.2564879E-2],"split_indices":[1,1,0,1,2,2,0,2,0,1,0,0,2,0,0,0,0],"split_type":[0,0,0,0,0,0,0,0,0,0,0,0,0,0,0,0,0],"sum_hessian":[2.9E2,2.65E2,2.5E1,1.39E2,1.26E2,9.9E1,4E1,8.6E1,4E1,5.2E1,4.7E1,2.7E1,5.9E1,2.6E1,2.6E1,3.4E1,2.5E1],"tree_param":{"num_deleted":"0","num_feature":"14","num_nodes":"17","size_leaf_vector":"1"}},{"base_weights":[1.6188245E-2,-2.7562793E-2,1.1177454E-1,6.859389E-2,-9.2520185E-2,2.1082129E-1,-1.0383486E-2,-2.6507096E-3,1.2319067E-1,-3.021282E-2,-3.2925256E-2,6.8856687E-3,3.0488232E-2,7.1563325E-3,1.7007992E-2,2.2355808E-2,-1.3579279E-1,-5.3222575E-3,-2.0976491E-2],"categories":[],"categories_nodes":[],"categories_segments":[],"categories_sizes":[],"default_left":[0,0,0,0,0,0,0,0,0,0,0,0,0,0,0,0,0,0,0],"id":37,"left_children":[1,3,5,7,9,11,-1,-1,13,-1,15,-1,-1,-1,-1,-1,17,-1,-1],"loss_changes":[1.1991327E0,1.2368256E0,1.9438776E0,4.1864198E-1,1.4640579E0,8.069136E-1,0E0,0E0,1.1128765E-1,0E0,2.4840517E0,0E0,0E0,0E0,0E0,0E0,3.9806473E-1,0E0,0E0],"parents":[2147483647,0,0,1,1,2,2,3,3,4,4,5,5,8,8,10,10,16,16],"right_children":[2,4,6,8,10,12,-1,-1,14,-1,16,-1,-1,-1,-1,-1,18,-1,-1],"split_conditions":[2.886202E4,1.342575E4,3.589107E4,8.1E-1,-1.54E0,3.14726E4,-1.0383486E-2,-2.6507096E-3,6.87E0,-3.021282E-2,8E-1,6.8856687E-3,3.0488232E-2,7.1563325E-3,1.7007992E-2,2.2355808E-2,1.890838E4,-5.3222575E-3,-2.0976491E-2],"split_indices":[3,3,3,0,0,3,0,0,1,0,0,0,0,0,0,0,3,0,0],"split_type":[0,0,0,0,0,0,0,0,0,0,0,0,0,0,0,0,0,0,0],"sum_hessian":[2.85E2,1.96E2,8.9E1,7.9E1,1.17E2,6.1E1,2.8E1,2.9E1,5E1,2.5E1,9.2E1,2.5E1,3.6E1,2.5E1,2.5E1,2.6E1,6.6E1,3.2E1,3.4E1],"tree_param":{"num_deleted":"0","num_feature":"14","num_nodes":"19","size_leaf_vector":"1"}},{"base_weights":[-8.94481E-3,-2.5478585E-2,1.6182428E-2,2.280492E-2,-5.435451E-2,1.8088717E-2,-5.657157E-2,-1.0683151E-1,7.1627847E-3,6.375454E-3,-2.2058787E-2,3.546287E-3,-2.069442E-1,-1.02086505E-2,-3.8046926E-2],"categories":[],"categories_nodes":[],"categories_segments":[],"categories_sizes":[],"default_left":[0,0,0,0,0,0,0,0,0,0,0,0,0,0,0],"id":38,"left_children":[1,3,-1,5,7,-1,9,11,-1,-1,-1,-1,13,-1,-1],"loss_changes":[8.313963E-1,3.7489343E-1,0E0,1.2775824E0,1.1183299E0,0E0,1.3560735E0,1.7025499E0,0E0,0E0,0E0,0E0,1.2348402E0,0E0,0E0],"parents":[2147483647,0,0,1,1,3,3,4,4,6,6,7,7,12,12],"right_children":[2,4,-1,6,8,-1,10,12,-1,-1,-1,-1,14,-1,-1],"split_conditions":[1E0,3.56E0,1.6182428E-2,1.570244E4,9.4E0,1.8088717E-2,7.25E0,4.96E0,7.1627847E-3,6.375454E-3,-2.2058787E-2,3.546287E-3,2.115481E4,-1.02086505E-2,-3.8046926E-2],"split_indices":[5,2,0,3,1,0,1,1,0,0,0,0,3,0,0],"split_type":[0,0,0,0,0,0,0,0,0,0,0,0,0,0,0],"sum_hessian":[2.92E2,2.67E2,2.5E1,1E2,1.67E2,3.3E1,6.7E1,1.18E2,4.9E1,3.9E1,2.8E1,4.9E1,6.9E1,4.4E1,2.5E1],"tree_param":{"num_deleted":"0","num_feature":"14","num_nodes":"15","size_leaf_vector":"1"}},{"base_weights":[2.7281746E-2,1.2230268E-2,1.7009655E-2,3.0798174E-2,-1.5463713E-2,-1.3288289E-2,9.613122E-2,4.105493E-2,-1.7142024E-2,2.1276806E-2,1.6686825E-2,1.5594375E-2,-3.2045018E-2,1.2352458E-2,-9.072634E-3,1.0595111E-2,-1.4615166E-2],"categories":[],"categories_nodes":[],"categories_segments":[],"categories_sizes":[],"default_left":[0,0,0,0,0,0,0,0,0,0,0,0,0,0,0,0,0],"id":39,"left_children":[1,3,-1,5,-1,7,9,11,-1,-1,13,-1,15,-1,-1,-1,-1],"loss_changes":[6.083986E-1,8.041441E-1,0E0,6.72388E-1,0E0,1.2101134E0,8.674669E-1,8.868258E-1,0E0,0E0,6.6532654E-1,0E0,1.0389928E0,0E0,0E0,0E0,0E0],"parents":[2147483647,0,0,1,1,3,3,5,5,6,6,7,7,10,10,12,12],"right_children":[2,4,-1,6,-1,8,10,12,-1,-1,14,-1,16,-1,-1,-1,-1],"split_conditions":[9.01E0,8.22E0,1.7009655E-2,2.477561E4,-1.5463713E-2,1.890838E4,3.160961E4,5.93E0,-1.7142024E-2,2.1276806E-2,3.36E0,1.5594375E-2,9.34432E3,1.2352458E-2,-9.072634E-3,1.0595111E-2,-1.4615166E-2],"split_indices":[2,2,0,3,0,3,3,1,0,0,2,0,3,0,0,0,0],"split_type":[0,0,0,0,0,0,0,0,0,0,0,0,0,0,0,0,0],"sum_hessian":[2.83E2,2.57E2,2.6E1,2.32E2,2.5E1,1.39E2,9.3E1,1.04E2,3.5E1,3.7E1,5.6E1,4E1,6.4E1,2.8E1,2.8E1,2.9E1,3.5E1],"tree_param":{"num_deleted":"0","num_feature":"14","num_nodes":"17","size_leaf_vector":"1"}},{"base_weights":[-1.1745723E-2,3.2553175E-3,-1.5437188E-2,-1.4010252E-2,1.9302648E-2,1.2921375E-1,-2.202369E-2,2.9650101E-2,-6.9223507E-3,-1.02964014E-1,6.1960824E-2,-1.1156101E-2,-3.2852363E-2,-3.6651175E-2,2.3259556E-2,-1.2452624E-2,1.5301396E-2,-1.4091397E-2,8.90718E-3],"categories":[],"categories_nodes":[],"categories_segments":[],"categories_sizes":[],"default_left":[0,0,0,0,0,0,0,0,0,0,0,0,0,0,0,0,0,0,0],"id":40,"left_children":[1,3,-1,-1,5,7,9,-1,-1,11,13,15,-1,17,-1,-1,-1,-1,-1],"loss_changes":[6.2952745E-1,6.169406E-1,0E0,0E0,1.0975215E0,2.2114623E0,1.2027808E0,0E0,0E0,1.8600689E0,1.4724418E0,1.2288331E0,0E0,7.466122E-1,0E0,0E0,0E0,0E0,0E0],"parents":[2147483647,0,0,1,1,4,4,5,5,6,6,9,9,10,10,11,11,13,13],"right_children":[2,4,-1,-1,6,8,10,-1,-1,12,14,16,-1,18,-1,-1,-1,-1,-1],"split_conditions":[1.12E1,-3.2E0,-1.5437188E-2,-1.4010252E-2,1.4E-1,5.93E0,6.72E0,2.9650101E-2,-6.9223507E-3,5.15E0,5.86E0,4.17E0,-3.2852363E-2,1.978042E4,2.3259556E-2,-1.2452624E-2,1.5301396E-2,-1.4091397E-2,8.90718E-3],"split_indices":[1,0,0,0,0,1,1,0,0,1,0,1,0,3,0,0,0,0,0],"split_type":[0,0,0,0,0,0,0,0,0,0,0,0,0,0,0,0,0,0,0],"sum_hessian":[2.93E2,2.66E2,2.7E1,2.6E1,2.4E2,6.5E1,1.75E2,3.5E1,3E1,8.9E1,8.6E1,6.4E1,2.5E1,5.5E1,3.1E1,3.8E1,2.6E1,3E1,2.5E1],"tree_param":{"num_deleted":"0","num_feature":"14","num_nodes":"19","size_leaf_vector":"1"}},{"base_weights":[-1.7387051E-2,-3.2149382E-2,1.2486595E-2,-4.9064673E-2,1.0915406E-2,-9.954189E-3,-1.4324357E-1,-8.6706065E-2,1.8458683E-2,-2.4286006E-2,-4.794948E-3,-3.6042243E-2,-2.5007626E-2,1.2658546E-2,-1.129119E-1,-2.7531696E-2,3.3707605E-3],"categories":[],"categories_nodes":[],"categories_segments":[],"categories_sizes":[],"default_left":[0,0,0,0,0,0,0,0,0,0,0,0,0,0,0,0,0],"id":41,"left_children":[1,3,-1,5,-1,7,9,11,-1,-1,-1,13,-1,-1,15,-1,-1],"loss_changes":[6.025104E-1,6.2441444E-1,0E0,8.531188E-1,0E0,2.4796839E0,6.338694E-1,9.759448E-1,0E0,0E0,0E0,1.1643975E0,0E0,0E0,1.5094206E0,0E0,0E0],"parents":[2147483647,0,0,1,1,3,3,5,5,6,6,7,7,11,11,14,14],"right_children":[2,4,-1,6,-1,8,10,12,-1,-1,-1,14,-1,-1,16,-1,-1],"split_conditions":[9.01E0,1E0,1.2486595E-2,6.32E0,1.0915406E-2,4.48E0,2.43E0,3.26E0,1.8458683E-2,-2.4286006E-2,-4.794948E-3,-5.2E-1,-2.5007626E-2,1.2658546E-2,3.6E0,-2.7531696E-2,3.3707605E-3],"split_indices":[2,11,0,2,0,2,0,2,0,0,0,0,0,0,0,0,0],"split_type":[0,0,0,0,0,0,0,0,0,0,0,0,0,0,0,0,0],"sum_hessian":[2.84E2,2.58E2,2.6E1,2.31E2,2.7E1,1.64E2,6.7E1,1.18E2,4.6E1,3.2E1,3.5E1,9.1E1,2.7E1,2.9E1,6.2E1,2.9E1,3.3E1],"tree_param":{"num_deleted":"0","num_feature":"14","num_nodes":"17","size_leaf_vector":"1"}},{"base_weights":[1.5320158E-2,-1.4169464E-2,3.0907167E-2,-5.4819036E-2,6.459953E-2,3.3204876E-2,-2.2875844E-2,1.8093137E-2,3.8021117E-2,1.4059819E-2,-7.144072E-3,-8.568053E-2,9.502805E-2,-2.4539052E-2,7.7324854E-3,3.053539E-2,1.2338935E-2,1.4001437E-1,-2.051206E-2,1.5918164E-3,2.5872542E-2],"categories":[],"categories_nodes":[],"categories_segments":[],"categories_sizes":[],"default_left":[0,0,0,0,0,0,0,0,0,0,0,0,0,0,0,0,0,0,0,0,0],"id":42,"left_children":[1,-1,3,5,7,9,-1,-1,11,-1,-1,13,15,-1,-1,-1,17,19,-1,-1,-1],"loss_changes":[7.312545E-1,0E0,7.862754E-1,1.1865296E0,5.9604436E-1,5.944328E-1,0E0,0E0,1.1364383E0,0E0,0E0,1.3466874E0,1.9093148E0,0E0,0E0,0E0,2.2498593E0,7.471926E-1,0E0,0E0,0E0],"parents":[2147483647,0,0,2,2,3,3,4,4,5,5,8,8,11,11,12,12,16,16,17,17],"right_children":[2,-1,4,6,8,10,-1,-1,12,-1,-1,14,16,-1,-1,-1,18,20,-1,-1,-1],"split_conditions":[-3.3E0,-1.4169464E-2,2.13E0,1.07E0,3.94E0,1.99E0,-2.2875844E-2,1.8093137E-2,1.401066E4,1.4059819E-2,-7.144072E-3,3.96E0,2.042358E4,-2.4539052E-2,7.7324854E-3,3.053539E-2,4.48E0,7.4E-1,-2.051206E-2,1.5918164E-3,2.5872542E-2],"split_indices":[0,0,2,2,2,0,0,0,3,0,0,0,3,0,0,0,0,0,0,0,0],"split_type":[0,0,0,0,0,0,0,0,0,0,0,0,0,0,0,0,0,0,0,0,0],"sum_hessian":[2.96E2,2.6E1,2.7E2,7.6E1,1.94E2,5.1E1,2.5E1,3.5E1,1.59E2,2.5E1,2.6E1,5E1,1.09E2,2.5E1,2.5E1,3E1,7.9E1,5E1,2.9E1,2.5E1,2.5E1],"tree_param":{"num_deleted":"0","num_feature":"14","num_nodes":"21","size_leaf_vector":"1"}},{"base_weights":[8.807542E-3,1.2610534E-2,-1.2071025E-2,-7.89164E-2,6.6221975E-2,-2.7104065E-2,-2.6431829E-2,2.2050103E-2,1.7540866E-3,3.8170047E-2,-2.03143E-2,-7.411729E-2,1.6218377E-2,1.2538715E-2,-9.5293615E-3,1.0764607E-2,-2.2917496E-2],"categories":[],"categories_nodes":[],"categories_segments":[],"categories_sizes":[],"default_left":[0,0,0,0,0,0,0,0,0,0,0,0,0,0,0,0,0],"id":43,"left_children":[1,-1,3,5,7,-1,9,-1,11,13,-1,15,-1,-1,-1,-1,-1],"loss_changes":[6.9704103E-1,0E0,1.271739E0,1.3137822E0,1.1135702E0,0E0,1.1950048E0,0E0,9.8578215E-1,9.082526E-1,0E0,1.5747788E0,0E0,0E0,0E0,0E0,0E0],"parents":[2147483647,0,0,2,2,3,3,4,4,6,6,8,8,9,9,11,11],"right_children":[2,-1,4,6,8,-1,10,-1,12,14,-1,16,-1,-1,-1,-1,-1],"split_conditions":[8.2E-1,1.2610534E-2,5.68E0,-1.51E0,6.97E0,-2.7104065E-2,5.58E0,2.2050103E-2,9.3E0,4.26E0,-2.03143E-2,5.09E0,1.6218377E-2,1.2538715E-2,-9.5293615E-3,1.0764607E-2,-2.2917496E-2],"split_indices":[2,0,2,0,2,0,0,0,1,2,0,1,0,0,0,0,0],"split_type":[0,0,0,0,0,0,0,0,0,0,0,0,0,0,0,0,0],"sum_hessian":[2.83E2,4.2E1,2.41E2,1.3E2,1.11E2,2.7E1,1.03E2,3.2E1,7.9E1,7.6E1,2.7E1,5.4E1,2.5E1,4.6E1,3E1,2.5E1,2.9E1],"tree_param":{"num_deleted":"0","num_feature":"14","num_nodes":"17","size_leaf_vector":"1"}},{"base_weights":[1.3764858E-2,3.3078395E-2,-1.2181225E-2,-2.1951515E-4,2.095628E-2,2.9238893E-2,-1.9589966E-2,-4.5681763E-2,1.062848E-1,1.8698893E-2,-2.1725731E-2,3.452915E-2,1.1949589E-2,1.3852634E-2,-6.4484314E-3,-1.0958774E-2,9.169492E-3],"categories":[],"categories_nodes":[],"categories_segments":[],"categories_sizes":[],"default_left":[0,0,0,0,0,0,0,0,0,0,0,0,0,0,0,0,0],"id":44,"left_children":[1,3,-1,5,-1,7,-1,9,11,13,-1,-1,15,-1,-1,-1,-1],"loss_changes":[7.5553125E-1,1.4809396E0,0E0,1.2335505E0,0E0,1.0785086E0,0E0,1.0534464E0,2.0701747E0,7.06667E-1,0E0,0E0,6.5941495E-1,0E0,0E0,0E0,0E0],"parents":[2147483647,0,0,1,1,3,3,5,5,7,7,8,8,9,9,12,12],"right_children":[2,4,-1,6,-1,8,-1,10,12,14,-1,-1,16,-1,-1,-1,-1],"split_conditions":[7.54E0,5.07E0,-1.2181225E-2,4.18E0,2.095628E-2,2.099609E4,-1.9589966E-2,1.703265E4,2.57823E4,-8.1E-1,-2.1725731E-2,3.452915E-2,3.210435E4,1.3852634E-2,-6.4484314E-3,-1.0958774E-2,9.169492E-3],"split_indices":[0,0,0,0,0,3,0,3,3,0,0,0,3,0,0,0,0],"split_type":[0,0,0,0,0,0,0,0,0,0,0,0,0,0,0,0,0],"sum_hessian":[2.86E2,2.51E2,3.5E1,2.12E2,3.9E1,1.85E2,2.7E1,9.4E1,9.1E1,6.9E1,2.5E1,2.5E1,6.6E1,2.8E1,4.1E1,2.6E1,4E1],"tree_param":{"num_deleted":"0","num_feature":"14","num_nodes":"17","size_leaf_vector":"1"}},{"base_weights":[-7.0836702E-3,-1.1736327E-2,1.5281326E-2,-1.0383953E-2,1.997214E-2,1.5142563E-2,-1.520507E-2,-3.0241234E-2,1.7247269E-2,4.6721783E-2,-1.6395627E-1,-3.697302E-2,2.3037735E-2,-3.0023009E-2,-2.1376442E-3,8.885545E-3,-1.5771395E-2],"categories":[],"categories_nodes":[],"categories_segments":[],"categories_sizes":[],"default_left":[0,0,0,0,0,0,0,0,0,0,0,0,0,0,0,0,0],"id":45,"left_children":[1,-1,3,5,-1,7,-1,9,-1,11,13,15,-1,-1,-1,-1,-1],"loss_changes":[7.0225185E-1,0E0,1.123962E0,7.581004E-1,0E0,1.2761782E0,0E0,1.4381249E0,0E0,1.376538E0,9.845072E-1,9.5595765E-1,0E0,0E0,0E0,0E0,0E0],"parents":[2147483647,0,0,2,2,3,3,5,5,7,7,9,9,10,10,11,11],"right_children":[2,-1,4,6,-1,8,-1,10,-1,12,14,16,-1,-1,-1,-1,-1],"split_conditions":[8.94302E3,-1.1736327E-2,8.79E0,7.76E0,1.997214E-2,5.68E0,-1.520507E-2,3.56E0,1.7247269E-2,2.2E0,2.232072E4,1.99E0,2.3037735E-2,-3.0023009E-2,-2.1376442E-3,8.885545E-3,-1.5771395E-2],"split_indices":[3,0,2,2,0,2,0,2,0,2,3,0,0,0,0,0,0],"split_type":[0,0,0,0,0,0,0,0,0,0,0,0,0,0,0,0,0],"sum_hessian":[2.83E2,4.7E1,2.36E2,2.08E2,2.8E1,1.77E2,3.1E1,1.38E2,3.9E1,8.8E1,5E1,6.1E1,2.7E1,2.5E1,2.5E1,3E1,3.1E1],"tree_param":{"num_deleted":"0","num_feature":"14","num_nodes":"17","size_leaf_vector":"1"}},{"base_weights":[-4.709375E-5,-6.73146E-2,5.491033E-2,-1.5181366E-1,7.614796E-3,1.9839121E-2,-8.627165E-3,-4.8138376E-2,-3.3893157E-2,-2.4180433E-2,1.0808124E-1,1.6162951E-3,-1.1306136E-2,2.600179E-2,-5.107814E-3],"categories":[],"categories_nodes":[],"categories_segments":[],"categories_sizes":[],"default_left":[0,0,0,0,0,0,0,0,0,0,0,0,0,0,0],"id":46,"left_children":[1,3,5,7,-1,-1,9,11,-1,-1,13,-1,-1,-1,-1],"loss_changes":[1.0277234E0,1.5268667E0,1.3965231E0,1.5162454E0,0E0,0E0,2.9380038E0,2.1890834E-1,0E0,0E0,1.7543955E0,0E0,0E0,0E0,0E0],"parents":[2147483647,0,0,1,1,2,2,3,3,6,6,7,7,10,10],"right_children":[2,4,6,8,-1,-1,10,12,-1,-1,14,-1,-1,-1,-1],"split_conditions":[4.47E0,3.96E0,5.09E0,2.33E0,7.614796E-3,1.9839121E-2,1.400504E4,5.93E0,-3.3893157E-2,-2.4180433E-2,2.284358E4,1.6162951E-3,-1.1306136E-2,2.600179E-2,-5.107814E-3],"split_indices":[2,0,1,2,0,0,3,1,0,0,3,0,0,0,0],"split_type":[0,0,0,0,0,0,0,0,0,0,0,0,0,0,0],"sum_hessian":[2.76E2,1.24E2,1.52E2,7.8E1,4.6E1,4.6E1,1.06E2,5.1E1,2.7E1,3.5E1,7.1E1,2.6E1,2.5E1,3.6E1,3.5E1],"tree_param":{"num_deleted":"0","num_feature":"14","num_nodes":"15","size_leaf_vector":"1"}},{"base_weights":[-1.2464602E-2,1.0577431E-2,-2.0001166E-2,7.718518E-2,-3.6944278E-2,-1.5565923E-2,1.4833719E-1,-1.9043723E-2,1.9074792E-2,2.2561094E-1,-3.2720063E-3,1.1632276E-1,-1.0142907E-1,3.3770483E-2,1.2047846E-2,1.3291535E-3,2.3665966E-2,1.8183659E-4,-2.007754E-2],"categories":[],"categories_nodes":[],"categories_segments":[],"categories_sizes":[],"default_left":[0,0,0,0,0,0,0,0,0,0,0,0,0,0,0,0,0,0,0],"id":47,"left_children":[1,3,-1,5,7,-1,9,-1,11,13,-1,15,17,-1,-1,-1,-1,-1,-1],"loss_changes":[1.2639835E0,8.289985E-1,0E0,1.8289311E0,1.3192079E0,0E0,1.182624E0,0E0,1.3360178E0,6.5461135E-1,0E0,7.779572E-1,5.2348495E-1,0E0,0E0,0E0,0E0,0E0,0E0],"parents":[2147483647,0,0,1,1,3,3,4,4,6,6,8,8,9,9,11,11,12,12],"right_children":[2,4,-1,6,8,-1,10,-1,12,14,-1,16,18,-1,-1,-1,-1,-1,-1],"split_conditions":[1E0,5.93E0,-2.0001166E-2,3.05E0,7.66E0,-1.5565923E-2,6.06E0,-1.9043723E-2,1.025E1,4.27E0,-3.2720063E-3,9.25E0,5.05E0,3.3770483E-2,1.2047846E-2,1.3291535E-3,2.3665966E-2,1.8183659E-4,-2.007754E-2],"split_indices":[10,1,0,1,1,0,2,0,1,1,0,1,2,0,0,0,0,0,0],"split_type":[0,0,0,0,0,0,0,0,0,0,0,0,0,0,0,0,0,0,0],"sum_hessian":[2.91E2,2.6E2,3.1E1,1.08E2,1.52E2,2.5E1,8.3E1,4E1,1.12E2,5.8E1,2.5E1,6.2E1,5E1,2.7E1,3.1E1,3.4E1,2.8E1,2.5E1,2.5E1],"tree_param":{"num_deleted":"0","num_feature":"14","num_nodes":"19","size_leaf_vector":"1"}},{"base_weights":[-2.5468955E-2,-1.1110768E-2,-1.7248916E-2,4.035557E-2,-8.892793E-2,-3.421036E-2,1.1721329E-1,-1.5843481E-1,7.1737044E-3,5.6289505E-2,-2.0466838E-2,5.66008E-2,2.2775788E-2,-2.2644786E-2,-5.9965765E-3,-7.830475E-3,1.7966038E-2,1.3079557E-2,-2.5478217E-3],"categories":[],"categories_nodes":[],"categories_segments":[],"categories_sizes":[],"default_left":[0,0,0,0,0,0,0,0,0,0,0,0,0,0,0,0,0,0,0],"id":48,"left_children":[1,3,-1,5,7,9,11,13,-1,15,-1,17,-1,-1,-1,-1,-1,-1,-1],"loss_changes":[6.1659E-1,1.0769191E0,0E0,9.3242663E-1,1.2062691E0,1.2919141E0,5.2313924E-1,4.8870957E-1,0E0,9.273439E-1,0E0,3.260936E-1,0E0,0E0,0E0,0E0,0E0,0E0,0E0],"parents":[2147483647,0,0,1,1,3,3,4,4,5,5,6,6,7,7,9,9,11,11],"right_children":[2,4,-1,6,8,10,12,14,-1,16,-1,18,-1,-1,-1,-1,-1,-1,-1],"split_conditions":[1.12E1,5.62E0,-1.7248916E-2,2.63E0,8.73E0,1.36E0,8.02E0,8.2E0,7.1737044E-3,5.4E0,-2.0466838E-2,4.83E0,2.2775788E-2,-2.2644786E-2,-5.9965765E-3,-7.830475E-3,1.7966038E-2,1.3079557E-2,-2.5478217E-3],"split_indices":[1,2,0,2,2,2,1,1,0,1,0,1,0,0,0,0,0,0,0],"split_type":[0,0,0,0,0,0,0,0,0,0,0,0,0,0,0,0,0,0,0],"sum_hessian":[2.92E2,2.67E2,2.5E1,1.61E2,1.06E2,8.2E1,7.9E1,7.4E1,3.2E1,5.4E1,2.8E1,5.2E1,2.7E1,4.3E1,3.1E1,2.6E1,2.8E1,2.7E1,2.5E1],"tree_param":{"num_deleted":"0","num_feature":"14","num_nodes":"19","size_leaf_vector":"1"}},{"base_weights":[1.2240746E-2,-9.090344E-2,3.8863204E-2,-2.1689763E-2,5.2894943E-4,-1.3972809E-2,6.306659E-2,1.24659106E-1,-2.0240054E-2,3.1195208E-2,1.7050454E-2,-1.7832838E-2,8.752259E-2,-1.2584031E-2,1.0302507E-2,2.3117596E-4,1.6949184E-2],"categories":[],"categories_nodes":[],"categories_segments":[],"categories_sizes":[],"default_left":[0,0,0,0,0,0,0,0,0,0,0,0,0,0,0,0,0],"id":49,"left_children":[1,3,5,-1,-1,-1,7,9,11,-1,13,-1,15,-1,-1,-1,-1],"loss_changes":[8.026048E-1,7.283325E-1,1.0116351E0,0E0,0E0,0E0,1.0543916E0,2.3728938E0,1.5147772E0,0E0,9.46623E-1,0E0,3.6979556E-1,0E0,0E0,0E0,0E0],"parents":[2147483647,0,0,1,1,2,2,6,6,7,7,8,8,10,10,12,12],"right_children":[2,4,6,-1,-1,-1,8,10,12,-1,14,-1,16,-1,-1,-1,-1],"split_conditions":[-1.69E0,3.89E0,3.05E0,-2.1689763E-2,5.2894943E-4,-1.3972809E-2,4.1E0,5.93E0,6.96E0,3.1195208E-2,5.7E-1,-1.7832838E-2,6.86E0,-1.2584031E-2,1.0302507E-2,2.3117596E-4,1.6949184E-2],"split_indices":[0,2,1,0,0,0,0,1,1,0,0,0,0,0,0,0,0],"split_type":[0,0,0,0,0,0,0,0,0,0,0,0,0,0,0,0,0],"sum_hessian":[2.9E2,5.9E1,2.31E2,2.5E1,3.4E1,2.7E1,2.04E2,1.17E2,8.7E1,4.2E1,7.5E1,3.5E1,5.2E1,2.8E1,4.7E1,2.6E1,2.6E1],"tree_param":{"num_deleted":"0","num_feature":"14","num_nodes":"17","size_leaf_vector":"1"}},{"base_weights":[-3.7661742E-3,-1.16487965E-2,1.2162259E-2,-2.8112559E-2,1.1900446E-1,1.9166602E-2,-1.0855935E-1,2.2326908E-3,1.9982958E-2,-1.4102993E-2,1.0901935E-2,-2.7459746E-2,-7.97865E-4,5.4184236E-2,-1.2214439E-2,-4.678841E-3,1.42843025E-2],"categories":[],"categories_nodes":[],"categories_segments":[],"categories_sizes":[],"default_left":[0,0,0,0,0,0,0,0,0,0,0,0,0,0,0,0,0],"id":50,"left_children":[1,-1,3,5,7,9,11,-1,-1,13,-1,-1,-1,15,-1,-1,-1],"loss_changes":[5.2210635E-1,0E0,1.1006233E0,7.095236E-1,5.425166E-1,3.5428256E-1,1.150125E0,0E0,0E0,6.48491E-1,0E0,0E0,0E0,4.9009746E-1,0E0,0E0,0E0],"parents":[2147483647,0,0,2,2,3,3,4,4,5,5,6,6,9,9,13,13],"right_children":[2,-1,4,6,8,10,12,-1,-1,14,-1,-1,-1,16,-1,-1,-1],"split_conditions":[4.3E-1,-1.16487965E-2,9.53E0,6.32E0,5.41E0,5.02E0,7.87E0,2.2326908E-3,1.9982958E-2,3.31E0,1.0901935E-2,-2.7459746E-2,-7.97865E-4,1.53E0,-1.2214439E-2,-4.678841E-3,1.42843025E-2],"split_indices":[2,0,1,2,2,2,2,0,0,2,0,0,0,2,0,0,0],"split_type":[0,0,0,0,0,0,0,0,0,0,0,0,0,0,0,0,0],"sum_hessian":[2.89E2,3.5E1,2.54E2,1.85E2,6.9E1,1.17E2,6.8E1,3.2E1,3.7E1,8.6E1,3.1E1,2.5E1,4.3E1,5.3E1,3.3E1,2.5E1,2.8E1],"tree_param":{"num_deleted":"0","num_feature":"14","num_nodes":"17","size_leaf_vector":"1"}}]},"name":"gbtree"},"learner_model_param":{"base_score":"3.7216527E-10","boost_from_average":"1","num_class":"0","num_feature":"14","num_target":"1"},"objective":{"name":"reg:squarederror","reg_loss_param":{"scale_pos_weight":"1"}}},"version":[3,0,1]}