{"learner":{"attributes":{"best_iteration":"8","best_score":"1.1371681238275437"},"feature_names":[],"feature_types":[],"gradient_booster":{"model":{"gbtree_model_param":{"num_parallel_tree":"1","num_trees":"59"},"iteration_indptr":[0,1,2,3,4,5,6,7,8,9,10,11,12,13,14,15,16,17,18,19,20,21,22,23,24,25,26,27,28,29,30,31,32,33,34,35,36,37,38,39,40,41,42,43,44,45,46,47,48,49,50,51,52,53,54,55,56,57,58,59],"tree_info":[0,0,0,0,0,0,0,0,0,0,0,0,0,0,0,0,0,0,0,0,0,0,0,0,0,0,0,0,0,0,0,0,0,0,0,0,0,0,0,0,0,0,0,0,0,0,0,0,0,0,0,0,0,0,0,0,0,0,0],"trees":[{"base_weights":[-2.5596315E-2,-3.745785E-2,1.830547E-2,2.6529973E-2,-1.5810503E-2,-2.0945856E-1,5.57714E-2,8.517533E-3,-3.3217136E-2,1.8523328E-2,-1.0092203E-2,1.4135395E-2,-6.525707E-2,-1.5536691E-1,1.3794254E-2,-2.2670733E-2,-2.6870049E-3],"categories":[],"categories_nodes":[],"categories_segments":[],"categories_sizes":[],"default_left":[0,0,0,0,0,0,0,0,0,0,0,0,0,0,0,0,0],"id":0,"left_children":[1,-1,3,-1,5,7,9,-1,-1,-1,11,-1,13,15,-1,-1,-1],"loss_changes":[6.624336E0,0E0,3.347076E0,0E0,3.698893E0,5.4795322E0,2.458232E0,0E0,0E0,0E0,1.6115488E0,0E0,2.610741E0,1.4819057E0,0E0,0E0,0E0],"parents":[2147483647,0,0,2,2,4,4,5,5,6,6,10,10,12,12,13,13],"right_children":[2,-1,4,-1,6,8,10,-1,-1,-1,12,-1,14,16,-1,-1,-1],"split_conditions":[-3.3E0,-3.745785E-2,-2.15E0,2.6529973E-2,8.7E-1,-8.1E-1,3.1E0,8.517533E-3,-3.3217136E-2,1.8523328E-2,1.66E0,1.4135395E-2,8E0,6.16E0,1.3794254E-2,-2.2670733E-2,-2.6870049E-3],"split_indices":[0,0,0,0,0,0,0,0,0,0,2,0,2,0,0,0,0],"split_type":[0,0,0,0,0,0,0,0,0,0,0,0,0,0,0,0,0],"sum_hessian":[3.17E2,2.6E1,2.91E2,2.6E1,2.65E2,7.1E1,1.94E2,3E1,4.1E1,4.9E1,1.45E2,3.1E1,1.14E2,8.4E1,3E1,3.7E1,4.7E1],"tree_param":{"num_deleted":"0","num_feature":"14","num_nodes":"17","size_leaf_vector":"1"}},{"base_weights":[-5.9176297E-3,-2.630063E-1,5.0564263E-2,-2.8705362E-2,-1.0986054E-2,2.9880833E-2,9.33095E-3,-1.5172233E-1,8.87512E-2,8.383289E-4,-3.1208863E-2,1.7872146E-1,-8.07672E-3,3.820261E-2,4.2660184E-2,2.397647E-1,-2.8642176E-2,2.0221148E-2,1.5355078E-2],"categories":[],"categories_nodes":[],"categories_segments":[],"categories_sizes":[],"default_left":[0,0,0,0,0,0,0,0,0,0,0,0,0,0,0,0,0,0,0],"id":1,"left_children":[1,3,5,-1,-1,-1,7,9,11,-1,-1,13,-1,15,-1,17,-1,-1,-1],"loss_changes":[4.5147634E0,7.252381E-1,3.653716E0,0E0,0E0,0E0,2.9425795E0,3.277978E0,2.741016E0,0E0,0E0,5.7885246E0,0E0,6.78096E0,0E0,1.2669563E-3,0E0,0E0,0E0],"parents":[2147483647,0,0,1,1,2,2,6,6,7,7,8,8,11,11,13,13,15,15],"right_children":[2,4,6,-1,-1,-1,8,10,12,-1,-1,14,-1,16,-1,18,-1,-1,-1],"split_conditions":[3.32E0,4E0,4.26E0,-2.8705362E-2,-1.0986054E-2,2.9880833E-2,6.64E0,6.06E0,1.047E1,8.383289E-4,-3.1208863E-2,9.56E0,-8.07672E-3,8.64E0,4.2660184E-2,7.49E0,-2.8642176E-2,2.0221148E-2,1.5355078E-2],"split_indices":[1,2,1,0,0,0,1,2,1,0,0,1,0,1,0,1,0,0,0],"split_type":[0,0,0,0,0,0,0,0,0,0,0,0,0,0,0,0,0,0,0],"sum_hessian":[3.09E2,5.5E1,2.54E2,2.6E1,2.9E1,2.6E1,2.28E2,7.5E1,1.53E2,4.7E1,2.8E1,1.05E2,4.8E1,7.8E1,2.7E1,5.3E1,2.5E1,2.5E1,2.8E1],"tree_param":{"num_deleted":"0","num_feature":"14","num_nodes":"19","size_leaf_vector":"1"}},{"base_weights":[2.5648724E-2,-1.329966E-1,1.2905067E-1,-2.8720351E-2,-3.6711708E-2,2.190972E-2,7.3408455E-2,-2.0898458E-2,7.1660236E-2,-3.9046533E-2,1.4413653E-1,2.0872211E-2,-4.2575793E-3,1.0634224E-2,-1.5037316E-2,2.3598664E-2,7.1478486E-2,-1.8239872E-3,1.0459014E-2],"categories":[],"categories_nodes":[],"categories_segments":[],"categories_sizes":[],"default_left":[0,0,0,0,0,0,0,0,0,0,0,0,0,0,0,0,0,0,0],"id":2,"left_children":[1,3,5,7,-1,-1,9,-1,11,13,15,-1,-1,-1,-1,-1,17,-1,-1],"loss_changes":[5.151689E0,4.595485E0,1.7026289E0,2.4534738E0,0E0,0E0,1.1430106E0,0E0,1.8734462E0,1.6634147E0,1.0677495E0,0E0,0E0,0E0,0E0,0E0,4.1364077E-1,0E0,0E0],"parents":[2147483647,0,0,1,1,2,2,3,3,6,6,8,8,9,9,10,10,16,16],"right_children":[2,4,6,8,-1,-1,10,-1,12,14,16,-1,-1,-1,-1,-1,18,-1,-1],"split_conditions":[8.7E-1,-1.6E-1,3.1E0,-3.3E0,-3.6711708E-2,2.190972E-2,5.07E0,-2.0898458E-2,-2.15E0,4.18E0,6.76E0,2.0872211E-2,-4.2575793E-3,1.0634224E-2,-1.5037316E-2,2.3598664E-2,7.89E0,-1.8239872E-3,1.0459014E-2],"split_indices":[0,0,0,0,0,0,0,0,0,0,0,0,0,0,0,0,0,0,0],"split_type":[0,0,0,0,0,0,0,0,0,0,0,0,0,0,0,0,0,0,0],"sum_hessian":[3.12E2,1.23E2,1.89E2,9.6E1,2.7E1,4.7E1,1.42E2,2.7E1,6.9E1,5.5E1,8.7E1,2.6E1,4.3E1,2.6E1,2.9E1,2.5E1,6.2E1,2.6E1,3.6E1],"tree_param":{"num_deleted":"0","num_feature":"14","num_nodes":"19","size_leaf_vector":"1"}},{"base_weights":[-1.7821942E-2,-6.255784E-2,2.825381E-2,-2.50327E-2,-2.0431918E-1,-1.8342841E-2,1.5670246E-2,-2.284957E-2,-7.7892183E-3,2.2958256E-2,-3.8422223E-2,-2.090375E-2,1.1780635E-2,2.1570392E-2,-5.994095E-2,-1.739114E-2,1.7430892E-3],"categories":[],"categories_nodes":[],"categories_segments":[],"categories_sizes":[],"default_left":[0,0,0,0,0,0,0,0,0,0,0,0,0,0,0,0,0],"id":3,"left_children":[1,3,-1,5,7,-1,9,-1,-1,-1,11,-1,13,-1,15,-1,-1],"loss_changes":[5.371538E0,1.44714E0,0E0,1.9429148E0,5.429547E-1,0E0,2.9025133E0,0E0,0E0,0E0,1.8851844E0,0E0,2.5889745E0,0E0,1.49284E0,0E0,0E0],"parents":[2147483647,0,0,1,1,3,3,4,4,6,6,10,10,12,12,14,14],"right_children":[2,4,-1,6,8,-1,10,-1,-1,-1,12,-1,14,-1,16,-1,-1],"split_conditions":[8.7E0,6.97E0,2.825381E-2,6.3E-1,8E0,-1.8342841E-2,1.66E0,-2.284957E-2,-7.7892183E-3,2.2958256E-2,2.74E0,-2.090375E-2,3.65E0,2.1570392E-2,4.97E0,-1.739114E-2,1.7430892E-3],"split_indices":[2,2,0,2,2,0,2,0,0,0,2,0,2,0,2,0,0],"split_type":[0,0,0,0,0,0,0,0,0,0,0,0,0,0,0,0,0],"sum_hessian":[3.02E2,2.72E2,3E1,2.16E2,5.6E1,3.3E1,1.83E2,2.7E1,2.9E1,2.8E1,1.55E2,2.6E1,1.29E2,2.6E1,1.03E2,3.3E1,7E1],"tree_param":{"num_deleted":"0","num_feature":"14","num_nodes":"17","size_leaf_vector":"1"}},{"base_weights":[1.4112544E-2,-1.8590622E-2,2.1688823E-2,-2.0583667E-2,2.0605022E-2,7.675314E-2,-1.7535442E-2,2.1388291E-1,3.938579E-3,4.567078E-3,3.267953E-2,-2.6740737E-2,1.0095348E-1,8.192367E-3,2.841913E-2,1.3682782E-2,-5.689121E-3],"categories":[],"categories_nodes":[],"categories_segments":[],"categories_sizes":[],"default_left":[0,0,0,0,0,0,0,0,0,0,0,0,0,0,0,0,0],"id":4,"left_children":[1,3,-1,-1,5,7,-1,9,11,-1,-1,-1,13,15,-1,-1,-1],"loss_changes":[2.794048E0,2.7935865E0,0E0,0E0,3.4748414E0,1.9861814E0,0E0,2.3152997E0,4.617339E0,0E0,0E0,0E0,2.6784987E0,1.1707779E0,0E0,0E0,0E0],"parents":[2147483647,0,0,1,1,4,4,5,5,7,7,8,8,12,12,13,13],"right_children":[2,4,-1,-1,6,8,-1,10,12,-1,-1,-1,14,16,-1,-1,-1],"split_conditions":[8.73E0,3.05E0,2.1688823E-2,-2.0583667E-2,7.08E0,5.91E0,-1.7535442E-2,4.63E0,6.97E0,4.567078E-3,3.267953E-2,-2.6740737E-2,5.98E0,8.76E0,2.841913E-2,1.3682782E-2,-5.689121E-3],"split_indices":[2,1,0,0,2,1,0,1,1,0,0,0,2,1,0,0,0],"split_type":[0,0,0,0,0,0,0,0,0,0,0,0,0,0,0,0,0],"sum_hessian":[3.09E2,2.77E2,3.2E1,3.6E1,2.41E2,1.98E2,4.3E1,6.8E1,1.3E2,4.1E1,2.7E1,2.7E1,1.03E2,7.8E1,2.5E1,2.5E1,5.3E1],"tree_param":{"num_deleted":"0","num_feature":"14","num_nodes":"17","size_leaf_vector":"1"}},{"base_weights":[1.7897787E-2,-1.5746955E-2,2.3379749E-2,5.2785076E-2,-1.2537931E-1,-2.0812836E-2,2.929368E-2,-1.8684754E-2,-5.182266E-2,5.0610088E-2,-2.5812192E-2,2.2975549E-3,-1.3591746E-2,-5.993387E-2,2.441111E-2,2.5226267E-2,-1.9061409E-2,-9.937404E-3,1.6718145E-2],"categories":[],"categories_nodes":[],"categories_segments":[],"categories_sizes":[],"default_left":[0,0,0,0,0,0,0,0,0,0,0,0,0,0,0,0,0,0,0],"id":5,"left_children":[1,3,-1,5,7,9,-1,-1,11,13,-1,-1,-1,15,-1,17,-1,-1,-1],"loss_changes":[3.079426E0,2.1103501E0,0E0,4.3091125E0,9.701798E-1,3.3199432E0,0E0,0E0,7.4177814E-1,3.6049807E0,0E0,0E0,0E0,1.4122818E0,0E0,1.9003016E0,0E0,0E0,0E0],"parents":[2147483647,0,0,1,1,3,3,4,4,5,5,8,8,9,9,13,13,15,15],"right_children":[2,4,-1,6,8,10,-1,-1,12,14,-1,-1,-1,16,-1,18,-1,-1,-1],"split_conditions":[8.73E0,5.5E0,2.3379749E-2,4.78E0,6.81E0,3.56E0,2.929368E-2,-1.8684754E-2,8.09E0,2.43E0,-2.5812192E-2,2.2975549E-3,-1.3591746E-2,1.59E0,2.441111E-2,4.3E-1,-1.9061409E-2,-9.937404E-3,1.6718145E-2],"split_indices":[2,2,0,2,2,2,0,0,2,2,0,0,0,2,0,2,0,0,0],"split_type":[0,0,0,0,0,0,0,0,0,0,0,0,0,0,0,0,0,0,0],"sum_hessian":[3.1E2,2.79E2,3.1E1,1.72E2,1.07E2,1.42E2,3E1,3.9E1,6.8E1,1.17E2,2.5E1,4.2E1,2.6E1,8.4E1,3.3E1,5.9E1,2.5E1,3.3E1,2.6E1],"tree_param":{"num_deleted":"0","num_feature":"14","num_nodes":"19","size_leaf_vector":"1"}},{"base_weights":[-1.25537375E-2,-1.06488846E-1,1.9893102E-1,-4.666653E-2,-4.063928E-2,5.6597255E-3,2.5948593E-1,-1.6846444E-1,2.5710778E-3,2.9193593E-2,7.4585574E-3,1.0379946E-2,-3.3626705E-2,1.5117896E-2,-7.5849175E-2,-1.3752863E-1,6.4098025E-3,5.626447E-4,-2.8464308E-2],"categories":[],"categories_nodes":[],"categories_segments":[],"categories_sizes":[],"default_left":[0,0,0,0,0,0,0,0,0,0,0,0,0,0,0,0,0,0,0],"id":6,"left_children":[1,3,5,7,-1,-1,9,11,13,-1,-1,-1,-1,-1,15,17,-1,-1,-1],"loss_changes":[6.199461E0,5.6003757E0,6.981716E-1,1.1458673E0,0E0,0E0,1.2903724E0,4.785923E0,2.15327E0,0E0,0E0,0E0,0E0,0E0,9.967751E-1,2.5298119E0,0E0,0E0,0E0],"parents":[2147483647,0,0,1,1,2,2,3,3,6,6,7,7,8,8,14,14,15,15],"right_children":[2,4,6,8,-1,-1,10,12,14,-1,-1,-1,-1,-1,16,18,-1,-1,-1],"split_conditions":[2.886202E4,2.401907E4,3.210435E4,8.94302E3,-4.063928E-2,5.6597255E-3,3.571222E4,4.28775E3,1.37272E4,2.9193593E-2,7.4585574E-3,1.0379946E-2,-3.3626705E-2,1.5117896E-2,2.076023E4,1.797764E4,6.4098025E-3,5.626447E-4,-2.8464308E-2],"split_indices":[3,3,3,3,0,0,3,3,3,0,0,0,0,0,3,3,0,0,0],"split_type":[0,0,0,0,0,0,0,0,0,0,0,0,0,0,0,0,0,0,0],"sum_hessian":[3.1E2,2.15E2,9.5E1,1.9E2,2.5E1,3.2E1,6.3E1,5.4E1,1.36E2,3.4E1,2.9E1,2.6E1,2.8E1,3.8E1,9.8E1,7.1E1,2.7E1,4.5E1,2.6E1],"tree_param":{"num_deleted":"0","num_feature":"14","num_nodes":"19","size_leaf_vector":"1"}},{"base_weights":[7.7949506E-3,-4.8720047E-2,2.4879569E-1,4.9709786E-2,-1.737216E-1,2.5833188E-2,1.062506E-2,5.992725E-4,1.9687487E-2,-3.310683E-1,1.0653308E-2,5.3007577E-2,-1.401632E-2,-1.303623E-2,-3.265821E-2,-1.8197022E-2,2.1225521E-2,-5.42941E-3,1.4128199E-2],"categories":[],"categories_nodes":[],"categories_segments":[],"categories_sizes":[],"default_left":[0,0,0,0,0,0,0,0,0,0,0,0,0,0,0,0,0,0,0],"id":7,"left_children":[1,3,5,7,9,-1,-1,11,-1,13,15,17,-1,-1,-1,-1,-1,-1,-1],"loss_changes":[4.30247E0,3.1584296E0,5.659921E-1,1.5046753E0,3.2817452E0,0E0,0E0,1.1693381E0,0E0,9.2551136E-1,3.7247005E0,1.5923266E0,0E0,0E0,0E0,0E0,0E0,0E0,0E0],"parents":[2147483647,0,0,1,1,2,2,3,3,4,4,7,7,9,9,10,10,11,11],"right_children":[2,4,6,8,10,-1,-1,12,-1,14,16,18,-1,-1,-1,-1,-1,-1,-1],"split_conditions":[3.178786E4,1.850373E4,6.07E0,1.650048E4,6.72E0,2.5833188E-2,1.062506E-2,1.37272E4,1.9687487E-2,2.401907E4,1.99E0,6.45E0,-1.401632E-2,-1.303623E-2,-3.265821E-2,-1.8197022E-2,2.1225521E-2,-5.42941E-3,1.4128199E-2],"split_indices":[3,3,1,3,1,0,0,3,0,3,0,1,0,0,0,0,0,0,0],"split_type":[0,0,0,0,0,0,0,0,0,0,0,0,0,0,0,0,0,0,0],"sum_hessian":[3.14E2,2.55E2,5.9E1,1.43E2,1.12E2,3E1,2.9E1,1.17E2,2.6E1,6E1,5.2E1,9.2E1,2.5E1,2.5E1,3.5E1,2.7E1,2.5E1,4.8E1,4.4E1],"tree_param":{"num_deleted":"0","num_feature":"14","num_nodes":"19","size_leaf_vector":"1"}},{"base_weights":[-5.2991265E-4,-3.4086473E-2,2.0835582E-2,-2.4029694E-2,-3.7566263E-3,3.1077243E-2,-2.2526285E-2,-3.475297E-2,2.015708E-2,5.1162206E-2,-2.6955878E-2,1.6234148E-1,-5.9194908E-2,-3.2469688E-3,3.6527056E-2,-2.216597E-2,5.8380663E-3],"categories":[],"categories_nodes":[],"categories_segments":[],"categories_sizes":[],"default_left":[0,0,0,0,0,0,0,0,0,0,0,0,0,0,0,0,0],"id":8,"left_children":[1,3,-1,-1,5,7,-1,9,-1,11,-1,13,15,-1,-1,-1,-1],"loss_changes":[2.951587E0,2.447606E0,0E0,0E0,2.654201E0,3.6080987E0,0E0,5.0670414E0,0E0,1.7764065E0,0E0,4.8282795E0,2.387373E0,0E0,0E0,0E0,0E0],"parents":[2147483647,0,0,1,1,4,4,5,5,7,7,9,9,11,11,12,12],"right_children":[2,4,-1,-1,6,8,-1,10,-1,12,-1,14,16,-1,-1,-1,-1],"split_conditions":[8.73E0,2.89E0,2.0835582E-2,-2.4029694E-2,1.118E1,9.53E0,-2.2526285E-2,6.97E0,2.015708E-2,5.91E0,-2.6955878E-2,4.63E0,6.97E0,-3.2469688E-3,3.6527056E-2,-2.216597E-2,5.8380663E-3],"split_indices":[2,1,0,0,1,1,0,2,0,1,0,1,1,0,0,0,0],"split_type":[0,0,0,0,0,0,0,0,0,0,0,0,0,0,0,0,0],"sum_hessian":[3.14E2,2.81E2,3.3E1,2.6E1,2.55E2,2.29E2,2.6E1,1.8E2,4.9E1,1.43E2,3.7E1,7.1E1,7.2E1,4.4E1,2.7E1,2.6E1,4.6E1],"tree_param":{"num_deleted":"0","num_feature":"14","num_nodes":"17","size_leaf_vector":"1"}},{"base_weights":[-3.257545E-2,-1.05649844E-1,1.3882478E-1,-5.5908516E-2,-3.3468124E-2,-3.9780145E-3,2.4378611E-1,-9.0598546E-2,1.2179055E-2,2.8127942E-2,4.7078296E-3,-3.4725927E-2,-1.9098297E-2,-1.1380113E-1,8.8952305E-3,2.2241643E-3,-2.273936E-2],"categories":[],"categories_nodes":[],"categories_segments":[],"categories_sizes":[],"default_left":[0,0,0,0,0,0,0,0,0,0,0,0,0,0,0,0,0],"id":9,"left_children":[1,3,5,7,-1,-1,9,11,-1,-1,-1,13,-1,15,-1,-1,-1],"loss_changes":[3.8097317E0,3.5835884E0,1.8455251E0,1.4308054E0,0E0,0E0,1.3782265E0,1.475992E0,0E0,0E0,0E0,1.4926887E0,0E0,2.2097049E0,0E0,0E0,0E0],"parents":[2147483647,0,0,1,1,2,2,3,3,6,6,7,7,11,11,13,13],"right_children":[2,4,6,8,-1,-1,10,12,-1,-1,-1,14,-1,16,-1,-1,-1],"split_conditions":[2.886202E4,2.41583E4,8.7E-1,7.38E0,-3.3468124E-2,-3.9780145E-3,3.443505E4,4.28E0,1.2179055E-2,2.8127942E-2,4.7078296E-3,1.24E0,-1.9098297E-2,-8.1E-1,8.8952305E-3,2.2241643E-3,-2.273936E-2],"split_indices":[3,3,0,0,0,0,3,0,0,0,0,0,0,0,0,0,0],"split_type":[0,0,0,0,0,0,0,0,0,0,0,0,0,0,0,0,0],"sum_hessian":[3.02E2,2.12E2,9E1,1.86E2,2.6E1,3.2E1,5.8E1,1.61E2,2.5E1,3.3E1,2.5E1,1.21E2,4E1,8E1,4.1E1,4.6E1,3.4E1],"tree_param":{"num_deleted":"0","num_feature":"14","num_nodes":"17","size_leaf_vector":"1"}},{"base_weights":[2.7304629E-2,-4.510783E-6,2.465668E-2,2.1410123E-2,-1.624662E-2,-6.397715E-3,1.9126939E-2,-1.4310939E-2,3.107939E-2,2.1589763E-2,-1.1397284E-2,-7.014975E-2,1.0788878E-2,3.7569858E-3,-9.139749E-3],"categories":[],"categories_nodes":[],"categories_segments":[],"categories_sizes":[],"default_left":[0,0,0,0,0,0,0,0,0,0,0,0,0,0,0],"id":10,"left_children":[1,3,-1,5,-1,7,-1,-1,9,-1,11,13,-1,-1,-1],"loss_changes":[2.576733E0,1.3406053E0,0E0,1.710171E0,0E0,1.6370049E0,0E0,0E0,2.1520257E0,0E0,1.5607055E0,7.771599E-1,0E0,0E0,0E0],"parents":[2147483647,0,0,1,1,3,3,5,5,8,8,10,10,11,11],"right_children":[2,4,-1,6,-1,8,-1,-1,10,-1,12,14,-1,-1,-1],"split_conditions":[9.01E0,8.29E0,2.465668E-2,1E0,-1.624662E-2,6.3E-1,1.9126939E-2,-1.4310939E-2,1.96E0,2.1589763E-2,6.7E0,3.56E0,1.0788878E-2,3.7569858E-3,-9.139749E-3],"split_indices":[2,2,0,12,0,2,0,0,2,0,2,2,0,0,0],"split_type":[0,0,0,0,0,0,0,0,0,0,0,0,0,0,0],"sum_hessian":[3.12E2,2.87E2,2.5E1,2.62E2,2.5E1,2.35E2,2.7E1,3.9E1,1.96E2,2.7E1,1.69E2,1.23E2,4.6E1,3.7E1,8.6E1],"tree_param":{"num_deleted":"0","num_feature":"14","num_nodes":"15","size_leaf_vector":"1"}},{"base_weights":[1.6876565E-2,-4.7726113E-2,1.6977338E-1,-7.180887E-3,-2.6014565E-2,2.6138112E-1,-4.5333393E-3,-4.386594E-2,1.5792416E-2,1.895472E-3,3.106647E-2,1.63849E-2,-2.560513E-2,-1.0802484E-2,8.265515E-2,-9.43903E-2,2.2290543E-2,2.8464014E-3,-1.7477987E-2],"categories":[],"categories_nodes":[],"categories_segments":[],"categories_sizes":[],"default_left":[0,0,0,0,0,0,0,0,0,0,0,0,0,0,0,0,0,0,0],"id":11,"left_children":[1,3,5,7,-1,9,-1,11,-1,-1,-1,13,-1,-1,15,17,-1,-1,-1],"loss_changes":[3.0602639E0,2.6415193E0,1.9560552E0,1.5509284E0,0E0,2.3712344E0,0E0,2.9814394E0,0E0,0E0,0E0,1.489606E0,0E0,0E0,3.7886157E0,1.0180503E0,0E0,0E0,0E0],"parents":[2147483647,0,0,1,1,2,2,3,3,5,5,7,7,11,11,14,14,15,15],"right_children":[2,4,6,8,-1,10,-1,12,-1,-1,-1,14,-1,-1,16,18,-1,-1,-1],"split_conditions":[2.886202E4,2.41583E4,6.95E0,2.118626E4,-2.6014565E-2,4.91E0,-4.5333393E-3,1.850373E4,1.5792416E-2,1.895472E-3,3.106647E-2,7.20198E3,-2.560513E-2,-1.0802484E-2,5.67E0,2.71E0,2.2290543E-2,2.8464014E-3,-1.7477987E-2],"split_indices":[3,3,2,3,0,1,0,3,0,0,0,3,0,0,2,2,0,0,0],"split_type":[0,0,0,0,0,0,0,0,0,0,0,0,0,0,0,0,0,0,0],"sum_hessian":[3.08E2,2.17E2,9.1E1,1.92E2,2.5E1,6.5E1,2.6E1,1.65E2,2.7E1,2.6E1,3.9E1,1.38E2,2.7E1,4E1,9.8E1,5.4E1,4.4E1,2.8E1,2.6E1],"tree_param":{"num_deleted":"0","num_feature":"14","num_nodes":"19","size_leaf_vector":"1"}},{"base_weights":[-1.8199634E-2,-9.040391E-2,1.4768174E-1,-4.0363774E-2,-3.213903E-2,2.2662607E-1,-2.3188891E-3,-8.765223E-2,1.0108547E-2,2.4266473E-3,2.5822103E-2,-2.2028361E-1,4.689965E-3,-2.267184E-3,-3.3748835E-2,1.2169027E-2,-9.387111E-2,-1.3866219E-2,2.8077335E-4],"categories":[],"categories_nodes":[],"categories_segments":[],"categories_sizes":[],"default_left":[0,0,0,0,0,0,0,0,0,0,0,0,0,0,0,0,0,0,0],"id":12,"left_children":[1,3,5,7,-1,9,-1,11,-1,-1,-1,13,15,-1,-1,-1,17,-1,-1],"loss_changes":[3.750282E0,3.6711307E0,1.3464577E0,1.593735E0,0E0,1.4975924E0,0E0,1.8504016E0,0E0,0E0,0E0,2.6930494E0,1.4128994E0,0E0,0E0,0E0,4.982014E-1,0E0,0E0],"parents":[2147483647,0,0,1,1,2,2,3,3,5,5,7,7,11,11,12,12,16,16],"right_children":[2,4,6,8,-1,10,-1,12,-1,-1,-1,14,16,-1,-1,-1,18,-1,-1],"split_conditions":[2.886202E4,2.41583E4,3.571222E4,1.988943E4,-3.213903E-2,9.2E-1,-2.3188891E-3,1.24E0,1.0108547E-2,2.4266473E-3,2.5822103E-2,-8.1E-1,4.28E0,-2.267184E-3,-3.3748835E-2,1.2169027E-2,7.14E0,-1.3866219E-2,2.8077335E-4],"split_indices":[3,3,3,3,0,0,0,0,0,0,0,0,0,0,0,0,0,0,0],"split_type":[0,0,0,0,0,0,0,0,0,0,0,0,0,0,0,0,0,0,0],"sum_hessian":[3.11E2,2.17E2,9.4E1,1.9E2,2.7E1,6.5E1,2.9E1,1.5E2,4E1,2.5E1,4E1,6.1E1,8.9E1,3.4E1,2.7E1,3.4E1,5.5E1,2.8E1,2.7E1],"tree_param":{"num_deleted":"0","num_feature":"14","num_nodes":"19","size_leaf_vector":"1"}},{"base_weights":[1.6695758E-3,-4.4186812E-2,1.8070135E-1,-1.2801679E-2,-2.0894457E-2,2.0015672E-2,8.773852E-3,-3.8457915E-2,1.0740295E-2,4.4154048E-2,-1.7834885E-1,-6.259596E-3,1.2288582E-1,-1.8865412E-2,-7.3479055E-3,1.9614981E-2,-6.1853864E-4],"categories":[],"categories_nodes":[],"categories_segments":[],"categories_sizes":[],"default_left":[0,0,0,0,0,0,0,0,0,0,0,0,0,0,0,0,0],"id":13,"left_children":[1,3,5,7,-1,-1,-1,9,-1,11,13,-1,15,-1,-1,-1,-1],"loss_changes":[2.536588E0,1.8062214E0,3.1469584E-1,8.78056E-1,0E0,0E0,0E0,2.180528E0,0E0,1.2058946E0,3.871503E-1,0E0,1.3475682E0,0E0,0E0,0E0,0E0],"parents":[2147483647,0,0,1,1,2,2,3,3,7,7,9,9,10,10,12,12],"right_children":[2,4,6,8,-1,-1,-1,10,-1,12,14,-1,16,-1,-1,-1,-1],"split_conditions":[3.178786E4,1E0,3.50328E4,2.819374E4,-2.0894457E-2,2.0015672E-2,8.773852E-3,1.812473E4,1.0740295E-2,8.94302E3,2.223572E4,-6.259596E-3,1.37272E4,-1.8865412E-2,-7.3479055E-3,1.9614981E-2,-6.1853864E-4],"split_indices":[3,13,3,3,0,0,0,3,0,3,3,0,3,0,0,0,0],"split_type":[0,0,0,0,0,0,0,0,0,0,0,0,0,0,0,0,0],"sum_hessian":[3.07E2,2.45E2,6.2E1,2.17E2,2.8E1,2.5E1,3.7E1,1.87E2,3E1,1.18E2,6.9E1,4.5E1,7.3E1,3.5E1,3.4E1,3.5E1,3.8E1],"tree_param":{"num_deleted":"0","num_feature":"14","num_nodes":"17","size_leaf_vector":"1"}},{"base_weights":[-1.0867266E-2,-2.3390878E-2,1.6825862E-2,1.6591449E-1,-2.4031684E-2,2.8234737E-2,-2.7494773E-3,-2.1778693E-2,2.5419708E-2,1.2753061E-2,-2.2290861E-2,-1.5975772E-1,5.565009E-2,-6.112404E-4,-2.332891E-2,2.4164965E-2,-4.86176E-2,-1.9450106E-2,1.226471E-2],"categories":[],"categories_nodes":[],"categories_segments":[],"categories_sizes":[],"default_left":[0,0,0,0,0,0,0,0,0,0,0,0,0,0,0,0,0,0,0],"id":14,"left_children":[1,-1,3,5,7,-1,-1,-1,9,-1,11,13,15,-1,-1,-1,17,-1,-1],"loss_changes":[2.572717E0,0E0,1.7278521E0,2.6155562E0,2.9446084E0,0E0,0E0,0E0,1.3078818E0,0E0,1.541035E0,1.1902109E0,2.572574E0,0E0,0E0,0E0,3.037511E0,0E0,0E0],"parents":[2147483647,0,0,2,2,3,3,4,4,8,8,10,10,11,11,12,12,16,16],"right_children":[2,-1,4,6,8,-1,-1,-1,10,-1,12,14,16,-1,-1,-1,18,-1,-1],"split_conditions":[-3.3E0,-2.3390878E-2,-5.5E-1,5.93E0,8.7E-1,2.8234737E-2,-2.7494773E-3,-2.1778693E-2,3.1E0,1.2753061E-2,5.07E0,6.87E0,6.76E0,-6.112404E-4,-2.332891E-2,2.4164965E-2,6.86E0,-1.9450106E-2,1.226471E-2],"split_indices":[0,0,0,1,0,0,0,0,0,0,0,1,0,0,0,0,1,0,0],"split_type":[0,0,0,0,0,0,0,0,0,0,0,0,0,0,0,0,0,0,0],"sum_hessian":[3.07E2,2.5E1,2.82E2,6E1,2.22E2,2.9E1,3.1E1,3.4E1,1.88E2,4.6E1,1.42E2,5.1E1,9.1E1,2.6E1,2.5E1,2.5E1,6.6E1,3.3E1,3.3E1],"tree_param":{"num_deleted":"0","num_feature":"14","num_nodes":"19","size_leaf_vector":"1"}},{"base_weights":[-2.211247E-2,-4.9502395E-2,2.0686E-2,-1.07000746E-1,9.44997E-2,-5.9267253E-2,-3.0113524E-2,1.3919502E-2,-1.8392053E-3,9.814185E-3,-1.0944916E-1,-2.7354447E-2,-2.0031724E-2,8.791114E-2,-1.0723963E-2,-7.0433277E-3,1.7817847E-2],"categories":[],"categories_nodes":[],"categories_segments":[],"categories_sizes":[],"default_left":[0,0,0,0,0,0,0,0,0,0,0,0,0,0,0,0,0],"id":15,"left_children":[1,3,-1,5,7,9,-1,-1,-1,-1,11,-1,13,15,-1,-1,-1],"loss_changes":[2.518824E0,2.3450387E0,0E0,2.815946E0,8.827686E-1,1.6839511E0,0E0,0E0,0E0,0E0,3.1655354E0,0E0,1.3928639E0,1.5461565E0,0E0,0E0,0E0],"parents":[2147483647,0,0,1,1,3,3,4,4,5,5,10,10,12,12,13,13],"right_children":[2,4,-1,6,8,10,-1,-1,-1,-1,12,-1,14,16,-1,-1,-1],"split_conditions":[9.01E0,2.886202E4,2.0686E-2,2.41583E4,3.465592E4,5.8889E3,-3.0113524E-2,1.3919502E-2,-1.8392053E-3,9.814185E-3,1.143643E4,-2.7354447E-2,7.48E0,3.96E0,-1.0723963E-2,-7.0433277E-3,1.7817847E-2],"split_indices":[2,3,0,3,3,3,0,0,0,0,3,0,1,1,0,0,0],"split_type":[0,0,0,0,0,0,0,0,0,0,0,0,0,0,0,0,0],"sum_hessian":[3.06E2,2.81E2,2.5E1,2.01E2,8E1,1.74E2,2.7E1,4.5E1,3.5E1,3.6E1,1.38E2,3.5E1,1.03E2,5.5E1,4.8E1,2.5E1,3E1],"tree_param":{"num_deleted":"0","num_feature":"14","num_nodes":"17","size_leaf_vector":"1"}},{"base_weights":[2.6417082E-2,-3.228176E-2,1.57748E-1,1.1161135E-2,-6.630961E-2,2.3480715E-1,-9.7495926E-5,-2.260254E-2,-1.149146E-2,8.814595E-3,2.7922379E-2,-8.41014E-2,1.5498673E-2,3.1926297E-2,-1.697203E-2,-9.392831E-3,1.7043084E-2],"categories":[],"categories_nodes":[],"categories_segments":[],"categories_sizes":[],"default_left":[0,0,0,0,0,0,0,0,0,0,0,0,0,0,0,0,0],"id":16,"left_children":[1,3,5,-1,7,9,-1,-1,11,-1,-1,13,-1,15,-1,-1,-1],"loss_changes":[2.371747E0,1.3224456E0,1.1646347E0,0E0,2.3159125E0,9.882357E-1,0E0,0E0,2.3457367E0,0E0,0E0,1.8385303E0,0E0,1.9316399E0,0E0,0E0,0E0],"parents":[2147483647,0,0,1,1,2,2,4,4,5,5,8,8,11,11,13,13],"right_children":[2,4,6,-1,8,10,-1,-1,12,-1,-1,14,-1,16,-1,-1,-1],"split_conditions":[2.886202E4,1.36E0,4.69E0,1.1161135E-2,-1.54E0,6.21E0,-9.7495926E-5,-2.260254E-2,9.53E0,8.814595E-3,2.7922379E-2,3.9E0,1.5498673E-2,1.14E0,-1.697203E-2,-9.392831E-3,1.7043084E-2],"split_indices":[3,2,0,0,0,1,0,0,1,0,0,0,0,0,0,0,0],"split_type":[0,0,0,0,0,0,0,0,0,0,0,0,0,0,0,0,0],"sum_hessian":[3.06E2,2.12E2,9.4E1,3.3E1,1.79E2,6.3E1,3.1E1,3.3E1,1.46E2,3.5E1,2.8E1,1.1E2,3.6E1,6.1E1,4.9E1,3.4E1,2.7E1],"tree_param":{"num_deleted":"0","num_feature":"14","num_nodes":"17","size_leaf_vector":"1"}},{"base_weights":[2.5394488E-2,-8.979084E-2,9.9268E-2,2.9961655E-2,-2.565151E-2,-2.3412295E-3,2.2839902E-1,2.44033E-2,-1.1316939E-1,1.189813E-2,-6.268057E-2,3.5666445E-1,-1.3982314E-3,-2.5160244E-2,6.845159E-3,-1.8595809E-1,1.2039762E-2,1.162257E-2,4.043306E-2,-6.1725164E-3,-2.0916708E-2],"categories":[],"categories_nodes":[],"categories_segments":[],"categories_sizes":[],"default_left":[0,0,0,0,0,0,0,0,0,0,0,0,0,0,0,0,0,0,0,0,0],"id":17,"left_children":[1,3,5,7,-1,9,11,-1,13,-1,15,17,-1,-1,-1,19,-1,-1,-1,-1,-1],"loss_changes":[2.697803E0,3.755678E0,2.532869E0,3.6308906E0,0E0,1.0687268E0,2.7000413E0,0E0,2.666527E0,0E0,2.231201E0,1.9771533E0,0E0,0E0,0E0,4.7796655E-1,0E0,0E0,0E0,0E0,0E0],"parents":[2147483647,0,0,1,1,2,2,3,3,5,5,6,6,8,8,10,10,11,11,15,15],"right_children":[2,4,6,8,-1,10,12,-1,14,-1,16,18,-1,-1,-1,20,-1,-1,-1,-1,-1],"split_conditions":[8.7E-1,-8.1E-1,2.223572E4,2.37E0,-2.565151E-2,3.15E0,6.76E0,2.44033E-2,5.53E0,1.189813E-2,7.38E0,4.84E0,-1.3982314E-3,-2.5160244E-2,6.845159E-3,4.24E0,1.2039762E-2,1.162257E-2,4.043306E-2,-6.1725164E-3,-2.0916708E-2],"split_indices":[0,0,3,2,0,0,0,0,2,0,0,2,0,0,0,2,0,0,0,0,0],"split_type":[0,0,0,0,0,0,0,0,0,0,0,0,0,0,0,0,0,0,0,0,0],"sum_hessian":[3.15E2,1.23E2,1.92E2,8.4E1,3.9E1,1.08E2,8.4E1,2.7E1,5.7E1,2.9E1,7.9E1,5.5E1,2.9E1,2.7E1,3E1,5.1E1,2.8E1,2.7E1,2.8E1,2.5E1,2.6E1],"tree_param":{"num_deleted":"0","num_feature":"14","num_nodes":"21","size_leaf_vector":"1"}},{"base_weights":[-8.289457E-3,-5.3216197E-2,1.715512E-1,-1.5897128E-1,4.879433E-2,1.6609127E-2,7.728346E-3,-1.3789759E-2,-3.7905812E-2,1.9056233E-2,-7.498885E-2,-1.4399418E-2,6.53128E-2,-2.401706E-2,4.2305548E-2,-3.8140963E-3,1.1479619E-2,1.8869646E-2,-1.053668E-2],"categories":[],"categories_nodes":[],"categories_segments":[],"categories_sizes":[],"default_left":[0,0,0,0,0,0,0,0,0,0,0,0,0,0,0,0,0,0,0],"id":18,"left_children":[1,3,5,7,9,-1,-1,11,-1,-1,13,-1,15,-1,17,-1,-1,-1,-1],"loss_changes":[2.5057425E0,2.683214E0,1.8914199E-1,6.129217E0,3.2462878E0,0E0,0E0,1.2389151E0,0E0,0E0,2.3147564E0,0E0,6.2959045E-1,0E0,2.139483E0,0E0,0E0,0E0,0E0],"parents":[2147483647,0,0,1,1,2,2,3,3,4,4,7,7,10,10,12,12,14,14],"right_children":[2,4,6,8,10,-1,-1,12,-1,-1,14,-1,16,-1,18,-1,-1,-1,-1],"split_conditions":[3.178786E4,6.62E0,6.73E0,4.84E0,8.64E0,1.6609127E-2,7.728346E-3,2.89E0,-3.7905812E-2,1.9056233E-2,9.56E0,-1.4399418E-2,1.254177E4,-2.401706E-2,1.074E1,-3.8140963E-3,1.1479619E-2,1.8869646E-2,-1.053668E-2],"split_indices":[3,1,1,1,1,0,0,1,0,0,1,0,3,0,1,0,0,0,0],"split_type":[0,0,0,0,0,0,0,0,0,0,0,0,0,0,0,0,0,0,0],"sum_hessian":[3.08E2,2.47E2,6.1E1,1.21E2,1.26E2,3.4E1,2.7E1,8.6E1,3.5E1,4.7E1,7.9E1,2.6E1,6E1,2.5E1,5.4E1,2.6E1,3.4E1,2.5E1,2.9E1],"tree_param":{"num_deleted":"0","num_feature":"14","num_nodes":"19","size_leaf_vector":"1"}},{"base_weights":[-7.812771E-3,2.0351153E-2,-2.293893E-2,-3.4684706E-2,2.1543965E-2,7.2236247E-3,-2.6194138E-2,-6.7784265E-2,2.2120573E-1,1.8487075E-2,-2.4696331E-2,1.1226998E-2,2.2140913E-2,-1.2963744E-1,1.314869E-1,-2.0982414E-2,1.4798808E-3,2.7553994E-2,-1.0655975E-3],"categories":[],"categories_nodes":[],"categories_segments":[],"categories_sizes":[],"default_left":[0,0,0,0,0,0,0,0,0,0,0,0,0,0,0,0,0,0,0],"id":19,"left_children":[1,3,-1,5,-1,7,-1,9,11,13,-1,-1,-1,15,17,-1,-1,-1,-1],"loss_changes":[2.6251416E0,4.211064E0,0E0,3.140106E0,0E0,3.4016173E0,0E0,3.5480025E0,2.4688959E-1,2.0088725E0,0E0,0E0,0E0,1.1715946E0,2.3423371E0,0E0,0E0,0E0,0E0],"parents":[2147483647,0,0,1,1,3,3,5,5,7,7,8,8,9,9,13,13,14,14],"right_children":[2,4,-1,6,-1,8,-1,10,12,14,-1,-1,-1,16,18,-1,-1,-1,-1],"split_conditions":[1.118E1,9.56E0,-2.293893E-2,8.64E0,2.1543965E-2,6.64E0,-2.6194138E-2,5.4E0,2.43E0,3.92E0,-2.4696331E-2,1.1226998E-2,2.2140913E-2,8.9E-1,6.06E0,-2.0982414E-2,1.4798808E-3,2.7553994E-2,-1.0655975E-3],"split_indices":[1,1,0,1,0,1,0,1,0,2,0,0,0,0,2,0,0,0,0],"split_type":[0,0,0,0,0,0,0,0,0,0,0,0,0,0,0,0,0,0,0],"sum_hessian":[3.11E2,2.85E2,2.6E1,2.37E2,4.8E1,2.1E2,2.7E1,1.56E2,5.4E1,1.18E2,3.8E1,2.9E1,2.5E1,5.1E1,6.7E1,2.5E1,2.6E1,2.5E1,4.2E1],"tree_param":{"num_deleted":"0","num_feature":"14","num_nodes":"19","size_leaf_vector":"1"}},{"base_weights":[-1.6912948E-2,1.9808153E-3,-1.2528002E-2,1.0274615E-1,-3.3564355E-2,-1.2986809E-3,1.3019528E-2,-1.9878887E-2,1.5081652E-2,7.5220324E-2,-8.507309E-2,1.5162021E-2,1.500387E-2,-9.7434865E-3,-1.2864942E-3,9.457368E-3,-1.2099645E-2],"categories":[],"categories_nodes":[],"categories_segments":[],"categories_sizes":[],"default_left":[0,0,0,0,0,0,0,0,0,0,0,0,0,0,0,0,0],"id":20,"left_children":[1,3,-1,5,7,-1,-1,-1,9,11,13,15,-1,-1,-1,-1,-1],"loss_changes":[8.881445E-1,1.0027488E0,0E0,6.2395054E-1,2.3350124E0,0E0,0E0,0E0,1.0423851E0,8.066594E-1,1.9573101E-1,1.4692042E0,0E0,0E0,0E0,0E0,0E0],"parents":[2147483647,0,0,1,1,3,3,4,4,8,8,9,9,10,10,11,11],"right_children":[2,4,-1,6,8,-1,-1,-1,10,12,14,16,-1,-1,-1,-1,-1],"split_conditions":[1E0,-8.1E-1,-1.2528002E-2,-3.14E0,8.7E-1,-1.2986809E-3,1.3019528E-2,-1.9878887E-2,6.72E0,4.5E0,8.45E0,3.1E0,1.500387E-2,-9.7434865E-3,-1.2864942E-3,9.457368E-3,-1.2099645E-2],"split_indices":[13,0,0,0,0,0,0,0,0,0,0,0,0,0,0,0,0],"split_type":[0,0,0,0,0,0,0,0,0,0,0,0,0,0,0,0,0],"sum_hessian":[3.12E2,2.78E2,3.4E1,7.2E1,2.06E2,2.7E1,4.5E1,3.5E1,1.71E2,1.07E2,6.4E1,7.3E1,3.4E1,3.8E1,2.6E1,4.5E1,2.8E1],"tree_param":{"num_deleted":"0","num_feature":"14","num_nodes":"17","size_leaf_vector":"1"}},{"base_weights":[1.9914826E-2,-1.4954403E-1,5.424971E-2,8.561704E-4,-2.3785012E-2,8.461032E-2,-1.4366457E-2,2.3717524E-2,2.5217405E-1,-1.2953523E-1,1.2274104E-1,3.5742078E-2,4.909462E-3,5.352738E-3,-3.279425E-2,5.2122988E-2,2.5147993E-2,1.54650435E-2,-8.635741E-3],"categories":[],"categories_nodes":[],"categories_segments":[],"categories_sizes":[],"default_left":[0,0,0,0,0,0,0,0,0,0,0,0,0,0,0,0,0,0,0],"id":21,"left_children":[1,3,5,-1,-1,7,-1,9,11,13,15,-1,-1,-1,-1,17,-1,-1,-1],"loss_changes":[1.8292564E0,1.4333025E0,1.9639755E0,0E0,0E0,2.3714168E0,0E0,2.6261072E0,2.566376E0,4.235156E0,1.5586741E0,0E0,0E0,0E0,0E0,2.0855002E0,0E0,0E0,0E0],"parents":[2147483647,0,0,1,1,2,2,5,5,7,7,8,8,9,9,10,10,15,15],"right_children":[2,4,6,-1,-1,8,-1,10,12,14,16,-1,-1,-1,-1,18,-1,-1,-1],"split_conditions":[3.32E0,2.173152E4,1E0,8.561704E-4,-2.3785012E-2,2.988442E4,-1.4366457E-2,6.62E0,6.73E0,6.06E0,2.174367E4,3.5742078E-2,4.909462E-3,5.352738E-3,-3.279425E-2,1.37272E4,2.5147993E-2,1.54650435E-2,-8.635741E-3],"split_indices":[1,3,11,0,0,3,0,1,1,2,3,0,0,0,0,3,0,0,0],"split_type":[0,0,0,0,0,0,0,0,0,0,0,0,0,0,0,0,0,0,0],"sum_hessian":[3.12E2,5.2E1,2.6E2,2.7E1,2.5E1,2.32E2,2.8E1,1.71E2,6.1E1,6.7E1,1.04E2,2.7E1,3.4E1,4.1E1,2.6E1,7.9E1,2.5E1,4.1E1,3.8E1],"tree_param":{"num_deleted":"0","num_feature":"14","num_nodes":"19","size_leaf_vector":"1"}},{"base_weights":[-8.748761E-3,-4.21281E-2,1.9390196E-2,-2.032683E-2,-1.9074595E-2,-7.0596695E-2,1.4844956E-2,4.9789394E-3,-2.8621942E-1,-1.9334681E-2,6.494341E-2,-7.936361E-3,-3.5732087E-2,-2.145997E-3,1.9813662E-2,5.59897E-3,-1.5883772E-2],"categories":[],"categories_nodes":[],"categories_segments":[],"categories_sizes":[],"default_left":[0,0,0,0,0,0,0,0,0,0,0,0,0,0,0,0,0],"id":22,"left_children":[1,3,-1,5,-1,7,-1,9,11,-1,13,-1,-1,15,-1,-1,-1],"loss_changes":[2.8123324E0,1.2901735E0,0E0,2.8118024E0,0E0,3.3909564E0,0E0,2.4590998E0,1.8025322E0,0E0,1.6981515E0,0E0,0E0,1.5614051E0,0E0,0E0,0E0],"parents":[2147483647,0,0,1,1,3,3,5,5,7,7,8,8,10,10,13,13],"right_children":[2,4,-1,6,-1,8,-1,10,12,-1,14,-1,-1,16,-1,-1,-1],"split_conditions":[8.73E0,1.111E1,1.9390196E-2,9.43E0,-1.9074595E-2,6.42E0,1.4844956E-2,3.05E0,6.07E0,-1.9334681E-2,5E0,-7.936361E-3,-3.5732087E-2,3.56E0,1.9813662E-2,5.59897E-3,-1.5883772E-2],"split_indices":[2,1,0,1,0,2,0,1,1,0,2,0,0,2,0,0,0],"split_type":[0,0,0,0,0,0,0,0,0,0,0,0,0,0,0,0,0],"sum_hessian":[3.13E2,2.79E2,3.4E1,2.54E2,2.5E1,2.07E2,4.7E1,1.54E2,5.3E1,2.8E1,1.26E2,2.8E1,2.5E1,9.5E1,3.1E1,7E1,2.5E1],"tree_param":{"num_deleted":"0","num_feature":"14","num_nodes":"17","size_leaf_vector":"1"}},{"base_weights":[-5.940963E-3,1.2874183E-2,-1.5481187E-2,-2.4103722E-2,1.6315487E-1,5.317825E-3,-1.9306306E-2,2.5549993E-2,-5.97089E-4,-4.9805164E-2,1.3455009E-2,3.6046788E-2,-1.8113822E-2,-1.5509392E-1,1.9791561E-1,-7.6263654E-3,-1.5190337E-2,1.7051576E-3,2.7079534E-2],"categories":[],"categories_nodes":[],"categories_segments":[],"categories_sizes":[],"default_left":[0,0,0,0,0,0,0,0,0,0,0,0,0,0,0,0,0,0,0],"id":23,"left_children":[1,3,-1,5,7,9,-1,-1,-1,11,-1,13,-1,15,17,-1,-1,-1,-1],"loss_changes":[1.1870542E0,1.6043673E0,0E0,1.5939212E0,1.734093E0,1.995294E0,0E0,0E0,0E0,2.60921E0,0E0,3.4340646E0,0E0,1.08635545E-1,1.7065756E0,0E0,0E0,0E0,0E0],"parents":[2147483647,0,0,1,1,3,3,4,4,5,5,9,9,11,11,13,13,14,14],"right_children":[2,4,-1,6,8,10,-1,-1,-1,12,-1,14,-1,16,18,-1,-1,-1,-1],"split_conditions":[1.123E1,9.4E0,-1.5481187E-2,8.59E0,1.031E1,6.78E0,-1.9306306E-2,2.5549993E-2,-5.97089E-4,5.15E0,1.3455009E-2,3.92E0,-1.8113822E-2,2.107266E4,3.31E0,-7.6263654E-3,-1.5190337E-2,1.7051576E-3,2.7079534E-2],"split_indices":[1,1,0,1,1,1,0,0,0,1,0,2,0,3,1,0,0,0,0],"split_type":[0,0,0,0,0,0,0,0,0,0,0,0,0,0,0,0,0,0,0],"sum_hessian":[3.13E2,2.87E2,2.6E1,2.31E2,5.6E1,2.06E2,2.5E1,2.7E1,2.9E1,1.57E2,4.9E1,1.09E2,4.8E1,5E1,5.9E1,2.5E1,2.5E1,2.9E1,3E1],"tree_param":{"num_deleted":"0","num_feature":"14","num_nodes":"19","size_leaf_vector":"1"}},{"base_weights":[7.540651E-3,-1.4695725E-2,1.5180277E-2,1.4886872E-2,-4.5985058E-2,-1.0370096E-1,7.149E-2,-6.347293E-2,-2.3144161E-2,1.973457E-2,-4.843885E-3,-1.4591554E-1,7.440576E-3,-4.029824E-2,-2.2208702E-2,1.6645767E-2,-2.3307014E-2],"categories":[],"categories_nodes":[],"categories_segments":[],"categories_sizes":[],"default_left":[0,0,0,0,0,0,0,0,0,0,0,0,0,0,0,0,0],"id":24,"left_children":[1,3,-1,-1,5,7,9,11,-1,-1,-1,13,-1,15,-1,-1,-1],"loss_changes":[1.3115549E0,1.8235011E0,0E0,0E0,1.6210961E0,1.2991705E0,2.0770862E0,1.8250706E0,0E0,0E0,0E0,1.4158065E0,0E0,3.8989978E0,0E0,0E0,0E0],"parents":[2147483647,0,0,1,1,4,4,5,5,6,6,7,7,11,11,13,13],"right_children":[2,4,-1,-1,6,8,10,12,-1,-1,-1,14,-1,16,-1,-1,-1],"split_conditions":[8.73E0,5.8889E3,1.5180277E-2,1.4886872E-2,2.886202E4,2.41583E4,3.45E0,5.98E0,-2.3144161E-2,1.973457E-2,-4.843885E-3,3.56E0,7.440576E-3,1.556864E4,-2.2208702E-2,1.6645767E-2,-2.3307014E-2],"split_indices":[2,3,0,0,3,3,2,2,0,0,0,2,0,3,0,0,0],"split_type":[0,0,0,0,0,0,0,0,0,0,0,0,0,0,0,0,0],"sum_hessian":[3.01E2,2.71E2,3E1,3.4E1,2.37E2,1.59E2,7.8E1,1.34E2,2.5E1,3.2E1,4.6E1,8.9E1,4.5E1,5.3E1,3.6E1,2.7E1,2.6E1],"tree_param":{"num_deleted":"0","num_feature":"14","num_nodes":"17","size_leaf_vector":"1"}},{"base_weights":[2.003313E-2,-1.8980272E-2,4.6018146E-2,2.2893855E-1,-3.1838284E-3,2.8485656E-2,4.9056085E-3,-1.4517766E-2,4.4430457E-2,1.09337755E-1,-6.408359E-2,2.1986276E-1,-4.6922723E-3,-2.0866513E-2,1.1867695E-2,5.624829E-3,2.6883451E-2],"categories":[],"categories_nodes":[],"categories_segments":[],"categories_sizes":[],"default_left":[0,0,0,0,0,0,0,0,0,0,0,0,0,0,0,0,0],"id":25,"left_children":[1,-1,3,5,7,-1,-1,-1,9,11,13,15,-1,-1,-1,-1,-1],"loss_changes":[2.2044945E0,0E0,2.5477417E0,1.4554691E0,2.0391855E0,0E0,0E0,0E0,1.2748106E0,2.1606874E0,3.2812827E0,1.3583522E0,0E0,0E0,0E0,0E0,0E0],"parents":[2147483647,0,0,2,2,3,3,4,4,8,8,9,9,10,10,11,11],"right_children":[2,-1,4,6,8,-1,-1,-1,10,12,14,16,-1,-1,-1,-1,-1],"split_conditions":[-3.3E0,-1.8980272E-2,-8.1E-1,5.93E0,1.24E0,2.8485656E-2,4.9056085E-3,-1.4517766E-2,6.72E0,7.59E0,6.86E0,4.63E0,-4.6922723E-3,-2.0866513E-2,1.1867695E-2,5.624829E-3,2.6883451E-2],"split_indices":[0,0,0,1,0,0,0,0,0,1,1,1,0,0,0,0,0],"split_type":[0,0,0,0,0,0,0,0,0,0,0,0,0,0,0,0,0],"sum_hessian":[3.08E2,2.6E1,2.82E2,5.9E1,2.23E2,3E1,2.9E1,4.4E1,1.79E2,1.12E2,6.7E1,6.8E1,4.4E1,3.4E1,3.3E1,3.4E1,3.4E1],"tree_param":{"num_deleted":"0","num_feature":"14","num_nodes":"17","size_leaf_vector":"1"}},{"base_weights":[-1.6806822E-3,-1.4077056E-2,2.0015864E-2,-3.325866E-2,1.4450546E-1,-1.4800644E-1,5.719726E-2,1.9560596E-2,-2.8214334E-3,-4.214411E-2,-2.8001187E-2,-2.6099763E-3,1.7753415E-2,3.7110865E-3,-1.1951753E-2,9.362256E-3,-1.0204235E-2],"categories":[],"categories_nodes":[],"categories_segments":[],"categories_sizes":[],"default_left":[0,0,0,0,0,0,0,0,0,0,0,0,0,0,0,0,0],"id":26,"left_children":[1,-1,3,5,7,9,11,-1,-1,13,-1,15,-1,-1,-1,-1,-1],"loss_changes":[1.2750489E0,0E0,1.8816972E0,2.0740094E0,1.810242E0,2.0835323E0,1.2030826E0,0E0,0E0,6.630028E-1,0E0,1.4625305E0,0E0,0E0,0E0,0E0,0E0],"parents":[2147483647,0,0,2,2,3,3,4,4,5,5,6,6,9,9,11,11],"right_children":[2,-1,4,6,8,10,12,-1,-1,14,-1,16,-1,-1,-1,-1,-1],"split_conditions":[2.89E0,-1.4077056E-2,2.886202E4,6.62E0,3.465592E4,5.4E0,2.103083E4,1.9560596E-2,-2.8214334E-3,1.47515E4,-2.8001187E-2,1.37272E4,1.7753415E-2,3.7110865E-3,-1.1951753E-2,9.362256E-3,-1.0204235E-2],"split_indices":[1,0,3,1,3,1,3,0,0,3,0,3,0,0,0,0,0],"split_type":[0,0,0,0,0,0,0,0,0,0,0,0,0,0,0,0,0],"sum_hessian":[3.14E2,3.2E1,2.82E2,1.98E2,8.4E1,8.7E1,1.11E2,5.1E1,3.3E1,6E1,2.7E1,8.4E1,2.7E1,3.4E1,2.6E1,4.3E1,4.1E1],"tree_param":{"num_deleted":"0","num_feature":"14","num_nodes":"17","size_leaf_vector":"1"}},{"base_weights":[-5.57035E-3,1.34699E-2,-1.4989048E-2,-2.1283608E-2,1.7402594E-1,5.044803E-2,-1.2105818E-1,2.1243885E-2,4.35801E-3,-2.0596657E-2,1.6876683E-2,-2.727928E-2,-2.9646838E-2,8.297637E-3,-1.0600323E-2,8.176228E-3,-1.828437E-2],"categories":[],"categories_nodes":[],"categories_segments":[],"categories_sizes":[],"default_left":[0,0,0,0,0,0,0,0,0,0,0,0,0,0,0,0,0],"id":27,"left_children":[1,3,-1,5,7,9,11,-1,-1,13,-1,-1,15,-1,-1,-1,-1],"loss_changes":[1.1605444E0,1.5995511E0,0E0,1.6951579E0,6.2927103E-1,1.716191E0,2.1852725E0,0E0,0E0,1.5842975E0,0E0,0E0,2.1942391E0,0E0,0E0,0E0,0E0],"parents":[2147483647,0,0,1,1,3,3,4,4,5,5,6,6,9,9,12,12],"right_children":[2,4,-1,6,8,10,12,-1,-1,14,-1,-1,16,-1,-1,-1,-1],"split_conditions":[1.123E1,9.56E0,-1.4989048E-2,5.93E0,1.047E1,4.63E0,6.86E0,2.1243885E-2,4.35801E-3,3.22E0,1.6876683E-2,-2.727928E-2,8.63E0,8.297637E-3,-1.0600323E-2,8.176228E-3,-1.828437E-2],"split_indices":[1,1,0,1,1,1,1,0,0,1,0,0,1,0,0,0,0],"split_type":[0,0,0,0,0,0,0,0,0,0,0,0,0,0,0,0,0],"sum_hessian":[3.12E2,2.85E2,2.7E1,2.35E2,5E1,1.37E2,9.8E1,2.5E1,2.5E1,9.8E1,3.9E1,2.6E1,7.2E1,4.7E1,5.1E1,4.4E1,2.8E1],"tree_param":{"num_deleted":"0","num_feature":"14","num_nodes":"17","size_leaf_vector":"1"}},{"base_weights":[-5.938509E-3,-4.6287697E-2,7.441576E-2,-7.1987896E-3,-2.295768E-2,1.2441356E-2,3.8312376E-2,-6.0977004E-2,1.5608982E-2,-2.0633633E-3,7.474772E-3,-1.0740068E-2,-1.543557E-2,-6.991467E-2,8.220503E-3,4.9647195E-3,-1.6498676E-2],"categories":[],"categories_nodes":[],"categories_segments":[],"categories_sizes":[],"default_left":[0,0,0,0,0,0,0,0,0,0,0,0,0,0,0,0,0],"id":28,"left_children":[1,3,5,7,-1,-1,9,11,-1,-1,-1,13,-1,15,-1,-1,-1],"loss_changes":[9.6962893E-1,2.018815E0,3.2387853E-1,2.0275142E0,0E0,0E0,2.9754347E-1,1.016408E0,0E0,0E0,0E0,7.554177E-1,0E0,1.4647973E0,0E0,0E0,0E0],"parents":[2147483647,0,0,1,1,2,2,3,3,6,6,7,7,11,11,13,13],"right_children":[2,4,6,8,-1,-1,10,12,-1,-1,-1,14,-1,16,-1,-1,-1],"split_conditions":[2.819374E4,2.298274E4,3.115047E4,1.988943E4,-2.295768E-2,1.2441356E-2,3.521687E4,1.594809E4,1.5608982E-2,-2.0633633E-3,7.474772E-3,1.063813E4,-1.543557E-2,5.8889E3,8.220503E-3,4.9647195E-3,-1.6498676E-2],"split_indices":[3,3,3,3,0,0,3,3,0,0,0,3,0,3,0,0,0],"split_type":[0,0,0,0,0,0,0,0,0,0,0,0,0,0,0,0,0],"sum_hessian":[2.97E2,1.98E2,9.9E1,1.73E2,2.5E1,2.7E1,7.2E1,1.39E2,3.4E1,3.5E1,3.7E1,1.04E2,3.5E1,7E1,3.4E1,3.7E1,3.3E1],"tree_param":{"num_deleted":"0","num_feature":"14","num_nodes":"17","size_leaf_vector":"1"}},{"base_weights":[-9.568495E-3,-1.5895916E-2,1.2324385E-2,-1.6658133E-2,3.554167E-2,7.714644E-2,-9.991157E-2,-7.7879294E-3,1.13315254E-1,3.9048048E-3,-1.9781578E-2,2.2924142E-1,5.1720362E-2,2.757339E-2,4.2537693E-3,-1.1802185E-2,1.14330046E-1,-2.411472E-3,1.691969E-2],"categories":[],"categories_nodes":[],"categories_segments":[],"categories_sizes":[],"default_left":[0,0,0,0,0,0,0,0,0,0,0,0,0,0,0,0,0,0,0],"id":29,"left_children":[1,-1,3,-1,5,7,9,-1,11,-1,-1,13,15,-1,-1,-1,17,-1,-1],"loss_changes":[1.4071175E0,0E0,1.5700045E0,0E0,1.4842092E0,1.3275186E0,1.5575392E0,0E0,1.1877408E0,0E0,0E0,1.364075E0,1.4710488E0,0E0,0E0,0E0,1.4089289E0,0E0,0E0],"parents":[2147483647,0,0,2,2,4,4,5,5,6,6,8,8,11,11,12,12,16,16],"right_children":[2,-1,4,-1,6,8,10,-1,12,-1,-1,14,16,-1,-1,-1,18,-1,-1],"split_conditions":[4.3E-1,-1.5895916E-2,-3.2E0,-1.6658133E-2,6.72E0,7.86772E3,5.52E0,-7.7879294E-3,1.833025E4,3.9048048E-3,-1.9781578E-2,2.19E0,2.223572E4,2.757339E-2,4.2537693E-3,-1.1802185E-2,9.6E-1,-2.411472E-3,1.691969E-2],"split_indices":[2,0,0,0,0,3,2,0,3,0,0,0,3,0,0,0,0,0,0],"split_type":[0,0,0,0,0,0,0,0,0,0,0,0,0,0,0,0,0,0,0],"sum_hessian":[3.16E2,3E1,2.86E2,2.5E1,2.61E2,2E2,6.1E1,3.3E1,1.67E2,3.2E1,2.9E1,5.7E1,1.1E2,3.1E1,2.6E1,2.5E1,8.5E1,3.7E1,4.8E1],"tree_param":{"num_deleted":"0","num_feature":"14","num_nodes":"19","size_leaf_vector":"1"}},{"base_weights":[-6.651287E-3,-1.5034002E-1,2.6942605E-2,-2.487679E-2,1.2790387E-4,2.7436651E-3,1.7230192E-2,1.2312778E-2,-2.6779193E-2,-1.4504078E-2,2.7765276E-2,1.5342668E-1,-5.43836E-2,6.196443E-3,1.6596258E-2,1.9118132E-2,-1.6177993E-2,-6.6599203E-3,1.2274184E-2],"categories":[],"categories_nodes":[],"categories_segments":[],"categories_sizes":[],"default_left":[0,0,0,0,0,0,0,0,0,0,0,0,0,0,0,0,0,0,0],"id":30,"left_children":[1,3,5,-1,-1,7,-1,-1,9,-1,11,13,15,-1,-1,17,-1,-1,-1],"loss_changes":[1.4521698E0,1.5722557E0,1.1967708E0,0E0,0E0,1.0481018E0,0E0,0E0,1.695658E0,0E0,1.4638788E0,2.507844E-1,1.0238706E0,0E0,0E0,9.504173E-1,0E0,0E0,0E0],"parents":[2147483647,0,0,1,1,2,2,5,5,8,8,10,10,11,11,12,12,15,15],"right_children":[2,4,6,-1,-1,8,-1,-1,10,-1,12,14,16,-1,-1,18,-1,-1,-1],"split_conditions":[-1.69E0,4.23E0,1E0,-2.487679E-2,1.2790387E-4,-2E-2,1.7230192E-2,1.2312778E-2,2.37E0,-1.4504078E-2,5.52E0,4.17E0,6.72E0,6.196443E-3,1.6596258E-2,3.92E0,-1.6177993E-2,-6.6599203E-3,1.2274184E-2],"split_indices":[0,2,10,0,0,0,0,0,2,0,2,2,0,0,0,0,0,0,0],"split_type":[0,0,0,0,0,0,0,0,0,0,0,0,0,0,0,0,0,0,0],"sum_hessian":[2.99E2,5.6E1,2.43E2,2.5E1,3.1E1,2.18E2,2.5E1,3.3E1,1.85E2,4.5E1,1.4E2,5.5E1,8.5E1,2.8E1,2.7E1,5.9E1,2.6E1,3.4E1,2.5E1],"tree_param":{"num_deleted":"0","num_feature":"14","num_nodes":"19","size_leaf_vector":"1"}},{"base_weights":[2.3677457E-2,9.2260756E-2,-2.8881487E-2,1.821274E-2,1.8919837E-2,-2.034029E-2,1.7471628E-2,-5.2252326E-2,9.327776E-3,1.0289157E-2,-3.172178E-2,9.819318E-3,-1.9038493E-2,-2.30878E-2,5.841229E-2,1.867234E-2,-5.0416547E-3],"categories":[],"categories_nodes":[],"categories_segments":[],"categories_sizes":[],"default_left":[0,0,0,0,0,0,0,0,0,0,0,0,0,0,0,0,0],"id":31,"left_children":[1,3,5,7,-1,-1,9,11,-1,-1,13,-1,-1,-1,15,-1,-1],"loss_changes":[1.1056924E0,1.5711842E0,1.9591756E0,6.9469565E-1,0E0,0E0,8.7007797E-1,2.1011655E0,0E0,0E0,2.6311603E0,0E0,0E0,0E0,1.9319282E0,0E0,0E0],"parents":[2147483647,0,0,1,1,2,2,3,3,6,6,7,7,10,10,14,14],"right_children":[2,4,6,8,-1,-1,10,12,-1,-1,14,-1,-1,-1,16,-1,-1],"split_conditions":[5.93E0,4.63E0,6.86E0,2.477561E4,1.8919837E-2,-2.034029E-2,8.59E0,3.22E0,9.327776E-3,1.0289157E-2,9.4E0,9.819318E-3,-1.9038493E-2,-2.30878E-2,1.057E1,1.867234E-2,-5.0416547E-3],"split_indices":[1,1,1,3,0,0,1,1,0,0,1,0,0,0,1,0,0],"split_type":[0,0,0,0,0,0,0,0,0,0,0,0,0,0,0,0,0],"sum_hessian":[3.05E2,1.32E2,1.73E2,9.1E1,4.1E1,2.7E1,1.46E2,5.5E1,3.6E1,4.2E1,1.04E2,2.9E1,2.6E1,2.5E1,7.9E1,3.1E1,4.8E1],"tree_param":{"num_deleted":"0","num_feature":"14","num_nodes":"17","size_leaf_vector":"1"}},{"base_weights":[2.3120763E-3,-1.5180815E-2,2.299031E-2,-9.419267E-2,6.1225336E-2,-1.5314092E-2,9.301958E-4,2.4902068E-2,1.934973E-2,-1.2237864E-2,1.4553608E-2,-5.8042634E-2,7.5073517E-3,2.1726536E-2,-2.300046E-2,1.4790083E-2,-5.7875E-3],"categories":[],"categories_nodes":[],"categories_segments":[],"categories_sizes":[],"default_left":[0,0,0,0,0,0,0,0,0,0,0,0,0,0,0,0,0],"id":32,"left_children":[1,-1,3,5,7,-1,-1,-1,9,11,-1,13,-1,15,-1,-1,-1],"loss_changes":[1.3381457E0,0E0,1.2916688E0,8.350054E-1,2.454357E0,0E0,0E0,0E0,1.0453337E0,8.3423865E-1,0E0,2.2874606E0,0E0,1.5423026E0,0E0,0E0,0E0],"parents":[2147483647,0,0,2,2,3,3,4,4,8,8,9,9,11,11,13,13],"right_children":[2,-1,4,6,8,-1,-1,-1,10,12,-1,14,-1,16,-1,-1,-1],"split_conditions":[-3.3E0,-1.5180815E-2,2.08E0,1.889958E4,3.29E0,-1.5314092E-2,9.301958E-4,2.4902068E-2,8.73E0,5.07E0,1.4553608E-2,3.7E0,7.5073517E-3,5.04E0,-2.300046E-2,1.4790083E-2,-5.7875E-3],"split_indices":[0,0,2,3,2,0,0,0,2,0,0,0,0,2,0,0,0],"split_type":[0,0,0,0,0,0,0,0,0,0,0,0,0,0,0,0,0],"sum_hessian":[3.14E2,2.8E1,2.86E2,7E1,2.16E2,3.4E1,3.6E1,2.8E1,1.88E2,1.6E2,2.8E1,1.14E2,4.6E1,8.7E1,2.7E1,3.1E1,5.6E1],"tree_param":{"num_deleted":"0","num_feature":"14","num_nodes":"17","size_leaf_vector":"1"}},{"base_weights":[-7.769766E-3,-1.6105037E-2,1.159286E-2,1.9913277E-2,-1.4518795E-2,5.1401407E-2,-1.0112854E-1,-9.2323385E-2,1.5943292E-1,-1.9756489E-2,-3.175777E-2,-1.4478087E-2,-8.1653957E-4,2.2723295E-2,2.9611206E-3,5.4450124E-3,-1.45368455E-2],"categories":[],"categories_nodes":[],"categories_segments":[],"categories_sizes":[],"default_left":[0,0,0,0,0,0,0,0,0,0,0,0,0,0,0,0,0],"id":33,"left_children":[1,-1,3,-1,5,7,9,11,13,-1,15,-1,-1,-1,-1,-1,-1],"loss_changes":[1.2648101E0,0E0,1.9199845E0,0E0,1.5067525E0,2.3437405E0,1.2750775E0,5.310329E-1,1.4688146E0,0E0,1.3840215E0,0E0,0E0,0E0,0E0,0E0,0E0],"parents":[2147483647,0,0,2,2,4,4,5,5,6,6,7,7,8,8,10,10],"right_children":[2,-1,4,-1,6,8,10,12,14,-1,16,-1,-1,-1,-1,-1,-1],"split_conditions":[-3.3E0,-1.6105037E-2,-2.15E0,1.9913277E-2,5.59E0,2.2E0,1.56E0,2.73E0,3.94E0,-1.9756489E-2,6.72E0,-1.4478087E-2,-8.1653957E-4,2.2723295E-2,2.9611206E-3,5.4450124E-3,-1.45368455E-2],"split_indices":[0,0,0,0,2,2,0,0,2,0,0,0,0,0,0,0,0],"split_type":[0,0,0,0,0,0,0,0,0,0,0,0,0,0,0,0,0],"sum_hessian":[3.14E2,2.6E1,2.88E2,2.6E1,2.62E2,1.49E2,1.13E2,6.4E1,8.5E1,3.3E1,8E1,2.8E1,3.6E1,3.8E1,4.7E1,4.9E1,3.1E1],"tree_param":{"num_deleted":"0","num_feature":"14","num_nodes":"17","size_leaf_vector":"1"}},{"base_weights":[-8.898869E-3,1.5599105E-2,-1.9628627E-2,-1.3584944E-2,1.4030062E-1,2.669056E-2,-1.5190515E-2,2.0710003E-2,-5.4633165E-5,7.603497E-2,-9.885351E-3,-9.573078E-3,1.3304025E-1,2.8799664E-2,5.3628396E-2,-1.3390639E-2,1.2081053E-2],"categories":[],"categories_nodes":[],"categories_segments":[],"categories_sizes":[],"default_left":[0,0,0,0,0,0,0,0,0,0,0,0,0,0,0,0,0],"id":34,"left_children":[1,3,-1,5,7,9,-1,-1,-1,11,-1,-1,13,-1,15,-1,-1],"loss_changes":[1.893095E0,1.0172693E0,0E0,1.7329367E0,1.0154883E0,1.4803424E0,0E0,0E0,0E0,1.6889089E0,0E0,0E0,2.2313638E0,0E0,2.1991684E0,0E0,0E0],"parents":[2147483647,0,0,1,1,3,3,4,4,5,5,9,9,12,12,14,14],"right_children":[2,4,-1,6,8,10,-1,-1,-1,12,-1,-1,14,-1,16,-1,-1],"split_conditions":[1.118E1,9.43E0,-1.9628627E-2,6.72E0,1.031E1,7.45E0,-1.5190515E-2,2.0710003E-2,-5.4633165E-5,1.003956E4,-9.885351E-3,-9.573078E-3,1.833025E4,2.8799664E-2,3.32E0,-1.3390639E-2,1.2081053E-2],"split_indices":[1,1,0,0,1,1,0,0,0,3,0,0,3,0,1,0,0],"split_type":[0,0,0,0,0,0,0,0,0,0,0,0,0,0,0,0,0],"sum_hessian":[3.04E2,2.78E2,2.6E1,2.26E2,5.2E1,1.87E2,3.9E1,2.6E1,2.6E1,1.43E2,4.4E1,3.1E1,1.12E2,2.6E1,8.6E1,2.7E1,5.9E1],"tree_param":{"num_deleted":"0","num_feature":"14","num_nodes":"17","size_leaf_vector":"1"}},{"base_weights":[4.415777E-3,1.0036598E-1,-2.1450058E-2,-3.3683674E-3,2.1545157E-2,-4.5834184E-2,9.841728E-3,-1.4013973E-2,-2.5982194E-2,1.2997297E-2,-5.780494E-2,-1.2816147E-2,-3.592313E-2,6.6026454E-3,-8.615183E-2,-1.3186155E-2,8.1828947E-4],"categories":[],"categories_nodes":[],"categories_segments":[],"categories_sizes":[],"default_left":[0,0,0,0,0,0,0,0,0,0,0,0,0,0,0,0,0],"id":35,"left_children":[1,3,5,-1,-1,7,-1,-1,9,-1,11,-1,13,-1,15,-1,-1],"loss_changes":[7.715208E-1,1.8049848E0,9.181006E-1,0E0,0E0,5.8863986E-1,0E0,0E0,1.1959003E0,0E0,3.9470273E-1,0E0,8.605834E-1,0E0,8.548079E-1,0E0,0E0],"parents":[2147483647,0,0,1,1,2,2,5,5,8,8,10,10,12,12,14,14],"right_children":[2,4,6,-1,-1,8,-1,-1,10,-1,12,-1,14,-1,16,-1,-1],"split_conditions":[1.66E0,6.3E-1,8.73E0,-3.3683674E-3,2.1545157E-2,2.65E0,9.841728E-3,-1.4013973E-2,3.56E0,1.2997297E-2,4.78E0,-1.2816147E-2,5.59E0,6.6026454E-3,7.13E0,-1.3186155E-2,8.1828947E-4],"split_indices":[2,2,2,0,0,2,0,0,2,0,2,0,2,0,2,0,0],"split_type":[0,0,0,0,0,0,0,0,0,0,0,0,0,0,0,0,0],"sum_hessian":[3.09E2,6.5E1,2.44E2,3.7E1,2.8E1,2.11E2,3.3E1,2.5E1,1.86E2,2.5E1,1.61E2,2.5E1,1.36E2,3.9E1,9.7E1,5E1,4.7E1],"tree_param":{"num_deleted":"0","num_feature":"14","num_nodes":"17","size_leaf_vector":"1"}},{"base_weights":[1.6294366E-2,-4.119771E-3,1.5159755E-2,1.0417935E-1,-3.0701486E-2,7.387441E-4,1.5948163E-2,-7.799203E-2,1.0607977E-1,1.5532722E-2,-1.9387177E-1,2.2690592E-4,1.6505072E-2,8.50065E-2,-7.5516272E-3,-8.854964E-3,-2.4530403E-2,-7.4040177E-3,2.467961E-2],"categories":[],"categories_nodes":[],"categories_segments":[],"categories_sizes":[],"default_left":[0,0,0,0,0,0,0,0,0,0,0,0,0,0,0,0,0,0,0],"id":36,"left_children":[1,3,-1,5,7,-1,-1,9,11,13,15,-1,-1,17,-1,-1,-1,-1,-1],"loss_changes":[1.1882529E0,8.1789213E-1,0E0,5.708547E-1,1.4830823E0,0E0,0E0,1.8454071E0,6.92404E-1,7.756193E-1,7.287805E-1,0E0,0E0,2.72285E0,0E0,0E0,0E0,0E0,0E0],"parents":[2147483647,0,0,1,1,3,3,4,4,7,7,8,8,9,9,10,10,13,13],"right_children":[2,4,-1,6,8,-1,-1,10,12,14,16,-1,-1,18,-1,-1,-1,-1,-1],"split_conditions":[8.73E0,1.36E0,1.5159755E-2,2.2E-1,9.53E0,7.387441E-4,1.5948163E-2,5.91E0,5.98E0,5.52E0,6.45E0,2.2690592E-4,1.6505072E-2,3.92E0,-7.5516272E-3,-8.854964E-3,-2.4530403E-2,-7.4040177E-3,2.467961E-2],"split_indices":[2,2,0,2,1,0,0,1,2,2,2,0,0,2,0,0,0,0,0],"split_type":[0,0,0,0,0,0,0,0,0,0,0,0,0,0,0,0,0,0,0],"sum_hessian":[3.12E2,2.82E2,3E1,5.5E1,2.27E2,3E1,2.5E1,1.69E2,5.8E1,9.4E1,7.5E1,3.1E1,2.7E1,5.9E1,3.5E1,4.9E1,2.6E1,3.4E1,2.5E1],"tree_param":{"num_deleted":"0","num_feature":"14","num_nodes":"19","size_leaf_vector":"1"}},{"base_weights":[-2.3068779E-3,1.2921452E-2,-2.4042599E-2,-4.6348162E-2,1.2392252E-2,-8.215194E-2,7.595659E-2,-5.402718E-3,-2.2270631E-2,1.363537E-2,-3.9876453E-3,-9.355768E-2,1.706665E-2,1.1968036E-2,-2.310486E-2,2.1473173E-2,-1.41795855E-2],"categories":[],"categories_nodes":[],"categories_segments":[],"categories_sizes":[],"default_left":[0,0,0,0,0,0,0,0,0,0,0,0,0,0,0,0,0],"id":37,"left_children":[1,-1,3,5,-1,7,9,11,-1,-1,-1,13,-1,15,-1,-1,-1],"loss_changes":[1.1653824E0,0E0,1.1602184E0,1.0790882E0,0E0,3.1305356E0,7.7505684E-1,2.916923E0,0E0,0E0,0E0,2.335197E0,0E0,3.9146671E0,0E0,0E0,0E0],"parents":[2147483647,0,0,2,2,3,3,5,5,6,6,7,7,11,11,13,13],"right_children":[2,-1,4,6,-1,8,10,12,-1,-1,-1,14,-1,16,-1,-1,-1],"split_conditions":[5.8889E3,1.2921452E-2,1E0,3.178786E4,1.2392252E-2,2.41583E4,6.73E0,1.988943E4,-2.2270631E-2,1.363537E-2,-3.9876453E-3,1.594809E4,1.706665E-2,5.91E0,-2.310486E-2,2.1473173E-2,-1.41795855E-2],"split_indices":[3,0,5,3,0,3,1,3,0,0,0,3,0,1,0,0,0],"split_type":[0,0,0,0,0,0,0,0,0,0,0,0,0,0,0,0,0],"sum_hessian":[3.05E2,3.3E1,2.72E2,2.44E2,2.8E1,1.89E2,5.5E1,1.4E2,4.9E1,3E1,2.5E1,1.02E2,3.8E1,6.9E1,3.3E1,2.9E1,4E1],"tree_param":{"num_deleted":"0","num_feature":"14","num_nodes":"17","size_leaf_vector":"1"}},{"base_weights":[-2.4920462E-3,-5.9328888E-2,5.731354E-2,-6.9126002E-3,-2.499304E-2,2.0099303E-1,-1.7905347E-2,-5.515887E-2,1.0565065E-2,5.507932E-3,2.4082711E-2,-2.1277413E-2,7.2075635E-2,5.816261E-3,-1.6594613E-1,2.1211421E-2,-3.468209E-2,-4.2044595E-3,-2.2110654E-2,-7.6960325E-3,2.7897195E-3],"categories":[],"categories_nodes":[],"categories_segments":[],"categories_sizes":[],"default_left":[0,0,0,0,0,0,0,0,0,0,0,0,0,0,0,0,0,0,0,0,0],"id":38,"left_children":[1,3,5,7,-1,9,11,13,-1,-1,-1,-1,15,-1,17,-1,19,-1,-1,-1,-1],"loss_changes":[1.074136E0,2.3236003E0,1.66794E0,9.8455817E-1,0E0,7.884035E-1,2.4599164E0,1.5419258E0,0E0,0E0,0E0,0E0,1.7421917E0,0E0,7.9060924E-1,0E0,2.577233E-1,0E0,0E0,0E0,0E0],"parents":[2147483647,0,0,1,1,2,2,3,3,5,5,6,6,7,7,12,12,14,14,16,16],"right_children":[2,4,6,8,-1,10,12,14,-1,-1,-1,-1,16,-1,18,-1,20,-1,-1,-1,-1],"split_conditions":[6.78E0,5.91E0,8.64E0,3.060369E4,-2.499304E-2,2.103083E4,9.53E0,1.556864E4,1.0565065E-2,5.507932E-3,2.4082711E-2,-2.1277413E-2,1.047E1,5.816261E-3,5.37E0,2.1211421E-2,2.428674E4,-4.2044595E-3,-2.2110654E-2,-7.6960325E-3,2.7897195E-3],"split_indices":[1,1,1,3,0,3,1,3,0,0,0,0,1,0,2,0,3,0,0,0,0],"split_type":[0,0,0,0,0,0,0,0,0,0,0,0,0,0,0,0,0,0,0,0,0],"sum_hessian":[3.14E2,1.61E2,1.53E2,1.36E2,2.5E1,5.2E1,1.01E2,1.03E2,3.3E1,2.6E1,2.6E1,2.5E1,7.6E1,4.7E1,5.6E1,2.5E1,5.1E1,3.1E1,2.5E1,2.6E1,2.5E1],"tree_param":{"num_deleted":"0","num_feature":"14","num_nodes":"21","size_leaf_vector":"1"}},{"base_weights":[-3.839391E-3,-1.4093553E-2,1.8344196E-2,4.065837E-2,-1.2337479E-2,7.0438944E-2,-7.2739194E-3,1.569746E-2,1.9580781E-2,-1.02769755E-1,1.3546556E-1,2.37115E-2,-2.7478019E-2,1.9650126E-2,1.757648E-3,-1.2849423E-2,1.4396499E-2],"categories":[],"categories_nodes":[],"categories_segments":[],"categories_sizes":[],"default_left":[0,0,0,0,0,0,0,0,0,0,0,0,0,0,0,0,0],"id":39,"left_children":[1,-1,3,5,-1,7,-1,9,-1,11,13,15,-1,-1,-1,-1,-1],"loss_changes":[1.2529784E0,0E0,1.1246114E0,1.0111148E0,0E0,2.1039357E0,0E0,2.2557197E0,0E0,2.6759624E0,1.1137536E0,1.8376237E0,0E0,0E0,0E0,0E0,0E0],"parents":[2147483647,0,0,2,2,3,3,5,5,7,7,9,9,10,10,11,11],"right_children":[2,-1,4,6,-1,8,-1,10,-1,12,14,16,-1,-1,-1,-1,-1],"split_conditions":[2.89E0,-1.4093553E-2,1E0,1.057E1,-1.2337479E-2,2.988442E4,-7.2739194E-3,6.62E0,1.9580781E-2,5.14E0,8.59E0,4E0,-2.7478019E-2,1.9650126E-2,1.757648E-3,-1.2849423E-2,1.4396499E-2],"split_indices":[1,0,11,1,0,3,0,1,0,1,1,2,0,0,0,0,0],"split_type":[0,0,0,0,0,0,0,0,0,0,0,0,0,0,0,0,0],"sum_hessian":[3.05E2,3.2E1,2.73E2,2.44E2,2.9E1,2.01E2,4.3E1,1.57E2,4.4E1,7.9E1,7.8E1,5.4E1,2.5E1,3.6E1,4.2E1,2.5E1,2.9E1],"tree_param":{"num_deleted":"0","num_feature":"14","num_nodes":"17","size_leaf_vector":"1"}},{"base_weights":[-9.572976E-3,-1.740083E-2,1.2780923E-2,-1.0122726E-2,1.7655455E-2,-1.3193183E-1,3.4740325E-2,4.1015376E-3,-1.9656742E-2,1.4299035E-1,-2.529161E-2,5.7270605E-4,2.4706693E-2,-1.3509797E-1,5.4777272E-2,-6.5151104E-3,-1.36381285E-2,1.3624318E-2,-9.223875E-3],"categories":[],"categories_nodes":[],"categories_segments":[],"categories_sizes":[],"default_left":[0,0,0,0,0,0,0,0,0,0,0,0,0,0,0,0,0,0,0],"id":40,"left_children":[1,-1,3,5,-1,7,9,-1,-1,11,13,-1,-1,15,17,-1,-1,-1,-1],"loss_changes":[1.5792028E0,0E0,1.4759731E0,1.4418067E0,0E0,1.7389203E0,1.2578188E0,0E0,0E0,1.7386577E0,1.1064093E0,0E0,0E0,1.03689134E-1,1.6688218E0,0E0,0E0,0E0,0E0],"parents":[2147483647,0,0,2,2,3,3,5,5,6,6,9,9,10,10,13,13,14,14],"right_children":[2,-1,4,6,-1,8,10,-1,-1,12,14,-1,-1,16,18,-1,-1,-1,-1],"split_conditions":[-3.3E0,-1.740083E-2,1E0,1.143643E4,1.7655455E-2,5.45715E3,5.4E0,4.1015376E-3,-1.9656742E-2,3.87E0,8.26E0,5.7270605E-4,2.4706693E-2,3.89E0,2.559732E4,-6.5151104E-3,-1.36381285E-2,1.3624318E-2,-9.223875E-3],"split_indices":[0,0,10,3,0,3,1,0,0,1,1,0,0,0,3,0,0,0,0],"split_type":[0,0,0,0,0,0,0,0,0,0,0,0,0,0,0,0,0,0,0],"sum_hessian":[3.16E2,2.8E1,2.88E2,2.62E2,2.6E1,7E1,1.92E2,2.9E1,4.1E1,6.8E1,1.24E2,4E1,2.8E1,5.2E1,7.2E1,2.7E1,2.5E1,4.2E1,3E1],"tree_param":{"num_deleted":"0","num_feature":"14","num_nodes":"19","size_leaf_vector":"1"}},{"base_weights":[-3.0024E-3,1.2768526E-1,-4.867197E-2,4.929317E-2,2.1419147E-2,-1.9172043E-2,-8.11399E-3,-7.0056836E-3,1.3165005E-2,5.5030596E-2,-7.45662E-2,-6.7419824E-3,1.11408524E-1,3.0260142E-3,-1.3655938E-2,1.3058023E-2,6.677659E-4,-5.8829607E-3,5.514643E-3],"categories":[],"categories_nodes":[],"categories_segments":[],"categories_sizes":[],"default_left":[0,0,0,0,0,0,0,0,0,0,0,0,0,0,0,0,0,0,0],"id":41,"left_children":[1,3,5,7,-1,-1,9,-1,-1,11,13,-1,15,17,-1,-1,-1,-1,-1],"loss_changes":[1.8206232E0,9.638139E-1,1.8948991E0,9.891938E-1,0E0,0E0,8.013619E-1,0E0,0E0,8.107236E-1,7.7637273E-1,0E0,4.5475984E-1,3.2166144E-1,0E0,0E0,0E0,0E0,0E0],"parents":[2147483647,0,0,1,1,2,2,3,3,6,6,9,9,10,10,12,12,13,13],"right_children":[2,4,6,8,-1,-1,10,-1,-1,12,14,-1,16,18,-1,-1,-1,-1,-1],"split_conditions":[-8.1E-1,-1.69E0,8.7E-1,4.29E0,2.1419147E-2,-1.9172043E-2,4.99E0,-7.0056836E-3,1.3165005E-2,2.37E0,6.45E0,-6.7419824E-3,3.9E0,2.19E0,-1.3655938E-2,1.3058023E-2,6.677659E-4,-5.8829607E-3,5.514643E-3],"split_indices":[0,0,0,2,0,0,0,0,0,2,2,0,0,2,0,0,0,0,0],"split_type":[0,0,0,0,0,0,0,0,0,0,0,0,0,0,0,0,0,0,0],"sum_hessian":[3.03E2,7.8E1,2.25E2,5.3E1,2.5E1,3.6E1,1.89E2,2.5E1,2.8E1,9.7E1,9.2E1,2.7E1,7E1,5.4E1,3.8E1,4.3E1,2.7E1,2.5E1,2.9E1],"tree_param":{"num_deleted":"0","num_feature":"14","num_nodes":"19","size_leaf_vector":"1"}},{"base_weights":[-9.289554E-3,-1.4449098E-2,9.142546E-3,1.4975139E-2,-1.2876382E-2,-1.4911366E-2,1.2241326E-2,4.3023083E-2,-8.644648E-3,1.6210113E-4,2.062935E-2,-5.2781135E-2,1.3104549E-2,-2.5201996E-4,-1.7634671E-2],"categories":[],"categories_nodes":[],"categories_segments":[],"categories_sizes":[],"default_left":[0,0,0,0,0,0,0,0,0,0,0,0,0,0,0],"id":42,"left_children":[1,-1,3,-1,5,-1,7,9,-1,11,-1,13,-1,-1,-1],"loss_changes":[1.0731591E0,0E0,1.2149773E0,0E0,1.2167462E0,0E0,9.0765744E-1,1.8497708E0,0E0,1.4694656E0,0E0,1.098648E0,0E0,0E0,0E0],"parents":[2147483647,0,0,2,2,4,4,6,6,7,7,9,9,11,11],"right_children":[2,-1,4,-1,6,-1,8,10,-1,12,-1,14,-1,-1,-1],"split_conditions":[-3.3E0,-1.4449098E-2,-2.02E0,1.4975139E-2,6.3E-1,-1.4911366E-2,3.115047E4,2.717116E4,-8.644648E-3,7.9E0,2.062935E-2,6.45E0,1.3104549E-2,-2.5201996E-4,-1.7634671E-2],"split_indices":[0,0,0,0,2,0,3,3,0,2,0,2,0,0,0],"split_type":[0,0,0,0,0,0,0,0,0,0,0,0,0,0,0],"sum_hessian":[3.16E2,2.8E1,2.88E2,2.9E1,2.59E2,3E1,2.29E2,1.85E2,4.4E1,1.57E2,2.8E1,1.21E2,3.6E1,9.6E1,2.5E1],"tree_param":{"num_deleted":"0","num_feature":"14","num_nodes":"15","size_leaf_vector":"1"}},{"base_weights":[7.0188376E-3,8.439912E-2,-4.051096E-2,1.4970863E-1,-8.085881E-3,-1.0291741E-1,1.01278E-2,-2.689127E-2,3.1934075E-2,1.89259E-2,-2.1500546E-1,4.166058E-3,-8.8355895E-3,-1.307937E-2,2.392058E-2,-3.6291573E-2,-2.0092651E-3],"categories":[],"categories_nodes":[],"categories_segments":[],"categories_sizes":[],"default_left":[0,0,0,0,0,0,0,0,0,0,0,0,0,0,0,0,0],"id":43,"left_children":[1,3,5,7,-1,9,-1,11,-1,13,15,-1,-1,-1,-1,-1,-1],"loss_changes":[1.1214913E0,1.472311E0,2.0844579E0,4.2531805E0,0E0,1.9160739E0,0E0,4.112764E-1,0E0,3.999497E0,3.6814008E0,0E0,0E0,0E0,0E0,0E0,0E0],"parents":[2147483647,0,0,1,1,2,2,3,3,5,5,7,7,9,9,10,10],"right_children":[2,4,6,8,-1,10,-1,12,-1,14,16,-1,-1,-1,-1,-1,-1],"split_conditions":[3.56E0,9.47E0,9.4E0,5.8E0,-8.085881E-3,5.11E0,1.01278E-2,3.81E0,3.1934075E-2,3.87E0,6.78E0,4.166058E-3,-8.8355895E-3,-1.307937E-2,2.392058E-2,-3.6291573E-2,-2.0092651E-3],"split_indices":[2,1,1,1,0,1,0,1,0,1,1,0,0,0,0,0,0],"split_type":[0,0,0,0,0,0,0,0,0,0,0,0,0,0,0,0,0],"sum_hessian":[3.03E2,1.15E2,1.88E2,8.6E1,2.9E1,1.39E2,4.9E1,5.3E1,3.3E1,6.7E1,7.2E1,2.8E1,2.5E1,4.1E1,2.6E1,2.9E1,4.3E1],"tree_param":{"num_deleted":"0","num_feature":"14","num_nodes":"17","size_leaf_vector":"1"}},{"base_weights":[-1.08043505E-2,-1.8963942E-2,1.3439057E-2,-1.4790971E-2,1.7451301E-2,1.16477445E-1,-5.0881293E-2,1.4948195E-2,1.4706156E-3,-1.3663512E-1,8.060059E-2,-6.343981E-2,-2.8776882E-2,1.930606E-2,-1.8053908E-2,-1.6619219E-2,1.9209102E-2,-9.165032E-3,6.509024E-3,1.1632633E-2,-6.243299E-3],"categories":[],"categories_nodes":[],"categories_segments":[],"categories_sizes":[],"default_left":[0,0,0,0,0,0,0,0,0,0,0,0,0,0,0,0,0,0,0,0,0],"id":44,"left_children":[1,-1,3,5,-1,7,9,-1,-1,11,13,15,-1,-1,17,-1,19,-1,-1,-1,-1],"loss_changes":[1.8048968E0,0E0,1.7364432E0,1.1855688E0,0E0,4.2938012E-1,2.2209275E0,0E0,0E0,2.127582E0,1.3652365E0,1.2198508E0,0E0,0E0,5.674648E-1,0E0,8.76114E-1,0E0,0E0,0E0,0E0],"parents":[2147483647,0,0,2,2,3,3,5,5,6,6,9,9,10,10,11,11,14,14,16,16],"right_children":[2,-1,4,6,-1,8,10,-1,-1,12,14,16,-1,-1,18,-1,20,-1,-1,-1,-1],"split_conditions":[-3.3E0,-1.8963942E-2,1E0,-5.5E-1,1.7451301E-2,2.23636E4,5.07E0,1.4948195E-2,1.4706156E-3,4.18E0,6.89E0,8.7E-1,-2.8776882E-2,1.930606E-2,8.14E0,-1.6619219E-2,1.887115E4,-9.165032E-3,6.509024E-3,1.1632633E-2,-6.243299E-3],"split_indices":[0,0,10,0,0,3,0,0,0,0,0,0,0,0,0,0,3,0,0,0,0],"split_type":[0,0,0,0,0,0,0,0,0,0,0,0,0,0,0,0,0,0,0,0,0],"sum_hessian":[3.06E2,2.7E1,2.79E2,2.48E2,3.1E1,5.3E1,1.95E2,2.8E1,2.5E1,1.18E2,7.7E1,9.2E1,2.6E1,2.7E1,5E1,3.1E1,6.1E1,2.5E1,2.5E1,2.6E1,3.5E1],"tree_param":{"num_deleted":"0","num_feature":"14","num_nodes":"21","size_leaf_vector":"1"}},{"base_weights":[7.073552E-3,-4.6691988E-2,1.4488313E-1,-1.1440553E-2,-1.9422652E-2,-5.384176E-4,2.2795658E-1,9.902907E-2,-8.896479E-2,3.8391554E-3,2.8850472E-2,1.0091095E-3,1.8236712E-2,-2.3689479E-1,8.971549E-2,-3.1138733E-2,-6.2326216E-3,-9.8694174E-5,1.32972235E-2],"categories":[],"categories_nodes":[],"categories_segments":[],"categories_sizes":[],"default_left":[0,0,0,0,0,0,0,0,0,0,0,0,0,0,0,0,0,0,0],"id":45,"left_children":[1,3,5,7,-1,-1,9,11,13,-1,-1,-1,-1,15,17,-1,-1,-1,-1],"loss_changes":[2.2444057E0,1.6283439E0,1.0753832E0,1.6188558E0,0E0,0E0,1.503942E0,9.587468E-1,2.9552243E0,0E0,0E0,0E0,0E0,1.6380887E0,4.0683615E-1,0E0,0E0,0E0,0E0],"parents":[2147483647,0,0,1,1,2,2,3,3,6,6,7,7,8,8,13,13,14,14],"right_children":[2,4,6,8,-1,-1,10,12,14,-1,-1,-1,-1,16,18,-1,-1,-1,-1],"split_conditions":[5.07E0,4.18E0,1.650048E4,1.850373E4,-1.9422652E-2,-5.384176E-4,6.86E0,5.98E0,3.022623E4,3.8391554E-3,2.8850472E-2,1.0091095E-3,1.8236712E-2,5.99E0,3.92E0,-3.1138733E-2,-6.2326216E-3,-9.8694174E-5,1.32972235E-2],"split_indices":[0,0,3,3,0,0,1,2,3,0,0,0,0,1,2,0,0,0,0],"split_type":[0,0,0,0,0,0,0,0,0,0,0,0,0,0,0,0,0,0,0],"sum_hessian":[3.01E2,2.17E2,8.4E1,1.87E2,3E1,3E1,5.4E1,7.7E1,1.1E2,2.6E1,2.8E1,4.9E1,2.8E1,6E1,5E1,2.7E1,3.3E1,2.5E1,2.5E1],"tree_param":{"num_deleted":"0","num_feature":"14","num_nodes":"19","size_leaf_vector":"1"}},{"base_weights":[-2.5717605E-2,-9.505613E-2,5.014993E-2,-1.5728031E-1,1.0481312E-2,-1.1804109E-2,1.2478132E-1,-7.063805E-2,-2.7982911E-2,2.2487049E-1,-3.2614009E-3,-2.1644887E-2,6.295646E-2,2.9050456E-3,3.253314E-2,-4.4625015E-3,1.4065345E-2],"categories":[],"categories_nodes":[],"categories_segments":[],"categories_sizes":[],"default_left":[0,0,0,0,0,0,0,0,0,0,0,0,0,0,0,0,0],"id":46,"left_children":[1,3,5,7,-1,-1,9,11,-1,13,-1,-1,15,-1,-1,-1,-1],"loss_changes":[1.5618879E0,2.2866337E0,2.2190564E0,2.2736928E0,0E0,0E0,1.7781541E0,2.6096995E0,0E0,2.5495949E0,0E0,0E0,8.6548376E-1,0E0,0E0,0E0,0E0],"parents":[2147483647,0,0,1,1,2,2,3,3,6,6,7,7,9,9,12,12],"right_children":[2,4,6,8,-1,-1,10,12,-1,14,-1,-1,16,-1,-1,-1,-1],"split_conditions":[6.78E0,3.178786E4,2.63E0,2.401907E4,1.0481312E-2,-1.1804109E-2,7.38E0,1.094041E4,-2.7982911E-2,5.42E0,-3.2614009E-3,-2.1644887E-2,1.56E0,2.9050456E-3,3.253314E-2,-4.4625015E-3,1.4065345E-2],"split_indices":[1,3,2,3,0,0,2,3,0,2,0,0,0,0,0,0,0],"split_type":[0,0,0,0,0,0,0,0,0,0,0,0,0,0,0,0,0],"sum_hessian":[2.95E2,1.54E2,1.41E2,1.22E2,3.2E1,3.7E1,1.04E2,8.8E1,3.4E1,6.5E1,3.9E1,3.3E1,5.5E1,3.5E1,3E1,2.8E1,2.7E1],"tree_param":{"num_deleted":"0","num_feature":"14","num_nodes":"17","size_leaf_vector":"1"}},{"base_weights":[-2.5961226E-2,-4.9447175E-2,1.27198165E-2,-3.299804E-2,-1.5268347E-2,-1.2318817E-2,-1.4583125E-2,-1.2458225E-1,4.463252E-2,-1.9445434E-2,1.5356543E-3,2.1678325E-2,-8.095668E-3,-7.5125635E-2,7.14693E-3,3.4232524E-3,-1.0054906E-2],"categories":[],"categories_nodes":[],"categories_segments":[],"categories_sizes":[],"default_left":[0,0,0,0,0,0,0,0,0,0,0,0,0,0,0,0,0],"id":47,"left_children":[1,3,-1,5,-1,7,-1,9,11,-1,-1,-1,13,15,-1,-1,-1],"loss_changes":[1.4551444E0,7.082419E-1,0E0,8.522681E-1,0E0,1.4632903E0,0E0,1.5097225E0,1.9612237E0,0E0,0E0,0E0,8.803513E-1,5.5421275E-1,0E0,0E0,0E0],"parents":[2147483647,0,0,1,1,3,3,5,5,7,7,8,8,12,12,13,13],"right_children":[2,4,-1,6,-1,8,-1,10,12,-1,-1,-1,14,16,-1,-1,-1],"split_conditions":[8.73E0,8.09E0,1.27198165E-2,1E0,-1.5268347E-2,4.63E0,-1.4583125E-2,3.92E0,5.93E0,-1.9445434E-2,1.5356543E-3,2.1678325E-2,9.88E0,3.37E0,7.14693E-3,3.4232524E-3,-1.0054906E-2],"split_indices":[2,2,0,11,0,1,0,2,1,0,0,0,1,2,0,0,0],"split_type":[0,0,0,0,0,0,0,0,0,0,0,0,0,0,0,0,0],"sum_hessian":[3.14E2,2.81E2,3.3E1,2.55E2,2.6E1,2.27E2,2.8E1,7.6E1,1.51E2,3.9E1,3.7E1,2.6E1,1.25E2,7.6E1,4.9E1,2.5E1,5.1E1],"tree_param":{"num_deleted":"0","num_feature":"14","num_nodes":"17","size_leaf_vector":"1"}},{"base_weights":[7.6176273E-3,2.286497E-2,-6.820906E-3,1.9955821E-3,1.6458156E-2,-9.8192036E-2,4.8224214E-2,-1.836156E-2,4.103562E-3,2.6310502E-2,-1.177954E-2,1.4704247E-2,-6.920045E-2,-1.6825417E-1,6.1513884E-3,-9.174666E-3,-1.5096884E-2],"categories":[],"categories_nodes":[],"categories_segments":[],"categories_sizes":[],"default_left":[0,0,0,0,0,0,0,0,0,0,0,0,0,0,0,0,0],"id":48,"left_children":[1,3,-1,5,-1,7,9,-1,-1,-1,11,-1,13,15,-1,-1,-1],"loss_changes":[4.709607E-1,1.1113243E0,0E0,1.1440933E0,0E0,1.7621897E0,3.0725107E0,0E0,0E0,0E0,1.7082152E0,0E0,1.6914254E0,7.854998E-2,0E0,0E0,0E0],"parents":[2147483647,0,0,1,1,3,3,5,5,6,6,10,10,12,12,13,13],"right_children":[2,4,-1,6,-1,8,10,-1,-1,-1,12,-1,14,16,-1,-1,-1],"split_conditions":[8.5E0,7.9E0,-6.820906E-3,4.63E0,1.6458156E-2,3.92E0,5.91E0,-1.836156E-2,4.103562E-3,2.6310502E-2,1.36E0,1.4704247E-2,9.83E0,7.58E0,6.1513884E-3,-9.174666E-3,-1.5096884E-2],"split_indices":[2,2,0,1,0,2,1,0,0,0,2,0,1,1,0,0,0],"split_type":[0,0,0,0,0,0,0,0,0,0,0,0,0,0,0,0,0],"sum_hessian":[3.11E2,2.7E2,4.1E1,2.45E2,2.5E1,7.7E1,1.68E2,3.9E1,3.8E1,2.7E1,1.41E2,3E1,1.11E2,6.7E1,4.4E1,3E1,3.7E1],"tree_param":{"num_deleted":"0","num_feature":"14","num_nodes":"17","size_leaf_vector":"1"}},{"base_weights":[-1.8125072E-3,1.9317314E-2,-1.703476E-2,-1.3919468E-3,1.5324033E-2,-3.4281123E-2,1.3406137E-1,5.1529873E-2,-9.659996E-2,1.486584E-2,4.8566503E-3,-1.18505275E-2,1.7535085E-2,-2.307331E-2,-2.748248E-2,1.1714475E-2,-1.4622827E-1,-1.7222224E-2,-4.7634547E-3],"categories":[],"categories_nodes":[],"categories_segments":[],"categories_sizes":[],"default_left":[0,0,0,0,0,0,0,0,0,0,0,0,0,0,0,0,0,0,0],"id":49,"left_children":[1,3,-1,5,-1,7,9,11,13,-1,-1,-1,-1,-1,15,-1,17,-1,-1],"loss_changes":[1.4993168E0,1.1036923E0,0E0,1.1628822E0,0E0,1.1279824E0,2.1390939E-1,3.4360797E0,1.7711399E0,0E0,0E0,0E0,0E0,0E0,2.051234E0,0E0,3.7863517E-1,0E0,0E0],"parents":[2147483647,0,0,1,1,3,3,5,5,6,6,7,7,8,8,14,14,16,16],"right_children":[2,4,-1,6,-1,8,10,12,14,-1,-1,-1,-1,-1,16,-1,18,-1,-1],"split_conditions":[1.123E1,3.521687E4,-1.703476E-2,9.4E0,1.5324033E-2,1.594809E4,5E0,7.86772E3,3.31E0,1.486584E-2,4.8566503E-3,-1.18505275E-2,1.7535085E-2,-2.307331E-2,5.22E0,1.1714475E-2,2.73E0,-1.7222224E-2,-4.7634547E-3],"split_indices":[1,3,0,1,0,3,2,3,1,0,0,0,0,0,1,0,0,0,0],"split_type":[0,0,0,0,0,0,0,0,0,0,0,0,0,0,0,0,0,0,0],"sum_hessian":[3.13E2,2.87E2,2.6E1,2.59E2,2.8E1,2.09E2,5E1,8.8E1,1.21E2,2.5E1,2.5E1,4.1E1,4.7E1,2.9E1,9.2E1,3.6E1,5.6E1,2.7E1,2.9E1],"tree_param":{"num_deleted":"0","num_feature":"14","num_nodes":"19","size_leaf_vector":"1"}},{"base_weights":[1.0442255E-2,2.8744847E-2,-1.2686774E-2,4.9135095E-4,1.5187816E-1,-2.5188746E-2,1.5369414E-2,1.8572122E-2,3.2190906E-3,7.830356E-2,-8.83725E-2,-3.0494414E-3,1.9072557E-2,3.0057542E-2,-2.3386542E-1,-9.035731E-3,8.45191E-3,-3.1954315E-2,-5.6515913E-3],"categories":[],"categories_nodes":[],"categories_segments":[],"categories_sizes":[],"default_left":[0,0,0,0,0,0,0,0,0,0,0,0,0,0,0,0,0,0,0],"id":50,"left_children":[1,3,-1,5,7,9,-1,-1,-1,11,13,-1,-1,15,17,-1,-1,-1,-1],"loss_changes":[1.0304475E0,9.8794633E-1,0E0,1.2231361E0,5.423013E-1,1.3604996E0,0E0,0E0,0E0,1.6643716E0,2.229794E0,0E0,0E0,9.092071E-1,1.7348378E0,0E0,0E0,0E0,0E0],"parents":[2147483647,0,0,1,1,3,3,4,4,5,5,9,9,10,10,13,13,14,14],"right_children":[2,4,-1,6,8,10,-1,-1,-1,12,14,-1,-1,16,18,-1,-1,-1,-1],"split_conditions":[1.118E1,9.4E0,-1.2686774E-2,8.73E0,1.026E1,3.29E0,1.5369414E-2,1.8572122E-2,3.2190906E-3,5.8E0,5.93E0,-3.0494414E-3,1.9072557E-2,5E0,7.49E0,-9.035731E-3,8.45191E-3,-3.1954315E-2,-5.6515913E-3],"split_indices":[1,1,0,2,1,2,0,0,0,1,1,0,0,2,1,0,0,0,0],"split_type":[0,0,0,0,0,0,0,0,0,0,0,0,0,0,0,0,0,0,0],"sum_hessian":[3.11E2,2.83E2,2.8E1,2.31E2,5.2E1,2.06E2,2.5E1,2.7E1,2.5E1,7.8E1,1.28E2,4.7E1,3.1E1,7.1E1,5.7E1,2.5E1,4.6E1,2.5E1,3.2E1],"tree_param":{"num_deleted":"0","num_feature":"14","num_nodes":"19","size_leaf_vector":"1"}},{"base_weights":[-6.788466E-3,1.1834681E-2,-1.5853649E-2,3.7373237E-2,-1.0001776E-2,-9.717479E-3,5.9613403E-2,1.4386127E-2,3.8085803E-2,1.330998E-2,3.680717E-3,-1.8723119E-2,5.8368888E-2,1.7968535E-2,-1.76511E-3],"categories":[],"categories_nodes":[],"categories_segments":[],"categories_sizes":[],"default_left":[0,0,0,0,0,0,0,0,0,0,0,0,0,0,0],"id":51,"left_children":[1,3,-1,5,-1,-1,7,-1,9,-1,11,-1,13,-1,-1],"loss_changes":[1.1874661E0,1.0654681E0,0E0,9.1363853E-1,0E0,0E0,6.07427E-1,0E0,8.960868E-1,0E0,2.106485E0,0E0,1.8608756E0,0E0,0E0],"parents":[2147483647,0,0,1,1,3,3,6,6,8,8,10,10,12,12],"right_children":[2,4,-1,6,-1,-1,8,-1,10,-1,12,-1,14,-1,-1],"split_conditions":[1.123E1,8.29E0,-1.5853649E-2,2.83E0,-1.0001776E-2,-9.717479E-3,3.66E0,1.4386127E-2,1.25E0,1.330998E-2,2.63E0,-1.8723119E-2,5.93E0,1.7968535E-2,-1.76511E-3],"split_indices":[1,2,0,1,0,0,1,0,2,0,2,0,1,0,0],"split_type":[0,0,0,0,0,0,0,0,0,0,0,0,0,0,0],"sum_hessian":[3.1E2,2.85E2,2.5E1,2.43E2,4.2E1,2.8E1,2.15E2,2.9E1,1.86E2,3.6E1,1.5E2,2.6E1,1.24E2,3.8E1,8.6E1],"tree_param":{"num_deleted":"0","num_feature":"14","num_nodes":"15","size_leaf_vector":"1"}},{"base_weights":[-5.198806E-3,8.150139E-3,-2.5148677E-2,-1.2921268E-1,3.957265E-2,-2.2686954E-1,1.05353035E-2,7.240202E-2,-6.7509036E-3,-1.0273296E-2,-2.5964314E-2,-3.0388352E-3,1.8131856E-2,5.9887837E-3,-5.6940466E-3],"categories":[],"categories_nodes":[],"categories_segments":[],"categories_sizes":[],"default_left":[0,0,0,0,0,0,0,0,0,0,0,0,0,0,0],"id":52,"left_children":[1,-1,3,5,7,9,-1,11,-1,-1,-1,13,-1,-1,-1],"loss_changes":[7.1602726E-1,0E0,1.8101361E0,2.7445214E0,7.127117E-1,7.677605E-1,0E0,1.699991E0,0E0,0E0,0E0,5.678863E-1,0E0,0E0,0E0],"parents":[2147483647,0,0,2,2,3,3,4,4,5,5,7,7,11,11],"right_children":[2,-1,4,6,8,10,-1,12,-1,-1,-1,14,-1,-1,-1],"split_conditions":[3.22E0,8.150139E-3,6.45E0,3.060369E4,3.166795E4,4.84E0,1.05353035E-2,2.186599E4,-6.7509036E-3,-1.0273296E-2,-2.5964314E-2,1.37272E4,1.8131856E-2,5.9887837E-3,-5.6940466E-3],"split_indices":[1,0,1,3,3,1,0,3,0,0,0,3,0,0,0],"split_type":[0,0,0,0,0,0,0,0,0,0,0,0,0,0,0],"sum_hessian":[3.13E2,4.6E1,2.67E2,1.02E2,1.65E2,7.5E1,2.7E1,1.32E2,3.3E1,4.4E1,3.1E1,9.2E1,4E1,4.3E1,4.9E1],"tree_param":{"num_deleted":"0","num_feature":"14","num_nodes":"15","size_leaf_vector":"1"}},{"base_weights":[-6.2475665E-3,-1.6813856E-2,1.4889071E-2,-6.585154E-3,1.5573277E-2,-3.600612E-2,7.914131E-2,1.0177996E-2,-2.3386868E-2,1.1884328E-2,-2.7745713E-3,-3.5248596E-2,7.750017E-2,7.945754E-2,-1.2266899E-2,1.072731E-2,2.7477922E-4,4.044491E-3,7.865877E-3],"categories":[],"categories_nodes":[],"categories_segments":[],"categories_sizes":[],"default_left":[0,0,0,0,0,0,0,0,0,0,0,0,0,0,0,0,0,0,0],"id":53,"left_children":[1,-1,3,5,-1,7,9,11,-1,-1,-1,13,15,17,-1,-1,-1,-1,-1],"loss_changes":[1.458979E0,0E0,1.1976124E0,6.6113216E-1,0E0,2.4871705E0,6.2302965E-1,5.165122E-1,0E0,0E0,0E0,1.499509E0,3.2849726E-1,2.9391289E-2,0E0,0E0,0E0,0E0,0E0],"parents":[2147483647,0,0,2,2,3,3,5,5,6,6,7,7,11,11,12,12,13,13],"right_children":[2,-1,4,6,-1,8,10,12,-1,-1,-1,14,16,18,-1,-1,-1,-1,-1],"split_conditions":[-3.3E0,-1.6813856E-2,1E0,6.16E0,1.5573277E-2,4.42E0,8.08E0,1.14E0,-2.3386868E-2,1.1884328E-2,-2.7745713E-3,-8.1E-1,3.1E0,-2.04E0,-1.2266899E-2,1.072731E-2,2.7477922E-4,4.044491E-3,7.865877E-3],"split_indices":[0,0,10,0,0,0,0,0,0,0,0,0,0,0,0,0,0,0,0],"split_type":[0,0,0,0,0,0,0,0,0,0,0,0,0,0,0,0,0,0,0],"sum_hessian":[3.15E2,2.7E1,2.88E2,2.6E2,2.8E1,1.94E2,6.6E1,1.67E2,2.7E1,3.9E1,2.7E1,1E2,6.7E1,5.3E1,4.7E1,3.5E1,3.2E1,2.8E1,2.5E1],"tree_param":{"num_deleted":"0","num_feature":"14","num_nodes":"19","size_leaf_vector":"1"}},{"base_weights":[5.4114737E-4,-5.383248E-2,5.69893E-2,-1.0004196E-1,7.967504E-3,1.14099406E-1,-5.722863E-2,-3.7439927E-2,-1.929345E-2,4.1387744E-2,2.2742022E-2,-1.2193865E-2,3.7685381E-3,-1.2031697E-1,9.128583E-3,1.5641576E-2,-9.513007E-3,2.7093522E-3,-1.9741584E-2],"categories":[],"categories_nodes":[],"categories_segments":[],"categories_sizes":[],"default_left":[0,0,0,0,0,0,0,0,0,0,0,0,0,0,0,0,0,0,0],"id":54,"left_children":[1,3,5,7,-1,9,11,13,-1,15,-1,-1,-1,17,-1,-1,-1,-1,-1],"loss_changes":[9.821717E-1,1.2162671E0,1.0306404E0,1.2402128E0,0E0,1.4313867E0,6.083014E-1,1.2281466E0,0E0,2.1918528E0,0E0,0E0,0E0,1.3732346E0,0E0,0E0,0E0,0E0,0E0],"parents":[2147483647,0,0,1,1,2,2,3,3,5,5,6,6,7,7,9,9,13,13],"right_children":[2,4,6,8,-1,10,12,14,-1,16,-1,-1,-1,18,-1,-1,-1,-1,-1],"split_conditions":[6.78E0,3.178786E4,1.057E1,5.4E0,7.967504E-3,5.07E0,2.428674E4,4.74E0,-1.929345E-2,1.704224E4,2.2742022E-2,-1.2193865E-2,3.7685381E-3,-1.6E-1,9.128583E-3,1.5641576E-2,-9.513007E-3,2.7093522E-3,-1.9741584E-2],"split_indices":[1,3,1,1,0,0,3,0,0,3,0,0,0,0,0,0,0,0,0],"split_type":[0,0,0,0,0,0,0,0,0,0,0,0,0,0,0,0,0,0,0],"sum_hessian":[3.18E2,1.62E2,1.56E2,1.26E2,3.6E1,1.04E2,5.2E1,9.1E1,3.5E1,7.6E1,2.8E1,2.6E1,2.6E1,6E1,3.1E1,3.8E1,3.8E1,2.9E1,3.1E1],"tree_param":{"num_deleted":"0","num_feature":"14","num_nodes":"19","size_leaf_vector":"1"}},{"base_weights":[7.670002E-3,3.3164944E-2,-9.6943215E-2,-7.603159E-3,5.9274428E-2,-2.0574361E-2,7.1621444E-3,-5.1067885E-2,1.4245673E-1,-1.2301524E-1,8.64053E-3,2.2183287E-1,5.08334E-2,-2.3927217E-2,2.1483488E-3,2.4333507E-2,4.453502E-3,-1.08868675E-2,2.0548359E-2],"categories":[],"categories_nodes":[],"categories_segments":[],"categories_sizes":[],"default_left":[0,0,0,0,0,0,0,0,0,0,0,0,0,0,0,0,0,0,0],"id":55,"left_children":[1,3,5,-1,7,-1,-1,9,11,13,-1,15,17,-1,-1,-1,-1,-1,-1],"loss_changes":[8.300185E-1,8.8420403E-1,2.1084342E0,0E0,1.934766E0,0E0,0E0,1.1028091E0,8.6144805E-1,1.911699E0,0E0,1.0476091E0,2.5326362E0,0E0,0E0,0E0,0E0,0E0,0E0],"parents":[2147483647,0,0,1,1,2,2,4,4,7,7,8,8,9,9,11,11,12,12],"right_children":[2,4,6,-1,8,-1,-1,10,12,14,-1,16,18,-1,-1,-1,-1,-1,-1],"split_conditions":[6.72E0,7.86772E3,6.78E0,-7.603159E-3,3.1E-1,-2.0574361E-2,7.1621444E-3,3.060369E4,6.94E0,5.64E0,8.64053E-3,2.880544E4,9.43E0,-2.3927217E-2,2.1483488E-3,2.4333507E-2,4.453502E-3,-1.08868675E-2,2.0548359E-2],"split_indices":[0,3,1,0,0,0,0,3,1,1,0,3,1,0,0,0,0,0,0],"split_type":[0,0,0,0,0,0,0,0,0,0,0,0,0,0,0,0,0,0,0],"sum_hessian":[3.09E2,2.49E2,6E1,4E1,2.09E2,3.1E1,2.9E1,9E1,1.19E2,6.3E1,2.7E1,6.3E1,5.6E1,2.7E1,3.6E1,3.8E1,2.5E1,3E1,2.6E1],"tree_param":{"num_deleted":"0","num_feature":"14","num_nodes":"19","size_leaf_vector":"1"}},{"base_weights":[1.47254625E-2,-1.032795E-2,3.0889357E-2,9.620786E-3,1.4756207E-2,1.3985732E-1,-3.6643904E-2,-5.9880055E-3,2.0682486E-2,-2.30042E-2,7.198903E-3,1.0815038E-1,-6.407423E-2,-6.300218E-4,1.828279E-2,-1.3688696E-2,8.058695E-3,8.93539E-3,-8.024432E-3],"categories":[],"categories_nodes":[],"categories_segments":[],"categories_sizes":[],"default_left":[0,0,0,0,0,0,0,0,0,0,0,0,0,0,0,0,0,0,0],"id":56,"left_children":[1,-1,3,5,-1,7,9,-1,-1,-1,11,13,15,-1,-1,-1,17,-1,-1],"loss_changes":[7.7052224E-1,0E0,9.9289215E-1,1.5174885E0,0E0,1.9927037E0,2.204636E0,0E0,0E0,0E0,1.1653452E0,1.0610912E0,8.131078E-1,0E0,0E0,0E0,7.795385E-1,0E0,0E0],"parents":[2147483647,0,0,2,2,3,3,5,5,6,6,10,10,11,11,12,12,16,16],"right_children":[2,-1,4,6,-1,8,10,-1,-1,-1,12,14,16,-1,-1,-1,18,-1,-1],"split_conditions":[-3.3E0,-1.032795E-2,1E0,4.27E0,1.4756207E-2,2.92E0,-1.51E0,-5.9880055E-3,2.0682486E-2,-2.30042E-2,3.15E0,8.43E0,5.07E0,-6.300218E-4,1.828279E-2,-1.3688696E-2,7.54E0,8.93539E-3,-8.024432E-3],"split_indices":[0,0,10,1,0,1,0,0,0,0,0,1,0,0,0,0,0,0,0],"split_type":[0,0,0,0,0,0,0,0,0,0,0,0,0,0,0,0,0,0,0],"sum_hessian":[3.1E2,2.9E1,2.81E2,2.5E2,3.1E1,6.5E1,1.85E2,2.5E1,4E1,2.5E1,1.6E2,6.6E1,9.4E1,3.6E1,3E1,3.5E1,5.9E1,3E1,2.9E1],"tree_param":{"num_deleted":"0","num_feature":"14","num_nodes":"19","size_leaf_vector":"1"}},{"base_weights":[5.7057035E-3,-1.3520858E-2,1.182804E-2,1.31992055E-2,-3.8991544E-2,-1.8450832E-2,-3.3168062E-3,1.391399E-1,-5.3520665E-2,-2.304157E-3,2.4733724E-2,-2.3722003E-1,6.3762486E-2,-7.602381E-3,-2.8772522E-2,1.4810494E-1,-8.216302E-3,4.6543586E-3,1.650647E-2],"categories":[],"categories_nodes":[],"categories_segments":[],"categories_sizes":[],"default_left":[0,0,0,0,0,0,0,0,0,0,0,0,0,0,0,0,0,0,0],"id":57,"left_children":[1,3,-1,-1,5,-1,7,9,11,-1,-1,13,15,-1,-1,17,-1,-1,-1],"loss_changes":[9.110192E-1,1.343929E0,0E0,0E0,1.808599E0,0E0,1.5093409E0,1.7911972E0,3.376121E0,0E0,0E0,1.1744645E0,1.4195199E0,0E0,0E0,3.8893652E-1,0E0,0E0,0E0],"parents":[2147483647,0,0,1,1,4,4,6,6,7,7,8,8,11,11,12,12,15,15],"right_children":[2,4,-1,-1,6,-1,8,10,12,-1,-1,14,16,-1,-1,18,-1,-1,-1],"split_conditions":[8.73E0,5.8889E3,1.182804E-2,1.31992055E-2,1.143643E4,-1.8450832E-2,1.812473E4,4.04E0,2.717116E4,-2.304157E-3,2.4733724E-2,7E-1,5.85E0,-7.602381E-3,-2.8772522E-2,2.08E0,-8.216302E-3,4.6543586E-3,1.650647E-2],"split_indices":[2,3,0,0,3,0,3,2,3,0,0,0,2,0,0,2,0,0,0],"split_type":[0,0,0,0,0,0,0,0,0,0,0,0,0,0,0,0,0,0,0],"sum_hessian":[3.1E2,2.76E2,3.4E1,3.2E1,2.44E2,3.5E1,2.09E2,5.4E1,1.55E2,2.9E1,2.5E1,6E1,9.5E1,3.2E1,2.8E1,6.4E1,3.1E1,3E1,3.4E1],"tree_param":{"num_deleted":"0","num_feature":"14","num_nodes":"19","size_leaf_vector":"1"}},{"base_weights":[2.1206198E-2,-5.8641005E-3,1.0469123E-1,1.7356915E-2,-3.607815E-2,1.3719506E-2,-3.5084393E-3,7.071918E-2,-8.106814E-2,-3.780298E-3,1.42170815E-2,-1.8421363E-2,-3.5610963E-2,-1.3050756E-2,5.7171214E-2,1.39027955E-2,-8.675026E-3],"categories":[],"categories_nodes":[],"categories_segments":[],"categories_sizes":[],"default_left":[0,0,0,0,0,0,0,0,0,0,0,0,0,0,0,0,0],"id":58,"left_children":[1,3,5,-1,7,-1,-1,9,11,-1,-1,-1,13,-1,15,-1,-1],"loss_changes":[6.8312323E-1,1.6501603E0,8.8548416E-1,0E0,9.859146E-1,0E0,0E0,8.876194E-1,1.0683703E0,0E0,0E0,0E0,1.4738191E0,0E0,1.5503262E0,0E0,0E0],"parents":[2147483647,0,0,1,1,2,2,4,4,7,7,8,8,12,12,14,14],"right_children":[2,4,6,-1,8,-1,-1,10,12,-1,-1,-1,14,-1,16,-1,-1],"split_conditions":[7.2E0,4.83116E3,2.549174E4,1.7356915E-2,1.66E0,1.3719506E-2,-3.5084393E-3,4.3E-1,1.254177E4,-3.780298E-3,1.42170815E-2,-1.8421363E-2,4.13E0,-1.3050756E-2,2.81361E4,1.39027955E-2,-8.675026E-3],"split_indices":[2,3,3,0,2,0,0,2,3,0,0,0,2,0,3,0,0],"split_type":[0,0,0,0,0,0,0,0,0,0,0,0,0,0,0,0,0],"sum_hessian":[3.01E2,2.28E2,7.3E1,2.5E1,2.03E2,4.8E1,2.5E1,6E1,1.43E2,3E1,3E1,3E1,1.13E2,4.5E1,6.8E1,3.9E1,2.9E1],"tree_param":{"num_deleted":"0","num_feature":"14","num_nodes":"17","size_leaf_vector":"1"}}]},"name":"gbtree"},"learner_model_param":{"base_score":"-6.214474E-10","boost_from_average":"1","num_class":"0","num_feature":"14","num_target":"1"},"objective":{"name":"reg:squarederror","reg_loss_param":{"scale_pos_weight":"1"}}},"version":[3,0,1]}