{"learner":{"attributes":{"best_iteration":"8","best_score":"0.8871238414077464"},"feature_names":[],"feature_types":[],"gradient_booster":{"model":{"gbtree_model_param":{"num_parallel_tree":"1","num_trees":"59"},"iteration_indptr":[0,1,2,3,4,5,6,7,8,9,10,11,12,13,14,15,16,17,18,19,20,21,22,23,24,25,26,27,28,29,30,31,32,33,34,35,36,37,38,39,40,41,42,43,44,45,46,47,48,49,50,51,52,53,54,55,56,57,58,59],"tree_info":[0,0,0,0,0,0,0,0,0,0,0,0,0,0,0,0,0,0,0,0,0,0,0,0,0,0,0,0,0,0,0,0,0,0,0,0,0,0,0,0,0,0,0,0,0,0,0,0,0,0,0,0,0,0,0,0,0,0,0],"trees":[{"base_weights":[-2.2418745E-2,-3.67043E-2,2.2590302E-2,-2.2119405E-2,3.0922655E-2,1.082049E-1,-1.2640586E-1,3.1915855E-2,1.7345766E-2,-2.4511974E-2,-8.229565E-2,-1.121294E-1,2.4989866E-2,-1.8915981E-2,7.939696E-3,-1.4899295E-2,-2.5878449E-3,1.5434346E-2,-1.5400113E-2],"categories":[],"categories_nodes":[],"categories_segments":[],"categories_sizes":[],"default_left":[0,0,0,0,0,0,0,0,0,0,0,0,0,0,0,0,0,0,0],"id":0,"left_children":[1,-1,3,5,-1,7,9,-1,11,-1,13,15,-1,-1,17,-1,-1,-1,-1],"loss_changes":[6.694767E0,0E0,5.079474E0,3.5745358E0,0E0,3.366105E0,1.26383E0,0E0,3.7997053E0,0E0,1.8572416E0,4.3644822E-1,0E0,0E0,3.4179924E0,0E0,0E0,0E0,0E0],"parents":[2147483647,0,0,2,2,3,3,5,5,6,6,8,8,10,10,11,11,14,14],"right_children":[2,-1,4,6,-1,8,10,-1,12,-1,14,16,-1,-1,18,-1,-1,-1,-1],"split_conditions":[-3.3E0,-3.67043E-2,8.84E0,3.95E0,3.0922655E-2,-5.5E-1,4.99E0,3.1915855E-2,2.28E0,-2.4511974E-2,1.46E0,3.6E0,2.4989866E-2,-1.8915981E-2,4.94E0,-1.4899295E-2,-2.5878449E-3,1.5434346E-2,-1.5400113E-2],"split_indices":[0,0,2,2,0,0,2,0,2,0,0,0,0,0,0,0,0,0,0],"split_type":[0,0,0,0,0,0,0,0,0,0,0,0,0,0,0,0,0,0,0],"sum_hessian":[3.17E2,2.7E1,2.9E2,2.61E2,2.9E1,1.16E2,1.45E2,2.5E1,9.1E1,2.5E1,1.2E2,6.5E1,2.6E1,4.1E1,7.9E1,3E1,3.5E1,4.1E1,3.8E1],"tree_param":{"num_deleted":"0","num_feature":"14","num_nodes":"19","size_leaf_vector":"1"}},{"base_weights":[7.4489214E-3,-3.055428E-2,2.5391743E-2,-2.3212343E-2,1.606363E-2,7.01837E-2,-1.6995884E-2,7.7017066E-3,3.606201E-2,1.2516364E-1,-2.6069617E-2,2.7441192E-2,5.2423734E-2,2.9397802E-2,-4.8320135E-3],"categories":[],"categories_nodes":[],"categories_segments":[],"categories_sizes":[],"default_left":[0,0,0,0,0,0,0,0,0,0,0,0,0,0,0],"id":1,"left_children":[1,3,-1,-1,5,7,-1,9,-1,11,-1,-1,13,-1,-1],"loss_changes":[3.911121E0,3.633023E0,0E0,0E0,3.167971E0,5.050884E0,0E0,7.2217245E0,0E0,2.2571025E0,0E0,0E0,4.0325556E0,0E0,0E0],"parents":[2147483647,0,0,1,1,4,4,5,5,7,7,9,9,12,12],"right_children":[2,4,-1,-1,6,8,-1,10,-1,12,-1,-1,14,-1,-1],"split_conditions":[8.73E0,3.05E0,2.5391743E-2,-2.3212343E-2,1.044E1,9.53E0,-1.6995884E-2,6.45E0,3.606201E-2,4.26E0,-2.6069617E-2,2.7441192E-2,8E-1,2.9397802E-2,-4.8320135E-3],"split_indices":[2,1,0,0,1,1,0,2,0,1,0,0,2,0,0],"split_type":[0,0,0,0,0,0,0,0,0,0,0,0,0,0,0],"sum_hessian":[3.09E2,2.78E2,3.1E1,3.9E1,2.39E2,1.96E2,4.3E1,1.71E2,2.5E1,1.29E2,4.2E1,2.9E1,1E2,2.5E1,7.5E1],"tree_param":{"num_deleted":"0","num_feature":"14","num_nodes":"15","size_leaf_vector":"1"}},{"base_weights":[1.2587086E-2,-2.310842E-2,4.767222E-2,1.556008E-2,2.311582E-2,2.218427E-2,-1.6464239E-2,2.8777648E-2,-1.663908E-1,-1.3844919E-1,1.1646782E-1,-2.6052797E-2,1.5563738E-3,-5.617044E-3,-1.4815379E-2,2.0958487E-2,5.375456E-3,-1.1767613E-2,1.3635966E-2],"categories":[],"categories_nodes":[],"categories_segments":[],"categories_sizes":[],"default_left":[0,0,0,0,0,0,0,0,0,0,0,0,0,0,0,0,0,0,0],"id":2,"left_children":[1,-1,3,5,-1,-1,7,9,11,13,15,-1,-1,-1,-1,-1,17,-1,-1],"loss_changes":[3.5364952E0,0E0,2.3629112E0,2.2753377E0,0E0,0E0,1.5513034E0,2.5970154E0,1.8022659E0,2.1428668E-1,2.0987573E0,0E0,0E0,0E0,0E0,0E0,2.0327473E0,0E0,0E0],"parents":[2147483647,0,0,2,2,3,3,6,6,7,7,8,8,9,9,10,10,16,16],"right_children":[2,-1,4,6,-1,-1,8,10,12,14,16,-1,-1,-1,-1,-1,18,-1,-1],"split_conditions":[-3.3E0,-2.310842E-2,1E0,-2.08E0,2.311582E-2,2.218427E-2,6.72E0,8.1E-1,7.97E0,-5.5E-1,3.1E0,-2.6052797E-2,1.5563738E-3,-5.617044E-3,-1.4815379E-2,2.0958487E-2,4.75E0,-1.1767613E-2,1.3635966E-2],"split_indices":[0,0,10,0,0,0,0,0,0,0,0,0,0,0,0,0,0,0,0],"split_type":[0,0,0,0,0,0,0,0,0,0,0,0,0,0,0,0,0,0,0],"sum_hessian":[3.12E2,3E1,2.82E2,2.52E2,3E1,2.5E1,2.27E2,1.75E2,5.2E1,6E1,1.15E2,2.6E1,2.6E1,3E1,3E1,4.6E1,6.9E1,3.6E1,3.3E1],"tree_param":{"num_deleted":"0","num_feature":"14","num_nodes":"19","size_leaf_vector":"1"}},{"base_weights":[-5.4149085E-4,-3.6804117E-2,2.4800641E-2,3.5356171E-3,-1.8074143E-1,-2.7444635E-2,1.585647E-2,-2.2778625E-2,-5.3192396E-3,-6.891246E-2,1.5898166E-2,-1.9952212E-2,-2.8978594E-2,1.6928606E-2,-1.238743E-1,-2.0846717E-2,-4.8891148E-3],"categories":[],"categories_nodes":[],"categories_segments":[],"categories_sizes":[],"default_left":[0,0,0,0,0,0,0,0,0,0,0,0,0,0,0,0,0],"id":3,"left_children":[1,3,-1,5,7,9,-1,-1,-1,11,-1,-1,13,-1,15,-1,-1],"loss_changes":[3.6514387E0,1.5915906E0,0E0,1.3904665E0,7.8874385E-1,1.8811158E0,0E0,0E0,0E0,1.2596257E0,0E0,0E0,3.2908163E0,0E0,8.7708485E-1,0E0,0E0],"parents":[2147483647,0,0,1,1,3,3,4,4,5,5,9,9,12,12,14,14],"right_children":[2,4,-1,6,8,10,-1,-1,-1,12,-1,-1,14,-1,16,-1,-1],"split_conditions":[8.84E0,6.97E0,2.4800641E-2,6.1E0,8.02E0,1E0,1.585647E-2,-2.2778625E-2,-5.3192396E-3,2E-2,1.5898166E-2,-1.9952212E-2,1.66E0,1.6928606E-2,3.24E0,-2.0846717E-2,-4.8891148E-3],"split_indices":[2,2,0,2,2,8,0,0,0,2,0,0,2,0,2,0,0],"split_type":[0,0,0,0,0,0,0,0,0,0,0,0,0,0,0,0,0],"sum_hessian":[3.02E2,2.73E2,2.9E1,2.14E2,5.9E1,1.87E2,2.7E1,2.7E1,3.2E1,1.6E2,2.7E1,2.6E1,1.34E2,3.6E1,9.8E1,2.6E1,7.2E1],"tree_param":{"num_deleted":"0","num_feature":"14","num_nodes":"17","size_leaf_vector":"1"}},{"base_weights":[2.3581237E-2,-1.0530051E-2,2.481919E-2,9.892615E-2,-8.970368E-2,1.7570855E-1,-7.812842E-3,-1.620433E-1,9.192113E-3,-4.002374E-3,2.8920442E-2,-2.7673291E-2,-2.9163244E-1,-1.586199E-2,8.619098E-3,-3.7100296E-2,-1.0580627E-2],"categories":[],"categories_nodes":[],"categories_segments":[],"categories_sizes":[],"default_left":[0,0,0,0,0,0,0,0,0,0,0,0,0,0,0,0,0],"id":4,"left_children":[1,3,-1,5,7,9,-1,11,-1,-1,-1,13,15,-1,-1,-1,-1],"loss_changes":[3.2534647E0,2.4353666E0,0E0,1.8584317E0,2.5227551E0,4.1556234E0,0E0,2.1163025E0,0E0,0E0,0E0,1.6232202E0,1.8254862E0,0E0,0E0,0E0,0E0],"parents":[2147483647,0,0,1,1,3,3,4,4,5,5,7,7,11,11,12,12],"right_children":[2,4,-1,6,8,10,-1,12,-1,-1,-1,14,16,-1,-1,-1,-1],"split_conditions":[8.84E0,3.65E0,2.481919E-2,9.28E0,9.43E0,4.96E0,-7.812842E-3,5.4E0,9.192113E-3,-4.002374E-3,2.8920442E-2,3.11E0,7.21E0,-1.586199E-2,8.619098E-3,-3.7100296E-2,-1.0580627E-2],"split_indices":[2,2,0,1,1,1,0,1,0,0,0,1,1,0,0,0,0],"split_type":[0,0,0,0,0,0,0,0,0,0,0,0,0,0,0,0,0],"sum_hessian":[3.09E2,2.79E2,3E1,1.17E2,1.62E2,8.5E1,3.2E1,1.21E2,4.1E1,4.1E1,4.4E1,6E1,6.1E1,2.6E1,3.4E1,2.5E1,3.6E1],"tree_param":{"num_deleted":"0","num_feature":"14","num_nodes":"17","size_leaf_vector":"1"}},{"base_weights":[-6.9799107E-3,-3.868518E-2,2.3613857E-2,5.812185E-2,-1.09873995E-1,-3.8117796E-2,1.9608695E-2,-2.6195396E-2,-6.0143948E-2,2.6513876E-2,-1.0646481E-2,1.1065877E-2,-1.1484887E-1,5.3644986E-3,-1.5937439E-3,-1.9238858E-2,-6.7379974E-2,4.289841E-3,-1.22063495E-1,-1.3092456E-2,-5.7749203E-3],"categories":[],"categories_nodes":[],"categories_segments":[],"categories_sizes":[],"default_left":[0,0,0,0,0,0,0,0,0,0,0,0,0,0,0,0,0,0,0,0,0],"id":5,"left_children":[1,3,-1,5,7,9,-1,-1,11,13,-1,-1,15,-1,-1,-1,17,-1,19,-1,-1],"loss_changes":[3.1855457E0,1.963594E0,0E0,2.3777127E0,1.9314576E0,5.607807E-1,0E0,0E0,1.5734857E0,1.13318935E-1,0E0,0E0,7.157279E-1,0E0,0E0,0E0,5.7240725E-1,0E0,1.23786926E-1,0E0,0E0],"parents":[2147483647,0,0,1,1,3,3,4,4,5,5,8,8,9,9,12,12,16,16,18,18],"right_children":[2,4,-1,6,8,10,-1,-1,12,14,-1,-1,16,-1,-1,-1,18,-1,20,-1,-1],"split_conditions":[8.84E0,3.65E0,2.3613857E-2,2.13E0,4.83E0,8.4E-1,1.9608695E-2,-2.6195396E-2,5.59E0,-1.6E-1,-1.0646481E-2,1.1065877E-2,6.43E0,5.3644986E-3,-1.5937439E-3,-1.9238858E-2,7.08E0,4.289841E-3,8.06E0,-1.3092456E-2,-5.7749203E-3],"split_indices":[2,2,0,2,2,2,0,0,2,2,0,0,2,0,0,0,2,0,2,0,0],"split_type":[0,0,0,0,0,0,0,0,0,0,0,0,0,0,0,0,0,0,0,0,0],"sum_hessian":[3.1E2,2.83E2,2.7E1,1.2E2,1.63E2,8.2E1,3.8E1,2.7E1,1.36E2,5.1E1,3.1E1,2.8E1,1.08E2,2.6E1,2.5E1,2.6E1,8.2E1,2.5E1,5.7E1,2.5E1,3.2E1],"tree_param":{"num_deleted":"0","num_feature":"14","num_nodes":"21","size_leaf_vector":"1"}},{"base_weights":[-4.8085344E-3,-7.218609E-2,1.2617812E-1,-1.8652737E-2,-2.8034162E-2,3.3946106E-1,-7.637708E-3,1.5253123E-2,-6.025088E-2,2.9688057E-2,2.0644806E-2,-2.5146483E-2,3.3658915E-3,1.6304364E-2,-7.843453E-2,-1.7657208E-1,1.2461367E-2,-8.40106E-3,-1.9996334E-2],"categories":[],"categories_nodes":[],"categories_segments":[],"categories_sizes":[],"default_left":[0,0,0,0,0,0,0,0,0,0,0,0,0,0,0,0,0,0,0],"id":6,"left_children":[1,3,5,7,-1,9,-1,-1,11,-1,-1,-1,13,-1,15,17,-1,-1,-1],"loss_changes":[2.7538579E0,3.3190637E0,5.189513E0,1.6377788E0,0E0,9.010601E-2,0E0,0E0,2.6081624E0,0E0,0E0,0E0,2.1529524E0,0E0,2.1656117E0,3.4217775E-1,0E0,0E0,0E0],"parents":[2147483647,0,0,1,1,2,2,3,3,5,5,8,8,12,12,14,14,15,15],"right_children":[2,4,6,8,-1,10,-1,-1,12,-1,-1,-1,14,-1,16,18,-1,-1,-1],"split_conditions":[2.880544E4,2.401907E4,3.435307E4,5.02173E3,-2.8034162E-2,3.150468E4,-7.637708E-3,1.5253123E-2,8.94302E3,2.9688057E-2,2.0644806E-2,-2.5146483E-2,1.377453E4,1.6304364E-2,2.091191E4,1.778462E4,1.2461367E-2,-8.40106E-3,-1.9996334E-2],"split_indices":[3,3,3,3,0,3,0,0,3,0,0,0,3,0,3,3,0,0,0],"split_type":[0,0,0,0,0,0,0,0,0,0,0,0,0,0,0,0,0,0,0],"sum_hessian":[3.1E2,2.05E2,1.05E2,1.75E2,3E1,5.4E1,5.1E1,2.7E1,1.48E2,2.6E1,2.8E1,2.7E1,1.21E2,3.3E1,8.8E1,6.3E1,2.5E1,3.8E1,2.5E1],"tree_param":{"num_deleted":"0","num_feature":"14","num_nodes":"19","size_leaf_vector":"1"}},{"base_weights":[5.2461755E-3,-7.649155E-2,8.4907666E-2,-5.1698745E-3,-3.246758E-2,2.4880927E-2,-2.925147E-3,-9.0923466E-2,1.677375E-2,-2.3184836E-2,1.2319409E-1,-1.9481935E-3,-1.4378912E-2,2.3199971E-1,-8.93468E-3,2.133167E-3,-2.5074407E-3,6.0361023E-3,2.8947571E-2],"categories":[],"categories_nodes":[],"categories_segments":[],"categories_sizes":[],"default_left":[0,0,0,0,0,0,0,0,0,0,0,0,0,0,0,0,0,0,0],"id":7,"left_children":[1,3,5,7,-1,-1,9,11,-1,-1,13,15,-1,17,-1,-1,-1,-1,-1],"loss_changes":[2.0575695E0,3.9632387E0,3.469847E0,2.5908334E0,0E0,0E0,4.633681E0,8.605827E-1,0E0,0E0,2.2687583E0,5.0705675E-2,0E0,1.3453453E0,0E0,0E0,0E0,0E0,0E0],"parents":[2147483647,0,0,1,1,2,2,3,3,6,6,7,7,10,10,11,11,13,13],"right_children":[2,4,6,8,-1,-1,10,12,-1,-1,14,16,-1,18,-1,-1,-1,-1,-1],"split_conditions":[6.72E0,5.79E0,1.375474E4,4.63E0,-3.246758E-2,2.4880927E-2,1.979283E4,2.401907E4,1.677375E-2,-2.3184836E-2,3.351208E4,1.520982E4,-1.4378912E-2,2.4E0,-8.93468E-3,2.133167E-3,-2.5074407E-3,6.0361023E-3,2.8947571E-2],"split_indices":[1,1,3,1,0,0,3,3,0,0,3,3,0,0,0,0,0,0,0],"split_type":[0,0,0,0,0,0,0,0,0,0,0,0,0,0,0,0,0,0,0],"sum_hessian":[3.14E2,1.55E2,1.59E2,1.3E2,2.5E1,4.1E1,1.18E2,9.5E1,3.5E1,3.4E1,8.4E1,5.1E1,4.4E1,5.8E1,2.6E1,2.6E1,2.5E1,3E1,2.8E1],"tree_param":{"num_deleted":"0","num_feature":"14","num_nodes":"19","size_leaf_vector":"1"}},{"base_weights":[-5.4931766E-3,2.6490256E-2,-2.4137212E-2,-3.1625196E-2,2.3362496E-1,1.09409764E-1,-1.0574075E-1,2.8492069E-2,3.67778E-3,-6.416572E-3,1.8517261E-2,-1.729439E-1,1.4133701E-2,-3.7996054E-2,-3.5127863E-1,-2.2447854E-2,1.5236426E-2,-3.6474954E-2,-1.5616216E-2],"categories":[],"categories_nodes":[],"categories_segments":[],"categories_sizes":[],"default_left":[0,0,0,0,0,0,0,0,0,0,0,0,0,0,0,0,0,0,0],"id":8,"left_children":[1,3,-1,5,7,9,11,-1,-1,-1,-1,13,-1,15,17,-1,-1,-1,-1],"loss_changes":[3.1955445E0,3.4622161E0,0E0,2.363468E0,1.6823418E0,2.1119156E0,2.9586253E0,0E0,0E0,0E0,0E0,2.8986247E0,0E0,4.471796E0,9.0343857E-1,0E0,0E0,0E0,0E0],"parents":[2147483647,0,0,1,1,3,3,4,4,5,5,6,6,11,11,13,13,14,14],"right_children":[2,4,-1,6,8,10,12,-1,-1,-1,-1,14,-1,16,18,-1,-1,-1,-1],"split_conditions":[1.12E1,9.4E0,-2.4137212E-2,3.26E0,1.044E1,4.96E0,8.53E0,2.8492069E-2,3.67778E-3,-6.416572E-3,1.8517261E-2,5.93E0,1.4133701E-2,3.32E0,7.45E0,-2.2447854E-2,1.5236426E-2,-3.6474954E-2,-1.5616216E-2],"split_indices":[1,1,0,2,1,1,2,0,0,0,0,1,0,1,1,0,0,0,0],"split_type":[0,0,0,0,0,0,0,0,0,0,0,0,0,0,0,0,0,0,0],"sum_hessian":[3.14E2,2.86E2,2.8E1,2.24E2,6.2E1,7.7E1,1.47E2,3.4E1,2.8E1,3.2E1,4.5E1,1.2E2,2.7E1,6.9E1,5.1E1,3.3E1,3.6E1,2.5E1,2.6E1],"tree_param":{"num_deleted":"0","num_feature":"14","num_nodes":"19","size_leaf_vector":"1"}},{"base_weights":[-3.3283655E-2,-3.8402004E-3,-2.1862675E-2,-8.191124E-2,2.1943109E-1,-2.1403467E-2,-2.9472703E-2,7.000337E-3,2.9148547E-2,8.0992185E-2,-6.682839E-2,1.3652948E-2,-1.7290969E-3,-1.9172989E-2,5.1443987E-2,1.9865228E-2,-4.7139144E-3],"categories":[],"categories_nodes":[],"categories_segments":[],"categories_sizes":[],"default_left":[0,0,0,0,0,0,0,0,0,0,0,0,0,0,0,0,0],"id":9,"left_children":[1,3,-1,5,7,9,-1,-1,-1,11,13,-1,-1,-1,15,-1,-1],"loss_changes":[2.3025439E0,4.776643E0,0E0,3.8123407E0,1.4786534E0,8.007874E-1,0E0,0E0,0E0,5.614192E-1,2.6705618E0,0E0,0E0,0E0,1.8217846E0,0E0,0E0],"parents":[2147483647,0,0,1,1,3,3,4,4,5,5,9,9,10,10,14,14],"right_children":[2,4,-1,6,8,10,-1,-1,-1,12,14,-1,-1,-1,16,-1,-1],"split_conditions":[3.589107E4,2.880544E4,-2.1862675E-2,6.72E0,3.14E0,-8.8E-1,-2.9472703E-2,7.000337E-3,2.9148547E-2,1.716432E4,1.99E0,1.3652948E-2,-1.7290969E-3,-1.9172989E-2,3.9E0,1.9865228E-2,-4.7139144E-3],"split_indices":[3,3,0,0,0,0,0,0,0,3,0,0,0,0,0,0,0],"split_type":[0,0,0,0,0,0,0,0,0,0,0,0,0,0,0,0,0],"sum_hessian":[3.02E2,2.72E2,3E1,2.02E2,7E1,1.7E2,3.2E1,4.1E1,2.9E1,5.2E1,1.18E2,2.6E1,2.6E1,4.5E1,7.3E1,2.5E1,4.8E1],"tree_param":{"num_deleted":"0","num_feature":"14","num_nodes":"17","size_leaf_vector":"1"}},{"base_weights":[2.2747941E-2,-5.554179E-3,1.913664E-2,2.3326572E-2,-1.9973554E-2,-1.437142E-1,1.0426843E-1,-8.1748323E-4,-2.1466294E-2,1.7038094E-1,-9.289929E-3,1.1313823E-1,2.8575035E-2,1.9934082E-2,-1.29688075E-2,-8.61441E-3,5.7442654E-3],"categories":[],"categories_nodes":[],"categories_segments":[],"categories_sizes":[],"default_left":[0,0,0,0,0,0,0,0,0,0,0,0,0,0,0,0,0],"id":10,"left_children":[1,3,-1,5,-1,7,9,-1,-1,11,-1,13,-1,-1,15,-1,-1],"loss_changes":[2.0602112E0,2.1148756E0,0E0,3.435695E0,0E0,1.5677763E0,2.6002154E0,0E0,0E0,1.5603993E0,0E0,2.0439658E0,0E0,0E0,5.4718184E-1,0E0,0E0],"parents":[2147483647,0,0,1,1,3,3,5,5,6,6,9,9,11,11,14,14],"right_children":[2,4,-1,6,-1,8,10,-1,-1,12,-1,14,-1,-1,16,-1,-1],"split_conditions":[8.84E0,1E0,1.913664E-2,4.63E0,-1.9973554E-2,3.29E0,1.044E1,-8.1748323E-4,-2.1466294E-2,9.38E0,-9.289929E-3,3.57E0,2.8575035E-2,1.9934082E-2,6.97E0,-8.61441E-3,5.7442654E-3],"split_indices":[2,6,0,1,0,1,1,0,0,1,0,2,0,0,1,0,0],"split_type":[0,0,0,0,0,0,0,0,0,0,0,0,0,0,0,0,0],"sum_hessian":[3.12E2,2.79E2,3.3E1,2.52E2,2.7E1,8.2E1,1.7E2,4.3E1,3.9E1,1.32E2,3.8E1,1.05E2,2.7E1,4.7E1,5.8E1,2.7E1,3.1E1],"tree_param":{"num_deleted":"0","num_feature":"14","num_nodes":"17","size_leaf_vector":"1"}},{"base_weights":[1.9991765E-2,-4.6597347E-2,8.6451896E-2,2.8343122E-2,-2.1477204E-2,1.9132951E-2,6.082495E-3,-1.06978E-2,1.2345762E-1,-2.3947282E-2,1.1582207E-1,2.4355954E-1,-9.112095E-3,2.8886892E-2,-3.6612153E-2,2.3354469E-2,1.2281216E-2,-1.7676303E-2,1.1733202E-2],"categories":[],"categories_nodes":[],"categories_segments":[],"categories_sizes":[],"default_left":[0,0,0,0,0,0,0,0,0,0,0,0,0,0,0,0,0,0,0],"id":11,"left_children":[1,3,5,7,-1,-1,9,-1,11,-1,13,15,-1,-1,17,-1,-1,-1,-1],"loss_changes":[1.3715146E0,2.7931762E0,2.0994158E0,1.9528735E0,0E0,0E0,3.8219254E0,0E0,2.294872E0,0E0,3.2985892E0,2.3052621E-1,0E0,0E0,2.035324E0,0E0,0E0,0E0,0E0],"parents":[2147483647,0,0,1,1,2,2,3,3,6,6,8,8,10,10,11,11,14,14],"right_children":[2,4,6,8,-1,-1,10,-1,12,-1,14,16,-1,-1,18,-1,-1,-1,-1],"split_conditions":[6.72E0,5.4E0,8.64E0,3.05E0,-2.1477204E-2,1.9132951E-2,9.43E0,-1.06978E-2,5.98E0,-2.3947282E-2,1.044E1,4.18E0,-9.112095E-3,2.8886892E-2,2.173152E4,2.3354469E-2,1.2281216E-2,-1.7676303E-2,1.1733202E-2],"split_indices":[1,1,1,1,0,0,1,0,2,0,1,1,0,0,3,0,0,0,0],"split_type":[0,0,0,0,0,0,0,0,0,0,0,0,0,0,0,0,0,0,0],"sum_hessian":[3.08E2,1.54E2,1.54E2,1.18E2,3.6E1,4.9E1,1.05E2,4.2E1,7.6E1,2.6E1,7.9E1,5.1E1,2.5E1,2.8E1,5.1E1,2.6E1,2.5E1,2.5E1,2.6E1],"tree_param":{"num_deleted":"0","num_feature":"14","num_nodes":"19","size_leaf_vector":"1"}},{"base_weights":[-2.0906389E-2,-2.5882285E-2,1.2271209E-2,-6.0971957E-2,1.7082839E-1,5.1242914E-3,-2.7245449E-2,2.9144424E-1,-1.3643291E-3,-1.4868879E-2,5.9106007E-2,1.6861646E-2,2.6783004E-2,-5.8327008E-2,1.89046E-1,8.031693E-3,-1.7016971E-2,2.2193523E-2,5.7060076E-3],"categories":[],"categories_nodes":[],"categories_segments":[],"categories_sizes":[],"default_left":[0,0,0,0,0,0,0,0,0,0,0,0,0,0,0,0,0,0,0],"id":12,"left_children":[1,-1,3,5,7,9,-1,11,-1,-1,13,-1,-1,15,17,-1,-1,-1,-1],"loss_changes":[3.3600662E0,0E0,3.308573E0,3.8981452E0,2.057188E0,1.7792702E0,0E0,1.6031694E-1,0E0,0E0,1.9642099E0,0E0,0E0,1.9203787E0,7.1390295E-1,0E0,0E0,0E0,0E0],"parents":[2147483647,0,0,2,2,3,3,4,4,5,5,7,7,10,10,13,13,14,14],"right_children":[2,-1,4,6,8,10,-1,12,-1,-1,14,-1,-1,16,18,-1,-1,-1,-1],"split_conditions":[-3.3E0,-2.5882285E-2,2.880544E4,6.72E0,3.465592E4,7.86772E3,-2.7245449E-2,3.14E0,-1.3643291E-3,-1.4868879E-2,1.99E0,1.6861646E-2,2.6783004E-2,-5.4E-1,4.48E0,8.031693E-3,-1.7016971E-2,2.2193523E-2,5.7060076E-3],"split_indices":[0,0,3,0,3,3,0,0,0,0,0,0,0,0,0,0,0,0,0],"split_type":[0,0,0,0,0,0,0,0,0,0,0,0,0,0,0,0,0,0,0],"sum_hessian":[3.11E2,2.8E1,2.83E2,1.94E2,8.9E1,1.6E2,3.4E1,5.4E1,3.5E1,3.3E1,1.27E2,2.9E1,2.5E1,6.7E1,6E1,3.4E1,3.3E1,3E1,3E1],"tree_param":{"num_deleted":"0","num_feature":"14","num_nodes":"19","size_leaf_vector":"1"}},{"base_weights":[7.125395E-3,-3.80389E-2,9.1115184E-2,6.197958E-3,-2.0389387E-2,2.6141185E-1,-9.730836E-2,-3.5369687E-2,1.4529216E-2,2.2445343E-2,1.6302202E-2,-1.6766459E-2,2.8150682E-3,7.988187E-2,-1.695812E-1,-3.5920404E-3,2.3515878E-2,-1.7115902E-2,-7.0178634E-3],"categories":[],"categories_nodes":[],"categories_segments":[],"categories_sizes":[],"default_left":[0,0,0,0,0,0,0,0,0,0,0,0,0,0,0,0,0,0,0],"id":13,"left_children":[1,3,5,7,-1,9,11,13,-1,-1,-1,-1,-1,15,17,-1,-1,-1,-1],"loss_changes":[1.1718146E0,2.080717E0,3.4909306E0,1.3319966E0,0E0,3.0006886E-2,8.9359343E-1,2.1790786E0,0E0,0E0,0E0,0E0,0E0,2.2841094E0,2.683189E-1,0E0,0E0,0E0,0E0],"parents":[2147483647,0,0,1,1,2,2,3,3,5,5,6,6,7,7,13,13,14,14],"right_children":[2,4,6,8,-1,10,12,14,-1,-1,-1,-1,-1,16,18,-1,-1,-1,-1],"split_conditions":[2.880544E4,2.41583E4,3.435307E4,2.099609E4,-2.0389387E-2,3.144854E4,3.730939E4,1.316738E4,1.4529216E-2,2.2445343E-2,1.6302202E-2,-1.6766459E-2,2.8150682E-3,8.94302E3,1.767233E4,-3.5920404E-3,2.3515878E-2,-1.7115902E-2,-7.0178634E-3],"split_indices":[3,3,3,3,0,3,3,3,0,0,0,0,0,3,3,0,0,0,0],"split_type":[0,0,0,0,0,0,0,0,0,0,0,0,0,0,0,0,0,0,0],"sum_hessian":[3.07E2,2E2,1.07E2,1.69E2,3.1E1,5.6E1,5.1E1,1.39E2,3E1,2.7E1,2.9E1,2.6E1,2.5E1,7.5E1,6.4E1,4.9E1,2.6E1,3.5E1,2.9E1],"tree_param":{"num_deleted":"0","num_feature":"14","num_nodes":"19","size_leaf_vector":"1"}},{"base_weights":[-2.3272788E-2,-2.5908267E-2,8.912458E-3,3.9312053E-2,-2.0889368E-2,1.4973792E-1,-3.650113E-2,6.503047E-2,2.8300174E-2,-1.0382248E-1,1.8946078E-2,2.0542335E-2,-4.6821456E-2,5.4721322E-2,-2.2690943E-1,1.8236706E-3,-8.711827E-3,-1.198111E-2,1.7907811E-2,-3.5097398E-2,-3.374454E-3],"categories":[],"categories_nodes":[],"categories_segments":[],"categories_sizes":[],"default_left":[0,0,0,0,0,0,0,0,0,0,0,0,0,0,0,0,0,0,0,0,0],"id":14,"left_children":[1,-1,3,5,-1,7,9,11,-1,13,-1,-1,15,17,19,-1,-1,-1,-1,-1,-1],"loss_changes":[3.1967754E0,0E0,2.4663217E0,2.1402583E0,0E0,1.9805007E0,2.9847012E0,1.8117149E0,0E0,2.4322367E0,0E0,0E0,2.5437564E-1,2.2091572E0,3.0485914E0,0E0,0E0,0E0,0E0,0E0,0E0],"parents":[2147483647,0,0,2,2,3,3,5,5,6,6,7,7,9,9,12,12,13,13,14,14],"right_children":[2,-1,4,6,-1,8,10,12,-1,14,-1,-1,16,18,20,-1,-1,-1,-1,-1,-1],"split_conditions":[-3.3E0,-2.5908267E-2,1.12E1,3.95E0,-2.0889368E-2,2.28E0,9.43E0,9E-2,2.8300174E-2,5.11E0,1.8946078E-2,2.0542335E-2,2.15E0,3.13E0,6.97E0,1.8236706E-3,-8.711827E-3,-1.198111E-2,1.7907811E-2,-3.5097398E-2,-3.374454E-3],"split_indices":[0,0,1,2,0,2,1,2,0,1,0,0,0,1,1,0,0,0,0,0,0],"split_type":[0,0,0,0,0,0,0,0,0,0,0,0,0,0,0,0,0,0,0,0,0],"sum_hessian":[3.07E2,2.7E1,2.8E2,2.54E2,2.6E1,1.03E2,1.51E2,7.6E1,2.7E1,1.23E2,2.8E1,2.6E1,5E1,5.4E1,6.9E1,2.5E1,2.5E1,2.5E1,2.9E1,2.9E1,4E1],"tree_param":{"num_deleted":"0","num_feature":"14","num_nodes":"21","size_leaf_vector":"1"}},{"base_weights":[-8.153848E-3,-3.860885E-2,1.9817954E-2,1.6659835E-2,-6.765729E-2,-2.5152776E-1,-5.6812526E-3,3.265143E-3,-3.3509538E-2,6.200798E-2,-2.6287105E-2,-1.6019875E-2,1.230124E-1,2.0274565E-1,-7.439938E-3,5.94322E-3,3.1179689E-2],"categories":[],"categories_nodes":[],"categories_segments":[],"categories_sizes":[],"default_left":[0,0,0,0,0,0,0,0,0,0,0,0,0,0,0,0,0],"id":15,"left_children":[1,3,-1,-1,5,7,9,-1,-1,11,-1,-1,13,15,-1,-1,-1],"loss_changes":[2.556993E0,2.113052E0,0E0,0E0,2.8474617E0,3.6492455E0,4.4096828E0,0E0,0E0,2.6827612E0,0E0,0E0,2.3234067E0,2.4922445E0,0E0,0E0,0E0],"parents":[2147483647,0,0,1,1,4,4,5,5,6,6,9,9,12,12,13,13],"right_children":[2,4,-1,-1,6,8,10,-1,-1,12,-1,-1,14,16,-1,-1,-1],"split_conditions":[8.84E0,5.75919E3,1.9817954E-2,1.6659835E-2,1.650048E4,6.02E0,7.04E0,3.265143E-3,-3.3509538E-2,2.98E0,-2.6287105E-2,-1.6019875E-2,3.358091E4,2.816846E4,-7.439938E-3,5.94322E-3,3.1179689E-2],"split_indices":[2,3,0,0,3,1,2,0,0,1,0,0,3,3,0,0,0],"split_type":[0,0,0,0,0,0,0,0,0,0,0,0,0,0,0,0,0],"sum_hessian":[3.06E2,2.76E2,3E1,2.7E1,2.49E2,6.2E1,1.87E2,2.5E1,3.7E1,1.57E2,3E1,2.8E1,1.29E2,9.5E1,3.4E1,6.1E1,3.4E1],"tree_param":{"num_deleted":"0","num_feature":"14","num_nodes":"17","size_leaf_vector":"1"}},{"base_weights":[1.5062637E-2,4.8728842E-2,-1.2239604E-2,1.8065412E-2,2.2579271E-2,-1.4829293E-2,5.740729E-2,2.0320629E-1,-1.7599884E-2,2.7774459E-2,3.6758028E-3,-1.04446106E-1,1.5439451E-2,-2.5207007E-2,-1.2287793E-2,1.147711E-2,-2.0633522E-2],"categories":[],"categories_nodes":[],"categories_segments":[],"categories_sizes":[],"default_left":[0,0,0,0,0,0,0,0,0,0,0,0,0,0,0,0,0],"id":16,"left_children":[1,3,-1,5,-1,-1,7,9,11,-1,-1,13,-1,-1,15,-1,-1],"loss_changes":[1.8503356E0,1.998508E0,0E0,1.980928E0,0E0,0E0,2.1579626E0,1.7083824E0,2.5637643E0,0E0,0E0,2.0239515E0,0E0,0E0,3.0401015E0,0E0,0E0],"parents":[2147483647,0,0,1,1,3,3,6,6,7,7,8,8,11,11,14,14],"right_children":[2,4,-1,6,-1,-1,8,10,12,-1,-1,14,-1,-1,16,-1,-1],"split_conditions":[6.91E0,8.73E0,-1.2239604E-2,3.05E0,2.2579271E-2,-1.4829293E-2,2.37E0,6.51E0,9.53E0,2.7774459E-2,3.6758028E-3,-1.14E0,1.5439451E-2,-2.5207007E-2,7.4E0,1.147711E-2,-2.0633522E-2],"split_indices":[0,2,0,1,0,0,2,1,1,0,0,0,0,0,1,0,0],"split_type":[0,0,0,0,0,0,0,0,0,0,0,0,0,0,0,0,0],"sum_hessian":[3.06E2,2.58E2,4.8E1,2.31E2,2.7E1,3.5E1,1.96E2,6.6E1,1.3E2,3.1E1,3.5E1,9.4E1,3.6E1,2.6E1,6.8E1,4.2E1,2.6E1],"tree_param":{"num_deleted":"0","num_feature":"14","num_nodes":"17","size_leaf_vector":"1"}},{"base_weights":[4.120452E-2,-3.293804E-2,8.92598E-2,1.1505431E-2,-1.1922657E-1,-2.5475113E-2,1.6969816E-1,4.6666097E-3,-2.3337764E-1,1.7082715E-2,-1.6621779E-1,2.5761515E-1,-8.9906305E-3,-3.2256007E-2,-3.1792843E-3,-2.1160644E-2,-3.6323222E-3,3.7977314E-1,9.6419087E-4,1.0791535E-2,4.354356E-2],"categories":[],"categories_nodes":[],"categories_segments":[],"categories_sizes":[],"default_left":[0,0,0,0,0,0,0,0,0,0,0,0,0,0,0,0,0,0,0,0,0],"id":17,"left_children":[1,3,5,-1,7,9,11,-1,13,-1,15,17,-1,-1,-1,-1,-1,19,-1,-1,-1],"loss_changes":[1.1288297E0,2.0282063E0,1.7763078E0,0E0,1.7957948E0,2.8892455E0,2.9076817E0,0E0,1.9728534E0,0E0,6.9636106E-1,2.5963569E0,0E0,0E0,0E0,0E0,0E0,2.6637888E0,0E0,0E0,0E0],"parents":[2147483647,0,0,1,1,2,2,4,4,5,5,6,6,8,8,10,10,11,11,17,17],"right_children":[2,4,6,-1,8,10,12,-1,14,-1,16,18,-1,-1,-1,-1,-1,20,-1,-1,-1],"split_conditions":[8.7E-1,2.37E0,1.767233E4,1.1505431E-2,1.850373E4,3.73E0,3.538484E4,4.6666097E-3,2.930331E4,1.7082715E-2,5.86E0,6.72E0,-8.9906305E-3,-3.2256007E-2,-3.1792843E-3,-2.1160644E-2,-3.6323222E-3,3.6E0,9.6419087E-4,1.0791535E-2,4.354356E-2],"split_indices":[0,2,3,0,3,0,3,0,3,0,0,0,0,0,0,0,0,0,0,0,0],"split_type":[0,0,0,0,0,0,0,0,0,0,0,0,0,0,0,0,0,0,0,0,0],"sum_hessian":[3.15E2,1.24E2,1.91E2,3.9E1,8.5E1,7.9E1,1.12E2,3.3E1,5.2E1,2.8E1,5.1E1,8.6E1,2.6E1,2.5E1,2.7E1,2.5E1,2.6E1,5.7E1,2.9E1,2.7E1,3E1],"tree_param":{"num_deleted":"0","num_feature":"14","num_nodes":"21","size_leaf_vector":"1"}},{"base_weights":[-1.4476349E-4,-7.311692E-2,7.282833E-2,-1.18213715E-2,-2.8258689E-2,1.2032083E-1,-1.25576435E-2,-9.965872E-2,2.039297E-2,2.0311352E-2,6.419872E-2,2.8895712E-2,-2.084057E-2,1.2603743E-2,-1.9686468E-2,-1.5788415E-2,2.403264E-2,-1.4846717E-2,1.0561532E-2],"categories":[],"categories_nodes":[],"categories_segments":[],"categories_sizes":[],"default_left":[0,0,0,0,0,0,0,0,0,0,0,0,0,0,0,0,0,0,0],"id":18,"left_children":[1,3,5,7,-1,9,-1,11,-1,-1,13,15,-1,-1,17,-1,-1,-1,-1],"loss_changes":[1.6507514E0,2.880615E0,1.7888072E0,3.2669427E0,0E0,1.0806226E0,0E0,2.2990694E0,0E0,0E0,8.3961964E-1,4.1854696E0,0E0,0E0,1.5730067E0,0E0,0E0,0E0,0E0],"parents":[2147483647,0,0,1,1,2,2,3,3,5,5,7,7,10,10,11,11,14,14],"right_children":[2,4,6,8,-1,10,-1,12,-1,-1,14,16,-1,-1,18,-1,-1,-1,-1],"split_conditions":[6.72E0,5.79E0,1.12E1,3.178786E4,-2.8258689E-2,1.088093E4,-1.25576435E-2,4.16E0,2.039297E-2,2.0311352E-2,8.64E0,3.05E0,-2.084057E-2,1.2603743E-2,9.83E0,-1.5788415E-2,2.403264E-2,-1.4846717E-2,1.0561532E-2],"split_indices":[1,1,1,3,0,3,0,1,0,0,1,1,0,0,1,0,0,0,0],"split_type":[0,0,0,0,0,0,0,0,0,0,0,0,0,0,0,0,0,0,0],"sum_hessian":[3.08E2,1.54E2,1.54E2,1.29E2,2.5E1,1.29E2,2.5E1,9.9E1,3E1,3.4E1,9.5E1,5.8E1,4.1E1,4.2E1,5.3E1,3.2E1,2.6E1,2.5E1,2.8E1],"tree_param":{"num_deleted":"0","num_feature":"14","num_nodes":"19","size_leaf_vector":"1"}},{"base_weights":[-1.2289446E-2,5.797018E-3,-1.5859764E-2,-3.9324377E-2,2.1536513E-1,-4.5754565E-3,-2.1630019E-2,2.0625604E-2,1.1057919E-2,-6.8791054E-2,1.8573442E-1,1.7646763E-2,-1.9467174E-1,8.130146E-3,1.921409E-2,-7.479094E-2,1.9671263E-2,-2.9745331E-2,-2.744732E-3,4.467768E-3,-1.61142E-2],"categories":[],"categories_nodes":[],"categories_segments":[],"categories_sizes":[],"default_left":[0,0,0,0,0,0,0,0,0,0,0,0,0,0,0,0,0,0,0,0,0],"id":19,"left_children":[1,3,-1,5,7,9,-1,-1,-1,11,13,15,17,-1,-1,19,-1,-1,-1,-1,-1],"loss_changes":[1.1251605E0,2.7223427E0,0E0,2.0499434E0,1.6607022E-1,2.566937E0,0E0,0E0,0E0,1.7117289E0,2.6099062E-1,2.1453004E0,2.028402E0,0E0,0E0,1.3113309E0,0E0,0E0,0E0,0E0,0E0],"parents":[2147483647,0,0,1,1,3,3,4,4,5,5,9,9,10,10,11,11,12,12,15,15],"right_children":[2,4,-1,6,8,10,-1,-1,-1,12,14,16,18,-1,-1,20,-1,-1,-1,-1,-1],"split_conditions":[1.111E1,9.56E0,-1.5859764E-2,8.64E0,5.02E0,6.72E0,-2.1630019E-2,2.0625604E-2,1.1057919E-2,5.53E0,2.43E0,4.8E0,7.13E0,8.130146E-3,1.921409E-2,4.26E0,1.9671263E-2,-2.9745331E-2,-2.744732E-3,4.467768E-3,-1.61142E-2],"split_indices":[1,1,0,1,2,1,0,0,0,2,0,0,2,0,0,1,0,0,0,0,0],"split_type":[0,0,0,0,0,0,0,0,0,0,0,0,0,0,0,0,0,0,0,0,0],"sum_hessian":[3.11E2,2.86E2,2.5E1,2.36E2,5E1,2.08E2,2.8E1,2.5E1,2.5E1,1.56E2,5.2E1,9.3E1,6.3E1,2.6E1,2.6E1,6.8E1,2.5E1,2.7E1,3.6E1,3.5E1,3.3E1],"tree_param":{"num_deleted":"0","num_feature":"14","num_nodes":"21","size_leaf_vector":"1"}},{"base_weights":[-1.8445805E-2,1.362024E-2,-1.3758323E-2,-1.751737E-2,1.5783507E-2,3.4072883E-2,-1.4458935E-2,-1.7119696E-2,2.4903158E-2,4.6911772E-2,-1.3419369E-1,-8.184393E-3,1.131146E-1,-1.3671109E-2,-5.654703E-3,1.7282376E-2,2.206257E-3],"categories":[],"categories_nodes":[],"categories_segments":[],"categories_sizes":[],"default_left":[0,0,0,0,0,0,0,0,0,0,0,0,0,0,0,0,0],"id":20,"left_children":[1,3,-1,5,-1,7,-1,9,-1,11,13,-1,15,-1,-1,-1,-1],"loss_changes":[1.6585345E0,1.6155366E0,0E0,2.0681772E0,0E0,2.7056093E0,0E0,1.1457511E0,0E0,1.0350229E0,1.3893878E-1,0E0,6.8056446E-1,0E0,0E0,0E0,0E0],"parents":[2147483647,0,0,1,1,3,3,5,5,7,7,9,9,10,10,12,12],"right_children":[2,4,-1,6,-1,8,-1,10,-1,12,14,-1,16,-1,-1,-1,-1],"split_conditions":[6.91E0,5.07E0,-1.3758323E-2,3.1E0,1.5783507E-2,2.15E0,-1.4458935E-2,-1.5E-1,2.4903158E-2,-3.2E0,1E0,-8.184393E-3,-2.08E0,-1.3671109E-2,-5.654703E-3,1.7282376E-2,2.206257E-3],"split_indices":[0,0,0,0,0,0,0,0,0,0,0,0,0,0,0,0,0],"split_type":[0,0,0,0,0,0,0,0,0,0,0,0,0,0,0,0,0],"sum_hessian":[3.12E2,2.62E2,5E1,2.27E2,3.5E1,1.76E2,5.1E1,1.51E2,2.5E1,9.8E1,5.3E1,2.9E1,6.9E1,2.8E1,2.5E1,2.8E1,4.1E1],"tree_param":{"num_deleted":"0","num_feature":"14","num_nodes":"17","size_leaf_vector":"1"}},{"base_weights":[1.7947549E-2,-5.7343915E-2,9.217236E-2,-2.0604178E-2,-9.716468E-3,1.37609E-1,-1.0784898E-2,1.2220203E-2,-7.83017E-2,2.7491266E-2,7.024512E-2,-1.980646E-2,4.366893E-2,-9.676776E-3,1.822148E-1,-1.3158388E-2,1.6525088E-2,2.9451197E-2,2.9377332E-3],"categories":[],"categories_nodes":[],"categories_segments":[],"categories_sizes":[],"default_left":[0,0,0,0,0,0,0,0,0,0,0,0,0,0,0,0,0,0,0],"id":21,"left_children":[1,3,5,-1,7,9,-1,-1,11,-1,13,-1,15,-1,17,-1,-1,-1,-1],"loss_changes":[1.7544843E0,1.612427E0,1.7138214E0,0E0,1.5403001E0,2.0254264E0,0E0,0E0,2.118935E0,0E0,2.3439646E0,0E0,2.2451217E0,0E0,2.0017457E0,0E0,0E0,0E0,0E0],"parents":[2147483647,0,0,1,1,2,2,4,4,5,5,8,8,10,10,12,12,14,14],"right_children":[2,4,6,-1,8,10,-1,-1,12,-1,14,-1,16,-1,18,-1,-1,-1,-1],"split_conditions":[6.72E0,1.094041E4,3.417653E4,-2.0604178E-2,2.047784E4,8.16E0,-1.0784898E-2,1.2220203E-2,2.854153E4,2.7491266E-2,9.56E0,-1.980646E-2,3.69E0,-9.676776E-3,1.047E1,-1.3158388E-2,1.6525088E-2,2.9451197E-2,2.9377332E-3],"split_indices":[1,3,3,0,3,1,0,0,3,0,1,0,1,0,1,0,0,0,0],"split_type":[0,0,0,0,0,0,0,0,0,0,0,0,0,0,0,0,0,0,0],"sum_hessian":[3.12E2,1.55E2,1.57E2,2.7E1,1.28E2,1.32E2,2.5E1,3.6E1,9.2E1,2.9E1,1.03E2,3.6E1,5.6E1,3.7E1,6.6E1,2.5E1,3.1E1,2.6E1,4E1],"tree_param":{"num_deleted":"0","num_feature":"14","num_nodes":"19","size_leaf_vector":"1"}},{"base_weights":[-1.3738111E-2,-4.0869188E-2,1.7644554E-2,-1.9196577E-2,-1.9139236E-2,2.1856828E-2,-1.3957785E-1,-1.925345E-2,7.237336E-2,-2.1265587E-2,-2.4480505E-3,1.8313121E-2,1.6546711E-2,8.894658E-2,-1.509458E-2,1.1035664E-2,-2.8626681E-3],"categories":[],"categories_nodes":[],"categories_segments":[],"categories_sizes":[],"default_left":[0,0,0,0,0,0,0,0,0,0,0,0,0,0,0,0,0],"id":22,"left_children":[1,3,-1,5,-1,7,9,-1,11,-1,-1,13,-1,15,-1,-1,-1],"loss_changes":[2.130875E0,1.314249E0,0E0,1.2830446E0,0E0,2.748618E0,1.0068169E0,0E0,1.318336E0,0E0,0E0,1.9100342E0,0E0,6.9358945E-1,0E0,0E0,0E0],"parents":[2147483647,0,0,1,1,3,3,5,5,6,6,8,8,11,11,13,13],"right_children":[2,4,-1,6,-1,8,10,-1,12,-1,-1,14,-1,16,-1,-1,-1],"split_conditions":[8.84E0,1.111E1,1.7644554E-2,6.45E0,-1.9139236E-2,3.05E0,7.87E0,-1.925345E-2,4.99E0,-2.1265587E-2,-2.4480505E-3,3.65E0,1.6546711E-2,8.16E0,-1.509458E-2,1.1035664E-2,-2.8626681E-3],"split_indices":[2,1,0,2,0,1,2,0,2,0,0,2,0,1,0,0,0],"split_type":[0,0,0,0,0,0,0,0,0,0,0,0,0,0,0,0,0],"sum_hessian":[3.13E2,2.83E2,3E1,2.58E2,2.5E1,1.93E2,6.5E1,2.9E1,1.64E2,2.7E1,3.8E1,1.21E2,4.3E1,9.2E1,2.9E1,6.3E1,2.9E1],"tree_param":{"num_deleted":"0","num_feature":"14","num_nodes":"17","size_leaf_vector":"1"}},{"base_weights":[-1.2981574E-2,1.487222E-2,-3.2743797E-2,-9.5865086E-2,7.026942E-2,-3.2385686E-1,3.07499E-2,-1.137032E-3,1.776892E-2,-1.6409922E-2,-3.5174076E-2,9.2812695E-2,-1.3294874E-2,6.8318495E-3,-1.0242142E-2,-1.9544666E-3,1.5531233E-2],"categories":[],"categories_nodes":[],"categories_segments":[],"categories_sizes":[],"default_left":[0,0,0,0,0,0,0,0,0,0,0,0,0,0,0,0,0],"id":23,"left_children":[1,-1,3,5,7,9,11,13,-1,-1,-1,15,-1,-1,-1,-1,-1],"loss_changes":[1.3175434E0,0E0,1.8794066E0,5.177182E0,1.309253E0,8.732033E-1,1.5140107E0,9.866605E-1,0E0,0E0,0E0,1.2279185E0,0E0,0E0,0E0,0E0,0E0],"parents":[2147483647,0,0,2,2,3,3,4,4,5,5,6,6,7,7,11,11],"right_children":[2,-1,4,6,8,10,12,14,-1,-1,-1,16,-1,-1,-1,-1,-1],"split_conditions":[5.45715E3,1.487222E-2,6.09E0,1.979283E4,9.43E0,3.39E0,3.538484E4,2.435497E4,1.776892E-2,-1.6409922E-2,-3.5174076E-2,2.819374E4,-1.3294874E-2,6.8318495E-3,-1.0242142E-2,-1.9544666E-3,1.5531233E-2],"split_indices":[3,0,2,3,1,2,3,3,0,0,0,3,0,0,0,0,0],"split_type":[0,0,0,0,0,0,0,0,0,0,0,0,0,0,0,0,0],"sum_hessian":[3.13E2,2.6E1,2.87E2,1.78E2,1.09E2,6.3E1,1.15E2,7.7E1,3.2E1,3.8E1,2.5E1,8.9E1,2.6E1,4.6E1,3.1E1,4.4E1,4.5E1],"tree_param":{"num_deleted":"0","num_feature":"14","num_nodes":"17","size_leaf_vector":"1"}},{"base_weights":[3.3794872E-3,1.7311713E-2,-1.7981185E-2,-2.3881102E-2,1.4408001E-2,5.491421E-2,-1.2918056E-2,-1.7592017E-2,2.6167883E-2,-1.0897984E-1,1.0450276E-1,6.0103345E-3,-2.1398206E-1,1.6048944E-2,-5.638841E-3,-2.4801988E-2,-9.463917E-3],"categories":[],"categories_nodes":[],"categories_segments":[],"categories_sizes":[],"default_left":[0,0,0,0,0,0,0,0,0,0,0,0,0,0,0,0,0],"id":24,"left_children":[1,-1,3,-1,5,7,-1,9,-1,11,13,-1,15,-1,-1,-1,-1],"loss_changes":[1.47137E0,0E0,2.7000182E0,0E0,1.9071271E0,4.418585E0,0E0,1.8747708E0,0E0,1.923494E0,1.4325252E0,0E0,5.935745E-1,0E0,0E0,0E0,0E0],"parents":[2147483647,0,0,2,2,4,4,5,5,7,7,9,9,10,10,12,12],"right_children":[2,-1,4,-1,6,8,-1,10,-1,12,14,-1,16,-1,-1,-1,-1],"split_conditions":[5.02173E3,1.7311713E-2,1E-1,-2.3881102E-2,3.435307E4,2.930331E4,-1.2918056E-2,6.1E0,2.6167883E-2,2.34E0,8.45E0,6.0103345E-3,1.641303E4,1.6048944E-2,-5.638841E-3,-2.4801988E-2,-9.463917E-3],"split_indices":[3,0,2,0,3,3,0,2,0,2,2,0,3,0,0,0,0],"split_type":[0,0,0,0,0,0,0,0,0,0,0,0,0,0,0,0,0],"sum_hessian":[3.01E2,2.5E1,2.76E2,2.6E1,2.5E2,2.06E2,4.4E1,1.66E2,4E1,9.5E1,7.1E1,3.4E1,6.1E1,4.4E1,2.7E1,2.5E1,3.6E1],"tree_param":{"num_deleted":"0","num_feature":"14","num_nodes":"17","size_leaf_vector":"1"}},{"base_weights":[6.2744357E-3,-4.9299326E-2,1.1316852E-1,2.0631426E-3,-2.1678613E-2,2.771756E-1,-4.989711E-2,-7.8995295E-2,1.8096454E-1,9.124261E-3,3.168215E-2,9.582072E-3,-1.6457116E-2,2.2404756E-2,-1.9771026E-1,2.337899E-2,3.9814403E-3,-1.5472238E-2,1.3072334E-2,-2.9488672E-2,-1.173142E-3],"categories":[],"categories_nodes":[],"categories_segments":[],"categories_sizes":[],"default_left":[0,0,0,0,0,0,0,0,0,0,0,0,0,0,0,0,0,0,0,0,0],"id":25,"left_children":[1,3,5,7,-1,9,11,13,15,-1,-1,-1,-1,17,19,-1,-1,-1,-1,-1,-1],"loss_changes":[1.8411958E0,2.512671E0,2.848685E0,2.4650435E0,0E0,1.1458569E0,1.6544368E0,1.412841E0,8.696555E-1,0E0,0E0,0E0,0E0,2.259197E0,1.9156706E0,0E0,0E0,0E0,0E0,0E0,0E0],"parents":[2147483647,0,0,1,1,2,2,3,3,5,5,6,6,7,7,8,8,13,13,14,14],"right_children":[2,4,6,8,-1,10,12,14,16,-1,-1,-1,-1,18,20,-1,-1,-1,-1,-1,-1],"split_conditions":[2.880544E4,6.52E0,3.435307E4,6.81E0,-2.1678613E-2,4.86E0,6.43E0,3.44E0,8.28E0,9.124261E-3,3.168215E-2,9.582072E-3,-1.6457116E-2,6.2E-1,1.691664E4,2.337899E-2,3.9814403E-3,-1.5472238E-2,1.3072334E-2,-2.9488672E-2,-1.173142E-3],"split_indices":[3,0,3,2,0,2,1,2,1,0,0,0,0,2,3,0,0,0,0,0,0],"split_type":[0,0,0,0,0,0,0,0,0,0,0,0,0,0,0,0,0,0,0,0,0],"sum_hessian":[3.08E2,2.03E2,1.05E2,1.68E2,3.5E1,5.2E1,5.3E1,1.16E2,5.2E1,2.6E1,2.6E1,2.6E1,2.7E1,6.3E1,5.3E1,2.5E1,2.7E1,2.5E1,3.8E1,2.5E1,2.8E1],"tree_param":{"num_deleted":"0","num_feature":"14","num_nodes":"21","size_leaf_vector":"1"}},{"base_weights":[3.7793862E-3,-6.767985E-2,7.612486E-2,-1.3662595E-1,1.0563782E-2,1.2192525E-1,-1.1168344E-2,-3.7715092E-2,-2.6180452E-2,3.3015106E-2,2.3721648E-2,8.69576E-3,-1.8115915E-2,1.6590843E-2,-1.0609176E-1,-1.8034308E-3,-1.3386628E-2],"categories":[],"categories_nodes":[],"categories_segments":[],"categories_sizes":[],"default_left":[0,0,0,0,0,0,0,0,0,0,0,0,0,0,0,0,0],"id":26,"left_children":[1,3,5,7,-1,9,-1,11,-1,13,-1,-1,-1,-1,15,-1,-1],"loss_changes":[1.6336243E0,2.305242E0,1.6363145E0,2.508429E0,0E0,2.2533522E0,0E0,2.6275895E0,0E0,2.4057915E0,0E0,0E0,0E0,0E0,3.105203E-1,0E0,0E0],"parents":[2147483647,0,0,1,1,2,2,3,3,5,5,7,7,9,9,14,14],"right_children":[2,4,6,8,-1,10,-1,12,-1,14,-1,-1,-1,-1,16,-1,-1],"split_conditions":[6.72E0,3.178786E4,3.351208E4,2.401907E4,1.0563782E-2,2.330458E4,-1.1168344E-2,4.28E0,-2.6180452E-2,1.316738E4,2.3721648E-2,8.69576E-3,-1.8115915E-2,1.6590843E-2,9.2E0,-1.8034308E-3,-1.3386628E-2],"split_indices":[1,3,3,3,0,3,0,1,0,3,0,0,0,0,1,0,0],"split_type":[0,0,0,0,0,0,0,0,0,0,0,0,0,0,0,0,0],"sum_hessian":[3.14E2,1.58E2,1.56E2,1.19E2,3.9E1,1.3E2,2.6E1,8.2E1,3.7E1,9E1,4E1,4.7E1,3.5E1,3.8E1,5.2E1,2.5E1,2.7E1],"tree_param":{"num_deleted":"0","num_feature":"14","num_nodes":"17","size_leaf_vector":"1"}},{"base_weights":[-1.2493768E-2,6.2136375E-3,-1.4693369E-2,-3.294016E-2,1.5358938E-1,-6.7060225E-2,1.50865065E-2,1.7038602E-2,4.142212E-3,6.8358816E-2,-1.3375644E-1,1.2895677E-3,8.099706E-3,-2.3972194E-1,-8.542365E-3,-1.0846305E-2,-3.0181622E-2,5.859531E-3,-9.866333E-3],"categories":[],"categories_nodes":[],"categories_segments":[],"categories_sizes":[],"default_left":[0,0,0,0,0,0,0,0,0,0,0,0,0,0,0,0,0,0,0],"id":27,"left_children":[1,3,-1,5,7,9,-1,-1,-1,11,13,-1,-1,15,17,-1,-1,-1,-1],"loss_changes":[1.0752052E0,1.6496005E0,0E0,1.8186167E0,4.217627E-1,1.797467E0,0E0,0E0,0E0,1.3199267E-1,1.762646E0,0E0,0E0,1.0558934E0,6.712658E-1,0E0,0E0,0E0,0E0],"parents":[2147483647,0,0,1,1,3,3,4,4,5,5,9,9,10,10,13,13,14,14],"right_children":[2,4,-1,6,8,10,-1,-1,-1,12,14,-1,-1,16,18,-1,-1,-1,-1],"split_conditions":[1.12E1,9.4E0,-1.4693369E-2,1E0,1.044E1,4.16E0,1.50865065E-2,1.7038602E-2,4.142212E-3,2.86E0,6.86E0,1.2895677E-3,8.099706E-3,5.75E0,8.43E0,-1.0846305E-2,-3.0181622E-2,5.859531E-3,-9.866333E-3],"split_indices":[1,1,0,8,1,1,0,0,0,1,1,0,0,1,1,0,0,0,0],"split_type":[0,0,0,0,0,0,0,0,0,0,0,0,0,0,0,0,0,0,0],"sum_hessian":[3.12E2,2.84E2,2.8E1,2.25E2,5.9E1,1.97E2,2.8E1,3.3E1,2.6E1,6.5E1,1.32E2,2.9E1,3.6E1,7.1E1,6.1E1,4.6E1,2.5E1,3.6E1,2.5E1],"tree_param":{"num_deleted":"0","num_feature":"14","num_nodes":"19","size_leaf_vector":"1"}},{"base_weights":[6.8818093E-3,2.3189735E-2,-1.1340104E-2,-1.4093285E-2,8.810663E-2,4.1710965E-2,-2.4840467E-2,1.6972317E-1,-1.020363E-3,7.340349E-3,1.5202963E-2,1.741669E-2,8.242472E-3,8.27872E-2,-7.0700504E-2,-3.551829E-3,1.7775295E-2,-9.454125E-3,-1.9483845E-3],"categories":[],"categories_nodes":[],"categories_segments":[],"categories_sizes":[],"default_left":[0,0,0,0,0,0,0,0,0,0,0,0,0,0,0,0,0,0,0],"id":28,"left_children":[1,3,-1,5,7,9,-1,11,-1,13,-1,-1,-1,15,17,-1,-1,-1,-1],"loss_changes":[7.71753E-1,6.571424E-1,0E0,3.0752661E0,8.2414156E-1,8.1747067E-1,0E0,1.8012023E-1,0E0,7.3006934E-1,0E0,0E0,0E0,1.2756668E0,1.4773476E-1,0E0,0E0,0E0,0E0],"parents":[2147483647,0,0,1,1,3,3,4,4,5,5,7,7,9,9,13,13,14,14],"right_children":[2,4,-1,6,8,10,-1,12,-1,14,-1,-1,-1,16,18,-1,-1,-1,-1],"split_conditions":[1E0,2.819374E4,-1.1340104E-2,2.370515E4,3.435307E4,2.099609E4,-2.4840467E-2,3.114648E4,-1.020363E-3,1.213484E4,1.5202963E-2,1.741669E-2,8.242472E-3,7.13572E3,1.641303E4,-3.551829E-3,1.7775295E-2,-9.454125E-3,-1.9483845E-3],"split_indices":[6,3,0,3,3,3,0,3,0,3,0,0,0,3,3,0,0,0,0],"split_type":[0,0,0,0,0,0,0,0,0,0,0,0,0,0,0,0,0,0,0],"sum_hessian":[2.97E2,2.7E2,2.7E1,1.72E2,9.8E1,1.47E2,2.5E1,5.4E1,4.4E1,1.22E2,2.5E1,2.5E1,2.9E1,6.2E1,6E1,3.4E1,2.8E1,2.6E1,3.4E1],"tree_param":{"num_deleted":"0","num_feature":"14","num_nodes":"19","size_leaf_vector":"1"}},{"base_weights":[2.4255584E-3,3.556433E-2,-1.3174607E-1,2.8402878E-3,2.3384664E-2,-1.9220328E-2,2.4797008E-3,3.6052056E-2,-1.6399963E-2,-1.2942669E-2,6.6841155E-2,-8.686255E-3,1.0242101E-1,-7.8286364E-4,1.4766409E-1,2.4945958E-2,2.5002488E-3],"categories":[],"categories_nodes":[],"categories_segments":[],"categories_sizes":[],"default_left":[0,0,0,0,0,0,0,0,0,0,0,0,0,0,0,0,0],"id":29,"left_children":[1,3,5,7,-1,-1,-1,9,-1,-1,11,-1,13,-1,15,-1,-1],"loss_changes":[1.4141572E0,2.3041618E0,1.3014098E0,1.6925495E0,0E0,0E0,0E0,1.2961851E0,0E0,0E0,1.1491766E0,0E0,7.521379E-1,0E0,2.2091062E0,0E0,0E0],"parents":[2147483647,0,0,1,1,2,2,3,3,7,7,10,10,12,12,14,14],"right_children":[2,4,6,8,-1,-1,-1,10,-1,-1,12,-1,14,-1,16,-1,-1],"split_conditions":[6.72E0,5.07E0,2.854153E4,4.18E0,2.3384664E-2,-1.9220328E-2,2.4797008E-3,-3.3E0,-1.6399963E-2,-1.2942669E-2,6.2E-1,-8.686255E-3,1.401066E4,-7.8286364E-4,2.23636E4,2.4945958E-2,2.5002488E-3],"split_indices":[0,0,3,0,0,0,0,0,0,0,2,0,3,0,3,0,0],"split_type":[0,0,0,0,0,0,0,0,0,0,0,0,0,0,0,0,0],"sum_hessian":[3.16E2,2.54E2,6.2E1,2.28E2,2.6E1,3.5E1,2.7E1,1.99E2,2.9E1,2.5E1,1.74E2,2.8E1,1.46E2,4.2E1,1.04E2,3.9E1,6.5E1],"tree_param":{"num_deleted":"0","num_feature":"14","num_nodes":"17","size_leaf_vector":"1"}},{"base_weights":[-4.8003052E-3,-2.7909E-2,1.3726183E-2,-5.5057257E-2,1.25315925E-2,-1.7894903E-2,-1.6382478E-2,2.9251564E-2,-1.1827265E-2,-2.0480251E-2,1.0074169E-2,6.9952436E-2,-1.525523E-2,1.3070937E-2,-4.209116E-3],"categories":[],"categories_nodes":[],"categories_segments":[],"categories_sizes":[],"default_left":[0,0,0,0,0,0,0,0,0,0,0,0,0,0,0],"id":30,"left_children":[1,3,-1,5,-1,-1,7,9,-1,11,-1,13,-1,-1,-1],"loss_changes":[1.3071631E0,1.4279447E0,0E0,1.6713192E0,0E0,0E0,1.2685671E0,7.813291E-1,0E0,1.7015331E0,0E0,9.173298E-1,0E0,0E0,0E0],"parents":[2147483647,0,0,1,1,3,3,6,6,7,7,9,9,11,11],"right_children":[2,4,-1,6,-1,-1,8,10,-1,12,-1,14,-1,-1,-1],"split_conditions":[8.84E0,1E0,1.3726183E-2,-1.69E0,1.25315925E-2,-1.7894903E-2,6.52E0,3.92E0,-1.1827265E-2,1.69E0,1.0074169E-2,4.21E0,-1.525523E-2,1.3070937E-2,-4.209116E-3],"split_indices":[2,8,0,0,0,0,0,0,0,0,0,2,0,0,0],"split_type":[0,0,0,0,0,0,0,0,0,0,0,0,0,0,0],"sum_hessian":[2.99E2,2.67E2,3.2E1,2.35E2,3.2E1,4E1,1.95E2,1.48E2,4.7E1,1.01E2,4.7E1,6.8E1,3.3E1,3.7E1,3.1E1],"tree_param":{"num_deleted":"0","num_feature":"14","num_nodes":"15","size_leaf_vector":"1"}},{"base_weights":[1.3522027E-2,1.4178215E-2,-4.8363404E-3,-1.728485E-2,2.2367217E-2,1.4463401E-1,-2.436635E-2,2.4512136E-2,2.526487E-3,-1.3805905E-1,2.6357122E-2,-5.5676736E-3,-1.4035114E-2,1.1311747E-1,-1.0344962E-1,2.420805E-3,1.4173822E-2,-1.30107105E-2,-2.2083211E-3],"categories":[],"categories_nodes":[],"categories_segments":[],"categories_sizes":[],"default_left":[0,0,0,0,0,0,0,0,0,0,0,0,0,0,0,0,0,0,0],"id":31,"left_children":[1,-1,3,-1,5,7,9,-1,-1,11,13,-1,-1,15,17,-1,-1,-1,-1],"loss_changes":[9.869307E-1,0E0,1.7114888E0,0E0,1.426301E0,1.3837581E0,1.0474457E0,0E0,0E0,1.6151023E-1,1.4307238E0,0E0,0E0,4.6001405E-1,2.5919122E-1,0E0,0E0,0E0,0E0],"parents":[2147483647,0,0,2,2,4,4,5,5,6,6,9,9,10,10,13,13,14,14],"right_children":[2,-1,4,-1,6,8,10,-1,-1,12,14,-1,-1,16,18,-1,-1,-1,-1],"split_conditions":[5.45715E3,1.4178215E-2,9.65412E3,-1.728485E-2,1.840185E4,6.02E0,2.477561E4,2.4512136E-2,2.526487E-3,5.3E0,3.435307E4,-5.5676736E-3,-1.4035114E-2,3.060369E4,3.739196E4,2.420805E-3,1.4173822E-2,-1.30107105E-2,-2.2083211E-3],"split_indices":[3,0,3,0,3,1,3,0,0,1,3,0,0,3,3,0,0,0,0],"split_type":[0,0,0,0,0,0,0,0,0,0,0,0,0,0,0,0,0,0,0],"sum_hessian":[3.05E2,2.8E1,2.77E2,2.9E1,2.48E2,6.8E1,1.8E2,2.5E1,4.3E1,5.5E1,1.25E2,2.5E1,3E1,7.5E1,5E1,3.7E1,3.8E1,2.5E1,2.5E1],"tree_param":{"num_deleted":"0","num_feature":"14","num_nodes":"19","size_leaf_vector":"1"}},{"base_weights":[1.1296585E-2,1.7521806E-2,-9.513583E-3,-3.0910442E-2,1.4327974E-2,-9.609528E-2,1.840154E-2,-2.0661308E-1,8.307379E-3,6.944021E-2,-1.4771055E-2,-6.8696733E-3,-3.0257717E-2,1.22547075E-2,1.724186E-2,1.5004718E-2,-7.881788E-2,2.0051056E-3,-1.6949695E-2],"categories":[],"categories_nodes":[],"categories_segments":[],"categories_sizes":[],"default_left":[0,0,0,0,0,0,0,0,0,0,0,0,0,0,0,0,0,0,0],"id":32,"left_children":[1,-1,3,5,-1,7,9,11,-1,13,-1,-1,-1,15,-1,-1,17,-1,-1],"loss_changes":[1.4596243E0,0E0,1.2460647E0,8.4393936E-1,0E0,2.6062632E0,1.6623445E0,1.6382656E0,0E0,1.1165919E0,0E0,0E0,0E0,1.5722487E0,0E0,0E0,9.6921366E-1,0E0,0E0],"parents":[2147483647,0,0,2,2,3,3,5,5,6,6,7,7,9,9,13,13,16,16],"right_children":[2,-1,4,6,-1,8,10,12,-1,14,-1,-1,-1,16,-1,-1,18,-1,-1],"split_conditions":[5.02173E3,1.7521806E-2,8.84E0,2.099609E4,1.4327974E-2,5.98E0,6.97E0,3.5E0,8.307379E-3,5.19E0,-1.4771055E-2,-6.8696733E-3,-3.0257717E-2,8.4E-1,1.724186E-2,1.5004718E-2,3.300335E4,2.0051056E-3,-1.6949695E-2],"split_indices":[3,0,2,3,0,2,2,0,0,2,0,0,0,2,0,0,3,0,0],"split_type":[0,0,0,0,0,0,0,0,0,0,0,0,0,0,0,0,0,0,0],"sum_hessian":[3.14E2,2.6E1,2.88E2,2.61E2,2.7E1,1.12E2,1.49E2,7.3E1,3.9E1,1.21E2,2.8E1,4.7E1,2.6E1,9E1,3.1E1,2.9E1,6.1E1,3.6E1,2.5E1],"tree_param":{"num_deleted":"0","num_feature":"14","num_nodes":"19","size_leaf_vector":"1"}},{"base_weights":[9.3726866E-4,-1.4256577E-2,1.9505884E-2,5.626246E-2,-1.2110681E-1,-7.3674847E-3,8.558927E-2,-2.0084597E-2,-7.9310696E-5,2.3590222E-1,1.6005214E-2,9.919463E-3,2.5927946E-2,-2.7512109E-2,1.15662385E-2,-1.2123451E-1,9.059136E-3,-3.6203142E-3,-1.6254868E-2],"categories":[],"categories_nodes":[],"categories_segments":[],"categories_sizes":[],"default_left":[0,0,0,0,0,0,0,0,0,0,0,0,0,0,0,0,0,0,0],"id":33,"left_children":[1,-1,3,5,7,-1,9,-1,-1,11,13,-1,-1,15,-1,17,-1,-1,-1],"loss_changes":[1.1210347E0,0E0,1.4953249E0,1.0459752E0,1.0563033E0,0E0,2.014886E0,0E0,0E0,6.4847875E-1,8.041827E-1,0E0,0E0,1.4323505E0,0E0,4.2851055E-1,0E0,0E0,0E0],"parents":[2147483647,0,0,2,2,3,3,4,4,6,6,9,9,10,10,13,13,15,15],"right_children":[2,-1,4,6,8,-1,10,-1,-1,12,14,-1,-1,16,-1,18,-1,-1,-1],"split_conditions":[-3.3E0,-1.4256577E-2,6.72E0,6.3E-1,7.87E0,-7.3674847E-3,3.95E0,-2.0084597E-2,-7.9310696E-5,2.04E0,4.43E0,9.919463E-3,2.5927946E-2,7.25E0,1.15662385E-2,5.85E0,9.059136E-3,-3.6203142E-3,-1.6254868E-2],"split_indices":[0,0,0,2,0,0,2,0,0,2,0,0,0,2,0,2,0,0,0],"split_type":[0,0,0,0,0,0,0,0,0,0,0,0,0,0,0,0,0,0,0],"sum_hessian":[3.14E2,2.7E1,2.87E2,2.28E2,5.9E1,3.6E1,1.92E2,2.6E1,3.3E1,6E1,1.32E2,3.2E1,2.8E1,1.01E2,3.1E1,6.2E1,3.9E1,3.6E1,2.6E1],"tree_param":{"num_deleted":"0","num_feature":"14","num_nodes":"19","size_leaf_vector":"1"}},{"base_weights":[-7.6629454E-3,1.894261E-2,-2.204172E-2,5.5307798E-2,-1.4133274E-2,8.981361E-2,-1.642149E-2,4.926286E-2,1.9797305E-2,8.8273294E-2,-1.1162493E-2,1.671911E-1,-6.2008712E-2,7.846476E-3,2.4872161E-2,-1.634021E-4,-8.9590335E-3],"categories":[],"categories_nodes":[],"categories_segments":[],"categories_sizes":[],"default_left":[0,0,0,0,0,0,0,0,0,0,0,0,0,0,0,0,0],"id":34,"left_children":[1,3,-1,5,-1,7,-1,9,-1,11,-1,13,15,-1,-1,-1,-1],"loss_changes":[2.3282087E0,2.1220815E0,0E0,2.281465E0,0E0,1.4911879E0,0E0,1.3577781E0,0E0,1.7419162E0,0E0,9.5305896E-1,1.7502366E-1,0E0,0E0,0E0,0E0],"parents":[2147483647,0,0,1,1,3,3,5,5,7,7,9,9,11,11,12,12],"right_children":[2,4,-1,6,-1,8,-1,10,-1,12,-1,14,16,-1,-1,-1,-1],"split_conditions":[1.12E1,6.91E0,-2.204172E-2,3.538484E4,-1.4133274E-2,3.035289E4,-1.642149E-2,2.41583E4,1.9797305E-2,3.5E0,-1.1162493E-2,1.14E0,1.488287E4,7.846476E-3,2.4872161E-2,-1.634021E-4,-8.9590335E-3],"split_indices":[1,0,0,3,0,3,0,3,0,0,0,0,3,0,0,0,0],"split_type":[0,0,0,0,0,0,0,0,0,0,0,0,0,0,0,0,0],"sum_hessian":[3.04E2,2.79E2,2.5E1,2.38E2,4.1E1,2.12E2,2.6E1,1.73E2,3.9E1,1.45E2,2.8E1,9.5E1,5E1,7E1,2.5E1,2.5E1,2.5E1],"tree_param":{"num_deleted":"0","num_feature":"14","num_nodes":"17","size_leaf_vector":"1"}},{"base_weights":[3.973736E-3,2.3543537E-2,-1.345969E-2,4.3842588E-3,1.2195083E-2,-8.458289E-3,2.416561E-2,1.4142799E-2,1.3002037E-3,-9.386613E-2,3.9357107E-2,-3.655181E-3,-9.831832E-3,1.7023798E-2,-7.480346E-3,-1.1042872E-2,6.174503E-3],"categories":[],"categories_nodes":[],"categories_segments":[],"categories_sizes":[],"default_left":[0,0,0,0,0,0,0,0,0,0,0,0,0,0,0,0,0],"id":35,"left_children":[1,3,-1,5,-1,-1,7,-1,9,11,13,-1,-1,-1,15,-1,-1],"loss_changes":[1.1170666E0,7.479393E-1,0E0,5.77493E-1,0E0,0E0,8.004618E-1,0E0,6.845807E-1,8.432993E-2,1.188073E0,0E0,0E0,0E0,1.3802079E0,0E0,0E0],"parents":[2147483647,0,0,1,1,3,3,6,6,8,8,9,9,10,10,14,14],"right_children":[2,4,-1,6,-1,-1,8,-1,10,12,14,-1,-1,-1,16,-1,-1],"split_conditions":[1E0,1E0,-1.345969E-2,6.3E-1,1.2195083E-2,-8.458289E-3,1.82E0,1.4142799E-2,4.48E0,3.26E0,5.62E0,-3.655181E-3,-9.831832E-3,1.7023798E-2,7.13E0,-1.1042872E-2,6.174503E-3],"split_indices":[6,11,0,2,0,0,2,0,2,2,2,0,0,0,2,0,0],"split_type":[0,0,0,0,0,0,0,0,0,0,0,0,0,0,0,0,0],"sum_hessian":[3.09E2,2.8E2,2.9E1,2.47E2,3.3E1,3.5E1,2.12E2,2.5E1,1.87E2,5.3E1,1.34E2,2.5E1,2.8E1,2.6E1,1.08E2,4.2E1,6.6E1],"tree_param":{"num_deleted":"0","num_feature":"14","num_nodes":"17","size_leaf_vector":"1"}},{"base_weights":[7.174303E-3,1.27075305E-2,-7.499028E-3,-7.3096566E-2,3.6528792E-2,-7.3095346E-3,-2.1725954E-2,1.3158068E-1,-1.3818941E-2,-1.0100054E-1,1.3069777E-2,4.5935664E-4,2.2155214E-2,-1.9688196E-2,7.812415E-2,9.109037E-3,-1.9752497E-2,1.5305634E-1,-4.119227E-3,8.7726945E-3,1.3860842E-2],"categories":[],"categories_nodes":[],"categories_segments":[],"categories_sizes":[],"default_left":[0,0,0,0,0,0,0,0,0,0,0,0,0,0,0,0,0,0,0,0,0],"id":36,"left_children":[1,-1,3,5,7,9,-1,11,13,15,-1,-1,-1,-1,17,-1,-1,19,-1,-1,-1],"loss_changes":[7.464879E-1,0E0,8.3444774E-1,1.6506898E0,8.2973516E-1,1.5486605E0,0E0,1.2313384E0,2.627159E0,2.1991296E0,0E0,0E0,0E0,0E0,8.458455E-1,0E0,0E0,4.0263653E-2,0E0,0E0,0E0],"parents":[2147483647,0,0,2,2,3,3,4,4,5,5,7,7,8,8,9,9,14,14,17,17],"right_children":[2,-1,4,6,8,10,-1,12,14,16,-1,-1,-1,-1,18,-1,-1,20,-1,-1,-1],"split_conditions":[-1.6E-1,1.27075305E-2,4.48E0,3.44E0,5.3E0,2.28E0,-2.1725954E-2,3.65E0,7.33E0,5.37E0,1.3069777E-2,4.5935664E-4,2.2155214E-2,-1.9688196E-2,1.044E1,9.109037E-3,-1.9752497E-2,8.87E0,-4.119227E-3,8.7726945E-3,1.3860842E-2],"split_indices":[2,0,2,2,1,2,0,1,1,1,0,0,0,0,1,0,0,1,0,0,0],"split_type":[0,0,0,0,0,0,0,0,0,0,0,0,0,0,0,0,0,0,0,0,0],"sum_hessian":[3.12E2,2.5E1,2.87E2,1.15E2,1.72E2,8.9E1,2.6E1,5.9E1,1.13E2,5.9E1,3E1,3.4E1,2.5E1,3E1,8.3E1,2.5E1,3.4E1,5.3E1,3E1,2.7E1,2.6E1],"tree_param":{"num_deleted":"0","num_feature":"14","num_nodes":"21","size_leaf_vector":"1"}},{"base_weights":[4.5464463E-3,1.9537512E-2,-1.9152284E-2,1.1951271E-2,-1.36904055E-2,-1.9075746E-2,1.7000517E-2,-1.5672676E-2,1.4102719E-2,2.133541E-1,-7.4388646E-2,-1.2778741E-3,3.153753E-2,1.2038605E-2,-1.414289E-1,-1.7787393E-2,3.8571272E-3],"categories":[],"categories_nodes":[],"categories_segments":[],"categories_sizes":[],"default_left":[0,0,0,0,0,0,0,0,0,0,0,0,0,0,0,0,0],"id":37,"left_children":[1,-1,3,5,-1,7,-1,-1,9,11,13,-1,-1,-1,15,-1,-1],"loss_changes":[1.8611171E0,0E0,1.4301952E0,1.5832635E0,0E0,1.3134234E0,0E0,0E0,3.154372E0,2.6320357E0,1.9754515E0,0E0,0E0,0E0,1.8031511E0,0E0,0E0],"parents":[2147483647,0,0,2,2,3,3,5,5,8,8,9,9,10,10,14,14],"right_children":[2,-1,4,6,-1,8,-1,-1,10,12,14,-1,-1,-1,16,-1,-1],"split_conditions":[5.45715E3,1.9537512E-2,6.91E0,5.07E0,-1.36904055E-2,3.32E0,1.7000517E-2,-1.5672676E-2,5.89E0,-2.9E-1,-2.08E0,-1.2778741E-3,3.153753E-2,1.2038605E-2,9.53E0,-1.7787393E-2,3.8571272E-3],"split_indices":[3,0,0,0,0,1,0,0,1,0,0,0,0,0,1,0,0],"split_type":[0,0,0,0,0,0,0,0,0,0,0,0,0,0,0,0,0],"sum_hessian":[3.05E2,2.5E1,2.8E2,2.36E2,4.4E1,2.07E2,2.9E1,3E1,1.77E2,5.4E1,1.23E2,2.6E1,2.8E1,2.7E1,9.6E1,6.4E1,3.2E1],"tree_param":{"num_deleted":"0","num_feature":"14","num_nodes":"17","size_leaf_vector":"1"}},{"base_weights":[-6.427246E-3,-7.566352E-2,6.284971E-2,-3.268846E-2,-2.122211E-2,2.0850126E-1,-1.0568989E-2,2.298146E-2,-1.9540077E-2,1.1400953E-2,1.9598685E-2,-1.4990627E-2,5.9949517E-2,-4.9152803E-2,1.8719845E-2,-8.032302E-3,1.4553252E-1,-1.38686085E-2,9.7093005E-3,6.981169E-3,1.4298758E-2],"categories":[],"categories_nodes":[],"categories_segments":[],"categories_sizes":[],"default_left":[0,0,0,0,0,0,0,0,0,0,0,0,0,0,0,0,0,0,0,0,0],"id":38,"left_children":[1,3,5,7,-1,9,11,13,-1,-1,-1,-1,15,17,-1,-1,19,-1,-1,-1,-1],"loss_changes":[1.5156461E0,1.3983157E0,1.6917841E0,1.6802969E0,0E0,1.1839771E-1,1.4270376E0,1.7613771E0,0E0,0E0,0E0,0E0,1.1307033E0,2.0123127E0,0E0,0E0,1.05308056E-1,0E0,0E0,0E0,0E0],"parents":[2147483647,0,0,1,1,2,2,3,3,5,5,6,6,7,7,12,12,13,13,16,16],"right_children":[2,4,6,8,-1,10,12,14,-1,-1,-1,-1,16,18,-1,-1,20,-1,-1,-1,-1],"split_conditions":[6.72E0,5.79E0,8.64E0,8.06E0,-2.122211E-2,2.330458E4,9.53E0,4.61E0,-1.9540077E-2,1.1400953E-2,1.9598685E-2,-1.4990627E-2,3.07E0,4.48E0,1.8719845E-2,-8.032302E-3,1.913715E4,-1.38686085E-2,9.7093005E-3,6.981169E-3,1.4298758E-2],"split_indices":[1,1,1,2,0,3,1,1,0,0,0,0,2,2,0,0,3,0,0,0,0],"split_type":[0,0,0,0,0,0,0,0,0,0,0,0,0,0,0,0,0,0,0,0,0],"sum_hessian":[3.14E2,1.57E2,1.57E2,1.31E2,2.6E1,5.2E1,1.05E2,1.06E2,2.5E1,2.7E1,2.5E1,2.8E1,7.7E1,8.1E1,2.5E1,2.6E1,5.1E1,4.6E1,3.5E1,2.5E1,2.6E1],"tree_param":{"num_deleted":"0","num_feature":"14","num_nodes":"21","size_leaf_vector":"1"}},{"base_weights":[9.218236E-3,1.6186599E-2,-1.0737123E-2,-3.1136418E-2,1.3617378E-2,-1.3798286E-2,-5.0527337E-3,4.5054384E-2,-1.5317068E-2,2.2407115E-1,-4.7928896E-2,6.0061314E-3,2.6066951E-2,-2.1666747E-2,2.1443807E-2,-5.7510524E-3,1.9265644E-2],"categories":[],"categories_nodes":[],"categories_segments":[],"categories_sizes":[],"default_left":[0,0,0,0,0,0,0,0,0,0,0,0,0,0,0,0,0],"id":39,"left_children":[1,-1,3,5,-1,-1,7,9,-1,11,13,-1,-1,-1,15,-1,-1],"loss_changes":[1.2639058E0,0E0,1.1040452E0,1.0116793E0,0E0,0E0,2.184858E0,2.9237137E0,0E0,1.039026E0,1.9452646E0,0E0,0E0,0E0,2.1219423E0,0E0,0E0],"parents":[2147483647,0,0,2,2,3,3,6,6,7,7,9,9,10,10,14,14],"right_children":[2,-1,4,6,-1,-1,8,10,-1,12,14,-1,-1,-1,16,-1,-1],"split_conditions":[5.45715E3,1.6186599E-2,8.84E0,3.05E0,1.3617378E-2,-1.3798286E-2,7.08E0,5.89E0,-1.5317068E-2,2.477561E4,7.07E0,6.0061314E-3,2.6066951E-2,-2.1666747E-2,5.41E0,-5.7510524E-3,1.9265644E-2],"split_indices":[3,0,2,1,0,0,2,1,0,3,1,0,0,0,2,0,0],"split_type":[0,0,0,0,0,0,0,0,0,0,0,0,0,0,0,0,0],"sum_hessian":[3.05E2,2.6E1,2.79E2,2.53E2,2.6E1,3.6E1,2.17E2,1.74E2,4.3E1,5.9E1,1.15E2,2.8E1,3.1E1,2.5E1,9E1,6.4E1,2.6E1],"tree_param":{"num_deleted":"0","num_feature":"14","num_nodes":"17","size_leaf_vector":"1"}},{"base_weights":[-6.7723816E-4,-3.245347E-2,1.161571E-1,1.1924219E-2,-5.443154E-2,2.1122199E-2,-1.0580695E-3,-5.845119E-3,-2.0924821E-2,-8.5516036E-2,1.15893506E-1,-6.458387E-3,-1.9613784E-2,-3.035735E-3,2.8067447E-2,-7.932288E-3,6.975639E-3],"categories":[],"categories_nodes":[],"categories_segments":[],"categories_sizes":[],"default_left":[0,0,0,0,0,0,0,0,0,0,0,0,0,0,0,0,0],"id":40,"left_children":[1,3,5,-1,7,-1,-1,9,-1,11,13,15,-1,-1,-1,-1,-1],"loss_changes":[1.1806495E0,1.0605414E0,1.4697258E0,0E0,2.4533134E0,0E0,0E0,1.8139298E0,0E0,1.5706191E0,3.0044873E0,7.9016775E-1,0E0,0E0,0E0,0E0,0E0],"parents":[2147483647,0,0,1,1,2,2,4,4,7,7,9,9,10,10,11,11],"right_children":[2,4,6,-1,8,-1,-1,10,-1,12,14,16,-1,-1,-1,-1,-1],"split_conditions":[3.210435E4,5.02173E3,5.77E0,1.1924219E-2,6.52E0,2.1122199E-2,-1.0580695E-3,2.15E0,-2.0924821E-2,2.401907E4,2.114055E4,1.650048E4,-1.9613784E-2,-3.035735E-3,2.8067447E-2,-7.932288E-3,6.975639E-3],"split_indices":[3,3,1,0,0,0,0,0,0,3,3,3,0,0,0,0,0],"split_type":[0,0,0,0,0,0,0,0,0,0,0,0,0,0,0,0,0],"sum_hessian":[3.16E2,2.49E2,6.7E1,2.5E1,2.24E2,2.9E1,3.8E1,1.85E2,3.9E1,1.12E2,7.3E1,7.8E1,3.4E1,4.6E1,2.7E1,3.9E1,3.9E1],"tree_param":{"num_deleted":"0","num_feature":"14","num_nodes":"17","size_leaf_vector":"1"}},{"base_weights":[-6.6147833E-3,3.061943E-2,-9.690664E-2,5.4108385E-2,-1.0733381E-2,-1.4003617E-2,-1.7341428E-3,-2.6170563E-2,1.5242769E-1,1.03462726E-1,-1.5314615E-2,1.690562E-2,4.7148624E-3,1.5293566E-2,-3.2600074E-3],"categories":[],"categories_nodes":[],"categories_segments":[],"categories_sizes":[],"default_left":[0,0,0,0,0,0,0,0,0,0,0,0,0,0,0],"id":41,"left_children":[1,3,5,7,-1,-1,-1,9,11,13,-1,-1,-1,-1,-1],"loss_changes":[1.0249989E0,8.8918847E-1,5.8543944E-1,1.5115464E0,0E0,0E0,0E0,2.4673815E0,5.479555E-1,9.2393905E-1,0E0,0E0,0E0,0E0,0E0],"parents":[2147483647,0,0,1,1,2,2,3,3,7,7,8,8,9,9],"right_children":[2,4,6,8,-1,-1,-1,10,12,14,-1,-1,-1,-1,-1],"split_conditions":[4.99E0,1E0,7.16E0,5.4E0,-1.0733381E-2,-1.4003617E-2,-1.7341428E-3,2.37E0,7.48E0,1.46E0,-1.5314615E-2,1.690562E-2,4.7148624E-3,1.5293566E-2,-3.2600074E-3],"split_indices":[0,6,0,2,0,0,0,2,2,0,0,0,0,0,0],"split_type":[0,0,0,0,0,0,0,0,0,0,0,0,0,0,0],"sum_hessian":[3.03E2,2.15E2,8.8E1,1.9E2,2.5E1,3.9E1,4.9E1,1.05E2,8.5E1,6.1E1,4.4E1,4.6E1,3.9E1,3.6E1,2.5E1],"tree_param":{"num_deleted":"0","num_feature":"14","num_nodes":"15","size_leaf_vector":"1"}},{"base_weights":[-5.4958384E-3,-1.1979345E-2,1.1182166E-2,-1.1706974E-2,3.733698E-2,-9.737351E-3,6.528428E-2,1.1078238E-1,-1.407172E-2,4.210994E-2,1.9218552E-1,1.5292698E-1,-1.4861642E-2,3.0129459E-2,6.599792E-2,1.9121982E-2,3.0295819E-3,-6.049155E-3,1.498642E-2],"categories":[],"categories_nodes":[],"categories_segments":[],"categories_sizes":[],"default_left":[0,0,0,0,0,0,0,0,0,0,0,0,0,0,0,0,0,0,0],"id":42,"left_children":[1,-1,3,-1,5,-1,7,9,-1,11,13,15,-1,-1,17,-1,-1,-1,-1],"loss_changes":[8.1718224E-1,0E0,1.2614675E0,0E0,1.1717799E0,0E0,2.4832397E0,1.0093148E0,0E0,2.6928506E0,2.168125E0,7.8195965E-1,0E0,0E0,1.0562571E0,0E0,0E0,0E0,0E0],"parents":[2147483647,0,0,2,2,4,4,6,6,7,7,9,9,10,10,11,11,14,14],"right_children":[2,-1,4,-1,6,-1,8,10,-1,12,14,16,-1,-1,18,-1,-1,-1,-1],"split_conditions":[-3.3E0,-1.1979345E-2,6.2E-1,-1.1706974E-2,7.86772E3,-9.737351E-3,7.34E0,6.04E0,-1.407172E-2,4.81E0,1.833025E4,2.370515E4,-1.4861642E-2,3.0129459E-2,2.748016E4,1.9121982E-2,3.0295819E-3,-6.049155E-3,1.498642E-2],"split_indices":[0,0,2,0,3,0,0,2,0,2,3,3,0,0,3,0,0,0,0],"split_type":[0,0,0,0,0,0,0,0,0,0,0,0,0,0,0,0,0,0,0],"sum_hessian":[3.16E2,3E1,2.86E2,3.8E1,2.48E2,3.5E1,2.13E2,1.81E2,3.2E1,9.9E1,8.2E1,6.8E1,3.1E1,3E1,5.2E1,3.5E1,3.3E1,2.5E1,2.7E1],"tree_param":{"num_deleted":"0","num_feature":"14","num_nodes":"19","size_leaf_vector":"1"}},{"base_weights":[2.3585662E-2,9.9096514E-2,-2.4851851E-2,-6.883533E-3,1.9690485E-1,-8.100148E-2,1.0719836E-2,2.6163626E-2,-2.787276E-3,3.5493586E-3,-1.8439774E-1,-9.379721E-3,1.1208434E-2,-2.2902723E-2,-7.2581195E-3],"categories":[],"categories_nodes":[],"categories_segments":[],"categories_sizes":[],"default_left":[0,0,0,0,0,0,0,0,0,0,0,0,0,0,0],"id":43,"left_children":[1,3,5,-1,7,9,-1,-1,-1,11,13,-1,-1,-1,-1],"loss_changes":[1.1143603E0,2.2397256E0,1.7638749E0,0E0,2.8226147E0,1.2245681E0,0E0,0E0,0E0,1.4822879E0,6.382413E-1,0E0,0E0,0E0,0E0],"parents":[2147483647,0,0,1,1,2,2,4,4,5,5,9,9,10,10],"right_children":[2,4,6,-1,8,10,-1,-1,-1,12,14,-1,-1,-1,-1],"split_conditions":[3.65E0,4.96E0,9.43E0,-6.883533E-3,9.47E0,5.93E0,1.0719836E-2,2.6163626E-2,-2.787276E-3,3.87E0,7.33E0,-9.379721E-3,1.1208434E-2,-2.2902723E-2,-7.2581195E-3],"split_indices":[2,1,1,0,1,1,0,0,0,1,1,0,0,0,0],"split_type":[0,0,0,0,0,0,0,0,0,0,0,0,0,0,0],"sum_hessian":[3.03E2,1.18E2,1.85E2,4E1,7.8E1,1.39E2,4.6E1,4.7E1,3.1E1,7.7E1,6.2E1,4.1E1,3.6E1,2.5E1,3.7E1],"tree_param":{"num_deleted":"0","num_feature":"14","num_nodes":"15","size_leaf_vector":"1"}},{"base_weights":[1.4400973E-2,1.0216398E-1,-2.2469234E-2,-3.1012977E-3,2.3723008E-2,-1.51663255E-2,1.3208859E-2,7.812847E-3,-8.530069E-3,1.305609E-2,-3.045246E-2,-1.1693701E-1,5.0672486E-2,2.043724E-3,-2.6068265E-2,-7.769213E-3,1.1686186E-2],"categories":[],"categories_nodes":[],"categories_segments":[],"categories_sizes":[],"default_left":[0,0,0,0,0,0,0,0,0,0,0,0,0,0,0,0,0],"id":44,"left_children":[1,3,5,7,-1,-1,9,-1,-1,-1,11,13,15,-1,-1,-1,-1],"loss_changes":[9.9569845E-1,2.0522847E0,1.3943095E0,7.476566E-1,0E0,0E0,1.2836508E0,0E0,0E0,0E0,1.0162374E0,2.3373349E0,1.2326121E0,0E0,0E0,0E0,0E0],"parents":[2147483647,0,0,1,1,2,2,3,3,6,6,10,10,11,11,12,12],"right_children":[2,4,6,8,-1,-1,10,-1,-1,-1,12,14,16,-1,-1,-1,-1],"split_conditions":[1.483957E4,9.91908E3,-2.33E0,3.73E0,2.3723008E-2,-1.51663255E-2,-1.5E-1,7.812847E-3,-8.530069E-3,1.305609E-2,2.880544E4,2.243464E4,3.83E0,2.043724E-3,-2.6068265E-2,-7.769213E-3,1.1686186E-2],"split_indices":[3,3,0,0,0,0,0,0,0,0,3,3,0,0,0,0,0],"split_type":[0,0,0,0,0,0,0,0,0,0,0,0,0,0,0,0,0],"sum_hessian":[3.06E2,9E1,2.16E2,6.1E1,2.9E1,3.5E1,1.81E2,3.1E1,3E1,3.8E1,1.43E2,6.9E1,7.4E1,4.3E1,2.6E1,3E1,4.4E1],"tree_param":{"num_deleted":"0","num_feature":"14","num_nodes":"17","size_leaf_vector":"1"}},{"base_weights":[1.6658647E-2,-1.8169362E-2,1.1190753E-1,1.4199631E-2,-1.5810302E-2,-3.6554488E-3,2.0736134E-1,1.3830487E-1,-6.0381845E-2,7.3167724E-3,2.318927E-2,2.7433983E-3,1.8819232E-2,-1.7499577E-2,-7.6628653E-3,-1.4003387E-2,8.932531E-2,1.4641485E-2,-4.8302364E-4],"categories":[],"categories_nodes":[],"categories_segments":[],"categories_sizes":[],"default_left":[0,0,0,0,0,0,0,0,0,0,0,0,0,0,0,0,0,0,0],"id":45,"left_children":[1,3,5,7,-1,-1,9,11,13,-1,-1,-1,-1,-1,15,-1,17,-1,-1],"loss_changes":[1.0038667E0,1.3872497E0,1.2521894E0,1.776238E0,0E0,0E0,5.400808E-1,8.1566966E-1,1.0923153E0,0E0,0E0,0E0,0E0,0E0,1.6316818E0,0E0,6.1986136E-1,0E0,0E0],"parents":[2147483647,0,0,1,1,2,2,3,3,6,6,7,7,8,8,14,14,16,16],"right_children":[2,4,6,8,-1,-1,10,12,14,-1,-1,-1,-1,-1,16,-1,18,-1,-1],"split_conditions":[5.07E0,4.18E0,3.07E0,1.840185E4,-1.5810302E-2,-3.6554488E-3,6.97E0,7.21E0,3.64E0,7.3167724E-3,2.318927E-2,2.7433983E-3,1.8819232E-2,-1.7499577E-2,2.65E0,-1.4003387E-2,5.98E0,1.4641485E-2,-4.8302364E-4],"split_indices":[0,0,2,3,0,0,1,1,1,0,0,0,0,0,2,0,2,0,0],"split_type":[0,0,0,0,0,0,0,0,0,0,0,0,0,0,0,0,0,0,0],"sum_hessian":[3.01E2,2.21E2,8E1,1.9E2,3.1E1,3E1,5E1,7.1E1,1.19E2,2.5E1,2.5E1,3.8E1,3.3E1,2.7E1,9.2E1,3.2E1,6E1,2.8E1,3.2E1],"tree_param":{"num_deleted":"0","num_feature":"14","num_nodes":"19","size_leaf_vector":"1"}},{"base_weights":[-1.825718E-2,-1.0021162E-1,6.777959E-2,-2.821567E-2,-4.2919174E-2,1.249417E-1,-1.166299E-2,4.2922173E-2,-2.243265E-2,3.6806144E-2,2.065881E-1,-6.5384634E-2,2.1253249E-2,-3.3923595E-3,9.254181E-3,2.679887E-2,6.061089E-3,-1.7823294E-2,4.2623607E-3],"categories":[],"categories_nodes":[],"categories_segments":[],"categories_sizes":[],"default_left":[0,0,0,0,0,0,0,0,0,0,0,0,0,0,0,0,0,0,0],"id":46,"left_children":[1,3,5,-1,7,9,-1,11,-1,13,15,17,-1,-1,-1,-1,-1,-1,-1],"loss_changes":[2.0939167E0,2.3873625E0,1.8701375E0,0E0,2.8057048E0,8.271265E-1,0E0,2.5186424E0,0E0,4.1045526E-1,1.1085958E0,1.424047E0,0E0,0E0,0E0,0E0,0E0,0E0,0E0],"parents":[2147483647,0,0,1,1,2,2,4,4,5,5,7,7,9,9,10,10,11,11],"right_children":[2,4,6,-1,8,10,-1,12,-1,14,16,18,-1,-1,-1,-1,-1,-1,-1],"split_conditions":[6.86E0,9.91908E3,3.166795E4,-2.821567E-2,4.99E0,5.41E0,-1.166299E-2,2.15E0,-2.243265E-2,2.4E0,7.89E0,3.64E0,2.1253249E-2,-3.3923595E-3,9.254181E-3,2.679887E-2,6.061089E-3,-1.7823294E-2,4.2623607E-3],"split_indices":[1,3,3,0,0,2,0,0,0,0,2,1,0,0,0,0,0,0,0],"split_type":[0,0,0,0,0,0,0,0,0,0,0,0,0,0,0,0,0,0,0],"sum_hessian":[2.95E2,1.51E2,1.44E2,2.5E1,1.26E2,1.15E2,2.9E1,9.5E1,3.1E1,5.6E1,5.9E1,6.6E1,2.9E1,2.9E1,2.7E1,2.6E1,3.3E1,2.7E1,3.9E1],"tree_param":{"num_deleted":"0","num_feature":"14","num_nodes":"19","size_leaf_vector":"1"}},{"base_weights":[-2.8997194E-2,-4.6522107E-2,8.790703E-3,4.9096525E-2,-7.713502E-2,-4.4551576E-3,1.5756827E-2,-1.9223386E-2,-4.9893927E-2,-8.527425E-2,4.298146E-3,-3.6073362E-3,-1.863284E-1,1.01299025E-2,-9.213486E-3,-2.4520338E-2,-5.901421E-3],"categories":[],"categories_nodes":[],"categories_segments":[],"categories_sizes":[],"default_left":[0,0,0,0,0,0,0,0,0,0,0,0,0,0,0,0,0],"id":47,"left_children":[1,3,-1,5,7,-1,-1,-1,9,11,-1,13,15,-1,-1,-1,-1],"loss_changes":[8.125639E-1,8.2924753E-1,0E0,1.2177497E0,1.0317397E0,0E0,0E0,0E0,7.141517E-1,1.1629702E0,0E0,1.3228741E0,9.278166E-1,0E0,0E0,0E0,0E0],"parents":[2147483647,0,0,1,1,3,3,4,4,8,8,9,9,11,11,12,12],"right_children":[2,4,-1,6,8,-1,-1,-1,10,12,-1,14,16,-1,-1,-1,-1],"split_conditions":[8.73E0,1.66E0,8.790703E-3,6.3E-1,2.98E0,-4.4551576E-3,1.5756827E-2,-1.9223386E-2,9.43E0,5.93E0,4.298146E-3,5.53E0,7.33E0,1.01299025E-2,-9.213486E-3,-2.4520338E-2,-5.901421E-3],"split_indices":[2,2,0,2,2,0,0,0,1,1,0,2,1,0,0,0,0],"split_type":[0,0,0,0,0,0,0,0,0,0,0,0,0,0,0,0,0],"sum_hessian":[3.14E2,2.81E2,3.3E1,6.8E1,2.13E2,4.1E1,2.7E1,2.7E1,1.86E2,1.4E2,4.6E1,7.8E1,6.2E1,3.6E1,4.2E1,2.6E1,3.6E1],"tree_param":{"num_deleted":"0","num_feature":"14","num_nodes":"17","size_leaf_vector":"1"}},{"base_weights":[1.2065507E-2,-6.16695E-2,4.463E-2,-1.7602364E-2,5.081794E-2,1.6385005E-1,-2.6183538E-2,1.0157486E-2,-4.6340446E-3,2.800321E-1,-3.2245368E-3,-1.628916E-2,3.1725433E-2,2.4789376E-2,1.6262002E-2,1.8070208E-2,-5.0197233E-2,-1.3687289E-2,9.87997E-3],"categories":[],"categories_nodes":[],"categories_segments":[],"categories_sizes":[],"default_left":[0,0,0,0,0,0,0,0,0,0,0,0,0,0,0,0,0,0,0],"id":48,"left_children":[1,3,5,-1,7,9,11,-1,-1,13,-1,-1,15,-1,-1,-1,17,-1,-1],"loss_changes":[7.519089E-1,1.8804281E0,1.8362896E0,0E0,5.705267E-1,1.958595E0,1.522236E0,0E0,0E0,9.428692E-2,0E0,0E0,1.8288385E0,0E0,0E0,0E0,1.8773808E0,0E0,0E0],"parents":[2147483647,0,0,1,1,2,2,4,4,5,5,6,6,9,9,12,12,16,16],"right_children":[2,4,6,-1,8,10,12,-1,-1,14,-1,-1,16,-1,-1,-1,18,-1,-1],"split_conditions":[4.63E0,3.92E0,3.65E0,-1.7602364E-2,7.06E0,9.47E0,5.41E0,1.0157486E-2,-4.6340446E-3,1.05E0,-3.2245368E-3,-1.628916E-2,6.45E0,2.4789376E-2,1.6262002E-2,1.8070208E-2,9.43E0,-1.3687289E-2,9.87997E-3],"split_indices":[1,2,2,0,2,1,2,0,0,2,0,0,2,0,0,0,1,0,0],"split_type":[0,0,0,0,0,0,0,0,0,0,0,0,0,0,0,0,0,0,0],"sum_hessian":[3.11E2,9.5E1,2.16E2,3.7E1,5.8E1,8E1,1.36E2,3.3E1,2.5E1,5.1E1,2.9E1,3.1E1,1.05E2,2.6E1,2.5E1,2.9E1,7.6E1,4.4E1,3.2E1],"tree_param":{"num_deleted":"0","num_feature":"14","num_nodes":"19","size_leaf_vector":"1"}},{"base_weights":[-9.245696E-3,1.3502625E-2,-1.8866401E-2,-2.4068346E-2,9.2539266E-2,3.0391166E-2,-2.4481803E-2,1.7025861E-1,-4.415994E-4,1.3858767E-1,-1.0745833E-1,7.908224E-3,1.6977584E-2,-3.0450118E-3,2.0409921E-1,-7.8924553E-4,-1.8118288E-2,2.4328856E-2,5.8486713E-3],"categories":[],"categories_nodes":[],"categories_segments":[],"categories_sizes":[],"default_left":[0,0,0,0,0,0,0,0,0,0,0,0,0,0,0,0,0,0,0],"id":49,"left_children":[1,3,-1,5,7,9,-1,11,-1,13,15,-1,-1,-1,17,-1,-1,-1,-1],"loss_changes":[1.7341839E0,8.574385E-1,0E0,3.2372844E0,7.1242464E-1,2.5056696E0,0E0,1.6524208E-1,0E0,1.1117402E0,9.5951855E-1,0E0,0E0,0E0,1.0214367E0,0E0,0E0,0E0,0E0],"parents":[2147483647,0,0,1,1,3,3,4,4,5,5,7,7,9,9,10,10,14,14],"right_children":[2,4,-1,6,8,10,-1,12,-1,14,16,-1,-1,-1,18,-1,-1,-1,-1],"split_conditions":[1.12E1,2.880544E4,-1.8866401E-2,2.41583E4,3.435307E4,3.5E0,-2.4481803E-2,5.71E0,-4.415994E-4,8.94302E3,1.556864E4,7.908224E-3,1.6977584E-2,-3.0450118E-3,5.5E0,-7.8924553E-4,-1.8118288E-2,2.4328856E-2,5.8486713E-3],"split_indices":[1,3,0,3,3,0,0,1,0,3,3,0,0,0,2,0,0,0,0],"split_type":[0,0,0,0,0,0,0,0,0,0,0,0,0,0,0,0,0,0,0],"sum_hessian":[3.13E2,2.87E2,2.6E1,1.95E2,9.2E1,1.66E2,2.9E1,5.1E1,4.1E1,9.3E1,7.3E1,2.5E1,2.6E1,2.5E1,6.8E1,4.3E1,3E1,3.4E1,3.4E1],"tree_param":{"num_deleted":"0","num_feature":"14","num_nodes":"19","size_leaf_vector":"1"}},{"base_weights":[1.1240785E-3,1.937397E-2,-1.4417341E-2,-3.665586E-2,8.689173E-2,7.023104E-2,-1.458135E-1,1.5486391E-1,-2.434031E-3,1.6436625E-2,-1.4173302E-2,-1.8534744E-2,-2.8620313E-3,1.0463672E-3,1.8926634E-2,-8.782324E-3,6.9941105E-3],"categories":[],"categories_nodes":[],"categories_segments":[],"categories_sizes":[],"default_left":[0,0,0,0,0,0,0,0,0,0,0,0,0,0,0,0,0],"id":50,"left_children":[1,3,-1,5,7,9,11,13,-1,-1,15,-1,-1,-1,-1,-1,-1],"loss_changes":[1.1046828E0,1.0851254E0,0E0,1.8420414E0,1.0596083E0,1.0086924E0,8.4131753E-1,1.1367095E0,0E0,0E0,5.8588225E-1,0E0,0E0,0E0,0E0,0E0,0E0],"parents":[2147483647,0,0,1,1,3,3,4,4,5,5,6,6,7,7,10,10],"right_children":[2,4,-1,6,8,10,12,14,-1,-1,16,-1,-1,-1,-1,-1,-1],"split_conditions":[1.12E1,6.72E0,-1.4417341E-2,4.16E0,6.68E0,2.76E0,4.86E0,2.28E0,-2.434031E-3,1.6436625E-2,6.43E0,-1.8534744E-2,-2.8620313E-3,1.0463672E-3,1.8926634E-2,-8.782324E-3,6.9941105E-3],"split_indices":[1,1,0,1,2,2,2,2,0,0,2,0,0,0,0,0,0],"split_type":[0,0,0,0,0,0,0,0,0,0,0,0,0,0,0,0,0],"sum_hessian":[3.11E2,2.85E2,2.6E1,1.56E2,1.29E2,7.9E1,7.7E1,8.2E1,4.7E1,2.8E1,5.1E1,3.9E1,3.8E1,3.4E1,4.8E1,2.6E1,2.5E1],"tree_param":{"num_deleted":"0","num_feature":"14","num_nodes":"17","size_leaf_vector":"1"}},{"base_weights":[9.941481E-4,2.3662476E-2,-1.8629678E-2,9.399472E-2,-2.0829238E-2,-6.048675E-3,1.9743817E-1,7.766993E-2,-8.208717E-2,2.6080353E-2,7.965805E-3,-2.7306082E-3,1.9751262E-2,-2.5021149E-2,-3.2559969E-3,-6.218846E-2,9.7950455E-3,1.672211E-3,-1.0845009E-2],"categories":[],"categories_nodes":[],"categories_segments":[],"categories_sizes":[],"default_left":[0,0,0,0,0,0,0,0,0,0,0,0,0,0,0,0,0,0,0],"id":51,"left_children":[1,3,-1,5,7,-1,9,11,13,-1,-1,-1,-1,-1,15,17,-1,-1,-1],"loss_changes":[1.7640384E0,8.969097E-1,0E0,2.0212212E0,1.0683342E0,0E0,9.2286944E-1,1.4499664E0,2.1601937E0,0E0,0E0,0E0,0E0,0E0,6.707558E-1,4.140125E-1,0E0,0E0,0E0],"parents":[2147483647,0,0,1,1,3,3,4,4,6,6,7,7,8,8,14,14,15,15],"right_children":[2,4,-1,6,8,-1,10,12,14,-1,-1,-1,-1,-1,16,18,-1,-1,-1],"split_conditions":[1.12E1,3.65E0,-1.8629678E-2,4.96E0,5.11E0,-6.048675E-3,7.07E0,3.65E0,6.7E0,2.6080353E-2,7.965805E-3,-2.7306082E-3,1.9751262E-2,-2.5021149E-2,8.19E0,5.82E0,9.7950455E-3,1.672211E-3,-1.0845009E-2],"split_indices":[1,2,0,1,1,0,1,1,1,0,0,0,0,0,2,2,0,0,0],"split_type":[0,0,0,0,0,0,0,0,0,0,0,0,0,0,0,0,0,0,0],"sum_hessian":[3.1E2,2.85E2,2.5E1,1.1E2,1.75E2,4.1E1,6.9E1,6.7E1,1.08E2,2.5E1,4.4E1,4.2E1,2.5E1,2.5E1,8.3E1,5.8E1,2.5E1,2.9E1,2.9E1],"tree_param":{"num_deleted":"0","num_feature":"14","num_nodes":"19","size_leaf_vector":"1"}},{"base_weights":[-7.142019E-3,7.7128443E-3,-2.6402896E-2,8.9251326E-4,-1.8223219E-2,-5.1377032E-2,1.2782009E-1,-1.5895838E-1,1.1854462E-2,4.959057E-3,1.4340305E-2,-2.1994097E-2,-4.2496677E-3,1.5449193E-2,-5.8667574E-2,9.275877E-3,-1.6477954E-1,-4.74041E-3,-1.9501196E-2],"categories":[],"categories_nodes":[],"categories_segments":[],"categories_sizes":[],"default_left":[0,0,0,0,0,0,0,0,0,0,0,0,0,0,0,0,0,0,0],"id":52,"left_children":[1,-1,3,5,-1,7,9,11,13,-1,-1,-1,-1,-1,15,-1,17,-1,-1],"loss_changes":[6.6786456E-1,0E0,1.5844876E0,1.5921998E0,0E0,1.1583142E0,2.6110983E-1,8.488767E-1,1.4906893E0,0E0,0E0,0E0,0E0,0E0,1.5683064E0,0E0,4.7691655E-1,0E0,0E0],"parents":[2147483647,0,0,2,2,3,3,5,5,6,6,7,7,8,8,14,14,16,16],"right_children":[2,-1,4,6,-1,8,10,12,14,-1,-1,-1,-1,-1,16,-1,18,-1,-1],"split_conditions":[3.14E0,7.7128443E-3,3.589107E4,2.717116E4,-1.8223219E-2,6.64E0,7.21E0,1.251443E4,8.59E0,4.959057E-3,1.4340305E-2,-2.1994097E-2,-4.2496677E-3,1.5449193E-2,1.088093E4,9.275877E-3,1.886287E4,-4.74041E-3,-1.9501196E-2],"split_indices":[1,0,3,3,0,1,1,3,1,0,0,0,0,0,3,0,3,0,0],"split_type":[0,0,0,0,0,0,0,0,0,0,0,0,0,0,0,0,0,0,0],"sum_hessian":[3.13E2,4.6E1,2.67E2,2.38E2,2.9E1,1.69E2,6.9E1,6.2E1,1.07E2,3.6E1,3.3E1,2.6E1,3.6E1,2.8E1,7.9E1,2.9E1,5E1,2.5E1,2.5E1],"tree_param":{"num_deleted":"0","num_feature":"14","num_nodes":"19","size_leaf_vector":"1"}},{"base_weights":[-8.17915E-3,-1.4309466E-2,1.0937893E-2,2.7344817E-2,-1.1611058E-2,9.015114E-3,1.3072772E-2,3.7493385E-2,-9.137985E-2,5.688287E-3,1.4963233E-2,-5.6669917E-3,-7.822026E-3,-8.344725E-3,3.606839E-2,9.266538E-3,-1.4745118E-3],"categories":[],"categories_nodes":[],"categories_segments":[],"categories_sizes":[],"default_left":[0,0,0,0,0,0,0,0,0,0,0,0,0,0,0,0,0],"id":53,"left_children":[1,-1,3,5,-1,7,-1,9,11,13,-1,-1,-1,-1,15,-1,-1],"loss_changes":[1.1052537E0,0E0,7.8472435E-1,7.0418096E-1,0E0,6.724497E-1,0E0,9.4185436E-1,2.742976E-3,5.5117387E-1,0E0,0E0,0E0,0E0,6.0210776E-1,0E0,0E0],"parents":[2147483647,0,0,2,2,3,3,5,5,7,7,8,8,9,9,14,14],"right_children":[2,-1,4,6,-1,8,-1,10,12,14,-1,-1,-1,-1,16,-1,-1],"split_conditions":[-3.3E0,-1.4309466E-2,1E0,7.87E0,-1.1611058E-2,4.99E0,1.3072772E-2,3.96E0,6.64E0,-1.54E0,1.4963233E-2,-5.6669917E-3,-7.822026E-3,-8.344725E-3,8E-1,9.266538E-3,-1.4745118E-3],"split_indices":[0,0,6,0,0,0,0,0,0,0,0,0,0,0,0,0,0],"split_type":[0,0,0,0,0,0,0,0,0,0,0,0,0,0,0,0,0],"sum_hessian":[3.15E2,2.9E1,2.86E2,2.61E2,2.5E1,2.33E2,2.8E1,1.82E2,5.1E1,1.53E2,2.9E1,2.6E1,2.5E1,3.1E1,1.22E2,4.7E1,7.5E1],"tree_param":{"num_deleted":"0","num_feature":"14","num_nodes":"17","size_leaf_vector":"1"}},{"base_weights":[3.046253E-3,1.1883042E-2,-1.3039523E-2,1.0400117E-2,-1.082436E-2,-1.8661594E-2,1.4956982E-2,-4.1116226E-2,1.0440901E-2,-8.052252E-2,6.507998E-3,-1.6008685E-3,-1.7763223E-1,-6.6371304E-3,1.0066601E-2,-2.5974961E-2,-4.7652056E-3],"categories":[],"categories_nodes":[],"categories_segments":[],"categories_sizes":[],"default_left":[0,0,0,0,0,0,0,0,0,0,0,0,0,0,0,0,0],"id":54,"left_children":[1,-1,3,5,-1,7,-1,9,-1,11,-1,13,15,-1,-1,-1,-1],"loss_changes":[7.9945046E-1,0E0,8.9391196E-1,1.3605982E0,0E0,7.678976E-1,0E0,9.594815E-1,0E0,1.111004E0,0E0,9.67853E-1,1.2291212E0,0E0,0E0,0E0,0E0],"parents":[2147483647,0,0,2,2,3,3,5,5,7,7,9,9,11,11,12,12],"right_children":[2,-1,4,6,-1,8,-1,10,-1,12,-1,14,16,-1,-1,-1,-1],"split_conditions":[5.6212E3,1.1883042E-2,6.91E0,5.07E0,-1.082436E-2,1E0,1.4956982E-2,9.53E0,1.0440901E-2,2.565645E4,6.507998E-3,1.906845E4,3.198494E4,-6.6371304E-3,1.0066601E-2,-2.5974961E-2,-4.7652056E-3],"split_indices":[3,0,0,0,0,13,0,1,0,3,0,3,3,0,0,0,0],"split_type":[0,0,0,0,0,0,0,0,0,0,0,0,0,0,0,0,0],"sum_hessian":[3.18E2,2.9E1,2.89E2,2.46E2,4.3E1,2.14E2,3.2E1,1.88E2,2.6E1,1.44E2,4.4E1,8E1,6.4E1,4.9E1,3.1E1,2.5E1,3.9E1],"tree_param":{"num_deleted":"0","num_feature":"14","num_nodes":"17","size_leaf_vector":"1"}},{"base_weights":[-5.589132E-3,1.4017758E-2,-9.102258E-3,-1.3868992E-2,4.104749E-2,-1.619955E-2,1.302054E-1,1.21768145E-2,-5.6918543E-2,1.9920495E-1,1.6690904E-3,-8.117696E-3,-1.4521043E-2,2.2736331E-2,7.425997E-3,-8.292274E-3,9.257357E-3],"categories":[],"categories_nodes":[],"categories_segments":[],"categories_sizes":[],"default_left":[0,0,0,0,0,0,0,0,0,0,0,0,0,0,0,0,0],"id":55,"left_children":[1,3,-1,-1,5,7,9,-1,11,13,-1,15,-1,-1,-1,-1,-1],"loss_changes":[7.053932E-1,1.4379342E0,0E0,0E0,1.2015554E0,1.056217E0,6.808344E-1,0E0,7.855885E-1,5.531981E-1,0E0,1.1995943E0,0E0,0E0,0E0,0E0,0E0],"parents":[2147483647,0,0,1,1,4,4,5,5,6,6,8,8,9,9,11,11],"right_children":[2,4,-1,-1,6,8,10,-1,12,14,-1,16,-1,-1,-1,-1,-1],"split_conditions":[6.91E0,6.77894E3,-9.102258E-3,-1.3868992E-2,2.43E0,1.316738E4,4.99E0,1.21768145E-2,7.1E-1,2.258183E4,1.6690904E-3,-1.47E0,-1.4521043E-2,2.2736331E-2,7.425997E-3,-8.292274E-3,9.257357E-3],"split_indices":[0,3,0,0,0,3,0,0,0,3,0,0,0,0,0,0,0],"split_type":[0,0,0,0,0,0,0,0,0,0,0,0,0,0,0,0,0],"sum_hessian":[3.09E2,2.65E2,4.4E1,3.1E1,2.34E2,1.43E2,9.1E1,2.6E1,1.17E2,5.5E1,3.6E1,8.7E1,3E1,2.6E1,2.9E1,4.9E1,3.8E1],"tree_param":{"num_deleted":"0","num_feature":"14","num_nodes":"17","size_leaf_vector":"1"}},{"base_weights":[6.008804E-3,3.1149283E-2,-5.8053423E-2,3.8429464E-3,1.7268157E-2,-1.1596106E-2,2.210295E-3,-2.9518932E-2,1.555886E-2,4.4879336E-2,-1.0893974E-1,-7.139426E-3,1.1416718E-1,-1.5480678E-2,-1.6534111E-3,2.0982329E-2,-1.5520743E-3],"categories":[],"categories_nodes":[],"categories_segments":[],"categories_sizes":[],"default_left":[0,0,0,0,0,0,0,0,0,0,0,0,0,0,0,0,0],"id":56,"left_children":[1,3,5,7,-1,-1,-1,9,-1,11,13,-1,15,-1,-1,-1,-1],"loss_changes":[5.02691E-1,1.2168899E0,7.48283E-1,1.3510908E0,0E0,0E0,0E0,1.015289E0,0E0,8.7463653E-1,6.9841975E-1,0E0,1.3457507E0,0E0,0E0,0E0,0E0],"parents":[2147483647,0,0,1,1,2,2,3,3,7,7,9,9,10,10,12,12],"right_children":[2,4,6,8,-1,-1,-1,10,-1,12,14,-1,16,-1,-1,-1,-1],"split_conditions":[4.99E0,1E0,7.16E0,3.96E0,1.7268157E-2,-1.1596106E-2,2.210295E-3,-1.5E-1,1.555886E-2,-3.2E0,1.63E0,-7.139426E-3,5.93E0,-1.5480678E-2,-1.6534111E-3,2.0982329E-2,-1.5520743E-3],"split_indices":[0,13,0,0,0,0,0,0,0,0,0,0,1,0,0,0,0],"split_type":[0,0,0,0,0,0,0,0,0,0,0,0,0,0,0,0,0],"sum_hessian":[3.1E2,2.23E2,8.7E1,1.97E2,2.6E1,4.1E1,4.6E1,1.7E2,2.7E1,8.8E1,8.2E1,2.9E1,5.9E1,3.8E1,4.4E1,2.6E1,3.3E1],"tree_param":{"num_deleted":"0","num_feature":"14","num_nodes":"17","size_leaf_vector":"1"}},{"base_weights":[5.398115E-3,-1.4456696E-2,1.3421928E-2,1.1861783E-2,-4.3046303E-2,-7.939246E-2,5.4529008E-2,-4.3476447E-2,-1.9496273E-2,1.2334212E-2,-4.5286235E-3,3.0607015E-2,-1.3349687E-1,9.835411E-3,-8.110474E-3,-2.1982849E-2,8.536115E-3],"categories":[],"categories_nodes":[],"categories_segments":[],"categories_sizes":[],"default_left":[0,0,0,0,0,0,0,0,0,0,0,0,0,0,0,0,0],"id":57,"left_children":[1,3,-1,-1,5,7,9,11,-1,-1,-1,13,15,-1,-1,-1,-1],"loss_changes":[1.0742991E0,1.3885971E0,0E0,0E0,8.5903275E-1,1.1300441E0,8.4362894E-1,9.9110144E-1,0E0,0E0,0E0,1.1579541E0,2.678043E0,0E0,0E0,0E0,0E0],"parents":[2147483647,0,0,1,1,4,4,5,5,6,6,7,7,11,11,12,12],"right_children":[2,4,-1,-1,6,8,10,12,-1,-1,-1,14,16,-1,-1,-1,-1],"split_conditions":[8.84E0,-2.51E0,1.3421928E-2,1.1861783E-2,3.060369E4,2.559732E4,3.465592E4,5.17E0,-1.9496273E-2,1.2334212E-2,-4.5286235E-3,3.5E0,7.39E0,9.835411E-3,-8.110474E-3,-2.1982849E-2,8.536115E-3],"split_indices":[2,0,0,0,3,3,3,2,0,0,0,0,2,0,0,0,0],"split_type":[0,0,0,0,0,0,0,0,0,0,0,0,0,0,0,0,0],"sum_hessian":[3.1E2,2.79E2,3.1E1,3.9E1,2.4E2,1.75E2,6.5E1,1.47E2,2.8E1,3.3E1,3.2E1,8.1E1,6.6E1,4.7E1,3.4E1,4E1,2.6E1],"tree_param":{"num_deleted":"0","num_feature":"14","num_nodes":"17","size_leaf_vector":"1"}},{"base_weights":[1.4297506E-2,-3.7293904E-2,5.9112884E-2,1.8819496E-2,-2.1465871E-2,1.6629668E-2,1.255155E-2,-6.1039686E-2,1.6614536E-2,-1.0375625E-1,9.1965415E-2,1.2651713E-2,-1.7143095E-2,-1.7616909E-2,1.9774155E-3,1.2374721E-2,-2.4063345E-3],"categories":[],"categories_nodes":[],"categories_segments":[],"categories_sizes":[],"default_left":[0,0,0,0,0,0,0,0,0,0,0,0,0,0,0,0,0],"id":58,"left_children":[1,3,5,7,-1,-1,9,11,-1,13,15,-1,-1,-1,-1,-1,-1],"loss_changes":[7.0045525E-1,1.9748205E0,1.223819E0,1.8913376E0,0E0,0E0,1.1825714E0,3.2715213E0,0E0,8.935018E-1,6.938134E-1,0E0,0E0,0E0,0E0,0E0,0E0],"parents":[2147483647,0,0,1,1,2,2,3,3,6,6,7,7,9,9,10,10],"right_children":[2,4,6,8,-1,-1,10,12,-1,14,16,-1,-1,-1,-1,-1,-1],"split_conditions":[4.48E0,3.41E0,5.62E0,3.210435E4,-2.1465871E-2,1.6629668E-2,7.25E0,1.555713E4,1.6614536E-2,2.375872E4,2.549174E4,1.2651713E-2,-1.7143095E-2,-1.7616909E-2,1.9774155E-3,1.2374721E-2,-2.4063345E-3],"split_indices":[2,2,2,3,0,0,2,3,0,3,3,0,0,0,0,0,0],"split_type":[0,0,0,0,0,0,0,0,0,0,0,0,0,0,0,0,0],"sum_hessian":[3.01E2,1.4E2,1.61E2,1.15E2,2.5E1,3.5E1,1.26E2,8.3E1,3.2E1,5.1E1,7.5E1,3.5E1,4.8E1,2.5E1,2.6E1,4.7E1,2.8E1],"tree_param":{"num_deleted":"0","num_feature":"14","num_nodes":"17","size_leaf_vector":"1"}}]},"name":"gbtree"},"learner_model_param":{"base_score":"-2.2332736E-9","boost_from_average":"1","num_class":"0","num_feature":"14","num_target":"1"},"objective":{"name":"reg:squarederror","reg_loss_param":{"scale_pos_weight":"1"}}},"version":[3,0,1]}