{"learner":{"attributes":{"best_iteration":"1","best_score":"1.0186553165019048"},"feature_names":[],"feature_types":[],"gradient_booster":{"model":{"gbtree_model_param":{"num_parallel_tree":"1","num_trees":"52"},"iteration_indptr":[0,1,2,3,4,5,6,7,8,9,10,11,12,13,14,15,16,17,18,19,20,21,22,23,24,25,26,27,28,29,30,31,32,33,34,35,36,37,38,39,40,41,42,43,44,45,46,47,48,49,50,51,52],"tree_info":[0,0,0,0,0,0,0,0,0,0,0,0,0,0,0,0,0,0,0,0,0,0,0,0,0,0,0,0,0,0,0,0,0,0,0,0,0,0,0,0,0,0,0,0,0,0,0,0,0,0,0,0],"trees":[{"base_weights":[2.2998844E-5,-2.9572554E-2,4.2615373E-2,3.3079784E-2,-3.8810088E-3,-3.5840493E-2,2.120058E-2,7.1317695E-2,-1.2430086E-1,2.5142303E-1,-1.2009106E-2,-2.5048366E-1,-3.747222E-2,6.036921E-3,3.1475306E-2,-1.1961464E-2,-2.4662526E-2,1.5899511E-2,-1.6148445E-1,-1.832395E-2,-5.6802453E-3],"categories":[],"categories_nodes":[],"categories_segments":[],"categories_sizes":[],"default_left":[0,0,0,0,0,0,0,0,0,0,0,0,0,0,0,0,0,0,0,0,0],"id":0,"left_children":[1,-1,3,-1,5,7,-1,9,11,13,-1,15,17,-1,-1,-1,-1,-1,19,-1,-1],"loss_changes":[5.3408766E0,0E0,5.3187914E0,0E0,2.3729374E0,2.217531E0,0E0,4.4586997E0,1.3930178E0,1.6917417E0,0E0,3.182974E-1,2.4163668E0,0E0,0E0,0E0,0E0,0E0,3.508476E-1,0E0,0E0],"parents":[2147483647,0,0,2,2,4,4,5,5,7,7,8,8,9,9,11,11,12,12,18,18],"right_children":[2,-1,4,-1,6,8,-1,10,12,14,-1,16,18,-1,-1,-1,-1,-1,20,-1,-1],"split_conditions":[-3.2E0,-2.9572554E-2,-2.15E0,3.3079784E-2,8.7E0,3.1E0,2.120058E-2,4.99E0,5.07E0,2.06E0,-1.2009106E-2,4.17E0,6.9E0,6.036921E-3,3.1475306E-2,-1.1961464E-2,-2.4662526E-2,1.5899511E-2,8.14E0,-1.832395E-2,-5.6802453E-3],"split_indices":[0,0,0,0,2,0,0,2,0,2,0,2,0,0,0,0,0,0,0,0,0],"split_type":[0,0,0,0,0,0,0,0,0,0,0,0,0,0,0,0,0,0,0,0,0],"sum_hessian":[3.16E2,3E1,2.86E2,2.9E1,2.57E2,2.32E2,2.5E1,1.05E2,1.27E2,5.9E1,4.6E1,5.1E1,7.6E1,3E1,2.9E1,2.5E1,2.6E1,2.5E1,5.1E1,2.5E1,2.6E1],"tree_param":{"num_deleted":"0","num_feature":"14","num_nodes":"21","size_leaf_vector":"1"}},{"base_weights":[1.0428058E-2,-3.0913193E-2,3.079882E-2,-1.05120845E-1,1.4437285E-1,2.0307228E-2,-4.3997177E-1,3.2903484E-1,-2.1016546E-2,-1.5361522E-2,8.3322786E-2,-4.347134E-2,-2.0046802E-2,3.408044E-2,1.4452204E-2,2.3533966E-1,-5.2615467E-2,3.8371983E-4,3.4903016E-2,-1.5311084E-2,4.3714554E-3],"categories":[],"categories_nodes":[],"categories_segments":[],"categories_sizes":[],"default_left":[0,0,0,0,0,0,0,0,0,0,0,0,0,0,0,0,0,0,0,0,0],"id":1,"left_children":[1,3,-1,5,7,9,11,13,-1,-1,15,-1,-1,-1,-1,17,19,-1,-1,-1,-1],"loss_changes":[5.12532E0,3.6703026E0,0E0,8.324876E0,6.678329E0,2.074114E0,1.1472425E0,9.2092085E-1,0E0,0E0,2.368182E0,0E0,0E0,0E0,0E0,2.8574147E0,1.037014E0,0E0,0E0,0E0,0E0],"parents":[2147483647,0,0,1,1,3,3,4,4,5,5,6,6,7,7,10,10,15,15,16,16],"right_children":[2,4,-1,6,8,10,12,14,-1,-1,16,-1,-1,-1,-1,18,20,-1,-1,-1,-1],"split_conditions":[8.79E0,9.4E0,3.079882E-2,6.32E0,1.111E1,3.28E0,7.9E0,1.025E1,-2.1016546E-2,-1.5361522E-2,5.93E0,-4.347134E-2,-2.0046802E-2,3.408044E-2,1.4452204E-2,4.61E0,7.33E0,3.8371983E-4,3.4903016E-2,-1.5311084E-2,4.3714554E-3],"split_indices":[2,1,0,2,1,1,2,1,0,0,1,0,0,0,0,1,1,0,0,0,0],"split_type":[0,0,0,0,0,0,0,0,0,0,0,0,0,0,0,0,0,0,0,0,0],"sum_hessian":[3.08E2,2.8E2,2.8E1,1.97E2,8.3E1,1.44E2,5.3E1,5.8E1,2.5E1,3.1E1,1.13E2,2.8E1,2.5E1,2.9E1,2.9E1,5.3E1,6E1,2.7E1,2.6E1,2.5E1,3.5E1],"tree_param":{"num_deleted":"0","num_feature":"14","num_nodes":"21","size_leaf_vector":"1"}},{"base_weights":[3.2879576E-2,-8.935543E-4,2.3178816E-2,-2.0069102E-2,2.6409397E-2,1.0420277E-1,-1.1407986E-1,2.314653E-2,5.9847526E-2,-2.145338E-2,-3.7062585E-2,-9.007327E-2,1.5085968E-1,-6.066902E-3,2.25803E-3,6.478424E-4,-1.4183751E-2,2.1990593E-1,3.0616887E-3,8.3148815E-3,2.4351204E-2],"categories":[],"categories_nodes":[],"categories_segments":[],"categories_sizes":[],"default_left":[0,0,0,0,0,0,0,0,0,0,0,0,0,0,0,0,0,0,0,0,0],"id":2,"left_children":[1,3,-1,-1,5,7,9,-1,11,-1,13,15,17,-1,-1,-1,-1,19,-1,-1,-1],"loss_changes":[2.9103525E0,2.038618E0,0E0,0E0,2.7878876E0,1.4685165E0,1.1946291E0,0E0,1.8692561E0,0E0,1.9085196E-1,5.1002145E-1,6.3682353E-1,0E0,0E0,0E0,0E0,5.581014E-1,0E0,0E0,0E0],"parents":[2147483647,0,0,1,1,4,4,5,5,6,6,8,8,10,10,11,11,12,12,17,17],"right_children":[2,4,-1,-1,6,8,10,-1,12,-1,14,16,18,-1,-1,-1,-1,20,-1,-1,-1],"split_conditions":[1E0,-3.2E0,2.3178816E-2,-2.0069102E-2,4.49E0,-2.15E0,6.06E0,2.314653E-2,9.2E-1,-2.145338E-2,8.24E0,-5.5E-1,3.1E0,-6.066902E-3,2.25803E-3,6.478424E-4,-1.4183751E-2,2.17E0,3.0616887E-3,8.3148815E-3,2.4351204E-2],"split_indices":[12,0,0,0,0,0,0,0,0,0,0,0,0,0,0,0,0,0,0,0,0],"split_type":[0,0,0,0,0,0,0,0,0,0,0,0,0,0,0,0,0,0,0,0,0],"sum_hessian":[3.11E2,2.78E2,3.3E1,2.5E1,2.53E2,1.63E2,9E1,2.8E1,1.35E2,2.7E1,6.3E1,5.1E1,8.4E1,3.8E1,2.5E1,2.6E1,2.5E1,5.1E1,3.3E1,2.6E1,2.5E1],"tree_param":{"num_deleted":"0","num_feature":"14","num_nodes":"21","size_leaf_vector":"1"}},{"base_weights":[-8.326139E-3,-5.109893E-2,2.6562462E-2,3.1980842E-2,-1.6407655E-1,-1.1864773E-2,7.630392E-2,-2.00121E-2,-1.2467219E-1,2.260502E-2,-1.1650624E-2,2.3163124E-3,-2.1008264E-1,-1.16005175E-1,1.2344566E-2,-1.8169345E-2,-1.2780331E-2,-2.8659157E-3,-1.5509174E-2],"categories":[],"categories_nodes":[],"categories_segments":[],"categories_sizes":[],"default_left":[0,0,0,0,0,0,0,0,0,0,0,0,0,0,0,0,0,0,0],"id":3,"left_children":[1,3,-1,5,7,-1,9,-1,11,-1,13,-1,15,17,-1,-1,-1,-1,-1],"loss_changes":[4.700549E0,2.5488954E0,0E0,1.3354659E0,4.323523E-1,0E0,2.537687E0,0E0,1.1358099E0,0E0,1.7295452E0,0E0,2.8934479E-2,4.0877628E-1,0E0,0E0,0E0,0E0,0E0],"parents":[2147483647,0,0,1,1,3,3,4,4,6,6,8,8,10,10,12,12,13,13],"right_children":[2,4,-1,6,8,-1,10,-1,12,-1,14,-1,16,18,-1,-1,-1,-1,-1],"split_conditions":[8.79E0,5.21E0,2.6562462E-2,2E-2,6.1E0,-1.1864773E-2,1.64E0,-2.00121E-2,6.97E0,2.260502E-2,4.17E0,2.3163124E-3,8E0,3.23E0,1.2344566E-2,-1.8169345E-2,-1.2780331E-2,-2.8659157E-3,-1.5509174E-2],"split_indices":[2,2,0,2,2,0,2,0,2,0,2,0,2,2,0,0,0,0,0],"split_type":[0,0,0,0,0,0,0,0,0,0,0,0,0,0,0,0,0,0,0],"sum_hessian":[3.01E2,2.7E2,3.1E1,1.56E2,1.14E2,2.9E1,1.27E2,3E1,8.4E1,3.5E1,9.2E1,3E1,5.4E1,5.8E1,3.4E1,2.7E1,2.7E1,3.2E1,2.6E1],"tree_param":{"num_deleted":"0","num_feature":"14","num_nodes":"19","size_leaf_vector":"1"}},{"base_weights":[-5.895151E-3,-4.2935293E-2,2.7552191E-2,-2.125334E-1,3.0088821E-2,-3.8745E-3,-3.076117E-2,2.0900734E-2,-2.3146886E-2,-3.0218074E-2,4.805402E-2,1.012755E-1,-1.4036247E-2,-2.203105E-2,2.1261859E-1,1.31230885E-2,-1.5351775E-2,2.9494153E-2,3.9681033E-3],"categories":[],"categories_nodes":[],"categories_segments":[],"categories_sizes":[],"default_left":[0,0,0,0,0,0,0,0,0,0,0,0,0,0,0,0,0,0,0],"id":4,"left_children":[1,3,-1,5,7,-1,-1,-1,9,-1,11,13,-1,15,17,-1,-1,-1,-1],"loss_changes":[4.287857E0,3.4988952E0,0E0,2.6810536E0,2.626731E0,0E0,0E0,0E0,4.453808E0,0E0,1.7589424E0,1.569828E0,0E0,2.0149846E0,1.7101696E0,0E0,0E0,0E0,0E0],"parents":[2147483647,0,0,1,1,3,3,4,4,8,8,10,10,11,11,13,13,14,14],"right_children":[2,4,-1,6,8,-1,-1,-1,10,-1,12,14,-1,16,18,-1,-1,-1,-1],"split_conditions":[9.01E0,4.63E0,2.7552191E-2,3.22E0,5.93E0,-3.8745E-3,-3.076117E-2,2.0900734E-2,7.24E0,-3.0218074E-2,1.111E1,9.4E0,-1.4036247E-2,8.35E0,1.025E1,1.31230885E-2,-1.5351775E-2,2.9494153E-2,3.9681033E-3],"split_indices":[2,1,0,1,1,0,0,0,1,0,1,1,0,1,1,0,0,0,0],"split_type":[0,0,0,0,0,0,0,0,0,0,0,0,0,0,0,0,0,0,0],"sum_hessian":[3.08E2,2.81E2,2.7E1,8.4E1,1.97E2,4.7E1,3.7E1,3.4E1,1.63E2,2.5E1,1.38E2,1.13E2,2.5E1,5.4E1,5.9E1,2.6E1,2.8E1,2.7E1,3.2E1],"tree_param":{"num_deleted":"0","num_feature":"14","num_nodes":"19","size_leaf_vector":"1"}},{"base_weights":[4.3199845E-3,-3.0856337E-2,2.2539223E-2,-2.1634756E-4,-2.2044763E-2,-1.9373812E-2,3.219194E-2,2.05142E-2,-2.2052601E-2,-1.3003376E-2,6.4022318E-3,8.789922E-2,-4.0584948E-2,1.8689455E-3,1.2152421E-2,-1.4549708E-2,4.0571876E-3],"categories":[],"categories_nodes":[],"categories_segments":[],"categories_sizes":[],"default_left":[0,0,0,0,0,0,0,0,0,0,0,0,0,0,0,0,0],"id":5,"left_children":[1,3,-1,5,-1,-1,7,-1,9,-1,11,13,15,-1,-1,-1,-1],"loss_changes":[3.2392657E0,2.2407775E0,0E0,2.0994697E0,0E0,0E0,2.9252968E0,0E0,7.890986E-1,0E0,5.9711105E-1,2.6208934E-1,1.4484781E0,0E0,0E0,0E0,0E0],"parents":[2147483647,0,0,1,1,3,3,6,6,8,8,10,10,11,11,12,12],"right_children":[2,4,-1,6,-1,-1,8,-1,10,-1,12,14,16,-1,-1,-1,-1],"split_conditions":[8.79E0,8.02E0,2.2539223E-2,2E-2,-2.2044763E-2,-1.9373812E-2,1.66E0,2.05142E-2,3.05E0,-1.3003376E-2,5.17E0,4.23E0,6.1E0,1.8689455E-3,1.2152421E-2,-1.4549708E-2,4.0571876E-3],"split_indices":[2,2,0,2,0,0,2,0,2,0,2,2,2,0,0,0,0],"split_type":[0,0,0,0,0,0,0,0,0,0,0,0,0,0,0,0,0],"sum_hessian":[3.09E2,2.77E2,3.2E1,2.49E2,2.8E1,2.7E1,2.22E2,4E1,1.82E2,2.8E1,1.54E2,5.6E1,9.8E1,3.1E1,2.5E1,3.7E1,6.1E1],"tree_param":{"num_deleted":"0","num_feature":"14","num_nodes":"17","size_leaf_vector":"1"}},{"base_weights":[-1.1023824E-2,4.2684272E-2,-2.5912972E-2,1.8503122E-1,-3.0328412E-2,6.394875E-3,2.172464E-2,-1.3826182E-1,2.4115796E-1,-6.1786655E-2,-2.8167149E-2,2.6745487E-2,8.732562E-3,-1.6329218E-1,1.1450354E-2,-1.6853377E-2,-6.353816E-3],"categories":[],"categories_nodes":[],"categories_segments":[],"categories_sizes":[],"default_left":[0,0,0,0,0,0,0,0,0,0,0,0,0,0,0,0,0],"id":6,"left_children":[1,3,-1,5,7,-1,-1,9,11,13,-1,-1,-1,15,-1,-1,-1],"loss_changes":[5.5837164E0,2.7909713E0,0E0,9.25215E-1,5.249179E0,0E0,0E0,2.2996843E0,6.9283676E-1,2.1582603E0,0E0,0E0,0E0,3.0430615E-1,0E0,0E0,0E0],"parents":[2147483647,0,0,1,1,3,3,4,4,7,7,8,8,9,9,13,13],"right_children":[2,4,-1,6,8,-1,-1,10,12,14,-1,-1,-1,16,-1,-1,-1],"split_conditions":[3.498727E4,1.398836E4,-2.5912972E-2,7.86772E3,2.886202E4,6.394875E-3,2.172464E-2,2.41583E4,3.160961E4,2.099609E4,-2.8167149E-2,2.6745487E-2,8.732562E-3,1.735619E4,1.1450354E-2,-1.6853377E-2,-6.353816E-3],"split_indices":[3,3,0,3,3,0,0,3,3,3,0,0,0,3,0,0,0],"split_type":[0,0,0,0,0,0,0,0,0,0,0,0,0,0,0,0,0],"sum_hessian":[3.09E2,2.67E2,4.2E1,9E1,1.77E2,4.7E1,4.3E1,1.27E2,5E1,9.7E1,3E1,2.5E1,2.5E1,6.6E1,3.1E1,3.6E1,3E1],"tree_param":{"num_deleted":"0","num_feature":"14","num_nodes":"17","size_leaf_vector":"1"}},{"base_weights":[-9.871093E-3,-1.870337E-1,5.885217E-2,-3.0966422E-3,-2.2664424E-2,1.0646186E-1,-2.3497654E-2,3.0041846E-2,2.599941E-1,1.2533306E-1,-1.5763363E-2,2.9737154E-2,5.8819507E-3,3.1757265E-2,1.1805879E-2,1.3721493E-2,-7.5948085E-3],"categories":[],"categories_nodes":[],"categories_segments":[],"categories_sizes":[],"default_left":[0,0,0,0,0,0,0,0,0,0,0,0,0,0,0,0,0],"id":7,"left_children":[1,3,5,-1,-1,7,-1,9,11,13,-1,-1,-1,-1,15,-1,-1],"loss_changes":[3.8340178E0,1.4644978E0,4.055373E0,0E0,0E0,2.3622427E0,0E0,3.1394982E0,1.6294508E0,3.3115292E0,0E0,0E0,0E0,0E0,1.411844E0,0E0,0E0],"parents":[2147483647,0,0,1,1,2,2,5,5,7,7,8,8,9,9,14,14],"right_children":[2,4,6,-1,-1,8,-1,10,12,14,-1,-1,-1,-1,16,-1,-1],"split_conditions":[4.63E0,2.211341E4,1.12E1,-3.0966422E-3,-2.2664424E-2,9.4E0,-2.3497654E-2,4.91E0,1.042E1,5.93E0,-1.5763363E-2,2.9737154E-2,5.8819507E-3,3.1757265E-2,4.1E-1,1.3721493E-2,-7.5948085E-3],"split_indices":[1,3,1,0,0,1,0,0,1,1,0,0,0,0,0,0,0],"split_type":[0,0,0,0,0,0,0,0,0,0,0,0,0,0,0,0,0],"sum_hessian":[3.13E2,8.7E1,2.26E2,3.9E1,4.8E1,2.01E2,2.5E1,1.35E2,6.6E1,9.7E1,3.8E1,3.7E1,2.9E1,2.6E1,7.1E1,2.8E1,4.3E1],"tree_param":{"num_deleted":"0","num_feature":"14","num_nodes":"17","size_leaf_vector":"1"}},{"base_weights":[-1.0618687E-3,-9.943017E-2,8.501672E-2,5.7842635E-2,-3.100454E-1,1.5000805E-1,-1.9495374E-2,-7.100555E-2,2.420075E-2,-3.885661E-2,-1.0100025E-3,2.3771478E-2,6.929179E-2,3.5558934E-3,-1.4329343E-2,-1.1643172E-2,1.5370205E-1,3.3773266E-2,-1.2965528E-3],"categories":[],"categories_nodes":[],"categories_segments":[],"categories_sizes":[],"default_left":[0,0,0,0,0,0,0,0,0,0,0,0,0,0,0,0,0,0,0],"id":8,"left_children":[1,3,5,7,9,11,-1,13,-1,-1,-1,-1,15,-1,-1,-1,17,-1,-1],"loss_changes":[2.6672184E0,4.8871684E0,3.8053997E0,2.9233992E0,3.8801875E0,1.8915129E0,0E0,8.336036E-1,0E0,0E0,0E0,0E0,1.8623002E0,0E0,0E0,0E0,3.6086812E0,0E0,0E0],"parents":[2147483647,0,0,1,1,2,2,3,3,4,4,5,5,7,7,12,12,16,16],"right_children":[2,4,6,8,10,12,-1,14,-1,-1,-1,-1,16,-1,-1,-1,18,-1,-1],"split_conditions":[6.78E0,5.37E0,1E0,4.61E0,7.9E0,8.63E0,-1.9495374E-2,3.2E0,2.420075E-2,-3.885661E-2,-1.0100025E-3,2.3771478E-2,9.58E0,3.5558934E-3,-1.4329343E-2,-1.1643172E-2,1.042E1,3.3773266E-2,-1.2965528E-3],"split_indices":[1,2,13,1,2,1,0,1,0,0,0,0,1,0,0,0,1,0,0],"split_type":[0,0,0,0,0,0,0,0,0,0,0,0,0,0,0,0,0,0,0],"sum_hessian":[3.13E2,1.46E2,1.67E2,8.4E1,6.2E1,1.41E2,2.6E1,5.7E1,2.7E1,3.6E1,2.6E1,4.5E1,9.6E1,2.9E1,2.8E1,2.6E1,7E1,2.5E1,4.5E1],"tree_param":{"num_deleted":"0","num_feature":"14","num_nodes":"19","size_leaf_vector":"1"}},{"base_weights":[5.571749E-3,-2.7131012E-2,4.5768775E-2,8.507477E-2,-1.9060602E-2,3.0071694E-2,4.7010615E-2,8.590744E-2,-1.1911403E-2,2.6580358E-3,2.6911968E-2,8.07694E-2,-1.1186134E-1,-7.6298877E-3,1.36623895E-2,-1.3835146E-2,-2.8459202E-3],"categories":[],"categories_nodes":[],"categories_segments":[],"categories_sizes":[],"default_left":[0,0,0,0,0,0,0,0,0,0,0,0,0,0,0,0,0],"id":9,"left_children":[1,-1,3,5,-1,-1,7,9,-1,11,-1,13,15,-1,-1,-1,-1],"loss_changes":[4.490386E0,0E0,3.2516055E0,2.9029217E0,0E0,0E0,1.758975E0,4.1795864E0,0E0,1.2792625E0,0E0,1.5914447E0,3.042758E-1,0E0,0E0,0E0,0E0],"parents":[2147483647,0,0,2,2,3,3,6,6,7,7,9,9,11,11,12,12],"right_children":[2,-1,4,6,-1,-1,8,10,-1,12,-1,14,16,-1,-1,-1,-1],"split_conditions":[-3.2E0,-2.7131012E-2,1E0,5.61819E3,-1.9060602E-2,3.0071694E-2,3.498727E4,2.819374E4,-1.1911403E-2,1.887115E4,2.6911968E-2,1.050545E4,2.223572E4,-7.6298877E-3,1.36623895E-2,-1.3835146E-2,-2.8459202E-3],"split_indices":[0,0,13,3,0,0,3,3,0,3,0,3,3,0,0,0,0],"split_type":[0,0,0,0,0,0,0,0,0,0,0,0,0,0,0,0,0],"sum_hessian":[3.02E2,2.9E1,2.73E2,2.42E2,3.1E1,2.5E1,2.17E2,1.83E2,3.4E1,1.41E2,4.2E1,8.4E1,5.7E1,3E1,5.4E1,2.8E1,2.9E1],"tree_param":{"num_deleted":"0","num_feature":"14","num_nodes":"17","size_leaf_vector":"1"}},{"base_weights":[5.0657443E-3,-3.4011707E-2,2.8014565E-2,-5.9267045E-3,-2.3354493E-2,-6.584701E-2,1.9729343E-1,3.5603268E-3,-2.7137635E-2,2.9761994E-2,2.1045343E-3,-1.6278606E-2,4.8953526E-2,1.4388682E-1,-3.998381E-2,-1.9077203E-3,2.9205505E-2,-1.4984136E-2,3.8407336E-3],"categories":[],"categories_nodes":[],"categories_segments":[],"categories_sizes":[],"default_left":[0,0,0,0,0,0,0,0,0,0,0,0,0,0,0,0,0,0,0],"id":10,"left_children":[1,3,-1,5,-1,7,9,11,-1,-1,-1,-1,13,15,17,-1,-1,-1,-1],"loss_changes":[4.5050516E0,2.2027984E0,0E0,3.1546605E0,0E0,4.110038E0,1.9811518E0,1.6429272E0,0E0,0E0,0E0,0E0,1.1540167E0,2.7536693E0,1.0449255E0,0E0,0E0,0E0,0E0],"parents":[2147483647,0,0,1,1,3,3,5,5,6,6,7,7,12,12,13,13,14,14],"right_children":[2,4,-1,6,-1,8,10,12,-1,-1,-1,-1,14,16,18,-1,-1,-1,-1],"split_conditions":[8.79E0,1.109E1,2.8014565E-2,9.4E0,-2.3354493E-2,7.04E0,1.025E1,2.95E0,-2.7137635E-2,2.9761994E-2,2.1045343E-3,-1.6278606E-2,5.93E0,4.63E0,7.24E0,-1.9077203E-3,2.9205505E-2,-1.4984136E-2,3.8407336E-3],"split_indices":[2,1,0,1,0,2,1,1,0,0,0,0,1,1,1,0,0,0,0],"split_type":[0,0,0,0,0,0,0,0,0,0,0,0,0,0,0,0,0,0,0],"sum_hessian":[3.11E2,2.82E2,2.9E1,2.57E2,2.5E1,1.99E2,5.8E1,1.62E2,3.7E1,2.6E1,3.2E1,2.7E1,1.35E2,6.5E1,7E1,3.9E1,2.6E1,2.5E1,4.5E1],"tree_param":{"num_deleted":"0","num_feature":"14","num_nodes":"19","size_leaf_vector":"1"}},{"base_weights":[-2.3858905E-2,-5.6454245E-2,2.01913E-2,1.7466748E-2,-9.108827E-2,-1.5044357E-1,3.8542684E-2,-9.267415E-2,-2.85371E-2,2.4408674E-2,-1.6646765E-2,-2.056433E-1,8.269832E-3,-4.076353E-2,-3.4414843E-2,1.4078768E-2,-2.13494E-2],"categories":[],"categories_nodes":[],"categories_segments":[],"categories_sizes":[],"default_left":[0,0,0,0,0,0,0,0,0,0,0,0,0,0,0,0,0],"id":11,"left_children":[1,3,-1,-1,5,7,9,11,-1,-1,-1,13,-1,15,-1,-1,-1],"loss_changes":[2.9574978E0,2.8070946E0,0E0,0E0,1.9216752E0,2.2373142E0,5.976613E0,3.1864352E0,0E0,0E0,0E0,3.6971393E0,0E0,3.118325E0,0E0,0E0,0E0],"parents":[2147483647,0,0,1,1,4,4,5,5,6,6,7,7,11,11,13,13],"right_children":[2,4,-1,-1,6,8,10,12,-1,-1,-1,14,-1,16,-1,-1,-1],"split_conditions":[8.79E0,5.24684E3,2.01913E-2,1.7466748E-2,2.915524E4,2.41583E4,3.459147E4,5.98E0,-2.85371E-2,2.4408674E-2,-1.6646765E-2,3.45E0,8.269832E-3,1.58469E4,-3.4414843E-2,1.4078768E-2,-2.13494E-2],"split_indices":[2,3,0,0,3,3,3,2,0,0,0,2,0,3,0,0,0],"split_type":[0,0,0,0,0,0,0,0,0,0,0,0,0,0,0,0,0],"sum_hessian":[3.07E2,2.77E2,3E1,2.9E1,2.48E2,1.7E2,7.8E1,1.37E2,3.3E1,3.7E1,4.1E1,8.8E1,4.9E1,5.4E1,3.4E1,2.8E1,2.6E1],"tree_param":{"num_deleted":"0","num_feature":"14","num_nodes":"17","size_leaf_vector":"1"}},{"base_weights":[-1.2716076E-2,-2.5514925E-2,1.9615747E-2,2.2026367E-2,-1.2704606E-2,-2.0809178E-1,3.9590504E-2,2.6983435E-3,-3.2700963E-2,2.2774023E-1,-3.413638E-2,2.8134657E-2,7.5652637E-3,-1.1323172E-1,1.18468385E-2,4.0625883E-3,-2.6335436E-1,-2.8969172E-2,-1.1104612E-2],"categories":[],"categories_nodes":[],"categories_segments":[],"categories_sizes":[],"default_left":[0,0,0,0,0,0,0,0,0,0,0,0,0,0,0,0,0,0,0],"id":12,"left_children":[1,-1,3,-1,5,7,9,-1,-1,11,13,-1,-1,15,-1,-1,17,-1,-1],"loss_changes":[3.2995784E0,0E0,2.5194063E0,0E0,2.6137757E0,3.019633E0,2.8098562E0,0E0,0E0,1.0280147E0,2.2361746E0,0E0,0E0,2.627834E0,0E0,0E0,7.221403E-1,0E0,0E0],"parents":[2147483647,0,0,2,2,4,4,5,5,6,6,9,9,10,10,13,13,16,16],"right_children":[2,-1,4,-1,6,8,10,-1,-1,12,14,-1,-1,16,-1,-1,18,-1,-1],"split_conditions":[-3.24E0,-2.5514925E-2,-2.15E0,2.2026367E-2,8.1E-1,-5.4E-1,3.1E0,2.6983435E-3,-3.2700963E-2,2.008568E4,2.886202E4,2.8134657E-2,7.5652637E-3,1.487834E4,1.18468385E-2,4.0625883E-3,2.091191E4,-2.8969172E-2,-1.1104612E-2],"split_indices":[0,0,0,0,0,0,0,0,0,3,3,0,0,3,0,0,3,0,0],"split_type":[0,0,0,0,0,0,0,0,0,0,0,0,0,0,0,0,0,0,0],"sum_hessian":[3.1E2,2.7E1,2.83E2,2.9E1,2.54E2,5.3E1,2.01E2,2.6E1,2.7E1,5.6E1,1.45E2,2.5E1,3.1E1,1.03E2,4.2E1,4.9E1,5.4E1,2.5E1,2.9E1],"tree_param":{"num_deleted":"0","num_feature":"14","num_nodes":"19","size_leaf_vector":"1"}},{"base_weights":[1.2740161E-2,5.2945465E-2,-1.4623052E-2,1.013488E-2,2.510202E-2,1.490928E-1,-7.85494E-2,6.953933E-2,2.5209196E-2,-4.3104023E-2,-1.7218452E-2,1.6960055E-2,-4.6648076E-3,-1.443171E-1,7.6571666E-3,-1.6818153E-3,-2.5175277E-2],"categories":[],"categories_nodes":[],"categories_segments":[],"categories_sizes":[],"default_left":[0,0,0,0,0,0,0,0,0,0,0,0,0,0,0,0,0],"id":13,"left_children":[1,3,-1,5,-1,7,9,11,-1,13,-1,-1,-1,15,-1,-1,-1],"loss_changes":[2.574145E0,3.108553E0,0E0,2.7844722E0,0E0,1.2859669E0,7.2886145E-1,1.3137097E0,0E0,1.675393E0,0E0,0E0,0E0,1.5552213E0,0E0,0E0,0E0],"parents":[2147483647,0,0,1,1,3,3,5,5,6,6,7,7,9,9,13,13],"right_children":[2,4,-1,6,-1,8,10,12,-1,14,-1,-1,-1,16,-1,-1,-1],"split_conditions":[3.435307E4,2.988442E4,-1.4623052E-2,1.398836E4,2.510202E-2,1.050545E4,2.57823E4,5.24684E3,2.5209196E-2,2.099609E4,-1.7218452E-2,1.6960055E-2,-4.6648076E-3,1.782385E4,7.6571666E-3,-1.6818153E-3,-2.5175277E-2],"split_indices":[3,3,0,3,0,3,3,3,0,3,0,0,0,3,0,0,0],"split_type":[0,0,0,0,0,0,0,0,0,0,0,0,0,0,0,0,0],"sum_hessian":[3.06E2,2.57E2,4.9E1,2.24E2,3.3E1,8.7E1,1.37E2,6.2E1,2.5E1,1.12E2,2.5E1,2.8E1,3.4E1,6.6E1,4.6E1,4.1E1,2.5E1],"tree_param":{"num_deleted":"0","num_feature":"14","num_nodes":"17","size_leaf_vector":"1"}},{"base_weights":[-3.0353535E-3,3.584043E-2,-1.5417077E-1,-1.553934E-2,6.815414E-2,-2.828292E-2,1.815535E-4,2.1270957E-2,3.6043644E-2,-1.17359996E-1,1.04337364E-1,1.04071945E-2,-3.358318E-2,3.3089083E-2,2.9515387E-2,1.3993547E-2,-5.4146565E-2,-1.1619707E-2,8.127366E-3],"categories":[],"categories_nodes":[],"categories_segments":[],"categories_sizes":[],"default_left":[0,0,0,0,0,0,0,0,0,0,0,0,0,0,0,0,0,0,0],"id":14,"left_children":[1,3,5,-1,7,-1,-1,-1,9,11,13,-1,-1,15,-1,-1,17,-1,-1],"loss_changes":[1.8093063E0,1.9381683E0,2.2002237E0,0E0,1.4910886E0,0E0,0E0,0E0,2.0027812E0,5.055123E0,2.706849E0,0E0,0E0,1.4428258E0,0E0,0E0,1.1468961E0,0E0,0E0],"parents":[2147483647,0,0,1,1,2,2,4,4,8,8,9,9,10,10,13,13,16,16],"right_children":[2,4,6,-1,8,-1,-1,-1,10,12,14,-1,-1,16,-1,-1,18,-1,-1],"split_conditions":[6.72E0,-3.2E0,7.87E0,-1.553934E-2,-2.15E0,-2.828292E-2,1.815535E-4,2.1270957E-2,8.1E-1,5.5E0,8.19E0,1.04071945E-2,-3.358318E-2,5.89E0,2.9515387E-2,1.3993547E-2,9.43E0,-1.1619707E-2,8.127366E-3],"split_indices":[0,0,0,0,0,0,0,0,0,2,2,0,0,1,0,0,1,0,0],"split_type":[0,0,0,0,0,0,0,0,0,0,0,0,0,0,0,0,0,0,0],"sum_hessian":[3.06E2,2.44E2,6.2E1,2.8E1,2.16E2,2.5E1,3.7E1,2.7E1,1.89E2,5.8E1,1.31E2,3.3E1,2.5E1,1.06E2,2.5E1,3.8E1,6.8E1,4.2E1,2.6E1],"tree_param":{"num_deleted":"0","num_feature":"14","num_nodes":"19","size_leaf_vector":"1"}},{"base_weights":[-2.0106973E-2,-4.828437E-2,1.8055093E-2,2.0353533E-2,-8.107405E-2,-1.42681E-1,4.608564E-2,-8.200644E-2,-3.0906942E-2,1.7852217E-2,-1.035018E-2,-1.5722728E-1,1.2499193E-2,-6.341283E-2,-2.5732104E-2,-1.630701E-2,6.9236234E-3],"categories":[],"categories_nodes":[],"categories_segments":[],"categories_sizes":[],"default_left":[0,0,0,0,0,0,0,0,0,0,0,0,0,0,0,0,0],"id":15,"left_children":[1,3,-1,-1,5,7,9,11,-1,-1,-1,13,-1,15,-1,-1,-1],"loss_changes":[2.2606733E0,2.9254346E0,0E0,0E0,1.9807235E0,2.7450986E0,2.9656184E0,2.6448452E0,0E0,0E0,0E0,1.8614452E0,0E0,1.7709222E0,0E0,0E0,0E0],"parents":[2147483647,0,0,1,1,4,4,5,5,6,6,7,7,11,11,13,13],"right_children":[2,4,-1,-1,6,8,10,12,-1,-1,-1,14,-1,16,-1,-1,-1],"split_conditions":[8.79E0,5.24684E3,1.8055093E-2,2.0353533E-2,2.886202E4,2.41583E4,3.459147E4,6.81E0,-3.0906942E-2,1.7852217E-2,-1.035018E-2,5.02E0,1.2499193E-2,2.37E0,-2.5732104E-2,-1.630701E-2,6.9236234E-3],"split_indices":[2,3,0,0,3,3,3,2,0,0,0,2,0,2,0,0,0],"split_type":[0,0,0,0,0,0,0,0,0,0,0,0,0,0,0,0,0],"sum_hessian":[3.05E2,2.76E2,2.9E1,2.5E1,2.51E2,1.69E2,8.2E1,1.39E2,3E1,4E1,4.2E1,1.07E2,3.2E1,7.2E1,3.5E1,3.6E1,3.6E1],"tree_param":{"num_deleted":"0","num_feature":"14","num_nodes":"17","size_leaf_vector":"1"}},{"base_weights":[-1.0713368E-2,-2.1962374E-2,2.1012649E-2,1.8474244E-1,-2.928664E-2,2.5152264E-2,-4.0565827E-3,-1.8262446E-2,5.99022E-3,-7.174038E-2,1.6653362E-1,-2.4152404E-2,1.2483463E-3,3.2743007E-2,-1.5253999E-2,2.1081425E-2,-1.10704415E-1,-2.129592E-2,1.9743834E-3],"categories":[],"categories_nodes":[],"categories_segments":[],"categories_sizes":[],"default_left":[0,0,0,0,0,0,0,0,0,0,0,0,0,0,0,0,0,0,0],"id":16,"left_children":[1,-1,3,5,7,-1,-1,-1,9,11,13,-1,15,-1,-1,-1,17,-1,-1],"loss_changes":[2.745003E0,0E0,2.2784064E0,2.356375E0,1.6034893E0,0E0,0E0,0E0,2.295629E0,2.2656918E0,6.0823855E0,0E0,3.0699878E0,0E0,0E0,0E0,1.6692157E0,0E0,0E0],"parents":[2147483647,0,0,2,2,3,3,4,4,8,8,9,9,10,10,12,12,16,16],"right_children":[2,-1,4,6,8,-1,-1,-1,10,12,14,-1,16,-1,-1,-1,18,-1,-1],"split_conditions":[-3.24E0,-2.1962374E-2,-1.6E-1,8.04E0,3.11E0,2.5152264E-2,-4.0565827E-3,-1.8262446E-2,2.880544E4,2.37E0,3.459147E4,-2.4152404E-2,5.17E0,3.2743007E-2,-1.5253999E-2,2.1081425E-2,7.06E0,-2.129592E-2,1.9743834E-3],"split_indices":[0,0,0,1,1,0,0,0,3,2,3,0,2,0,0,0,2,0,0],"split_type":[0,0,0,0,0,0,0,0,0,0,0,0,0,0,0,0,0,0,0],"sum_hessian":[3.05E2,3E1,2.75E2,6.4E1,2.11E2,3.9E1,2.5E1,2.9E1,1.82E2,1.23E2,5.9E1,2.7E1,9.6E1,3.4E1,2.5E1,2.7E1,6.9E1,3E1,3.9E1],"tree_param":{"num_deleted":"0","num_feature":"14","num_nodes":"19","size_leaf_vector":"1"}},{"base_weights":[-1.6936062E-2,-4.296675E-2,1.5510752E-2,1.5745403E-2,-7.266831E-2,4.9606944E-3,-1.6957672E-1,-1.0205495E-1,1.4077485E-1,-2.55277E-1,1.0016754E-3,-3.2480352E-4,-1.8083006E-2,2.1035329E-2,2.6272237E-3,-3.0854236E-2,-4.214073E-3],"categories":[],"categories_nodes":[],"categories_segments":[],"categories_sizes":[],"default_left":[0,0,0,0,0,0,0,0,0,0,0,0,0,0,0,0,0],"id":17,"left_children":[1,3,-1,-1,5,7,9,11,13,15,-1,-1,-1,-1,-1,-1,-1],"loss_changes":[1.8435291E0,2.1410632E0,0E0,0E0,1.9116585E0,2.0782287E0,1.7749512E0,1.0860542E0,9.2082393E-1,2.3700757E0,0E0,0E0,0E0,0E0,0E0,0E0,0E0],"parents":[2147483647,0,0,1,1,4,4,5,5,6,6,7,7,8,8,9,9],"right_children":[2,4,-1,-1,6,8,10,12,14,16,-1,-1,-1,-1,-1,-1,-1],"split_conditions":[8.79E0,5.61819E3,1.5510752E-2,1.5745403E-2,3.1E0,-4E-2,2.886202E4,5.03E0,1.28E0,5.82E0,1.0016754E-3,-3.2480352E-4,-1.8083006E-2,2.1035329E-2,2.6272237E-3,-3.0854236E-2,-4.214073E-3],"split_indices":[2,3,0,0,0,0,3,2,0,2,0,0,0,0,0,0,0],"split_type":[0,0,0,0,0,0,0,0,0,0,0,0,0,0,0,0,0],"sum_hessian":[3.14E2,2.82E2,3.2E1,2.9E1,2.53E2,1.41E2,1.12E2,7.9E1,6.2E1,7.6E1,3.6E1,4.7E1,3.2E1,2.6E1,3.6E1,4.2E1,3.4E1],"tree_param":{"num_deleted":"0","num_feature":"14","num_nodes":"17","size_leaf_vector":"1"}},{"base_weights":[-1.6572008E-2,1.0605207E-1,-6.587957E-2,2.650371E-2,2.1580279E-2,-1.4548244E-1,4.3216668E-2,-1.49892485E-2,1.3551329E-2,-6.6122435E-2,-2.861221E-2,1.765494E-2,-1.2182925E-2,1.6860183E-2,-2.1141525E-2,-9.920136E-3,8.778242E-3],"categories":[],"categories_nodes":[],"categories_segments":[],"categories_sizes":[],"default_left":[0,0,0,0,0,0,0,0,0,0,0,0,0,0,0,0,0],"id":18,"left_children":[1,3,5,7,-1,9,11,-1,-1,13,-1,-1,-1,15,-1,-1,-1],"loss_changes":[1.8752915E0,1.2786678E0,1.9255335E0,2.2348356E0,0E0,2.3722203E0,3.75344E0,0E0,0E0,1.7415094E0,0E0,0E0,0E0,1.0762327E0,0E0,0E0,0E0],"parents":[2147483647,0,0,1,1,2,2,3,3,5,5,6,6,9,9,13,13],"right_children":[2,4,6,8,-1,10,12,-1,-1,14,-1,-1,-1,16,-1,-1,-1],"split_conditions":[1.398836E4,9.59886E3,2.886202E4,6.62E0,2.1580279E-2,2.41583E4,3.435307E4,-1.49892485E-2,1.3551329E-2,9.8E0,-2.861221E-2,1.765494E-2,-1.2182925E-2,5.57E0,-2.1141525E-2,-9.920136E-3,8.778242E-3],"split_indices":[3,3,3,1,0,3,3,0,0,1,0,0,0,1,0,0,0],"split_type":[0,0,0,0,0,0,0,0,0,0,0,0,0,0,0,0,0],"sum_hessian":[3.08E2,8.8E1,2.2E2,6.2E1,2.6E1,1.27E2,9.3E1,2.5E1,3.7E1,9.6E1,3.1E1,4.8E1,4.5E1,7E1,2.6E1,2.8E1,4.2E1],"tree_param":{"num_deleted":"0","num_feature":"14","num_nodes":"17","size_leaf_vector":"1"}},{"base_weights":[-1.3904079E-2,-2.2090547E-2,1.600018E-2,1.9583052E-2,-8.858913E-3,-1.7801732E-2,1.7886939E-2,1.8645722E-1,-4.505871E-2,2.4568489E-2,-2.0227744E-3,-1.9285748E-2,1.8424932E-2,1.10842E-1,-1.3503775E-2,-4.439476E-4,2.674856E-2],"categories":[],"categories_nodes":[],"categories_segments":[],"categories_sizes":[],"default_left":[0,0,0,0,0,0,0,0,0,0,0,0,0,0,0,0,0],"id":19,"left_children":[1,-1,3,-1,5,-1,7,9,11,-1,-1,-1,13,15,-1,-1,-1],"loss_changes":[2.6146955E0,0E0,1.7205791E0,0E0,1.5748652E0,0E0,2.4594882E0,1.9063604E0,2.280137E0,0E0,0E0,0E0,2.4228246E0,2.5851622E0,0E0,0E0,0E0],"parents":[2147483647,0,0,2,2,4,4,6,6,7,7,8,8,12,12,13,13],"right_children":[2,-1,4,-1,6,-1,8,10,12,-1,-1,-1,14,16,-1,-1,-1],"split_conditions":[-3.24E0,-2.2090547E-2,-2.38E0,1.9583052E-2,2.83E0,-1.7801732E-2,5.4E0,4.15E0,6.78E0,2.4568489E-2,-2.0227744E-3,-1.9285748E-2,1.042E1,5.07E0,-1.3503775E-2,-4.439476E-4,2.674856E-2],"split_indices":[0,0,0,0,1,0,1,0,1,0,0,0,1,0,0,0,0],"split_type":[0,0,0,0,0,0,0,0,0,0,0,0,0,0,0,0,0],"sum_hessian":[3.1E2,2.9E1,2.81E2,2.5E1,2.56E2,2.6E1,2.3E2,6.2E1,1.68E2,3.7E1,2.5E1,3.8E1,1.3E2,8.9E1,4.1E1,6.1E1,2.8E1],"tree_param":{"num_deleted":"0","num_feature":"14","num_nodes":"17","size_leaf_vector":"1"}},{"base_weights":[2.4872608E-3,-1.7982861E-2,2.8159609E-2,2.2068473E-2,-1.0536191E-3,2.1714013E-2,-1.350135E-2,-3.809248E-2,8.970166E-2,6.2617823E-3,-7.690317E-2,1.917509E-2,-3.9644457E-2,-9.478702E-3,-1.5987381E-3,-1.3726096E-2,5.969332E-3],"categories":[],"categories_nodes":[],"categories_segments":[],"categories_sizes":[],"default_left":[0,0,0,0,0,0,0,0,0,0,0,0,0,0,0,0,0],"id":20,"left_children":[1,-1,3,-1,5,7,-1,9,11,-1,13,-1,15,-1,-1,-1,-1],"loss_changes":[1.9471892E0,0E0,2.2001402E0,0E0,1.0470053E0,9.3048835E-1,0E0,5.821041E-1,2.3071136E0,0E0,2.530933E-1,0E0,1.0573502E0,0E0,0E0,0E0,0E0],"parents":[2147483647,0,0,2,2,4,4,5,5,7,7,8,8,10,10,12,12],"right_children":[2,-1,4,-1,6,8,-1,10,12,-1,14,-1,16,-1,-1,-1,-1],"split_conditions":[-3.2E0,-1.7982861E-2,-2.02E0,2.2068473E-2,1E0,3.96E0,-1.350135E-2,-1.6E-1,6.72E0,6.2617823E-3,1.99E0,1.917509E-2,7.89E0,-9.478702E-3,-1.5987381E-3,-1.3726096E-2,5.969332E-3],"split_indices":[0,0,0,0,13,0,0,0,0,0,0,0,0,0,0,0,0],"split_type":[0,0,0,0,0,0,0,0,0,0,0,0,0,0,0,0,0],"sum_hessian":[3.11E2,2.9E1,2.82E2,2.7E1,2.55E2,2.27E2,2.8E1,1.21E2,1.06E2,2.9E1,9.2E1,4.6E1,6E1,4.8E1,4.4E1,2.7E1,3.3E1],"tree_param":{"num_deleted":"0","num_feature":"14","num_nodes":"17","size_leaf_vector":"1"}},{"base_weights":[-1.0079088E-3,1.4626794E-1,-5.951926E-2,6.5547355E-2,2.4689898E-2,-2.0561133E-2,-3.1178165E-2,-4.9584685E-3,1.5269057E-2,-1.7526947E-2,1.04885185E-2,7.961072E-2,-1.20821595E-2,1.4911598E-1,-1.2205862E-2,-4.5701556E-2,2.9798724E-2,6.374779E-3,-1.2407427E-2],"categories":[],"categories_nodes":[],"categories_segments":[],"categories_sizes":[],"default_left":[0,0,0,0,0,0,0,0,0,0,0,0,0,0,0,0,0,0,0],"id":21,"left_children":[1,3,5,7,-1,-1,9,-1,-1,-1,11,13,-1,15,-1,17,-1,-1,-1],"loss_changes":[2.6973062E0,1.2926204E0,1.3540053E0,1.1584463E0,0E0,0E0,1.6816342E0,0E0,0E0,0E0,1.9816284E0,2.028821E0,0E0,4.5150595E0,0E0,8.434396E-1,0E0,0E0,0E0],"parents":[2147483647,0,0,1,1,2,2,3,3,6,6,10,10,11,11,13,13,15,15],"right_children":[2,4,6,8,-1,-1,10,-1,-1,-1,12,14,-1,16,-1,18,-1,-1,-1],"split_conditions":[1.398836E4,9.77072E3,3E-2,7.59E0,2.4689898E-2,-2.0561133E-2,3.32E0,-4.9584685E-3,1.5269057E-2,-1.7526947E-2,7.04E0,3.40436E4,-1.20821595E-2,2.344097E4,-1.2205862E-2,1.778462E4,2.9798724E-2,6.374779E-3,-1.2407427E-2],"split_indices":[3,3,2,1,0,0,1,0,0,0,2,3,0,3,0,3,0,0,0],"split_type":[0,0,0,0,0,0,0,0,0,0,0,0,0,0,0,0,0,0,0],"sum_hessian":[3.11E2,8.8E1,2.23E2,6.2E1,2.6E1,2.5E1,1.98E2,3.2E1,3E1,3.3E1,1.65E2,1.18E2,4.7E1,9.2E1,2.6E1,5.2E1,4E1,2.5E1,2.7E1],"tree_param":{"num_deleted":"0","num_feature":"14","num_nodes":"19","size_leaf_vector":"1"}},{"base_weights":[1.3214923E-2,3.6051847E-2,-1.7315127E-2,-5.0625224E-2,1.4031845E-1,5.15296E-2,-2.0147027E-1,2.4680443E-2,8.5811764E-2,1.19640585E-2,-3.6639648E-3,-3.4555722E-2,1.9889788E-3,-4.034583E-3,1.8675946E-1,2.160526E-2,7.962308E-3],"categories":[],"categories_nodes":[],"categories_segments":[],"categories_sizes":[],"default_left":[0,0,0,0,0,0,0,0,0,0,0,0,0,0,0,0,0],"id":22,"left_children":[1,3,-1,5,7,9,11,-1,13,-1,-1,-1,-1,-1,15,-1,-1],"loss_changes":[1.758594E0,2.6099105E0,0E0,2.4450905E0,1.3195369E0,1.0376328E0,3.7953591E0,0E0,1.4616177E0,0E0,0E0,0E0,0E0,0E0,4.593277E-1,0E0,0E0],"parents":[2147483647,0,0,1,1,3,3,4,4,5,5,6,6,8,8,14,14],"right_children":[2,4,-1,6,8,10,12,-1,14,-1,-1,-1,-1,-1,16,-1,-1],"split_conditions":[1.111E1,7.02E0,-1.7315127E-2,5.52E0,1.66E0,4.16E0,7.9E0,2.4680443E-2,5.56E0,1.19640585E-2,-3.6639648E-3,-3.4555722E-2,1.9889788E-3,-4.034583E-3,7.38E0,2.160526E-2,7.962308E-3],"split_indices":[1,1,0,2,2,1,2,0,2,0,0,0,0,0,2,0,0],"split_type":[0,0,0,0,0,0,0,0,0,0,0,0,0,0,0,0,0],"sum_hessian":[3.13E2,2.87E2,2.6E1,1.57E2,1.3E2,9.4E1,6.3E1,2.8E1,1.02E2,4.5E1,4.9E1,2.9E1,3.4E1,4.3E1,5.9E1,2.5E1,3.4E1],"tree_param":{"num_deleted":"0","num_feature":"14","num_nodes":"17","size_leaf_vector":"1"}},{"base_weights":[-1.2004566E-3,-2.9024942E-2,1.774566E-2,-1.5626597E-1,2.3925215E-2,-3.0005726E-1,9.137259E-3,7.6320894E-2,-1.6266469E-2,-1.0565049E-3,-4.470732E-2,1.3940147E-1,-1.5914133E-2,8.734715E-2,2.5279718E-2,-8.701634E-3,1.5907988E-1,3.3733692E-2,1.0109207E-3],"categories":[],"categories_nodes":[],"categories_segments":[],"categories_sizes":[],"default_left":[0,0,0,0,0,0,0,0,0,0,0,0,0,0,0,0,0,0,0],"id":23,"left_children":[1,3,-1,5,7,9,-1,11,-1,-1,-1,13,-1,15,-1,-1,17,-1,-1],"loss_changes":[2.0845804E0,1.9036947E0,0E0,3.355543E0,2.540049E0,4.6478367E0,0E0,3.0324695E0,0E0,0E0,0E0,1.3698804E0,0E0,1.6085716E0,0E0,0E0,3.4223907E0,0E0,0E0],"parents":[2147483647,0,0,1,1,3,3,4,4,5,5,7,7,11,11,13,13,16,16],"right_children":[2,4,-1,6,8,10,-1,12,-1,-1,-1,14,-1,16,-1,-1,18,-1,-1],"split_conditions":[1E0,4.63E0,1.774566E-2,2.819374E4,1E0,3.2E0,9.137259E-3,3.40436E4,-1.6266469E-2,-1.0565049E-3,-4.470732E-2,2.444301E4,-1.5914133E-2,6.62E0,2.5279718E-2,-8.701634E-3,8.63E0,3.3733692E-2,1.0109207E-3],"split_indices":[12,1,0,3,13,1,0,3,0,0,0,3,0,1,0,0,1,0,0],"split_type":[0,0,0,0,0,0,0,0,0,0,0,0,0,0,0,0,0,0,0],"sum_hessian":[3.13E2,2.81E2,3.2E1,8.2E1,1.99E2,5.4E1,2.8E1,1.64E2,3.5E1,2.8E1,2.6E1,1.35E2,2.9E1,1.08E2,2.7E1,2.8E1,8E1,2.6E1,5.4E1],"tree_param":{"num_deleted":"0","num_feature":"14","num_nodes":"19","size_leaf_vector":"1"}},{"base_weights":[2.09351E-2,-2.9673404E-3,1.6135637E-2,-9.3797214E-2,8.654862E-2,-2.114417E-2,-2.3014557E-2,-2.951198E-2,2.1377654E-1,-1.5160806E-2,4.4297714E-2,-1.4373834E-2,1.4333431E-2,2.2166193E-2,7.1373344E-3,-4.8738834E-3,1.8956494E-2],"categories":[],"categories_nodes":[],"categories_segments":[],"categories_sizes":[],"default_left":[0,0,0,0,0,0,0,0,0,0,0,0,0,0,0,0,0],"id":24,"left_children":[1,3,-1,5,7,9,-1,11,13,-1,15,-1,-1,-1,-1,-1,-1],"loss_changes":[1.3978847E0,2.1952827E0,0E0,2.0677934E0,2.0145054E0,1.2052969E0,0E0,2.6122E0,6.02324E-1,0E0,1.7249708E0,0E0,0E0,0E0,0E0,0E0,0E0],"parents":[2147483647,0,0,1,1,3,3,4,4,5,5,7,7,8,8,10,10],"right_children":[2,4,-1,6,8,10,-1,12,14,-1,16,-1,-1,-1,-1,-1,-1],"split_conditions":[1E0,6.78E0,1.6135637E-2,5.23E0,1.988943E4,2.83E0,-2.3014557E-2,5.98E0,3.160961E4,-1.5160806E-2,2.886202E4,-1.4373834E-2,1.4333431E-2,2.2166193E-2,7.1373344E-3,-4.8738834E-3,1.8956494E-2],"split_indices":[11,1,0,1,3,1,0,2,3,0,3,0,0,0,0,0,0],"split_type":[0,0,0,0,0,0,0,0,0,0,0,0,0,0,0,0,0],"sum_hessian":[3E2,2.68E2,3.2E1,1.33E2,1.35E2,1E2,3.3E1,7.1E1,6.4E1,2.6E1,7.4E1,4.1E1,3E1,3.7E1,2.7E1,4.9E1,2.5E1],"tree_param":{"num_deleted":"0","num_feature":"14","num_nodes":"17","size_leaf_vector":"1"}},{"base_weights":[-3.1477562E-3,-4.145838E-2,8.7249555E-2,8.48839E-2,-1.0743189E-1,2.190583E-2,-6.229762E-2,-1.0732082E-2,2.080719E-2,5.2746013E-2,-2.4158971E-1,-1.9840013E-2,1.1230184E-2,-1.1962045E-2,1.3953803E-2,-3.9851516E-2,-9.4883114E-2,3.4585705E-3,-1.7427474E-2],"categories":[],"categories_nodes":[],"categories_segments":[],"categories_sizes":[],"default_left":[0,0,0,0,0,0,0,0,0,0,0,0,0,0,0,0,0,0,0],"id":25,"left_children":[1,3,5,7,9,-1,11,-1,-1,13,15,-1,-1,-1,-1,-1,17,-1,-1],"loss_changes":[1.0702758E0,1.817867E0,2.8362913E0,3.33191E0,3.0856867E0,0E0,2.3551707E0,0E0,0E0,1.8969841E0,3.2653842E0,0E0,0E0,0E0,0E0,0E0,1.0381082E0,0E0,0E0],"parents":[2147483647,0,0,1,1,2,2,3,3,4,4,6,6,9,9,10,10,16,16],"right_children":[2,4,6,8,10,-1,12,-1,-1,14,16,-1,-1,-1,-1,-1,18,-1,-1],"split_conditions":[9.4E0,3.29E0,1.042E1,4.61E0,5.4E0,2.190583E-2,2.435497E4,-1.0732082E-2,2.080719E-2,8.1E-1,6.81E0,-1.9840013E-2,1.1230184E-2,-1.1962045E-2,1.3953803E-2,-3.9851516E-2,8.35E0,3.4585705E-3,-1.7427474E-2],"split_indices":[1,2,1,1,1,0,3,0,0,0,1,0,0,0,0,0,1,0,0],"split_type":[0,0,0,0,0,0,0,0,0,0,0,0,0,0,0,0,0,0,0],"sum_hessian":[3.07E2,2.16E2,9.1E1,7.4E1,1.42E2,3.8E1,5.3E1,3.4E1,4E1,6.5E1,7.7E1,2.7E1,2.6E1,2.5E1,4E1,2.5E1,5.2E1,2.6E1,2.6E1],"tree_param":{"num_deleted":"0","num_feature":"14","num_nodes":"19","size_leaf_vector":"1"}},{"base_weights":[2.6726155E-2,4.8736237E-2,-1.5677845E-2,6.9816923E-3,1.863597E-1,4.2121872E-2,-1.8627644E-2,2.2308847E-2,4.716602E-3,-1.3441279E-2,7.7027924E-2,1.2082175E-1,-1.19544035E-2,4.9086753E-2,3.333753E-2,1.2688523E-2,-5.6932312E-3],"categories":[],"categories_nodes":[],"categories_segments":[],"categories_sizes":[],"default_left":[0,0,0,0,0,0,0,0,0,0,0,0,0,0,0,0,0],"id":26,"left_children":[1,3,-1,5,7,9,-1,-1,-1,-1,11,13,-1,15,-1,-1,-1],"loss_changes":[1.6395923E0,1.6536636E0,0E0,2.00248E0,9.003103E-1,1.528114E0,0E0,0E0,0E0,0E0,1.779393E0,3.3217292E0,0E0,1.799184E0,0E0,0E0,0E0],"parents":[2147483647,0,0,1,1,3,3,4,4,5,5,10,10,11,11,13,13],"right_children":[2,4,-1,6,8,10,-1,-1,-1,-1,12,14,-1,16,-1,-1,-1],"split_conditions":[1.111E1,9.4E0,-1.5677845E-2,8.63E0,1.887115E4,2.83E0,-1.8627644E-2,2.2308847E-2,4.716602E-3,-1.3441279E-2,3.459147E4,2.833384E4,-1.19544035E-2,1.60666E4,3.333753E-2,1.2688523E-2,-5.6932312E-3],"split_indices":[1,1,0,1,3,1,0,0,0,0,3,3,0,3,0,0,0],"split_type":[0,0,0,0,0,0,0,0,0,0,0,0,0,0,0,0,0],"sum_hessian":[3.13E2,2.87E2,2.6E1,2.21E2,6.6E1,1.95E2,2.6E1,3.4E1,3.2E1,2.6E1,1.69E2,1.43E2,2.6E1,1.18E2,2.5E1,6E1,5.8E1],"tree_param":{"num_deleted":"0","num_feature":"14","num_nodes":"17","size_leaf_vector":"1"}},{"base_weights":[2.7471841E-3,-3.6921326E-2,1.10858396E-1,-6.3190684E-3,-1.8581511E-2,2.6020562E-2,-2.6723323E-2,8.183291E-3,-4.3245424E-2,4.167818E-3,-8.811392E-3,-1.7643392E-2,3.3947635E-2,1.816E-2,-3.0132074E-2,-1.4557764E-2,7.992784E-3],"categories":[],"categories_nodes":[],"categories_segments":[],"categories_sizes":[],"default_left":[0,0,0,0,0,0,0,0,0,0,0,0,0,0,0,0,0],"id":27,"left_children":[1,3,5,7,-1,-1,9,-1,11,-1,-1,-1,13,-1,15,-1,-1],"loss_changes":[1.3421397E0,1.4759288E0,2.7376437E0,8.614599E-1,0E0,0E0,4.0986452E-1,0E0,2.2756069E0,0E0,0E0,0E0,1.4747485E0,0E0,1.9259869E0,0E0,0E0],"parents":[2147483647,0,0,1,1,2,2,3,3,6,6,8,8,12,12,14,14],"right_children":[2,4,6,8,-1,-1,10,-1,12,-1,-1,-1,14,-1,16,-1,-1],"split_conditions":[9.4E0,8.59E0,1.028E1,3.22E0,-1.8581511E-2,2.6020562E-2,1.109E1,8.183291E-3,4.63E0,4.167818E-3,-8.811392E-3,-1.7643392E-2,5.41E0,1.816E-2,6.78E0,-1.4557764E-2,7.992784E-3],"split_indices":[1,1,1,1,0,0,1,0,1,0,0,0,1,0,1,0,0],"split_type":[0,0,0,0,0,0,0,0,0,0,0,0,0,0,0,0,0],"sum_hessian":[3.11E2,2.28E2,8.3E1,2E2,2.8E1,3E1,5.3E1,4.8E1,1.52E2,2.8E1,2.5E1,4.3E1,1.09E2,2.5E1,8.4E1,3.8E1,4.6E1],"tree_param":{"num_deleted":"0","num_feature":"14","num_nodes":"17","size_leaf_vector":"1"}},{"base_weights":[-3.2615203E-2,-8.65425E-3,-1.3341478E-2,-5.532099E-2,1.8001246E-1,-3.373382E-4,-2.2984006E-2,1.5971158E-2,1.0511447E-2,-3.8920105E-2,1.2545033E-2,1.00577455E-2,-8.777153E-2,-1.6826093E-2,-5.3454055E-3,9.793386E-3,-1.39799295E-2],"categories":[],"categories_nodes":[],"categories_segments":[],"categories_sizes":[],"default_left":[0,0,0,0,0,0,0,0,0,0,0,0,0,0,0,0,0],"id":28,"left_children":[1,3,-1,5,7,9,-1,-1,-1,11,-1,-1,13,-1,15,-1,-1],"loss_changes":[1.0322686E0,2.2639003E0,0E0,2.844381E0,3.7109137E-2,1.1058394E0,0E0,0E0,0E0,1.1866593E0,0E0,0E0,1.2258639E0,0E0,1.7223961E0,0E0,0E0],"parents":[2147483647,0,0,1,1,3,3,4,4,5,5,9,9,12,12,14,14],"right_children":[2,4,-1,6,8,10,-1,-1,-1,12,-1,-1,14,-1,16,-1,-1],"split_conditions":[3.498727E4,2.886202E4,-1.3341478E-2,2.284358E4,3.166795E4,1.988943E4,-2.2984006E-2,1.5971158E-2,1.0511447E-2,5.24684E3,1.2545033E-2,1.00577455E-2,1.148502E4,-1.6826093E-2,1.705456E4,9.793386E-3,-1.39799295E-2],"split_indices":[3,3,0,3,3,3,0,0,0,3,0,0,3,0,3,0,0],"split_type":[0,0,0,0,0,0,0,0,0,0,0,0,0,0,0,0,0],"sum_hessian":[2.96E2,2.55E2,4.1E1,2.05E2,5E1,1.69E2,3.6E1,2.5E1,2.5E1,1.38E2,3.1E1,3E1,1.08E2,4E1,6.8E1,3.9E1,2.9E1],"tree_param":{"num_deleted":"0","num_feature":"14","num_nodes":"17","size_leaf_vector":"1"}},{"base_weights":[8.1397616E-4,-1.6276075E-2,2.5269033E-2,5.3754427E-2,-1.9541757E-2,1.22706115E-1,-6.729542E-2,-7.231686E-3,1.6596435E-1,-1.3857992E-2,-2.269944E-2,-6.210238E-4,2.467543E-1,6.3038827E-3,-1.1978302E-2,3.06209E-2,6.9912593E-3],"categories":[],"categories_nodes":[],"categories_segments":[],"categories_sizes":[],"default_left":[0,0,0,0,0,0,0,0,0,0,0,0,0,0,0,0,0],"id":29,"left_children":[1,-1,3,5,-1,7,9,-1,11,-1,13,-1,15,-1,-1,-1,-1],"loss_changes":[1.688817E0,0E0,2.334436E0,2.1783712E0,0E0,1.589536E0,4.935142E-1,0E0,1.9587762E0,0E0,1.0372521E0,0E0,2.317947E0,0E0,0E0,0E0,0E0],"parents":[2147483647,0,0,2,2,3,3,5,5,6,6,8,8,10,10,12,12],"right_children":[2,-1,4,6,-1,8,10,-1,12,-1,14,-1,16,-1,-1,-1,-1],"split_conditions":[-3.2E0,-1.6276075E-2,1E0,4.78E0,-1.9541757E-2,6.2E-1,6.06E0,-7.231686E-3,1.444648E4,-1.3857992E-2,2.174367E4,-6.210238E-4,2.549174E4,6.3038827E-3,-1.1978302E-2,3.06209E-2,6.9912593E-3],"split_indices":[0,0,6,0,0,2,0,0,3,0,3,0,3,0,0,0,0],"split_type":[0,0,0,0,0,0,0,0,0,0,0,0,0,0,0,0,0],"sum_hessian":[3.15E2,3.1E1,2.84E2,2.59E2,2.5E1,1.65E2,9.4E1,2.7E1,1.38E2,2.5E1,6.9E1,4.4E1,9.4E1,3.9E1,3E1,4.5E1,4.9E1],"tree_param":{"num_deleted":"0","num_feature":"14","num_nodes":"17","size_leaf_vector":"1"}},{"base_weights":[1.8208441E-3,-1.4324308E-2,2.4836333E-2,1.814707E-1,-2.6211476E-2,4.2740945E-3,2.5374638E-2,-1.0806377E-2,9.2952454E-4,1.6648088E-2,-4.748127E-2,-1.2866032E-1,5.2794367E-2,-1.8539442E-2,3.1534699E-3,1.4585723E-2,-1.1314537E-2],"categories":[],"categories_nodes":[],"categories_segments":[],"categories_sizes":[],"default_left":[0,0,0,0,0,0,0,0,0,0,0,0,0,0,0,0,0],"id":30,"left_children":[1,-1,3,5,7,-1,-1,-1,9,-1,11,13,15,-1,-1,-1,-1],"loss_changes":[1.331602E0,0E0,2.1476424E0,1.2694414E0,6.495726E-1,0E0,0E0,0E0,1.7868994E0,0E0,1.1220112E0,1.5481952E0,1.8183002E0,0E0,0E0,0E0,0E0],"parents":[2147483647,0,0,2,2,3,3,4,4,8,8,10,10,11,11,12,12],"right_children":[2,-1,4,6,8,-1,-1,-1,10,-1,12,14,16,-1,-1,-1,-1],"split_conditions":[-3.2E0,-1.4324308E-2,-1.6E-1,-1.69E0,1.63E0,4.2740945E-3,2.5374638E-2,-1.0806377E-2,3E0,1.6648088E-2,5.82E0,7.14E0,6.79E0,-1.8539442E-2,3.1534699E-3,1.4585723E-2,-1.1314537E-2],"split_indices":[0,0,0,0,0,0,0,0,0,0,2,0,0,0,0,0,0],"split_type":[0,0,0,0,0,0,0,0,0,0,0,0,0,0,0,0,0],"sum_hessian":[2.98E2,3.1E1,2.67E2,6.5E1,2.02E2,3.7E1,2.8E1,3.7E1,1.65E2,2.9E1,1.36E2,7.5E1,6.1E1,4.4E1,3.1E1,3.6E1,2.5E1],"tree_param":{"num_deleted":"0","num_feature":"14","num_nodes":"17","size_leaf_vector":"1"}},{"base_weights":[-7.946922E-3,9.7986655E-3,-1.3788859E-2,-2.654215E-2,1.4810076E-1,5.475011E-2,-9.926989E-2,1.980537E-2,1.7268019E-3,-1.7509324E-2,2.0623581E-2,-1.6936442E-2,-2.2682853E-2,1.1265225E-1,-2.07888E-2,6.4805513E-3,-9.622902E-3,2.4028143E-2,-6.8756533E-3],"categories":[],"categories_nodes":[],"categories_segments":[],"categories_sizes":[],"default_left":[0,0,0,0,0,0,0,0,0,0,0,0,0,0,0,0,0,0,0],"id":31,"left_children":[1,3,-1,5,7,9,11,-1,-1,13,-1,-1,15,17,-1,-1,-1,-1,-1],"loss_changes":[9.538679E-1,1.401162E0,0E0,1.3120317E0,8.352244E-1,1.67576E0,1.1288459E0,0E0,0E0,2.735198E0,0E0,0E0,8.637426E-1,2.321322E0,0E0,0E0,0E0,0E0,0E0],"parents":[2147483647,0,0,1,1,3,3,4,4,5,5,6,6,9,9,12,12,13,13],"right_children":[2,4,-1,6,8,10,12,-1,-1,14,-1,-1,16,18,-1,-1,-1,-1,-1],"split_conditions":[1.104E1,9.43E0,-1.3788859E-2,5.23E0,1.887115E4,3.178786E4,6.78E0,1.980537E-2,1.7268019E-3,2.280024E4,2.0623581E-2,-1.6936442E-2,8.16E0,3.22E0,-2.07888E-2,6.4805513E-3,-9.622902E-3,2.4028143E-2,-6.8756533E-3],"split_indices":[1,1,0,1,3,3,1,0,0,3,0,0,1,1,0,0,0,0,0],"split_type":[0,0,0,0,0,0,0,0,0,0,0,0,0,0,0,0,0,0,0],"sum_hessian":[3.04E2,2.77E2,2.7E1,2.2E2,5.7E1,1.04E2,1.16E2,2.9E1,2.8E1,7.9E1,2.5E1,4.3E1,7.3E1,5.3E1,2.6E1,3.6E1,3.7E1,2.6E1,2.7E1],"tree_param":{"num_deleted":"0","num_feature":"14","num_nodes":"19","size_leaf_vector":"1"}},{"base_weights":[-2.4083909E-2,-4.614376E-2,1.3409227E-2,-2.3831565E-2,-1.9997459E-2,3.9323725E-2,-9.846236E-2,-4.4818033E-2,8.898877E-2,-2.2130454E-2,-4.03232E-2,-1.2301017E-2,6.3952603E-3,1.8507105E-1,-7.256107E-3,6.9166566E-3,-1.2565395E-1,2.1128418E-2,3.8681983E-3,6.562478E-3,-2.6215892E-2],"categories":[],"categories_nodes":[],"categories_segments":[],"categories_sizes":[],"default_left":[0,0,0,0,0,0,0,0,0,0,0,0,0,0,0,0,0,0,0,0,0],"id":32,"left_children":[1,3,-1,5,-1,7,9,11,13,-1,15,-1,-1,17,-1,-1,19,-1,-1,-1,-1],"loss_changes":[1.4135137E0,1.3908103E0,0E0,1.2246242E0,0E0,5.932138E-1,1.3483621E0,8.357995E-1,1.6062009E0,0E0,1.0634356E0,0E0,0E0,7.4663687E-1,0E0,0E0,2.7508097E0,0E0,0E0,0E0,0E0],"parents":[2147483647,0,0,1,1,3,3,5,5,6,6,7,7,8,8,10,10,13,13,16,16],"right_children":[2,4,-1,6,-1,8,10,12,14,-1,16,-1,-1,18,-1,-1,20,-1,-1,-1,-1],"split_conditions":[8.79E0,8.06E0,1.3409227E-2,2.98E0,-1.9997459E-2,-1.69E0,4.25E0,3.82E0,4.99E0,-2.2130454E-2,6.55E0,-1.2301017E-2,6.3952603E-3,2.559732E4,-7.256107E-3,6.9166566E-3,2.173152E4,2.1128418E-2,3.8681983E-3,6.562478E-3,-2.6215892E-2],"split_indices":[2,2,0,0,0,0,0,2,2,0,0,0,0,3,0,0,3,0,0,0,0],"split_type":[0,0,0,0,0,0,0,0,0,0,0,0,0,0,0,0,0,0,0,0,0],"sum_hessian":[3.13E2,2.83E2,3E1,2.58E2,2.5E1,1.4E2,1.18E2,5.2E1,8.8E1,2.6E1,9.2E1,2.7E1,2.5E1,5.8E1,3E1,3.6E1,5.6E1,3.3E1,2.5E1,2.9E1,2.7E1],"tree_param":{"num_deleted":"0","num_feature":"14","num_nodes":"21","size_leaf_vector":"1"}},{"base_weights":[-1.3532179E-2,2.079846E-2,-1.5063994E-1,-4.4195172E-3,1.8012816E-2,-1.1363082E-3,-2.2437975E-2,2.758071E-2,-1.1264299E-1,-9.304547E-3,1.6715847E-2,-1.5967356E-2,-8.946828E-4,1.3278934E-1,-9.385724E-2,2.4446088E-4,1.9665211E-2,-1.4065023E-4,-1.8363088E-2,-8.924938E-3,6.806647E-3],"categories":[],"categories_nodes":[],"categories_segments":[],"categories_sizes":[],"default_left":[0,0,0,0,0,0,0,0,0,0,0,0,0,0,0,0,0,0,0,0,0],"id":33,"left_children":[1,3,5,7,-1,-1,-1,9,11,13,-1,-1,-1,15,17,-1,-1,19,-1,-1,-1],"loss_changes":[1.4811301E0,1.3951577E0,1.2633184E0,7.8924763E-1,0E0,0E0,0E0,1.2699054E0,5.2250844E-1,1.802612E0,0E0,0E0,0E0,9.378682E-1,1.3300374E0,0E0,0E0,6.482214E-1,0E0,0E0,0E0],"parents":[2147483647,0,0,1,1,2,2,3,3,7,7,8,8,9,9,13,13,14,14,17,17],"right_children":[2,4,6,8,-1,-1,-1,10,12,14,-1,-1,-1,16,18,-1,-1,20,-1,-1,-1],"split_conditions":[6.72E0,5.05E0,5.52E0,3.1E0,1.8012816E-2,-1.1363082E-3,-2.2437975E-2,2.09E0,4.78E0,3.29E0,1.6715847E-2,-1.5967356E-2,-8.946828E-4,1.01E0,-2.9E-1,2.4446088E-4,1.9665211E-2,-3.15E0,-1.8363088E-2,-8.924938E-3,6.806647E-3],"split_indices":[0,0,2,0,0,0,0,0,2,2,0,0,0,2,0,0,0,0,0,0,0],"split_type":[0,0,0,0,0,0,0,0,0,0,0,0,0,0,0,0,0,0,0,0,0],"sum_hessian":[3.13E2,2.51E2,6.2E1,2.26E2,2.5E1,3.3E1,2.9E1,1.75E2,5.1E1,1.48E2,2.7E1,2.5E1,2.6E1,5.5E1,9.3E1,2.8E1,2.7E1,5.8E1,3.5E1,2.5E1,3.3E1],"tree_param":{"num_deleted":"0","num_feature":"14","num_nodes":"21","size_leaf_vector":"1"}},{"base_weights":[2.9919354E-2,-1.5888091E-2,5.32083E-2,8.065467E-2,-8.460011E-3,1.6349413E-1,-4.950934E-3,2.8513375E-1,-3.8235849E-3,-1.01868555E-1,1.9629544E-2,3.015244E-3,3.2803334E-2,-1.90084E-2,1.7959906E-3],"categories":[],"categories_nodes":[],"categories_segments":[],"categories_sizes":[],"default_left":[0,0,0,0,0,0,0,0,0,0,0,0,0,0,0],"id":34,"left_children":[1,-1,3,5,-1,7,9,11,-1,13,-1,-1,-1,-1,-1],"loss_changes":[1.7285278E0,0E0,1.2803137E0,1.7027743E0,0E0,3.1973572E0,3.1023135E0,2.890973E0,0E0,1.6842859E0,0E0,0E0,0E0,0E0,0E0],"parents":[2147483647,0,0,2,2,3,3,5,5,6,6,7,7,9,9],"right_children":[2,-1,4,6,-1,8,10,12,-1,14,-1,-1,-1,-1,-1],"split_conditions":[-3.24E0,-1.5888091E-2,1.057E1,3.1E0,-8.460011E-3,2.57823E4,2.81361E4,9.59886E3,-3.8235849E-3,5.07E0,1.9629544E-2,3.015244E-3,3.2803334E-2,-1.90084E-2,1.7959906E-3],"split_indices":[0,0,1,0,0,3,3,3,0,0,0,0,0,0,0],"split_type":[0,0,0,0,0,0,0,0,0,0,0,0,0,0,0],"sum_hessian":[3.04E2,2.6E1,2.78E2,2.39E2,3.9E1,1.21E2,1.18E2,7.7E1,4.4E1,8.7E1,3.1E1,3E1,4.7E1,3.9E1,4.8E1],"tree_param":{"num_deleted":"0","num_feature":"14","num_nodes":"15","size_leaf_vector":"1"}},{"base_weights":[-1.18201515E-2,-2.9230362E-2,1.28326835E-2,-5.2303493E-2,1.05963545E-2,-2.635835E-2,-1.8683584E-2,-8.102305E-2,3.5325393E-2,4.6300437E-2,-2.1353528E-1,1.8586349E-2,-3.417626E-2,-5.8053993E-3,1.537087E-2,-1.0316356E-2,-2.2176117E-2,-9.879748E-3,7.126025E-3],"categories":[],"categories_nodes":[],"categories_segments":[],"categories_sizes":[],"default_left":[0,0,0,0,0,0,0,0,0,0,0,0,0,0,0,0,0,0,0],"id":35,"left_children":[1,3,-1,5,-1,7,-1,9,11,13,15,-1,17,-1,-1,-1,-1,-1,-1],"loss_changes":[9.890801E-1,1.1208012E0,0E0,1.2700058E0,0E0,7.514291E-1,0E0,2.0007732E0,1.559171E0,1.2130033E0,3.2135248E-1,0E0,1.0207527E0,0E0,0E0,0E0,0E0,0E0,0E0],"parents":[2147483647,0,0,1,1,3,3,5,5,7,7,8,8,9,9,10,10,12,12],"right_children":[2,4,-1,6,-1,8,-1,10,12,14,16,-1,18,-1,-1,-1,-1,-1,-1],"split_conditions":[9.01E0,1E0,1.28326835E-2,8.06E0,1.05963545E-2,4.23E0,-1.8683584E-2,1.66E0,5.32E0,5.3E-1,3.23E0,1.8586349E-2,6.81E0,-5.8053993E-3,1.537087E-2,-1.0316356E-2,-2.2176117E-2,-9.879748E-3,7.126025E-3],"split_indices":[2,11,0,2,0,2,0,2,2,2,2,0,2,0,0,0,0,0,0],"split_type":[0,0,0,0,0,0,0,0,0,0,0,0,0,0,0,0,0,0,0],"sum_hessian":[3.08E2,2.82E2,2.6E1,2.49E2,3.3E1,2.21E2,2.8E1,1.17E2,1.04E2,6E1,5.7E1,2.5E1,7.9E1,3.4E1,2.6E1,3.1E1,2.6E1,4.5E1,3.4E1],"tree_param":{"num_deleted":"0","num_feature":"14","num_nodes":"19","size_leaf_vector":"1"}},{"base_weights":[1.979094E-2,-2.053858E-2,1.2268129E-1,1.070478E-2,-1.8753977E-2,1.8302321E-1,-2.1187759E-3,-3.1765416E-2,1.115483E-2,1.8547181E-2,8.152508E-3,3.4160405E-2,-1.4689353E-2,-7.1574044E-3,1.25943E-2,7.399943E-3,-1.0548046E-2],"categories":[],"categories_nodes":[],"categories_segments":[],"categories_sizes":[],"default_left":[0,0,0,0,0,0,0,0,0,0,0,0,0,0,0,0,0],"id":36,"left_children":[1,3,5,7,-1,9,-1,11,-1,-1,-1,13,-1,15,-1,-1,-1],"loss_changes":[1.2971694E0,1.6161072E0,8.0663085E-1,1.1712632E0,0E0,2.7406573E-1,0E0,1.6618356E0,0E0,0E0,0E0,6.09152E-1,0E0,1.2145553E0,0E0,0E0,0E0],"parents":[2147483647,0,0,1,1,2,2,3,3,5,5,7,7,11,11,13,13],"right_children":[2,4,6,8,-1,10,-1,12,-1,-1,-1,14,-1,16,-1,-1,-1],"split_conditions":[9.4E0,8.63E0,1.109E1,6.78E0,-1.8753977E-2,5.17E0,-2.1187759E-3,5.23E0,1.115483E-2,1.8547181E-2,8.152508E-3,4.44E0,-1.4689353E-2,3.22E0,1.25943E-2,7.399943E-3,-1.0548046E-2],"split_indices":[1,1,1,1,0,2,0,1,0,0,0,1,0,1,0,0,0],"split_type":[0,0,0,0,0,0,0,0,0,0,0,0,0,0,0,0,0],"sum_hessian":[3.11E2,2.24E2,8.7E1,1.98E2,2.6E1,6.2E1,2.5E1,1.52E2,4.6E1,3.2E1,3E1,1.09E2,4.3E1,8.4E1,2.5E1,4.7E1,3.7E1],"tree_param":{"num_deleted":"0","num_feature":"14","num_nodes":"17","size_leaf_vector":"1"}},{"base_weights":[1.6060235E-2,-9.324508E-3,1.5449978E-2,-1.86055E-2,1.8224018E-2,-1.3133156E-1,6.267555E-2,3.4449082E-3,-2.4257032E-2,1.1475364E-1,-1.32437E-2,6.393326E-2,2.0632613E-2,1.7127879E-2,-7.30147E-3,-7.895695E-3,1.3660679E-2],"categories":[],"categories_nodes":[],"categories_segments":[],"categories_sizes":[],"default_left":[0,0,0,0,0,0,0,0,0,0,0,0,0,0,0,0,0],"id":37,"left_children":[1,3,-1,-1,5,7,9,-1,-1,11,-1,13,-1,-1,15,-1,-1],"loss_changes":[1.472498E0,1.7803589E0,0E0,0E0,1.6236894E0,1.9217426E0,2.3627641E0,0E0,0E0,1.2454975E0,0E0,1.3956013E0,0E0,0E0,1.5782704E0,0E0,0E0],"parents":[2147483647,0,0,1,1,4,4,5,5,6,6,9,9,11,11,14,14],"right_children":[2,4,-1,-1,6,8,10,-1,-1,12,-1,14,-1,-1,16,-1,-1],"split_conditions":[1E0,-3.24E0,1.5449978E-2,-1.86055E-2,1.050545E4,3.73E0,6.72E0,3.4449082E-3,-2.4257032E-2,3.92E0,-1.32437E-2,1.887115E4,2.0632613E-2,1.7127879E-2,3.178786E4,-7.895695E-3,1.3660679E-2],"split_indices":[12,0,0,0,3,0,0,0,0,0,0,3,0,0,3,0,0],"split_type":[0,0,0,0,0,0,0,0,0,0,0,0,0,0,0,0,0],"sum_hessian":[3.04E2,2.69E2,3.5E1,2.7E1,2.42E2,5.5E1,1.87E2,2.9E1,2.6E1,1.54E2,3.3E1,1.18E2,3.6E1,3.5E1,8.3E1,5.5E1,2.8E1],"tree_param":{"num_deleted":"0","num_feature":"14","num_nodes":"17","size_leaf_vector":"1"}},{"base_weights":[-1.9089946E-4,-1.655725E-2,1.1231412E-2,1.7716508E-2,-1.6981165E-1,-1.9274153E-2,1.706465E-2,4.1463175E-3,-2.8521098E-2,-1.4520838E-2,8.045924E-3,1.32793E-1,-6.641834E-2,-1.2681815E-3,2.6849736E-2,-1.5168086E-2,-1.6060224E-2,1.22164255E-2,-7.9153385E-3],"categories":[],"categories_nodes":[],"categories_segments":[],"categories_sizes":[],"default_left":[0,0,0,0,0,0,0,0,0,0,0,0,0,0,0,0,0,0,0],"id":38,"left_children":[1,3,-1,5,7,9,-1,-1,-1,-1,11,13,15,-1,-1,17,-1,-1,-1],"loss_changes":[7.730419E-1,1.4947479E0,0E0,1.8127192E0,2.4845679E0,9.49375E-1,0E0,0E0,0E0,0E0,1.6158514E0,2.1974258E0,8.2194567E-1,0E0,0E0,1.336626E0,0E0,0E0,0E0],"parents":[2147483647,0,0,1,1,3,3,4,4,5,5,10,10,11,11,12,12,15,15],"right_children":[2,4,-1,6,8,10,-1,-1,-1,-1,12,14,16,-1,-1,18,-1,-1,-1],"split_conditions":[8.79E0,7.04E0,1.1231412E-2,6.1E0,1.594809E4,3.06E0,1.706465E-2,4.1463175E-3,-2.8521098E-2,-1.4520838E-2,5.93E0,2.502056E4,5.02E0,-1.2681815E-3,2.6849736E-2,1.60666E4,-1.6060224E-2,1.22164255E-2,-7.9153385E-3],"split_indices":[2,2,0,2,3,1,0,0,0,0,1,3,2,0,0,3,0,0,0],"split_type":[0,0,0,0,0,0,0,0,0,0,0,0,0,0,0,0,0,0,0],"sum_hessian":[3.13E2,2.83E2,3E1,2.32E2,5.1E1,1.98E2,3.4E1,2.5E1,2.6E1,2.6E1,1.72E2,6.4E1,1.08E2,3.9E1,2.5E1,8.1E1,2.7E1,2.7E1,5.4E1],"tree_param":{"num_deleted":"0","num_feature":"14","num_nodes":"19","size_leaf_vector":"1"}},{"base_weights":[-1.4503192E-2,-3.82243E-2,1.4729538E-2,-1.2556965E-2,-1.9164082E-2,-1.897785E-2,1.5664043E-2,-3.8453422E-2,1.6348757E-2,-2.9659527E-3,-1.4854077E-2,-5.3099852E-2,7.4589415E-3,7.50597E-3,-9.410074E-3],"categories":[],"categories_nodes":[],"categories_segments":[],"categories_sizes":[],"default_left":[0,0,0,0,0,0,0,0,0,0,0,0,0,0,0],"id":39,"left_children":[1,3,-1,5,-1,-1,7,9,-1,11,-1,13,-1,-1,-1],"loss_changes":[1.5333338E0,1.5305845E0,0E0,1.6802582E0,0E0,0E0,2.4390626E0,9.962472E-1,0E0,7.4980354E-1,0E0,1.0989122E0,0E0,0E0,0E0],"parents":[2147483647,0,0,1,1,3,3,6,6,7,7,9,9,11,11],"right_children":[2,4,-1,6,-1,-1,8,10,-1,12,-1,14,-1,-1,-1],"split_conditions":[1E0,3.542664E4,1.4729538E-2,2.83E0,-1.9164082E-2,-1.897785E-2,2.880544E4,2.243464E4,1.6348757E-2,1.650048E4,-1.4854077E-2,2.92E0,7.4589415E-3,7.50597E-3,-9.410074E-3],"split_indices":[12,3,0,1,0,0,3,3,0,3,0,2,0,0,0],"split_type":[0,0,0,0,0,0,0,0,0,0,0,0,0,0,0],"sum_hessian":[3.04E2,2.74E2,3E1,2.46E2,2.8E1,2.5E1,2.21E2,1.75E2,4.6E1,1.44E2,3.1E1,9.7E1,4.7E1,3.1E1,6.6E1],"tree_param":{"num_deleted":"0","num_feature":"14","num_nodes":"15","size_leaf_vector":"1"}},{"base_weights":[-8.692658E-3,1.958989E-2,-1.6208801E-2,-3.2720726E-2,1.5974483E-1,-1.8913489E-2,-6.611864E-4,2.0797553E-2,-1.3777861E-4,-1.3942585E-2,3.939516E-2,8.8028125E-2,-1.0473766E-2,7.118816E-3,2.3419244E-2,1.0165251E-2,-1.002741E-2],"categories":[],"categories_nodes":[],"categories_segments":[],"categories_sizes":[],"default_left":[0,0,0,0,0,0,0,0,0,0,0,0,0,0,0,0,0],"id":40,"left_children":[1,3,-1,5,7,-1,9,-1,-1,-1,11,13,-1,15,-1,-1,-1],"loss_changes":[1.8580471E0,2.0507407E0,0E0,1.4351277E0,1.4441212E0,0E0,1.33551E0,0E0,0E0,0E0,1.3010042E0,2.1204107E0,0E0,1.5913851E0,0E0,0E0,0E0],"parents":[2147483647,0,0,1,1,3,3,4,4,6,6,10,10,11,11,13,13],"right_children":[2,4,-1,6,8,-1,10,-1,-1,-1,12,14,-1,16,-1,-1,-1],"split_conditions":[1E0,9.4E0,-1.6208801E-2,-2.85E0,1.08E1,-1.8913489E-2,7.86772E3,2.0797553E-2,-1.3777861E-4,-1.3942585E-2,6.72E0,3.92E0,-1.0473766E-2,5.22E0,2.3419244E-2,1.0165251E-2,-1.002741E-2],"split_indices":[13,1,0,0,1,0,3,0,0,0,0,0,0,1,0,0,0],"split_type":[0,0,0,0,0,0,0,0,0,0,0,0,0,0,0,0,0],"sum_hessian":[3.15E2,2.78E2,3.7E1,2.03E2,7.5E1,2.5E1,1.78E2,4.3E1,3.2E1,3.1E1,1.47E2,1.16E2,3.1E1,8.6E1,3E1,4.5E1,4.1E1],"tree_param":{"num_deleted":"0","num_feature":"14","num_nodes":"17","size_leaf_vector":"1"}},{"base_weights":[-6.4640045E-3,1.639395E-2,-1.2472469E-2,-3.0639118E-3,1.4155915E-2,8.003404E-2,-3.0593267E-2,-5.6223804E-3,1.4466717E-2,1.01133315E-2,-8.447651E-2,-4.5287423E-2,1.3354307E-2,-2.1557488E-2,3.1130002E-3,1.0960786E-2,-1.567156E-2],"categories":[],"categories_nodes":[],"categories_segments":[],"categories_sizes":[],"default_left":[0,0,0,0,0,0,0,0,0,0,0,0,0,0,0,0,0],"id":41,"left_children":[1,3,-1,5,-1,7,9,-1,-1,11,13,15,-1,-1,-1,-1,-1],"loss_changes":[1.1097411E0,8.926341E-1,0E0,5.514805E-1,0E0,1.0640101E0,3.9786035E-1,0E0,0E0,9.7570366E-1,2.006322E0,2.5056796E0,0E0,0E0,0E0,0E0,0E0],"parents":[2147483647,0,0,1,1,3,3,5,5,6,6,9,9,10,10,11,11],"right_children":[2,4,-1,6,-1,8,10,-1,-1,12,14,16,-1,-1,-1,-1,-1],"split_conditions":[1E0,8.73E0,-1.2472469E-2,1.66E0,1.4155915E-2,3E-2,3.1E0,-5.6223804E-3,1.4466717E-2,1.57E0,5.07E0,4.99E0,1.3354307E-2,-2.1557488E-2,3.1130002E-3,1.0960786E-2,-1.567156E-2],"split_indices":[13,2,0,2,0,2,0,0,0,0,0,2,0,0,0,0,0],"split_type":[0,0,0,0,0,0,0,0,0,0,0,0,0,0,0,0,0],"sum_hessian":[3.02E2,2.65E2,3.7E1,2.39E2,2.6E1,5.9E1,1.8E2,2.5E1,3.4E1,1.03E2,7.7E1,7.8E1,2.5E1,2.9E1,4.8E1,3.6E1,4.2E1],"tree_param":{"num_deleted":"0","num_feature":"14","num_nodes":"17","size_leaf_vector":"1"}},{"base_weights":[7.2077796E-4,-1.3790117E-2,1.9241055E-2,5.1241245E-2,-8.755422E-2,8.67769E-3,1.7801689E-1,-1.6290827E-2,8.326671E-4,4.751843E-2,-1.4693793E-2,-1.5884717E-3,2.8347736E-2,1.2242903E-1,-7.6299077E-3,5.0860424E-2,2.1889953E-2,-1.9522788E-3,1.2643847E-2],"categories":[],"categories_nodes":[],"categories_segments":[],"categories_sizes":[],"default_left":[0,0,0,0,0,0,0,0,0,0,0,0,0,0,0,0,0,0,0],"id":42,"left_children":[1,-1,3,5,7,9,11,-1,-1,13,-1,-1,-1,15,-1,17,-1,-1,-1],"loss_changes":[1.0872463E0,0E0,9.921349E-1,1.2017682E0,8.594406E-1,1.3443415E0,2.238481E0,0E0,0E0,1.6000783E0,0E0,0E0,0E0,1.1371608E0,0E0,6.199181E-1,0E0,0E0,0E0],"parents":[2147483647,0,0,2,2,3,3,4,4,5,5,6,6,9,9,13,13,15,15],"right_children":[2,-1,4,6,8,10,12,-1,-1,14,-1,-1,-1,16,-1,18,-1,-1,-1],"split_conditions":[-3.24E0,-1.3790117E-2,6.72E0,3.96E0,7.87E0,2.98E0,1.90119E4,-1.6290827E-2,8.326671E-4,2.57823E4,-1.4693793E-2,-1.5884717E-3,2.8347736E-2,1.979283E4,-7.6299077E-3,7.4E-1,2.1889953E-2,-1.9522788E-3,1.2643847E-2],"split_indices":[0,0,0,0,0,0,3,0,0,3,0,0,0,3,0,0,0,0,0],"split_type":[0,0,0,0,0,0,0,0,0,0,0,0,0,0,0,0,0,0,0],"sum_hessian":[3.16E2,2.8E1,2.88E2,2.22E2,6.6E1,1.67E2,5.5E1,2.8E1,3.8E1,1.41E2,2.6E1,2.8E1,2.7E1,9.4E1,4.7E1,6.7E1,2.7E1,4.1E1,2.6E1],"tree_param":{"num_deleted":"0","num_feature":"14","num_nodes":"19","size_leaf_vector":"1"}},{"base_weights":[-1.0866052E-2,-3.267305E-2,1.1778508E-2,-2.1978442E-2,-4.794499E-3,5.392945E-2,-1.2812844E-1,1.6792227E-2,1.5668761E-2,1.2803286E-3,-1.744983E-2,-6.7373537E-3,5.7964727E-2,1.31334625E-2,-4.349978E-3],"categories":[],"categories_nodes":[],"categories_segments":[],"categories_sizes":[],"default_left":[0,0,0,0,0,0,0,0,0,0,0,0,0,0,0],"id":43,"left_children":[1,3,-1,-1,5,7,9,11,-1,-1,-1,-1,13,-1,-1],"loss_changes":[1.1146185E0,1.9512168E0,0E0,0E0,1.7741178E0,9.519547E-1,1.2030786E0,5.978517E-1,0E0,0E0,0E0,0E0,1.3414876E0,0E0,0E0],"parents":[2147483647,0,0,1,1,4,4,5,5,6,6,7,7,12,12],"right_children":[2,4,-1,-1,6,8,10,12,-1,-1,-1,-1,14,-1,-1],"split_conditions":[1E0,-3.2E0,1.1778508E-2,-2.1978442E-2,4.78E0,3.47E0,6.08E0,1.82E0,1.5668761E-2,1.2803286E-3,-1.744983E-2,-6.7373537E-3,5.5E0,1.31334625E-2,-4.349978E-3],"split_indices":[12,0,0,0,0,0,1,2,0,0,0,0,2,0,0],"split_type":[0,0,0,0,0,0,0,0,0,0,0,0,0,0,0],"sum_hessian":[3.02E2,2.68E2,3.4E1,2.5E1,2.43E2,1.65E2,7.8E1,1.34E2,3.1E1,3.3E1,4.5E1,3.7E1,9.7E1,4.8E1,4.9E1],"tree_param":{"num_deleted":"0","num_feature":"14","num_nodes":"15","size_leaf_vector":"1"}},{"base_weights":[1.0706258E-2,3.6640342E-2,-8.792951E-2,-5.94853E-3,1.7571892E-1,5.3667226E-3,-1.872386E-2,7.6346114E-2,-6.819075E-2,-2.7229334E-3,3.224355E-2,1.2270912E-2,7.302293E-4,-1.8892117E-2,1.0055612E-2,2.242335E-2,-1.374353E-1,-1.4820081E-2,-5.398766E-3],"categories":[],"categories_nodes":[],"categories_segments":[],"categories_sizes":[],"default_left":[0,0,0,0,0,0,0,0,0,0,0,0,0,0,0,0,0,0,0],"id":44,"left_children":[1,3,5,7,9,-1,-1,11,13,-1,-1,-1,-1,-1,15,-1,17,-1,-1],"loss_changes":[7.859785E-1,1.4403828E0,1.6685749E0,9.630578E-1,3.0876594E0,0E0,0E0,4.6924102E-1,1.5405704E0,0E0,0E0,0E0,0E0,0E0,3.2797103E0,0E0,1.866116E-1,0E0,0E0],"parents":[2147483647,0,0,1,1,2,2,3,3,4,4,7,7,8,8,14,14,16,16],"right_children":[2,4,6,8,10,-1,-1,12,14,-1,-1,-1,-1,-1,16,-1,18,-1,-1],"split_conditions":[6.72E0,3.96E0,2.174367E4,1.887115E4,2.114055E4,5.3667226E-3,-1.872386E-2,-1.01E0,-2.32E0,-2.7229334E-3,3.224355E-2,1.2270912E-2,7.302293E-4,-1.8892117E-2,-1.5E-1,2.242335E-2,1.99E0,-1.4820081E-2,-5.398766E-3],"split_indices":[0,0,3,3,3,0,0,0,0,0,0,0,0,0,0,0,0,0,0],"split_type":[0,0,0,0,0,0,0,0,0,0,0,0,0,0,0,0,0,0,0],"sum_hessian":[3.05E2,2.42E2,6.3E1,1.86E2,5.6E1,3.2E1,3.1E1,8E1,1.06E2,3.1E1,2.5E1,3.4E1,4.6E1,3.1E1,7.5E1,2.5E1,5E1,2.5E1,2.5E1],"tree_param":{"num_deleted":"0","num_feature":"14","num_nodes":"19","size_leaf_vector":"1"}},{"base_weights":[1.12679135E-2,3.5574578E-2,-1.4040725E-2,-1.5658412E-2,6.369987E-2,2.1423312E-2,3.094528E-2,-6.8229154E-2,1.1519006E-1,6.300248E-2,-3.117399E-2,-4.139419E-4,2.6208838E-2,-8.857204E-3,1.2138313E-2,-1.0008013E-1,1.5207576E-2,3.3540993E-3,-1.7322326E-2],"categories":[],"categories_nodes":[],"categories_segments":[],"categories_sizes":[],"default_left":[0,0,0,0,0,0,0,0,0,0,0,0,0,0,0,0,0,0,0],"id":45,"left_children":[1,3,-1,-1,5,-1,7,9,11,13,-1,15,-1,-1,-1,17,-1,-1,-1],"loss_changes":[1.4587826E0,1.8620045E0,0E0,0E0,1.7504265E0,0E0,1.7791041E0,4.4943037E0,3.11452E0,1.307919E0,0E0,1.5998193E0,0E0,0E0,0E0,1.0147969E0,0E0,0E0,0E0],"parents":[2147483647,0,0,1,1,4,4,6,6,7,7,8,8,9,9,11,11,15,15],"right_children":[2,4,-1,-1,6,-1,8,10,12,14,-1,16,-1,-1,-1,18,-1,-1,-1],"split_conditions":[3.542664E4,2E-2,-1.4040725E-2,-1.5658412E-2,1.41E0,2.1423312E-2,6.78E0,5.4E0,2.174367E4,4.8E0,-3.117399E-2,5.07E0,2.6208838E-2,-8.857204E-3,1.2138313E-2,7E-1,1.5207576E-2,3.3540993E-3,-1.7322326E-2],"split_indices":[3,2,0,0,2,0,1,1,3,2,0,0,0,0,0,0,0,0,0],"split_type":[0,0,0,0,0,0,0,0,0,0,0,0,0,0,0,0,0,0,0],"sum_hessian":[3E2,2.68E2,3.2E1,2.7E1,2.41E2,3E1,2.11E2,9.7E1,1.14E2,7.1E1,2.6E1,7.7E1,3.7E1,2.5E1,4.6E1,5.2E1,2.5E1,2.5E1,2.7E1],"tree_param":{"num_deleted":"0","num_feature":"14","num_nodes":"19","size_leaf_vector":"1"}},{"base_weights":[1.5057806E-2,3.3488587E-2,-1.3268842E-2,1.2348061E-1,-3.8250037E-2,2.2798939E-2,4.5578625E-2,-1.34347E-2,1.9499397E-2,-7.641578E-3,1.3212202E-1,1.9570982E-2,-6.42045E-2,2.0939188E-2,-3.2153973E-4,7.749345E-3,-1.2760429E-2],"categories":[],"categories_nodes":[],"categories_segments":[],"categories_sizes":[],"default_left":[0,0,0,0,0,0,0,0,0,0,0,0,0,0,0,0,0],"id":46,"left_children":[1,3,-1,5,7,-1,9,-1,11,-1,13,-1,15,-1,-1,-1,-1],"loss_changes":[1.049712E0,1.747817E0,0E0,1.6735507E0,1.2319835E0,0E0,1.0982518E0,0E0,2.19944E0,0E0,1.084508E0,0E0,1.4550962E0,0E0,0E0,0E0,0E0],"parents":[2147483647,0,0,1,1,3,3,4,4,6,6,8,8,10,10,12,12],"right_children":[2,4,-1,6,8,-1,10,-1,12,-1,14,-1,16,-1,-1,-1,-1],"split_conditions":[1.109E1,1.887115E4,-1.3268842E-2,3.15E0,3.78E0,2.2798939E-2,7.86772E3,-1.34347E-2,5.8E0,-7.641578E-3,2.19E0,1.9570982E-2,1.28E0,2.0939188E-2,-3.2153973E-4,7.749345E-3,-1.2760429E-2],"split_indices":[1,3,0,2,1,0,3,0,1,0,0,0,0,0,0,0,0],"split_type":[0,0,0,0,0,0,0,0,0,0,0,0,0,0,0,0,0],"sum_hessian":[2.94E2,2.69E2,2.5E1,1.19E2,1.5E2,3.5E1,8.4E1,4.3E1,1.07E2,3.1E1,5.3E1,2.7E1,8E1,2.5E1,2.8E1,3.1E1,4.9E1],"tree_param":{"num_deleted":"0","num_feature":"14","num_nodes":"17","size_leaf_vector":"1"}},{"base_weights":[-3.1384432E-3,1.1379547E-2,-1.7646208E-2,3.7477233E-3,-1.6844478E-2,2.8154075E-2,-1.2055985E-2,-2.2690773E-2,1.2687539E-1,3.8093794E-2,-1.888675E-2,1.567327E-2,2.2687488E-3,1.634686E-2,-3.4703273E-2,3.3858384E-3,-8.80934E-3],"categories":[],"categories_nodes":[],"categories_segments":[],"categories_sizes":[],"default_left":[0,0,0,0,0,0,0,0,0,0,0,0,0,0,0,0,0],"id":47,"left_children":[1,-1,3,5,-1,7,-1,9,11,13,-1,-1,-1,-1,15,-1,-1],"loss_changes":[7.0815855E-1,0E0,1.2759345E0,1.0563779E0,0E0,1.1523377E0,0E0,2.126607E0,6.124598E-1,1.5918889E0,0E0,0E0,0E0,0E0,5.801786E-1,0E0,0E0],"parents":[2147483647,0,0,2,2,3,3,5,5,7,7,8,8,9,9,14,14],"right_children":[2,-1,4,6,-1,8,-1,10,12,14,-1,-1,-1,-1,16,-1,-1],"split_conditions":[-1.6E-1,1.1379547E-2,1E0,1E0,-1.6844478E-2,6.81E0,-1.2055985E-2,5.56E0,8.48E0,4.26E0,-1.888675E-2,1.567327E-2,2.2687488E-3,1.634686E-2,3.29E0,3.3858384E-3,-8.80934E-3],"split_indices":[2,0,10,13,0,2,0,2,2,1,0,0,0,0,2,0,0],"split_type":[0,0,0,0,0,0,0,0,0,0,0,0,0,0,0,0,0],"sum_hessian":[3.13E2,2.6E1,2.87E2,2.61E2,2.6E1,2.28E2,3.3E1,1.51E2,7.7E1,1.2E2,3.1E1,4.1E1,3.6E1,3.4E1,8.6E1,4.4E1,4.2E1],"tree_param":{"num_deleted":"0","num_feature":"14","num_nodes":"17","size_leaf_vector":"1"}},{"base_weights":[5.3305817E-3,-9.154331E-3,1.2334471E-2,6.1407653E-3,-1.1273027E-2,-3.9066814E-2,7.841148E-2,6.28619E-2,-1.3438456E-1,-7.933246E-3,1.904684E-2,-6.943622E-2,2.2619132E-2,-1.7478557E-2,-4.84546E-3,1.3734561E-2,-9.245538E-3,1.1082778E-3,-1.1323414E-2],"categories":[],"categories_nodes":[],"categories_segments":[],"categories_sizes":[],"default_left":[0,0,0,0,0,0,0,0,0,0,0,0,0,0,0,0,0,0,0],"id":48,"left_children":[1,3,-1,5,-1,7,9,11,13,15,-1,17,-1,-1,-1,-1,-1,-1,-1],"loss_changes":[7.183512E-1,6.18381E-1,0E0,8.49264E-1,0E0,1.5629461E0,1.5177652E0,2.4844208E0,5.563606E-1,1.5210948E0,0E0,3.524466E-1,0E0,0E0,0E0,0E0,0E0,0E0,0E0],"parents":[2147483647,0,0,1,1,3,3,5,5,6,6,7,7,8,8,9,9,11,11],"right_children":[2,4,-1,6,-1,8,10,12,14,16,-1,18,-1,-1,-1,-1,-1,-1,-1],"split_conditions":[9.01E0,8.26E0,1.2334471E-2,5.33E0,-1.1273027E-2,6.62E0,8.87E0,4.61E0,9.38E0,6.32E0,1.904684E-2,3.18E0,2.2619132E-2,-1.7478557E-2,-4.84546E-3,1.3734561E-2,-9.245538E-3,1.1082778E-3,-1.1323414E-2],"split_indices":[2,2,0,2,0,1,1,1,1,2,0,1,0,0,0,0,0,0,0],"split_type":[0,0,0,0,0,0,0,0,0,0,0,0,0,0,0,0,0,0,0],"sum_hessian":[3.1E2,2.85E2,2.5E1,2.58E2,2.7E1,1.59E2,9.9E1,7.7E1,8.2E1,6.7E1,3.2E1,5E1,2.7E1,3.3E1,4.9E1,2.5E1,4.2E1,2.5E1,2.5E1],"tree_param":{"num_deleted":"0","num_feature":"14","num_nodes":"19","size_leaf_vector":"1"}},{"base_weights":[-9.801375E-3,-1.3484128E-1,3.970241E-2,-4.8101344E-4,-2.0880401E-2,1.7046336E-2,1.1887276E-2,5.125999E-2,-1.7843515E-2,1.6169927E-1,-5.3780624E-3,2.9609634E-2,-2.0138973E-3,-9.485341E-2,1.17183905E-2,-1.7688014E-3,-1.2707033E-2],"categories":[],"categories_nodes":[],"categories_segments":[],"categories_sizes":[],"default_left":[0,0,0,0,0,0,0,0,0,0,0,0,0,0,0,0,0],"id":49,"left_children":[1,3,5,-1,-1,-1,7,9,-1,11,13,-1,-1,15,-1,-1,-1],"loss_changes":[1.9428073E0,1.6391618E0,1.1712629E0,0E0,0E0,0E0,1.9497566E0,1.070486E0,0E0,2.5597298E0,1.6634083E0,0E0,0E0,3.8930106E-1,0E0,0E0,0E0],"parents":[2147483647,0,0,1,1,2,2,6,6,7,7,9,9,10,10,13,13],"right_children":[2,4,6,-1,-1,-1,8,10,-1,12,14,-1,-1,16,-1,-1,-1],"split_conditions":[4.63E0,3.22E0,-2.56E0,-4.8101344E-4,-2.0880401E-2,1.7046336E-2,1.104E1,3.85E0,-1.7843515E-2,2.98E0,5.07E0,2.9609634E-2,-2.0138973E-3,1.840185E4,1.17183905E-2,-1.7688014E-3,-1.2707033E-2],"split_indices":[1,1,0,0,0,0,1,2,0,0,0,0,0,3,0,0,0],"split_type":[0,0,0,0,0,0,0,0,0,0,0,0,0,0,0,0,0],"sum_hessian":[3.12E2,8.8E1,2.24E2,4.7E1,4.1E1,2.8E1,1.96E2,1.7E2,2.6E1,5.7E1,1.13E2,2.5E1,3.2E1,7.3E1,4E1,3.8E1,3.5E1],"tree_param":{"num_deleted":"0","num_feature":"14","num_nodes":"17","size_leaf_vector":"1"}},{"base_weights":[-5.8415607E-3,-5.9300058E-2,1.369928E-1,-8.86456E-2,1.0226791E-2,1.6568904E-3,2.0889431E-2,1.0225545E-2,-1.2963326E-1,-1.7476298E-1,9.267457E-3,-2.099976E-1,-6.097801E-4,-1.2426434E-1,-2.7163148E-2,-1.4730494E-2,-1.6592224E-3],"categories":[],"categories_nodes":[],"categories_segments":[],"categories_sizes":[],"default_left":[0,0,0,0,0,0,0,0,0,0,0,0,0,0,0,0,0],"id":50,"left_children":[1,3,5,7,-1,-1,-1,-1,9,11,-1,13,-1,15,-1,-1,-1],"loss_changes":[2.3828294E0,1.3154464E0,1.3761396E0,1.8435624E0,0E0,0E0,0E0,0E0,1.9412997E0,8.378792E-1,0E0,1.4945035E0,0E0,5.630454E-1,0E0,0E0,0E0],"parents":[2147483647,0,0,1,1,2,2,3,3,8,8,9,9,11,11,13,13],"right_children":[2,4,6,8,-1,-1,-1,-1,10,12,-1,14,-1,16,-1,-1,-1],"split_conditions":[9.4E0,1E0,5.5E0,8.2E-1,1.0226791E-2,1.6568904E-3,2.0889431E-2,1.0225545E-2,8.73E0,8.24E0,9.267457E-3,5.76E0,-6.097801E-4,3.71E0,-2.7163148E-2,-1.4730494E-2,-1.6592224E-3],"split_indices":[1,8,2,2,0,0,0,0,2,1,0,1,0,1,0,0,0],"split_type":[0,0,0,0,0,0,0,0,0,0,0,0,0,0,0,0,0],"sum_hessian":[3.1E2,2.26E2,8.4E1,1.97E2,2.9E1,4.7E1,3.7E1,3E1,1.67E2,1.42E2,2.5E1,1.17E2,2.5E1,7.6E1,4.1E1,4.4E1,3.2E1],"tree_param":{"num_deleted":"0","num_feature":"14","num_nodes":"17","size_leaf_vector":"1"}},{"base_weights":[1.8630536E-2,-7.301572E-2,5.6454077E-2,9.591934E-3,-2.0992786E-2,1.4296568E-2,1.7125174E-1,1.1171572E-2,-6.8031778E-3,8.273463E-2,-1.0037522E-1,7.853545E-3,1.6809056E-2,-5.105916E-3,1.6602805E-1,-2.1394772E-2,8.510719E-3,2.4714023E-2,4.372544E-3],"categories":[],"categories_nodes":[],"categories_segments":[],"categories_sizes":[],"default_left":[0,0,0,0,0,0,0,0,0,0,0,0,0,0,0,0,0,0,0],"id":51,"left_children":[1,3,5,7,-1,9,11,-1,-1,13,15,-1,-1,-1,17,-1,-1,-1,-1],"loss_changes":[1.0787017E0,1.5579236E0,1.0622602E0,9.3607134E-1,0E0,1.2796668E0,1.8408084E-1,0E0,0E0,1.2926039E0,2.4442286E0,0E0,0E0,0E0,1.1432204E0,0E0,0E0,0E0,0E0],"parents":[2147483647,0,0,1,1,2,2,3,3,5,5,6,6,9,9,10,10,14,14],"right_children":[2,4,6,8,-1,10,12,-1,-1,14,16,-1,-1,-1,18,-1,-1,-1,-1],"split_conditions":[2.47E0,9.33E0,9.43E0,1.6E-1,-2.0992786E-2,7.04E0,1.069E1,1.1171572E-2,-6.8031778E-3,4.48E0,8.73E0,7.853545E-3,1.6809056E-2,-5.105916E-3,4.83E0,-2.1394772E-2,8.510719E-3,2.4714023E-2,4.372544E-3],"split_indices":[2,1,1,2,0,2,1,0,0,2,2,0,0,0,1,0,0,0,0],"split_type":[0,0,0,0,0,0,0,0,0,0,0,0,0,0,0,0,0,0,0],"sum_hessian":[3.09E2,9E1,2.19E2,6.5E1,2.5E1,1.61E2,5.8E1,2.7E1,3.8E1,1.01E2,6E1,2.7E1,3.1E1,3.6E1,6.5E1,3.2E1,2.8E1,2.5E1,4E1],"tree_param":{"num_deleted":"0","num_feature":"14","num_nodes":"19","size_leaf_vector":"1"}}]},"name":"gbtree"},"learner_model_param":{"base_score":"8.605203E-10","boost_from_average":"1","num_class":"0","num_feature":"14","num_target":"1"},"objective":{"name":"reg:squarederror","reg_loss_param":{"scale_pos_weight":"1"}}},"version":[3,0,1]}