{"learner":{"attributes":{"best_iteration":"1","best_score":"0.962135229481024"},"feature_names":[],"feature_types":[],"gradient_booster":{"model":{"gbtree_model_param":{"num_parallel_tree":"1","num_trees":"52"},"iteration_indptr":[0,1,2,3,4,5,6,7,8,9,10,11,12,13,14,15,16,17,18,19,20,21,22,23,24,25,26,27,28,29,30,31,32,33,34,35,36,37,38,39,40,41,42,43,44,45,46,47,48,49,50,51,52],"tree_info":[0,0,0,0,0,0,0,0,0,0,0,0,0,0,0,0,0,0,0,0,0,0,0,0,0,0,0,0,0,0,0,0,0,0,0,0,0,0,0,0,0,0,0,0,0,0,0,0,0,0,0,0],"trees":[{"base_weights":[-3.3390146E-2,-6.979748E-2,5.051753E-3,4.863906E-2,-2.59351E-2,-5.5139937E-2,3.72023E-2,-2.806292E-2,-3.4920312E-2,-7.261532E-2,2.3928644E-2,7.271523E-2,-2.2573203E-1,2.2221249E-2,-1.7361984E-2,-6.2746264E-2,-1.8296106E-2],"categories":[],"categories_nodes":[],"categories_segments":[],"categories_sizes":[],"default_left":[0,0,0,0,0,0,0,0,0,0,0,0,0,0,0,0,0],"id":0,"left_children":[1,-1,3,-1,5,7,-1,9,-1,11,-1,13,15,-1,-1,-1,-1],"loss_changes":[5.2824445E0,0E0,2.906552E0,0E0,2.1578572E0,1.1624331E0,0E0,1.7833656E0,0E0,3.8438501E0,0E0,1.2822819E0,1.6274099E0,0E0,0E0,0E0,0E0],"parents":[2147483647,0,0,2,2,4,4,5,5,7,7,9,9,11,11,12,12],"right_children":[2,-1,4,-1,6,8,-1,10,-1,12,-1,14,16,-1,-1,-1,-1],"split_conditions":[-3.64E0,-6.979748E-2,-2.47E0,4.863906E-2,1E0,1E0,3.72023E-2,8E0,-3.4920312E-2,3.95E0,2.3928644E-2,5.58E0,1.5E0,2.2221249E-2,-1.7361984E-2,-6.2746264E-2,-1.8296106E-2],"split_indices":[0,0,0,0,10,13,0,2,0,2,0,0,0,0,0,0,0],"split_type":[0,0,0,0,0,0,0,0,0,0,0,0,0,0,0,0,0],"sum_hessian":[3.17E2,2.5E1,2.92E2,2.5E1,2.67E2,2.42E2,2.5E1,2.11E2,3.1E1,1.71E2,4E1,8.8E1,8.3E1,6.3E1,2.5E1,2.8E1,5.5E1],"tree_param":{"num_deleted":"0","num_feature":"14","num_nodes":"17","size_leaf_vector":"1"}},{"base_weights":[-2.132047E-2,-3.3304802E-1,4.5735523E-2,-3.9068684E-2,-5.9802014E-2,7.644702E-2,-3.263622E-2,7.1381177E-3,2.7270326E-1,1.7542757E-1,-9.7713225E-2,7.178715E-2,9.700482E-3,-4.357711E-3,4.766023E-2,4.609584E-2,-2.6921842E-1,-8.530596E-2,-1.1804987E-2],"categories":[],"categories_nodes":[],"categories_segments":[],"categories_sizes":[],"default_left":[0,0,0,0,0,0,0,0,0,0,0,0,0,0,0,0,0,0,0],"id":1,"left_children":[1,3,5,-1,-1,7,-1,9,11,13,15,-1,-1,-1,-1,-1,17,-1,-1],"loss_changes":[6.495224E0,1.5819359E-1,2.0868158E0,0E0,0E0,3.1265829E0,0E0,3.0345008E0,2.538817E0,1.9297545E0,7.445792E0,0E0,0E0,0E0,0E0,0E0,4.234593E0,0E0,0E0],"parents":[2147483647,0,0,1,1,2,2,5,5,7,7,8,8,9,9,10,10,16,16],"right_children":[2,4,6,-1,-1,8,-1,10,12,14,16,-1,-1,-1,-1,-1,18,-1,-1],"split_conditions":[3.32E0,4.29E0,1.123E1,-3.9068684E-2,-5.9802014E-2,9.4E0,-3.263622E-2,3.54E0,1.025E1,5.57E0,5.09E0,7.178715E-2,9.700482E-3,-4.357711E-3,4.766023E-2,4.609584E-2,6.62E0,-8.530596E-2,-1.1804987E-2],"split_indices":[1,2,1,0,0,1,0,2,1,1,1,0,0,0,0,0,1,0,0],"split_type":[0,0,0,0,0,0,0,0,0,0,0,0,0,0,0,0,0,0,0],"sum_hessian":[3.09E2,5.4E1,2.55E2,2.8E1,2.6E1,2.29E2,2.6E1,1.7E2,5.9E1,6.5E1,1.05E2,2.9E1,3E1,2.7E1,3.8E1,3.1E1,7.4E1,2.8E1,4.6E1],"tree_param":{"num_deleted":"0","num_feature":"14","num_nodes":"19","size_leaf_vector":"1"}},{"base_weights":[3.8798817E-2,-9.1050334E-2,1.2110505E-1,2.8423892E-2,-1.8634492E-1,2.7146366E-1,5.876062E-2,-4.404701E-2,4.5990646E-2,-1.7703477E-2,-3.7108574E-2,2.1055931E-2,5.589809E-2,-1.883063E-2,1.0101947E-1,3.7526578E-2,5.5282462E-2,-1.2294474E-2,1.3272135E-1,3.0456983E-2,9.750693E-3],"categories":[],"categories_nodes":[],"categories_segments":[],"categories_sizes":[],"default_left":[0,0,0,0,0,0,0,0,0,0,0,0,0,0,0,0,0,0,0,0,0],"id":2,"left_children":[1,3,5,7,9,11,13,-1,-1,-1,-1,-1,-1,-1,15,-1,17,-1,19,-1,-1],"loss_changes":[3.3561814E0,1.3942969E0,1.7838604E0,5.0176883E0,2.544124E-1,6.9053555E-1,1.079669E0,0E0,0E0,0E0,0E0,0E0,0E0,0E0,7.5023663E-1,0E0,9.355271E-1,0E0,2.5348383E-1,0E0,0E0],"parents":[2147483647,0,0,1,1,2,2,3,3,4,4,5,5,6,6,14,14,16,16,18,18],"right_children":[2,4,6,8,10,12,14,-1,-1,-1,-1,-1,-1,-1,16,-1,18,-1,20,-1,-1],"split_conditions":[8.7E-1,-2.38E0,3.1E0,-3.61E0,-8.1E-1,1.7E0,4.08E0,-4.404701E-2,4.5990646E-2,-1.7703477E-2,-3.7108574E-2,2.1055931E-2,5.589809E-2,-1.883063E-2,4.99E0,3.7526578E-2,7.16E0,-1.2294474E-2,8.24E0,3.0456983E-2,9.750693E-3],"split_indices":[0,0,0,0,0,0,0,0,0,0,0,0,0,0,0,0,0,0,0,0,0],"split_type":[0,0,0,0,0,0,0,0,0,0,0,0,0,0,0,0,0,0,0,0,0],"sum_hessian":[3.12E2,1.21E2,1.91E2,5.4E1,6.7E1,5.5E1,1.36E2,2.5E1,2.9E1,3.3E1,3.4E1,2.5E1,3E1,2.5E1,1.11E2,2.5E1,8.6E1,3.1E1,5.5E1,2.6E1,2.9E1],"tree_param":{"num_deleted":"0","num_feature":"14","num_nodes":"21","size_leaf_vector":"1"}},{"base_weights":[-2.4362128E-2,-6.648171E-2,5.016235E-2,2.4058232E-2,-1.3705891E-1,-7.5745925E-2,4.3421045E-2,-6.082536E-2,-7.890905E-2,4.2446706E-2,-3.4856938E-2,-1.4643041E-2,-1.6277285E-1,-8.228701E-3,2.0717828E-2,-1.584097E-2,2.3077894E-2,-3.0448867E-2,-1.7957127E-2],"categories":[],"categories_nodes":[],"categories_segments":[],"categories_sizes":[],"default_left":[0,0,0,0,0,0,0,0,0,0,0,0,0,0,0,0,0,0,0],"id":3,"left_children":[1,3,-1,5,7,9,-1,-1,11,13,-1,15,17,-1,-1,-1,-1,-1,-1],"loss_changes":[4.6010385E0,1.7413927E0,0E0,3.2006736E0,2.3563247E0,1.6390028E0,0E0,0E0,6.820947E-1,4.8235372E-1,0E0,1.1351148E0,7.0948005E-2,0E0,0E0,0E0,0E0,0E0,0E0],"parents":[2147483647,0,0,1,1,3,3,4,4,5,5,8,8,9,9,11,11,12,12],"right_children":[2,4,-1,6,8,10,-1,-1,12,14,-1,16,18,-1,-1,-1,-1,-1,-1],"split_conditions":[8.79E0,3.65E0,5.016235E-2,2.34E0,4.78E0,8.4E-1,4.3421045E-2,-6.082536E-2,6.97E0,-2.6E-1,-3.4856938E-2,6.09E0,8.04E0,-8.228701E-3,2.0717828E-2,-1.584097E-2,2.3077894E-2,-3.0448867E-2,-1.7957127E-2],"split_indices":[2,2,0,2,2,2,0,0,2,2,0,2,2,0,0,0,0,0,0],"split_type":[0,0,0,0,0,0,0,0,0,0,0,0,0,0,0,0,0,0,0],"sum_hessian":[3.02E2,2.71E2,3.1E1,1.19E2,1.52E2,8.7E1,3.2E1,2.6E1,1.26E2,5E1,3.7E1,7.2E1,5.4E1,2.5E1,2.5E1,4.7E1,2.5E1,2.6E1,2.8E1],"tree_param":{"num_deleted":"0","num_feature":"14","num_nodes":"19","size_leaf_vector":"1"}},{"base_weights":[1.696216E-2,-3.3668656E-2,5.1515147E-2,8.888514E-2,-3.0610906E-2,4.519093E-2,4.8290025E-2,-3.8289864E-4,1.7125992E-1,1.5104447E-1,-1.323916E-1,4.1791886E-2,6.249034E-3,4.2546794E-2,-7.2773118E-3,-5.4596182E-2,-1.6286915E-2,1.52682075E-2,-2.0063799E-2],"categories":[],"categories_nodes":[],"categories_segments":[],"categories_sizes":[],"default_left":[0,0,0,0,0,0,0,0,0,0,0,0,0,0,0,0,0,0,0],"id":4,"left_children":[1,-1,3,5,-1,-1,7,9,11,13,15,-1,-1,-1,-1,-1,17,-1,-1],"loss_changes":[2.597514E0,0E0,2.616097E0,2.037465E0,0E0,0E0,1.2031118E0,2.9185078E0,7.814264E-1,1.8131633E0,2.0913253E0,0E0,0E0,0E0,0E0,0E0,7.4875E-1,0E0,0E0],"parents":[2147483647,0,0,2,2,3,3,6,6,7,7,8,8,9,9,10,10,16,16],"right_children":[2,-1,4,6,-1,-1,8,10,12,14,16,-1,-1,-1,-1,-1,18,-1,-1],"split_conditions":[3.05E0,-3.3668656E-2,1E0,8.4E-1,-3.0610906E-2,4.519093E-2,9.48E0,5.76E0,1.091E1,5.52E0,6.81E0,4.1791886E-2,6.249034E-3,4.2546794E-2,-7.2773118E-3,-5.4596182E-2,8.13E0,1.52682075E-2,-2.0063799E-2],"split_indices":[1,0,13,2,0,0,1,1,1,2,1,0,0,0,0,0,1,0,0],"split_type":[0,0,0,0,0,0,0,0,0,0,0,0,0,0,0,0,0,0,0],"sum_hessian":[3.09E2,3.8E1,2.71E2,2.37E2,3.4E1,3.7E1,2E2,1.44E2,5.6E1,6.7E1,7.7E1,3E1,2.6E1,4E1,2.7E1,2.5E1,5.2E1,2.6E1,2.6E1],"tree_param":{"num_deleted":"0","num_feature":"14","num_nodes":"19","size_leaf_vector":"1"}},{"base_weights":[1.6510202E-2,-1.165555E-2,3.936669E-2,-4.000128E-2,3.6732696E-2,1.8199388E-2,-1.3537319E-1,-3.538158E-2,3.7198637E-2,-3.994154E-2,-6.2577955E-2,2.168325E-2,-3.7764437E-2,1.4045796E-3,-2.3827078E-2,-2.4502823E-2,1.323709E-1,7.0652296E-3,3.2824952E-2],"categories":[],"categories_nodes":[],"categories_segments":[],"categories_sizes":[],"default_left":[0,0,0,0,0,0,0,0,0,0,0,0,0,0,0,0,0,0,0],"id":5,"left_children":[1,3,-1,5,-1,7,9,11,-1,-1,13,15,-1,-1,-1,-1,17,-1,-1],"loss_changes":[2.1573331E0,2.0459049E0,0E0,1.406793E0,0E0,1.9541416E0,8.981372E-1,1.5983206E0,0E0,0E0,4.3781173E-1,2.1311798E0,0E0,0E0,0E0,0E0,4.6890962E-1,0E0,0E0],"parents":[2147483647,0,0,1,1,3,3,5,5,6,6,7,7,10,10,11,11,16,16],"right_children":[2,4,-1,6,-1,8,10,12,-1,-1,14,16,-1,-1,-1,-1,18,-1,-1],"split_conditions":[8.77E0,1E0,3.936669E-2,5.21E0,3.6732696E-2,4.13E0,6.57E0,3.26E0,3.7198637E-2,-3.994154E-2,8.06E0,4.3E-1,-3.7764437E-2,1.4045796E-3,-2.3827078E-2,-2.4502823E-2,1.84E0,7.0652296E-3,3.2824952E-2],"split_indices":[2,11,0,2,0,2,2,2,0,0,2,2,0,0,0,0,2,0,0],"split_type":[0,0,0,0,0,0,0,0,0,0,0,0,0,0,0,0,0,0,0],"sum_hessian":[3.1E2,2.79E2,3.1E1,2.52E2,2.7E1,1.57E2,9.5E1,1.28E2,2.9E1,3.3E1,6.2E1,1.02E2,2.6E1,3.6E1,2.6E1,3.8E1,6.4E1,3.3E1,3.1E1],"tree_param":{"num_deleted":"0","num_feature":"14","num_nodes":"19","size_leaf_vector":"1"}},{"base_weights":[3.9057066E-3,-2.8179858E-2,3.9920628E-2,4.0151183E-2,-5.9766717E-2,-1.4892544E-1,9.168012E-2,-4.8436906E-2,-3.1842402E-1,2.010818E-1,-1.6094375E-2,-5.044242E-2,5.067402E-2,-6.384111E-2,-3.1182593E-2,7.583003E-3,4.909065E-2,4.38763E-2,-1.5715005E-2],"categories":[],"categories_nodes":[],"categories_segments":[],"categories_sizes":[],"default_left":[0,0,0,0,0,0,0,0,0,0,0,0,0,0,0,0,0,0,0],"id":6,"left_children":[1,3,-1,-1,5,7,9,11,13,15,-1,-1,17,-1,-1,-1,-1,-1,-1],"loss_changes":[2.6242087E0,2.6139388E0,0E0,0E0,3.4163604E0,2.69277E0,2.0677955E0,2.8984368E0,6.105585E-1,1.142154E0,0E0,0E0,2.8875575E0,0E0,0E0,0E0,0E0,0E0,0E0],"parents":[2147483647,0,0,1,1,4,4,5,5,6,6,7,7,8,8,9,9,12,12],"right_children":[2,4,-1,-1,6,8,10,12,14,16,-1,-1,18,-1,-1,-1,-1,-1,-1],"split_conditions":[1E0,4.53815E3,3.9920628E-2,4.0151183E-2,2.880544E4,1.851431E4,3.589107E4,8.97318E3,2.232072E4,3.198494E4,-1.6094375E-2,-5.044242E-2,1.37272E4,-6.384111E-2,-3.1182593E-2,7.583003E-3,4.909065E-2,4.38763E-2,-1.5715005E-2],"split_indices":[11,3,0,0,3,3,3,3,3,3,0,0,3,0,0,0,0,0,0],"split_type":[0,0,0,0,0,0,0,0,0,0,0,0,0,0,0,0,0,0,0],"sum_hessian":[3.1E2,2.77E2,3.3E1,2.6E1,2.51E2,1.58E2,9.3E1,1E2,5.8E1,6E1,3.3E1,2.5E1,7.5E1,2.8E1,3E1,2.8E1,3.2E1,2.9E1,4.6E1],"tree_param":{"num_deleted":"0","num_feature":"14","num_nodes":"19","size_leaf_vector":"1"}},{"base_weights":[1.2204101E-2,1.7087199E-1,-5.2022487E-2,1.527639E-3,4.7191393E-2,-9.559064E-2,4.276771E-2,-5.441111E-2,-5.1799938E-2,6.5358025E-3,-4.2299427E-2,1.457892E-1,-1.2136165E-1,-3.2103143E-3,5.1095586E-2,-4.3239713E-2,-2.5695246E-3],"categories":[],"categories_nodes":[],"categories_segments":[],"categories_sizes":[],"default_left":[0,0,0,0,0,0,0,0,0,0,0,0,0,0,0,0,0],"id":7,"left_children":[1,3,5,-1,-1,7,-1,-1,9,11,-1,13,15,-1,-1,-1,-1],"loss_changes":[3.2189589E0,2.0986063E0,3.3321881E0,0E0,0E0,2.3209486E0,0E0,0E0,2.3250024E0,2.4933047E0,0E0,2.1899424E0,1.2650106E0,0E0,0E0,0E0,0E0],"parents":[2147483647,0,0,1,1,2,2,5,5,8,8,9,9,11,11,12,12],"right_children":[2,4,6,-1,-1,8,-1,-1,10,12,-1,14,16,-1,-1,-1,-1],"split_conditions":[1.377453E4,6.21E0,1E0,1.527639E-3,4.7191393E-2,-3.2E0,4.276771E-2,-5.441111E-2,6.55E0,5.93E0,-4.2299427E-2,3.78E0,8.24E0,-3.2103143E-3,5.1095586E-2,-4.3239713E-2,-2.5695246E-3],"split_indices":[3,1,12,0,0,0,0,0,0,1,0,1,1,0,0,0,0],"split_type":[0,0,0,0,0,0,0,0,0,0,0,0,0,0,0,0,0],"sum_hessian":[3.14E2,9E1,2.24E2,4.3E1,4.7E1,1.99E2,2.5E1,2.7E1,1.72E2,1.38E2,3.4E1,6.6E1,7.2E1,3.6E1,3E1,2.7E1,4.5E1],"tree_param":{"num_deleted":"0","num_feature":"14","num_nodes":"17","size_leaf_vector":"1"}},{"base_weights":[-7.34808E-3,2.1159912E-2,-4.6832554E-2,-1.1598925E-1,7.887397E-2,-3.385314E-2,-4.5634814E-2,5.972326E-2,3.0000582E-2,-3.0588696E-2,1.7494421E-2,-2.8555395E-2,9.52554E-2,4.4608906E-2,4.5675375E-2,-6.1115764E-2,1.746043E-1,-3.6347855E-2,1.581997E-2,1.776181E-2,3.3612147E-2],"categories":[],"categories_nodes":[],"categories_segments":[],"categories_sizes":[],"default_left":[0,0,0,0,0,0,0,0,0,0,0,0,0,0,0,0,0,0,0,0,0],"id":8,"left_children":[1,3,-1,5,7,9,-1,-1,11,-1,-1,-1,13,-1,15,17,19,-1,-1,-1,-1],"loss_changes":[2.744335E0,2.2967093E0,0E0,1.3193928E0,3.1713424E0,1.5849445E0,0E0,0E0,2.5778084E0,0E0,0E0,0E0,1.3694487E0,0E0,1.5527393E0,1.8970414E0,1.1525655E-1,0E0,0E0,0E0,0E0],"parents":[2147483647,0,0,1,1,3,3,4,4,5,5,8,8,12,12,14,14,15,15,16,16],"right_children":[2,4,-1,6,8,10,-1,-1,12,-1,-1,-1,14,-1,16,18,20,-1,-1,-1,-1],"split_conditions":[1.123E1,4.63E0,-4.6832554E-2,3.69E0,5.4E0,2.89E0,-4.5634814E-2,5.972326E-2,6.72E0,-3.0588696E-2,1.7494421E-2,-2.8555395E-2,1.36E0,4.4608906E-2,9.48E0,5.59E0,5.51E0,-3.6347855E-2,1.581997E-2,1.776181E-2,3.3612147E-2],"split_indices":[1,1,0,1,1,1,0,0,1,0,0,0,2,0,1,2,2,0,0,0,0],"split_type":[0,0,0,0,0,0,0,0,0,0,0,0,0,0,0,0,0,0,0,0,0],"sum_hessian":[3.14E2,2.88E2,2.6E1,8.5E1,2.03E2,6E1,2.5E1,2.6E1,1.77E2,2.8E1,3.2E1,4E1,1.37E2,2.6E1,1.11E2,6.1E1,5E1,2.9E1,3.2E1,2.5E1,2.5E1],"tree_param":{"num_deleted":"0","num_feature":"14","num_nodes":"21","size_leaf_vector":"1"}},{"base_weights":[-3.996271E-2,3.666461E-2,-6.980797E-2,-1.369913E-1,4.5483284E-2,-8.114621E-2,-6.7763664E-2,1.7746858E-1,-1.8846279E-2,-4.890299E-2,-2.4280554E-2,-2.6958743E-3,6.2805414E-2,2.8824365E-2,-1.2075764E-1,-2.3943675E-1,2.3664262E-2,-5.5601712E-2,-1.8123724E-2],"categories":[],"categories_nodes":[],"categories_segments":[],"categories_sizes":[],"default_left":[0,0,0,0,0,0,0,0,0,0,0,0,0,0,0,0,0,0,0],"id":9,"left_children":[1,-1,3,5,7,9,-1,11,-1,-1,13,-1,-1,-1,15,17,-1,-1,-1],"loss_changes":[2.588865E0,0E0,2.1362848E0,3.0219417E0,2.3260698E0,2.0668945E0,0E0,2.7420545E0,0E0,0E0,2.5707834E0,0E0,0E0,0E0,2.8474002E0,8.8922E-1,0E0,0E0,0E0],"parents":[2147483647,0,0,2,2,3,3,4,4,5,5,7,7,10,10,14,14,15,15],"right_children":[2,-1,4,6,8,10,-1,12,-1,-1,14,-1,-1,-1,16,18,-1,-1,-1],"split_conditions":[5.24684E3,3.666461E-2,2.880544E4,2.375872E4,3.465592E4,8.93956E3,-6.7763664E-2,3.198494E4,-1.8846279E-2,-4.890299E-2,1.37272E4,-2.6958743E-3,6.2805414E-2,2.8824365E-2,2.05591E4,1.36E0,2.3664262E-2,-5.5601712E-2,-1.8123724E-2],"split_indices":[3,0,3,3,3,3,0,3,0,0,3,0,0,0,3,0,0,0,0],"split_type":[0,0,0,0,0,0,0,0,0,0,0,0,0,0,0,0,0,0,0],"sum_hessian":[3.02E2,2.8E1,2.74E2,1.73E2,1.01E2,1.48E2,2.5E1,5.7E1,4.4E1,2.7E1,1.21E2,3.2E1,2.5E1,3.7E1,8.4E1,5.9E1,2.5E1,2.7E1,3.2E1],"tree_param":{"num_deleted":"0","num_feature":"14","num_nodes":"19","size_leaf_vector":"1"}},{"base_weights":[3.33265E-2,8.502087E-3,4.605343E-2,-1.3030276E-1,6.533675E-2,-2.1597773E-2,-5.03584E-2,4.5790136E-2,3.4926543E-3,1.1338102E-2,-2.049625E-2,-6.3974604E-2,1.3475049E-1,1.700027E-2,-1.3913365E-1,-1.3546296E-2,5.697382E-2,-2.2627343E-1,6.0745813E-3,-2.4122259E-2,-4.2139042E-2],"categories":[],"categories_nodes":[],"categories_segments":[],"categories_sizes":[],"default_left":[0,0,0,0,0,0,0,0,0,0,0,0,0,0,0,0,0,0,0,0,0],"id":10,"left_children":[1,3,-1,5,7,9,-1,-1,11,-1,-1,13,15,-1,17,-1,-1,19,-1,-1,-1],"loss_changes":[2.1240215E0,2.2805243E0,0E0,1.868483E0,3.040786E0,6.364393E-1,0E0,0E0,1.4609401E0,0E0,0E0,1.4683495E0,3.1230574E0,0E0,1.214444E0,0E0,0E0,1.4085436E-1,0E0,0E0,0E0],"parents":[2147483647,0,0,1,1,3,3,4,4,5,5,8,8,11,11,12,12,14,14,17,17],"right_children":[2,4,-1,6,8,10,-1,-1,12,-1,-1,14,16,-1,18,-1,-1,20,-1,-1,-1],"split_conditions":[9.02E0,4.63E0,4.605343E-2,5.98E0,5.93E0,3.3E0,-5.03584E-2,4.5790136E-2,6.02E0,1.1338102E-2,-2.049625E-2,8.4E-1,9.4E0,1.700027E-2,9.98E0,-1.3546296E-2,5.697382E-2,7.58E0,6.0745813E-3,-2.4122259E-2,-4.2139042E-2],"split_indices":[2,1,0,2,1,1,0,0,2,0,0,2,1,0,1,0,0,1,0,0,0],"split_type":[0,0,0,0,0,0,0,0,0,0,0,0,0,0,0,0,0,0,0,0,0],"sum_hessian":[3.12E2,2.87E2,2.5E1,8.3E1,2.04E2,5.5E1,2.8E1,4.1E1,1.63E2,3E1,2.5E1,1.08E2,5.5E1,3.2E1,7.6E1,2.9E1,2.6E1,5.1E1,2.5E1,2.5E1,2.6E1],"tree_param":{"num_deleted":"0","num_feature":"14","num_nodes":"21","size_leaf_vector":"1"}},{"base_weights":[2.269498E-2,-3.8870864E-2,8.332604E-2,-1.1164108E-1,2.016119E-2,1.4301963E-2,1.965639E-1,1.2002933E-2,-7.0463136E-2,-1.14406206E-1,2.7238395E-2,6.8357304E-2,-3.2138366E-3,-2.9489277E-2,1.3612866E-1,2.1484515E-2,-5.3882018E-2,4.8037723E-2,-9.046721E-3],"categories":[],"categories_nodes":[],"categories_segments":[],"categories_sizes":[],"default_left":[0,0,0,0,0,0,0,0,0,0,0,0,0,0,0,0,0,0,0],"id":11,"left_children":[1,3,5,7,-1,9,11,13,-1,15,-1,-1,-1,-1,17,-1,-1,-1,-1],"loss_changes":[1.1566751E0,1.9568737E0,1.2165064E0,4.832E0,0E0,2.1308372E0,3.342809E0,2.1499383E0,0E0,3.5834389E0,0E0,0E0,0E0,0E0,1.9001081E0,0E0,0E0,0E0,0E0],"parents":[2147483647,0,0,1,1,2,2,3,3,5,5,6,6,7,7,9,9,14,14],"right_children":[2,4,6,8,-1,10,12,14,-1,16,-1,-1,-1,-1,18,-1,-1,-1,-1],"split_conditions":[6.72E0,3.073683E4,2.330458E4,2.402681E4,2.016119E-2,5.59E0,3.167437E4,1.089902E4,-7.0463136E-2,1.37272E4,2.7238395E-2,6.8357304E-2,-3.2138366E-3,-2.9489277E-2,1.833025E4,2.1484515E-2,-5.3882018E-2,4.8037723E-2,-9.046721E-3],"split_indices":[1,3,3,3,0,2,3,3,0,3,0,0,0,0,3,0,0,0,0],"split_type":[0,0,0,0,0,0,0,0,0,0,0,0,0,0,0,0,0,0,0],"sum_hessian":[3.08E2,1.53E2,1.55E2,1.08E2,4.5E1,9.7E1,5.8E1,8.1E1,2.7E1,5.5E1,4.2E1,2.6E1,3.2E1,3E1,5.1E1,2.7E1,2.8E1,2.6E1,2.5E1],"tree_param":{"num_deleted":"0","num_feature":"14","num_nodes":"19","size_leaf_vector":"1"}},{"base_weights":[-2.2845047E-2,7.487347E-3,-1.558091E-1,-1.7563127E-2,3.2951277E-2,-4.548024E-2,-1.2204107E-3,1.2697474E-2,-3.400422E-2,-5.9120692E-2,1.4794463E-1,9.731789E-3,-2.820847E-2,4.285876E-2,-5.1913504E-3,-2.8714161E-2,1.1361203E-1,4.8000913E-2,-2.0281646E-2],"categories":[],"categories_nodes":[],"categories_segments":[],"categories_sizes":[],"default_left":[0,0,0,0,0,0,0,0,0,0,0,0,0,0,0,0,0,0,0],"id":12,"left_children":[1,3,5,7,-1,-1,-1,9,-1,11,13,15,-1,-1,-1,-1,17,-1,-1],"loss_changes":[1.2594993E0,1.3592865E0,1.2599549E0,1.4520934E0,0E0,0E0,0E0,1.9611002E0,0E0,1.1736664E0,1.770551E0,1.839744E0,0E0,0E0,0E0,0E0,3.0218923E0,0E0,0E0],"parents":[2147483647,0,0,1,1,2,2,3,3,7,7,9,9,10,10,11,11,16,16],"right_children":[2,4,6,8,-1,-1,-1,10,-1,12,14,16,-1,-1,-1,-1,18,-1,-1],"split_conditions":[6.91E0,5.07E0,8.17E0,4.18E0,3.2951277E-2,-4.548024E-2,-1.2204107E-3,1.36E0,-3.400422E-2,-8.1E-1,3E0,-3.2E0,-2.820847E-2,4.285876E-2,-5.1913504E-3,-2.8714161E-2,2.126847E4,4.8000913E-2,-2.0281646E-2],"split_indices":[0,0,0,0,0,0,0,0,0,0,0,0,0,0,0,0,3,0,0],"split_type":[0,0,0,0,0,0,0,0,0,0,0,0,0,0,0,0,0,0,0],"sum_hessian":[3.11E2,2.54E2,5.7E1,2.28E2,2.6E1,2.8E1,2.9E1,2E2,2.8E1,1.31E2,6.9E1,8.6E1,4.5E1,3.9E1,3E1,2.9E1,5.7E1,3.1E1,2.6E1],"tree_param":{"num_deleted":"0","num_feature":"14","num_nodes":"19","size_leaf_vector":"1"}},{"base_weights":[-1.5854217E-2,1.978534E-2,-4.701752E-2,1.8823592E-3,2.1450955E-2,2.7335836E-2,-1.6991934E-2,-2.2176594E-2,3.0338796E-2,3.779259E-2,-1.2141054E-1,-1.9513201E-2,2.9585408E-2,-9.835073E-3,-2.4971917E-2,1.8094115E-2,-1.4940652E-2],"categories":[],"categories_nodes":[],"categories_segments":[],"categories_sizes":[],"default_left":[0,0,0,0,0,0,0,0,0,0,0,0,0,0,0,0,0],"id":13,"left_children":[1,3,-1,5,-1,7,-1,9,-1,11,13,15,-1,-1,-1,-1,-1],"loss_changes":[3.272907E0,6.0859334E-1,0E0,7.1246415E-1,0E0,1.7279949E0,0E0,9.3294114E-1,0E0,8.992779E-1,1.3757557E-1,8.313687E-1,0E0,0E0,0E0,0E0,0E0],"parents":[2147483647,0,0,1,1,3,3,5,5,7,7,9,9,10,10,11,11],"right_children":[2,4,-1,6,-1,8,-1,10,-1,12,14,16,-1,-1,-1,-1,-1],"split_conditions":[1E0,1E0,-4.701752E-2,3.435307E4,2.1450955E-2,2.823414E4,-1.6991934E-2,1.812473E4,3.0338796E-2,1.401066E4,2.174367E4,5.8889E3,2.9585408E-2,-9.835073E-3,-2.4971917E-2,1.8094115E-2,-1.4940652E-2],"split_indices":[13,10,0,3,0,3,0,3,0,3,3,3,0,0,0,0,0],"split_type":[0,0,0,0,0,0,0,0,0,0,0,0,0,0,0,0,0],"sum_hessian":[3.07E2,2.75E2,3.2E1,2.41E2,3.4E1,1.98E2,4.3E1,1.55E2,4.3E1,9.7E1,5.8E1,7.2E1,2.5E1,2.7E1,3.1E1,2.6E1,4.6E1],"tree_param":{"num_deleted":"0","num_feature":"14","num_nodes":"17","size_leaf_vector":"1"}},{"base_weights":[-2.775627E-3,1.7284542E-2,-3.3152416E-2,7.8445785E-2,-6.644653E-2,1.6055207E-1,-3.136317E-2,-1.9141544E-1,8.472428E-2,4.7702444E-4,2.5817636E-1,-3.6303714E-2,1.6716044E-2,-7.035842E-2,5.830801E-3,-1.4045278E-2,3.5471752E-2,2.0767102E-2,5.722693E-2],"categories":[],"categories_nodes":[],"categories_segments":[],"categories_sizes":[],"default_left":[0,0,0,0,0,0,0,0,0,0,0,0,0,0,0,0,0,0,0],"id":14,"left_children":[1,3,-1,5,7,9,11,13,15,-1,17,-1,-1,-1,-1,-1,-1,-1,-1],"loss_changes":[1.3522258E0,1.4544828E0,0E0,1.4836601E0,2.2832155E0,1.4433308E0,2.1628788E0,4.2380857E0,1.5108149E0,0E0,8.0366397E-1,0E0,0E0,0E0,0E0,0E0,0E0,0E0,0E0],"parents":[2147483647,0,0,1,1,3,3,4,4,5,5,6,6,7,7,8,8,10,10],"right_children":[2,4,-1,6,8,10,12,14,16,-1,18,-1,-1,-1,-1,-1,-1,-1,-1],"split_conditions":[1.137E1,5.62E0,-3.3152416E-2,2.98E0,6.62E0,4.91E0,5.07E0,7.87E0,1.2E0,4.7702444E-4,-3.2E-1,-3.6303714E-2,1.6716044E-2,-7.035842E-2,5.830801E-3,-1.4045278E-2,3.5471752E-2,2.0767102E-2,5.722693E-2],"split_indices":[1,2,0,0,1,1,0,2,0,0,0,0,0,0,0,0,0,0,0],"split_type":[0,0,0,0,0,0,0,0,0,0,0,0,0,0,0,0,0,0,0],"sum_hessian":[3.07E2,2.82E2,2.5E1,1.63E2,1.19E2,9.3E1,7E1,6.5E1,5.4E1,3.6E1,5.7E1,2.8E1,4.2E1,2.9E1,3.6E1,2.5E1,2.9E1,3E1,2.7E1],"tree_param":{"num_deleted":"0","num_feature":"14","num_nodes":"19","size_leaf_vector":"1"}},{"base_weights":[-1.9814713E-2,-3.999356E-2,2.9971547E-2,-1.3296671E-2,-4.5351584E-2,4.2292017E-2,-4.6326984E-2,-3.836427E-2,-1.9797364E-2,-1.259797E-1,5.5214755E-2,-2.7418163E-1,3.1203581E-2,1.381624E-1,-2.2016373E-2,-2.5729742E-2,-6.0272846E-2,5.6201955E-3,5.2350275E-2],"categories":[],"categories_nodes":[],"categories_segments":[],"categories_sizes":[],"default_left":[0,0,0,0,0,0,0,0,0,0,0,0,0,0,0,0,0,0,0],"id":15,"left_children":[1,3,-1,5,-1,-1,7,-1,9,11,13,15,-1,17,-1,-1,-1,-1,-1],"loss_changes":[1.3685478E0,1.9710903E0,0E0,2.5193214E0,0E0,0E0,1.2839807E0,0E0,1.6557032E0,4.3140345E0,2.0643454E0,7.171936E-1,0E0,1.8339647E0,0E0,0E0,0E0,0E0,0E0],"parents":[2147483647,0,0,1,1,3,3,6,6,8,8,9,9,10,10,11,11,13,13],"right_children":[2,4,-1,6,-1,-1,8,-1,10,12,14,16,-1,18,-1,-1,-1,-1,-1],"split_conditions":[9.02E0,8.28E0,2.9971547E-2,5.24684E3,-4.5351584E-2,4.2292017E-2,2.86E0,-3.836427E-2,1.979283E4,5.67E0,3.465592E4,3.15E0,3.1203581E-2,3.076123E4,-2.2016373E-2,-2.5729742E-2,-6.0272846E-2,5.6201955E-3,5.2350275E-2],"split_indices":[2,2,0,3,0,0,1,0,3,2,3,2,0,3,0,0,0,0,0],"split_type":[0,0,0,0,0,0,0,0,0,0,0,0,0,0,0,0,0,0,0],"sum_hessian":[3.06E2,2.81E2,2.5E1,2.56E2,2.5E1,2.5E1,2.31E2,2.5E1,2.06E2,8.5E1,1.21E2,5.9E1,2.6E1,8.6E1,3.5E1,3.4E1,2.5E1,5.9E1,2.7E1],"tree_param":{"num_deleted":"0","num_feature":"14","num_nodes":"19","size_leaf_vector":"1"}},{"base_weights":[3.4377467E-2,8.7764665E-2,-7.067412E-2,4.3101307E-2,5.684422E-2,-3.3000432E-2,4.694954E-2,3.003315E-2,1.8581355E-3,-1.8701434E-2,3.6212478E-2,1.07119165E-1,-9.096222E-2,5.3402055E-2,-1.3829314E-2,-3.417866E-2,2.488754E-2],"categories":[],"categories_nodes":[],"categories_segments":[],"categories_sizes":[],"default_left":[0,0,0,0,0,0,0,0,0,0,0,0,0,0,0,0,0],"id":16,"left_children":[1,3,5,7,-1,-1,9,-1,11,-1,-1,13,15,-1,-1,-1,-1],"loss_changes":[1.7279845E0,2.6368546E0,1.8370467E0,1.1530883E0,0E0,0E0,1.9992558E0,0E0,1.3971359E0,0E0,0E0,3.3565793E0,2.7103908E0,0E0,0E0,0E0,0E0],"parents":[2147483647,0,0,1,1,2,2,3,3,6,6,8,8,11,11,12,12],"right_children":[2,4,6,8,-1,-1,10,-1,12,-1,-1,14,16,-1,-1,-1,-1],"split_conditions":[4.42E0,3.63E0,5.8E0,1.088093E4,5.684422E-2,-3.3000432E-2,5.51E0,3.003315E-2,5.93E0,-1.8701434E-2,3.6212478E-2,2.565645E4,2.748016E4,5.3402055E-2,-1.3829314E-2,-3.417866E-2,2.488754E-2],"split_indices":[0,0,1,3,0,0,2,0,1,0,0,3,3,0,0,0,0],"split_type":[0,0,0,0,0,0,0,0,0,0,0,0,0,0,0,0,0],"sum_hessian":[3.06E2,2.03E2,1.03E2,1.77E2,2.6E1,4.5E1,5.8E1,3.6E1,1.41E2,3.1E1,2.7E1,6.6E1,7.5E1,2.9E1,3.7E1,4.9E1,2.6E1],"tree_param":{"num_deleted":"0","num_feature":"14","num_nodes":"17","size_leaf_vector":"1"}},{"base_weights":[1.6745467E-2,-3.4445047E-2,1.4369394E-1,-6.919374E-2,2.2630936E-2,2.2599532E-1,-8.964151E-3,-1.2571869E-2,-3.9567895E-2,1.971668E-2,5.082542E-2,-1.11777045E-1,3.0765405E-2,1.4559239E-2,-2.0726857E-1,-4.609177E-3,-5.5299703E-2],"categories":[],"categories_nodes":[],"categories_segments":[],"categories_sizes":[],"default_left":[0,0,0,0,0,0,0,0,0,0,0,0,0,0,0,0,0],"id":17,"left_children":[1,3,5,7,-1,9,-1,11,-1,-1,-1,13,-1,-1,15,-1,-1],"loss_changes":[2.0584939E0,1.4657793E0,1.537266E0,2.1011555E0,0E0,6.489594E-1,0E0,3.2404978E0,0E0,0E0,0E0,2.0741765E0,0E0,0E0,2.0116737E0,0E0,0E0],"parents":[2147483647,0,0,1,1,2,2,3,3,5,5,7,7,11,11,14,14],"right_children":[2,4,6,8,-1,10,-1,12,-1,-1,-1,14,-1,-1,16,-1,-1],"split_conditions":[3.073683E4,7.35E0,3.747659E4,4.42E0,2.2630936E-2,3.15E0,-8.964151E-3,1.56E0,-3.9567895E-2,1.971668E-2,5.082542E-2,-2.51E0,3.0765405E-2,1.4559239E-2,4.29E0,-4.609177E-3,-5.5299703E-2],"split_indices":[3,0,3,0,0,0,0,0,0,0,0,0,0,0,2,0,0],"split_type":[0,0,0,0,0,0,0,0,0,0,0,0,0,0,0,0,0],"sum_hessian":[3.15E2,2.25E2,9E1,1.9E2,3.5E1,6.4E1,2.6E1,1.48E2,4.2E1,3.6E1,2.8E1,1.02E2,4.6E1,3.2E1,7E1,3.4E1,3.6E1],"tree_param":{"num_deleted":"0","num_feature":"14","num_nodes":"17","size_leaf_vector":"1"}},{"base_weights":[-7.1892687E-3,-3.3668213E-2,8.0438204E-2,-1.15741335E-1,4.400781E-2,2.9307516E-2,-2.4603852E-3,-1.2538317E-2,-5.313366E-2,4.0891837E-2,-8.227472E-2,-2.3595456E-2,1.7409125E-2,5.5015055E-3,-2.4986126E-2],"categories":[],"categories_nodes":[],"categories_segments":[],"categories_sizes":[],"default_left":[0,0,0,0,0,0,0,0,0,0,0,0,0,0,0],"id":18,"left_children":[1,3,5,7,9,-1,-1,11,-1,-1,13,-1,-1,-1,-1],"loss_changes":[7.1967566E-1,1.5223707E0,8.046644E-1,2.8505707E0,3.5732849E0,0E0,0E0,1.5448195E0,0E0,0E0,8.083126E-1,0E0,0E0,0E0,0E0],"parents":[2147483647,0,0,1,1,2,2,3,3,4,4,7,7,10,10],"right_children":[2,4,6,8,10,-1,-1,12,-1,-1,14,-1,-1,-1,-1],"split_conditions":[3.198494E4,6.7E0,5.76E0,5.15E0,8.67E0,2.9307516E-2,-2.4603852E-3,3.28E0,-5.313366E-2,4.0891837E-2,1.37272E4,-2.3595456E-2,1.7409125E-2,5.5015055E-3,-2.4986126E-2],"split_indices":[3,1,1,1,1,0,0,1,0,0,3,0,0,0,0],"split_type":[0,0,0,0,0,0,0,0,0,0,0,0,0,0,0],"sum_hessian":[3.08E2,2.37E2,7.1E1,1.15E2,1.22E2,3.2E1,3.9E1,8.1E1,3.4E1,4.3E1,7.9E1,3.8E1,4.3E1,3.3E1,4.6E1],"tree_param":{"num_deleted":"0","num_feature":"14","num_nodes":"15","size_leaf_vector":"1"}},{"base_weights":[3.4863485E-3,2.1500282E-2,-2.9324079E-2,-4.544132E-2,1.0269468E-1,3.2576907E-3,-2.8377725E-2,1.5582229E-1,-7.784351E-3,-4.622664E-2,2.7305594E-2,3.8360693E-2,8.121942E-2,-1.19487695E-1,1.8314917E-2,2.5282723E-3,2.1417454E-2,-3.367852E-2,-3.0061614E-3],"categories":[],"categories_nodes":[],"categories_segments":[],"categories_sizes":[],"default_left":[0,0,0,0,0,0,0,0,0,0,0,0,0,0,0,0,0,0,0],"id":19,"left_children":[1,3,-1,5,7,9,-1,11,-1,13,-1,-1,15,17,-1,-1,-1,-1,-1],"loss_changes":[1.122541E0,1.564593E0,0E0,1.1066427E0,1.0757784E0,1.0611827E0,0E0,7.022667E-1,0E0,1.1737735E0,0E0,0E0,2.2345567E-1,6.849E-1,0E0,0E0,0E0,0E0,0E0],"parents":[2147483647,0,0,1,1,3,3,4,4,5,5,7,7,9,9,12,12,13,13],"right_children":[2,4,-1,6,8,10,-1,12,-1,14,-1,-1,16,18,-1,-1,-1,-1,-1],"split_conditions":[1.118E1,6.72E0,-2.9324079E-2,5.4E0,7.08E0,4.63E0,-2.8377725E-2,1.64E0,-7.784351E-3,7.04E0,2.7305594E-2,3.8360693E-2,4.6E0,3.05E0,1.8314917E-2,2.5282723E-3,2.1417454E-2,-3.367852E-2,-3.0061614E-3],"split_indices":[1,1,0,1,2,1,0,0,0,2,0,0,0,1,0,0,0,0,0],"split_type":[0,0,0,0,0,0,0,0,0,0,0,0,0,0,0,0,0,0,0],"sum_hessian":[3.11E2,2.86E2,2.5E1,1.57E2,1.29E2,1.18E2,3.9E1,9.6E1,3.3E1,9.3E1,2.5E1,4E1,5.6E1,6.5E1,2.8E1,2.8E1,2.8E1,3.1E1,3.4E1],"tree_param":{"num_deleted":"0","num_feature":"14","num_nodes":"19","size_leaf_vector":"1"}},{"base_weights":[-1.2680859E-2,3.614779E-2,-7.4064545E-2,-4.3020286E-3,2.9710498E-2,-1.7819737E-1,-9.77599E-3,1.3180223E-2,-5.4347757E-2,-2.0118147E-2,-3.282158E-2,2.8811099E-2,-1.0882469E-1,-3.034796E-2,3.8853614E-3,-2.6805121E-2,-5.2981637E-3,7.830321E-3,-9.791605E-3],"categories":[],"categories_nodes":[],"categories_segments":[],"categories_sizes":[],"default_left":[0,0,0,0,0,0,0,0,0,0,0,0,0,0,0,0,0,0,0],"id":20,"left_children":[1,3,5,7,-1,9,11,-1,13,-1,-1,-1,15,-1,17,-1,-1,-1,-1],"loss_changes":[9.4082665E-1,1.1470535E0,9.288002E-1,6.551694E-1,0E0,6.552732E-2,1.7602916E0,0E0,7.935381E-1,0E0,0E0,0E0,2.9672068E-1,0E0,2.2730285E-1,0E0,0E0,0E0,0E0],"parents":[2147483647,0,0,1,1,2,2,3,3,5,5,6,6,8,8,12,12,14,14],"right_children":[2,4,6,8,-1,10,12,-1,14,-1,-1,-1,16,-1,18,-1,-1,-1,-1],"split_conditions":[3.1E0,1.63E0,5.07E0,-2.51E0,2.9710498E-2,4.15E0,6.91E0,1.3180223E-2,-1.48E0,-2.0118147E-2,-3.282158E-2,2.8811099E-2,8.45E0,-3.034796E-2,7E-1,-2.6805121E-2,-5.2981637E-3,7.830321E-3,-9.791605E-3],"split_indices":[0,0,0,0,0,0,0,0,0,0,0,0,0,0,0,0,0,0,0],"split_type":[0,0,0,0,0,0,0,0,0,0,0,0,0,0,0,0,0,0,0],"sum_hessian":[3.12E2,1.74E2,1.38E2,1.4E2,3.4E1,5.2E1,8.6E1,4.9E1,9.1E1,2.7E1,2.5E1,2.8E1,5.8E1,2.5E1,6.6E1,2.9E1,2.9E1,3.9E1,2.7E1],"tree_param":{"num_deleted":"0","num_feature":"14","num_nodes":"19","size_leaf_vector":"1"}},{"base_weights":[1.1953796E-2,-4.808411E-3,2.9575158E-2,1.7597096E-2,-3.330701E-2,-1.021667E-2,2.4529725E-2,2.1292936E-2,-5.1026687E-2,5.999228E-2,-1.3685936E-1,-5.0013483E-2,4.165446E-2,-4.765696E-2,-6.462654E-2,7.387329E-4,-1.5159713E-2,3.2121543E-2,-3.4027137E-2],"categories":[],"categories_nodes":[],"categories_segments":[],"categories_sizes":[],"default_left":[0,0,0,0,0,0,0,0,0,0,0,0,0,0,0,0,0,0,0],"id":21,"left_children":[1,3,-1,5,-1,7,-1,-1,9,11,13,15,-1,-1,17,-1,-1,-1,-1],"loss_changes":[9.72686E-1,1.4056996E0,0E0,1.0651249E0,0E0,1.3796629E0,0E0,0E0,1.6757948E0,1.8579392E0,1.2727611E0,1.4634073E-1,0E0,0E0,3.3045893E0,0E0,0E0,0E0,0E0],"parents":[2147483647,0,0,1,1,3,3,5,5,8,8,9,9,10,10,11,11,14,14],"right_children":[2,4,-1,6,-1,8,-1,-1,10,12,14,16,-1,-1,18,-1,-1,-1,-1],"split_conditions":[8.98E0,8.28E0,2.9575158E-2,1.053E1,-3.330701E-2,8.4E-1,2.4529725E-2,2.1292936E-2,1.851431E4,1.236833E4,3.61E0,4.37E0,4.165446E-2,-4.765696E-2,5.76E0,7.387329E-4,-1.5159713E-2,3.2121543E-2,-3.4027137E-2],"split_indices":[2,2,0,1,0,2,0,0,3,3,1,2,0,0,1,0,0,0,0],"split_type":[0,0,0,0,0,0,0,0,0,0,0,0,0,0,0,0,0,0,0],"sum_hessian":[3.12E2,2.87E2,2.5E1,2.61E2,2.6E1,2.2E2,4.1E1,4.6E1,1.74E2,7.6E1,9.8E1,5.1E1,2.5E1,2.7E1,7.1E1,2.5E1,2.6E1,2.6E1,4.5E1],"tree_param":{"num_deleted":"0","num_feature":"14","num_nodes":"19","size_leaf_vector":"1"}},{"base_weights":[-1.648963E-3,1.959939E-2,-3.5665374E-2,-2.7700067E-3,3.087898E-2,-1.17618896E-1,5.4010306E-2,7.1635307E-3,-4.3801017E-2,3.3228982E-2,8.705154E-3,-5.356299E-2,1.1597754E-1,2.6858455E-2,-1.9639017E-1,4.2443024E-3,2.987986E-2,-4.599522E-2,-1.0605837E-2],"categories":[],"categories_nodes":[],"categories_segments":[],"categories_sizes":[],"default_left":[0,0,0,0,0,0,0,0,0,0,0,0,0,0,0,0,0,0,0],"id":22,"left_children":[1,3,-1,5,-1,7,9,-1,-1,-1,11,13,15,-1,17,-1,-1,-1,-1],"loss_changes":[1.5800501E0,1.2046987E0,0E0,1.6953319E0,0E0,2.4941444E0,1.3186183E0,0E0,0E0,0E0,9.280042E-1,2.958909E0,3.6651295E-1,0E0,7.40402E-1,0E0,0E0,0E0,0E0],"parents":[2147483647,0,0,1,1,3,3,5,5,6,6,10,10,11,11,12,12,14,14],"right_children":[2,4,-1,6,-1,8,10,-1,-1,-1,12,14,16,-1,18,-1,-1,-1,-1],"split_conditions":[1.123E1,8.79E0,-3.5665374E-2,4.63E0,3.087898E-2,3.13E0,5.93E0,7.1635307E-3,-4.3801017E-2,3.3228982E-2,9.56E0,3.37E0,4.21E0,2.6858455E-2,7.6E0,4.2443024E-3,2.987986E-2,-4.599522E-2,-1.0605837E-2],"split_indices":[1,2,0,1,0,1,1,0,0,0,1,2,2,0,1,0,0,0,0],"split_type":[0,0,0,0,0,0,0,0,0,0,0,0,0,0,0,0,0,0,0],"sum_hessian":[3.13E2,2.88E2,2.5E1,2.58E2,3E1,8.5E1,1.73E2,4.4E1,4.1E1,3.6E1,1.37E2,8.7E1,5E1,3.3E1,5.4E1,2.5E1,2.5E1,2.8E1,2.6E1],"tree_param":{"num_deleted":"0","num_feature":"14","num_nodes":"19","size_leaf_vector":"1"}},{"base_weights":[-3.3038682E-3,-5.5370733E-2,4.651974E-2,-4.0148214E-2,-3.979603E-3,1.9559856E-1,-3.706767E-2,3.019996E-2,-6.2599756E-2,1.4163134E-2,4.6240266E-2,-3.5733808E-2,4.0177606E-2,-1.7737505E-1,9.097973E-3,-2.4958262E-2,2.9128348E-2,-4.9837064E-3,-4.720549E-2],"categories":[],"categories_nodes":[],"categories_segments":[],"categories_sizes":[],"default_left":[0,0,0,0,0,0,0,0,0,0,0,0,0,0,0,0,0,0,0],"id":23,"left_children":[1,3,5,-1,7,9,11,-1,13,-1,-1,-1,15,17,-1,-1,-1,-1,-1],"loss_changes":[8.171417E-1,1.6790003E0,2.0134895E0,0E0,1.5170358E0,6.3207436E-1,1.6255735E0,0E0,1.3971044E0,0E0,0E0,0E0,2.4501379E0,9.991355E-1,0E0,0E0,0E0,0E0,0E0],"parents":[2147483647,0,0,1,1,2,2,4,4,5,5,6,6,8,8,12,12,13,13],"right_children":[2,4,6,-1,8,10,12,-1,14,-1,-1,-1,16,18,-1,-1,-1,-1,-1],"split_conditions":[6.72E0,1.089902E4,8.67E0,-4.0148214E-2,1.833025E4,7.66E0,2.63E0,3.019996E-2,3.073683E4,1.4163134E-2,4.6240266E-2,-3.5733808E-2,1.58469E4,5.21E0,9.097973E-3,-2.4958262E-2,2.9128348E-2,-4.9837064E-3,-4.720549E-2],"split_indices":[1,3,1,0,3,1,2,0,3,0,0,0,3,2,0,0,0,0,0],"split_type":[0,0,0,0,0,0,0,0,0,0,0,0,0,0,0,0,0,0,0],"sum_hessian":[3.13E2,1.53E2,1.6E2,2.9E1,1.24E2,5.7E1,1.03E2,2.7E1,9.7E1,3.1E1,2.6E1,2.8E1,7.5E1,5E1,4.7E1,3.2E1,4.3E1,2.5E1,2.5E1],"tree_param":{"num_deleted":"0","num_feature":"14","num_nodes":"19","size_leaf_vector":"1"}},{"base_weights":[-2.289862E-3,-2.793649E-2,3.3421874E-2,-3.3847205E-2,-1.5684192E-3,-2.1913238E-2,2.5126562E-2,9.017357E-3,-3.101849E-2,-5.988251E-2,1.03095435E-1,1.1061189E-2,-4.0968496E-2,4.1989196E-2,-6.589322E-3,3.170359E-2,-1.8203318E-2],"categories":[],"categories_nodes":[],"categories_segments":[],"categories_sizes":[],"default_left":[0,0,0,0,0,0,0,0,0,0,0,0,0,0,0,0,0],"id":24,"left_children":[1,3,-1,-1,5,7,-1,9,-1,11,13,15,-1,-1,-1,-1,-1],"loss_changes":[1.7497058E0,1.417656E0,0E0,0E0,8.326813E-1,1.2370274E0,0E0,1.2118195E0,0E0,1.6368549E0,2.066192E0,2.2004972E0,0E0,0E0,0E0,0E0,0E0],"parents":[2147483647,0,0,1,1,4,4,5,5,7,7,9,9,10,10,11,11],"right_children":[2,4,-1,-1,6,8,-1,10,-1,12,14,16,-1,-1,-1,-1,-1],"split_conditions":[1E0,4.3E-1,3.3421874E-2,-3.3847205E-2,8.98E0,8.09E0,2.5126562E-2,2.330458E4,-3.101849E-2,1.797764E4,3.161881E4,5.93E0,-4.0968496E-2,4.1989196E-2,-6.589322E-3,3.170359E-2,-1.8203318E-2],"split_indices":[11,2,0,0,2,2,0,3,0,3,3,1,0,0,0,0,0],"split_type":[0,0,0,0,0,0,0,0,0,0,0,0,0,0,0,0,0],"sum_hessian":[3.01E2,2.71E2,3E1,3.1E1,2.4E2,2.15E2,2.5E1,1.85E2,3E1,1.07E2,7.8E1,8.1E1,2.6E1,3.5E1,4.3E1,3.2E1,4.9E1],"tree_param":{"num_deleted":"0","num_feature":"14","num_nodes":"17","size_leaf_vector":"1"}},{"base_weights":[1.0320116E-2,-2.4857486E-2,2.7762337E-2,1.1928661E-1,-1.86343E-2,2.0997323E-1,-9.872152E-3,2.6221747E-2,-3.6998153E-2,8.447735E-3,5.4280248E-2,-4.0521707E-2,8.664351E-2,2.560607E-2,4.1487798E-2,9.8469146E-2,-2.0187316E-2,2.3262396E-2,-4.9545564E-4],"categories":[],"categories_nodes":[],"categories_segments":[],"categories_sizes":[],"default_left":[0,0,0,0,0,0,0,0,0,0,0,0,0,0,0,0,0,0,0],"id":25,"left_children":[1,-1,3,5,7,9,-1,11,-1,-1,-1,-1,13,15,-1,17,-1,-1,-1],"loss_changes":[9.533761E-1,0E0,1.1997129E0,1.6085064E0,1.9293464E0,1.4733443E0,0E0,2.8527095E0,0E0,0E0,0E0,0E0,1.5232676E0,1.1921042E0,0E0,4.038298E-1,0E0,0E0,0E0],"parents":[2147483647,0,0,2,2,3,3,4,4,5,5,7,7,12,12,13,13,15,15],"right_children":[2,-1,4,6,8,10,-1,12,-1,-1,-1,-1,14,16,-1,18,-1,-1,-1],"split_conditions":[-3.61E0,-2.4857486E-2,5.15E0,4.49E0,3.465592E4,4.47E0,-9.872152E-3,6.08E0,-3.6998153E-2,8.447735E-3,5.4280248E-2,-4.0521707E-2,2.444301E4,1.025E1,4.1487798E-2,6.29E0,-2.0187316E-2,2.3262396E-2,-4.9545564E-4],"split_indices":[0,0,1,0,3,2,0,1,0,0,0,0,3,1,0,2,0,0,0],"split_type":[0,0,0,0,0,0,0,0,0,0,0,0,0,0,0,0,0,0,0],"sum_hessian":[3.08E2,2.7E1,2.81E2,9.4E1,1.87E2,6.3E1,3.1E1,1.57E2,3E1,3.2E1,3.1E1,2.6E1,1.31E2,1E2,3.1E1,6.9E1,3.1E1,4.4E1,2.5E1],"tree_param":{"num_deleted":"0","num_feature":"14","num_nodes":"19","size_leaf_vector":"1"}},{"base_weights":[4.500166E-3,1.5369909E-2,-1.263328E-2,-3.5268378E-2,1.3161478E-2,-2.7244562E-2,9.846706E-2,-2.685955E-2,1.3525766E-2,3.582848E-2,1.1815426E-4,2.2032239E-2,-2.4152335E-2,-1.8269582E-2,5.6785583E-2,2.1431658E-2,-3.0044522E-3],"categories":[],"categories_nodes":[],"categories_segments":[],"categories_sizes":[],"default_left":[0,0,0,0,0,0,0,0,0,0,0,0,0,0,0,0,0],"id":26,"left_children":[1,-1,3,-1,5,7,9,-1,11,-1,-1,-1,13,-1,15,-1,-1],"loss_changes":[5.300198E-1,0E0,1.5469005E0,0E0,8.368229E-1,1.0237248E0,1.0694379E0,0E0,6.6176933E-1,0E0,0E0,0E0,8.209431E-1,0E0,3.7981364E-1,0E0,0E0],"parents":[2147483647,0,0,2,2,4,4,5,5,6,6,8,8,12,12,14,14],"right_children":[2,-1,4,-1,6,8,10,-1,12,-1,-1,-1,14,-1,16,-1,-1],"split_conditions":[3.13E0,1.5369909E-2,3.83E0,-3.5268378E-2,2.880544E4,5.57E0,6.73E0,-2.685955E-2,7.34979E3,3.582848E-2,1.1815426E-4,2.2032239E-2,1.650048E4,-1.8269582E-2,8.67E0,2.1431658E-2,-3.0044522E-3],"split_indices":[1,0,1,0,3,1,1,0,3,0,0,0,3,0,1,0,0],"split_type":[0,0,0,0,0,0,0,0,0,0,0,0,0,0,0,0,0],"sum_hessian":[3.14E2,4.6E1,2.68E2,2.7E1,2.41E2,1.64E2,7.7E1,3.4E1,1.3E2,3.1E1,4.6E1,2.8E1,1.02E2,4.6E1,5.6E1,2.6E1,3E1],"tree_param":{"num_deleted":"0","num_feature":"14","num_nodes":"17","size_leaf_vector":"1"}},{"base_weights":[-4.036293E-3,1.6028492E-2,-2.2572145E-2,-1.7244507E-2,-1.4715366E-3,2.1284053E-2,-2.3740502E-2,-5.5295512E-2,7.95695E-2,1.2629221E-2,-2.7602762E-2,1.2056763E-1,-5.0666635E-3,8.721112E-3,2.9547932E-2],"categories":[],"categories_nodes":[],"categories_segments":[],"categories_sizes":[],"default_left":[0,0,0,0,0,0,0,0,0,0,0,0,0,0,0],"id":27,"left_children":[1,-1,3,-1,5,7,-1,9,11,-1,-1,13,-1,-1,-1],"loss_changes":[6.4578164E-1,0E0,5.242493E-1,0E0,7.8833777E-1,8.658503E-1,0E0,1.5237635E0,5.1524526E-1,0E0,0E0,3.749634E-1,0E0,0E0,0E0],"parents":[2147483647,0,0,2,2,4,4,5,5,7,7,8,8,11,11],"right_children":[2,-1,4,-1,6,8,-1,10,12,-1,-1,14,-1,-1,-1],"split_conditions":[3.13E0,1.6028492E-2,4.63E0,-1.7244507E-2,1E0,7.66E0,-2.3740502E-2,5.93E0,1.099E1,1.2629221E-2,-2.7602762E-2,9.67E0,-5.0666635E-3,8.721112E-3,2.9547932E-2],"split_indices":[1,0,1,0,13,1,0,1,1,0,0,1,0,0,0],"split_type":[0,0,0,0,0,0,0,0,0,0,0,0,0,0,0],"sum_hessian":[3.12E2,4.4E1,2.68E2,4.9E1,2.19E2,1.92E2,2.7E1,8.3E1,1.09E2,4E1,4.3E1,8E1,2.9E1,4.5E1,3.5E1],"tree_param":{"num_deleted":"0","num_feature":"14","num_nodes":"15","size_leaf_vector":"1"}},{"base_weights":[5.239907E-3,6.4858966E-2,-1.8465046E-2,-5.3962143E-3,2.8578162E-2,-1.8607761E-1,3.3770964E-2,-1.851031E-2,-3.623945E-2,2.7752882E-2,-3.0409511E-2,-3.6786325E-2,4.4020243E-2,1.6000753E-2,-6.7128835E-4],"categories":[],"categories_nodes":[],"categories_segments":[],"categories_sizes":[],"default_left":[0,0,0,0,0,0,0,0,0,0,0,0,0,0,0],"id":28,"left_children":[1,3,5,-1,-1,7,9,-1,-1,-1,11,-1,13,-1,-1],"loss_changes":[4.223512E-1,1.0838872E0,1.879942E0,0E0,0E0,1.4764953E-1,1.5976045E0,0E0,0E0,0E0,1.8656287E0,0E0,2.6481062E-1,0E0,0E0],"parents":[2147483647,0,0,1,1,2,2,5,5,6,6,10,10,12,12],"right_children":[2,4,6,-1,-1,8,10,-1,-1,-1,12,-1,14,-1,-1],"split_conditions":[1.37272E4,8.02763E3,1.978042E4,-5.3962143E-3,2.8578162E-2,1.697983E4,2.565645E4,-1.851031E-2,-3.623945E-2,2.7752882E-2,3.073683E4,-3.6786325E-2,3.435307E4,1.6000753E-2,-6.7128835E-4],"split_indices":[3,3,3,0,0,3,3,0,0,0,3,0,3,0,0],"split_type":[0,0,0,0,0,0,0,0,0,0,0,0,0,0,0],"sum_hessian":[2.97E2,8.4E1,2.13E2,4.7E1,3.7E1,5E1,1.63E2,2.5E1,2.5E1,4.8E1,1.15E2,2.9E1,8.6E1,3.7E1,4.9E1],"tree_param":{"num_deleted":"0","num_feature":"14","num_nodes":"15","size_leaf_vector":"1"}},{"base_weights":[-1.1673168E-2,7.624998E-2,-5.313839E-2,8.172963E-4,3.858918E-2,-2.3270337E-2,-4.057649E-2,1.7024428E-2,-2.3325838E-2,1.16378805E-2,-2.9562633E-2,-5.822683E-2,2.6380291E-2,4.4773903E-2,-1.4995705E-1,-1.956365E-2,3.576979E-2,-7.009074E-3,-4.1159444E-2],"categories":[],"categories_nodes":[],"categories_segments":[],"categories_sizes":[],"default_left":[0,0,0,0,0,0,0,0,0,0,0,0,0,0,0,0,0,0,0],"id":29,"left_children":[1,3,5,7,-1,9,-1,-1,-1,11,-1,13,-1,15,17,-1,-1,-1,-1],"loss_changes":[1.1597553E0,1.392514E0,1.3960776E0,1.3034923E0,0E0,1.1611924E0,0E0,0E0,0E0,1.8460693E0,0E0,1.0743697E0,0E0,1.8635583E0,7.579292E-1,0E0,0E0,0E0,0E0],"parents":[2147483647,0,0,1,1,2,2,3,3,5,5,9,9,11,11,13,13,14,14],"right_children":[2,4,6,8,-1,10,-1,-1,-1,12,-1,14,-1,16,18,-1,-1,-1,-1],"split_conditions":[1.487834E4,1.050545E4,1E0,5.17E0,3.858918E-2,7.34E0,-4.057649E-2,1.7024428E-2,-2.3325838E-2,3.63E0,-2.9562633E-2,2.565645E4,2.6380291E-2,1.978042E4,-1.6E-1,-1.956365E-2,3.576979E-2,-7.009074E-3,-4.1159444E-2],"split_indices":[3,3,13,2,0,0,0,0,0,0,0,3,0,3,0,0,0,0,0],"split_type":[0,0,0,0,0,0,0,0,0,0,0,0,0,0,0,0,0,0,0],"sum_hessian":[3.16E2,1.01E2,2.15E2,7.2E1,2.9E1,1.9E2,2.5E1,4.2E1,3E1,1.59E2,3.1E1,1.12E2,4.7E1,5.3E1,5.9E1,2.8E1,2.5E1,3.3E1,2.6E1],"tree_param":{"num_deleted":"0","num_feature":"14","num_nodes":"19","size_leaf_vector":"1"}},{"base_weights":[5.398292E-3,-1.0552918E-1,3.898931E-2,-4.4332584E-3,-3.494461E-2,-1.8049268E-2,6.2457345E-2,1.0425528E-1,-2.9298445E-2,-2.6467658E-4,1.32222E-1,7.85289E-3,-1.6138107E-2,6.82029E-2,1.9978587E-1,3.4886114E-2,-1.5628213E-2,3.806197E-2,2.009856E-2],"categories":[],"categories_nodes":[],"categories_segments":[],"categories_sizes":[],"default_left":[0,0,0,0,0,0,0,0,0,0,0,0,0,0,0,0,0,0,0],"id":30,"left_children":[1,3,5,-1,-1,-1,7,9,11,-1,13,-1,-1,15,17,-1,-1,-1,-1],"loss_changes":[1.1219645E0,6.708374E-1,8.7119555E-1,0E0,0E0,0E0,7.7776533E-1,4.1237187E-1,4.1474432E-1,0E0,4.621656E-1,0E0,0E0,1.6677258E0,1.541698E-1,0E0,0E0,0E0,0E0],"parents":[2147483647,0,0,1,1,2,2,6,6,7,7,8,8,10,10,13,13,14,14],"right_children":[2,4,6,-1,-1,-1,8,10,12,-1,14,-1,-1,16,18,-1,-1,-1,-1],"split_conditions":[-1.51E0,-2.57E0,2.8E-1,-4.4332584E-3,-3.494461E-2,-1.8049268E-2,6.48E0,3.7E-1,5.52E0,-2.6467658E-4,5.33E0,7.85289E-3,-1.6138107E-2,3.31E0,8.14E0,3.4886114E-2,-1.5628213E-2,3.806197E-2,2.009856E-2],"split_indices":[0,0,2,0,0,0,0,0,2,0,2,0,0,2,2,0,0,0,0],"split_type":[0,0,0,0,0,0,0,0,0,0,0,0,0,0,0,0,0,0,0],"sum_hessian":[2.99E2,6.9E1,2.3E2,4.4E1,2.5E1,2.9E1,2.01E2,1.38E2,6.3E1,2.9E1,1.09E2,3.1E1,3.2E1,5.7E1,5.2E1,2.9E1,2.8E1,2.7E1,2.5E1],"tree_param":{"num_deleted":"0","num_feature":"14","num_nodes":"19","size_leaf_vector":"1"}},{"base_weights":[3.252705E-2,9.732225E-2,-1.52464155E-2,-7.88689E-3,1.4479221E-1,-2.9692708E-2,1.7523652E-2,5.355267E-3,2.3141544E-1,1.7374715E-2,-2.5303531E-2,4.5182645E-2,2.3002263E-2,-2.0238712E-2,4.8743587E-2,2.9569091E-2,-9.729623E-3],"categories":[],"categories_nodes":[],"categories_segments":[],"categories_sizes":[],"default_left":[0,0,0,0,0,0,0,0,0,0,0,0,0,0,0,0,0],"id":31,"left_children":[1,3,5,-1,7,-1,9,-1,11,-1,13,-1,-1,-1,15,-1,-1],"loss_changes":[9.4870424E-1,9.3266976E-1,1.0632128E0,0E0,9.272647E-1,0E0,6.3867795E-1,0E0,2.535174E-1,0E0,8.6699307E-1,0E0,0E0,0E0,1.0916687E0,0E0,0E0],"parents":[2147483647,0,0,1,1,2,2,4,4,6,6,8,8,10,10,14,14],"right_children":[2,4,6,-1,8,-1,10,-1,12,-1,14,-1,-1,-1,16,-1,-1],"split_conditions":[5.93E0,1.143643E4,6.86E0,-7.88689E-3,3.61E0,-2.9692708E-2,1.37272E4,5.355267E-3,2.559732E4,1.7374715E-2,2.118626E4,4.5182645E-2,2.3002263E-2,-2.0238712E-2,3.167437E4,2.9569091E-2,-9.729623E-3],"split_indices":[1,3,1,0,1,0,3,0,3,0,3,0,0,0,3,0,0],"split_type":[0,0,0,0,0,0,0,0,0,0,0,0,0,0,0,0,0],"sum_hessian":[3.05E2,1.29E2,1.76E2,3.1E1,9.8E1,2.6E1,1.5E2,4.4E1,5.4E1,4.5E1,1.05E2,2.7E1,2.7E1,4.2E1,6.3E1,2.7E1,3.6E1],"tree_param":{"num_deleted":"0","num_feature":"14","num_nodes":"17","size_leaf_vector":"1"}},{"base_weights":[-1.1021345E-2,2.6007516E-2,-3.176054E-2,-7.2332166E-2,3.8093302E-2,-1.8659249E-1,2.0942014E-2,1.6486415E-1,-1.9213216E-2,-9.386876E-3,-4.985647E-2,1.5797762E-2,-4.7234416E-2,3.7428856E-2,6.683364E-3,1.154732E-2,-2.902831E-2],"categories":[],"categories_nodes":[],"categories_segments":[],"categories_sizes":[],"default_left":[0,0,0,0,0,0,0,0,0,0,0,0,0,0,0,0,0],"id":32,"left_children":[1,-1,3,5,7,9,11,13,-1,-1,-1,-1,15,-1,-1,-1,-1],"loss_changes":[1.2101948E0,0E0,8.076353E-1,1.9222648E0,2.2331476E0,1.4436116E0,5.8022285E-1,6.000122E-1,0E0,0E0,0E0,0E0,1.032493E0,0E0,0E0,0E0,0E0],"parents":[2147483647,0,0,2,2,3,3,4,4,5,5,6,6,7,7,12,12],"right_children":[2,-1,4,6,8,10,12,14,-1,-1,-1,-1,16,-1,-1,-1,-1],"split_conditions":[5.24684E3,2.6007516E-2,5.82E0,2.091191E4,2.375872E4,3.23E0,1.57E0,8.28E0,-1.9213216E-2,-9.386876E-3,-4.985647E-2,1.5797762E-2,3.287284E4,3.7428856E-2,6.683364E-3,1.154732E-2,-2.902831E-2],"split_indices":[3,0,2,3,3,0,0,2,0,0,0,0,3,0,0,0,0],"split_type":[0,0,0,0,0,0,0,0,0,0,0,0,0,0,0,0,0],"sum_hessian":[3.14E2,3.1E1,2.83E2,1.79E2,1.04E2,8E1,9.9E1,5.9E1,4.5E1,4.4E1,3.6E1,4.4E1,5.5E1,3.4E1,2.5E1,3E1,2.5E1],"tree_param":{"num_deleted":"0","num_feature":"14","num_nodes":"17","size_leaf_vector":"1"}},{"base_weights":[-2.0823595E-3,-2.0668285E-2,2.360537E-2,3.0889738E-2,-8.7028086E-2,-4.8658483E-2,1.23995215E-1,-2.738026E-2,-4.2704836E-2,1.0097273E-2,-1.04837745E-1,-1.3151932E-2,3.506729E-2,5.578603E-3,-2.1690631E-2,-3.7408106E-2,5.0651906E-3],"categories":[],"categories_nodes":[],"categories_segments":[],"categories_sizes":[],"default_left":[0,0,0,0,0,0,0,0,0,0,0,0,0,0,0,0,0],"id":33,"left_children":[1,3,-1,5,7,9,11,-1,13,-1,15,-1,-1,-1,-1,-1,-1],"loss_changes":[9.36772E-1,9.7093886E-1,0E0,1.1910535E0,5.1711905E-1,5.7388943E-1,1.7401897E0,0E0,7.0553005E-1,0E0,1.1905096E0,0E0,0E0,0E0,0E0,0E0,0E0],"parents":[2147483647,0,0,1,1,3,3,4,4,5,5,6,6,8,8,10,10],"right_children":[2,4,-1,6,8,10,12,-1,14,-1,16,-1,-1,-1,-1,-1,-1],"split_conditions":[1E0,5.21E0,2.360537E-2,2.34E0,6.94E0,-5.4E-1,-7.4E-1,-2.738026E-2,8.49E0,1.0097273E-2,3.63E0,-1.3151932E-2,3.506729E-2,5.578603E-3,-2.1690631E-2,-3.7408106E-2,5.0651906E-3],"split_indices":[11,2,0,2,2,0,0,0,2,0,0,0,0,0,0,0,0],"split_type":[0,0,0,0,0,0,0,0,0,0,0,0,0,0,0,0,0],"sum_hessian":[3.14E2,2.82E2,3.2E1,1.59E2,1.23E2,8.6E1,7.3E1,3.8E1,8.5E1,2.8E1,5.8E1,2.5E1,4.8E1,4.8E1,3.7E1,2.8E1,3E1],"tree_param":{"num_deleted":"0","num_feature":"14","num_nodes":"17","size_leaf_vector":"1"}},{"base_weights":[-1.349208E-2,2.118017E-2,-1.4438571E-1,8.07828E-2,-4.3188307E-2,-4.642745E-2,6.2074345E-3,1.8360231E-2,4.4790912E-2,2.9910294E-2,-1.1127699E-1,-1.3028101E-2,1.11317E-1,-3.2635763E-2,-7.314329E-4,3.625427E-2,-3.4775937E-3],"categories":[],"categories_nodes":[],"categories_segments":[],"categories_sizes":[],"default_left":[0,0,0,0,0,0,0,0,0,0,0,0,0,0,0,0,0],"id":34,"left_children":[1,3,5,7,9,-1,-1,11,-1,-1,13,-1,15,-1,-1,-1,-1],"loss_changes":[1.3872632E0,9.319293E-1,1.976078E0,1.7077508E0,1.9547541E0,0E0,0E0,9.779255E-1,0E0,0E0,1.0394448E0,0E0,9.350105E-1,0E0,0E0,0E0,0E0],"parents":[2147483647,0,0,1,1,2,2,3,3,4,4,7,7,10,10,12,12],"right_children":[2,4,6,8,10,-1,-1,12,-1,-1,14,-1,16,-1,-1,-1,-1],"split_conditions":[6.72E0,6.94E0,6.86E0,5.6E0,9.77072E3,-4.642745E-2,6.2074345E-3,8.7E-1,4.4790912E-2,2.9910294E-2,2.118626E4,-1.3028101E-2,3.1E0,-3.2635763E-2,-7.314329E-4,3.625427E-2,-3.4775937E-3],"split_indices":[0,1,1,1,3,0,0,0,0,0,3,0,0,0,0,0,0],"split_type":[0,0,0,0,0,0,0,0,0,0,0,0,0,0,0,0,0],"sum_hessian":[3.04E2,2.41E2,6.3E1,1.25E2,1.16E2,3.3E1,3E1,9.8E1,2.7E1,2.5E1,9.1E1,4.6E1,5.2E1,4.5E1,4.6E1,2.6E1,2.6E1],"tree_param":{"num_deleted":"0","num_feature":"14","num_nodes":"17","size_leaf_vector":"1"}},{"base_weights":[1.107399E-3,-1.5176602E-2,2.0061232E-2,-2.3626586E-2,2.748619E-3,2.2435E-2,-2.2195712E-2,-3.8432326E-2,1.3571789E-2,1.6520698E-2,-6.435394E-2,-1.08456194E-1,8.006735E-3,-6.6407886E-3,-2.9297229E-2],"categories":[],"categories_nodes":[],"categories_segments":[],"categories_sizes":[],"default_left":[0,0,0,0,0,0,0,0,0,0,0,0,0,0,0],"id":35,"left_children":[1,3,-1,-1,5,-1,7,9,-1,-1,11,13,-1,-1,-1],"loss_changes":[6.715722E-1,7.071618E-1,0E0,0E0,9.0790236E-1,0E0,3.9132047E-1,7.2340775E-1,0E0,0E0,8.3135766E-1,6.380482E-1,0E0,0E0,0E0],"parents":[2147483647,0,0,1,1,4,4,6,6,7,7,10,10,11,11],"right_children":[2,4,-1,-1,6,-1,8,10,-1,-1,12,14,-1,-1,-1],"split_conditions":[1E0,4.3E-1,2.0061232E-2,-2.3626586E-2,1.66E0,2.2435E-2,1E0,3.26E0,1.3571789E-2,1.6520698E-2,8.14E0,5.59E0,8.006735E-3,-6.6407886E-3,-2.9297229E-2],"split_indices":[10,2,0,0,2,0,13,2,0,0,2,2,0,0,0],"split_type":[0,0,0,0,0,0,0,0,0,0,0,0,0,0,0],"sum_hessian":[3.09E2,2.76E2,3.3E1,3E1,2.46E2,3.5E1,2.11E2,1.85E2,2.6E1,2.7E1,1.58E2,1.15E2,4.3E1,6.7E1,4.8E1],"tree_param":{"num_deleted":"0","num_feature":"14","num_nodes":"15","size_leaf_vector":"1"}},{"base_weights":[1.6155891E-2,2.059688E-3,2.5751559E-2,-1.4980119E-2,2.1571262E-2,-1.7520372E-2,8.254257E-3,3.4882285E-2,-5.9340987E-2,-2.7959658E-2,2.8464923E-2,-2.789375E-2,5.461959E-3,1.4191504E-2,-2.0914614E-2,1.7345186E-2,-2.1238005E-2],"categories":[],"categories_nodes":[],"categories_segments":[],"categories_sizes":[],"default_left":[0,0,0,0,0,0,0,0,0,0,0,0,0,0,0,0,0],"id":36,"left_children":[1,3,-1,5,-1,-1,7,9,11,13,-1,-1,-1,15,-1,-1,-1],"loss_changes":[6.858231E-1,6.977811E-1,0E0,6.1133504E-1,0E0,0E0,3.818548E-1,1.4847525E0,7.3421866E-1,5.141301E-1,0E0,0E0,0E0,1.280582E0,0E0,0E0,0E0],"parents":[2147483647,0,0,1,1,3,3,6,6,7,7,8,8,9,9,13,13],"right_children":[2,4,-1,6,-1,-1,8,10,12,14,-1,-1,-1,16,-1,-1,-1],"split_conditions":[8.98E0,1E0,2.5751559E-2,3.32E0,2.1571262E-2,-1.7520372E-2,6.29E0,4.47E0,7.49E0,3.26E0,2.8464923E-2,-2.789375E-2,5.461959E-3,8.14E0,-2.0914614E-2,1.7345186E-2,-2.1238005E-2],"split_indices":[2,11,0,1,0,0,2,2,1,2,0,0,0,1,0,0,0],"split_type":[0,0,0,0,0,0,0,0,0,0,0,0,0,0,0,0,0],"sum_hessian":[3.12E2,2.87E2,2.5E1,2.57E2,3E1,4.7E1,2.1E2,1.51E2,5.9E1,1.08E2,4.3E1,2.5E1,3.4E1,7.9E1,2.9E1,4.8E1,3.1E1],"tree_param":{"num_deleted":"0","num_feature":"14","num_nodes":"17","size_leaf_vector":"1"}},{"base_weights":[-4.428947E-3,3.0436538E-2,-2.4406552E-2,-1.0757416E-1,2.4598181E-2,-3.805481E-2,-1.5996367E-2,2.4891222E-2,-2.928104E-2,1.877823E-2,-2.4825761E-2,-9.1139324E-2,1.2647117E-2,-1.6515872E-1,6.110651E-3,-2.0980735E-3,-4.575492E-2],"categories":[],"categories_nodes":[],"categories_segments":[],"categories_sizes":[],"default_left":[0,0,0,0,0,0,0,0,0,0,0,0,0,0,0,0,0],"id":37,"left_children":[1,-1,3,5,7,-1,9,-1,11,-1,-1,13,-1,15,-1,-1,-1],"loss_changes":[1.2724475E0,0E0,1.1438159E0,1.3876454E0,1.3527964E0,0E0,1.3927599E0,0E0,9.141416E-1,0E0,0E0,8.266905E-1,0E0,1.1375628E0,0E0,0E0,0E0],"parents":[2147483647,0,0,2,2,3,3,4,4,6,6,8,8,11,11,13,13],"right_children":[2,-1,4,6,8,-1,10,-1,12,-1,-1,14,-1,16,-1,-1,-1],"split_conditions":[5.24684E3,3.0436538E-2,7.4E-1,5.6E0,3.1E0,-3.805481E-2,-2.08E0,2.4891222E-2,2.887101E4,1.877823E-2,-2.4825761E-2,9E0,1.2647117E-2,4.76E0,6.110651E-3,-2.0980735E-3,-4.575492E-2],"split_indices":[3,0,0,1,0,0,0,0,3,0,0,1,0,1,0,0,0],"split_type":[0,0,0,0,0,0,0,0,0,0,0,0,0,0,0,0,0],"sum_hessian":[3.05E2,2.6E1,2.79E2,1.03E2,1.76E2,3.9E1,6.4E1,4.8E1,1.28E2,3.3E1,3.1E1,8.3E1,4.5E1,5.3E1,3E1,2.6E1,2.7E1],"tree_param":{"num_deleted":"0","num_feature":"14","num_nodes":"17","size_leaf_vector":"1"}},{"base_weights":[-2.4961045E-3,7.982828E-2,-2.1385765E-2,-7.0852838E-3,2.6196992E-2,1.9252382E-2,-3.7355438E-2,-6.6731377E-3,2.945097E-2,-9.46118E-2,4.2314287E-2,-5.764202E-3,-2.7087832E-2,3.603701E-2,-1.5257081E-2,-1.01732485E-1,1.3682787E-2,-2.5954149E-3,-2.7828205E-2],"categories":[],"categories_nodes":[],"categories_segments":[],"categories_sizes":[],"default_left":[0,0,0,0,0,0,0,0,0,0,0,0,0,0,0,0,0,0,0],"id":38,"left_children":[1,3,5,-1,-1,7,-1,9,-1,11,13,-1,-1,-1,15,17,-1,-1,-1],"loss_changes":[4.9155727E-1,7.190783E-1,2.382377E0,0E0,0E0,1.0067574E0,0E0,8.3111805E-1,0E0,3.2635325E-1,1.4166753E0,0E0,0E0,0E0,9.0240985E-1,3.7880063E-1,0E0,0E0,0E0],"parents":[2147483647,0,0,1,1,2,2,5,5,7,7,9,9,10,10,14,14,15,15],"right_children":[2,4,6,-1,-1,8,-1,10,-1,12,14,-1,-1,-1,16,18,-1,-1,-1],"split_conditions":[8.4E-1,2.04312E4,3.435307E4,-7.0852838E-3,2.6196992E-2,1.069E1,-3.7355438E-2,4.47E0,2.945097E-2,3.31E0,5.52E0,-5.764202E-3,-2.7087832E-2,3.603701E-2,6.62E0,4.39E0,1.3682787E-2,-2.5954149E-3,-2.7828205E-2],"split_indices":[2,3,3,0,0,1,0,2,0,2,2,0,0,0,1,1,0,0,0],"split_type":[0,0,0,0,0,0,0,0,0,0,0,0,0,0,0,0,0,0,0],"sum_hessian":[3.14E2,5.8E1,2.56E2,2.5E1,3.3E1,2.18E2,3.8E1,1.91E2,2.7E1,6.8E1,1.23E2,4.2E1,2.6E1,2.7E1,9.6E1,5.3E1,4.3E1,2.7E1,2.6E1],"tree_param":{"num_deleted":"0","num_feature":"14","num_nodes":"19","size_leaf_vector":"1"}},{"base_weights":[1.1877364E-3,5.6455273E-2,-4.1627508E-2,5.217568E-3,4.036322E-2,-1.2194122E-1,7.5470224E-2,2.439854E-2,-7.1445055E-2,-5.5798125E-2,-1.892325E-2,2.9504955E-2,-7.178345E-3,1.513972E-2,-2.5892602E-2,2.5857305E-2,-1.8006898E-2],"categories":[],"categories_nodes":[],"categories_segments":[],"categories_sizes":[],"default_left":[0,0,0,0,0,0,0,0,0,0,0,0,0,0,0,0,0],"id":39,"left_children":[1,3,5,7,-1,9,11,-1,13,-1,15,-1,-1,-1,-1,-1,-1],"loss_changes":[7.264358E-1,1.4585019E0,1.6361907E0,1.3272198E0,0E0,2.6461644E0,1.070915E0,0E0,1.3079624E0,0E0,1.4522469E0,0E0,0E0,0E0,0E0,0E0,0E0],"parents":[2147483647,0,0,1,1,2,2,3,3,5,5,6,6,8,8,10,10],"right_children":[2,4,6,8,-1,10,12,-1,14,-1,16,-1,-1,-1,-1,-1,-1],"split_conditions":[1.886287E4,1.650048E4,3.198494E4,2.89E0,4.036322E-2,2.98E0,3.36E0,2.439854E-2,5.88E0,-5.5798125E-2,5.38E0,2.9504955E-2,-7.178345E-3,1.513972E-2,-2.5892602E-2,2.5857305E-2,-1.8006898E-2],"split_indices":[3,3,3,2,0,2,2,0,1,0,2,0,0,0,0,0,0],"split_type":[0,0,0,0,0,0,0,0,0,0,0,0,0,0,0,0,0],"sum_hessian":[3.05E2,1.33E2,1.72E2,1.08E2,2.5E1,1.02E2,7E1,3.5E1,7.3E1,2.9E1,7.3E1,3.5E1,3.5E1,2.7E1,4.6E1,2.5E1,4.8E1],"tree_param":{"num_deleted":"0","num_feature":"14","num_nodes":"17","size_leaf_vector":"1"}},{"base_weights":[-1.5892262E-2,-9.911748E-2,6.4211556E-5,5.218248E-3,-3.438166E-2,2.02737E-2,-2.4336271E-2,-1.5484358E-1,3.363745E-2,-3.9308175E-2,-1.0892985E-2,1.08715445E-1,-2.4503045E-2,3.8568765E-2,2.3013813E-2,-9.5472615E-3,2.081205E-2],"categories":[],"categories_nodes":[],"categories_segments":[],"categories_sizes":[],"default_left":[0,0,0,0,0,0,0,0,0,0,0,0,0,0,0,0,0],"id":40,"left_children":[1,3,5,-1,-1,-1,7,9,11,-1,-1,13,-1,-1,15,-1,-1],"loss_changes":[4.2097625E-1,8.964083E-1,8.8341576E-1,0E0,0E0,0E0,1.7226892E0,5.980389E-1,2.3545308E0,0E0,0E0,1.4567618E0,0E0,0E0,7.510284E-1,0E0,0E0],"parents":[2147483647,0,0,1,1,2,2,6,6,7,7,8,8,11,11,14,14],"right_children":[2,4,6,-1,-1,-1,8,10,12,-1,-1,14,-1,-1,16,-1,-1],"split_conditions":[8.02763E3,4.27286E3,3.13E0,5.218248E-3,-3.438166E-2,2.02737E-2,-2.4E-1,6.08E0,6.91E0,-3.9308175E-2,-1.0892985E-2,5.89E0,-2.4503045E-2,3.8568765E-2,3.82E0,-9.5472615E-3,2.081205E-2],"split_indices":[3,3,1,0,0,0,0,1,0,0,0,1,0,0,0,0,0],"split_type":[0,0,0,0,0,0,0,0,0,0,0,0,0,0,0,0,0],"sum_hessian":[3.16E2,5E1,2.66E2,2.5E1,2.5E1,4E1,2.26E2,6.9E1,1.57E2,2.9E1,4E1,1.14E2,4.3E1,4.1E1,7.3E1,4.2E1,3.1E1],"tree_param":{"num_deleted":"0","num_feature":"14","num_nodes":"17","size_leaf_vector":"1"}},{"base_weights":[-4.928977E-3,1.01294704E-1,-4.3966703E-2,6.542279E-2,2.419379E-2,-7.551441E-2,5.1461555E-2,1.7821798E-2,8.1156916E-4,2.0308545E-2,-1.2108238E-1,-3.4175382E-3,1.9807527E-2,-1.8745981E-2,2.1831367E-2,-3.9338637E-2,-3.4899075E-2,-2.3083273E-2,2.2082467E-2],"categories":[],"categories_nodes":[],"categories_segments":[],"categories_sizes":[],"default_left":[0,0,0,0,0,0,0,0,0,0,0,0,0,0,0,0,0,0,0],"id":41,"left_children":[1,3,5,7,-1,9,11,-1,-1,13,15,-1,-1,-1,-1,17,-1,-1,-1],"loss_changes":[1.2650598E0,1.6592956E-1,6.752372E-1,1.691697E-1,0E0,7.360239E-1,3.3807415E-1,0E0,0E0,1.0188699E0,1.0306199E0,0E0,0E0,0E0,0E0,1.4544351E0,0E0,0E0,0E0],"parents":[2147483647,0,0,1,1,2,2,3,3,5,5,6,6,9,9,10,10,15,15],"right_children":[2,4,6,8,-1,10,12,-1,-1,14,16,-1,-1,-1,-1,18,-1,-1,-1],"split_conditions":[-8.1E-1,-2.32E0,7.11E0,5.04E0,2.419379E-2,1.66E0,5.05E0,1.7821798E-2,8.1156916E-4,3.63E0,4.49E0,-3.4175382E-3,1.9807527E-2,-1.8745981E-2,2.1831367E-2,2.43E0,-3.4899075E-2,-2.3083273E-2,2.2082467E-2],"split_indices":[0,0,2,2,0,2,0,0,0,0,0,0,0,0,0,0,0,0,0],"split_type":[0,0,0,0,0,0,0,0,0,0,0,0,0,0,0,0,0,0,0],"sum_hessian":[3.03E2,8.1E1,2.22E2,5.2E1,2.9E1,1.67E2,5.5E1,2.7E1,2.5E1,5.4E1,1.13E2,2.9E1,2.6E1,2.5E1,2.9E1,6.6E1,4.7E1,4.1E1,2.5E1],"tree_param":{"num_deleted":"0","num_feature":"14","num_nodes":"19","size_leaf_vector":"1"}},{"base_weights":[-1.1398335E-2,-3.8260788E-2,6.0057122E-2,-3.428877E-2,-9.804395E-3,-1.1037908E-2,1.1513237E-1,-7.626672E-2,8.072928E-2,3.5151135E-2,3.379179E-3,5.8709383E-3,-3.7077166E-2,3.7890226E-2,-3.6506426E-2,-1.6600052E-2,2.9046897E-2,3.1437363E-2,-4.359842E-2],"categories":[],"categories_nodes":[],"categories_segments":[],"categories_sizes":[],"default_left":[0,0,0,0,0,0,0,0,0,0,0,0,0,0,0,0,0,0,0],"id":42,"left_children":[1,3,5,-1,7,-1,9,11,13,-1,-1,15,-1,-1,17,-1,-1,-1,-1],"loss_changes":[6.1076945E-1,1.2488859E0,6.488295E-1,0E0,1.2216067E0,0E0,6.7915404E-1,1.6439562E0,1.7420838E0,0E0,0E0,1.7720635E0,0E0,0E0,3.313173E0,0E0,0E0,0E0,0E0],"parents":[2147483647,0,0,1,1,2,2,4,4,6,6,7,7,8,8,11,11,14,14],"right_children":[2,4,6,-1,8,-1,10,12,14,-1,-1,16,-1,-1,18,-1,-1,-1,-1],"split_conditions":[5.07E0,6.77894E3,2.13E0,-3.428877E-2,5.53E0,-1.1037908E-2,5.52E0,3.45E0,7.08E0,3.5151135E-2,3.379179E-3,1.51E0,-3.7077166E-2,3.7890226E-2,1.851431E4,-1.6600052E-2,2.9046897E-2,3.1437363E-2,-4.359842E-2],"split_indices":[0,3,2,0,2,0,2,2,2,0,0,2,0,0,3,0,0,0,0],"split_type":[0,0,0,0,0,0,0,0,0,0,0,0,0,0,0,0,0,0,0],"sum_hessian":[3.16E2,2.3E2,8.6E1,2.9E1,2.01E2,2.5E1,6.1E1,1.16E2,8.5E1,2.6E1,3.5E1,7.9E1,3.7E1,3.4E1,5.1E1,4.9E1,3E1,2.6E1,2.5E1],"tree_param":{"num_deleted":"0","num_feature":"14","num_nodes":"19","size_leaf_vector":"1"}},{"base_weights":[-2.054285E-4,1.3205168E-1,-2.865833E-2,2.9137934E-2,1.0759737E-2,-4.6297975E-2,1.886597E-2,-1.0707863E-1,2.4764286E-2,-1.0479841E-3,-1.488964E-1,-1.4879732E-2,8.2958184E-2,-5.2193318E-2,-5.210188E-2,2.979897E-2,-1.4053322E-3,-2.3194674E-2,4.151489E-3],"categories":[],"categories_nodes":[],"categories_segments":[],"categories_sizes":[],"default_left":[0,0,0,0,0,0,0,0,0,0,0,0,0,0,0,0,0,0,0],"id":43,"left_children":[1,3,5,-1,-1,7,-1,9,11,-1,13,-1,15,17,-1,-1,-1,-1,-1],"loss_changes":[1.1477664E0,1.8867296E-1,6.895762E-1,0E0,0E0,9.787933E-1,0E0,5.0960624E-1,7.6568466E-1,0E0,1.6322688E0,0E0,7.7099335E-1,4.8699993E-1,0E0,0E0,0E0,0E0,0E0],"parents":[2147483647,0,0,1,1,2,2,5,5,7,7,8,8,10,10,12,12,13,13],"right_children":[2,4,6,-1,-1,8,-1,10,12,-1,14,-1,16,18,-1,-1,-1,-1,-1],"split_conditions":[8.4E-1,-2.6E-1,1E0,2.9137934E-2,1.0759737E-2,6.72E0,1.886597E-2,-8.1E-1,3.7E-1,-1.0479841E-3,5.15E0,-1.4879732E-2,5.17E0,3.28E0,-5.210188E-2,2.979897E-2,-1.4053322E-3,-2.3194674E-2,4.151489E-3],"split_indices":[2,2,13,0,0,1,0,0,0,0,1,0,2,1,0,0,0,0,0],"split_type":[0,0,0,0,0,0,0,0,0,0,0,0,0,0,0,0,0,0,0],"sum_hessian":[3.03E2,5.3E1,2.5E2,2.5E1,2.8E1,2.25E2,2.5E1,1.21E2,1.04E2,3.6E1,8.5E1,3.3E1,7.1E1,5.8E1,2.7E1,3.1E1,4E1,2.5E1,3.3E1],"tree_param":{"num_deleted":"0","num_feature":"14","num_nodes":"19","size_leaf_vector":"1"}},{"base_weights":[-2.1407101E-3,-2.6682409E-2,1.4070044E-2,-8.882256E-3,2.726221E-2,5.9353143E-2,-5.6633033E-2,2.9172977E-2,3.7672736E-3,-1.3702282E-2,-3.1573083E-2,-1.2265198E-2,1.6877426E-2,-9.803752E-2,3.020767E-2,8.35194E-3,-3.5856873E-2],"categories":[],"categories_nodes":[],"categories_segments":[],"categories_sizes":[],"default_left":[0,0,0,0,0,0,0,0,0,0,0,0,0,0,0,0,0],"id":44,"left_children":[1,-1,3,5,-1,7,9,-1,11,13,-1,-1,-1,15,-1,-1,-1],"loss_changes":[8.771183E-1,0E0,1.0869185E0,8.1467634E-1,0E0,7.7295256E-1,9.6806204E-1,0E0,6.975382E-1,2.1239126E0,0E0,0E0,0E0,1.8340422E0,0E0,0E0,0E0],"parents":[2147483647,0,0,2,2,3,3,5,5,6,6,8,8,9,9,13,13],"right_children":[2,-1,4,6,-1,8,10,-1,12,14,-1,-1,-1,16,-1,-1,-1],"split_conditions":[-3.61E0,-2.6682409E-2,1E0,1.851431E4,2.726221E-2,6E-1,6.55E0,2.9172977E-2,5.05E0,3.71E0,-3.1573083E-2,-1.2265198E-2,1.6877426E-2,-1.6E-1,3.020767E-2,8.35194E-3,-3.5856873E-2],"split_indices":[0,0,10,3,0,0,0,0,0,0,0,0,0,0,0,0,0],"split_type":[0,0,0,0,0,0,0,0,0,0,0,0,0,0,0,0,0],"sum_hessian":[3.06E2,2.5E1,2.81E2,2.48E2,3.3E1,1.02E2,1.46E2,2.9E1,7.3E1,1.15E2,3.1E1,4.1E1,3.2E1,8.3E1,3.2E1,4E1,4.3E1],"tree_param":{"num_deleted":"0","num_feature":"14","num_nodes":"17","size_leaf_vector":"1"}},{"base_weights":[6.44965E-3,-1.7677665E-2,1.1758394E-1,1.1906366E-2,-2.1761907E-2,3.0007133E-2,4.1566724E-3,1.0992581E-1,-5.4073147E-2,1.6408661E-2,4.660744E-2,-1.4841948E-1,2.3031589E-2,1.5056489E-2,-1.3135139E-2,1.0326702E-2,-5.901007E-2,1.7589344E-2,-2.0054597E-2],"categories":[],"categories_nodes":[],"categories_segments":[],"categories_sizes":[],"default_left":[0,0,0,0,0,0,0,0,0,0,0,0,0,0,0,0,0,0,0],"id":45,"left_children":[1,3,5,7,-1,-1,-1,9,11,13,-1,15,17,-1,-1,-1,-1,-1,-1],"loss_changes":[8.1185293E-1,9.402224E-1,3.9466316E-1,1.3188008E0,0E0,0E0,0E0,1.534644E0,8.9091337E-1,5.0643796E-1,0E0,2.9544907E0,1.0199475E0,0E0,0E0,0E0,0E0,0E0,0E0],"parents":[2147483647,0,0,1,1,2,2,3,3,7,7,8,8,9,9,11,11,12,12],"right_children":[2,4,6,8,-1,-1,-1,10,12,14,-1,16,18,-1,-1,-1,-1,-1,-1],"split_conditions":[7.16E0,4.42E0,2.047784E4,1.851431E4,-2.1761907E-2,3.0007133E-2,4.1566724E-3,1.47515E4,4.13E0,5.16E0,4.660744E-2,8.4E-1,7.06E0,1.5056489E-2,-1.3135139E-2,1.0326702E-2,-5.901007E-2,1.7589344E-2,-2.0054597E-2],"split_indices":[0,0,3,3,0,0,0,3,2,2,0,2,2,0,0,0,0,0,0],"split_type":[0,0,0,0,0,0,0,0,0,0,0,0,0,0,0,0,0,0,0],"sum_hessian":[3.01E2,2.48E2,5.3E1,2.02E2,4.6E1,2.7E1,2.6E1,8.1E1,1.21E2,5.6E1,2.5E1,5.4E1,6.7E1,3.1E1,2.5E1,2.9E1,2.5E1,4.2E1,2.5E1],"tree_param":{"num_deleted":"0","num_feature":"14","num_nodes":"19","size_leaf_vector":"1"}},{"base_weights":[4.2370334E-3,4.202555E-2,-7.4926816E-2,1.7564949E-2,3.0898297E-2,-1.4560908E-1,5.5182697E-3,-4.2317033E-2,1.370312E-1,-4.338625E-2,-9.819047E-4,1.5906984E-2,-9.875518E-2,2.4182857E-3,3.6857933E-2,-2.4184665E-2,-3.7853844E-2,-1.9436354E-2,1.3396299E-2],"categories":[],"categories_nodes":[],"categories_segments":[],"categories_sizes":[],"default_left":[0,0,0,0,0,0,0,0,0,0,0,0,0,0,0,0,0,0,0],"id":46,"left_children":[1,3,5,7,-1,9,-1,11,13,-1,-1,-1,15,-1,-1,17,-1,-1,-1],"loss_changes":[8.8862824E-1,8.025196E-1,7.6340055E-1,1.2648809E0,0E0,1.176572E0,0E0,9.9852985E-1,7.7138305E-1,0E0,0E0,0E0,9.789676E-1,0E0,0E0,7.1728164E-1,0E0,0E0,0E0],"parents":[2147483647,0,0,1,1,2,2,3,3,5,5,7,7,8,8,12,12,15,15],"right_children":[2,4,6,8,-1,10,-1,12,14,-1,-1,-1,16,-1,-1,18,-1,-1,-1],"split_conditions":[4.42E0,3.553917E4,7.89E0,1.63E0,3.0898297E-2,5.79E0,5.5182697E-3,4.17E0,5.02E0,-4.338625E-2,-9.819047E-4,1.5906984E-2,2.375872E4,2.4182857E-3,3.6857933E-2,1.401066E4,-3.7853844E-2,-1.9436354E-2,1.3396299E-2],"split_indices":[0,3,0,0,0,1,0,1,2,0,0,0,3,0,0,3,0,0,0],"split_type":[0,0,0,0,0,0,0,0,0,0,0,0,0,0,0,0,0,0,0],"sum_hessian":[2.95E2,2E2,9.5E1,1.75E2,2.5E1,5.8E1,3.7E1,1.17E2,5.8E1,2.8E1,3E1,3.2E1,8.5E1,2.8E1,3E1,5.8E1,2.7E1,3E1,2.8E1],"tree_param":{"num_deleted":"0","num_feature":"14","num_nodes":"19","size_leaf_vector":"1"}},{"base_weights":[-1.9542065E-2,-3.8378343E-2,2.058945E-2,-5.3902067E-2,1.4836718E-2,-8.463193E-2,8.191794E-3,8.650293E-3,-1.2195183E-1,1.9214278E-2,-1.3035359E-2,-7.783919E-2,-4.0114757E-2,-1.6887815E-1,5.7149883E-3,-1.7351309E-2,-3.4793355E-2],"categories":[],"categories_nodes":[],"categories_segments":[],"categories_sizes":[],"default_left":[0,0,0,0,0,0,0,0,0,0,0,0,0,0,0,0,0],"id":47,"left_children":[1,3,-1,5,-1,7,9,-1,11,-1,-1,13,-1,15,-1,-1,-1],"loss_changes":[9.3565947E-1,6.0634375E-1,0E0,4.853596E-1,0E0,9.09842E-1,9.8031145E-1,0E0,8.45546E-1,0E0,0E0,1.1147068E0,0E0,1.711663E-1,0E0,0E0,0E0],"parents":[2147483647,0,0,1,1,3,3,5,5,6,6,8,8,11,11,13,13],"right_children":[2,4,-1,6,-1,8,10,-1,12,-1,-1,14,-1,16,-1,-1,-1],"split_conditions":[8.79E0,1E0,2.058945E-2,5.82E0,1.4836718E-2,3.61E0,7.08E0,8.650293E-3,4.8E0,1.9214278E-2,-1.3035359E-2,2.34E0,-4.0114757E-2,7E-1,5.7149883E-3,-1.7351309E-2,-3.4793355E-2],"split_indices":[2,4,0,2,0,1,2,0,2,0,0,2,0,2,0,0,0],"split_type":[0,0,0,0,0,0,0,0,0,0,0,0,0,0,0,0,0],"sum_hessian":[3.14E2,2.81E2,3.3E1,2.53E2,2.8E1,1.69E2,8.4E1,3.5E1,1.34E2,3.7E1,4.7E1,1.04E2,3E1,5.8E1,4.6E1,3.3E1,2.5E1],"tree_param":{"num_deleted":"0","num_feature":"14","num_nodes":"17","size_leaf_vector":"1"}},{"base_weights":[-6.4669205E-3,7.987891E-3,-1.3861448E-2,6.825844E-2,-3.8457125E-2,-2.978761E-2,4.2158246E-2,-8.320814E-2,1.0469988E-2,-2.3303594E-2,1.2719086E-2,8.57543E-3,-1.3070649E-1,-3.6048364E-2,-6.1514325E-2,-2.4204526E-2,6.1051175E-3],"categories":[],"categories_nodes":[],"categories_segments":[],"categories_sizes":[],"default_left":[0,0,0,0,0,0,0,0,0,0,0,0,0,0,0,0,0],"id":48,"left_children":[1,3,-1,5,7,9,-1,11,-1,-1,-1,-1,13,-1,15,-1,-1],"loss_changes":[3.8833138E-1,7.5282854E-1,0E0,2.4494438E0,7.42189E-1,1.1785985E0,0E0,7.27585E-1,0E0,0E0,0E0,0E0,5.9956634E-1,0E0,5.270784E-1,0E0,0E0],"parents":[2147483647,0,0,1,1,3,3,4,4,5,5,7,7,12,12,14,14],"right_children":[2,4,-1,6,8,10,-1,12,-1,-1,-1,-1,14,-1,16,-1,-1],"split_conditions":[8.38E0,5.93E0,-1.3861448E-2,4.63E0,1.053E1,3.89E0,4.2158246E-2,1.36E0,1.0469988E-2,-2.3303594E-2,1.2719086E-2,8.57543E-3,4.37E0,-3.6048364E-2,8.4E0,-2.4204526E-2,6.1051175E-3],"split_indices":[2,1,0,1,1,2,0,2,0,0,0,0,2,0,1,0,0],"split_type":[0,0,0,0,0,0,0,0,0,0,0,0,0,0,0,0,0],"sum_hessian":[3.11E2,2.67E2,4.4E1,1.16E2,1.51E2,8E1,3.6E1,1.07E2,4.4E1,3.8E1,4.2E1,2.7E1,8E1,3E1,5E1,2.5E1,2.5E1],"tree_param":{"num_deleted":"0","num_feature":"14","num_nodes":"17","size_leaf_vector":"1"}},{"base_weights":[-9.211709E-3,6.687019E-3,-2.7836684E-2,4.1119825E-2,-6.518018E-2,6.666695E-2,-1.3063154E-2,-1.22994386E-1,1.132332E-2,1.4361769E-1,1.8005943E-3,4.107084E-3,-3.37773E-2,3.3810116E-2,4.001683E-3,-1.719295E-2,2.0637205E-2],"categories":[],"categories_nodes":[],"categories_segments":[],"categories_sizes":[],"default_left":[0,0,0,0,0,0,0,0,0,0,0,0,0,0,0,0,0],"id":49,"left_children":[1,3,-1,5,7,9,-1,11,-1,13,15,-1,-1,-1,-1,-1,-1],"loss_changes":[8.816963E-1,7.178366E-1,0E0,6.4777124E-1,7.737552E-1,8.183497E-1,0E0,1.035718E0,0E0,7.1126413E-1,1.4384564E0,0E0,0E0,0E0,0E0,0E0,0E0],"parents":[2147483647,0,0,1,1,3,3,4,4,5,5,7,7,9,9,10,10],"right_children":[2,4,-1,6,8,10,-1,12,-1,14,16,-1,-1,-1,-1,-1,-1],"split_conditions":[1.118E1,4.42E0,-2.7836684E-2,8.09E0,8.45E0,-1.6E-1,-1.3063154E-2,3.57E0,1.132332E-2,7.44E0,6.72E0,4.107084E-3,-3.37773E-2,3.3810116E-2,4.001683E-3,-1.719295E-2,2.0637205E-2],"split_indices":[1,0,0,2,0,0,0,2,0,1,1,0,0,0,0,0,0],"split_type":[0,0,0,0,0,0,0,0,0,0,0,0,0,0,0,0,0],"sum_hessian":[3.13E2,2.88E2,2.5E1,1.95E2,9.3E1,1.63E2,3.2E1,6.6E1,2.7E1,7.4E1,8.9E1,2.7E1,3.9E1,4.3E1,3.1E1,4.8E1,4.1E1],"tree_param":{"num_deleted":"0","num_feature":"14","num_nodes":"17","size_leaf_vector":"1"}},{"base_weights":[4.9931123E-3,-8.657681E-2,4.1353516E-2,2.8263142E-3,-3.575653E-2,3.409915E-2,1.3625945E-2,3.580912E-3,-3.4778535E-3,-2.8000684E-2,4.952588E-2,1.2198107E-1,1.28560895E-2,2.9141807E-3,3.0608784E-2,-2.4504455E-2,6.53715E-2,-7.434457E-3,1.2369331E-1,3.3278372E-2,4.656045E-3],"categories":[],"categories_nodes":[],"categories_segments":[],"categories_sizes":[],"default_left":[0,0,0,0,0,0,0,0,0,0,0,0,0,0,0,0,0,0,0,0,0],"id":50,"left_children":[1,3,5,7,-1,-1,9,-1,-1,-1,11,13,15,-1,-1,-1,17,-1,19,-1,-1],"loss_changes":[1.0423903E0,1.208528E0,1.1519835E0,3.175872E-2,0E0,0E0,1.4186134E0,0E0,0E0,0E0,4.421369E-1,4.6740496E-1,1.0471518E0,0E0,0E0,0E0,5.8930826E-1,0E0,5.2062654E-1,0E0,0E0],"parents":[2147483647,0,0,1,1,2,2,3,3,6,6,10,10,11,11,12,12,16,16,18,18],"right_children":[2,4,6,8,-1,-1,10,-1,-1,-1,12,14,16,-1,-1,-1,18,-1,20,-1,-1],"split_conditions":[2.28E0,8.4E-1,3.45E0,7.59E0,-3.575653E-2,3.409915E-2,4.47E0,3.580912E-3,-3.4778535E-3,-2.8000684E-2,5.09E0,3.32E0,5.56E0,2.9141807E-3,3.0608784E-2,-2.4504455E-2,7.59E0,-7.434457E-3,7.89E0,3.3278372E-2,4.656045E-3],"split_indices":[2,2,2,1,0,0,2,0,0,0,1,1,2,0,0,0,1,0,2,0,0],"split_type":[0,0,0,0,0,0,0,0,0,0,0,0,0,0,0,0,0,0,0,0,0],"sum_hessian":[3.11E2,8.8E1,2.23E2,5.6E1,3.2E1,2.8E1,1.95E2,3.1E1,2.5E1,2.9E1,1.66E2,5.5E1,1.11E2,2.5E1,3E1,2.5E1,8.6E1,2.9E1,5.7E1,2.7E1,3E1],"tree_param":{"num_deleted":"0","num_feature":"14","num_nodes":"21","size_leaf_vector":"1"}},{"base_weights":[-2.651639E-3,1.1683386E-2,-2.403524E-2,3.3379905E-2,-1.6260915E-2,-1.5483235E-2,5.0932966E-2,-4.0216345E-2,8.232072E-2,-2.4124553E-2,1.4293308E-2,2.1174449E-1,7.3855445E-3,2.205193E-2,3.982041E-2,-4.095943E-2,2.0751579E-2,-1.5133211E-2,7.393232E-3],"categories":[],"categories_nodes":[],"categories_segments":[],"categories_sizes":[],"default_left":[0,0,0,0,0,0,0,0,0,0,0,0,0,0,0,0,0,0,0],"id":51,"left_children":[1,3,-1,5,-1,-1,7,9,11,-1,-1,13,15,-1,-1,17,-1,-1,-1],"loss_changes":[7.0440876E-1,7.487983E-1,0E0,5.879165E-1,0E0,0E0,6.2128067E-1,9.3057865E-1,1.5598773E0,0E0,0E0,1.66157E-1,6.577776E-1,0E0,0E0,4.160124E-1,0E0,0E0,0E0],"parents":[2147483647,0,0,1,1,3,3,6,6,7,7,8,8,11,11,12,12,15,15],"right_children":[2,4,-1,6,-1,-1,8,10,12,-1,-1,14,16,-1,-1,18,-1,-1,-1],"split_conditions":[1.123E1,8.28E0,-2.403524E-2,2.83E0,-1.6260915E-2,-1.5483235E-2,1.43E0,6.72E0,5.76E0,-2.4124553E-2,1.4293308E-2,4.03E0,9.88E0,2.205193E-2,3.982041E-2,5.59E0,2.0751579E-2,-1.5133211E-2,7.393232E-3],"split_indices":[1,2,0,1,0,0,2,1,1,0,0,1,1,0,0,2,0,0,0],"split_type":[0,0,0,0,0,0,0,0,0,0,0,0,0,0,0,0,0,0,0],"sum_hessian":[3.1E2,2.85E2,2.5E1,2.42E2,4.3E1,2.7E1,2.15E2,5.5E1,1.6E2,2.9E1,2.6E1,5.8E1,1.02E2,2.8E1,3E1,7.5E1,2.7E1,4.5E1,3E1],"tree_param":{"num_deleted":"0","num_feature":"14","num_nodes":"19","size_leaf_vector":"1"}}]},"name":"gbtree"},"learner_model_param":{"base_score":"7.711242E-10","boost_from_average":"1","num_class":"0","num_feature":"14","num_target":"1"},"objective":{"name":"reg:squarederror","reg_loss_param":{"scale_pos_weight":"1"}}},"version":[3,0,1]}