{"learner":{"attributes":{"best_iteration":"16","best_score":"1.1360651309336443"},"feature_names":[],"feature_types":[],"gradient_booster":{"model":{"gbtree_model_param":{"num_parallel_tree":"1","num_trees":"67"},"iteration_indptr":[0,1,2,3,4,5,6,7,8,9,10,11,12,13,14,15,16,17,18,19,20,21,22,23,24,25,26,27,28,29,30,31,32,33,34,35,36,37,38,39,40,41,42,43,44,45,46,47,48,49,50,51,52,53,54,55,56,57,58,59,60,61,62,63,64,65,66,67],"tree_info":[0,0,0,0,0,0,0,0,0,0,0,0,0,0,0,0,0,0,0,0,0,0,0,0,0,0,0,0,0,0,0,0,0,0,0,0,0,0,0,0,0,0,0,0,0,0,0,0,0,0,0,0,0,0,0,0,0,0,0,0,0,0,0,0,0,0,0],"trees":[{"base_weights":[-2.5596315E-2,-4.9943797E-2,1.830547E-2,3.5373297E-2,-1.5810503E-2,-2.0945856E-1,5.57714E-2,1.135671E-2,-4.4289514E-2,2.469777E-2,-1.0092203E-2,1.8847194E-2,-6.525707E-2,-1.5536691E-1,1.8392337E-2,-3.0227644E-2,-3.5826731E-3],"categories":[],"categories_nodes":[],"categories_segments":[],"categories_sizes":[],"default_left":[0,0,0,0,0,0,0,0,0,0,0,0,0,0,0,0,0],"id":0,"left_children":[1,-1,3,-1,5,7,9,-1,-1,-1,11,-1,13,15,-1,-1,-1],"loss_changes":[6.624336E0,0E0,3.347076E0,0E0,3.698893E0,5.4795322E0,2.458232E0,0E0,0E0,0E0,1.6115488E0,0E0,2.610741E0,1.4819057E0,0E0,0E0,0E0],"parents":[2147483647,0,0,2,2,4,4,5,5,6,6,10,10,12,12,13,13],"right_children":[2,-1,4,-1,6,8,10,-1,-1,-1,12,-1,14,16,-1,-1,-1],"split_conditions":[-3.3E0,-4.9943797E-2,-2.15E0,3.5373297E-2,8.7E-1,-8.1E-1,3.1E0,1.135671E-2,-4.4289514E-2,2.469777E-2,1.66E0,1.8847194E-2,8E0,6.16E0,1.8392337E-2,-3.0227644E-2,-3.5826731E-3],"split_indices":[0,0,0,0,0,0,0,0,0,0,2,0,2,0,0,0,0],"split_type":[0,0,0,0,0,0,0,0,0,0,0,0,0,0,0,0,0],"sum_hessian":[3.17E2,2.6E1,2.91E2,2.6E1,2.65E2,7.1E1,1.94E2,3E1,4.1E1,4.9E1,1.45E2,3.1E1,1.14E2,8.4E1,3E1,3.7E1,4.7E1],"tree_param":{"num_deleted":"0","num_feature":"14","num_nodes":"17","size_leaf_vector":"1"}},{"base_weights":[-5.234389E-3,-2.609708E-1,5.094786E-2,-3.810399E-2,-1.4420959E-2,3.9716434E-2,9.905094E-3,-1.5269731E-1,9.008612E-2,1.0418961E-3,-4.1741744E-2,1.7979355E-1,-1.0581337E-2,3.9055493E-2,5.704548E-2,2.4048048E-1,-3.8079087E-2,2.7199028E-2,2.039379E-2],"categories":[],"categories_nodes":[],"categories_segments":[],"categories_sizes":[],"default_left":[0,0,0,0,0,0,0,0,0,0,0,0,0,0,0,0,0,0,0],"id":1,"left_children":[1,3,5,-1,-1,-1,7,9,11,-1,-1,13,-1,15,-1,17,-1,-1,-1],"loss_changes":[4.4673285E0,7.3013735E-1,3.619535E0,0E0,0E0,0E0,2.9993725E0,3.286041E0,2.7253652E0,0E0,0E0,5.805697E0,0E0,6.772409E0,0E0,6.709099E-3,0E0,0E0,0E0],"parents":[2147483647,0,0,1,1,2,2,6,6,7,7,8,8,11,11,13,13,15,15],"right_children":[2,4,6,-1,-1,-1,8,10,12,-1,-1,14,-1,16,-1,18,-1,-1,-1],"split_conditions":[3.32E0,4E0,4.26E0,-3.810399E-2,-1.4420959E-2,3.9716434E-2,6.64E0,6.06E0,1.047E1,1.0418961E-3,-4.1741744E-2,9.56E0,-1.0581337E-2,8.64E0,5.704548E-2,7.49E0,-3.8079087E-2,2.7199028E-2,2.039379E-2],"split_indices":[1,2,1,0,0,0,1,2,1,0,0,1,0,1,0,1,0,0,0],"split_type":[0,0,0,0,0,0,0,0,0,0,0,0,0,0,0,0,0,0,0],"sum_hessian":[3.09E2,5.5E1,2.54E2,2.6E1,2.9E1,2.6E1,2.28E2,7.5E1,1.53E2,4.7E1,2.8E1,1.05E2,4.8E1,7.8E1,2.7E1,5.3E1,2.5E1,2.5E1,2.8E1],"tree_param":{"num_deleted":"0","num_feature":"14","num_nodes":"19","size_leaf_vector":"1"}},{"base_weights":[2.6285639E-2,-1.2860607E-1,1.272345E-1,-2.6560789E-2,-4.7752697E-2,2.8563602E-2,7.317502E-2,-2.6579589E-2,6.951269E-2,-3.7868343E-2,1.4300744E-1,2.689676E-2,-5.445993E-3,1.4262134E-2,-1.9904679E-2,3.152011E-2,6.967345E-2,-2.5178695E-3,1.3700681E-2],"categories":[],"categories_nodes":[],"categories_segments":[],"categories_sizes":[],"default_left":[0,0,0,0,0,0,0,0,0,0,0,0,0,0,0,0,0,0,0],"id":2,"left_children":[1,3,5,7,-1,-1,9,-1,11,13,15,-1,-1,-1,-1,-1,17,-1,-1],"loss_changes":[4.9104757E0,4.4024262E0,1.6060884E0,2.2479384E0,0E0,0E0,1.1142986E0,0E0,1.7455341E0,1.6574869E0,1.0892718E0,0E0,0E0,0E0,0E0,0E0,4.058126E-1,0E0,0E0],"parents":[2147483647,0,0,1,1,2,2,3,3,6,6,8,8,9,9,10,10,16,16],"right_children":[2,4,6,8,-1,-1,10,-1,12,14,16,-1,-1,-1,-1,-1,18,-1,-1],"split_conditions":[8.7E-1,-1.6E-1,3.1E0,-3.3E0,-4.7752697E-2,2.8563602E-2,5.07E0,-2.6579589E-2,-2.15E0,4.18E0,6.76E0,2.689676E-2,-5.445993E-3,1.4262134E-2,-1.9904679E-2,3.152011E-2,7.89E0,-2.5178695E-3,1.3700681E-2],"split_indices":[0,0,0,0,0,0,0,0,0,0,0,0,0,0,0,0,0,0,0],"split_type":[0,0,0,0,0,0,0,0,0,0,0,0,0,0,0,0,0,0,0],"sum_hessian":[3.12E2,1.23E2,1.89E2,9.6E1,2.7E1,4.7E1,1.42E2,2.7E1,6.9E1,5.5E1,8.7E1,2.6E1,4.3E1,2.6E1,2.9E1,2.5E1,6.2E1,2.6E1,3.6E1],"tree_param":{"num_deleted":"0","num_feature":"14","num_nodes":"19","size_leaf_vector":"1"}},{"base_weights":[-1.7647274E-2,-6.2038273E-2,3.738492E-2,-2.5163082E-2,-2.0133439E-1,-2.4485802E-2,1.5569479E-2,-2.994214E-2,-1.03075355E-2,2.9908447E-2,-3.7235033E-2,-2.7606359E-2,1.2654243E-2,2.8799674E-2,-5.895058E-2,-2.2808967E-2,2.2875895E-3],"categories":[],"categories_nodes":[],"categories_segments":[],"categories_sizes":[],"default_left":[0,0,0,0,0,0,0,0,0,0,0,0,0,0,0,0,0],"id":3,"left_children":[1,3,-1,5,7,-1,9,-1,-1,-1,11,-1,13,-1,15,-1,-1],"loss_changes":[5.2890053E0,1.3972175E0,0E0,1.9456882E0,5.1849914E-1,0E0,2.7657764E0,0E0,0E0,0E0,1.8622307E0,0E0,2.5800383E0,0E0,1.4445837E0,0E0,0E0],"parents":[2147483647,0,0,1,1,3,3,4,4,6,6,10,10,12,12,14,14],"right_children":[2,4,-1,6,8,-1,10,-1,-1,-1,12,-1,14,-1,16,-1,-1],"split_conditions":[8.7E0,6.97E0,3.738492E-2,6.3E-1,8E0,-2.4485802E-2,1.66E0,-2.994214E-2,-1.03075355E-2,2.9908447E-2,2.74E0,-2.7606359E-2,3.65E0,2.8799674E-2,4.97E0,-2.2808967E-2,2.2875895E-3],"split_indices":[2,2,0,2,2,0,2,0,0,0,2,0,2,0,2,0,0],"split_type":[0,0,0,0,0,0,0,0,0,0,0,0,0,0,0,0,0],"sum_hessian":[3.02E2,2.72E2,3E1,2.16E2,5.6E1,3.3E1,1.83E2,2.7E1,2.9E1,2.8E1,1.55E2,2.6E1,1.29E2,2.6E1,1.03E2,3.3E1,7E1],"tree_param":{"num_deleted":"0","num_feature":"14","num_nodes":"17","size_leaf_vector":"1"}},{"base_weights":[1.442704E-2,-1.7057262E-2,2.7922124E-2,-2.638011E-2,2.0738522E-2,7.567193E-2,-2.2818167E-2,2.101825E-1,4.2452123E-3,5.7768696E-3,4.312967E-2,-3.5415202E-2,1.0069595E-1,7.288883E-3,3.8063686E-2,1.7388914E-2,-7.3061036E-3],"categories":[],"categories_nodes":[],"categories_segments":[],"categories_sizes":[],"default_left":[0,0,0,0,0,0,0,0,0,0,0,0,0,0,0,0,0],"id":4,"left_children":[1,3,-1,-1,5,7,-1,9,11,-1,-1,-1,13,15,-1,-1,-1],"loss_changes":[2.5891895E0,2.5980647E0,0E0,0E0,3.3263834E0,1.9110299E0,0E0,2.300444E0,4.564028E0,0E0,0E0,0E0,2.7166653E0,1.0702235E0,0E0,0E0,0E0],"parents":[2147483647,0,0,1,1,4,4,5,5,7,7,8,8,12,12,13,13],"right_children":[2,4,-1,-1,6,8,-1,10,12,-1,-1,-1,14,16,-1,-1,-1],"split_conditions":[8.73E0,3.05E0,2.7922124E-2,-2.638011E-2,7.08E0,5.91E0,-2.2818167E-2,4.63E0,6.97E0,5.7768696E-3,4.312967E-2,-3.5415202E-2,5.98E0,8.76E0,3.8063686E-2,1.7388914E-2,-7.3061036E-3],"split_indices":[2,1,0,0,2,1,0,1,1,0,0,0,2,1,0,0,0],"split_type":[0,0,0,0,0,0,0,0,0,0,0,0,0,0,0,0,0],"sum_hessian":[3.09E2,2.77E2,3.2E1,3.6E1,2.41E2,1.98E2,4.3E1,6.8E1,1.3E2,4.1E1,2.7E1,2.7E1,1.03E2,7.8E1,2.5E1,2.5E1,5.3E1],"tree_param":{"num_deleted":"0","num_feature":"14","num_nodes":"17","size_leaf_vector":"1"}},{"base_weights":[1.8535763E-2,-1.31623745E-2,2.9531524E-2,5.2891124E-2,-1.1884842E-1,-1.9633103E-2,3.857322E-2,-2.4756718E-2,-4.2506415E-2,4.9673557E-2,-3.334236E-2,4.089268E-3,-1.7375289E-2,-5.951894E-2,3.2119382E-2,2.384992E-2,-2.4961943E-2,-1.2740967E-2,2.1344163E-2],"categories":[],"categories_nodes":[],"categories_segments":[],"categories_sizes":[],"default_left":[0,0,0,0,0,0,0,0,0,0,0,0,0,0,0,0,0,0,0],"id":5,"left_children":[1,3,-1,5,7,9,-1,-1,11,13,-1,-1,-1,15,-1,17,-1,-1,-1],"loss_changes":[2.7324126E0,1.9609474E0,0E0,4.1836276E0,1.0507548E0,3.1264935E0,0E0,0E0,7.623679E-1,3.5175781E0,0E0,0E0,0E0,1.3530725E0,0E0,1.7478483E0,0E0,0E0,0E0],"parents":[2147483647,0,0,1,1,3,3,4,4,5,5,8,8,9,9,13,13,15,15],"right_children":[2,4,-1,6,8,10,-1,-1,12,14,-1,-1,-1,16,-1,18,-1,-1,-1],"split_conditions":[8.73E0,5.5E0,2.9531524E-2,4.78E0,6.81E0,3.56E0,3.857322E-2,-2.4756718E-2,8.09E0,2.43E0,-3.334236E-2,4.089268E-3,-1.7375289E-2,1.59E0,3.2119382E-2,4.3E-1,-2.4961943E-2,-1.2740967E-2,2.1344163E-2],"split_indices":[2,2,0,2,2,2,0,0,2,2,0,0,0,2,0,2,0,0,0],"split_type":[0,0,0,0,0,0,0,0,0,0,0,0,0,0,0,0,0,0,0],"sum_hessian":[3.1E2,2.79E2,3.1E1,1.72E2,1.07E2,1.42E2,3E1,3.9E1,6.8E1,1.17E2,2.5E1,4.2E1,2.6E1,8.4E1,3.3E1,5.9E1,2.5E1,3.3E1,2.6E1],"tree_param":{"num_deleted":"0","num_feature":"14","num_nodes":"19","size_leaf_vector":"1"}},{"base_weights":[-1.2751187E-2,-1.0605309E-1,1.9731091E-1,-4.6988882E-2,-5.358689E-2,7.0142276E-3,2.5979927E-1,-1.6775133E-1,1.8353747E-3,3.8298868E-2,1.0741832E-2,1.3445824E-2,-4.4333432E-2,2.0011943E-2,-7.629506E-2,-1.3801028E-1,8.512603E-3,8.588815E-4,-3.8266018E-2],"categories":[],"categories_nodes":[],"categories_segments":[],"categories_sizes":[],"default_left":[0,0,0,0,0,0,0,0,0,0,0,0,0,0,0,0,0,0,0],"id":6,"left_children":[1,3,5,7,-1,-1,9,11,13,-1,-1,-1,-1,-1,15,17,-1,-1,-1],"loss_changes":[6.1162753E0,5.458354E0,7.4464655E-1,1.1264699E0,0E0,0E0,1.1602502E0,4.6402197E0,2.1376748E0,0E0,0E0,0E0,0E0,0E0,9.979998E-1,2.5855994E0,0E0,0E0,0E0],"parents":[2147483647,0,0,1,1,2,2,3,3,6,6,7,7,8,8,14,14,15,15],"right_children":[2,4,6,8,-1,-1,10,12,14,-1,-1,-1,-1,-1,16,18,-1,-1,-1],"split_conditions":[2.886202E4,2.401907E4,3.210435E4,8.94302E3,-5.358689E-2,7.0142276E-3,3.571222E4,4.28775E3,1.37272E4,3.8298868E-2,1.0741832E-2,1.3445824E-2,-4.4333432E-2,2.0011943E-2,2.076023E4,1.797764E4,8.512603E-3,8.588815E-4,-3.8266018E-2],"split_indices":[3,3,3,3,0,0,3,3,3,0,0,0,0,0,3,3,0,0,0],"split_type":[0,0,0,0,0,0,0,0,0,0,0,0,0,0,0,0,0,0,0],"sum_hessian":[3.1E2,2.15E2,9.5E1,1.9E2,2.5E1,3.2E1,6.3E1,5.4E1,1.36E2,3.4E1,2.9E1,2.6E1,2.8E1,3.8E1,9.8E1,7.1E1,2.7E1,4.5E1,2.6E1],"tree_param":{"num_deleted":"0","num_feature":"14","num_nodes":"19","size_leaf_vector":"1"}},{"base_weights":[8.203331E-3,-4.670504E-2,2.4234234E-1,5.0528813E-2,-1.7020035E-1,3.3680897E-2,1.3664876E-2,9.857535E-4,2.6517889E-2,-3.2509375E-1,1.1284496E-2,5.3387806E-2,-1.8649027E-2,-1.6821561E-2,-4.2936426E-2,-2.3823833E-2,2.7956737E-2,-7.369332E-3,1.9057864E-2],"categories":[],"categories_nodes":[],"categories_segments":[],"categories_sizes":[],"default_left":[0,0,0,0,0,0,0,0,0,0,0,0,0,0,0,0,0,0,0],"id":7,"left_children":[1,3,5,7,9,-1,-1,11,-1,13,15,17,-1,-1,-1,-1,-1,-1,-1],"loss_changes":[4.061019E0,3.0826292E0,5.530462E-1,1.5310954E0,3.1801891E0,0E0,0E0,1.1692035E0,0E0,9.2559767E-1,3.6145666E0,1.6354403E0,0E0,0E0,0E0,0E0,0E0,0E0,0E0],"parents":[2147483647,0,0,1,1,2,2,3,3,4,4,7,7,9,9,10,10,11,11],"right_children":[2,4,6,8,10,-1,-1,12,-1,14,16,18,-1,-1,-1,-1,-1,-1,-1],"split_conditions":[3.178786E4,1.850373E4,6.07E0,1.650048E4,6.72E0,3.3680897E-2,1.3664876E-2,1.37272E4,2.6517889E-2,2.401907E4,1.99E0,6.45E0,-1.8649027E-2,-1.6821561E-2,-4.2936426E-2,-2.3823833E-2,2.7956737E-2,-7.369332E-3,1.9057864E-2],"split_indices":[3,3,1,3,1,0,0,3,0,3,0,1,0,0,0,0,0,0,0],"split_type":[0,0,0,0,0,0,0,0,0,0,0,0,0,0,0,0,0,0,0],"sum_hessian":[3.14E2,2.55E2,5.9E1,1.43E2,1.12E2,3E1,2.9E1,1.17E2,2.6E1,6E1,5.2E1,9.2E1,2.5E1,2.5E1,3.5E1,2.7E1,2.5E1,4.8E1,4.4E1],"tree_param":{"num_deleted":"0","num_feature":"14","num_nodes":"19","size_leaf_vector":"1"}},{"base_weights":[-1.4700689E-3,-3.2147035E-2,2.5301153E-2,-3.029932E-2,-3.4556529E-3,3.0845888E-2,-2.9552598E-2,-3.347734E-2,2.6307905E-2,4.8535347E-2,-3.4338128E-2,1.5482488E-1,-5.696304E-2,-4.558925E-3,4.713896E-2,-2.816444E-2,7.3321224E-3],"categories":[],"categories_nodes":[],"categories_segments":[],"categories_sizes":[],"default_left":[0,0,0,0,0,0,0,0,0,0,0,0,0,0,0,0,0],"id":8,"left_children":[1,3,-1,-1,5,7,-1,9,-1,11,-1,13,15,-1,-1,-1,-1],"loss_changes":[2.4672515E0,2.1903613E0,0E0,0E0,2.573842E0,3.4445443E0,0E0,4.616972E0,0E0,1.6235454E0,0E0,4.5894613E0,2.1575391E0,0E0,0E0,0E0,0E0],"parents":[2147483647,0,0,1,1,4,4,5,5,7,7,9,9,11,11,12,12],"right_children":[2,4,-1,-1,6,8,-1,10,-1,12,-1,14,16,-1,-1,-1,-1],"split_conditions":[8.73E0,2.89E0,2.5301153E-2,-3.029932E-2,1.118E1,9.53E0,-2.9552598E-2,6.97E0,2.6307905E-2,5.91E0,-3.4338128E-2,4.63E0,6.97E0,-4.558925E-3,4.713896E-2,-2.816444E-2,7.3321224E-3],"split_indices":[2,1,0,0,1,1,0,2,0,1,0,1,1,0,0,0,0],"split_type":[0,0,0,0,0,0,0,0,0,0,0,0,0,0,0,0,0],"sum_hessian":[3.14E2,2.81E2,3.3E1,2.6E1,2.55E2,2.29E2,2.6E1,1.8E2,4.9E1,1.43E2,3.7E1,7.1E1,7.2E1,4.4E1,2.7E1,2.6E1,4.6E1],"tree_param":{"num_deleted":"0","num_feature":"14","num_nodes":"17","size_leaf_vector":"1"}},{"base_weights":[-3.28593E-2,-1.0225176E-1,1.299259E-1,-5.5960875E-2,-4.1907188E-2,-4.899236E-3,2.277967E-1,-8.943996E-2,1.5479189E-2,3.5739783E-2,4.9556894E-3,-3.294119E-2,-2.5537679E-2,-1.0697455E-1,1.1062175E-2,2.6457107E-3,-2.8309777E-2],"categories":[],"categories_nodes":[],"categories_segments":[],"categories_sizes":[],"default_left":[0,0,0,0,0,0,0,0,0,0,0,0,0,0,0,0,0],"id":9,"left_children":[1,3,5,7,-1,-1,9,11,-1,-1,-1,13,-1,15,-1,-1,-1],"loss_changes":[3.4359932E0,3.1003814E0,1.6046498E0,1.3332809E0,0E0,0E0,1.3451934E0,1.5103742E0,0E0,0E0,0E0,1.308504E0,0E0,1.9110236E0,0E0,0E0,0E0],"parents":[2147483647,0,0,1,1,2,2,3,3,6,6,7,7,11,11,13,13],"right_children":[2,4,6,8,-1,-1,10,12,-1,-1,-1,14,-1,16,-1,-1,-1],"split_conditions":[2.886202E4,2.41583E4,8.7E-1,7.38E0,-4.1907188E-2,-4.899236E-3,3.443505E4,4.28E0,1.5479189E-2,3.5739783E-2,4.9556894E-3,1.24E0,-2.5537679E-2,-8.1E-1,1.1062175E-2,2.6457107E-3,-2.8309777E-2],"split_indices":[3,3,0,0,0,0,3,0,0,0,0,0,0,0,0,0,0],"split_type":[0,0,0,0,0,0,0,0,0,0,0,0,0,0,0,0,0],"sum_hessian":[3.02E2,2.12E2,9E1,1.86E2,2.6E1,3.2E1,5.8E1,1.61E2,2.5E1,3.3E1,2.5E1,1.21E2,4E1,8E1,4.1E1,4.6E1,3.4E1],"tree_param":{"num_deleted":"0","num_feature":"14","num_nodes":"17","size_leaf_vector":"1"}},{"base_weights":[2.7357465E-2,3.0095717E-3,2.96005E-2,2.4018979E-2,-2.0962443E-2,-3.184725E-3,2.5244951E-2,-1.820209E-2,3.3143356E-2,2.720329E-2,-6.3981176E-3,-6.788034E-2,1.5594642E-2,-2.0169446E-3,-1.9358067E-2],"categories":[],"categories_nodes":[],"categories_segments":[],"categories_sizes":[],"default_left":[0,0,0,0,0,0,0,0,0,0,0,0,0,0,0],"id":10,"left_children":[1,3,-1,5,-1,7,-1,-1,9,-1,11,13,-1,-1,-1],"loss_changes":[2.0464425E0,1.2916214E0,0E0,1.6351272E0,0E0,1.5392718E0,0E0,0E0,1.8626114E0,0E0,1.7074074E0,7.397576E-1,0E0,0E0,0E0],"parents":[2147483647,0,0,1,1,3,3,5,5,8,8,10,10,11,11],"right_children":[2,4,-1,6,-1,8,-1,-1,10,-1,12,14,-1,-1,-1],"split_conditions":[9.01E0,8.29E0,2.96005E-2,1E0,-2.0962443E-2,6.3E-1,2.5244951E-2,-1.820209E-2,1.96E0,2.720329E-2,6.7E0,8.59E0,1.5594642E-2,-2.0169446E-3,-1.9358067E-2],"split_indices":[2,2,0,12,0,2,0,0,2,0,2,1,0,0,0],"split_type":[0,0,0,0,0,0,0,0,0,0,0,0,0,0,0],"sum_hessian":[3.12E2,2.87E2,2.5E1,2.62E2,2.5E1,2.35E2,2.7E1,3.9E1,1.96E2,2.7E1,1.69E2,1.23E2,4.6E1,9E1,3.3E1],"tree_param":{"num_deleted":"0","num_feature":"14","num_nodes":"15","size_leaf_vector":"1"}},{"base_weights":[1.6652634E-2,-4.2671982E-2,1.5704517E-1,-5.99124E-3,-3.1331472E-2,2.472508E-1,-6.9273957E-3,-4.2502318E-2,2.1068126E-2,1.2603013E-3,3.994568E-2,1.6560517E-2,-3.341892E-2,-1.374158E-2,8.016121E-2,-9.3281925E-2,2.903659E-2,3.7597336E-3,-2.3040107E-2],"categories":[],"categories_nodes":[],"categories_segments":[],"categories_sizes":[],"default_left":[0,0,0,0,0,0,0,0,0,0,0,0,0,0,0,0,0,0,0],"id":11,"left_children":[1,3,5,7,-1,9,-1,11,-1,-1,-1,13,-1,-1,15,17,-1,-1,-1],"loss_changes":[2.58028E0,2.1622908E0,1.8953321E0,1.5357671E0,0E0,2.3521423E0,0E0,2.8653576E0,0E0,0E0,0E0,1.3722423E0,0E0,0E0,3.6364832E0,9.9569523E-1,0E0,0E0,0E0],"parents":[2147483647,0,0,1,1,2,2,3,3,5,5,7,7,11,11,14,14,15,15],"right_children":[2,4,6,8,-1,10,-1,12,-1,-1,-1,14,-1,-1,16,18,-1,-1,-1],"split_conditions":[2.886202E4,2.41583E4,6.95E0,2.118626E4,-3.1331472E-2,4.91E0,-6.9273957E-3,1.850373E4,2.1068126E-2,1.2603013E-3,3.994568E-2,7.20198E3,-3.341892E-2,-1.374158E-2,5.67E0,2.71E0,2.903659E-2,3.7597336E-3,-2.3040107E-2],"split_indices":[3,3,2,3,0,1,0,3,0,0,0,3,0,0,2,2,0,0,0],"split_type":[0,0,0,0,0,0,0,0,0,0,0,0,0,0,0,0,0,0,0],"sum_hessian":[3.08E2,2.17E2,9.1E1,1.92E2,2.5E1,6.5E1,2.6E1,1.65E2,2.7E1,2.6E1,3.9E1,1.38E2,2.7E1,4E1,9.8E1,5.4E1,4.4E1,2.8E1,2.6E1],"tree_param":{"num_deleted":"0","num_feature":"14","num_nodes":"19","size_leaf_vector":"1"}},{"base_weights":[-1.7893888E-2,-8.348035E-2,1.3279814E-1,-3.8174674E-2,-3.8954835E-2,2.0754968E-1,-3.6081837E-3,-8.572755E-2,1.378902E-2,2.6403826E-3,3.1736046E-2,1.0799787E-2,-1.4731114E-1,-3.930708E-2,-7.109967E-2,1.730424E-2,-1.919857E-1,-3.0489782E-2,-9.667357E-3],"categories":[],"categories_nodes":[],"categories_segments":[],"categories_sizes":[],"default_left":[0,0,0,0,0,0,0,0,0,0,0,0,0,0,0,0,0,0,0],"id":12,"left_children":[1,3,5,7,-1,9,-1,11,-1,-1,-1,-1,13,-1,15,-1,17,-1,-1],"loss_changes":[3.0946934E0,3.008052E0,1.2067726E0,1.6109477E0,0E0,1.3044767E0,0E0,1.8173857E0,0E0,0E0,0E0,0E0,2.125969E0,0E0,2.659911E0,0E0,6.162379E-1,0E0,0E0],"parents":[2147483647,0,0,1,1,2,2,3,3,5,5,7,7,12,12,14,14,16,16],"right_children":[2,4,6,8,-1,10,-1,12,-1,-1,-1,-1,14,-1,16,-1,18,-1,-1],"split_conditions":[2.886202E4,2.41583E4,3.571222E4,1.988943E4,-3.8954835E-2,9.2E-1,-3.6081837E-3,5.8889E3,1.378902E-2,2.6403826E-3,3.1736046E-2,1.0799787E-2,9.65412E3,-3.930708E-2,1.37272E4,1.730424E-2,1.46E0,-3.0489782E-2,-9.667357E-3],"split_indices":[3,3,3,3,0,0,0,3,0,0,0,0,3,0,3,0,0,0,0],"split_type":[0,0,0,0,0,0,0,0,0,0,0,0,0,0,0,0,0,0,0],"sum_hessian":[3.11E2,2.17E2,9.4E1,1.9E2,2.7E1,6.5E1,2.9E1,1.5E2,4E1,2.5E1,4E1,3.6E1,1.14E2,2.6E1,8.8E1,2.9E1,5.9E1,2.6E1,3.3E1],"tree_param":{"num_deleted":"0","num_feature":"14","num_nodes":"19","size_leaf_vector":"1"}},{"base_weights":[1.6633304E-3,-3.957712E-2,1.6267106E-1,-9.067406E-3,-2.6756126E-2,2.3597052E-2,1.08237965E-2,4.406731E-2,-7.220704E-2,-7.868822E-3,1.1977929E-1,-1.5991877E-1,1.2818095E-2,2.4392258E-2,2.1142302E-4,-2.3511706E-2,-7.8002843E-3],"categories":[],"categories_nodes":[],"categories_segments":[],"categories_sizes":[],"default_left":[0,0,0,0,0,0,0,0,0,0,0,0,0,0,0,0,0],"id":13,"left_children":[1,3,5,7,-1,-1,-1,9,11,-1,13,15,-1,-1,-1,-1,-1],"loss_changes":[2.0515676E0,1.7086837E0,2.2582376E-1,7.345516E-1,0E0,0E0,0E0,1.1154189E0,1.7781363E0,0E0,1.0804265E0,4.1285598E-1,0E0,0E0,0E0,0E0,0E0],"parents":[2147483647,0,0,1,1,2,2,3,3,7,7,8,8,10,10,11,11],"right_children":[2,4,6,8,-1,-1,-1,10,12,-1,14,16,-1,-1,-1,-1,-1],"split_conditions":[3.178786E4,1E0,3.50328E4,1.812473E4,-2.6756126E-2,2.3597052E-2,1.08237965E-2,8.94302E3,2.819374E4,-7.868822E-3,1.37272E4,2.223572E4,1.2818095E-2,2.4392258E-2,2.1142302E-4,-2.3511706E-2,-7.8002843E-3],"split_indices":[3,13,3,3,0,0,0,3,3,0,3,3,0,0,0,0,0],"split_type":[0,0,0,0,0,0,0,0,0,0,0,0,0,0,0,0,0],"sum_hessian":[3.07E2,2.45E2,6.2E1,2.17E2,2.8E1,2.5E1,3.7E1,1.18E2,9.9E1,4.5E1,7.3E1,6.9E1,3E1,3.5E1,3.8E1,3.5E1,3.4E1],"tree_param":{"num_deleted":"0","num_feature":"14","num_nodes":"17","size_leaf_vector":"1"}},{"base_weights":[-1.0813049E-2,-2.9155442E-2,1.5017653E-2,1.6703533E-1,-2.6633002E-2,3.7398867E-2,-3.2203277E-3,-2.69456E-2,1.8475138E-2,1.5359245E-2,-2.6063249E-2,-1.5729433E-1,4.839414E-2,-5.789286E-4,-3.0857673E-2,3.172622E-2,-5.6665003E-2,-2.6263705E-2,1.5097368E-2],"categories":[],"categories_nodes":[],"categories_segments":[],"categories_sizes":[],"default_left":[0,0,0,0,0,0,0,0,0,0,0,0,0,0,0,0,0,0,0],"id":14,"left_children":[1,-1,3,5,7,-1,-1,-1,9,-1,11,13,15,-1,-1,-1,17,-1,-1],"loss_changes":[2.2379165E0,0E0,1.7963015E0,2.527262E0,2.4475627E0,0E0,0E0,0E0,1.1413876E0,0E0,1.4048829E0,1.1900561E0,2.6167057E0,0E0,0E0,0E0,2.9050918E0,0E0,0E0],"parents":[2147483647,0,0,2,2,3,3,4,4,8,8,10,10,11,11,12,12,16,16],"right_children":[2,-1,4,6,8,-1,-1,-1,10,-1,12,14,16,-1,-1,-1,18,-1,-1],"split_conditions":[-3.3E0,-2.9155442E-2,-5.5E-1,5.93E0,8.7E-1,3.7398867E-2,-3.2203277E-3,-2.69456E-2,3.1E0,1.5359245E-2,5.07E0,6.87E0,6.76E0,-5.789286E-4,-3.0857673E-2,3.172622E-2,6.86E0,-2.6263705E-2,1.5097368E-2],"split_indices":[0,0,0,1,0,0,0,0,0,0,0,1,0,0,0,0,1,0,0],"split_type":[0,0,0,0,0,0,0,0,0,0,0,0,0,0,0,0,0,0,0],"sum_hessian":[3.07E2,2.5E1,2.82E2,6E1,2.22E2,2.9E1,3.1E1,3.4E1,1.88E2,4.6E1,1.42E2,5.1E1,9.1E1,2.6E1,2.5E1,2.5E1,6.6E1,3.3E1,3.3E1],"tree_param":{"num_deleted":"0","num_feature":"14","num_nodes":"19","size_leaf_vector":"1"}},{"base_weights":[-1.9576361E-2,-4.3542407E-2,2.41116E-2,-9.221122E-2,7.836676E-2,-5.0001502E-2,-3.527287E-2,1.6055783E-2,-2.8832038E-3,-1.0320913E-1,1.1075779E-2,-2.1650748E-2,-3.1203065E-2,-1.9067386E-2,1.3122599E-1,-1.783044E-3,2.7523527E-2],"categories":[],"categories_nodes":[],"categories_segments":[],"categories_sizes":[],"default_left":[0,0,0,0,0,0,0,0,0,0,0,0,0,0,0,0,0],"id":15,"left_children":[1,3,-1,5,7,9,-1,-1,-1,11,-1,13,-1,-1,15,-1,-1],"loss_changes":[1.9285628E0,1.6803814E0,0E0,2.2036295E0,7.183027E-1,1.5083148E0,0E0,0E0,0E0,2.2413557E0,0E0,2.5056326E0,0E0,0E0,1.0996486E0,0E0,0E0],"parents":[2147483647,0,0,1,1,3,3,4,4,5,5,9,9,11,11,14,14],"right_children":[2,4,-1,6,8,10,-1,-1,-1,12,-1,14,-1,-1,16,-1,-1],"split_conditions":[9.01E0,2.886202E4,2.41116E-2,2.41583E4,3.465592E4,9.4E0,-3.527287E-2,1.6055783E-2,-2.8832038E-3,7.48E0,1.1075779E-2,1.254177E4,-3.1203065E-2,-1.9067386E-2,4.16E0,-1.783044E-3,2.7523527E-2],"split_indices":[2,3,0,3,3,1,0,0,0,1,0,3,0,0,1,0,0],"split_type":[0,0,0,0,0,0,0,0,0,0,0,0,0,0,0,0,0],"sum_hessian":[3.06E2,2.81E2,2.5E1,2.01E2,8E1,1.74E2,2.7E1,4.5E1,3.5E1,1.31E2,4.3E1,9.5E1,3.6E1,4.5E1,5E1,2.5E1,2.5E1],"tree_param":{"num_deleted":"0","num_feature":"14","num_nodes":"17","size_leaf_vector":"1"}},{"base_weights":[2.6887799E-2,-3.8762733E-2,1.0971871E-1,1.3014304E-2,-7.829936E-2,-1.3386211E-2,1.8290792E-1,-2.0038983E-1,1.0299711E-1,2.3331834E-1,2.076403E-3,-2.4648307E-2,-5.0005604E-2,2.714161E-2,-3.7061993E-3,9.531256E-2,4.601509E-2,2.0075858E-2,-2.574907E-2,4.21893E-3,1.4476995E-2],"categories":[],"categories_nodes":[],"categories_segments":[],"categories_sizes":[],"default_left":[0,0,0,0,0,0,0,0,0,0,0,0,0,0,0,0,0,0,0,0,0],"id":16,"left_children":[1,3,5,-1,7,-1,9,11,13,15,-1,17,-1,-1,-1,19,-1,-1,-1,-1,-1],"loss_changes":[1.6736861E0,1.1588E0,2.4490232E0,0E0,3.1194794E0,0E0,8.533981E-1,4.411433E0,1.3546104E0,2.4604783E0,0E0,2.8858442E0,0E0,0E0,0E0,1.278865E-1,0E0,0E0,0E0,0E0,0E0],"parents":[2147483647,0,0,1,1,2,2,4,4,6,6,7,7,8,8,9,9,11,11,15,15],"right_children":[2,4,6,-1,8,-1,10,12,14,16,-1,18,-1,-1,-1,20,-1,-1,-1,-1,-1],"split_conditions":[2.223572E4,5.8889E3,3.78E0,1.3014304E-2,5.98E0,-1.3386211E-2,7.38E0,3.56E0,1.48466E4,4.91E0,2.076403E-3,2.19E0,-5.0005604E-2,2.714161E-2,-3.7061993E-3,6.94E0,4.601509E-2,2.0075858E-2,-2.574907E-2,4.21893E-3,1.4476995E-2],"split_indices":[3,3,1,0,2,0,2,2,3,2,0,0,0,0,0,1,0,0,0,0,0],"split_type":[0,0,0,0,0,0,0,0,0,0,0,0,0,0,0,0,0,0,0,0,0],"sum_hessian":[3.06E2,1.71E2,1.35E2,3.2E1,1.39E2,3.1E1,1.04E2,8.3E1,5.6E1,7.9E1,2.5E1,5.3E1,3E1,2.5E1,3.1E1,5E1,2.9E1,2.7E1,2.6E1,2.5E1,2.5E1],"tree_param":{"num_deleted":"0","num_feature":"14","num_nodes":"21","size_leaf_vector":"1"}},{"base_weights":[2.6079882E-2,-8.139333E-2,9.49949E-2,3.0102199E-2,-3.162865E-2,1.0108062E-2,2.027322E-1,3.2953333E-2,-1.1496977E-1,1.7836578E-2,-5.3114932E-2,3.312602E-1,-4.3944484E-3,-2.9717138E-2,1.0523102E-2,-1.6923083E-1,1.5692443E-2,1.3057108E-2,5.1360626E-2,-4.968494E-3,-2.780813E-2],"categories":[],"categories_nodes":[],"categories_segments":[],"categories_sizes":[],"default_left":[0,0,0,0,0,0,0,0,0,0,0,0,0,0,0,0,0,0,0,0,0],"id":17,"left_children":[1,3,5,7,-1,9,11,-1,13,-1,15,17,-1,-1,-1,19,-1,-1,-1,-1,-1],"loss_changes":[2.348192E0,3.2570238E0,1.7630283E0,3.730207E0,0E0,1.1689894E0,2.70947E0,0E0,2.358286E0,0E0,1.9776691E0,1.9822502E0,0E0,0E0,0E0,6.628401E-1,0E0,0E0,0E0,0E0,0E0],"parents":[2147483647,0,0,1,1,2,2,3,3,5,5,6,6,8,8,10,10,11,11,15,15],"right_children":[2,4,6,8,-1,10,12,-1,14,-1,16,18,-1,-1,-1,20,-1,-1,-1,-1,-1],"split_conditions":[8.7E-1,-8.1E-1,2.223572E4,2.37E0,-3.162865E-2,3.15E0,6.76E0,3.2953333E-2,6.1E0,1.7836578E-2,7.38E0,4.84E0,-4.3944484E-3,-2.9717138E-2,1.0523102E-2,4.24E0,1.5692443E-2,1.3057108E-2,5.1360626E-2,-4.968494E-3,-2.780813E-2],"split_indices":[0,0,3,2,0,0,0,0,2,0,0,2,0,0,0,2,0,0,0,0,0],"split_type":[0,0,0,0,0,0,0,0,0,0,0,0,0,0,0,0,0,0,0,0,0],"sum_hessian":[3.15E2,1.23E2,1.92E2,8.4E1,3.9E1,1.08E2,8.4E1,2.7E1,5.7E1,2.9E1,7.9E1,5.5E1,2.9E1,3.1E1,2.6E1,5.1E1,2.8E1,2.7E1,2.8E1,2.5E1,2.6E1],"tree_param":{"num_deleted":"0","num_feature":"14","num_nodes":"21","size_leaf_vector":"1"}},{"base_weights":[-8.255999E-3,-4.8596665E-2,1.5323983E-1,-1.5028672E-1,4.9472492E-2,2.0884287E-2,7.82632E-3,-4.805277E-3,-4.9769223E-2,2.4162607E-2,-6.643806E-2,1.065334E-2,-1.1603475E-2,-2.930752E-2,4.190747E-2,2.4081852E-2,-1.3187902E-2],"categories":[],"categories_nodes":[],"categories_segments":[],"categories_sizes":[],"default_left":[0,0,0,0,0,0,0,0,0,0,0,0,0,0,0,0,0],"id":18,"left_children":[1,3,5,7,9,-1,-1,11,-1,-1,13,-1,-1,-1,15,-1,-1],"loss_changes":[2.0205355E0,2.4806542E0,2.4212897E-1,6.163617E0,2.8446765E0,0E0,0E0,1.0897819E0,0E0,0E0,1.9766917E0,0E0,0E0,0E0,1.9330016E0,0E0,0E0],"parents":[2147483647,0,0,1,1,2,2,3,3,4,4,7,7,10,10,14,14],"right_children":[2,4,6,8,10,-1,-1,12,-1,-1,14,-1,-1,-1,16,-1,-1],"split_conditions":[3.178786E4,6.62E0,6.73E0,4.84E0,8.64E0,2.0884287E-2,7.82632E-3,1.850373E4,-4.9769223E-2,2.4162607E-2,9.56E0,1.065334E-2,-1.1603475E-2,-2.930752E-2,1.074E1,2.4081852E-2,-1.3187902E-2],"split_indices":[3,1,1,1,1,0,0,3,0,0,1,0,0,0,1,0,0],"split_type":[0,0,0,0,0,0,0,0,0,0,0,0,0,0,0,0,0],"sum_hessian":[3.08E2,2.47E2,6.1E1,1.21E2,1.26E2,3.4E1,2.7E1,8.6E1,3.5E1,4.7E1,7.9E1,4.3E1,4.3E1,2.5E1,5.4E1,2.5E1,2.9E1],"tree_param":{"num_deleted":"0","num_feature":"14","num_nodes":"17","size_leaf_vector":"1"}},{"base_weights":[-6.433358E-3,2.055226E-2,-2.9204274E-2,-3.0888585E-2,2.6998837E-2,7.8559825E-3,-3.2175343E-2,-6.0599647E-2,2.0312285E-1,2.0731665E-2,-3.072106E-2,1.3977413E-2,2.6840512E-2,-1.2730427E-1,1.3363074E-1,-2.7946785E-2,2.393858E-3,3.6139503E-2,-7.19489E-4],"categories":[],"categories_nodes":[],"categories_segments":[],"categories_sizes":[],"default_left":[0,0,0,0,0,0,0,0,0,0,0,0,0,0,0,0,0,0,0],"id":19,"left_children":[1,3,-1,5,-1,7,-1,9,11,13,-1,-1,-1,15,17,-1,-1,-1,-1],"loss_changes":[2.4106941E0,3.6780639E0,0E0,2.6846523E0,0E0,2.8327708E0,0E0,3.1553478E0,1.8993878E-1,2.005873E0,0E0,0E0,0E0,1.2033998E0,2.1837034E0,0E0,0E0,0E0,0E0],"parents":[2147483647,0,0,1,1,3,3,5,5,7,7,8,8,9,9,13,13,14,14],"right_children":[2,4,-1,6,-1,8,-1,10,12,14,-1,-1,-1,16,18,-1,-1,-1,-1],"split_conditions":[1.118E1,9.56E0,-2.9204274E-2,8.64E0,2.6998837E-2,6.64E0,-3.2175343E-2,5.4E0,2.43E0,3.92E0,-3.072106E-2,1.3977413E-2,2.6840512E-2,8.9E-1,6.06E0,-2.7946785E-2,2.393858E-3,3.6139503E-2,-7.19489E-4],"split_indices":[1,1,0,1,0,1,0,1,0,2,0,0,0,0,2,0,0,0,0],"split_type":[0,0,0,0,0,0,0,0,0,0,0,0,0,0,0,0,0,0,0],"sum_hessian":[3.11E2,2.85E2,2.6E1,2.37E2,4.8E1,2.1E2,2.7E1,1.56E2,5.4E1,1.18E2,3.8E1,2.9E1,2.5E1,5.1E1,6.7E1,2.5E1,2.6E1,2.5E1,4.2E1],"tree_param":{"num_deleted":"0","num_feature":"14","num_nodes":"19","size_leaf_vector":"1"}},{"base_weights":[-1.7048253E-2,8.961882E-3,-1.1089303E-1,-1.3172749E-2,1.9676158E-2,-1.7758926E-2,-5.674483E-3,1.6313082E-2,-2.2563811E-2,-1.607546E-2,4.572726E-2,2.4172403E-2,8.138248E-3,-5.2865814E-2,9.7400434E-2,7.6489383E-3,-1.8712206E-2,1.6795523E-2,4.1039527E-4],"categories":[],"categories_nodes":[],"categories_segments":[],"categories_sizes":[],"default_left":[0,0,0,0,0,0,0,0,0,0,0,0,0,0,0,0,0,0,0],"id":20,"left_children":[1,3,5,7,-1,-1,-1,9,-1,-1,11,-1,13,15,17,-1,-1,-1,-1],"loss_changes":[7.650004E-1,1.0251836E0,2.3550344E-1,1.3881835E0,0E0,0E0,0E0,1.0229695E0,0E0,0E0,1.2357435E0,0E0,7.783897E-1,1.4904859E0,3.810966E-1,0E0,0E0,0E0,0E0],"parents":[2147483647,0,0,1,1,2,2,3,3,7,7,10,10,12,12,13,13,14,14],"right_children":[2,4,6,8,-1,-1,-1,10,-1,-1,12,-1,14,16,18,-1,-1,-1,-1],"split_conditions":[6.72E0,5.05E0,7.87E0,4.18E0,1.9676158E-2,-1.7758926E-2,-5.674483E-3,-3.3E0,-2.2563811E-2,-1.607546E-2,-2.15E0,2.4172403E-2,1.56E0,-1.6E-1,2.99E0,7.6489383E-3,-1.8712206E-2,1.6795523E-2,4.1039527E-4],"split_indices":[0,0,0,0,0,0,0,0,0,0,0,0,0,0,0,0,0,0,0],"split_type":[0,0,0,0,0,0,0,0,0,0,0,0,0,0,0,0,0,0,0],"sum_hessian":[3.12E2,2.45E2,6.7E1,2.2E2,2.5E1,2.9E1,3.8E1,1.94E2,2.6E1,2.7E1,1.67E2,2.6E1,1.41E2,8.4E1,5.7E1,4.3E1,4.1E1,3.2E1,2.5E1],"tree_param":{"num_deleted":"0","num_feature":"14","num_nodes":"19","size_leaf_vector":"1"}},{"base_weights":[2.0343719E-2,-1.2370163E-1,4.9516365E-2,2.206703E-3,-2.7592553E-2,7.837754E-2,-1.8407574E-2,1.5123247E-1,-4.3386072E-2,8.1918225E-2,3.1005373E-2,-1.698598E-1,2.0679178E-2,-1.3515533E-2,2.6771853E-2,-3.361826E-2,3.9714724E-3,1.5460098E-2,-1.2527141E-2],"categories":[],"categories_nodes":[],"categories_segments":[],"categories_sizes":[],"default_left":[0,0,0,0,0,0,0,0,0,0,0,0,0,0,0,0,0,0,0],"id":21,"left_children":[1,3,5,-1,-1,7,-1,9,11,13,-1,15,-1,17,-1,-1,-1,-1,-1],"loss_changes":[1.3214087E0,1.1821309E0,1.7740221E0,0E0,0E0,2.073523E0,0E0,1.5818532E0,2.819527E0,1.8299755E0,0E0,2.0699155E0,0E0,1.3157396E0,0E0,0E0,0E0,0E0,0E0],"parents":[2147483647,0,0,1,1,2,2,5,5,7,7,8,8,9,9,11,11,13,13],"right_children":[2,4,6,-1,-1,8,-1,10,12,14,-1,16,-1,18,-1,-1,-1,-1,-1],"split_conditions":[3.32E0,2.173152E4,1E0,2.206703E-3,-2.7592553E-2,6.34E0,-1.8407574E-2,4.78E0,9.43E0,2.717116E4,3.1005373E-2,8.53E0,2.0679178E-2,1.99E0,2.6771853E-2,-3.361826E-2,3.9714724E-3,1.5460098E-2,-1.2527141E-2],"split_indices":[1,3,11,0,0,2,0,2,1,3,0,2,0,2,0,0,0,0,0],"split_type":[0,0,0,0,0,0,0,0,0,0,0,0,0,0,0,0,0,0,0],"sum_hessian":[3.12E2,5.2E1,2.6E2,2.7E1,2.5E1,2.32E2,2.8E1,1.45E2,8.7E1,1.02E2,4.3E1,5.8E1,2.9E1,6.8E1,3.4E1,3.2E1,2.6E1,2.7E1,4.1E1],"tree_param":{"num_deleted":"0","num_feature":"14","num_nodes":"19","size_leaf_vector":"1"}},{"base_weights":[-8.143851E-3,-3.524649E-2,2.0890998E-2,-1.4337921E-2,-2.3895571E-2,-5.91608E-2,1.8019326E-2,2.6351487E-2,-2.0498498E-1,-2.8338738E-2,2.4008527E-2,-2.7510498E-2,-9.206158E-3,-1.6585547E-2,8.832778E-2,2.152988E-2,-5.5401823E-3],"categories":[],"categories_nodes":[],"categories_segments":[],"categories_sizes":[],"default_left":[0,0,0,0,0,0,0,0,0,0,0,0,0,0,0,0,0],"id":22,"left_children":[1,3,-1,5,-1,7,-1,9,11,13,-1,-1,-1,-1,15,-1,-1],"loss_changes":[1.8545414E0,1.1891692E0,0E0,2.2341197E0,0E0,2.5991116E0,0E0,1.5497714E0,5.8437395E-1,1.7152711E0,0E0,0E0,0E0,0E0,1.0703986E0,0E0,0E0],"parents":[2147483647,0,0,1,1,3,3,5,5,7,7,8,8,9,9,14,14],"right_children":[2,4,-1,6,-1,8,-1,10,12,14,-1,-1,-1,-1,16,-1,-1],"split_conditions":[8.73E0,1.111E1,2.0890998E-2,9.43E0,-2.3895571E-2,5.5E0,1.8019326E-2,4.52E0,6.62E0,4.54E0,2.4008527E-2,-2.7510498E-2,-9.206158E-3,-1.6585547E-2,6.73E0,2.152988E-2,-5.5401823E-3],"split_indices":[2,1,0,1,0,2,0,2,1,1,0,0,0,0,1,0,0],"split_type":[0,0,0,0,0,0,0,0,0,0,0,0,0,0,0,0,0],"sum_hessian":[3.13E2,2.79E2,3.4E1,2.54E2,2.5E1,2.07E2,4.7E1,1.31E2,7.6E1,1.05E2,2.6E1,4.6E1,3E1,4.8E1,5.7E1,3E1,2.7E1],"tree_param":{"num_deleted":"0","num_feature":"14","num_nodes":"17","size_leaf_vector":"1"}},{"base_weights":[-5.6533027E-3,1.1859999E-2,-1.9225247E-2,-1.9694328E-2,1.4008358E-1,6.861752E-3,-2.3036411E-2,3.203459E-2,-3.2830709E-3,-4.0543616E-2,1.5652549E-2,4.6117175E-2,-2.3426084E-2,-1.4132258E-1,2.0467234E-1,-8.981203E-3,-1.8739766E-2,4.3694405E-3,3.538551E-2],"categories":[],"categories_nodes":[],"categories_segments":[],"categories_sizes":[],"default_left":[0,0,0,0,0,0,0,0,0,0,0,0,0,0,0,0,0,0,0],"id":23,"left_children":[1,3,-1,5,7,9,-1,-1,-1,11,-1,13,-1,15,17,-1,-1,-1,-1],"loss_changes":[1.0284219E0,1.1680094E0,0E0,1.2995195E0,1.7872033E0,1.474983E0,0E0,0E0,0E0,2.663258E0,0E0,3.2980742E0,0E0,1.0421038E-1,1.4254465E0,0E0,0E0,0E0,0E0],"parents":[2147483647,0,0,1,1,3,3,4,4,5,5,9,9,11,11,13,13,14,14],"right_children":[2,4,-1,6,8,10,-1,-1,-1,12,-1,14,-1,16,18,-1,-1,-1,-1],"split_conditions":[1.123E1,9.4E0,-1.9225247E-2,8.59E0,1.031E1,6.78E0,-2.3036411E-2,3.203459E-2,-3.2830709E-3,5.15E0,1.5652549E-2,3.92E0,-2.3426084E-2,2.107266E4,3.31E0,-8.981203E-3,-1.8739766E-2,4.3694405E-3,3.538551E-2],"split_indices":[1,1,0,1,1,1,0,0,0,1,0,2,0,3,1,0,0,0,0],"split_type":[0,0,0,0,0,0,0,0,0,0,0,0,0,0,0,0,0,0,0],"sum_hessian":[3.13E2,2.87E2,2.6E1,2.31E2,5.6E1,2.06E2,2.5E1,2.7E1,2.9E1,1.57E2,4.9E1,1.09E2,4.8E1,5E1,5.9E1,2.5E1,2.5E1,2.9E1,3E1],"tree_param":{"num_deleted":"0","num_feature":"14","num_nodes":"19","size_leaf_vector":"1"}},{"base_weights":[8.446241E-3,-1.6521433E-2,2.8207388E-2,1.5455152E-1,-1.2212518E-2,-2.2211312E-3,3.4305613E-2,-2.3185808E-2,1.923252E-2,1.3113222E-1,-4.111045E-2,-1.8417974E-3,3.3675354E-2,-3.9032232E-2,8.098706E-2,1.8722449E-1,-6.001541E-3,7.446611E-3,2.9278193E-2],"categories":[],"categories_nodes":[],"categories_segments":[],"categories_sizes":[],"default_left":[0,0,0,0,0,0,0,0,0,0,0,0,0,0,0,0,0,0,0],"id":24,"left_children":[1,-1,3,5,7,-1,-1,-1,9,11,13,-1,-1,-1,15,17,-1,-1,-1],"loss_changes":[1.0410434E0,0E0,1.3909419E0,2.20678E0,1.434159E0,0E0,0E0,0E0,1.2343204E0,1.9742473E0,5.105521E0,0E0,0E0,0E0,1.3444333E0,5.852244E-1,0E0,0E0,0E0],"parents":[2147483647,0,0,2,2,3,3,4,4,8,8,9,9,10,10,14,14,15,15],"right_children":[2,-1,4,6,8,-1,-1,-1,10,12,14,-1,-1,-1,16,18,-1,-1,-1],"split_conditions":[4.3E-1,-1.6521433E-2,3.29E0,1.988943E4,4.17E0,-2.2211312E-3,3.4305613E-2,-2.3185808E-2,5.3E0,3.81E0,7.24E0,-1.8417974E-3,3.3675354E-2,-3.9032232E-2,7.08E0,5.59E0,-6.001541E-3,7.446611E-3,2.9278193E-2],"split_indices":[2,0,2,3,2,0,0,0,1,1,1,0,0,0,2,2,0,0,0],"split_type":[0,0,0,0,0,0,0,0,0,0,0,0,0,0,0,0,0,0,0],"sum_hessian":[3.01E2,3E1,2.71E2,6.5E1,2.06E2,3.4E1,3.1E1,2.5E1,1.81E2,6.3E1,1.18E2,3.7E1,2.6E1,3E1,8.8E1,5E1,3.8E1,2.5E1,2.5E1],"tree_param":{"num_deleted":"0","num_feature":"14","num_nodes":"19","size_leaf_vector":"1"}},{"base_weights":[1.8925054E-2,-2.1225525E-2,4.0914252E-2,2.0790224E-1,-3.9973273E-3,3.559572E-2,4.798206E-3,-1.7367773E-2,3.8444977E-2,1.0116537E-1,-6.634692E-2,2.1147227E-1,-7.0219995E-3,-2.6191467E-2,1.3692419E-2,7.0836744E-3,3.4606572E-2],"categories":[],"categories_nodes":[],"categories_segments":[],"categories_sizes":[],"default_left":[0,0,0,0,0,0,0,0,0,0,0,0,0,0,0,0,0],"id":25,"left_children":[1,-1,3,5,7,-1,-1,-1,9,11,13,15,-1,-1,-1,-1,-1],"loss_changes":[1.5794764E0,0E0,2.1232443E0,1.4035392E0,1.6198415E0,0E0,0E0,0E0,1.1897781E0,2.151113E0,2.7390847E0,1.2815607E0,0E0,0E0,0E0,0E0,0E0],"parents":[2147483647,0,0,2,2,3,3,4,4,8,8,9,9,10,10,11,11],"right_children":[2,-1,4,6,8,-1,-1,-1,10,12,14,16,-1,-1,-1,-1,-1],"split_conditions":[-3.3E0,-2.1225525E-2,-8.1E-1,5.93E0,1.24E0,3.559572E-2,4.798206E-3,-1.7367773E-2,6.72E0,7.59E0,6.86E0,4.63E0,-7.0219995E-3,-2.6191467E-2,1.3692419E-2,7.0836744E-3,3.4606572E-2],"split_indices":[0,0,0,1,0,0,0,0,0,1,1,1,0,0,0,0,0],"split_type":[0,0,0,0,0,0,0,0,0,0,0,0,0,0,0,0,0],"sum_hessian":[3.08E2,2.6E1,2.82E2,5.9E1,2.23E2,3E1,2.9E1,4.4E1,1.79E2,1.12E2,6.7E1,6.8E1,4.4E1,3.4E1,3.3E1,3.4E1,3.4E1],"tree_param":{"num_deleted":"0","num_feature":"14","num_nodes":"17","size_leaf_vector":"1"}},{"base_weights":[-1.612798E-3,-1.6658956E-2,1.7630473E-2,-2.4760004E-2,1.16666645E-1,-1.269736E-1,5.577175E-2,2.7348757E-2,1.4222479E-4,-2.8527392E-2,-3.3691093E-2,4.860081E-3,2.0833319E-2,5.5352915E-3,-1.3620456E-2,1.3647533E-2,-1.3313827E-2],"categories":[],"categories_nodes":[],"categories_segments":[],"categories_sizes":[],"default_left":[0,0,0,0,0,0,0,0,0,0,0,0,0,0,0,0,0],"id":26,"left_children":[1,-1,3,5,7,9,11,-1,-1,13,-1,15,-1,-1,-1,-1,-1],"loss_changes":[1.0029651E0,0E0,1.1909767E0,1.6451383E0,1.5357933E0,1.8091317E0,8.6890906E-1,0E0,0E0,5.5849093E-1,0E0,1.5619984E0,0E0,0E0,0E0,0E0,0E0],"parents":[2147483647,0,0,2,2,3,3,4,4,5,5,6,6,9,9,11,11],"right_children":[2,-1,4,6,8,10,12,-1,-1,14,-1,16,-1,-1,-1,-1,-1],"split_conditions":[2.89E0,-1.6658956E-2,2.886202E4,6.62E0,6.07E0,5.4E0,2.103083E4,2.7348757E-2,1.4222479E-4,1.47515E4,-3.3691093E-2,1.37272E4,2.0833319E-2,5.5352915E-3,-1.3620456E-2,1.3647533E-2,-1.3313827E-2],"split_indices":[1,0,3,1,1,1,3,0,0,3,0,3,0,0,0,0,0],"split_type":[0,0,0,0,0,0,0,0,0,0,0,0,0,0,0,0,0],"sum_hessian":[3.14E2,3.2E1,2.82E2,1.98E2,8.4E1,8.7E1,1.11E2,3.5E1,4.9E1,6E1,2.7E1,8.4E1,2.7E1,3.4E1,2.6E1,4.3E1,4.1E1],"tree_param":{"num_deleted":"0","num_feature":"14","num_nodes":"17","size_leaf_vector":"1"}},{"base_weights":[-3.0110073E-3,1.3696243E-2,-2.8258054E-2,-1.5197001E-1,1.794413E-3,-1.0892516E-2,-1.9082544E-2,2.0766852E-2,-4.500535E-2,-3.0199477E-2,1.5527825E-3,4.1875537E-2,-1.7563479E-2,-4.1678034E-2,1.3935298E-1,8.247406E-3,-2.4062842E-2,2.1880789E-2,3.6202602E-3],"categories":[],"categories_nodes":[],"categories_segments":[],"categories_sizes":[],"default_left":[0,0,0,0,0,0,0,0,0,0,0,0,0,0,0,0,0,0,0],"id":27,"left_children":[1,-1,3,5,7,-1,-1,-1,9,-1,11,13,-1,15,17,-1,-1,-1,-1],"loss_changes":[1.109986E0,0E0,9.892206E-1,6.618571E-2,2.0808408E0,0E0,0E0,0E0,2.1062996E0,0E0,1.0790584E0,1.0075923E0,0E0,1.6747528E0,4.5923924E-1,0E0,0E0,0E0,0E0],"parents":[2147483647,0,0,2,2,3,3,4,4,8,8,10,10,11,11,13,13,14,14],"right_children":[2,-1,4,6,8,-1,-1,-1,10,-1,12,14,-1,16,18,-1,-1,-1,-1],"split_conditions":[3.22E0,1.3696243E-2,4.63E0,3.96E0,5.93E0,-1.0892516E-2,-1.9082544E-2,2.0766852E-2,6.86E0,-3.0199477E-2,1.123E1,9.4E0,-1.7563479E-2,8.59E0,1.047E1,8.247406E-3,-2.4062842E-2,2.1880789E-2,3.6202602E-3],"split_indices":[1,0,1,1,1,0,0,0,1,0,1,1,0,1,1,0,0,0,0],"split_type":[0,0,0,0,0,0,0,0,0,0,0,0,0,0,0,0,0,0,0],"sum_hessian":[3.12E2,4.7E1,2.65E2,5.1E1,2.14E2,2.6E1,2.5E1,3.9E1,1.75E2,2.6E1,1.49E2,1.22E2,2.7E1,6.6E1,5.6E1,4.1E1,2.5E1,3.1E1,2.5E1],"tree_param":{"num_deleted":"0","num_feature":"14","num_nodes":"19","size_leaf_vector":"1"}},{"base_weights":[-5.8162184E-3,-3.7303794E-2,5.690222E-2,2.0982546E-3,-2.9955966E-2,1.3647392E-2,2.560208E-2,-4.6805583E-2,1.9765366E-2,-4.179607E-3,8.877922E-3,6.3808085E-3,-2.006324E-2,-8.538625E-3,8.221594E-2,1.3349797E-2,1.8392215E-3],"categories":[],"categories_nodes":[],"categories_segments":[],"categories_sizes":[],"default_left":[0,0,0,0,0,0,0,0,0,0,0,0,0,0,0,0,0],"id":28,"left_children":[1,3,5,7,-1,-1,9,11,-1,-1,-1,13,-1,-1,15,-1,-1],"loss_changes":[5.906284E-1,2.056979E0,2.4556658E-1,1.6732845E0,0E0,0E0,3.145462E-1,1.1466893E0,0E0,0E0,0E0,7.3773265E-1,0E0,0E0,1.8737927E-1,0E0,0E0],"parents":[2147483647,0,0,1,1,2,2,3,3,6,6,7,7,11,11,14,14],"right_children":[2,4,6,8,-1,-1,10,12,-1,-1,-1,14,-1,-1,16,-1,-1],"split_conditions":[2.819374E4,2.298274E4,3.115047E4,1.988943E4,-2.9955966E-2,1.3647392E-2,3.521687E4,1.594809E4,1.9765366E-2,-4.179607E-3,8.877922E-3,7.86772E3,-2.006324E-2,-8.538625E-3,1.174637E4,1.3349797E-2,1.8392215E-3],"split_indices":[3,3,3,3,0,0,3,3,0,0,0,3,0,0,3,0,0],"split_type":[0,0,0,0,0,0,0,0,0,0,0,0,0,0,0,0,0],"sum_hessian":[2.97E2,1.98E2,9.9E1,1.73E2,2.5E1,2.7E1,7.2E1,1.39E2,3.4E1,3.5E1,3.7E1,1.04E2,3.5E1,4.7E1,5.7E1,3.1E1,2.6E1],"tree_param":{"num_deleted":"0","num_feature":"14","num_nodes":"17","size_leaf_vector":"1"}},{"base_weights":[-9.708095E-3,-1.9887593E-2,7.87692E-3,-1.7672526E-2,2.5834827E-2,-2.7297407E-2,1.2437205E-2,5.871511E-2,-1.4260955E-1,1.711262E-1,-2.197349E-2,-1.4309555E-3,-2.751314E-2,6.728901E-3,2.81564E-2,-2.643146E-2,5.808972E-2,-6.198464E-3,1.9206874E-2],"categories":[],"categories_nodes":[],"categories_segments":[],"categories_sizes":[],"default_left":[0,0,0,0,0,0,0,0,0,0,0,0,0,0,0,0,0,0,0],"id":29,"left_children":[1,-1,3,5,-1,-1,7,9,11,13,15,-1,-1,-1,-1,-1,17,-1,-1],"loss_changes":[1.0560731E0,0E0,1.866792E0,2.040466E0,0E0,0E0,1.7160802E0,1.6726942E0,9.3120325E-1,8.640554E-1,2.1108353E0,0E0,0E0,0E0,0E0,0E0,1.3310759E0,0E0,0E0],"parents":[2147483647,0,0,2,2,3,3,6,6,7,7,8,8,9,9,10,10,16,16],"right_children":[2,-1,4,6,-1,-1,8,10,12,14,16,-1,-1,-1,-1,-1,18,-1,-1],"split_conditions":[-3.3E0,-1.9887593E-2,1E0,6.3E-1,2.5834827E-2,-2.7297407E-2,6.72E0,4.81E0,5.52E0,2.63E0,1.063813E4,-1.4309555E-3,-2.751314E-2,6.728901E-3,2.81564E-2,-2.643146E-2,1.56E0,-6.198464E-3,1.9206874E-2],"split_indices":[0,0,10,2,0,0,0,2,2,2,3,0,0,0,0,0,0,0,0],"split_type":[0,0,0,0,0,0,0,0,0,0,0,0,0,0,0,0,0,0,0],"sum_hessian":[3.16E2,2.6E1,2.9E2,2.64E2,2.6E1,2.7E1,2.37E2,1.83E2,5.4E1,7.6E1,1.07E2,2.8E1,2.6E1,4E1,3.6E1,2.6E1,8.1E1,4.3E1,3.8E1],"tree_param":{"num_deleted":"0","num_feature":"14","num_nodes":"19","size_leaf_vector":"1"}},{"base_weights":[-7.957951E-3,-1.4337628E-1,2.3709271E-2,-3.1188658E-2,-1.9811517E-4,1.3349637E-3,2.112579E-2,1.5603977E-2,-2.6951587E-2,-1.7735315E-2,2.2306737E-2,1.4458868E-1,-5.7578098E-2,2.1756047E-2,6.914735E-3,1.6222721E-2,-2.194474E-2,-8.118997E-3,1.4673123E-2],"categories":[],"categories_nodes":[],"categories_segments":[],"categories_sizes":[],"default_left":[0,0,0,0,0,0,0,0,0,0,0,0,0,0,0,0,0,0,0],"id":30,"left_children":[1,3,5,-1,-1,7,-1,-1,9,-1,11,13,15,-1,-1,17,-1,-1,-1],"loss_changes":[1.289896E0,1.3574945E0,1.0236081E0,0E0,0E0,9.625638E-1,0E0,0E0,1.3819425E0,0E0,1.3856798E0,2.9324138E-1,1.0309235E0,0E0,0E0,7.747042E-1,0E0,0E0,0E0],"parents":[2147483647,0,0,1,1,2,2,5,5,8,8,10,10,11,11,12,12,15,15],"right_children":[2,4,6,-1,-1,8,-1,-1,10,-1,12,14,16,-1,-1,18,-1,-1,-1],"split_conditions":[-1.69E0,4.23E0,1E0,-3.1188658E-2,-1.9811517E-4,-2E-2,2.112579E-2,1.5603977E-2,2.37E0,-1.7735315E-2,5.52E0,4.18E0,6.72E0,2.1756047E-2,6.914735E-3,3.92E0,-2.194474E-2,-8.118997E-3,1.4673123E-2],"split_indices":[0,2,10,0,0,0,0,0,2,0,2,0,0,0,0,0,0,0,0],"split_type":[0,0,0,0,0,0,0,0,0,0,0,0,0,0,0,0,0,0,0],"sum_hessian":[2.99E2,5.6E1,2.43E2,2.5E1,3.1E1,2.18E2,2.5E1,3.3E1,1.85E2,4.5E1,1.4E2,5.5E1,8.5E1,2.7E1,2.8E1,5.9E1,2.6E1,3.4E1,2.5E1],"tree_param":{"num_deleted":"0","num_feature":"14","num_nodes":"19","size_leaf_vector":"1"}},{"base_weights":[2.2861341E-2,8.6219385E-2,-2.5698896E-2,1.8183853E-2,2.3319677E-2,-2.144102E-2,1.0420938E-2,9.153978E-2,-1.2221913E-2,1.1069832E-2,-3.0744286E-2,2.6796548E-2,-3.8421538E-3,-1.225236E-2,3.2386735E-2,1.4607929E-2,-8.23179E-3],"categories":[],"categories_nodes":[],"categories_segments":[],"categories_sizes":[],"default_left":[0,0,0,0,0,0,0,0,0,0,0,0,0,0,0,0,0],"id":31,"left_children":[1,3,5,7,-1,-1,9,11,-1,-1,13,-1,-1,-1,15,-1,-1],"loss_changes":[9.4368035E-1,1.3257176E0,1.1882569E0,9.5873183E-1,0E0,0E0,6.1021066E-1,1.4089351E0,0E0,0E0,6.123509E-1,0E0,0E0,0E0,8.3361185E-1,0E0,0E0],"parents":[2147483647,0,0,1,1,2,2,3,3,6,6,7,7,10,10,14,14],"right_children":[2,4,6,8,-1,-1,10,12,-1,-1,14,-1,-1,-1,16,-1,-1],"split_conditions":[5.93E0,4.63E0,6.86E0,3.66E0,2.3319677E-2,-2.144102E-2,1.37272E4,1.890838E4,-1.2221913E-2,1.1069832E-2,2.115481E4,2.6796548E-2,-3.8421538E-3,-1.225236E-2,3.166795E4,1.4607929E-2,-8.23179E-3],"split_indices":[1,1,1,1,0,0,3,3,0,0,3,0,0,0,3,0,0],"split_type":[0,0,0,0,0,0,0,0,0,0,0,0,0,0,0,0,0],"sum_hessian":[3.05E2,1.32E2,1.73E2,9.1E1,4.1E1,2.7E1,1.46E2,6E1,3.1E1,4.2E1,1.04E2,2.5E1,3.5E1,4.2E1,6.2E1,3.1E1,3.1E1],"tree_param":{"num_deleted":"0","num_feature":"14","num_nodes":"17","size_leaf_vector":"1"}},{"base_weights":[2.4049343E-3,-1.6688233E-2,1.9502237E-2,-8.888591E-2,5.487577E-2,-5.4441276E-4,-2.2466347E-2,3.2214187E-2,1.3576338E-2,-1.3840051E-2,1.6531643E-2,-5.7030853E-2,9.213405E-3,1.968593E-2,-2.9610394E-2,1.737843E-2,-6.7170807E-3],"categories":[],"categories_nodes":[],"categories_segments":[],"categories_sizes":[],"default_left":[0,0,0,0,0,0,0,0,0,0,0,0,0,0,0,0,0],"id":32,"left_children":[1,-1,3,5,7,-1,-1,-1,9,11,-1,13,-1,15,-1,-1,-1],"loss_changes":[9.149767E-1,0E0,1.1052561E0,8.0317295E-1,2.390859E0,0E0,0E0,0E0,7.885592E-1,7.4216855E-1,0E0,2.1150346E0,0E0,1.1895076E0,0E0,0E0,0E0],"parents":[2147483647,0,0,2,2,3,3,4,4,8,8,9,9,11,11,13,13],"right_children":[2,-1,4,6,8,-1,-1,-1,10,12,-1,14,-1,16,-1,-1,-1],"split_conditions":[-3.3E0,-1.6688233E-2,2.08E0,1.05E0,3.29E0,-5.4441276E-4,-2.2466347E-2,3.2214187E-2,8.73E0,5.07E0,1.6531643E-2,3.7E0,9.213405E-3,5.04E0,-2.9610394E-2,1.737843E-2,-6.7170807E-3],"split_indices":[0,0,2,2,2,0,0,0,2,0,0,0,0,2,0,0,0],"split_type":[0,0,0,0,0,0,0,0,0,0,0,0,0,0,0,0,0],"sum_hessian":[3.14E2,2.8E1,2.86E2,7E1,2.16E2,4.4E1,2.6E1,2.8E1,1.88E2,1.6E2,2.8E1,1.14E2,4.6E1,8.7E1,2.7E1,3.1E1,5.6E1],"tree_param":{"num_deleted":"0","num_feature":"14","num_nodes":"17","size_leaf_vector":"1"}},{"base_weights":[-7.1576526E-3,-1.7659187E-2,8.696609E-3,2.2610946E-2,-1.3656408E-2,4.9962036E-2,-9.72451E-2,-8.097095E-2,1.4834206E-1,-1.81605E-1,3.274895E-3,-1.8919514E-2,6.041822E-4,2.9050006E-2,2.9748238E-3,-3.0863991E-2,-2.640527E-3,1.093907E-2,-9.537818E-3],"categories":[],"categories_nodes":[],"categories_segments":[],"categories_sizes":[],"default_left":[0,0,0,0,0,0,0,0,0,0,0,0,0,0,0,0,0,0,0],"id":33,"left_children":[1,-1,3,-1,5,7,9,11,13,15,17,-1,-1,-1,-1,-1,-1,-1,-1],"loss_changes":[8.477059E-1,0E0,1.4075794E0,0E0,1.4034353E0,1.9441899E0,9.672984E-1,6.1324084E-1,1.4412377E0,1.2142289E0,5.652719E-1,0E0,0E0,0E0,0E0,0E0,0E0,0E0,0E0],"parents":[2147483647,0,0,2,2,4,4,5,5,6,6,7,7,8,8,9,9,10,10],"right_children":[2,-1,4,-1,6,8,10,12,14,16,18,-1,-1,-1,-1,-1,-1,-1,-1],"split_conditions":[-3.3E0,-1.7659187E-2,-2.15E0,2.2610946E-2,5.59E0,2.2E0,7.9E0,2.73E0,3.94E0,4.25E0,4.28E0,-1.8919514E-2,6.041822E-4,2.9050006E-2,2.9748238E-3,-3.0863991E-2,-2.640527E-3,1.093907E-2,-9.537818E-3],"split_indices":[0,0,0,0,2,2,2,0,2,0,0,0,0,0,0,0,0,0,0],"split_type":[0,0,0,0,0,0,0,0,0,0,0,0,0,0,0,0,0,0,0],"sum_hessian":[3.14E2,2.6E1,2.88E2,2.6E1,2.62E2,1.49E2,1.13E2,6.4E1,8.5E1,6.1E1,5.2E1,2.8E1,3.6E1,3.8E1,4.7E1,3.3E1,2.8E1,2.5E1,2.7E1],"tree_param":{"num_deleted":"0","num_feature":"14","num_nodes":"19","size_leaf_vector":"1"}},{"base_weights":[-1.0251683E-2,1.2270754E-2,-2.4260385E-2,3.925253E-2,-1.0088021E-1,2.3858757E-3,1.5954584E-1,-2.2521509E-2,3.179596E-3,5.1015884E-2,-2.5300687E-2,2.9289654E-2,2.0286043E-3,1.0229601E-2,2.3190936E-2,7.1386285E-2,-1.7765855E-2,-1.2700541E-3,2.5449563E-2],"categories":[],"categories_nodes":[],"categories_segments":[],"categories_sizes":[],"default_left":[0,0,0,0,0,0,0,0,0,0,0,0,0,0,0,0,0,0,0],"id":34,"left_children":[1,3,-1,5,7,9,11,-1,-1,13,-1,-1,-1,15,-1,17,-1,-1,-1],"loss_changes":[1.5990839E0,8.557507E-1,0E0,1.0018868E0,8.9795965E-1,2.173944E0,9.7828877E-1,0E0,0E0,1.0821897E0,0E0,0E0,0E0,1.403047E0,0E0,1.419764E0,0E0,0E0,0E0],"parents":[2147483647,0,0,1,1,3,3,4,4,5,5,6,6,9,9,13,13,15,15],"right_children":[2,4,-1,6,8,10,12,-1,-1,14,-1,-1,-1,16,-1,18,-1,-1,-1],"split_conditions":[1.118E1,6.72E0,-2.4260385E-2,3.022623E4,5.8E0,2.41583E4,3.431465E4,-2.2521509E-2,3.179596E-3,2.103083E4,-2.5300687E-2,2.9289654E-2,2.0286043E-3,1.704224E4,2.3190936E-2,1.254177E4,-1.7765855E-2,-1.2700541E-3,2.5449563E-2],"split_indices":[1,0,0,3,1,3,3,0,0,3,0,0,0,3,0,3,0,0,0],"split_type":[0,0,0,0,0,0,0,0,0,0,0,0,0,0,0,0,0,0,0],"sum_hessian":[3.04E2,2.78E2,2.6E1,2.25E2,5.3E1,1.73E2,5.2E1,2.7E1,2.6E1,1.46E2,2.7E1,2.6E1,2.6E1,1.2E2,2.6E1,9.1E1,2.9E1,6.3E1,2.8E1],"tree_param":{"num_deleted":"0","num_feature":"14","num_nodes":"19","size_leaf_vector":"1"}},{"base_weights":[4.12233E-3,1.02292545E-1,-2.234035E-2,-1.5184855E-3,2.5270114E-2,-6.089549E-2,5.647371E-2,-2.7797775E-2,-2.0890864E-2,2.2890111E-2,-5.5009304E-3,-1.6943606E-2,5.62919E-3,1.5366874E-2,-3.919241E-2,-1.4008175E-2,4.4521024E-3,5.263069E-3,-5.8166515E-3],"categories":[],"categories_nodes":[],"categories_segments":[],"categories_sizes":[],"default_left":[0,0,0,0,0,0,0,0,0,0,0,0,0,0,0,0,0,0,0],"id":35,"left_children":[1,3,5,-1,-1,7,9,11,-1,-1,-1,-1,13,-1,15,-1,17,-1,-1],"loss_changes":[8.0761784E-1,1.1700314E0,7.479174E-1,0E0,0E0,8.025108E-1,1.5696325E0,6.4485097E-1,0E0,0E0,0E0,0E0,7.4254864E-1,0E0,3.7930453E-1,0E0,1.870908E-1,0E0,0E0],"parents":[2147483647,0,0,1,1,2,2,5,5,6,6,7,7,12,12,14,14,16,16],"right_children":[2,4,6,-1,-1,8,10,12,-1,-1,-1,-1,14,-1,16,-1,18,-1,-1],"split_conditions":[1.66E0,6.3E-1,7.13E0,-1.5184855E-3,2.5270114E-2,6.42E0,8.29E0,2.65E0,-2.0890864E-2,2.2890111E-2,-5.5009304E-3,-1.6943606E-2,3.56E0,1.5366874E-2,4.78E0,-1.4008175E-2,5.5E0,5.263069E-3,-5.8166515E-3],"split_indices":[2,2,2,0,0,2,2,2,0,0,0,0,2,0,2,0,2,0,0],"split_type":[0,0,0,0,0,0,0,0,0,0,0,0,0,0,0,0,0,0,0],"sum_hessian":[3.09E2,6.5E1,2.44E2,3.7E1,2.8E1,1.64E2,8E1,1.35E2,2.9E1,3.1E1,4.9E1,2.5E1,1.1E2,2.5E1,8.5E1,2.5E1,6E1,3.4E1,2.6E1],"tree_param":{"num_deleted":"0","num_feature":"14","num_nodes":"19","size_leaf_vector":"1"}},{"base_weights":[1.5398108E-2,-2.7512447E-3,1.8058743E-2,1.1351955E-1,-3.1296916E-2,4.527249E-3,1.905249E-2,-7.369722E-2,9.719691E-2,1.562133E-2,-1.8153778E-1,-2.281774E-4,2.0781329E-2,-1.0193654E-2,8.281648E-2,-9.911677E-2,-3.251783E-2,2.889143E-2,-6.8332404E-3,-1.5503305E-2,-3.938831E-3],"categories":[],"categories_nodes":[],"categories_segments":[],"categories_sizes":[],"default_left":[0,0,0,0,0,0,0,0,0,0,0,0,0,0,0,0,0,0,0,0,0],"id":36,"left_children":[1,3,-1,5,7,-1,-1,9,11,13,15,-1,-1,-1,17,19,-1,-1,-1,-1,-1],"loss_changes":[9.3889564E-1,9.428377E-1,0E0,2.8567624E-1,1.2493474E0,0E0,0E0,1.6595678E0,6.277006E-1,7.5887734E-1,8.912108E-1,0E0,0E0,0E0,1.9199809E0,1.6422296E-1,0E0,0E0,0E0,0E0,0E0],"parents":[2147483647,0,0,1,1,3,3,4,4,7,7,8,8,9,9,10,10,14,14,15,15],"right_children":[2,4,-1,6,8,-1,-1,10,12,14,16,-1,-1,-1,18,20,-1,-1,-1,-1,-1],"split_conditions":[8.73E0,1.36E0,1.8058743E-2,2.2E-1,9.58E0,4.527249E-3,1.905249E-2,5.91E0,5.98E0,3.92E0,6.45E0,-2.281774E-4,2.0781329E-2,-1.0193654E-2,5.52E0,4.84E0,-3.251783E-2,2.889143E-2,-6.8332404E-3,-1.5503305E-2,-3.938831E-3],"split_indices":[2,2,0,2,1,0,0,1,2,2,2,0,0,0,2,2,0,0,0,0,0],"split_type":[0,0,0,0,0,0,0,0,0,0,0,0,0,0,0,0,0,0,0,0,0],"sum_hessian":[3.12E2,2.82E2,3E1,5.5E1,2.27E2,3E1,2.5E1,1.71E2,5.6E1,9.4E1,7.7E1,3E1,2.6E1,3.4E1,6E1,5E1,2.7E1,2.5E1,3.5E1,2.5E1,2.5E1],"tree_param":{"num_deleted":"0","num_feature":"14","num_nodes":"21","size_leaf_vector":"1"}},{"base_weights":[-3.128509E-3,1.6358715E-2,-2.388017E-2,-4.5186084E-2,1.569415E-2,-7.7815026E-2,6.632616E-2,-7.746729E-3,-2.7385134E-2,1.8110774E-2,-7.30798E-3,-8.216307E-2,1.8898739E-2,1.8312182E-2,-2.8660733E-2,2.7421081E-2,-1.6937736E-2],"categories":[],"categories_nodes":[],"categories_segments":[],"categories_sizes":[],"default_left":[0,0,0,0,0,0,0,0,0,0,0,0,0,0,0,0,0],"id":37,"left_children":[1,-1,3,5,-1,7,9,11,-1,-1,-1,13,-1,15,-1,-1,-1],"loss_changes":[1.0625522E0,0E0,1.0588434E0,8.9660037E-1,0E0,2.607705E0,9.093047E-1,2.0798006E0,0E0,0E0,0E0,2.1210322E0,0E0,3.4085097E0,0E0,0E0,0E0],"parents":[2147483647,0,0,2,2,3,3,5,5,6,6,7,7,11,11,13,13],"right_children":[2,-1,4,6,-1,8,10,12,-1,-1,-1,14,-1,16,-1,-1,-1],"split_conditions":[5.8889E3,1.6358715E-2,1E0,3.178786E4,1.569415E-2,2.41583E4,6.73E0,1.988943E4,-2.7385134E-2,1.8110774E-2,-7.30798E-3,1.594809E4,1.8898739E-2,5.91E0,-2.8660733E-2,2.7421081E-2,-1.6937736E-2],"split_indices":[3,0,5,3,0,3,1,3,0,0,0,3,0,1,0,0,0],"split_type":[0,0,0,0,0,0,0,0,0,0,0,0,0,0,0,0,0],"sum_hessian":[3.05E2,3.3E1,2.72E2,2.44E2,2.8E1,1.89E2,5.5E1,1.4E2,4.9E1,3E1,2.5E1,1.02E2,3.8E1,6.9E1,3.3E1,2.9E1,4E1],"tree_param":{"num_deleted":"0","num_feature":"14","num_nodes":"17","size_leaf_vector":"1"}},{"base_weights":[-3.75343E-3,-5.017364E-2,4.5102593E-2,-2.2139309E-2,-1.2439239E-3,-1.0527973E-2,1.0059777E-1,1.82938E-2,-6.0093362E-2,3.1643E-2,2.9157083E-2,-2.3307813E-2,3.2743745E-2,1.03367195E-1,-1.2026855E-2,-1.0556861E-2,2.143442E-2,1.6575245E-2,3.5266348E-3],"categories":[],"categories_nodes":[],"categories_segments":[],"categories_sizes":[],"default_left":[0,0,0,0,0,0,0,0,0,0,0,0,0,0,0,0,0,0,0],"id":38,"left_children":[1,3,5,-1,7,-1,9,-1,11,-1,13,-1,15,17,-1,-1,-1,-1,-1],"loss_changes":[7.166537E-1,1.356915E0,1.2957969E0,0E0,1.3875468E0,0E0,1.7331433E0,0E0,1.5653942E0,0E0,9.660766E-1,0E0,1.6301534E0,2.4056673E-1,0E0,0E0,0E0,0E0,0E0],"parents":[2147483647,0,0,1,1,2,2,4,4,6,6,8,8,10,10,12,12,13,13],"right_children":[2,4,6,-1,8,-1,10,-1,12,-1,14,-1,16,18,-1,-1,-1,-1,-1],"split_conditions":[6.78E0,1.094041E4,2.63E0,-2.2139309E-2,1.833025E4,-1.0527973E-2,4.81E0,1.82938E-2,3.32E0,3.1643E-2,1.026E1,-2.3307813E-2,3.060369E4,7.08E0,-1.2026855E-2,-1.0556861E-2,2.143442E-2,1.6575245E-2,3.5266348E-3],"split_indices":[1,3,2,0,3,0,2,0,1,0,1,0,3,2,0,0,0,0,0],"split_type":[0,0,0,0,0,0,0,0,0,0,0,0,0,0,0,0,0,0,0],"sum_hessian":[3.14E2,1.61E2,1.53E2,3.5E1,1.26E2,4.1E1,1.12E2,3E1,9.6E1,2.7E1,8.5E1,3.3E1,6.3E1,5.7E1,2.8E1,3.6E1,2.7E1,2.9E1,2.8E1],"tree_param":{"num_deleted":"0","num_feature":"14","num_nodes":"19","size_leaf_vector":"1"}},{"base_weights":[-4.208561E-3,-1.5665961E-2,1.416769E-2,4.205467E-2,-1.08594105E-1,7.309264E-3,2.9529676E-2,-7.584563E-3,-1.3716589E-2,1.4144138E-1,-5.6333438E-2,-5.4484606E-3,3.1591974E-2,1.5302569E-1,-2.0667695E-1,-1.3471389E-3,2.8352251E-2,-5.0551303E-2,-4.1790646E-2,1.005637E-2,-1.773248E-2],"categories":[],"categories_nodes":[],"categories_segments":[],"categories_sizes":[],"default_left":[0,0,0,0,0,0,0,0,0,0,0,0,0,0,0,0,0,0,0,0,0],"id":39,"left_children":[1,-1,3,5,7,9,-1,-1,-1,11,13,-1,-1,15,17,-1,-1,-1,19,-1,-1],"loss_changes":[8.59472E-1,0E0,9.425938E-1,1.9688175E0,3.7316322E-2,1.6982008E0,0E0,0E0,0E0,2.2050428E0,4.2808576E0,0E0,0E0,1.2422779E0,3.8715186E0,0E0,0E0,0E0,1.021114E0,0E0,0E0],"parents":[2147483647,0,0,2,2,3,3,4,4,5,5,9,9,10,10,13,13,14,14,18,18],"right_children":[2,-1,4,6,8,10,-1,-1,-1,12,14,-1,-1,16,18,-1,-1,-1,20,-1,-1],"split_conditions":[2.89E0,-1.5665961E-2,1.047E1,9.43E0,2.076023E4,3.29E0,2.9529676E-2,-7.584563E-3,-1.3716589E-2,5.57E0,5.3E0,-5.4484606E-3,3.1591974E-2,5.32E0,6.78E0,-1.3471389E-3,2.8352251E-2,-5.0551303E-2,8.35E0,1.005637E-2,-1.773248E-2],"split_indices":[1,0,1,1,3,2,0,0,0,1,1,0,0,2,1,0,0,0,1,0,0],"split_type":[0,0,0,0,0,0,0,0,0,0,0,0,0,0,0,0,0,0,0,0,0],"sum_hessian":[3.05E2,3.2E1,2.73E2,2.23E2,5E1,1.97E2,2.6E1,2.5E1,2.5E1,6.3E1,1.34E2,3E1,3.3E1,5.6E1,7.8E1,2.5E1,3.1E1,2.7E1,5.1E1,2.5E1,2.6E1],"tree_param":{"num_deleted":"0","num_feature":"14","num_nodes":"21","size_leaf_vector":"1"}},{"base_weights":[-8.86301E-3,-1.9185977E-2,9.530654E-3,-1.1245738E-2,2.1155512E-2,8.835755E-2,-6.270005E-2,-1.3728321E-3,1.4770074E-1,-1.9695958E-2,-1.5743284E-2,6.25193E-3,2.1229504E-2,6.2053893E-2,-9.9464945E-2,-8.377499E-3,1.7938657E-2,-1.6719624E-2,-2.862537E-3],"categories":[],"categories_nodes":[],"categories_segments":[],"categories_sizes":[],"default_left":[0,0,0,0,0,0,0,0,0,0,0,0,0,0,0,0,0,0,0],"id":40,"left_children":[1,-1,3,5,-1,7,9,-1,11,-1,13,-1,-1,15,17,-1,-1,-1,-1],"loss_changes":[1.0688444E0,0E0,1.21541E0,1.3534199E0,0E0,5.472569E-1,1.0938637E0,0E0,3.0035472E-1,0E0,8.529023E-1,0E0,0E0,1.1785414E0,2.974915E-1,0E0,0E0,0E0,0E0],"parents":[2147483647,0,0,2,2,3,3,5,5,6,6,8,8,10,10,13,13,14,14],"right_children":[2,-1,4,6,-1,8,10,-1,12,-1,14,-1,-1,16,18,-1,-1,-1,-1],"split_conditions":[-3.3E0,-1.9185977E-2,1E0,5.15E0,2.1155512E-2,3.05E0,1.143643E4,-1.3728321E-3,1.978042E4,-1.9695958E-2,2.370515E4,6.25193E-3,2.1229504E-2,8.26E0,3.210435E4,-8.377499E-3,1.7938657E-2,-1.6719624E-2,-2.862537E-3],"split_indices":[0,0,10,1,0,1,3,0,3,0,3,0,0,1,3,0,0,0,0],"split_type":[0,0,0,0,0,0,0,0,0,0,0,0,0,0,0,0,0,0,0],"sum_hessian":[3.16E2,2.8E1,2.88E2,2.62E2,2.6E1,8.9E1,1.73E2,3.3E1,5.6E1,4.4E1,1.29E2,2.5E1,3.1E1,6.7E1,6.2E1,3E1,3.7E1,3.1E1,3.1E1],"tree_param":{"num_deleted":"0","num_feature":"14","num_nodes":"19","size_leaf_vector":"1"}},{"base_weights":[-1.0460404E-3,1.3411058E-1,-4.8286427E-2,6.1029177E-2,2.8073696E-2,-2.325141E-2,-1.2156374E-2,-6.4328755E-3,1.713146E-2,5.281781E-2,-8.049308E-2,-8.273843E-3,1.055327E-1,-9.204331E-3,-1.7896457E-2,1.6167713E-2,1.3536708E-3,-7.18416E-3,4.5388113E-3],"categories":[],"categories_nodes":[],"categories_segments":[],"categories_sizes":[],"default_left":[0,0,0,0,0,0,0,0,0,0,0,0,0,0,0,0,0,0,0],"id":41,"left_children":[1,3,5,7,-1,-1,9,-1,-1,11,13,-1,15,17,-1,-1,-1,-1,-1],"loss_changes":[1.9474705E0,8.2940435E-1,1.5014647E0,7.5757855E-1,0E0,0E0,8.478746E-1,0E0,0E0,7.090231E-1,6.512043E-1,0E0,3.6453086E-1,1.9133441E-1,0E0,0E0,0E0,0E0,0E0],"parents":[2147483647,0,0,1,1,2,2,3,3,6,6,9,9,10,10,12,12,13,13],"right_children":[2,4,6,8,-1,-1,10,-1,-1,12,14,-1,16,18,-1,-1,-1,-1,-1],"split_conditions":[-8.1E-1,-1.69E0,8.7E-1,4.29E0,2.8073696E-2,-2.325141E-2,4.99E0,-6.4328755E-3,1.713146E-2,2.37E0,6.45E0,-8.273843E-3,3.9E0,2.19E0,-1.7896457E-2,1.6167713E-2,1.3536708E-3,-7.18416E-3,4.5388113E-3],"split_indices":[0,0,0,2,0,0,0,0,0,2,2,0,0,2,0,0,0,0,0],"split_type":[0,0,0,0,0,0,0,0,0,0,0,0,0,0,0,0,0,0,0],"sum_hessian":[3.03E2,7.8E1,2.25E2,5.3E1,2.5E1,3.6E1,1.89E2,2.5E1,2.8E1,9.7E1,9.2E1,2.7E1,7E1,5.4E1,3.8E1,4.3E1,2.7E1,2.5E1,2.9E1],"tree_param":{"num_deleted":"0","num_feature":"14","num_nodes":"19","size_leaf_vector":"1"}},{"base_weights":[-9.379759E-3,-4.8865218E-2,5.413278E-2,-1.15521125E-1,7.2765715E-2,1.6208707E-1,-3.9920665E-2,4.178899E-3,-1.9100372E-1,1.4368275E-2,-3.2450866E-3,2.6568929E-2,2.8342514E-3,-1.3368773E-2,2.4370123E-3,-3.5500437E-2,-7.694553E-2,-1.4229502E-2,-1.1166548E-3],"categories":[],"categories_nodes":[],"categories_segments":[],"categories_sizes":[],"default_left":[0,0,0,0,0,0,0,0,0,0,0,0,0,0,0,0,0,0,0],"id":42,"left_children":[1,3,5,7,9,11,13,-1,15,-1,-1,-1,-1,-1,-1,-1,17,-1,-1],"loss_changes":[7.976247E-1,1.5974603E0,1.2451942E0,1.5160023E0,5.26978E-1,7.822751E-1,4.011296E-1,0E0,1.581367E0,0E0,0E0,0E0,0E0,0E0,0E0,0E0,2.2193938E-1,0E0,0E0],"parents":[2147483647,0,0,1,1,2,2,3,3,4,4,5,5,6,6,8,8,16,16],"right_children":[2,4,6,8,10,12,14,-1,16,-1,-1,-1,-1,-1,-1,-1,18,-1,-1],"split_conditions":[5.98E0,2.717116E4,1.850373E4,9.37205E3,3.29E0,8.14E0,2.602364E4,4.178899E-3,3.1E-1,1.4368275E-2,-3.2450866E-3,2.6568929E-2,2.8342514E-3,-1.3368773E-2,2.4370123E-3,-3.5500437E-2,3.17E0,-1.4229502E-2,-1.1166548E-3],"split_indices":[2,3,3,3,2,2,3,0,0,0,0,0,0,0,0,0,2,0,0],"split_type":[0,0,0,0,0,0,0,0,0,0,0,0,0,0,0,0,0,0,0],"sum_hessian":[3.16E2,1.95E2,1.21E2,1.26E2,6.9E1,5.6E1,6.5E1,4.1E1,8.5E1,4.1E1,2.8E1,3.1E1,2.5E1,2.6E1,3.9E1,3.4E1,5.1E1,2.5E1,2.6E1],"tree_param":{"num_deleted":"0","num_feature":"14","num_nodes":"19","size_leaf_vector":"1"}},{"base_weights":[6.5003242E-3,7.995819E-2,-3.8619325E-2,1.3895962E-1,-9.381119E-3,-9.194138E-2,1.1145482E-2,-2.8349724E-2,4.0059917E-2,1.3968511E-2,-1.8933769E-1,8.214899E-3,-1.5050791E-2,-1.5647536E-2,2.7858606E-2,-4.0398367E-2,-3.868504E-3],"categories":[],"categories_nodes":[],"categories_segments":[],"categories_sizes":[],"default_left":[0,0,0,0,0,0,0,0,0,0,0,0,0,0,0,0,0],"id":43,"left_children":[1,3,5,7,-1,9,-1,11,-1,13,15,-1,-1,-1,-1,-1,-1],"loss_changes":[1.0106635E0,1.2023423E0,1.5226748E0,3.8197594E0,0E0,1.4467772E0,0E0,7.412735E-1,0E0,3.1105576E0,2.3449721E0,0E0,0E0,0E0,0E0,0E0,0E0],"parents":[2147483647,0,0,1,1,2,2,3,3,5,5,7,7,9,9,10,10],"right_children":[2,4,6,8,-1,10,-1,12,-1,14,16,-1,-1,-1,-1,-1,-1],"split_conditions":[3.56E0,9.47E0,9.4E0,5.8E0,-9.381119E-3,5.11E0,1.1145482E-2,3.81E0,4.0059917E-2,3.87E0,6.78E0,8.214899E-3,-1.5050791E-2,-1.5647536E-2,2.7858606E-2,-4.0398367E-2,-3.868504E-3],"split_indices":[2,1,1,1,0,1,0,1,0,1,1,0,0,0,0,0,0],"split_type":[0,0,0,0,0,0,0,0,0,0,0,0,0,0,0,0,0],"sum_hessian":[3.03E2,1.15E2,1.88E2,8.6E1,2.9E1,1.39E2,4.9E1,5.3E1,3.3E1,6.7E1,7.2E1,2.8E1,2.5E1,4.1E1,2.6E1,2.9E1,4.3E1],"tree_param":{"num_deleted":"0","num_feature":"14","num_nodes":"17","size_leaf_vector":"1"}},{"base_weights":[-1.2714928E-2,-2.1797631E-2,7.856619E-3,-1.6443603E-2,1.966972E-2,1.105376E-1,-5.1344328E-2,1.813571E-2,2.7295176E-3,-1.3039479E-1,6.991657E-2,-6.5074734E-2,-3.5055663E-2,2.4943758E-2,-3.0014899E-2,-1.781228E-2,1.9869652E-2,-1.2869856E-2,6.9823186E-3,1.026802E-2,-5.505945E-3],"categories":[],"categories_nodes":[],"categories_segments":[],"categories_sizes":[],"default_left":[0,0,0,0,0,0,0,0,0,0,0,0,0,0,0,0,0,0,0,0,0],"id":44,"left_children":[1,-1,3,5,-1,7,9,-1,-1,11,13,15,-1,-1,17,-1,19,-1,-1,-1,-1],"loss_changes":[1.2980335E0,0E0,1.2881174E0,1.1091777E0,0E0,3.1338996E-1,1.8879198E0,0E0,0E0,1.688525E0,1.406791E0,8.965995E-1,0E0,0E0,5.114579E-1,0E0,3.407192E-1,0E0,0E0,0E0,0E0],"parents":[2147483647,0,0,2,2,3,3,5,5,6,6,9,9,10,10,11,11,14,14,16,16],"right_children":[2,-1,4,6,-1,8,10,-1,-1,12,14,16,-1,-1,18,-1,20,-1,-1,-1,-1],"split_conditions":[-3.3E0,-2.1797631E-2,1E0,-5.5E-1,1.966972E-2,2.23636E4,5.07E0,1.813571E-2,2.7295176E-3,4.18E0,6.89E0,1.14E0,-3.5055663E-2,2.4943758E-2,8.14E0,-1.781228E-2,2.024654E4,-1.2869856E-2,6.9823186E-3,1.026802E-2,-5.505945E-3],"split_indices":[0,0,10,0,0,3,0,0,0,0,0,0,0,0,0,0,3,0,0,0,0],"split_type":[0,0,0,0,0,0,0,0,0,0,0,0,0,0,0,0,0,0,0,0,0],"sum_hessian":[3.06E2,2.7E1,2.79E2,2.48E2,3.1E1,5.3E1,1.95E2,2.8E1,2.5E1,1.18E2,7.7E1,9.2E1,2.6E1,2.7E1,5E1,3.9E1,5.3E1,2.5E1,2.5E1,2.5E1,2.8E1],"tree_param":{"num_deleted":"0","num_feature":"14","num_nodes":"21","size_leaf_vector":"1"}},{"base_weights":[7.701595E-3,-3.6181558E-2,1.4100368E-1,-4.2958534E-3,-2.244669E-2,2.8711453E-2,4.7850106E-3,1.0361062E-1,-7.8041345E-2,3.7676964E-2,2.3910066E-2,-2.374639E-1,4.874676E-2,-6.5145353E-3,1.3915367E-2,-1.3754994E-2,-3.320875E-2,1.890359E-2,-4.140604E-3],"categories":[],"categories_nodes":[],"categories_segments":[],"categories_sizes":[],"default_left":[0,0,0,0,0,0,0,0,0,0,0,0,0,0,0,0,0,0,0],"id":45,"left_children":[1,3,5,7,-1,-1,-1,9,11,13,-1,15,17,-1,-1,-1,-1,-1,-1],"loss_changes":[1.771716E0,1.3678589E0,1.0070677E0,1.5677786E0,0E0,0E0,0E0,7.056595E-1,2.376483E0,5.829391E-1,0E0,4.4594073E-1,8.425595E-1,0E0,0E0,0E0,0E0,0E0,0E0],"parents":[2147483647,0,0,1,1,2,2,3,3,7,7,8,8,9,9,11,11,12,12],"right_children":[2,4,6,8,-1,-1,-1,10,12,14,-1,16,18,-1,-1,-1,-1,-1,-1],"split_conditions":[5.87E0,4.42E0,7.38E0,1.833025E4,-2.244669E-2,2.8711453E-2,4.7850106E-3,1.401066E4,2.819374E4,6.45E0,2.3910066E-2,-5.2E-1,-1.59E0,-6.5145353E-3,1.3915367E-2,-1.3754994E-2,-3.320875E-2,1.890359E-2,-4.140604E-3],"split_indices":[0,0,0,3,0,0,0,3,3,1,0,0,0,0,0,0,0,0,0],"split_type":[0,0,0,0,0,0,0,0,0,0,0,0,0,0,0,0,0,0,0],"sum_hessian":[3.01E2,2.27E2,7.4E1,1.95E2,3.2E1,2.8E1,4.6E1,7.9E1,1.16E2,5.4E1,2.5E1,5.1E1,6.5E1,2.7E1,2.7E1,2.6E1,2.5E1,2.5E1,4E1],"tree_param":{"num_deleted":"0","num_feature":"14","num_nodes":"19","size_leaf_vector":"1"}},{"base_weights":[-2.1154594E-2,-8.90875E-2,4.2063326E-2,-1.4308374E-1,1.1906778E-2,1.3876668E-1,-3.6013354E-2,-4.196825E-2,-4.008807E-2,3.221588E-3,2.7620886E-2,-2.2402858E-2,7.9551764E-2,-2.2423754E-2,7.100454E-2,1.618434E-2,-1.5294733E-3,-1.7741375E-3,1.6043281E-2],"categories":[],"categories_nodes":[],"categories_segments":[],"categories_sizes":[],"default_left":[0,0,0,0,0,0,0,0,0,0,0,0,0,0,0,0,0,0,0],"id":46,"left_children":[1,3,5,7,-1,9,11,13,-1,-1,-1,-1,15,-1,17,-1,-1,-1,-1],"loss_changes":[1.274942E0,1.6242999E0,1.16774E0,2.9548433E0,0E0,1.0015769E0,1.8864301E0,1.7250137E0,0E0,0E0,0E0,0E0,4.2394927E-1,0E0,4.1553885E-1,0E0,0E0,0E0,0E0],"parents":[2147483647,0,0,1,1,2,2,3,3,5,5,6,6,7,7,12,12,14,14],"right_children":[2,4,6,8,-1,10,12,14,-1,-1,-1,-1,16,-1,18,-1,-1,-1,-1],"split_conditions":[6.41E0,3.178786E4,9.28E0,2.401907E4,1.1906778E-2,2.186599E4,3.82E0,1.094041E4,-4.008807E-2,3.221588E-3,2.7620886E-2,-2.2402858E-2,7.08E0,-2.2423754E-2,1.08E0,1.618434E-2,-1.5294733E-3,-1.7741375E-3,1.6043281E-2],"split_indices":[1,3,1,3,0,3,2,3,0,0,0,0,2,0,0,0,0,0,0],"split_type":[0,0,0,0,0,0,0,0,0,0,0,0,0,0,0,0,0,0,0],"sum_hessian":[2.95E2,1.42E2,1.53E2,1.13E2,2.9E1,6.8E1,8.5E1,8.2E1,3.1E1,3.9E1,2.9E1,3.2E1,5.3E1,3.1E1,5.1E1,2.8E1,2.5E1,2.6E1,2.5E1],"tree_param":{"num_deleted":"0","num_feature":"14","num_nodes":"19","size_leaf_vector":"1"}},{"base_weights":[-2.4003305E-2,-4.54889E-2,1.54906735E-2,-2.8132098E-2,-1.9594198E-2,-1.1616514E-1,1.6049908E-2,-2.3331946E-2,-1.1766497E-3,2.074806E-2,-2.4793854E-2,-8.348454E-2,9.823005E-3,-2.5867278E-2,-7.5441943E-3,1.5428451E-2,-1.5567762E-2],"categories":[],"categories_nodes":[],"categories_segments":[],"categories_sizes":[],"default_left":[0,0,0,0,0,0,0,0,0,0,0,0,0,0,0,0,0],"id":47,"left_children":[1,3,-1,5,-1,7,9,-1,-1,-1,11,13,-1,-1,15,-1,-1],"loss_changes":[1.2179031E0,7.308982E-1,0E0,9.897914E-1,0E0,1.0368683E0,1.3343316E0,0E0,0E0,0E0,1.026271E0,1.2752186E0,0E0,0E0,1.6541308E0,0E0,0E0],"parents":[2147483647,0,0,1,1,3,3,5,5,6,6,10,10,11,11,14,14],"right_children":[2,4,-1,6,-1,8,10,-1,-1,-1,12,14,-1,-1,16,-1,-1],"split_conditions":[8.73E0,1E0,1.54906735E-2,4.63E0,-1.9594198E-2,3.92E0,1.66E0,-2.3331946E-2,-1.1766497E-3,2.074806E-2,9.88E0,4.37E0,9.823005E-3,-2.5867278E-2,6.45E0,1.5428451E-2,-1.5567762E-2],"split_indices":[2,11,0,1,0,2,2,0,0,0,1,2,0,0,2,0,0],"split_type":[0,0,0,0,0,0,0,0,0,0,0,0,0,0,0,0,0],"sum_hessian":[3.14E2,2.81E2,3.3E1,2.53E2,2.8E1,8.4E1,1.69E2,3.9E1,4.5E1,2.9E1,1.4E2,9.5E1,4.5E1,2.8E1,6.7E1,3.2E1,3.5E1],"tree_param":{"num_deleted":"0","num_feature":"14","num_nodes":"17","size_leaf_vector":"1"}},{"base_weights":[8.159872E-3,2.3142768E-2,-1.1502801E-2,1.2892812E-1,-3.2175362E-2,-2.4084048E-3,2.70181E-2,6.347379E-2,-1.1140659E-1,-5.0826245E-3,2.0317454E-2,-2.8970642E-2,-1.660211E-2,1.1223886E-2,-2.1163462E-2],"categories":[],"categories_nodes":[],"categories_segments":[],"categories_sizes":[],"default_left":[0,0,0,0,0,0,0,0,0,0,0,0,0,0,0],"id":48,"left_children":[1,3,-1,5,7,-1,-1,9,11,-1,-1,-1,13,-1,-1],"loss_changes":[5.78524E-1,1.636814E0,0E0,2.0813942E0,1.4014969E0,0E0,0E0,1.3516216E0,1.7024559E0,0E0,0E0,0E0,1.7073417E0,0E0,0E0],"parents":[2147483647,0,0,1,1,3,3,4,4,7,7,8,8,12,12],"right_children":[2,4,-1,6,8,-1,-1,10,12,-1,-1,-1,14,-1,-1],"split_conditions":[1E0,5.15E0,-1.1502801E-2,4.41E0,4.85E0,-2.4084048E-3,2.70181E-2,2.37E0,8.04E0,-5.0826245E-3,2.0317454E-2,-2.8970642E-2,1.026E1,1.1223886E-2,-2.1163462E-2],"split_indices":[10,1,0,2,2,0,0,2,1,0,0,0,1,0,0],"split_type":[0,0,0,0,0,0,0,0,0,0,0,0,0,0,0],"sum_hessian":[3.11E2,2.78E2,3.3E1,9.5E1,1.83E2,4.6E1,4.9E1,8.3E1,1E2,4.6E1,3.7E1,3.4E1,6.6E1,4E1,2.6E1],"tree_param":{"num_deleted":"0","num_feature":"14","num_nodes":"15","size_leaf_vector":"1"}},{"base_weights":[-1.9718248E-3,1.5486745E-2,-1.8812355E-2,1.5273097E-2,-9.888161E-3,8.306544E-2,-4.7013097E-2,2.6317487E-2,-2.284369E-3,-2.926599E-2,-2.217212E-4,-3.7462823E-2,1.475087E-2,4.818958E-2,-1.143632E-1,1.4601025E-2,-5.833934E-3,-3.128083E-2,3.353899E-3],"categories":[],"categories_nodes":[],"categories_segments":[],"categories_sizes":[],"default_left":[0,0,0,0,0,0,0,0,0,0,0,0,0,0,0,0,0,0,0],"id":49,"left_children":[1,3,-1,-1,5,7,9,-1,-1,-1,11,13,-1,15,17,-1,-1,-1,-1],"loss_changes":[1.0233954E0,1.0044873E0,0E0,0E0,8.4592384E-1,1.3412782E0,2.011412E0,0E0,0E0,0E0,8.197693E-1,7.8932875E-1,0E0,6.0249984E-1,1.8595707E0,0E0,0E0,0E0,0E0],"parents":[2147483647,0,0,1,1,4,4,5,5,6,6,10,10,11,11,13,13,14,14],"right_children":[2,4,-1,-1,6,8,10,-1,-1,-1,12,14,-1,16,18,-1,-1,-1,-1],"split_conditions":[1.123E1,8.9E-1,-1.8812355E-2,1.5273097E-2,4.26E0,1.779107E4,-1.54E0,2.6317487E-2,-2.284369E-3,-2.926599E-2,9.87E0,3.15E0,1.475087E-2,1.797764E4,1.715384E4,1.4601025E-2,-5.833934E-3,-3.128083E-2,3.353899E-3],"split_indices":[1,2,0,0,1,3,0,0,0,0,1,0,0,3,3,0,0,0,0],"split_type":[0,0,0,0,0,0,0,0,0,0,0,0,0,0,0,0,0,0,0],"sum_hessian":[3.13E2,2.87E2,2.6E1,4.4E1,2.43E2,6.9E1,1.74E2,2.5E1,4.4E1,2.7E1,1.47E2,1.18E2,2.9E1,5.6E1,6.2E1,2.9E1,2.7E1,2.6E1,3.6E1],"tree_param":{"num_deleted":"0","num_feature":"14","num_nodes":"19","size_leaf_vector":"1"}},{"base_weights":[8.316064E-3,-3.743168E-2,7.986937E-2,-1.9275973E-2,-1.2877698E-2,1.9710502E-2,3.9497904E-2,-4.9741242E-2,1.8753143E-2,-1.4412154E-2,1.1798785E-1,7.829718E-3,-8.5051596E-2,2.5659293E-2,1.2752844E-3,-2.9790128E-2,-2.5405975E-3,-7.7864877E-3,7.661341E-3],"categories":[],"categories_nodes":[],"categories_segments":[],"categories_sizes":[],"default_left":[0,0,0,0,0,0,0,0,0,0,0,0,0,0,0,0,0,0,0],"id":50,"left_children":[1,3,5,-1,7,-1,9,11,-1,-1,13,-1,15,-1,-1,-1,17,-1,-1],"loss_changes":[1.024291E0,7.259768E-1,5.6963766E-1,0E0,1.2357012E0,0E0,1.3429345E0,6.441319E-1,0E0,0E0,9.4482476E-1,0E0,1.948674E0,0E0,0E0,0E0,4.889052E-1,0E0,0E0],"parents":[2147483647,0,0,1,1,2,2,4,4,6,6,7,7,10,10,12,12,16,16],"right_children":[2,4,6,-1,8,-1,10,12,-1,-1,14,-1,16,-1,-1,-1,18,-1,-1],"split_conditions":[6.1E0,3.05E0,4.34E0,-1.9275973E-2,1E0,1.9710502E-2,7.24E0,8E-1,1.8753143E-2,-1.4412154E-2,7.38E0,7.829718E-3,2.43E0,2.5659293E-2,1.2752844E-3,-2.9790128E-2,6.97E0,-7.7864877E-3,7.661341E-3],"split_indices":[2,1,1,0,8,0,1,2,0,0,2,0,2,0,0,0,1,0,0],"split_type":[0,0,0,0,0,0,0,0,0,0,0,0,0,0,0,0,0,0,0],"sum_hessian":[3.11E2,1.9E2,1.21E2,2.5E1,1.65E2,3E1,9.1E1,1.4E2,2.5E1,2.7E1,6.4E1,3E1,1.1E2,2.7E1,3.7E1,3E1,8E1,4.1E1,3.9E1],"tree_param":{"num_deleted":"0","num_feature":"14","num_nodes":"19","size_leaf_vector":"1"}},{"base_weights":[-8.569196E-3,9.134892E-3,-2.0298459E-2,3.3068858E-2,-1.2688889E-2,1.1597245E-2,2.1265404E-2,8.098679E-2,-5.664652E-2,-3.8534433E-2,1.947932E-1,-1.7031156E-2,-1.6249737E-2,9.3247285E-3,-1.6423343E-2,3.113063E-2,5.8119628E-3,-1.0951615E-2,2.8214172E-2,1.405669E-2,-1.1115126E-2],"categories":[],"categories_nodes":[],"categories_segments":[],"categories_sizes":[],"default_left":[0,0,0,0,0,0,0,0,0,0,0,0,0,0,0,0,0,0,0,0,0],"id":51,"left_children":[1,3,-1,5,-1,7,-1,9,11,13,15,-1,17,-1,-1,-1,-1,-1,19,-1,-1],"loss_changes":[1.0722997E0,9.3529445E-1,0E0,9.383937E-1,0E0,1.041641E0,0E0,1.490155E0,5.0691146E-1,9.09815E-1,8.736656E-1,0E0,3.4729E-1,0E0,0E0,0E0,0E0,0E0,9.0813506E-1,0E0,0E0],"parents":[2147483647,0,0,1,1,3,3,5,5,7,7,8,8,9,9,10,10,12,12,18,18],"right_children":[2,4,-1,6,-1,8,-1,10,12,14,16,-1,18,-1,-1,-1,-1,-1,20,-1,-1],"split_conditions":[1.123E1,8.29E0,-2.0298459E-2,7.39E0,-1.2688889E-2,3.56E0,2.1265404E-2,5.8E0,3.87E0,3.66E0,8.63E0,-1.7031156E-2,5.02E0,9.3247285E-3,-1.6423343E-2,3.113063E-2,5.8119628E-3,-1.0951615E-2,8.35E0,1.405669E-2,-1.1115126E-2],"split_indices":[1,2,0,2,0,2,0,1,1,1,1,0,2,0,0,0,0,0,1,0,0],"split_type":[0,0,0,0,0,0,0,0,0,0,0,0,0,0,0,0,0,0,0,0,0],"sum_hessian":[3.1E2,2.85E2,2.5E1,2.43E2,4.2E1,2.18E2,2.5E1,1.08E2,1.1E2,5.3E1,5.5E1,2.8E1,8.2E1,2.6E1,2.7E1,2.9E1,2.6E1,2.6E1,5.6E1,3.1E1,2.5E1],"tree_param":{"num_deleted":"0","num_feature":"14","num_nodes":"21","size_leaf_vector":"1"}},{"base_weights":[-3.728473E-3,1.0376508E-2,-2.2566043E-2,-1.6265595E-2,9.520995E-3,9.280411E-3,-9.608214E-3,-1.665643E-2,1.8152718E-2,4.8610292E-2,-9.853406E-3,-1.7137252E-2,1.9439794E-2,6.622899E-3,-9.632464E-3],"categories":[],"categories_nodes":[],"categories_segments":[],"categories_sizes":[],"default_left":[0,0,0,0,0,0,0,0,0,0,0,0,0,0,0],"id":52,"left_children":[1,-1,3,-1,5,-1,7,-1,9,11,-1,13,-1,-1,-1],"loss_changes":[6.381656E-1,0E0,1.2062273E0,0E0,3.4978932E-1,0E0,7.829708E-1,0E0,5.485512E-1,1.1727234E0,0E0,5.675116E-1,0E0,0E0,0E0],"parents":[2147483647,0,0,2,2,4,4,6,6,8,8,9,9,11,11],"right_children":[2,-1,4,-1,6,-1,8,-1,10,12,-1,14,-1,-1,-1],"split_conditions":[3.22E0,1.0376508E-2,4.63E0,-1.6265595E-2,5.93E0,9.280411E-3,6.86E0,-1.665643E-2,3.166795E4,2.174367E4,-9.853406E-3,1.37272E4,1.9439794E-2,6.622899E-3,-9.632464E-3],"split_indices":[1,0,1,0,1,0,1,0,3,3,0,3,0,0,0],"split_type":[0,0,0,0,0,0,0,0,0,0,0,0,0,0,0],"sum_hessian":[3.13E2,4.6E1,2.67E2,4.9E1,2.18E2,4E1,1.78E2,2.6E1,1.52E2,1.21E2,3.1E1,8.4E1,3.7E1,4.1E1,4.3E1],"tree_param":{"num_deleted":"0","num_feature":"14","num_nodes":"15","size_leaf_vector":"1"}},{"base_weights":[-5.5833426E-3,-1.649013E-2,1.0478476E-2,-8.552644E-3,1.8074099E-2,-3.6682457E-2,7.30255E-2,4.00321E-3,-2.7803332E-2,1.5127852E-2,-4.137256E-3,-2.2575911E-2,1.3675585E-2,9.531097E-3,-7.407142E-2,-2.7045393E-2,2.9791293E-3],"categories":[],"categories_nodes":[],"categories_segments":[],"categories_sizes":[],"default_left":[0,0,0,0,0,0,0,0,0,0,0,0,0,0,0,0,0],"id":53,"left_children":[1,-1,3,5,-1,7,9,11,-1,-1,-1,13,-1,-1,15,-1,-1],"loss_changes":[8.103516E-1,0E0,9.3474835E-1,5.99321E-1,0E0,1.9060998E0,6.0604227E-1,5.9233826E-1,0E0,0E0,0E0,8.569501E-1,0E0,0E0,2.0069454E0,0E0,0E0],"parents":[2147483647,0,0,2,2,3,3,5,5,6,6,7,7,11,11,14,14],"right_children":[2,-1,4,6,-1,8,10,12,-1,-1,-1,14,-1,-1,16,-1,-1],"split_conditions":[-3.2E0,-1.649013E-2,1E0,6.16E0,1.8074099E-2,4.42E0,8.08E0,1E0,-2.7803332E-2,1.5127852E-2,-4.137256E-3,-8.1E-1,1.3675585E-2,9.531097E-3,8.7E-1,-2.7045393E-2,2.9791293E-3],"split_indices":[0,0,10,0,0,0,0,13,0,0,0,0,0,0,0,0,0],"split_type":[0,0,0,0,0,0,0,0,0,0,0,0,0,0,0,0,0],"sum_hessian":[3.15E2,2.8E1,2.87E2,2.59E2,2.8E1,1.93E2,6.6E1,1.66E2,2.7E1,3.9E1,2.7E1,1.39E2,2.7E1,4.2E1,9.7E1,3.3E1,6.4E1],"tree_param":{"num_deleted":"0","num_feature":"14","num_nodes":"17","size_leaf_vector":"1"}},{"base_weights":[3.9591314E-3,-5.4145202E-2,2.921546E-2,7.3430487E-3,-1.2107377E-1,2.2183502E-2,1.5493229E-3,-2.2630095E-2,1.3728036E-3,-1.485544E-2,4.5977734E-2,1.4864117E-2,4.1137994E-3,-6.8731247E-3,5.0803695E-2,1.59887E-2,-5.349781E-3],"categories":[],"categories_nodes":[],"categories_segments":[],"categories_sizes":[],"default_left":[0,0,0,0,0,0,0,0,0,0,0,0,0,0,0,0,0],"id":54,"left_children":[1,3,5,-1,7,-1,9,-1,-1,-1,11,-1,13,-1,15,-1,-1],"loss_changes":[4.6971506E-1,8.371209E-1,1.188032E0,0E0,9.109348E-1,0E0,1.3139287E0,0E0,0E0,0E0,6.526686E-1,0E0,3.742147E-1,0E0,7.7084965E-1,0E0,0E0],"parents":[2147483647,0,0,1,1,2,2,4,4,6,6,10,10,12,12,14,14],"right_children":[2,4,6,-1,8,-1,10,-1,-1,-1,12,-1,14,-1,16,-1,-1],"split_conditions":[4.63E0,-1.6E-1,-2.38E0,7.3430487E-3,4.74E0,2.2183502E-2,3.1E-1,-2.2630095E-2,1.3728036E-3,-1.485544E-2,3.15E0,1.4864117E-2,5.07E0,-6.8731247E-3,7.61E0,1.59887E-2,-5.349781E-3],"split_indices":[1,0,0,0,0,0,0,0,0,0,0,0,0,0,0,0,0],"split_type":[0,0,0,0,0,0,0,0,0,0,0,0,0,0,0,0,0],"sum_hessian":[3.18E2,9.6E1,2.22E2,3.3E1,6.3E1,2.7E1,1.95E2,3.5E1,2.8E1,4.4E1,1.51E2,4.3E1,1.08E2,4.2E1,6.6E1,3.2E1,3.4E1],"tree_param":{"num_deleted":"0","num_feature":"14","num_nodes":"17","size_leaf_vector":"1"}},{"base_weights":[7.236849E-3,2.9299414E-2,-8.330213E-2,-1.15734115E-2,5.747596E-2,-2.478251E-2,9.496577E-3,-3.4635242E-2,1.26848E-1,-1.1271367E-1,1.4506671E-2,2.2091521E-1,1.9003257E-2,-2.9880017E-2,3.1154861E-3,3.244893E-2,5.705737E-3,-1.799986E-2,2.4678303E-2],"categories":[],"categories_nodes":[],"categories_segments":[],"categories_sizes":[],"default_left":[0,0,0,0,0,0,0,0,0,0,0,0,0,0,0,0,0,0,0],"id":55,"left_children":[1,3,5,-1,7,-1,-1,9,11,13,-1,15,17,-1,-1,-1,-1,-1,-1],"loss_changes":[6.216726E-1,1.0282879E0,1.8126141E0,0E0,1.346281E0,0E0,0E0,1.2931579E0,1.2131605E0,1.7227166E0,0E0,1.0676565E0,2.6281505E0,0E0,0E0,0E0,0E0,0E0,0E0],"parents":[2147483647,0,0,1,1,2,2,4,4,7,7,8,8,9,9,11,11,12,12],"right_children":[2,4,6,-1,8,-1,-1,10,12,14,-1,16,18,-1,-1,-1,-1,-1,-1],"split_conditions":[6.72E0,7.86772E3,6.78E0,-1.15734115E-2,3.1E-1,-2.478251E-2,9.496577E-3,3.060369E4,6.94E0,5.64E0,1.4506671E-2,2.880544E4,9.43E0,-2.9880017E-2,3.1154861E-3,3.244893E-2,5.705737E-3,-1.799986E-2,2.4678303E-2],"split_indices":[0,3,1,0,0,0,0,3,1,1,0,3,1,0,0,0,0,0,0],"split_type":[0,0,0,0,0,0,0,0,0,0,0,0,0,0,0,0,0,0,0],"sum_hessian":[3.09E2,2.49E2,6E1,4E1,2.09E2,3.1E1,2.9E1,9E1,1.19E2,6.3E1,2.7E1,6.3E1,5.6E1,2.7E1,3.6E1,3.8E1,2.5E1,3E1,2.6E1],"tree_param":{"num_deleted":"0","num_feature":"14","num_nodes":"19","size_leaf_vector":"1"}},{"base_weights":[1.6816847E-2,-1.1869584E-2,3.2784954E-2,2.122826E-2,7.00862E-3,-1.3808024E-1,4.4918995E-2,8.4163165E-3,-3.5501286E-2,3.0190466E-2,5.3510764E-3,-1.5728995E-2,3.580911E-2,1.3287403E-1,-5.780465E-2,1.9236496E-2,3.4642771E-3,-2.0634623E-2,4.2507616E-3],"categories":[],"categories_nodes":[],"categories_segments":[],"categories_sizes":[],"default_left":[0,0,0,0,0,0,0,0,0,0,0,0,0,0,0,0,0,0,0],"id":56,"left_children":[1,-1,3,-1,5,7,9,-1,-1,-1,11,-1,13,15,17,-1,-1,-1,-1],"loss_changes":[6.768585E-1,0E0,1.2893867E0,0E0,1.3537939E0,2.488683E0,1.9812201E0,0E0,0E0,0E0,8.4776586E-1,0E0,1.3161529E0,4.082508E-1,1.1114113E0,0E0,0E0,0E0,0E0],"parents":[2147483647,0,0,2,2,4,4,5,5,6,6,10,10,12,12,13,13,14,14],"right_children":[2,-1,4,-1,6,8,10,-1,-1,-1,12,-1,14,16,18,-1,-1,-1,-1],"split_conditions":[2.89E0,-1.1869584E-2,3.66E0,2.122826E-2,-1.51E0,-3.01E0,-2E-2,8.4163165E-3,-3.5501286E-2,3.0190466E-2,1.24E0,-1.5728995E-2,4.88E0,8.63E0,7.16E0,1.9236496E-2,3.4642771E-3,-2.0634623E-2,4.2507616E-3],"split_indices":[1,0,1,0,0,0,0,0,0,0,0,0,0,1,0,0,0,0,0],"split_type":[0,0,0,0,0,0,0,0,0,0,0,0,0,0,0,0,0,0,0],"sum_hessian":[3.1E2,3.2E1,2.78E2,3.4E1,2.44E2,5E1,1.94E2,2.5E1,2.5E1,2.5E1,1.69E2,2.6E1,1.43E2,7E1,7.3E1,4.3E1,2.7E1,2.9E1,4.4E1],"tree_param":{"num_deleted":"0","num_feature":"14","num_nodes":"19","size_leaf_vector":"1"}},{"base_weights":[7.569718E-3,-2.392276E-2,1.0035678E-1,-8.174602E-2,8.1562E-2,2.5917146E-2,-1.9209658E-3,1.3383525E-2,-1.3190952E-1,2.111728E-2,2.3301368E-4,-3.3796825E-2,-6.761888E-2,-1.3951081E-2,1.34792505E-2,7.182879E-3,-1.7482598E-1,-4.6242625E-3,-2.9257327E-2],"categories":[],"categories_nodes":[],"categories_segments":[],"categories_sizes":[],"default_left":[0,0,0,0,0,0,0,0,0,0,0,0,0,0,0,0,0,0,0],"id":57,"left_children":[1,3,5,7,9,-1,-1,-1,11,-1,13,-1,15,-1,-1,-1,17,-1,-1],"loss_changes":[9.111723E-1,1.4278445E0,1.5051022E0,1.6506155E0,8.7486327E-1,0E0,0E0,0E0,1.6066074E0,0E0,9.966056E-1,0E0,1.4327866E0,0E0,0E0,0E0,8.0404913E-1,0E0,0E0],"parents":[2147483647,0,0,1,1,2,2,3,3,4,4,8,8,10,10,12,12,16,16],"right_children":[2,4,6,8,10,-1,-1,-1,12,-1,14,-1,16,-1,-1,-1,18,-1,-1],"split_conditions":[7.2E0,2.717116E4,8.45E0,5.85093E3,3.161881E4,2.5917146E-2,-1.9209658E-3,1.3383525E-2,1.143643E4,2.111728E-2,3.52943E4,-3.3796825E-2,1.797764E4,-1.3951081E-2,1.34792505E-2,7.182879E-3,2.3E-1,-4.6242625E-3,-2.9257327E-2],"split_indices":[2,3,2,3,3,0,0,0,3,0,3,0,3,0,0,0,0,0,0],"split_type":[0,0,0,0,0,0,0,0,0,0,0,0,0,0,0,0,0,0,0],"sum_hessian":[3.1E2,2.32E2,7.8E1,1.5E2,8.2E1,3.3E1,4.5E1,2.8E1,1.22E2,3.1E1,5.1E1,2.8E1,9.4E1,2.5E1,2.6E1,4.1E1,5.3E1,2.6E1,2.7E1],"tree_param":{"num_deleted":"0","num_feature":"14","num_nodes":"19","size_leaf_vector":"1"}},{"base_weights":[2.0107206E-2,-7.121086E-3,1.0409602E-1,2.0855492E-2,-3.4574296E-2,1.713301E-2,-2.661807E-3,-1.086256E-1,1.8166825E-2,-2.412122E-3,-1.868201E-2,1.8927483E-2,-3.354491E-2,-1.3608307E-2,5.356658E-2,1.7712384E-2,-7.2050937E-3],"categories":[],"categories_nodes":[],"categories_segments":[],"categories_sizes":[],"default_left":[0,0,0,0,0,0,0,0,0,0,0,0,0,0,0,0,0],"id":58,"left_children":[1,3,5,-1,7,-1,-1,9,11,-1,-1,-1,13,-1,15,-1,-1],"loss_changes":[6.9137657E-1,1.3631195E0,6.54905E-1,0E0,7.987054E-1,0E0,0E0,5.5715466E-1,1.0681443E0,0E0,0E0,0E0,8.379889E-1,0E0,8.043307E-1,0E0,0E0],"parents":[2147483647,0,0,1,1,2,2,4,4,7,7,8,8,12,12,14,14],"right_children":[2,4,6,-1,8,-1,-1,10,12,-1,-1,-1,14,-1,16,-1,-1],"split_conditions":[7.2E0,4.83116E3,2.549174E4,2.0855492E-2,1.988943E4,1.713301E-2,-2.661807E-3,2.9E0,2.41583E4,-2.412122E-3,-1.868201E-2,1.8927483E-2,3.178786E4,-1.3608307E-2,3.05E0,1.7712384E-2,-7.2050937E-3],"split_indices":[2,3,3,0,3,0,0,2,3,0,0,0,3,0,2,0,0],"split_type":[0,0,0,0,0,0,0,0,0,0,0,0,0,0,0,0,0],"sum_hessian":[3.01E2,2.28E2,7.3E1,2.5E1,2.03E2,4.8E1,2.5E1,8.4E1,1.19E2,4.1E1,4.3E1,2.7E1,9.2E1,4.2E1,5E1,2.5E1,2.5E1],"tree_param":{"num_deleted":"0","num_feature":"14","num_nodes":"17","size_leaf_vector":"1"}},{"base_weights":[1.4794066E-2,-5.7291757E-2,4.57151E-2,8.271706E-3,-1.297998E-1,1.811359E-1,2.2329183E-3,-2.3285797E-2,-1.5544426E-3,1.1245544E-2,2.4549114E-2,-1.1332246E-1,5.436647E-2,-1.7548833E-2,-4.6798033E-3,1.3151716E-1,-2.0884998E-2,-2.5650559E-3,3.0426398E-2],"categories":[],"categories_nodes":[],"categories_segments":[],"categories_sizes":[],"default_left":[0,0,0,0,0,0,0,0,0,0,0,0,0,0,0,0,0,0,0],"id":59,"left_children":[1,3,5,-1,7,9,11,-1,-1,-1,-1,13,15,-1,-1,17,-1,-1,-1],"loss_changes":[6.8245447E-1,9.446991E-1,1.2597113E0,0E0,7.146523E-1,2.0223057E-1,9.8812383E-1,0E0,0E0,0E0,0E0,2.0270044E-1,2.3221958E0,0E0,0E0,2.3970237E0,0E0,0E0,0E0],"parents":[2147483647,0,0,1,1,2,2,4,4,5,5,6,6,11,11,12,12,15,15],"right_children":[2,4,6,-1,8,10,12,-1,-1,-1,-1,14,16,-1,-1,18,-1,-1,-1],"split_conditions":[2.43E0,-5.2E-1,4.81E0,8.271706E-3,4.74E0,1.797764E4,6.1E0,-2.3285797E-2,-1.5544426E-3,1.1245544E-2,2.4549114E-2,2.173152E4,6.76E0,-1.7548833E-2,-4.6798033E-3,1.99E0,-2.0884998E-2,-2.5650559E-3,3.0426398E-2],"split_indices":[2,0,2,0,0,3,2,0,0,0,0,3,0,0,0,0,0,0,0],"split_type":[0,0,0,0,0,0,0,0,0,0,0,0,0,0,0,0,0,0,0],"sum_hessian":[3.04E2,9.1E1,2.13E2,3.1E1,6E1,5.1E1,1.62E2,3.1E1,2.9E1,2.6E1,2.5E1,5E1,1.12E2,2.5E1,2.5E1,8.7E1,2.5E1,4.6E1,4.1E1],"tree_param":{"num_deleted":"0","num_feature":"14","num_nodes":"19","size_leaf_vector":"1"}},{"base_weights":[-1.0759225E-2,5.631702E-3,-1.906456E-2,-1.0513935E-2,2.0495672E-2,2.2880439E-2,-7.494315E-3,-1.52542535E-2,2.017357E-2,4.4321112E-2,-1.26353195E-2,1.0558655E-1,-4.282306E-2,-9.900443E-3,2.09429E-2,-2.8706208E-2,1.1520735E-2],"categories":[],"categories_nodes":[],"categories_segments":[],"categories_sizes":[],"default_left":[0,0,0,0,0,0,0,0,0,0,0,0,0,0,0,0,0],"id":60,"left_children":[1,3,-1,-1,5,-1,7,-1,9,11,-1,13,15,-1,-1,-1,-1],"loss_changes":[9.180587E-1,4.730532E-1,0E0,0E0,1.4768459E0,0E0,9.0202904E-1,0E0,6.743314E-1,8.747666E-1,0E0,2.060276E0,2.657681E0,0E0,0E0,0E0,0E0],"parents":[2147483647,0,0,1,1,4,4,6,6,8,8,9,9,11,11,12,12],"right_children":[2,4,-1,-1,6,-1,8,-1,10,12,-1,14,16,-1,-1,-1,-1],"split_conditions":[1.123E1,2.89E0,-1.906456E-2,-1.0513935E-2,3.66E0,2.2880439E-2,4.63E0,-1.52542535E-2,1E0,3.15E0,-1.26353195E-2,-1.54E0,5.87E0,-9.900443E-3,2.09429E-2,-2.8706208E-2,1.1520735E-2],"split_indices":[1,1,0,0,1,0,1,0,12,0,0,0,0,0,0,0,0],"split_type":[0,0,0,0,0,0,0,0,0,0,0,0,0,0,0,0,0],"sum_hessian":[3.1E2,2.85E2,2.5E1,3.3E1,2.52E2,2.9E1,2.23E2,3.5E1,1.88E2,1.62E2,2.6E1,9.5E1,6.7E1,3.2E1,6.3E1,2.6E1,4.1E1],"tree_param":{"num_deleted":"0","num_feature":"14","num_nodes":"17","size_leaf_vector":"1"}},{"base_weights":[-2.2200339E-2,-3.2312326E-2,9.183E-3,-1.3580064E-2,-1.9483032E-2,5.195606E-2,-6.600573E-2,-2.1805704E-2,2.6659204E-2,-1.2793827E-1,1.3140038E-2,1.06478715E-2,-8.999555E-2,1.0634962E-3,-2.123776E-1,8.145987E-3,-8.603082E-3,-1.48364445E-2,-2.6510654E-3,-1.50310965E-2,-2.6627585E-2],"categories":[],"categories_nodes":[],"categories_segments":[],"categories_sizes":[],"default_left":[0,0,0,0,0,0,0,0,0,0,0,0,0,0,0,0,0,0,0,0,0],"id":61,"left_children":[1,3,-1,5,-1,7,9,11,-1,13,15,-1,17,-1,19,-1,-1,-1,-1,-1,-1],"loss_changes":[3.6733842E-1,8.83254E-1,0E0,9.0360236E-1,0E0,1.8581488E0,7.1732914E-1,7.793798E-1,0E0,9.61743E-1,4.474049E-1,0E0,2.1098822E-1,0E0,1.305852E-1,0E0,0E0,0E0,0E0,0E0,0E0],"parents":[2147483647,0,0,1,1,3,3,5,5,6,6,7,7,9,9,10,10,12,12,14,14],"right_children":[2,4,-1,6,-1,8,10,12,-1,14,16,-1,18,-1,20,-1,-1,-1,-1,-1,-1],"split_conditions":[8.98E0,8.17E0,9.183E-3,5.93E0,-1.9483032E-2,4.63E0,9.53E0,-1.6E-1,2.6659204E-2,4.1E-1,1.104E1,1.06478715E-2,4.84E0,1.0634962E-3,7.45E0,8.145987E-3,-8.603082E-3,-1.48364445E-2,-2.6510654E-3,-1.50310965E-2,-2.6627585E-2],"split_indices":[2,2,0,1,0,1,1,0,0,0,1,0,2,0,1,0,0,0,0,0,0],"split_type":[0,0,0,0,0,0,0,0,0,0,0,0,0,0,0,0,0,0,0,0,0],"sum_hessian":[3.15E2,2.9E2,2.5E1,2.61E2,2.9E1,1.16E2,1.45E2,8.7E1,2.9E1,8.1E1,6.4E1,3E1,5.7E1,3.1E1,5E1,3.8E1,2.6E1,2.9E1,2.8E1,2.5E1,2.5E1],"tree_param":{"num_deleted":"0","num_feature":"14","num_nodes":"21","size_leaf_vector":"1"}},{"base_weights":[-5.111666E-3,1.3405248E-2,-2.9619092E-2,-1.6073963E-2,-1.1247459E-2,1.5588497E-2,-3.7096746E-2,-8.316758E-2,9.5627315E-2,-2.6473215E-2,-4.4426885E-2,4.6115685E-3,1.4336526E-2,7.3697753E-3,-1.0804487E-1,-3.4008273E-3,-1.9964596E-2],"categories":[],"categories_nodes":[],"categories_segments":[],"categories_sizes":[],"default_left":[0,0,0,0,0,0,0,0,0,0,0,0,0,0,0,0,0],"id":62,"left_children":[1,-1,3,-1,5,-1,7,9,11,-1,13,-1,-1,-1,15,-1,-1],"loss_changes":[1.0476003E0,0E0,6.2691456E-1,0E0,9.9944127E-1,0E0,1.2308948E0,1.0362955E0,1.1629492E-1,0E0,9.398043E-1,0E0,0E0,0E0,5.425389E-1,0E0,0E0],"parents":[2147483647,0,0,2,2,4,4,6,6,7,7,8,8,10,10,14,14],"right_children":[2,-1,4,-1,6,-1,8,10,12,-1,14,-1,-1,-1,16,-1,-1],"split_conditions":[8.9E-1,1.3405248E-2,2.08E0,-1.6073963E-2,3.29E0,1.5588497E-2,9.4E0,7.78919E3,6.92E0,-2.6473215E-2,1.850373E4,4.6115685E-3,1.4336526E-2,7.3697753E-3,5.56E0,-3.4008273E-3,-1.9964596E-2],"split_indices":[2,0,2,0,2,0,1,3,2,0,3,0,0,0,1,0,0],"split_type":[0,0,0,0,0,0,0,0,0,0,0,0,0,0,0,0,0],"sum_hessian":[3.05E2,4.5E1,2.6E2,3.1E1,2.29E2,3E1,1.99E2,1.48E2,5.1E1,2.5E1,1.23E2,2.6E1,2.5E1,4.3E1,8E1,4.5E1,3.5E1],"tree_param":{"num_deleted":"0","num_feature":"14","num_nodes":"17","size_leaf_vector":"1"}},{"base_weights":[-2.6132118E-2,-1.03638686E-1,2.49789E-2,-7.338363E-4,-1.6056207E-1,-3.8517527E-2,1.0986045E-1,-2.802284E-2,-8.491861E-3,1.5967714E-2,-1.15236E-1,2.0254573E-2,-1.2445194E-3,-2.8684983E-2,-2.212209E-2,7.727641E-3,-1.2066974E-2],"categories":[],"categories_nodes":[],"categories_segments":[],"categories_sizes":[],"default_left":[0,0,0,0,0,0,0,0,0,0,0,0,0,0,0,0,0],"id":63,"left_children":[1,3,5,-1,7,9,11,-1,-1,-1,13,-1,-1,-1,15,-1,-1],"loss_changes":[1.2068664E0,6.6211224E-1,9.9593186E-1,0E0,6.641536E-1,1.6301509E0,8.980593E-1,0E0,0E0,0E0,1.2240863E0,0E0,0E0,0E0,5.088948E-1,0E0,0E0],"parents":[2147483647,0,0,1,1,2,2,4,4,5,5,6,6,10,10,14,14],"right_children":[2,4,6,-1,8,10,12,-1,-1,-1,14,-1,-1,-1,16,-1,-1],"split_conditions":[4.13E0,8.9E-1,8.04E0,-7.338363E-4,2.08E0,5.52E0,7.38E0,-2.802284E-2,-8.491861E-3,1.5967714E-2,6.98E0,2.0254573E-2,-1.2445194E-3,-2.8684983E-2,8.48E0,7.727641E-3,-1.2066974E-2],"split_indices":[2,2,1,0,2,2,2,0,0,0,2,0,0,0,2,0,0],"split_type":[0,0,0,0,0,0,0,0,0,0,0,0,0,0,0,0,0],"sum_hessian":[3.03E2,1.2E2,1.83E2,4.5E1,7.5E1,1.05E2,7.8E1,2.8E1,4.7E1,2.9E1,7.6E1,4.4E1,3.4E1,2.6E1,5E1,2.5E1,2.5E1],"tree_param":{"num_deleted":"0","num_feature":"14","num_nodes":"17","size_leaf_vector":"1"}},{"base_weights":[6.098366E-3,8.195783E-2,-2.0545738E-2,-6.4255334E-3,1.7577138E-2,-1.2818006E-1,1.9537335E-2,2.7450004E-3,-3.4472357E-2,-9.86388E-3,6.6644974E-2,2.043512E-2,2.051496E-2,-1.607303E-2,9.160377E-2,2.2184528E-2,-4.251776E-4],"categories":[],"categories_nodes":[],"categories_segments":[],"categories_sizes":[],"default_left":[0,0,0,0,0,0,0,0,0,0,0,0,0,0,0,0,0],"id":64,"left_children":[1,3,5,-1,-1,7,9,-1,-1,-1,11,-1,13,-1,15,-1,-1],"loss_changes":[6.2219465E-1,1.1086364E0,9.861679E-1,0E0,0E0,2.098905E0,9.362626E-1,0E0,0E0,0E0,7.580947E-1,0E0,1.1872138E0,0E0,8.249117E-1,0E0,0E0],"parents":[2147483647,0,0,1,1,2,2,5,5,6,6,10,10,12,12,14,14],"right_children":[2,4,6,-1,-1,8,10,-1,-1,-1,12,-1,14,-1,16,-1,-1],"split_conditions":[4.26E0,2.89E0,2.63E0,-6.4255334E-3,1.7577138E-2,8.9E-1,6.51E0,2.7450004E-3,-3.4472357E-2,-9.86388E-3,4.81E0,2.043512E-2,6.07E0,-1.607303E-2,7.38E0,2.2184528E-2,-4.251776E-4],"split_indices":[1,1,2,0,0,2,1,0,0,0,2,0,2,0,2,0,0],"split_type":[0,0,0,0,0,0,0,0,0,0,0,0,0,0,0,0,0],"sum_hessian":[3.06E2,7.9E1,2.27E2,3.1E1,4.8E1,6.1E1,1.66E2,3.6E1,2.5E1,4.7E1,1.19E2,2.9E1,9E1,2.5E1,6.5E1,2.7E1,3.8E1],"tree_param":{"num_deleted":"0","num_feature":"14","num_nodes":"17","size_leaf_vector":"1"}},{"base_weights":[3.3308543E-2,6.549073E-2,-1.458168E-2,4.2505573E-2,2.2434024E-2,6.1258644E-2,-9.095373E-3,1.3751693E-1,-9.671408E-3,3.3085298E-2,4.7553323E-2,-7.670121E-2,8.564229E-3,-5.2328403E-3,1.375151E-2,5.150838E-3,-2.5127212E-2],"categories":[],"categories_nodes":[],"categories_segments":[],"categories_sizes":[],"default_left":[0,0,0,0,0,0,0,0,0,0,0,0,0,0,0,0,0],"id":65,"left_children":[1,3,-1,5,-1,7,-1,9,11,-1,13,15,-1,-1,-1,-1,-1],"loss_changes":[1.7389432E0,9.2151546E-1,0E0,5.6619257E-1,0E0,1.0669038E0,0E0,1.6366214E0,6.646213E-1,0E0,6.002414E-1,1.3782241E0,0E0,0E0,0E0,0E0,0E0],"parents":[2147483647,0,0,1,1,3,3,5,5,7,7,8,8,10,10,11,11],"right_children":[2,4,-1,6,-1,8,-1,10,12,-1,14,16,-1,-1,-1,-1,-1],"split_conditions":[1.047E1,9.4E0,-1.458168E-2,1E0,2.2434024E-2,5.15E0,-9.095373E-3,-1.6E-1,5.67E0,3.3085298E-2,4.84E0,7.43E0,8.564229E-3,-5.2328403E-3,1.375151E-2,5.150838E-3,-2.5127212E-2],"split_indices":[1,1,0,10,0,1,0,0,2,0,2,1,0,0,0,0,0],"split_type":[0,0,0,0,0,0,0,0,0,0,0,0,0,0,0,0,0],"sum_hessian":[2.99E2,2.54E2,4.5E1,2.23E2,3.1E1,1.96E2,2.7E1,9.4E1,1.02E2,2.9E1,6.5E1,6E1,4.2E1,3.1E1,3.4E1,3.5E1,2.5E1],"tree_param":{"num_deleted":"0","num_feature":"14","num_nodes":"17","size_leaf_vector":"1"}},{"base_weights":[1.07656475E-2,-6.578129E-3,1.6056128E-2,2.2365581E-2,-1.4171141E-2,1.6895384E-2,1.9356952E-3,-1.9696463E-2,3.9145485E-2,1.8647998E-3,2.2947667E-2,-4.668639E-2,2.2400813E-2,-2.4228405E-2,7.911753E-4],"categories":[],"categories_nodes":[],"categories_segments":[],"categories_sizes":[],"default_left":[0,0,0,0,0,0,0,0,0,0,0,0,0,0,0],"id":66,"left_children":[1,3,-1,5,-1,-1,7,-1,9,11,-1,13,-1,-1,-1],"loss_changes":[8.0124694E-1,1.0865881E0,0E0,6.8547785E-1,0E0,0E0,1.5027201E0,0E0,1.212933E0,1.5635446E0,0E0,1.27275E0,0E0,0E0,0E0],"parents":[2147483647,0,0,1,1,3,3,6,6,8,8,9,9,11,11],"right_children":[2,4,-1,6,-1,-1,8,-1,10,12,-1,14,-1,-1,-1],"split_conditions":[8.73E0,7.08E0,1.6056128E-2,5.85093E3,-1.4171141E-2,1.6895384E-2,1.143643E4,-1.9696463E-2,6.1E0,6.79E0,2.2947667E-2,3.56E0,2.2400813E-2,-2.4228405E-2,7.911753E-4],"split_indices":[2,2,0,3,0,0,3,0,2,0,0,1,0,0,0],"split_type":[0,0,0,0,0,0,0,0,0,0,0,0,0,0,0],"sum_hessian":[3.07E2,2.76E2,3.1E1,2.28E2,4.8E1,2.7E1,2.01E2,3.1E1,1.7E2,1.43E2,2.7E1,1.18E2,2.5E1,2.5E1,9.3E1],"tree_param":{"num_deleted":"0","num_feature":"14","num_nodes":"15","size_leaf_vector":"1"}}]},"name":"gbtree"},"learner_model_param":{"base_score":"-6.214474E-10","boost_from_average":"1","num_class":"0","num_feature":"14","num_target":"1"},"objective":{"name":"reg:squarederror","reg_loss_param":{"scale_pos_weight":"1"}}},"version":[3,0,1]}