{"learner":{"attributes":{"best_iteration":"0","best_score":"1.0157251275434074"},"feature_names":[],"feature_types":[],"gradient_booster":{"model":{"gbtree_model_param":{"num_parallel_tree":"1","num_trees":"51"},"iteration_indptr":[0,1,2,3,4,5,6,7,8,9,10,11,12,13,14,15,16,17,18,19,20,21,22,23,24,25,26,27,28,29,30,31,32,33,34,35,36,37,38,39,40,41,42,43,44,45,46,47,48,49,50,51],"tree_info":[0,0,0,0,0,0,0,0,0,0,0,0,0,0,0,0,0,0,0,0,0,0,0,0,0,0,0,0,0,0,0,0,0,0,0,0,0,0,0,0,0,0,0,0,0,0,0,0,0,0,0],"trees":[{"base_weights":[-5.5705274E-10,-9.779395E-1,2.8119665E-2,-1.3815746E0,-1.2800181E-1,-1.1376398E0,4.6892084E-2,-1.5349256E-1,-3.0741E-2,-2.2881469E-2,8.7218415E-3,-1.5215065E-1,1.9891355E-2,1.3676628E-2,4.0790352E-1,-7.0468765E-1,3.974923E-2,5.0562286E-1,-1.0175399E-1,2.4610376E-2,-9.7314847E-1,-3.1049314E-1,9.211996E-2,-8.234086E-2,5.953078E-1,-1.22562565E-1,-1.4381142E-2,-3.8863126E-2,6.7857E-2,2.8644336E-2,-2.4311994E-3,6.5319106E-2,-3.6800247E-2],"categories":[],"categories_nodes":[],"categories_segments":[],"categories_sizes":[],"default_left":[0,0,0,0,0,0,0,0,0,0,0,0,0,0,0,0,0,0,0,0,0,0,0,0,0,0,0,0,0,0,0,0,0],"id":0,"left_children":[1,3,5,7,9,11,13,-1,-1,-1,-1,-1,-1,15,17,19,21,23,-1,-1,25,27,29,-1,31,-1,-1,-1,-1,-1,-1,-1,-1],"loss_changes":[8.854784E0,2.910738E0,6.9030776E0,5.164938E-1,1.0674473E-1,2.8679395E0,3.6996894E0,0E0,0E0,0E0,0E0,0E0,0E0,5.347225E0,4.136119E0,2.791998E0,5.0727763E0,3.470035E0,0E0,0E0,1.4988494E0,3.0459206E0,5.437073E0,0E0,1.5786037E0,0E0,0E0,0E0,0E0,0E0,0E0,0E0,0E0],"parents":[2147483647,0,0,1,1,2,2,3,3,4,4,5,5,6,6,13,13,14,14,15,15,16,16,17,17,20,20,21,21,22,22,24,24],"right_children":[2,4,6,8,10,12,14,-1,-1,-1,-1,-1,-1,16,18,20,22,24,-1,-1,26,28,30,-1,32,-1,-1,-1,-1,-1,-1,-1,-1],"split_conditions":[-2.0565218E1,1.99E0,-4.76E0,1.197E1,-7E-2,5.1E0,9.18E0,-1.5349256E-1,-3.0741E-2,-2.2881469E-2,8.7218415E-3,-1.5215065E-1,1.9891355E-2,-1.088E1,1.88E0,2.87E0,3.05E0,1.50815E3,-1.0175399E-1,2.4610376E-2,8.98E0,8.52E0,2.15775E1,-8.234086E-2,1E0,-1.22562565E-1,-1.4381142E-2,-3.8863126E-2,6.7857E-2,2.8644336E-2,-2.4311994E-3,6.5319106E-2,-3.6800247E-2],"split_indices":[16,0,0,1,2,2,2,0,0,0,0,0,0,14,18,1,1,3,0,0,2,0,19,0,8,0,0,0,0,0,0,0,0],"split_type":[0,0,0,0,0,0,0,0,0,0,0,0,0,0,0,0,0,0,0,0,0,0,0,0,0,0,0,0,0,0,0,0,0],"sum_hessian":[3.2E2,8E0,3.12E2,5E0,3E0,4E0,3.08E2,4E0,1E0,2E0,1E0,3E0,1E0,2.83E2,2.5E1,9E0,2.74E2,2.4E1,1E0,2E0,7E0,3.5E1,2.39E2,1E0,2.3E1,5E0,2E0,3.3E1,2E0,8.9E1,1.5E2,2.2E1,1E0],"tree_param":{"num_deleted":"0","num_feature":"24","num_nodes":"33","size_leaf_vector":"1"}},{"base_weights":[-1.6926947E-3,-9.021892E-1,2.4205584E-2,-1.2741228E0,-1.18741535E-1,-1.0503277E0,4.151452E-2,-1.4121316E-1,-2.9203951E-2,-2.1356037E-1,8.285749E-3,-1.4073935E0,1.8896786E-2,2.3861437E-1,-9.93225E-3,-2.5444925E-2,-6.589131E-3,-1.609324E-1,-4.0080104E-2,4.630109E-1,-4.817492E-2,3.482758E-2,-4.454222E-1,6.5772134E-1,-3.930563E-2,-9.095551E-1,1.260281E-1,-2.7646156E-2,2.8394857E-1,-1.7583767E-1,-1.17993884E-1,6.998228E-2,-1.97408E-2,-6.944453E-2,4.342664E-2,-1.1170925E-1,-3.9702673E-3,-1.0888634E-1,2.220179E-2,6.9413567E-4,-1.031841E-1,-2.4400244E-3,5.1021885E-2,6.5922566E-2,-4.615147E-2],"categories":[],"categories_nodes":[],"categories_segments":[],"categories_sizes":[],"default_left":[0,0,0,0,0,0,0,0,0,0,0,0,0,0,0,0,0,0,0,0,0,0,0,0,0,0,0,0,0,0,0,0,0,0,0,0,0,0,0,0,0,0,0,0,0],"id":1,"left_children":[1,3,5,7,9,11,13,-1,-1,15,-1,17,-1,19,21,-1,-1,-1,-1,23,25,27,29,31,33,35,37,39,41,43,-1,-1,-1,-1,-1,-1,-1,-1,-1,-1,-1,-1,-1,-1,-1],"loss_changes":[7.5079784E0,2.4712238E0,5.8650985E0,4.0081787E-1,9.415662E-2,2.4785032E0,3.1356764E0,0E0,0E0,1.3480633E-3,0E0,1.6802788E-1,0E0,4.1409945E0,4.810657E0,0E0,0E0,0E0,0E0,3.5468774E0,4.4662256E0,3.4940782E0,4.346851E0,1.0742092E0,3.7143884E0,8.5828304E-1,3.1571765E0,6.2590303E0,3.1521072E0,4.598294E0,0E0,0E0,0E0,0E0,0E0,0E0,0E0,0E0,0E0,0E0,0E0,0E0,0E0,0E0,0E0],"parents":[2147483647,0,0,1,1,2,2,3,3,4,4,5,5,6,6,9,9,11,11,13,13,14,14,19,19,20,20,21,21,22,22,23,23,24,24,25,25,26,26,27,27,28,28,29,29],"right_children":[2,4,6,8,10,12,14,-1,-1,16,-1,18,-1,20,22,-1,-1,-1,-1,24,26,28,30,32,34,36,38,40,42,44,-1,-1,-1,-1,-1,-1,-1,-1,-1,-1,-1,-1,-1,-1,-1],"split_conditions":[-2.0565218E1,1.99E0,-4.76E0,1.197E1,-7E-2,5.1E0,1.66E0,-1.4121316E-1,-2.9203951E-2,2.71E0,8.285749E-3,3.38E0,1.8896786E-2,-3.67E0,1E0,-2.5444925E-2,-6.589131E-3,-1.609324E-1,-4.0080104E-2,3.0437814E4,-3.1072872E-5,6.5048E1,3.210435E4,3.89E0,3.6156E0,7.21E0,-3.59E0,1.171E1,-6.8E0,-2.38E0,-1.17993884E-1,6.998228E-2,-1.97408E-2,-6.944453E-2,4.342664E-2,-1.1170925E-1,-3.9702673E-3,-1.0888634E-1,2.220179E-2,6.9413567E-4,-1.031841E-1,-2.4400244E-3,5.1021885E-2,6.5922566E-2,-4.615147E-2],"split_indices":[16,0,0,1,2,2,2,0,0,0,0,1,0,18,6,0,0,0,0,17,15,19,3,0,19,0,18,1,14,0,0,0,0,0,0,0,0,0,0,0,0,0,0,0,0],"split_type":[0,0,0,0,0,0,0,0,0,0,0,0,0,0,0,0,0,0,0,0,0,0,0,0,0,0,0,0,0,0,0,0,0,0,0,0,0,0,0,0,0,0,0,0,0],"sum_hessian":[3.2E2,8E0,3.12E2,5E0,3E0,4E0,3.08E2,4E0,1E0,2E0,1E0,3E0,1E0,6.3E1,2.45E2,1E0,1E0,2E0,1E0,3.5E1,2.8E1,2.23E2,2.2E1,2.5E1,1E1,4E0,2.4E1,1.79E2,4.4E1,1.7E1,5E0,2.4E1,1E0,4E0,6E0,3E0,1E0,1E0,2.3E1,1.74E2,5E0,1.9E1,2.5E1,4E0,1.3E1],"tree_param":{"num_deleted":"0","num_feature":"24","num_nodes":"45","size_leaf_vector":"1"}},{"base_weights":[-3.7245161E-3,-8.335442E-1,2.0148013E-2,-1.1751133E0,-1.1280444E-1,-9.8171806E-1,3.6294233E-2,-1.299161E-1,-2.7743755E-2,-2.0288233E-1,7.871462E-3,-1.3169073E0,1.7951949E-2,7.538619E-3,3.489981E-1,-2.4172677E-2,-6.2596737E-3,-1.5020357E-1,-3.80761E-2,-6.329545E-1,3.0801864E-2,4.4031882E-1,-9.670099E-2,2.2923406E-2,-8.771559E-1,-9.792528E-3,4.1994786E-1,-7.825852E-2,5.238809E-1,-1.10324256E-1,-1.325973E-2,2.1563852E-3,-5.024801E-2,5.08065E-2,-8.9148976E-2,5.769524E-2,-3.4838237E-2],"categories":[],"categories_nodes":[],"categories_segments":[],"categories_sizes":[],"default_left":[0,0,0,0,0,0,0,0,0,0,0,0,0,0,0,0,0,0,0,0,0,0,0,0,0,0,0,0,0,0,0,0,0,0,0,0,0],"id":2,"left_children":[1,3,5,7,9,11,13,-1,-1,15,-1,17,-1,19,21,-1,-1,-1,-1,23,25,27,-1,-1,29,31,33,-1,35,-1,-1,-1,-1,-1,-1,-1,-1],"loss_changes":[6.375771E0,2.0830836E0,5.098829E0,3.0769157E-1,8.497633E-2,2.182582E0,2.7758946E0,0E0,0E0,1.2166426E-3,0E0,1.2131357E-1,0E0,4.2510815E0,3.5504417E0,0E0,0E0,0E0,0E0,2.3065505E0,4.3483276E0,2.9646907E0,0E0,0E0,1.2003908E0,3.87306E0,3.4574962E0,0E0,1.3120165E0,0E0,0E0,0E0,0E0,0E0,0E0,0E0,0E0],"parents":[2147483647,0,0,1,1,2,2,3,3,4,4,5,5,6,6,9,9,11,11,13,13,14,14,19,19,20,20,21,21,24,24,25,25,26,26,28,28],"right_children":[2,4,6,8,10,12,14,-1,-1,16,-1,18,-1,20,22,-1,-1,-1,-1,24,26,28,-1,-1,30,32,34,-1,36,-1,-1,-1,-1,-1,-1,-1,-1],"split_conditions":[-2.0565218E1,1.99E0,-4.76E0,1.197E1,-7E-2,5.1E0,9.18E0,-1.299161E-1,-2.7743755E-2,2.71E0,7.871462E-3,3.38E0,1.7951949E-2,-1.088E1,1.88E0,-2.4172677E-2,-6.2596737E-3,-1.5020357E-1,-3.80761E-2,2.87E0,1.6722559E-3,1.50815E3,-9.670099E-2,2.2923406E-2,8.98E0,-6.77092E3,1E0,-7.825852E-2,1E0,-1.10324256E-1,-1.325973E-2,2.1563852E-3,-5.024801E-2,5.08065E-2,-8.9148976E-2,5.769524E-2,-3.4838237E-2],"split_indices":[16,0,0,1,2,2,2,0,0,0,0,1,0,14,18,0,0,0,0,1,20,3,0,0,2,22,5,0,8,0,0,0,0,0,0,0,0],"split_type":[0,0,0,0,0,0,0,0,0,0,0,0,0,0,0,0,0,0,0,0,0,0,0,0,0,0,0,0,0,0,0,0,0,0,0,0,0],"sum_hessian":[3.2E2,8E0,3.12E2,5E0,3E0,4E0,3.08E2,4E0,1E0,2E0,1E0,3E0,1E0,2.83E2,2.5E1,1E0,1E0,2E0,1E0,9E0,2.74E2,2.4E1,1E0,2E0,7E0,2.49E2,2.5E1,1E0,2.3E1,5E0,2E0,2.35E2,1.4E1,2.4E1,1E0,2.2E1,1E0],"tree_param":{"num_deleted":"0","num_feature":"24","num_nodes":"37","size_leaf_vector":"1"}},{"base_weights":[-5.5008163E-3,-7.702143E-1,1.6505325E-2,-1.0838786E0,-1.07164234E-1,-9.176118E-1,3.1567074E-2,-1.1952281E-1,-2.6356567E-2,-1.9273823E-1,7.4778884E-3,-1.2322865E0,1.705435E-2,-8.788872E-2,4.0361196E-2,-2.2964044E-2,-5.9466907E-3,-1.4018999E-1,-3.6172293E-2,6.767529E-2,-2.4540257E-1,8.261572E-2,-6.308634E-1,3.9429942E-1,-5.871591E-1,3.0462004E-3,2.4484951E-2,-1.1850061E-1,3.1828135E-2,6.709696E-2,-4.749209E-2,1.4662086E-2,-8.8066064E-2],"categories":[],"categories_nodes":[],"categories_segments":[],"categories_sizes":[],"default_left":[0,0,0,0,0,0,0,0,0,0,0,0,0,0,0,0,0,0,0,0,0,0,0,0,0,0,0,0,0,0,0,0,0],"id":3,"left_children":[1,3,5,7,9,11,13,-1,-1,15,-1,17,-1,-1,19,-1,-1,-1,-1,21,23,25,27,29,31,-1,-1,-1,-1,-1,-1,-1,-1],"loss_changes":[5.4146276E0,1.7556229E0,4.4326997E0,2.3302746E-1,7.669115E-2,1.9222331E0,2.5095267E0,0E0,0E0,1.0980144E-3,0E0,8.3538055E-2,0E0,0E0,2.412859E0,0E0,0E0,0E0,0E0,2.984766E0,6.134319E0,2.3278034E0,3.5329354E0,2.723531E0,4.005704E0,0E0,0E0,0E0,0E0,0E0,0E0,0E0,0E0],"parents":[2147483647,0,0,1,1,2,2,3,3,4,4,5,5,6,6,9,9,11,11,14,14,19,19,20,20,21,21,22,22,23,23,24,24],"right_children":[2,4,6,8,10,12,14,-1,-1,16,-1,18,-1,-1,20,-1,-1,-1,-1,22,24,26,28,30,32,-1,-1,-1,-1,-1,-1,-1,-1],"split_conditions":[-2.0565218E1,1.99E0,-4.76E0,1.197E1,-7E-2,5.1E0,2.04E0,-1.1952281E-1,-2.6356567E-2,2.71E0,7.4778884E-3,3.38E0,1.705435E-2,-8.788872E-2,1E0,-2.2964044E-2,-5.9466907E-3,-1.4018999E-1,-3.6172293E-2,1.18E1,2.11354E1,9.48E0,5.29E0,2.85E0,-8.68E0,3.0462004E-3,2.4484951E-2,-1.1850061E-1,3.1828135E-2,6.709696E-2,-4.749209E-2,1.4662086E-2,-8.8066064E-2],"split_indices":[16,0,0,1,2,2,1,0,0,0,0,1,0,0,6,0,0,0,0,1,19,1,2,0,18,0,0,0,0,0,0,0,0],"split_type":[0,0,0,0,0,0,0,0,0,0,0,0,0,0,0,0,0,0,0,0,0,0,0,0,0,0,0,0,0,0,0,0,0],"sum_hessian":[3.2E2,8E0,3.12E2,5E0,3E0,4E0,3.08E2,4E0,1E0,2E0,1E0,3E0,1E0,2E0,3.06E2,1E0,1E0,2E0,1E0,2.8E2,2.6E1,2.75E2,5E0,9E0,1.7E1,2.09E2,6.6E1,3E0,2E0,7E0,2E0,5E0,1.2E1],"tree_param":{"num_deleted":"0","num_feature":"24","num_nodes":"33","size_leaf_vector":"1"}},{"base_weights":[-6.593876E-3,-7.117831E-1,1.3704198E-2,-9.99804E-1,-1.01806015E-1,-8.5771215E-1,2.7760437E-2,-1.0996099E-1,-2.5038738E-2,-1.8310131E-1,7.1039945E-3,-1.1531484E0,1.6201634E-2,1.9657189E-1,-1.6270839E-2,-2.1815842E-2,-5.6493557E-3,-1.30844E-1,-3.436368E-2,2.519833E-1,-6.975954E-1,1.9739512E-2,-3.662729E-1,4.666497E-1,-1.7682396E-2,-8.731275E-2,-8.54997E-3,-7.089371E-1,3.621062E-2,-5.596013E-1,4.4162953E-1,5.783989E-2,-4.7011273E-3,-8.451467E-2,1.5544278E-2,2.7004262E-2,-1.0211927E-1,-9.309532E-3,1.33415805E-2,1.0472564E-2,-7.4373685E-2,4.9523156E-2,1.1361072E-2],"categories":[],"categories_nodes":[],"categories_segments":[],"categories_sizes":[],"default_left":[0,0,0,0,0,0,0,0,0,0,0,0,0,0,0,0,0,0,0,0,0,0,0,0,0,0,0,0,0,0,0,0,0,0,0,0,0,0,0,0,0,0,0],"id":4,"left_children":[1,3,5,7,9,11,13,-1,-1,15,-1,17,-1,19,21,-1,-1,-1,-1,23,25,27,29,31,33,-1,-1,35,37,39,41,-1,-1,-1,-1,-1,-1,-1,-1,-1,-1,-1,-1],"loss_changes":[4.604543E0,1.4793887E0,3.8576963E0,1.7344856E-1,6.921376E-2,1.6931524E0,2.2999902E0,0E0,0E0,9.90957E-4,0E0,5.3213596E-2,0E0,3.3467965E0,3.1077397E0,0E0,0E0,0E0,0E0,3.5394294E0,3.5511744E-1,2.7141438E0,3.839517E0,1.9788313E0,4.142509E0,0E0,0E0,1.804225E0,2.777646E0,2.4020863E0,3.1648815E-2,0E0,0E0,0E0,0E0,0E0,0E0,0E0,0E0,0E0,0E0,0E0,0E0],"parents":[2147483647,0,0,1,1,2,2,3,3,4,4,5,5,6,6,9,9,11,11,13,13,14,14,19,19,20,20,21,21,22,22,23,23,24,24,27,27,28,28,29,29,30,30],"right_children":[2,4,6,8,10,12,14,-1,-1,16,-1,18,-1,20,22,-1,-1,-1,-1,24,26,28,30,32,34,-1,-1,36,38,40,42,-1,-1,-1,-1,-1,-1,-1,-1,-1,-1,-1,-1],"split_conditions":[-2.0565218E1,1.99E0,-4.76E0,1.197E1,-7E-2,5.1E0,1.66E0,-1.0996099E-1,-2.5038738E-2,2.71E0,7.1039945E-3,3.38E0,1.6201634E-2,1E0,1E0,-2.1815842E-2,-5.6493557E-3,-1.30844E-1,-3.436368E-2,-3.67E0,1.58E0,5.6815777E-5,8.598685E-4,1E0,-3.1072872E-5,-8.731275E-2,-8.54997E-3,-3.78E0,1.5E0,2.11354E1,8.52E0,5.783989E-2,-4.7011273E-3,-8.451467E-2,1.5544278E-2,2.7004262E-2,-1.0211927E-1,-9.309532E-3,1.33415805E-2,1.0472564E-2,-7.4373685E-2,4.9523156E-2,1.1361072E-2],"split_indices":[16,0,0,1,2,2,2,0,0,0,0,1,0,5,6,0,0,0,0,18,0,15,15,13,15,0,0,0,0,19,1,0,0,0,0,0,0,0,0,0,0,0,0],"split_type":[0,0,0,0,0,0,0,0,0,0,0,0,0,0,0,0,0,0,0,0,0,0,0,0,0,0,0,0,0,0,0,0,0,0,0,0,0,0,0,0,0,0,0],"sum_hessian":[3.2E2,8E0,3.12E2,5E0,3E0,4E0,3.08E2,4E0,1E0,2E0,1E0,3E0,1E0,6.3E1,2.45E2,1E0,1E0,2E0,1E0,6E1,3E0,2.23E2,2.2E1,3.3E1,2.7E1,2E0,1E0,4E0,2.19E2,1.8E1,4E0,2.7E1,6E0,4E0,2.3E1,1E0,3E0,9.4E1,1.25E2,4E0,1.4E1,3E0,1E0],"tree_param":{"num_deleted":"0","num_feature":"24","num_nodes":"43","size_leaf_vector":"1"}},{"base_weights":[-7.461467E-3,-6.5786713E-1,1.1264132E-2,-9.223236E-1,-9.671572E-2,-8.0174214E-1,2.438312E-2,-1.011641E-1,-2.37868E-2,-1.7394625E-1,6.748794E-3,-1.0791354E0,1.5391551E-2,5.5894416E-2,-2.2390229E-1,-2.072505E-2,-5.3668884E-3,-1.2212106E-1,-3.2645494E-2,-4.6877688E-1,8.583378E-2,-8.0806655E-1,7.750912E-2,-9.138305E-1,1.7040305E-1,1.1251245E-1,-3.928906E-1,4.03749E-2,-1.0908046E0,-7.386102E-1,3.905828E-1,-1.2518956E-1,1.7959816E-2,-4.6889983E-2,5.1990416E-2,-5.1282356E-3,1.9824153E-2,3.9766163E-2,-7.488777E-2,-1.3588421E-1,-1.2436619E-3,-1.0532846E-1,5.747184E-2,6.3463315E-2,2.1567155E-2],"categories":[],"categories_nodes":[],"categories_segments":[],"categories_sizes":[],"default_left":[0,0,0,0,0,0,0,0,0,0,0,0,0,0,0,0,0,0,0,0,0,0,0,0,0,0,0,0,0,0,0,0,0,0,0,0,0,0,0,0,0,0,0,0,0],"id":5,"left_children":[1,3,5,7,9,11,13,-1,-1,15,-1,17,-1,19,21,-1,-1,-1,-1,23,25,27,29,31,33,35,37,-1,39,41,43,-1,-1,-1,-1,-1,-1,-1,-1,-1,-1,-1,-1,-1,-1],"loss_changes":[3.916945E0,1.2463975E0,3.3579504E0,1.2616634E-1,6.2465414E-2,1.4915607E0,2.4300675E0,0E0,0E0,8.943379E-4,0E0,2.907896E-2,0E0,4.3600273E0,6.225215E0,0E0,0E0,0E0,0E0,4.4227595E0,3.3776252E0,4.5519266E0,6.4206195E0,3.5516882E0,1.8078423E0,3.4925766E0,4.237769E0,0E0,2.8735313E0,3.4982395E0,6.314964E-1,0E0,0E0,0E0,0E0,0E0,0E0,0E0,0E0,0E0,0E0,0E0,0E0,0E0,0E0],"parents":[2147483647,0,0,1,1,2,2,3,3,4,4,5,5,6,6,9,9,11,11,13,13,14,14,19,19,20,20,21,21,22,22,23,23,24,24,25,25,26,26,28,28,29,29,30,30],"right_children":[2,4,6,8,10,12,14,-1,-1,16,-1,18,-1,20,22,-1,-1,-1,-1,24,26,28,30,32,34,36,38,-1,40,42,44,-1,-1,-1,-1,-1,-1,-1,-1,-1,-1,-1,-1,-1,-1],"split_conditions":[-2.0565218E1,1.99E0,-4.76E0,1.197E1,-7E-2,5.1E0,1.72E0,-1.011641E-1,-2.37868E-2,2.71E0,6.748794E-3,3.38E0,1.5391551E-2,9.3399154E-5,2.87E0,-2.072505E-2,-5.3668884E-3,-1.2212106E-1,-3.2645494E-2,1.2322168E4,3.751442E4,2.68E0,1.38E0,4.5868644E-1,1.84E0,-4.94E0,-4.98E0,4.03749E-2,1E0,1E0,3.9E0,-1.2518956E-1,1.7959816E-2,-4.6889983E-2,5.1990416E-2,-5.1282356E-3,1.9824153E-2,3.9766163E-2,-7.488777E-2,-1.3588421E-1,-1.2436619E-3,-1.0532846E-1,5.747184E-2,6.3463315E-2,2.1567155E-2],"split_indices":[16,0,0,1,2,2,18,0,0,0,0,1,0,20,18,0,0,0,0,21,3,1,14,16,2,14,14,0,8,9,14,0,0,0,0,0,0,0,0,0,0,0,0,0,0],"split_type":[0,0,0,0,0,0,0,0,0,0,0,0,0,0,0,0,0,0,0,0,0,0,0,0,0,0,0,0,0,0,0,0,0,0,0,0,0,0,0,0,0,0,0,0,0],"sum_hessian":[3.2E2,8E0,3.12E2,5E0,3E0,4E0,3.08E2,4E0,1E0,2E0,1E0,3E0,1E0,2.74E2,3.4E1,1E0,1E0,2E0,1E0,1.4E1,2.6E2,1.1E1,2.3E1,8E0,6E0,2.47E2,1.3E1,2E0,9E0,6E0,1.7E1,6E0,2E0,2E0,4E0,8.5E1,1.62E2,4E0,9E0,7E0,2E0,5E0,1E0,6E0,1.1E1],"tree_param":{"num_deleted":"0","num_feature":"24","num_nodes":"45","size_leaf_vector":"1"}},{"base_weights":[-8.166421E-3,1.10188415E-2,-6.0593E-1,-7.4944293E-1,2.3328224E-2,-1.0875491E0,3.8838592E-1,-1.0099136E0,1.4621973E-2,-6.260002E-2,1.2291396E-1,-1.4864317E-1,-4.1677925E-1,5.065254E-2,1.6983785E-3,-1.1397966E-1,-3.101322E-2,-2.5871154E-2,-7.847612E-1,3.279622E-2,4.4744268E-1,-4.9273048E-2,-9.446278E-3,-9.781074E-2,2.3179512E-1,-2.2374032E-1,-1.0766257E-1,1.7369297E-1,-1.8397428E-1,4.9995017E-1,-5.6389093E-2,-1.624822E-2,3.529187E-2,-7.3506854E-2,3.1266775E-2,-2.558022E-3,-2.8126696E-2,2.2794472E-2,-4.3394115E-2,-8.8860795E-2,-7.604622E-4,1.3615161E-2,6.4938046E-2],"categories":[],"categories_nodes":[],"categories_segments":[],"categories_sizes":[],"default_left":[0,0,0,0,0,0,0,0,0,0,0,0,0,0,0,0,0,0,0,0,0,0,0,0,0,0,0,0,0,0,0,0,0,0,0,0,0,0,0,0,0,0,0],"id":6,"left_children":[1,3,5,7,9,11,13,15,-1,17,19,-1,21,-1,-1,-1,-1,23,25,27,29,-1,-1,31,33,35,-1,37,39,41,-1,-1,-1,-1,-1,-1,-1,-1,-1,-1,-1,-1,-1],"loss_changes":[3.6879852E0,2.9380574E0,5.2112036E0,1.3141384E0,2.6433206E0,1.2533941E0,1.669063E-1,1.0071278E-2,0E0,4.382708E0,4.1674747E0,0E0,5.137664E-2,0E0,0E0,0E0,0E0,2.9699605E0,1.0690513E0,3.48323E0,1.9280968E0,0E0,0E0,3.7010093E0,2.9665794E0,3.840305E-2,0E0,2.3735144E0,5.585662E0,1.5424609E0,0E0,0E0,0E0,0E0,0E0,0E0,0E0,0E0,0E0,0E0,0E0,0E0,0E0],"parents":[2147483647,0,0,1,1,2,2,3,3,4,4,5,5,6,6,7,7,9,9,10,10,12,12,17,17,18,18,19,19,20,20,23,23,24,24,25,25,27,27,28,28,29,29],"right_children":[2,4,6,8,10,12,14,16,-1,18,20,-1,22,-1,-1,-1,-1,24,26,28,30,-1,-1,32,34,36,-1,38,40,42,-1,-1,-1,-1,-1,-1,-1,-1,-1,-1,-1,-1,-1],"split_conditions":[1.18E1,-4.76E0,5.29E0,5.1E0,1.3044281E0,-1.71E0,1.189E1,3.38E0,1.4621973E-2,1.2722223E0,4.75164E1,-1.4864317E-1,1.24E0,5.065254E-2,1.6983785E-3,-1.1397966E-1,-3.101322E-2,8.79E0,1.63E0,2.22432E1,8.71E0,-4.9273048E-2,-9.446278E-3,1.2643535E-3,2.07325E3,-2.47E0,-1.0766257E-1,1E0,2.6136E1,1.409128E4,-5.6389093E-2,-1.624822E-2,3.529187E-2,-7.3506854E-2,3.1266775E-2,-2.558022E-3,-2.8126696E-2,2.2794472E-2,-4.3394115E-2,-8.8860795E-2,-7.604622E-4,1.3615161E-2,6.4938046E-2],"split_indices":[1,0,2,2,16,14,1,1,0,16,19,0,0,0,0,0,0,2,0,19,0,0,0,20,3,0,0,5,19,3,0,0,0,0,0,0,0,0,0,0,0,0,0],"split_type":[0,0,0,0,0,0,0,0,0,0,0,0,0,0,0,0,0,0,0,0,0,0,0,0,0,0,0,0,0,0,0,0,0,0,0,0,0,0,0,0,0,0,0],"sum_hessian":[3.2E2,3.11E2,9E0,4E0,3.07E2,6E0,3E0,3E0,1E0,1.65E2,1.42E2,3E0,3E0,2E0,1E0,2E0,1E0,1.58E2,7E0,1.12E2,3E1,2E0,1E0,1.24E2,3.4E1,3E0,4E0,6.8E1,4.4E1,2.9E1,1E0,1.09E2,1.5E1,2E0,3.2E1,1E0,2E0,6.3E1,5E0,8E0,3.6E1,9E0,2E1],"tree_param":{"num_deleted":"0","num_feature":"24","num_nodes":"43","size_leaf_vector":"1"}},{"base_weights":[-9.016393E-3,8.699099E-3,-5.608381E-1,-1.8900481E-1,5.0811563E-2,-1.0084174E0,3.6263508E-1,-1.17440484E-1,-1.095701E-1,8.064126E-2,-4.3780562E-1,-1.3749492E-1,-3.8978115E-1,4.7275703E-2,1.6134598E-3,4.1613075E-1,-2.7768362E-1,5.367038E-1,4.4122465E-2,4.286963E-1,-6.901558E-1,-4.5988176E-2,-8.9739645E-3,-2.3320158E-1,5.553913E-1,-5.0467837E-1,9.4350874E-2,6.8405384E-1,2.0743185E-1,-1.095475E-1,1.284976E-1,5.445389E-2,4.058423E-3,-8.884611E-1,2.009139E-2,-1.681157E-3,-3.329908E-2,6.18289E-2,-3.6792904E-3,-8.510958E-2,-5.846817E-3,4.141356E-2,-5.076463E-2,7.811887E-2,1.3225305E-2,-8.546292E-3,2.7049148E-2,1.01288585E-2,-7.1675956E-2,-1.11808255E-2,2.0744191E-2,5.11362E-3,-9.985427E-2],"categories":[],"categories_nodes":[],"categories_segments":[],"categories_sizes":[],"default_left":[0,0,0,0,0,0,0,0,0,0,0,0,0,0,0,0,0,0,0,0,0,0,0,0,0,0,0,0,0,0,0,0,0,0,0,0,0,0,0,0,0,0,0,0,0,0,0,0,0,0,0,0,0],"id":7,"left_children":[1,3,5,7,9,11,13,-1,15,17,19,-1,21,-1,-1,23,25,27,29,31,33,-1,-1,35,37,39,41,43,45,47,49,-1,-1,51,-1,-1,-1,-1,-1,-1,-1,-1,-1,-1,-1,-1,-1,-1,-1,-1,-1,-1,-1],"loss_changes":[3.1429083E0,2.607253E0,4.4989614E0,4.176444E0,3.7957332E0,1.0513201E0,1.4500147E-1,0E0,4.711179E0,4.0401044E0,3.575796E0,0E0,4.2862833E-2,0E0,0E0,1.3050613E0,3.4256115E0,7.314334E-1,2.9573412E0,1.5773994E-1,2.2989511E0,0E0,0E0,5.9182078E-2,4.324658E-1,3.8146124E0,3.290387E0,5.398741E-1,1.524058E-1,1.04424E1,2.8118987E0,0E0,0E0,1.0853853E0,0E0,0E0,0E0,0E0,0E0,0E0,0E0,0E0,0E0,0E0,0E0,0E0,0E0,0E0,0E0,0E0,0E0,0E0,0E0],"parents":[2147483647,0,0,1,1,2,2,3,3,4,4,5,5,6,6,8,8,9,9,10,10,12,12,15,15,16,16,17,17,18,18,19,19,20,20,23,23,24,24,25,25,26,26,27,27,28,28,29,29,30,30,33,33],"right_children":[2,4,6,8,10,12,14,-1,16,18,20,-1,22,-1,-1,24,26,28,30,32,34,-1,-1,36,38,40,42,44,46,48,50,-1,-1,52,-1,-1,-1,-1,-1,-1,-1,-1,-1,-1,-1,-1,-1,-1,-1,-1,-1,-1,-1],"split_conditions":[1.18E1,3.38E0,5.29E0,-4.66E0,3.751442E4,-1.71E0,1.189E1,-1.17440484E-1,-2.97E0,1.4254563E-4,-3.93E0,-1.3749492E-1,1.24E0,4.7275703E-2,1.6134598E-3,2.23E0,2.4973784E-4,-2.56E0,6.78E0,-4.69E0,8.02E0,-4.5988176E-2,-8.9739645E-3,-3.14E0,1E0,2.18E0,2.68E0,2.5724564E-4,-1.68E0,5.97E0,-6.35E0,5.445389E-2,4.058423E-3,8.2E-1,2.009139E-2,-1.681157E-3,-3.329908E-2,6.18289E-2,-3.6792904E-3,-8.510958E-2,-5.846817E-3,4.141356E-2,-5.076463E-2,7.811887E-2,1.3225305E-2,-8.546292E-3,2.7049148E-2,1.01288585E-2,-7.1675956E-2,-1.11808255E-2,2.0744191E-2,5.11362E-3,-9.985427E-2],"split_indices":[1,1,2,0,3,14,1,0,18,20,0,0,0,0,0,1,15,14,1,0,2,0,0,0,10,14,1,15,14,1,14,0,0,2,0,0,0,0,0,0,0,0,0,0,0,0,0,0,0,0,0,0,0],"split_type":[0,0,0,0,0,0,0,0,0,0,0,0,0,0,0,0,0,0,0,0,0,0,0,0,0,0,0,0,0,0,0,0,0,0,0,0,0,0,0,0,0,0,0,0,0,0,0,0,0,0,0,0,0],"sum_hessian":[3.2E2,3.11E2,9E0,5.4E1,2.57E2,6E0,3E0,3E0,5.1E1,2.43E2,1.4E1,3E0,3E0,2E0,1E0,1.2E1,3.9E1,1.7E1,2.26E2,3E0,1.1E1,2E0,1E0,2E0,1E1,2.4E1,1.5E1,1.1E1,6E0,8E1,1.46E2,2E0,1E0,9E0,2E0,1E0,1E0,9E0,1E0,1.3E1,1.1E1,1E1,5E0,9E0,2E0,1E0,5E0,6E1,2E1,3.6E1,1.1E2,1E0,8E0],"tree_param":{"num_deleted":"0","num_feature":"24","num_nodes":"53","size_leaf_vector":"1"}},{"base_weights":[-9.038182E-3,7.339278E-3,-5.191111E-1,-6.533863E-1,1.8041514E-2,-9.350695E-1,3.3859384E-1,-8.83655E-2,1.3384432E-2,4.6507355E-2,-1.983256E-1,-1.2718281E-1,-3.6454356E-1,4.412399E-2,1.5327868E-3,-3.8201877E-1,7.114591E-2,-6.7673516E-1,6.907647E-2,-4.29223E-2,-8.525266E-3,-7.597E-1,1.5814547E-1,-2.1660525E-1,1.0418511E-1,6.7659035E-2,-1.0150946E0,-6.393691E-1,3.407455E-1,-8.255299E-3,-1.284907E-1,-3.67406E-2,4.4184726E-2,2.612619E-2,-6.163164E-2,3.678077E-2,4.258733E-3,3.442172E-2,-2.3145212E-2,-1.2915061E-1,-3.1769616E-3,-9.237306E-2,5.3339984E-2,5.61682E-2,1.8347045E-2],"categories":[],"categories_nodes":[],"categories_segments":[],"categories_sizes":[],"default_left":[0,0,0,0,0,0,0,0,0,0,0,0,0,0,0,0,0,0,0,0,0,0,0,0,0,0,0,0,0,0,0,0,0,0,0,0,0,0,0,0,0,0,0,0,0],"id":8,"left_children":[1,3,5,7,9,11,13,-1,-1,15,17,-1,19,-1,-1,21,23,25,27,-1,-1,29,31,33,35,37,39,41,43,-1,-1,-1,-1,-1,-1,-1,-1,-1,-1,-1,-1,-1,-1,-1,-1],"loss_changes":[2.6853473E0,2.218015E0,3.8843043E0,1.0246453E0,1.9062176E0,8.8126993E-1,1.2596458E-1,0E0,0E0,2.9095848E0,4.652144E0,0E0,3.5665095E-2,0E0,0E0,3.1802914E0,2.4848983E0,3.343028E0,4.8369675E0,0E0,0E0,3.0947084E0,1.2060367E0,5.3182583E0,3.7679222E0,4.932779E-1,2.4051905E0,2.8271494E0,5.2240825E-1,0E0,0E0,0E0,0E0,0E0,0E0,0E0,0E0,0E0,0E0,0E0,0E0,0E0,0E0,0E0,0E0],"parents":[2147483647,0,0,1,1,2,2,3,3,4,4,5,5,6,6,9,9,10,10,12,12,15,15,16,16,17,17,18,18,21,21,22,22,23,23,24,24,25,25,26,26,27,27,28,28],"right_children":[2,4,6,8,10,12,14,-1,-1,16,18,-1,20,-1,-1,22,24,26,28,-1,-1,30,32,34,36,38,40,42,44,-1,-1,-1,-1,-1,-1,-1,-1,-1,-1,-1,-1,-1,-1,-1,-1],"split_conditions":[1.18E1,-4.76E0,5.29E0,5.1E0,1.72E0,-1.71E0,1.189E1,-8.83655E-2,1.3384432E-2,9.3399154E-5,2.87E0,-1.2718281E-1,1.24E0,4.412399E-2,1.5327868E-3,1.2322168E4,-3.537595E4,1.3950533E-4,1.38E0,-4.29223E-2,-8.525266E-3,5.66E0,1.84E0,-2.85E0,-2.982784E4,4.76E0,1E0,1E0,3.9E0,-8.255299E-3,-1.284907E-1,-3.67406E-2,4.4184726E-2,2.612619E-2,-6.163164E-2,3.678077E-2,4.258733E-3,3.442172E-2,-2.3145212E-2,-1.2915061E-1,-3.1769616E-3,-9.237306E-2,5.3339984E-2,5.61682E-2,1.8347045E-2],"split_indices":[1,0,2,2,18,14,1,0,0,20,18,0,0,0,0,21,22,20,14,0,0,2,2,14,22,0,8,9,14,0,0,0,0,0,0,0,0,0,0,0,0,0,0,0,0],"split_type":[0,0,0,0,0,0,0,0,0,0,0,0,0,0,0,0,0,0,0,0,0,0,0,0,0,0,0,0,0,0,0,0,0,0,0,0,0,0,0,0,0,0,0,0,0],"sum_hessian":[3.2E2,3.11E2,9E0,4E0,3.07E2,6E0,3E0,3E0,1E0,2.72E2,3.5E1,3E0,3E0,2E0,1E0,1.4E1,2.58E2,1.2E1,2.3E1,2E0,1E0,8E0,6E0,2.6E1,2.32E2,4E0,8E0,6E0,1.7E1,4E0,4E0,2E0,4E0,1.2E1,1.4E1,4.3E1,1.89E2,2E0,2E0,6E0,2E0,5E0,1E0,6E0,1.1E1],"tree_param":{"num_deleted":"0","num_feature":"24","num_nodes":"45","size_leaf_vector":"1"}},{"base_weights":[-9.434335E-3,5.694076E-3,-4.8049733E-1,-1.6457912E-1,4.1970555E-2,-8.670811E-1,3.1614867E-1,-2.7584058E-1,3.636815E-1,6.283562E-2,-4.8176655E-1,-1.17644094E-1,-3.4095109E-1,4.118239E-2,1.4561474E-3,-7.0865214E-1,-1.3593037E-1,4.631287E-2,-2.2738205E-2,4.467228E-1,3.0988466E-2,-8.3960843E-1,4.399697E-2,-4.006081E-2,-8.099003E-3,2.8651488E-1,-1.1176541E0,3.885234E-1,-2.7592003E-1,2.9175614E-3,-6.328292E-3,5.572418E-1,1.776557E-1,-2.7866682E-1,6.328098E-2,-1.07016616E-1,1.5658995E-2,2.6088694E-1,-4.1178145E-2,1.2362347E-2,3.875945E-2,-3.1847063E-2,-1.18632734E-1,4.546218E-2,-3.7082627E-3,-5.596633E-2,-7.142894E-3,6.286249E-2,1.0975635E-2,4.0564686E-3,3.4692217E-2,-1.1764789E-1,-1.3793092E-3,6.1597455E-2,2.368204E-3,3.308546E-2,2.5491924E-3],"categories":[],"categories_nodes":[],"categories_segments":[],"categories_sizes":[],"default_left":[0,0,0,0,0,0,0,0,0,0,0,0,0,0,0,0,0,0,0,0,0,0,0,0,0,0,0,0,0,0,0,0,0,0,0,0,0,0,0,0,0,0,0,0,0,0,0,0,0,0,0,0,0,0,0,0,0],"id":9,"left_children":[1,3,5,7,9,11,13,15,17,19,21,-1,23,-1,-1,25,27,-1,29,31,33,35,37,-1,-1,39,41,43,45,-1,-1,47,49,51,53,-1,-1,55,-1,-1,-1,-1,-1,-1,-1,-1,-1,-1,-1,-1,-1,-1,-1,-1,-1,-1,-1],"loss_changes":[2.2903216E0,1.9341041E0,3.3538303E0,3.3329456E0,2.8496466E0,7.3823595E-1,1.09420985E-1,2.6891913E0,3.9481425E-1,3.0303597E0,1.9183426E0,0E0,2.9588759E-2,0E0,0E0,4.7975025E0,2.750253E0,0E0,8.160811E-3,4.6600628E-1,2.3275297E0,1.5456643E0,6.016972E-1,0E0,0E0,1.7944247E-2,6.1250687E-2,2.4191356E-1,1.6426902E0,0E0,0E0,3.4626245E-1,1.4836158E-1,5.215523E0,4.581488E0,0E0,0E0,5.7446063E-2,0E0,0E0,0E0,0E0,0E0,0E0,0E0,0E0,0E0,0E0,0E0,0E0,0E0,0E0,0E0,0E0,0E0,0E0,0E0],"parents":[2147483647,0,0,1,1,2,2,3,3,4,4,5,5,6,6,7,7,8,8,9,9,10,10,12,12,15,15,16,16,18,18,19,19,20,20,21,21,22,22,25,25,26,26,27,27,28,28,31,31,32,32,33,33,34,34,37,37],"right_children":[2,4,6,8,10,12,14,16,18,20,22,-1,24,-1,-1,26,28,-1,30,32,34,36,38,-1,-1,40,42,44,46,-1,-1,48,50,52,54,-1,-1,56,-1,-1,-1,-1,-1,-1,-1,-1,-1,-1,-1,-1,-1,-1,-1,-1,-1,-1,-1],"split_conditions":[1.18E1,3.38E0,5.29E0,4.1351726E-4,3.814622E4,-1.71E0,1.189E1,-5.96E0,1E0,1.4254563E-4,3.951872E4,-1.17644094E-1,1.24E0,4.118239E-2,1.4561474E-3,8.2233826E-5,1.4E-1,4.631287E-2,1.99E0,-2.56E0,4.63E0,9.23E0,1E0,-4.006081E-2,-8.099003E-3,-3.8E0,2.04E0,3.94E0,1.74E0,2.9175614E-3,-6.328292E-3,2.5724564E-4,1E0,4.7535287E2,5.15E0,-1.07016616E-1,1.5658995E-2,1E0,-4.1178145E-2,1.2362347E-2,3.875945E-2,-3.1847063E-2,-1.18632734E-1,4.546218E-2,-3.7082627E-3,-5.596633E-2,-7.142894E-3,6.286249E-2,1.0975635E-2,4.0564686E-3,3.4692217E-2,-1.1764789E-1,-1.3793092E-3,6.1597455E-2,2.368204E-3,3.308546E-2,2.5491924E-3],"split_indices":[1,1,2,15,3,14,1,14,4,20,3,0,0,0,0,20,0,0,0,14,1,0,10,0,0,0,1,2,18,0,0,15,4,17,1,0,0,12,0,0,0,0,0,0,0,0,0,0,0,0,0,0,0,0,0,0,0],"split_type":[0,0,0,0,0,0,0,0,0,0,0,0,0,0,0,0,0,0,0,0,0,0,0,0,0,0,0,0,0,0,0,0,0,0,0,0,0,0,0,0,0,0,0,0,0,0,0,0,0,0,0,0,0,0,0,0,0],"sum_hessian":[3.2E2,3.11E2,9E0,5.4E1,2.57E2,6E0,3E0,4.5E1,9E0,2.48E2,9E0,3E0,3E0,2E0,1E0,1E1,3.5E1,7E0,2E0,1.8E1,2.3E2,5E0,4E0,2E0,1E0,3E0,7E0,7E0,2.8E1,1E0,1E0,1.2E1,6E0,2.1E1,2.09E2,4E0,1E0,3E0,1E0,2E0,1E0,1E0,6E0,6E0,1E0,1.1E1,1.7E1,1E1,2E0,4E0,2E0,4E0,1.7E1,1.3E1,1.96E2,2E0,1E0],"tree_param":{"num_deleted":"0","num_feature":"24","num_nodes":"57","size_leaf_vector":"1"}},{"base_weights":[-9.2396615E-3,4.7490704E-3,-4.4476414E-1,-4.197108E-2,1.3206056E-1,-8.0405927E-1,2.9519343E-1,-2.0641355E-2,-7.1547925E-1,1.8369175E-1,-5.697602E-1,-1.0882079E-1,-3.1889594E-1,3.84369E-2,1.38334E-3,-5.973468E-2,2.653596E-1,-3.336286E-2,-9.184601E-2,-5.378039E-1,2.2934224E-1,5.8552097E-3,-7.071331E-1,-3.739009E-2,-7.694052E-3,-2.9415585E-2,-7.723463E-1,3.3835176E-1,-8.162179E-2,-1.0091116E-2,-6.2179923E-2,2.9172713E-1,-9.062618E-2,-8.963145E-2,2.4796282E-3,-2.3215333E-2,4.8660617E-3,8.112519E-3,-9.0586014E-2,-7.2071016E-2,4.0954262E-2,4.164628E-2,8.547038E-3,1.5326983E-2,-9.547028E-2],"categories":[],"categories_nodes":[],"categories_segments":[],"categories_sizes":[],"default_left":[0,0,0,0,0,0,0,0,0,0,0,0,0,0,0,0,0,0,0,0,0,0,0,0,0,0,0,0,0,0,0,0,0,0,0,0,0,0,0,0,0,0,0,0,0],"id":10,"left_children":[1,3,5,7,9,11,13,15,17,19,21,-1,23,-1,-1,25,27,-1,-1,29,31,-1,33,-1,-1,35,37,39,-1,-1,-1,41,43,-1,-1,-1,-1,-1,-1,-1,-1,-1,-1,-1,-1],"loss_changes":[1.9577838E0,1.8613224E0,2.8959846E0,3.2749867E0,3.1484709E0,6.179843E-1,9.504458E-2,2.5091536E0,2.3613429E-1,2.7253344E0,5.5928254E-1,0E0,2.4466872E-2,0E0,0E0,4.2336116E0,2.4077282E0,0E0,0E0,1.2073827E-1,1.5235274E0,0E0,7.1456265E-1,0E0,0E0,3.0188055E0,9.8509026E-1,2.255446E0,0E0,0E0,0E0,1.5852418E0,2.8860102E0,0E0,0E0,0E0,0E0,0E0,0E0,0E0,0E0,0E0,0E0,0E0,0E0],"parents":[2147483647,0,0,1,1,2,2,3,3,4,4,5,5,6,6,7,7,8,8,9,9,10,10,12,12,15,15,16,16,19,19,20,20,22,22,25,25,26,26,27,27,31,31,32,32],"right_children":[2,4,6,8,10,12,14,16,18,20,22,-1,24,-1,-1,26,28,-1,-1,30,32,-1,34,-1,-1,36,38,40,-1,-1,-1,42,44,-1,-1,-1,-1,-1,-1,-1,-1,-1,-1,-1,-1],"split_conditions":[1.18E1,9.4E0,5.29E0,9.28E0,6.06E0,-1.71E0,1.189E1,8.79E0,1.065289E4,-1.088E1,7.69E0,-1.0882079E-1,1.24E0,3.84369E-2,1.38334E-3,8.45E0,-2.35E0,-3.336286E-2,-9.184601E-2,1.025E1,1E0,5.8552097E-3,1E0,-3.739009E-2,-7.694052E-3,-4.94E0,1.094041E4,1.50815E3,-8.162179E-2,-1.0091116E-2,-6.2179923E-2,1.082E1,4.2E0,-8.963145E-2,2.4796282E-3,-2.3215333E-2,4.8660617E-3,8.112519E-3,-9.0586014E-2,-7.2071016E-2,4.0954262E-2,4.164628E-2,8.547038E-3,1.5326983E-2,-9.547028E-2],"split_indices":[1,1,2,1,14,14,1,2,3,14,0,0,0,0,0,2,14,0,0,1,13,0,5,0,0,14,3,3,0,0,0,1,16,0,0,0,0,0,0,0,0,0,0,0,0],"split_type":[0,0,0,0,0,0,0,0,0,0,0,0,0,0,0,0,0,0,0,0,0,0,0,0,0,0,0,0,0,0,0,0,0,0,0,0,0,0,0,0,0,0,0,0,0],"sum_hessian":[3.2E2,3.11E2,9E0,2.28E2,8.3E1,6E0,3E0,2.22E2,6E0,7.8E1,5E0,3E0,3E0,2E0,1E0,1.96E2,2.6E1,3E0,3E0,4E0,7.4E1,1E0,4E0,2E0,1E0,1.89E2,7E0,2.5E1,1E0,1E0,3E0,6.2E1,1.2E1,3E0,1E0,5.2E1,1.37E2,1E0,6E0,1E0,2.4E1,3.8E1,2.4E1,1E1,2E0],"tree_param":{"num_deleted":"0","num_feature":"24","num_nodes":"45","size_leaf_vector":"1"}},{"base_weights":[-1.0298164E-2,-4.3785977E-1,2.0288413E-3,-5.942652E-1,7.303954E-3,1.6016099E-1,-3.456655E-2,-6.5392363E-1,-1.1815739E-2,-1.7536113E-1,3.6440012E-1,1.1919541E-3,-3.635925E-1,-2.435068E-2,-7.9825535E-2,-3.5083222E-1,5.265013E-2,4.2610022E-1,-2.5115076E-1,-3.2580996E-1,4.6068724E-2,-1.0682642E-1,-8.484019E-2,-4.918881E-1,3.0109927E-2,4.9811742E-1,7.715997E-2,-8.9199275E-2,2.5979418E-1,-7.759021E-2,-7.6484644E-1,-2.3442501E-1,1.0354644E-1,-7.006978E-1,3.3280155E-1,-6.2184196E-2,2.7852608E-2,-6.6063157E-3,5.2145977E-2,-2.9780535E-2,1.892884E-2,3.09252E-2,8.043925E-3,-3.880351E-2,1.8346382E-2,2.5275772E-2,-9.0599775E-2,-9.386667E-2,-8.576249E-3,4.4064652E-2,3.9621107E-3,-1.32827135E-2,-7.628469E-2,4.576962E-2,-5.2051973E-2],"categories":[],"categories_nodes":[],"categories_segments":[],"categories_sizes":[],"default_left":[0,0,0,0,0,0,0,0,0,0,0,0,0,0,0,0,0,0,0,0,0,0,0,0,0,0,0,0,0,0,0,0,0,0,0,0,0,0,0,0,0,0,0,0,0,0,0,0,0,0,0,0,0,0,0],"id":11,"left_children":[1,3,5,7,-1,9,11,13,-1,15,17,19,21,-1,-1,23,-1,25,27,29,31,-1,33,35,-1,37,39,-1,41,43,45,47,49,51,53,-1,-1,-1,-1,-1,-1,-1,-1,-1,-1,-1,-1,-1,-1,-1,-1,-1,-1,-1,-1],"loss_changes":[1.6927363E0,7.625716E-1,1.8168385E0,1.2156105E-1,0E0,4.1069794E0,3.00063E0,1.6103649E-1,0E0,3.0173147E0,1.512259E0,3.404886E0,4.820089E0,0E0,0E0,1.8953235E0,0E0,8.159747E-1,1.5414743E0,2.9920263E0,3.3131902E0,0E0,5.1201425E0,1.7750924E0,0E0,4.0319014E-1,3.5068104E-1,0E0,1.7355084E-3,1.6110053E0,1.665359E0,3.5837994E0,3.6459103E0,1.8101454E-1,1.5171429E0,0E0,0E0,0E0,0E0,0E0,0E0,0E0,0E0,0E0,0E0,0E0,0E0,0E0,0E0,0E0,0E0,0E0,0E0,0E0,0E0],"parents":[2147483647,0,0,1,1,2,2,3,3,5,5,6,6,7,7,9,9,10,10,11,11,12,12,15,15,17,17,18,18,19,19,20,20,22,22,23,23,25,25,26,26,28,28,29,29,30,30,31,31,32,32,33,33,34,34],"right_children":[2,4,6,8,-1,10,12,14,-1,16,18,20,22,-1,-1,24,-1,26,28,30,32,-1,34,36,-1,38,40,-1,42,44,46,48,50,52,54,-1,-1,-1,-1,-1,-1,-1,-1,-1,-1,-1,-1,-1,-1,-1,-1,-1,-1,-1,-1],"split_conditions":[-2.0565218E1,2.71E0,1.3079132E3,1.197E1,7.303954E-3,5.17E0,5.681765E-4,3.2174392E-4,-1.1815739E-2,1E0,1E0,-8.49E0,5.8597984E-4,-2.435068E-2,-7.9825535E-2,4.7535287E2,5.265013E-2,1E0,6.62E0,-9.26E0,3.31E0,-1.0682642E-1,5.42E0,3.157551E4,3.0109927E-2,-9.3E-1,2.07325E3,-8.9199275E-2,-2.3E-1,-3.76E0,1.570244E4,-5.96E0,8.50365E-1,-1.65E0,1.2722223E0,-6.2184196E-2,2.7852608E-2,-6.6063157E-3,5.2145977E-2,-2.9780535E-2,1.892884E-2,3.09252E-2,8.043925E-3,-3.880351E-2,1.8346382E-2,2.5275772E-2,-9.0599775E-2,-9.386667E-2,-8.576249E-3,4.4064652E-2,3.9621107E-3,-1.32827135E-2,-7.628469E-2,4.576962E-2,-5.2051973E-2],"split_indices":[16,0,17,1,0,1,15,20,0,11,6,14,15,0,0,17,0,13,1,14,1,0,2,3,0,2,3,0,0,0,3,14,16,0,16,0,0,0,0,0,0,0,0,0,0,0,0,0,0,0,0,0,0,0,0],"split_type":[0,0,0,0,0,0,0,0,0,0,0,0,0,0,0,0,0,0,0,0,0,0,0,0,0,0,0,0,0,0,0,0,0,0,0,0,0,0,0,0,0,0,0,0,0,0,0,0,0,0,0,0,0,0,0],"sum_hessian":[3.2E2,8E0,3.12E2,6E0,2E0,5.8E1,2.54E2,5E0,1E0,2.2E1,3.6E1,2.3E2,2.4E1,2E0,3E0,1.8E1,4E0,3.3E1,3E0,2.7E1,2.03E2,6E0,1.8E1,1.5E1,3E0,2.7E1,6E0,1E0,2E0,1.8E1,9E0,3.4E1,1.69E2,7E0,1.1E1,1.3E1,2E0,1E0,2.6E1,1E0,5E0,1E0,1E0,8E0,1E1,1E0,8E0,5E0,2.9E1,2.6E1,1.43E2,1E0,6E0,1E1,1E0],"tree_param":{"num_deleted":"0","num_feature":"24","num_nodes":"55","size_leaf_vector":"1"}},{"base_weights":[-1.0572633E-2,1.9783978E-3,-4.0110752E-1,-6.1295725E-2,7.527546E-2,-7.228426E-1,2.6220566E-1,-2.8707214E-2,-7.0947754E-1,7.9786545E-4,3.3824953E-1,-9.8861694E-2,-2.763576E-1,3.4216713E-2,1.1160672E-3,-1.6107616E-1,3.774306E-2,-2.2544207E-1,-9.548104E-2,4.590529E-2,-4.7290984E-1,5.322592E-1,1.10973634E-1,-3.1842705E-2,-7.5074555E-3,1.5693964E-1,-2.5567448E-1,2.2228037E-1,-1.4412525E-1,-6.89204E-3,-2.546425E-2,1.2221156E-1,-2.1672052E-1,-2.8131324E-1,-8.261976E-2,1.5139681E-2,5.729478E-1,-2.8929248E-1,4.5443535E-1,-5.575459E-2,4.270399E-2,-3.6170483E-2,3.2614943E-2,-6.748005E-2,2.882812E-2,-5.600038E-2,4.085066E-3,1.683273E-2,-4.8997562E-2,-1.0671093E-1,-4.4421684E-3,2.2011293E-2,-4.851408E-2,3.25659E-2,6.640264E-2,-5.518278E-2,3.32209E-2,6.1316468E-2,-4.076997E-2],"categories":[],"categories_nodes":[],"categories_segments":[],"categories_sizes":[],"default_left":[0,0,0,0,0,0,0,0,0,0,0,0,0,0,0,0,0,0,0,0,0,0,0,0,0,0,0,0,0,0,0,0,0,0,0,0,0,0,0,0,0,0,0,0,0,0,0,0,0,0,0,0,0,0,0,0,0,0,0],"id":12,"left_children":[1,3,5,7,9,11,13,15,17,19,21,-1,23,-1,-1,25,27,29,-1,31,33,35,37,-1,-1,39,41,43,45,-1,-1,47,49,51,-1,-1,53,55,57,-1,-1,-1,-1,-1,-1,-1,-1,-1,-1,-1,-1,-1,-1,-1,-1,-1,-1,-1,-1],"loss_changes":[1.5742121E0,1.45161E0,2.3236444E0,3.528344E0,2.839653E0,5.5743814E-1,7.647687E-2,1.4222279E0,7.347441E-1,2.4576309E0,1.3519328E0,0E0,9.965718E-3,0E0,0E0,1.6646485E0,3.656677E0,7.3193014E-4,0E0,2.130685E0,4.4446707E-1,1.7670155E-1,2.3310819E0,0E0,0E0,2.7468698E0,2.7089915E0,3.391769E0,4.253889E0,0E0,0E0,2.3974562E0,3.469101E0,9.244214E-1,0E0,0E0,1.2159443E-1,1.4886508E0,1.4816021E0,0E0,0E0,0E0,0E0,0E0,0E0,0E0,0E0,0E0,0E0,0E0,0E0,0E0,0E0,0E0,0E0,0E0,0E0,0E0,0E0],"parents":[2147483647,0,0,1,1,2,2,3,3,4,4,5,5,6,6,7,7,8,8,9,9,10,10,12,12,15,15,16,16,17,17,19,19,20,20,21,21,22,22,25,25,26,26,27,27,28,28,31,31,32,32,33,33,36,36,37,37,38,38],"right_children":[2,4,6,8,10,12,14,16,18,20,22,-1,24,-1,-1,26,28,30,-1,32,34,36,38,-1,-1,40,42,44,46,-1,-1,48,50,52,-1,-1,54,56,58,-1,-1,-1,-1,-1,-1,-1,-1,-1,-1,-1,-1,-1,-1,-1,-1,-1,-1,-1,-1],"split_conditions":[1.18E1,1.3044281E0,5.29E0,1.2722223E0,4.75164E1,-1.71E0,1.189E1,3.91E0,1.63E0,1E0,1.042E1,-9.8861694E-2,1.24E0,3.4216713E-2,1.1160672E-3,2.33E0,8.7078E-1,-2.47E0,-9.548104E-2,4.04E0,2.2006463E-4,-4.7E-1,1.105E1,-3.1842705E-2,-7.5074555E-3,2.1E0,1.2322168E4,2.96907E3,6.73E0,-6.89204E-3,-2.546425E-2,1E0,2.7846E1,3.2156863E0,-8.261976E-2,1.5139681E-2,5.0898E1,6.81E0,6.06E0,-5.575459E-2,4.270399E-2,-3.6170483E-2,3.2614943E-2,-6.748005E-2,2.882812E-2,-5.600038E-2,4.085066E-3,1.683273E-2,-4.8997562E-2,-1.0671093E-1,-4.4421684E-3,2.2011293E-2,-4.851408E-2,3.25659E-2,6.640264E-2,-5.518278E-2,3.32209E-2,6.1316468E-2,-4.076997E-2],"split_indices":[1,16,2,16,19,14,1,1,0,5,1,0,0,0,0,1,16,0,0,2,15,0,1,0,0,1,21,3,1,0,0,10,19,16,0,0,19,2,0,0,0,0,0,0,0,0,0,0,0,0,0,0,0,0,0,0,0,0,0],"split_type":[0,0,0,0,0,0,0,0,0,0,0,0,0,0,0,0,0,0,0,0,0,0,0,0,0,0,0,0,0,0,0,0,0,0,0,0,0,0,0,0,0,0,0,0,0,0,0,0,0,0,0,0,0,0,0,0,0,0,0],"sum_hessian":[3.2E2,3.11E2,9E0,1.67E2,1.44E2,6E0,3E0,1.6E2,7E0,1.13E2,3.1E1,3E0,3E0,2E0,1E0,5.3E1,1.07E2,3E0,4E0,1.04E2,9E0,1.6E1,1.5E1,2E0,1E0,1.2E1,4.1E1,5.3E1,5.4E1,1E0,2E0,8.1E1,2.3E1,7E0,2E0,2E0,1.4E1,7E0,8E0,3E0,9E0,3.5E1,6E0,3E0,5E1,1.6E1,3.8E1,7.6E1,5E0,3E0,2E1,2E0,5E0,5E0,9E0,5E0,2E0,7E0,1E0],"tree_param":{"num_deleted":"0","num_feature":"24","num_nodes":"59","size_leaf_vector":"1"}},{"base_weights":[-1.1003337E-2,-4.2241135E-1,-4.865611E-4,-1.0552444E-1,-7.1291715E-2,1.3471124E-1,-3.22959E-2,-2.2482557E-2,4.8951493E-3,-1.3235481E-1,3.0430242E-1,-1.7439776E-4,-3.2780674E-1,-3.0269834E-1,4.291255E-1,3.581906E-1,-2.2982258E-1,-2.971149E-1,4.0583E-2,-9.665676E-2,-7.522084E-2,-2.715489E-2,-6.058405E-1,5.003179E-2,3.6581883E-3,4.2339954E-1,4.6184685E-2,-8.1939295E-2,2.3983185E-1,-7.6266356E-2,-6.8701565E-1,-2.0450445E-1,9.080345E-2,-6.147389E-1,2.9072627E-1,-3.9554033E-2,2.3985684E-2,1.1715306E-2,-8.291463E-2,4.4621643E-2,-9.6328175E-3,2.8696284E-2,-1.0751913E-2,2.9174685E-2,6.8000923E-3,2.7447248E-2,-3.0373672E-2,2.2570578E-2,-8.1350766E-2,-8.249006E-2,-7.3608398E-3,3.1080717E-2,4.2101118E-4,-2.867856E-2,-7.541537E-2,4.020473E-2,-4.6690237E-2],"categories":[],"categories_nodes":[],"categories_segments":[],"categories_sizes":[],"default_left":[0,0,0,0,0,0,0,0,0,0,0,0,0,0,0,0,0,0,0,0,0,0,0,0,0,0,0,0,0,0,0,0,0,0,0,0,0,0,0,0,0,0,0,0,0,0,0,0,0,0,0,0,0,0,0,0,0],"id":13,"left_children":[1,3,5,7,-1,9,11,-1,-1,13,15,17,19,21,23,25,27,29,31,-1,33,35,37,-1,-1,39,41,-1,43,45,47,49,51,53,55,-1,-1,-1,-1,-1,-1,-1,-1,-1,-1,-1,-1,-1,-1,-1,-1,-1,-1,-1,-1,-1,-1],"loss_changes":[1.3886606E0,6.612295E-1,1.3547242E0,1.0315131E-1,0E0,2.7577987E0,2.4204671E0,0E0,0E0,2.4253643E0,1.1472919E0,2.8077404E0,3.9608433E0,1.5705962E0,1.4937413E-1,6.7219543E-1,1.3040938E0,2.3586564E0,2.5294843E0,0E0,3.929987E0,1.1768687E0,1.5501747E0,0E0,0E0,3.750229E-1,2.8991365E-1,0E0,6.9227666E-3,1.5992384E0,1.3381324E0,2.7815394E0,3.2373369E0,1.4949203E-1,1.1997966E0,0E0,0E0,0E0,0E0,0E0,0E0,0E0,0E0,0E0,0E0,0E0,0E0,0E0,0E0,0E0,0E0,0E0,0E0,0E0,0E0,0E0,0E0],"parents":[2147483647,0,0,1,1,2,2,3,3,5,5,6,6,9,9,10,10,11,11,12,12,13,13,14,14,15,15,16,16,17,17,18,18,20,20,21,21,22,22,25,25,26,26,28,28,29,29,30,30,31,31,32,32,33,33,34,34],"right_children":[2,4,6,8,-1,10,12,-1,-1,14,16,18,20,22,24,26,28,30,32,-1,34,36,38,-1,-1,40,42,-1,44,46,48,50,52,54,56,-1,-1,-1,-1,-1,-1,-1,-1,-1,-1,-1,-1,-1,-1,-1,-1,-1,-1,-1,-1,-1,-1],"split_conditions":[-2.2584906E1,3.298156E-4,1.3079132E3,2.71E0,-7.1291715E-2,5.23E0,5.681765E-4,-2.2482557E-2,4.8951493E-3,1E0,1E0,-8.49E0,5.8597984E-4,3.22E0,4.83E0,1E0,6.62E0,-9.26E0,3.31E0,-9.665676E-2,5.42E0,-1.4388167E-5,-3.6E0,5.003179E-2,3.6581883E-3,1.18E1,6.337195E-4,-8.1939295E-2,-2.3E-1,7.61E0,1.570244E4,-5.96E0,5.56E0,-3.67E0,1.2722223E0,-3.9554033E-2,2.3985684E-2,1.1715306E-2,-8.291463E-2,4.4621643E-2,-9.6328175E-3,2.8696284E-2,-1.0751913E-2,2.9174685E-2,6.8000923E-3,2.7447248E-2,-3.0373672E-2,2.2570578E-2,-8.1350766E-2,-8.249006E-2,-7.3608398E-3,3.1080717E-2,4.2101118E-4,-2.867856E-2,-7.541537E-2,4.020473E-2,-4.6690237E-2],"split_indices":[16,20,17,0,0,1,15,0,0,11,6,14,15,1,1,13,1,14,1,0,2,15,18,0,0,1,20,0,0,2,3,14,1,14,16,0,0,0,0,0,0,0,0,0,0,0,0,0,0,0,0,0,0,0,0,0,0],"split_type":[0,0,0,0,0,0,0,0,0,0,0,0,0,0,0,0,0,0,0,0,0,0,0,0,0,0,0,0,0,0,0,0,0,0,0,0,0,0,0,0,0,0,0,0,0,0,0,0,0,0,0,0,0,0,0,0,0],"sum_hessian":[3.2E2,7E0,3.13E2,4E0,3E0,5.9E1,2.54E2,2E0,2E0,2.3E1,3.6E1,2.3E2,2.4E1,1.8E1,5E0,3.3E1,3E0,2.7E1,2.03E2,6E0,1.8E1,1E1,8E0,4E0,1E0,2.7E1,6E0,1E0,2E0,1.8E1,9E0,3.4E1,1.69E2,7E0,1.1E1,4E0,6E0,2E0,6E0,2.6E1,1E0,2E0,4E0,1E0,1E0,7E0,1.1E1,1E0,8E0,5E0,2.9E1,4.7E1,1.22E2,3E0,4E0,1E1,1E0],"tree_param":{"num_deleted":"0","num_feature":"24","num_nodes":"57","size_leaf_vector":"1"}},{"base_weights":[-1.1280823E-2,-5.8344925E-5,-3.6029404E-1,2.1518828E-2,-1.6608107E-1,-6.4873815E-1,2.3455662E-1,-3.1428877E-1,4.1944027E-2,-1.2490946E-1,-6.563632E-2,-8.968582E-2,-2.3843348E-1,3.0581405E-2,1.0392129E-3,-5.9159905E-1,1.2676719E-1,-1.9690439E-1,6.909218E-2,-4.250784E-1,1.0184281E-1,-3.138239E-2,-1.0869539E-2,-9.5470436E-2,-3.7552916E-2,-3.3702964E-1,3.7969184E-1,2.1285868E-1,-5.3890544E-1,2.9162166E-1,1.8002082E-2,1.6059281E-1,-9.399032E-1,2.3707399E-1,-6.335815E-1,1.7158559E-2,-2.3417378E-2,-7.0035956E-3,-4.355085E-2,1.1332333E-2,5.194964E-2,4.171401E-2,-9.499301E-3,-6.622097E-2,1.750483E-2,-3.1779815E-2,3.962089E-2,-2.8032089E-2,5.6055007E-3,-3.047472E-2,4.694496E-2,-1.1567282E-1,-3.375022E-2,3.2147177E-2,-9.7293155E-3,-8.615528E-2,2.5166066E-3],"categories":[],"categories_nodes":[],"categories_segments":[],"categories_sizes":[],"default_left":[0,0,0,0,0,0,0,0,0,0,0,0,0,0,0,0,0,0,0,0,0,0,0,0,0,0,0,0,0,0,0,0,0,0,0,0,0,0,0,0,0,0,0,0,0,0,0,0,0,0,0,0,0,0,0,0,0],"id":14,"left_children":[1,3,5,7,9,11,13,15,17,-1,19,-1,21,-1,-1,23,25,27,29,31,33,-1,-1,-1,35,37,39,41,43,45,47,49,51,53,55,-1,-1,-1,-1,-1,-1,-1,-1,-1,-1,-1,-1,-1,-1,-1,-1,-1,-1,-1,-1,-1,-1],"loss_changes":[1.2572696E0,1.1212518E0,1.8679773E0,1.9131082E0,3.8342032E0,4.9879313E-1,6.071551E-2,2.031945E0,1.7124891E0,0E0,2.0900588E0,0E0,5.01281E-3,0E0,0E0,1.9759185E0,9.4910693E-1,3.898474E0,2.6778464E0,3.4676409E0,2.5370607E0,0E0,0E0,0E0,2.457858E-1,4.8378438E-2,1.2732655E-1,8.5717434E-1,1.4364223E0,2.9303675E0,2.2066612E0,1.005404E0,3.932953E-1,6.238935E-1,6.2238395E-1,0E0,0E0,0E0,0E0,0E0,0E0,0E0,0E0,0E0,0E0,0E0,0E0,0E0,0E0,0E0,0E0,0E0,0E0,0E0,0E0,0E0,0E0],"parents":[2147483647,0,0,1,1,2,2,3,3,4,4,5,5,6,6,7,7,8,8,10,10,12,12,15,15,16,16,17,17,18,18,19,19,20,20,24,24,25,25,26,26,27,27,28,28,29,29,30,30,31,31,32,32,33,33,34,34],"right_children":[2,4,6,8,10,12,14,16,18,-1,20,-1,22,-1,-1,24,26,28,30,32,34,-1,-1,-1,36,38,40,42,44,46,48,50,52,54,56,-1,-1,-1,-1,-1,-1,-1,-1,-1,-1,-1,-1,-1,-1,-1,-1,-1,-1,-1,-1,-1,-1],"split_conditions":[1.18E1,1.72E0,5.29E0,9.3399154E-5,1.79E0,-1.71E0,1.189E1,1.2322168E4,-3.537595E4,-1.2490946E-1,1.38E0,-8.968582E-2,-4.9E-1,3.0581405E-2,1.0392129E-3,-6.17E0,1.84E0,-2.85E0,-2.982784E4,6.48E0,1E0,-3.138239E-2,-1.0869539E-2,-9.5470436E-2,-2E-2,-3.14E0,-3.8E0,4.99499E1,-6.2E-1,-8.92E0,1.8816597E-4,4.97E0,7.4E0,9.42E0,4.09E0,1.7158559E-2,-2.3417378E-2,-7.0035956E-3,-4.355085E-2,1.1332333E-2,5.194964E-2,4.171401E-2,-9.499301E-3,-6.622097E-2,1.750483E-2,-3.1779815E-2,3.962089E-2,-2.8032089E-2,5.6055007E-3,-3.047472E-2,4.694496E-2,-1.1567282E-1,-3.375022E-2,3.2147177E-2,-9.7293155E-3,-8.615528E-2,2.5166066E-3],"split_indices":[1,18,2,20,18,14,1,21,22,0,14,0,0,0,0,14,2,14,22,0,9,0,0,0,0,0,0,19,18,14,20,2,0,0,2,0,0,0,0,0,0,0,0,0,0,0,0,0,0,0,0,0,0,0,0,0,0],"split_type":[0,0,0,0,0,0,0,0,0,0,0,0,0,0,0,0,0,0,0,0,0,0,0,0,0,0,0,0,0,0,0,0,0,0,0,0,0,0,0,0,0,0,0,0,0,0,0,0,0,0,0,0,0,0,0,0,0],"sum_hessian":[3.2E2,3.11E2,9E0,2.76E2,3.5E1,6E0,3E0,1.5E1,2.61E2,2E0,3.3E1,3E0,3E0,2E0,1E0,9E0,6E0,2.6E1,2.35E2,1E1,2.3E1,1E0,2E0,5E0,4E0,2E0,4E0,1.2E1,1.4E1,4.3E1,1.92E2,5E0,5E0,2E1,3E0,2E0,2E0,1E0,1E0,2E0,2E0,7E0,5E0,1.2E1,2E0,6E0,3.7E1,2.1E1,1.71E2,2E0,3E0,3E0,2E0,1.6E1,4E0,2E0,1E0],"tree_param":{"num_deleted":"0","num_feature":"24","num_nodes":"57","size_leaf_vector":"1"}},{"base_weights":[-1.1833388E-2,-1.4601102E-3,-3.3429635E-1,3.6780007E-2,-8.659831E-2,-6.027126E-1,2.1900612E-1,-1.3831709E-2,2.902228E-1,-1.6356E-1,4.2327416E-1,-8.295939E-2,-2.251531E-1,2.8542647E-2,9.872526E-4,1.826203E-2,-3.4593976E-1,5.8627063E-1,1.17770925E-1,-6.0205525E-1,-6.0995944E-2,4.9978885E-1,-2.4745105E-2,-2.9813265E-2,-1.0144903E-2,-7.006385E-2,1.7963377E-1,-5.7804924E-1,4.9490098E-2,6.565667E-2,-1.2864116E-2,-7.208923E-2,2.2678088E-1,-9.810609E-2,-1.093741E0,3.48982E-1,-1.3514197E-1,6.913512E-2,2.6419413E-1,-1.26564745E-2,2.1947196E-2,2.1610392E-2,-5.7317704E-2,2.920023E-3,-9.612302E-2,-5.0732824E-3,4.2280827E-2,-4.461764E-2,2.6958546E-2,-1.3687061E-1,4.1550707E-2,5.4552764E-2,1.587377E-2,2.296844E-2,-2.1270093E-2,2.8778485E-3,3.526047E-2],"categories":[],"categories_nodes":[],"categories_segments":[],"categories_sizes":[],"default_left":[0,0,0,0,0,0,0,0,0,0,0,0,0,0,0,0,0,0,0,0,0,0,0,0,0,0,0,0,0,0,0,0,0,0,0,0,0,0,0,0,0,0,0,0,0,0,0,0,0,0,0,0,0,0,0,0,0],"id":15,"left_children":[1,3,5,7,9,11,13,15,17,19,21,-1,23,-1,-1,25,27,29,31,33,35,37,-1,-1,-1,39,41,43,-1,-1,-1,-1,45,47,49,51,53,-1,55,-1,-1,-1,-1,-1,-1,-1,-1,-1,-1,-1,-1,-1,-1,-1,-1,-1,-1],"loss_changes":[1.0732564E0,1.0189617E0,1.6171511E0,2.774684E0,3.8755736E0,4.1284275E-1,5.274503E-2,1.9355221E0,1.7688985E0,3.7860541E0,7.908375E-1,0E0,5.8661997E-3,0E0,0E0,2.378634E0,3.4087505E0,7.3778296E-1,2.357628E0,3.8572521E0,2.1750386E0,3.58922E-1,0E0,0E0,0E0,1.7945527E0,1.7437181E0,3.0529919E0,0E0,0E0,0E0,0E0,1.2182566E0,1.2721252E0,3.8886309E0,3.2471275E-1,1.7465874E0,0E0,1.355452E-1,0E0,0E0,0E0,0E0,0E0,0E0,0E0,0E0,0E0,0E0,0E0,0E0,0E0,0E0,0E0,0E0,0E0,0E0],"parents":[2147483647,0,0,1,1,2,2,3,3,4,4,5,5,6,6,7,7,8,8,9,9,10,10,12,12,15,15,16,16,17,17,18,18,19,19,20,20,21,21,25,25,26,26,27,27,32,32,33,33,34,34,35,35,36,36,38,38],"right_children":[2,4,6,8,10,12,14,16,18,20,22,-1,24,-1,-1,26,28,30,32,34,36,38,-1,-1,-1,40,42,44,-1,-1,-1,-1,46,48,50,52,54,-1,56,-1,-1,-1,-1,-1,-1,-1,-1,-1,-1,-1,-1,-1,-1,-1,-1,-1,-1],"split_conditions":[1.18E1,2.4E-1,5.29E0,-1.77E0,1E0,-1.71E0,1.189E1,-2.35E0,-1.07E0,1.1E0,9.8E0,-8.295939E-2,-4.9E-1,2.8542647E-2,9.872526E-4,-4.62E0,9.48E0,1E0,-9.2E-1,1.23444E1,5.02173E3,2.401907E4,-2.4745105E-2,-2.9813265E-2,-1.0144903E-2,1.5E0,1.21587305E1,2.9475897E-4,4.9490098E-2,6.565667E-2,-1.2864116E-2,-7.208923E-2,6.36E0,2.98E0,4.47888E1,8.16E0,1.3321707E-4,6.913512E-2,2.833384E4,-1.26564745E-2,2.1947196E-2,2.1610392E-2,-5.7317704E-2,2.920023E-3,-9.612302E-2,-5.0732824E-3,4.2280827E-2,-4.461764E-2,2.6958546E-2,-1.3687061E-1,4.1550707E-2,5.4552764E-2,1.587377E-2,2.296844E-2,-2.1270093E-2,2.8778485E-3,3.526047E-2],"split_indices":[1,14,2,14,12,14,1,14,14,14,0,0,0,0,0,14,1,8,14,19,3,3,0,0,0,0,16,20,0,0,0,0,1,1,19,1,20,0,3,0,0,0,0,0,0,0,0,0,0,0,0,0,0,0,0,0,0],"split_type":[0,0,0,0,0,0,0,0,0,0,0,0,0,0,0,0,0,0,0,0,0,0,0,0,0,0,0,0,0,0,0,0,0,0,0,0,0,0,0,0,0,0,0,0,0,0,0,0,0,0,0,0,0,0,0,0,0],"sum_hessian":[3.2E2,3.11E2,9E0,2.15E2,9.6E1,6E0,3E0,1.8E2,3.5E1,8.4E1,1.2E1,3E0,3E0,2E0,1E0,1.65E2,1.5E1,1.2E1,2.3E1,1.5E1,6.9E1,1.1E1,1E0,1E0,2E0,1.07E2,5.8E1,1.2E1,3E0,1.1E1,1E0,2E0,2.1E1,8E0,7E0,1E1,5.9E1,5E0,6E0,9E1,1.7E1,5.6E1,2E0,5E0,7E0,9E0,1.2E1,4E0,4E0,6E0,1E0,4E0,6E0,1E1,4.9E1,2E0,4E0],"tree_param":{"num_deleted":"0","num_feature":"24","num_nodes":"57","size_leaf_vector":"1"}},{"base_weights":[-1.0973824E-2,-1.3478942E-3,-3.1020546E-1,-5.656322E-2,5.4230016E-2,-5.6000096E-1,2.0448798E-1,2.412984E-2,-5.047427E-1,9.028786E-2,-2.4590687E-1,-7.6737426E-2,-2.1262734E-1,2.6639804E-2,9.3789026E-4,-2.1532362E-2,4.901566E-1,-3.4136012E-1,-1.2363155E-1,1.7027022E-2,3.014573E-1,3.0191606E-1,-3.8486296E-1,-2.8322602E-2,-9.468577E-3,1.33068245E-2,-1.06132485E-1,5.1942986E-2,8.407532E-3,-1.0369576E0,-5.9176028E-2,-9.597022E-2,4.5310136E-2,-7.287163E-2,4.482327E-1,6.4291223E-3,3.5969395E-2,-4.833896E-1,1.3753131E-2,-6.489663E-2,7.285118E-3,-2.9788626E-2,-1.12519465E-1,3.4463827E-2,-4.1154694E-2,2.772083E-2,-4.4961288E-3,5.6000948E-2,-2.7573517E-2,2.782759E-2,6.9233604E-2,-2.4896903E-2,-7.6178454E-2],"categories":[],"categories_nodes":[],"categories_segments":[],"categories_sizes":[],"default_left":[0,0,0,0,0,0,0,0,0,0,0,0,0,0,0,0,0,0,0,0,0,0,0,0,0,0,0,0,0,0,0,0,0,0,0,0,0,0,0,0,0,0,0,0,0,0,0,0,0,0,0,0,0],"id":16,"left_children":[1,3,5,7,9,11,13,15,17,19,21,-1,23,-1,-1,25,27,29,-1,31,33,35,37,-1,-1,39,-1,-1,-1,41,43,-1,45,47,49,-1,-1,51,-1,-1,-1,-1,-1,-1,-1,-1,-1,-1,-1,-1,-1,-1,-1],"loss_changes":[9.2418486E-1,9.6051824E-1,1.4001944E0,5.69008E0,1.710479E0,3.4108734E-1,4.581833E-2,2.8620484E0,2.4466004E0,2.16073E0,1.4102929E0,0E0,6.4885914E-3,0E0,0E0,4.469863E0,9.897685E-2,4.0606546E0,0E0,2.9441035E0,2.0105858E0,3.179267E-2,7.8705764E-1,0E0,0E0,4.779433E0,0E0,0E0,0E0,5.6101322E-2,2.4185133E0,0E0,2.1686423E0,1.5666878E0,8.8600206E-1,0E0,0E0,5.934775E-1,0E0,0E0,0E0,0E0,0E0,0E0,0E0,0E0,0E0,0E0,0E0,0E0,0E0,0E0,0E0],"parents":[2147483647,0,0,1,1,2,2,3,3,4,4,5,5,6,6,7,7,8,8,9,9,10,10,12,12,15,15,16,16,17,17,19,19,20,20,21,21,22,22,25,25,29,29,30,30,32,32,33,33,34,34,37,37],"right_children":[2,4,6,8,10,12,14,16,18,20,22,-1,24,-1,-1,26,28,30,-1,32,34,36,38,-1,-1,40,-1,-1,-1,42,44,-1,46,48,50,-1,-1,52,-1,-1,-1,-1,-1,-1,-1,-1,-1,-1,-1,-1,-1,-1,-1],"split_conditions":[1.18E1,6.78E0,5.29E0,5.97E0,3.589107E4,-1.71E0,1.189E1,5.6E0,1E0,2.8575122E3,-3.36E0,-7.6737426E-2,-4.9E-1,2.6639804E-2,9.3789026E-4,4.91344E1,1E0,1.236833E4,-1.2363155E-1,3.521645E-4,-6.35E0,1.099E1,-6.2E-1,-2.8322602E-2,-9.468577E-3,-7.31E0,-1.06132485E-1,5.1942986E-2,8.407532E-3,6.77894E3,-2.44E0,-9.597022E-2,1.3079132E3,2.502056E4,1.3875565E-4,6.4291223E-3,3.5969395E-2,-2.93E0,1.3753131E-2,-6.489663E-2,7.285118E-3,-2.9788626E-2,-1.12519465E-1,3.4463827E-2,-4.1154694E-2,2.772083E-2,-4.4961288E-3,5.6000948E-2,-2.7573517E-2,2.782759E-2,6.9233604E-2,-2.4896903E-2,-7.6178454E-2],"split_indices":[1,1,2,1,3,14,1,1,4,21,0,0,0,0,0,19,9,3,0,20,14,1,18,0,0,18,0,0,0,3,14,0,17,3,15,0,0,18,0,0,0,0,0,0,0,0,0,0,0,0,0,0,0],"split_type":[0,0,0,0,0,0,0,0,0,0,0,0,0,0,0,0,0,0,0,0,0,0,0,0,0,0,0,0,0,0,0,0,0,0,0,0,0,0,0,0,0,0,0,0,0,0,0,0,0,0,0,0,0],"sum_hessian":[3.2E2,3.11E2,9E0,1.56E2,1.55E2,6E0,3E0,1.33E2,2.3E1,1.39E2,1.6E1,3E0,3E0,2E0,1E0,1.22E2,1.1E1,2E1,3E0,1.04E2,3.5E1,3E0,1.3E1,1E0,2E0,1.19E2,3E0,1E1,1E0,5E0,1.5E1,2E0,1.02E2,1E1,2.5E1,1E0,2E0,1.1E1,2E0,9E0,1.1E2,1E0,4E0,7E0,8E0,2.8E1,7.4E1,2E0,8E0,1.6E1,9E0,7E0,4E0],"tree_param":{"num_deleted":"0","num_feature":"24","num_nodes":"53","size_leaf_vector":"1"}},{"base_weights":[-1.1294371E-2,-2.6554616E-2,1.6287205E-1,-9.4530284E-2,4.023857E-2,-5.390953E-2,2.1251455E-1,-6.30709E-2,-6.3325316E-1,-1.20230885E-2,3.4485292E-1,2.6546225E-1,-5.2911527E-2,-1.01646215E-1,2.2201201E-1,-2.114896E-2,-8.440134E-2,6.131754E-3,-7.765704E-2,4.0972438E-1,-2.0257452E-1,3.36861E-1,-1.7574686E-1,-1.416872E-1,1.1365124E-1,3.794119E-1,-2.316301E-1,5.5607557E-2,-2.6134416E-1,-4.546041E-2,5.263619E-1,-4.377837E-2,1.3392194E-2,3.9469132E-1,-7.590525E-3,-3.712844E-2,2.0543287E-2,-5.893285E-2,-9.8692775E-3,4.7611114E-2,-6.7206786E-4,1.727905E-2,5.3183164E-2,-3.0849537E-2,3.7915476E-3,9.730672E-3,-3.2094937E-2,-4.1849624E-2,2.9381132E-2,9.601971E-3,-3.0569045E-2,2.4712209E-2,5.7179242E-2,4.2898763E-2,8.02139E-3,-8.6120935E-3,4.729326E-3],"categories":[],"categories_nodes":[],"categories_segments":[],"categories_sizes":[],"default_left":[0,0,0,0,0,0,0,0,0,0,0,0,0,0,0,0,0,0,0,0,0,0,0,0,0,0,0,0,0,0,0,0,0,0,0,0,0,0,0,0,0,0,0,0,0,0,0,0,0,0,0,0,0,0,0,0,0],"id":17,"left_children":[1,3,5,7,9,-1,11,13,15,17,19,21,-1,23,25,-1,-1,27,-1,29,31,33,35,37,39,41,43,45,47,49,51,-1,-1,53,55,-1,-1,-1,-1,-1,-1,-1,-1,-1,-1,-1,-1,-1,-1,-1,-1,-1,-1,-1,-1,-1,-1],"loss_changes":[8.574858E-1,1.347736E0,1.0205984E0,2.4513998E0,2.3920941E0,0E0,1.1221502E0,1.5621693E0,5.326278E-1,1.7953122E0,8.642731E-1,8.1524503E-1,0E0,1.0850724E0,1.3017378E0,0E0,0E0,1.6951983E0,0E0,1.0857606E0,2.9607E-1,4.2131042E-1,3.7441382E-1,1.9626756E0,8.757995E-1,3.1751597E-1,1.15290225E-1,1.7270582E0,1.867836E0,2.1343918E-1,6.167364E-2,0E0,0E0,1.5972686E-1,2.1313122E-2,0E0,0E0,0E0,0E0,0E0,0E0,0E0,0E0,0E0,0E0,0E0,0E0,0E0,0E0,0E0,0E0,0E0,0E0,0E0,0E0,0E0,0E0],"parents":[2147483647,0,0,1,1,2,2,3,3,4,4,6,6,7,7,8,8,9,9,10,10,11,11,13,13,14,14,17,17,19,19,20,20,21,21,22,22,23,23,24,24,25,25,26,26,27,27,28,28,29,29,30,30,33,33,34,34],"right_children":[2,4,6,8,10,-1,12,14,16,18,20,22,-1,24,26,-1,-1,28,-1,30,32,34,36,38,40,42,44,46,48,50,52,-1,-1,54,56,-1,-1,-1,-1,-1,-1,-1,-1,-1,-1,-1,-1,-1,-1,-1,-1,-1,-1,-1,-1,-1,-1],"split_conditions":[9.18E0,1.3044281E0,1.50815E3,1.2722223E0,5.98E0,-5.390953E-2,1.88E0,1E0,1.63E0,6.07916E1,1E0,1.079E1,-5.2911527E-2,8.78676E-4,3.1E0,-2.114896E-2,-8.440134E-2,1E0,-7.765704E-2,2.0900626E-4,-2.4E-1,1E0,1.148E1,1.065289E4,-6.77092E3,4.18E0,8.02E0,1E0,2.330458E4,4.82E0,3.763295E-4,-4.377837E-2,1.3392194E-2,1E0,-2.76E0,-3.712844E-2,2.0543287E-2,-5.893285E-2,-9.8692775E-3,4.7611114E-2,-6.7206786E-4,1.727905E-2,5.3183164E-2,-3.0849537E-2,3.7915476E-3,9.730672E-3,-3.2094937E-2,-4.1849624E-2,2.9381132E-2,9.601971E-3,-3.0569045E-2,2.4712209E-2,5.7179242E-2,4.2898763E-2,8.02139E-3,-8.6120935E-3,4.729326E-3],"split_indices":[2,16,3,16,2,0,18,8,0,19,12,1,0,20,0,0,0,13,0,15,0,10,1,3,22,1,2,5,3,0,20,0,0,9,0,0,0,0,0,0,0,0,0,0,0,0,0,0,0,0,0,0,0,0,0,0,0],"split_type":[0,0,0,0,0,0,0,0,0,0,0,0,0,0,0,0,0,0,0,0,0,0,0,0,0,0,0,0,0,0,0,0,0,0,0,0,0,0,0,0,0,0,0,0,0,0,0,0,0,0,0,0,0,0,0,0,0],"sum_hessian":[3.2E2,2.95E2,2.5E1,1.46E2,1.49E2,1E0,2.4E1,1.39E2,7E0,1.28E2,2.1E1,2.3E1,1E0,1.23E2,1.6E1,3E0,4E0,1.26E2,2E0,1.9E1,2E0,2E1,3E0,1.04E2,1.9E1,1.2E1,4E0,1.07E2,1.9E1,4E0,1.5E1,1E0,1E0,1.7E1,3E0,2E0,1E0,8E0,9.6E1,4E0,1.5E1,6E0,6E0,3E0,1E0,9.7E1,1E1,1.5E1,4E0,3E0,1E0,3E0,1.2E1,1.5E1,2E0,1E0,2E0],"tree_param":{"num_deleted":"0","num_feature":"24","num_nodes":"57","size_leaf_vector":"1"}},{"base_weights":[-1.0919857E-2,-2.0094647E-3,-2.878321E-1,-3.215373E-2,9.040685E-2,-5.078187E-1,1.6910248E-1,1.9199916E-3,-2.575419E-1,1.3647725E-1,-4.7750577E-1,-6.9037236E-2,-1.983104E-1,2.2273066E-2,4.1089728E-4,-4.7833726E-2,1.916337E-1,-1.239656E-1,-5.2565557E-1,-3.9099467E-1,1.8167657E-1,-1.4449301E-1,-7.623542E-2,-2.6413007E-2,-8.832718E-3,2.270871E-2,-3.5121608E-1,2.7434772E-1,-1.0875735E-1,-2.7498752E-1,2.3893675E-1,-6.6883254E-1,3.1368267E-2,-1.1290702E-2,-5.0181174E-1,2.4749903E-1,-1.7591952E-1,4.8362827E-3,-3.615303E-2,-7.5743305E-3,2.2580927E-2,2.3211792E-2,-4.723233E-2,6.101003E-2,1.6470445E-2,-3.7292838E-2,2.2999937E-2,-3.6002424E-2,2.1351302E-2,4.449546E-2,-4.9858518E-2,-9.855645E-2,-1.0570948E-2,-1.748201E-2,2.2187252E-2,-5.8717575E-2,-1.2285982E-2,3.8668666E-2,5.38714E-3,5.609067E-3,-8.133103E-2],"categories":[],"categories_nodes":[],"categories_segments":[],"categories_sizes":[],"default_left":[0,0,0,0,0,0,0,0,0,0,0,0,0,0,0,0,0,0,0,0,0,0,0,0,0,0,0,0,0,0,0,0,0,0,0,0,0,0,0,0,0,0,0,0,0,0,0,0,0,0,0,0,0,0,0,0,0,0,0,0,0],"id":18,"left_children":[1,3,5,7,9,11,13,15,17,19,21,-1,23,-1,-1,25,27,29,31,33,35,37,-1,-1,-1,39,41,43,45,47,49,51,53,-1,55,57,59,-1,-1,-1,-1,-1,-1,-1,-1,-1,-1,-1,-1,-1,-1,-1,-1,-1,-1,-1,-1,-1,-1,-1,-1],"loss_changes":[7.9145604E-1,8.7208337E-1,1.0910683E0,1.8129305E0,2.079794E0,2.5860488E-1,3.447801E-2,1.9535927E0,1.0450594E0,1.7876132E0,4.5899403E-1,0E0,5.6263804E-3,0E0,0E0,3.5177937E0,1.0982391E0,1.2714413E0,8.1851006E-1,1.2824315E-1,1.6205764E0,1.8491223E-1,0E0,0E0,0E0,2.6965218E0,2.2996593E0,1.1511562E0,9.8067045E-1,7.415178E-1,1.2854465E0,1.3226886E0,1.5662706E-1,0E0,5.725503E-2,1.5153513E0,1.6723117E0,0E0,0E0,0E0,0E0,0E0,0E0,0E0,0E0,0E0,0E0,0E0,0E0,0E0,0E0,0E0,0E0,0E0,0E0,0E0,0E0,0E0,0E0,0E0,0E0],"parents":[2147483647,0,0,1,1,2,2,3,3,4,4,5,5,6,6,7,7,8,8,9,9,10,10,12,12,15,15,16,16,17,17,18,18,19,19,20,20,21,21,25,25,26,26,27,27,28,28,29,29,30,30,31,31,32,32,34,34,35,35,36,36],"right_children":[2,4,6,8,10,12,14,16,18,20,22,-1,24,-1,-1,26,28,30,32,34,36,38,-1,-1,-1,40,42,44,46,48,50,52,54,-1,56,58,60,-1,-1,-1,-1,-1,-1,-1,-1,-1,-1,-1,-1,-1,-1,-1,-1,-1,-1,-1,-1,-1,-1,-1,-1],"split_conditions":[1.18E1,9.48E0,5.29E0,8.64E0,6.06E0,-1.71E0,1.189E1,7.02E0,2.232072E4,-1.037E1,1.94E0,-6.9037236E-2,-4.9E-1,2.2273066E-2,4.1089728E-4,5.97E0,2.99587E4,9.4E0,1E0,1.04E1,1E0,3.287284E4,-7.623542E-2,-2.6413007E-2,-8.832718E-3,4.63E0,7.3507464E-1,7.44E0,2.43E0,2.4331684E0,1E0,2.725661E4,2.73E0,-1.1290702E-2,1.105E1,1.082E1,4.2E0,4.8362827E-3,-3.615303E-2,-7.5743305E-3,2.2580927E-2,2.3211792E-2,-4.723233E-2,6.101003E-2,1.6470445E-2,-3.7292838E-2,2.2999937E-2,-3.6002424E-2,2.1351302E-2,4.449546E-2,-4.9858518E-2,-9.855645E-2,-1.0570948E-2,-1.748201E-2,2.2187252E-2,-5.8717575E-2,-1.2285982E-2,3.8668666E-2,5.38714E-3,5.609067E-3,-8.133103E-2],"split_indices":[1,1,2,1,14,14,1,1,3,14,2,0,0,0,0,1,3,1,13,1,13,3,0,0,0,1,16,1,0,16,8,3,0,0,1,1,16,0,0,0,0,0,0,0,0,0,0,0,0,0,0,0,0,0,0,0,0,0,0,0,0],"split_type":[0,0,0,0,0,0,0,0,0,0,0,0,0,0,0,0,0,0,0,0,0,0,0,0,0,0,0,0,0,0,0,0,0,0,0,0,0,0,0,0,0,0,0,0,0,0,0,0,0,0,0,0,0,0,0,0,0,0,0,0,0],"sum_hessian":[3.2E2,3.11E2,9E0,2.35E2,7.6E1,6E0,3E0,2.05E2,3E1,7.1E1,5E0,3E0,3E0,2E0,1E0,1.63E2,4.2E1,2.1E1,9E0,5E0,6.6E1,3E0,2E0,1E0,2E0,1.33E2,3E1,3.3E1,9E0,1.5E1,6E0,7E0,2E0,2E0,3E0,5.6E1,1E1,2E0,1E0,9E1,4.3E1,5E0,2.5E1,7E0,2.6E1,5E0,4E0,1.3E1,2E0,5E0,1E0,4E0,3E0,1E0,1E0,2E0,1E0,3.2E1,2.4E1,8E0,2E0],"tree_param":{"num_deleted":"0","num_feature":"24","num_nodes":"61","size_leaf_vector":"1"}},{"base_weights":[-1.0991031E-2,-3.8693124E-1,-5.0267032E-3,-5.4045614E-2,1.1358414E-2,-1.0999448E-1,1.8408518E-2,-3.452387E-2,-5.773703E-1,2.7922693E-1,-2.8881732E-2,4.3771394E-2,-3.599116E-1,-1.7158234E-2,-1.13329284E-1,5.011145E-1,5.460894E-2,6.1779823E-3,-8.554192E-1,-4.3666506E-1,1.05834834E-1,-1.0931702E-1,-3.995069E-2,-1.8122604E-1,3.1955652E-2,5.261119E-1,1.308189E-3,-1.6367972E-1,3.1109443E-1,-3.764273E-1,2.6879855E-2,1.0559694E-2,-9.8874587E-1,-4.909108E-2,-1.0984108E-2,1.620283E-2,-4.1231673E-2,2.3132304E-2,-5.6918126E-2,-2.3206716E-2,-1.4351368E-3,5.526277E-2,2.4413809E-3,-2.465674E-2,3.7404228E-2,-2.7001256E-3,3.516608E-2,-5.035379E-2,4.4733923E-2,3.0032486E-2,-2.6047425E-3,-4.3053566E-3,-1.1176943E-1],"categories":[],"categories_nodes":[],"categories_segments":[],"categories_sizes":[],"default_left":[0,0,0,0,0,0,0,0,0,0,0,0,0,0,0,0,0,0,0,0,0,0,0,0,0,0,0,0,0,0,0,0,0,0,0,0,0,0,0,0,0,0,0,0,0,0,0,0,0,0,0,0,0],"id":19,"left_children":[1,3,5,-1,-1,7,9,11,13,15,17,19,21,23,-1,25,27,29,31,33,35,-1,37,39,-1,41,-1,43,45,47,49,-1,51,-1,-1,-1,-1,-1,-1,-1,-1,-1,-1,-1,-1,-1,-1,-1,-1,-1,-1,-1,-1],"loss_changes":[7.178111E-1,4.455951E-1,7.818268E-1,0E0,0E0,2.025909E0,3.2149484E0,1.3150461E0,2.4720304E0,1.9662325E0,6.40946E0,1.298551E0,2.3024678E0,3.3413222E-1,0E0,2.3710823E-1,1.2266653E0,1.6972158E0,1.2575698E0,3.472179E-2,1.1732428E0,0E0,1.2801955E0,3.0605897E-2,0E0,2.3926353E-1,0E0,6.270729E-1,1.4664835E-1,1.3770559E0,2.9457808E0,0E0,9.27443E-1,0E0,0E0,0E0,0E0,0E0,0E0,0E0,0E0,0E0,0E0,0E0,0E0,0E0,0E0,0E0,0E0,0E0,0E0,0E0,0E0],"parents":[2147483647,0,0,1,1,2,2,5,5,6,6,7,7,8,8,9,9,10,10,11,11,12,12,13,13,15,15,16,16,17,17,18,18,19,19,20,20,22,22,23,23,25,25,27,27,28,28,29,29,30,30,32,32],"right_children":[2,4,6,-1,-1,8,10,12,14,16,18,20,22,24,-1,26,28,30,32,34,36,-1,38,40,-1,42,-1,44,46,48,50,-1,52,-1,-1,-1,-1,-1,-1,-1,-1,-1,-1,-1,-1,-1,-1,-1,-1,-1,-1,-1,-1],"split_conditions":[-4.76E0,5.1E0,4.9131513E-1,-5.4045614E-2,1.1358414E-2,1E0,1.730735E-4,6.48E0,3.5945272E-1,-2.56E0,5.287558E3,-2.2584906E1,7.21E0,2.99E0,-1.13329284E-1,1E0,8.9E-1,3.6156E0,3.56E0,1.99E0,1E0,-1.0931702E-1,5.35E0,6E-1,3.1955652E-2,3.823903E4,1.308189E-3,5.86E0,3.83E0,9.72E0,1.51956E1,1.0559694E-2,-4.56E0,-4.909108E-2,-1.0984108E-2,1.620283E-2,-4.1231673E-2,2.3132304E-2,-5.6918126E-2,-2.3206716E-2,-1.4351368E-3,5.526277E-2,2.4413809E-3,-2.465674E-2,3.7404228E-2,-2.7001256E-3,3.516608E-2,-5.035379E-2,4.4733923E-2,3.0032486E-2,-2.6047425E-3,-4.3053566E-3,-1.1176943E-1],"split_indices":[0,2,16,0,0,7,20,0,16,14,21,16,0,0,0,9,14,19,1,0,6,0,2,0,0,3,0,0,0,0,19,0,0,0,0,0,0,0,0,0,0,0,0,0,0,0,0,0,0,0,0,0,0],"split_type":[0,0,0,0,0,0,0,0,0,0,0,0,0,0,0,0,0,0,0,0,0,0,0,0,0,0,0,0,0,0,0,0,0,0,0,0,0,0,0,0,0,0,0,0,0,0,0,0,0,0,0,0,0],"sum_hessian":[3.2E2,4E0,3.16E2,3E0,1E0,5.7E1,2.59E2,5E1,7E0,3.9E1,2.2E2,4.1E1,9E0,4E0,3E0,1.9E1,2E1,2.12E2,8E0,4E0,3.7E1,2E0,7E0,3E0,1E0,1.8E1,1E0,1.1E1,9E0,1E1,2.02E2,1E0,7E0,3E0,1E0,3.4E1,3E0,5E0,2E0,2E0,1E0,1.7E1,1E0,1E1,1E0,1E0,8E0,9E0,1E0,3.2E1,1.7E2,1E0,6E0],"tree_param":{"num_deleted":"0","num_feature":"24","num_nodes":"53","size_leaf_vector":"1"}},{"base_weights":[-1.100218E-2,-1.610503E-2,3.97425E-1,-7.241937E-3,-3.195999E-1,4.518902E-2,1.1701471E-2,-1.9146923E-2,3.9304116E-1,3.669762E-2,-6.1197746E-1,-8.372891E-3,-6.574499E-1,4.463383E-2,1.3766746E-1,2.6732689E-2,-8.779142E-2,-6.744242E-2,-1.8109536E-2,9.670047E-3,-1.975017E-1,-9.8610125E-2,-1.0964857E-1,3.5231337E-3,1.7126987E-2,-2.5651192E-3,-9.995444E-3,2.7551136E-3,-1.9558927E-2,8.972529E-3,-3.8262643E-2,-2.2619016E-2,6.171731E-3],"categories":[],"categories_nodes":[],"categories_segments":[],"categories_sizes":[],"default_left":[0,0,0,0,0,0,0,0,0,0,0,0,0,0,0,0,0,0,0,0,0,0,0,0,0,0,0,0,0,0,0,0,0],"id":20,"left_children":[1,3,5,7,9,-1,-1,11,13,15,17,19,21,-1,23,-1,25,-1,-1,27,29,-1,31,-1,-1,-1,-1,-1,-1,-1,-1,-1,-1],"loss_changes":[6.754104E-1,8.530748E-1,8.212626E-3,1.4847885E0,9.600187E-1,0E0,0E0,2.0713785E0,6.1050057E-2,1.6702309E-1,1.2400746E-2,1.0188167E0,7.920537E-1,0E0,4.292231E-3,0E0,4.5930035E-4,0E0,0E0,1.0073698E0,1.4168246E0,0E0,7.387361E-2,0E0,0E0,0E0,0E0,0E0,0E0,0E0,0E0,0E0,0E0],"parents":[2147483647,0,0,1,1,2,2,3,3,4,4,7,7,8,8,9,9,10,10,11,11,12,12,14,14,16,16,19,19,20,20,22,22],"right_children":[2,4,6,8,10,-1,-1,12,14,16,18,20,22,-1,24,-1,26,-1,-1,28,30,-1,32,-1,-1,-1,-1,-1,-1,-1,-1,-1,-1],"split_conditions":[2.6608822E5,6.0124816E4,5.64E0,1.1792683E1,1.1571525E-5,4.518902E-2,1.1701471E-2,3.1438117E4,8.0524E0,-4.69E0,4.3E-1,1E0,6.73E0,4.463383E-2,-2.47E0,2.6732689E-2,5.2E0,-6.744242E-2,-1.8109536E-2,5.1E0,5.89E0,-9.8610125E-2,-1.14E0,3.5231337E-3,1.7126987E-2,-2.5651192E-3,-9.995444E-3,2.7551136E-3,-1.9558927E-2,8.972529E-3,-3.8262643E-2,-2.2619016E-2,6.171731E-3],"split_indices":[17,17,1,16,15,0,0,17,19,0,2,6,1,0,0,0,1,0,0,14,1,0,0,0,0,0,0,0,0,0,0,0,0],"split_type":[0,0,0,0,0,0,0,0,0,0,0,0,0,0,0,0,0,0,0,0,0,0,0,0,0,0,0,0,0,0,0,0,0],"sum_hessian":[3.2E2,3.17E2,3E0,3.09E2,8E0,2E0,1E0,3.01E2,8E0,4E0,4E0,2.97E2,4E0,6E0,2E0,1E0,3E0,3E0,1E0,2.72E2,2.5E1,2E0,2E0,1E0,1E0,1E0,2E0,2.51E2,2.1E1,1E1,1.5E1,1E0,1E0],"tree_param":{"num_deleted":"0","num_feature":"24","num_nodes":"33","size_leaf_vector":"1"}},{"base_weights":[-1.0245751E-2,-4.0659046E-1,-5.2280636E-3,-1.7956555E-2,-5.438326E-2,3.7846905E-1,-1.5081275E-2,-8.577467E-3,5.4751273E-2,-1.4793806E-1,9.728853E-3,-5.4934774E-2,-6.9811E-1,-2.7231304E-2,2.1646251E-1,1.1577514E-2,-5.6274366E-1,-1.7133024E-1,-1.05036214E-1,5.4479744E-3,-6.605162E-1,7.5798795E-2,5.0277954E-1,6.406236E-3,-4.6368044E-2,-8.904606E-2,3.7406206E-2,-2.1843277E-2,-1.5011355E-3,-3.0787824E-2,2.231631E-3,-7.853835E-2,2.940779E-2,-1.6205696E-2,3.2523006E-2,5.6441825E-2,1.0917769E-2],"categories":[],"categories_nodes":[],"categories_segments":[],"categories_sizes":[],"default_left":[0,0,0,0,0,0,0,0,0,0,0,0,0,0,0,0,0,0,0,0,0,0,0,0,0,0,0,0,0,0,0,0,0,0,0,0,0],"id":21,"left_children":[1,3,5,-1,-1,7,9,-1,-1,11,13,15,17,19,21,23,25,27,-1,29,31,33,35,-1,-1,-1,-1,-1,-1,-1,-1,-1,-1,-1,-1,-1,-1],"loss_changes":[6.362579E-1,2.697593E-2,1.2079542E0,0E0,0E0,6.747824E-1,1.0265555E0,0E0,0E0,2.4688716E0,2.0154533E0,1.4588629E0,1.1189563E0,4.639344E0,1.5728667E0,1.0025141E0,1.8681229E0,2.6173085E-2,0E0,1.137923E0,1.5421362E0,1.7139083E0,2.537725E-1,0E0,0E0,0E0,0E0,0E0,0E0,0E0,0E0,0E0,0E0,0E0,0E0,0E0,0E0],"parents":[2147483647,0,0,1,1,2,2,5,5,6,6,9,9,10,10,11,11,12,12,13,13,14,14,15,15,16,16,17,17,19,19,20,20,21,21,22,22],"right_children":[2,4,6,-1,-1,8,10,-1,-1,12,14,16,18,20,22,24,26,28,-1,30,32,34,36,-1,-1,-1,-1,-1,-1,-1,-1,-1,-1,-1,-1,-1,-1],"split_conditions":[2.1E0,5.2E0,2.25E0,-1.7956555E-2,-5.438326E-2,2.3983687E-4,4.9131513E-1,-8.577467E-3,5.4751273E-2,1E0,5.8730747E3,2.41E0,3.5945272E-1,5.287558E3,4.97E0,1E0,3.507519E4,6E-1,-1.05036214E-1,3.6156E0,5.11E0,1.4625E0,3.566661E4,6.406236E-3,-4.6368044E-2,-8.904606E-2,3.7406206E-2,-2.1843277E-2,-1.5011355E-3,-3.0787824E-2,2.231631E-3,-7.853835E-2,2.940779E-2,-1.6205696E-2,3.2523006E-2,5.6441825E-2,1.0917769E-2],"split_indices":[1,0,1,0,0,15,16,0,0,7,21,18,16,21,2,6,3,0,0,19,0,16,3,0,0,0,0,0,0,0,0,0,0,0,0,0,0],"split_type":[0,0,0,0,0,0,0,0,0,0,0,0,0,0,0,0,0,0,0,0,0,0,0,0,0,0,0,0,0,0,0,0,0,0,0,0,0],"sum_hessian":[3.2E2,3E0,3.17E2,2E0,1E0,7E0,3.1E2,2E0,5E0,4.8E1,2.62E2,4.2E1,6E0,2.23E2,3.9E1,3.8E1,4E0,3E0,3E0,2.13E2,1E1,2.7E1,1.2E1,3.5E1,3E0,3E0,1E0,2E0,1E0,1E1,2.03E2,9E0,1E0,1.4E1,1.3E1,1E1,2E0],"tree_param":{"num_deleted":"0","num_feature":"24","num_nodes":"37","size_leaf_vector":"1"}},{"base_weights":[-9.969334E-3,-2.2534642E-3,-2.4970753E-1,8.809013E-2,-2.7319223E-2,-4.517714E-1,1.6633114E-1,1.3355803E-1,-4.0400463E-1,-3.4243268E-1,-2.322023E-3,-6.298031E-2,-1.6079692E-2,2.1996653E-2,2.712518E-4,5.615326E-2,2.657336E-1,-7.736053E-3,-4.5386136E-1,-9.311613E-2,-1.0771298E-1,2.184959E-1,-2.816255E-2,1.538655E-1,-3.0836424E-1,3.2493314E-1,-2.3724107E-2,-5.083728E-2,-1.1790784E-2,-3.968213E-1,3.4390163E-1,-2.5804567E-1,2.735472E-1,-2.6574507E-3,-4.381481E-1,-4.820285E-3,2.8762007E-2,-6.482215E-2,-3.0398667E-3,3.9034065E-2,-1.9762522E-2,-6.568965E-2,9.24969E-3,-1.9969588E-2,4.9256034E-2,-4.4959325E-2,6.252475E-3,-1.3453516E-2,3.210822E-2,-4.028715E-3,2.533308E-2,-6.656274E-2,1.8321741E-2],"categories":[],"categories_nodes":[],"categories_segments":[],"categories_sizes":[],"default_left":[0,0,0,0,0,0,0,0,0,0,0,0,0,0,0,0,0,0,0,0,0,0,0,0,0,0,0,0,0,0,0,0,0,0,0,0,0,0,0,0,0,0,0,0,0,0,0,0,0,0,0,0,0],"id":22,"left_children":[1,3,5,7,9,11,13,15,17,19,21,-1,-1,-1,-1,23,25,-1,27,-1,29,31,33,35,37,39,-1,-1,-1,41,43,45,47,49,51,-1,-1,-1,-1,-1,-1,-1,-1,-1,-1,-1,-1,-1,-1,-1,-1,-1,-1],"loss_changes":[5.9321946E-1,7.0894015E-1,9.1580766E-1,1.5754255E0,1.9290586E0,2.6134825E-1,3.450632E-2,6.2963235E-1,6.260151E-2,2.387054E0,1.3071331E0,0E0,0E0,0E0,0E0,1.5077775E0,7.619325E-1,0E0,3.162539E-2,0E0,1.9643849E0,7.002095E-1,2.1424637E0,9.057737E-1,8.3051246E-1,7.9490495E-1,0E0,0E0,0E0,1.2060966E0,5.8322513E-1,2.1232417E-1,4.69957E-1,1.8789617E0,1.8181281E0,0E0,0E0,0E0,0E0,0E0,0E0,0E0,0E0,0E0,0E0,0E0,0E0,0E0,0E0,0E0,0E0,0E0,0E0],"parents":[2147483647,0,0,1,1,2,2,3,3,4,4,5,5,6,6,7,7,8,8,9,9,10,10,15,15,16,16,18,18,20,20,21,21,22,22,23,23,24,24,25,25,29,29,30,30,31,31,32,32,33,33,34,34],"right_children":[2,4,6,8,10,12,14,16,18,20,22,-1,-1,-1,-1,24,26,-1,28,-1,30,32,34,36,38,40,-1,-1,-1,42,44,46,48,50,52,-1,-1,-1,-1,-1,-1,-1,-1,-1,-1,-1,-1,-1,-1,-1,-1,-1,-1],"split_conditions":[1.18E1,-8.37E0,5.29E0,9.01621E1,-7.4E0,-1.71E0,1.189E1,6.02E0,1.025E1,4.27E0,-1.01E0,-6.298031E-2,-1.6079692E-2,2.1996653E-2,2.712518E-4,4.98E0,2.3322226E-3,-7.736053E-3,1.123E1,-9.311613E-2,3.899206E3,-7.31E0,1E0,9.48E0,2.091191E4,1E0,-2.3724107E-2,-5.083728E-2,-1.1790784E-2,1.2299887E0,4.3E-1,-3.76E0,2.23E0,6.43422E1,-2.04E0,-4.820285E-3,2.8762007E-2,-6.482215E-2,-3.0398667E-3,3.9034065E-2,-1.9762522E-2,-6.568965E-2,9.24969E-3,-1.9969588E-2,4.9256034E-2,-4.4959325E-2,6.252475E-3,-1.3453516E-2,3.210822E-2,-4.028715E-3,2.533308E-2,-6.656274E-2,1.8321741E-2],"split_indices":[1,18,2,19,18,14,1,2,1,1,0,0,0,0,0,2,20,0,1,0,17,18,6,1,3,12,0,0,0,16,2,0,1,19,18,0,0,0,0,0,0,0,0,0,0,0,0,0,0,0,0,0,0],"split_type":[0,0,0,0,0,0,0,0,0,0,0,0,0,0,0,0,0,0,0,0,0,0,0,0,0,0,0,0,0,0,0,0,0,0,0,0,0,0,0,0,0,0,0,0,0,0,0,0,0,0,0,0,0],"sum_hessian":[3.2E2,3.11E2,9E0,6.7E1,2.44E2,6E0,3E0,6.2E1,5E0,1.7E1,2.27E2,3E0,3E0,2E0,1E0,4E1,2.2E1,1E0,4E0,4E0,1.3E1,2.3E1,2.04E2,3.2E1,8E0,2E1,2E0,3E0,1E0,8E0,5E0,2E0,2.1E1,1.93E2,1.1E1,1.3E1,1.9E1,3E0,5E0,1.8E1,2E0,5E0,3E0,1E0,4E0,1E0,1E0,2E0,1.9E1,1.69E2,2.4E1,8E0,3E0],"tree_param":{"num_deleted":"0","num_feature":"24","num_nodes":"53","size_leaf_vector":"1"}},{"base_weights":[-1.0040275E-2,-1.4753119E-2,3.671409E-2,1.5102312E-3,-1.4629707E-1,-2.2211532E-1,1.4805765E-2,-9.8739766E-2,-6.5400146E-2,-4.4262806E-1,1.2463365E-1,5.812751E-2,-6.1379403E-2,-1.2765062E-1,4.178284E-2,-6.045826E-1,1.3679336E-2,-2.4875066E-1,3.237375E-1,5.6199345E-4,3.3058557E-1,-7.871735E-1,-1.3893981E-2,1.8831863E-1,-2.5110847E-1,-6.720292E-2,-6.6228374E-3,-4.511505E-3,-3.2801095E-2,8.26635E-3,4.5689903E-2,-4.6467404E-3,2.6133582E-2,3.8739532E-2,3.8780686E-3,-1.0771383E-1,-1.3816264E-2,-3.3983298E-2,6.3484907E-3,4.5609266E-2,-2.6042206E-2,-5.733635E-2,-6.2498557E-3],"categories":[],"categories_nodes":[],"categories_segments":[],"categories_sizes":[],"default_left":[0,0,0,0,0,0,0,0,0,0,0,0,0,0,0,0,0,0,0,0,0,0,0,0,0,0,0,0,0,0,0,0,0,0,0,0,0,0,0,0,0,0,0],"id":23,"left_children":[1,3,-1,5,7,9,11,-1,13,15,17,19,21,23,-1,25,-1,27,29,31,33,35,37,39,41,-1,-1,-1,-1,-1,-1,-1,-1,-1,-1,-1,-1,-1,-1,-1,-1,-1,-1],"loss_changes":[5.7602483E-1,6.805328E-1,0E0,8.4768337E-1,2.3169096E0,1.2785676E0,8.913955E-1,0E0,1.0460157E0,1.0211022E0,6.009257E-1,2.697495E0,3.3665974E0,1.2175548E0,0E0,2.4597359E-1,0E0,3.3622414E-2,1.2274003E-1,1.7659007E0,4.8229718E-1,9.8032117E-1,2.3671083E0,1.2002265E0,1.3013364E0,0E0,0E0,0E0,0E0,0E0,0E0,0E0,0E0,0E0,0E0,0E0,0E0,0E0,0E0,0E0,0E0,0E0,0E0],"parents":[2147483647,0,0,1,1,3,3,4,4,5,5,6,6,8,8,9,9,10,10,11,11,12,12,13,13,15,15,17,17,18,18,19,19,20,20,21,21,22,22,23,23,24,24],"right_children":[2,4,-1,6,8,10,12,-1,14,16,18,20,22,24,-1,26,-1,28,30,32,34,36,38,40,42,-1,-1,-1,-1,-1,-1,-1,-1,-1,-1,-1,-1,-1,-1,-1,-1,-1,-1],"split_conditions":[2.6608822E5,1.72E0,3.671409E-2,9.3399154E-5,1.79E0,1.2322168E4,4.9474183E-4,-9.8739766E-2,1.2643535E-3,8.6388385E-1,1.84E0,-1.827993E4,5.156978E-4,1.052569E-4,4.178284E-2,1.58E0,1.3679336E-2,-3.14E0,-3.8E0,1E0,6.32E0,9.82E0,6.62E0,4.043235E3,5.724432E-1,-6.720292E-2,-6.6228374E-3,-4.511505E-3,-3.2801095E-2,8.26635E-3,4.5689903E-2,-4.6467404E-3,2.6133582E-2,3.8739532E-2,3.8780686E-3,-1.0771383E-1,-1.3816264E-2,-3.3983298E-2,6.3484907E-3,4.5609266E-2,-2.6042206E-2,-5.733635E-2,-6.2498557E-3],"split_indices":[17,18,0,20,18,21,20,0,20,16,2,22,20,20,0,0,0,0,0,12,0,1,1,17,16,0,0,0,0,0,0,0,0,0,0,0,0,0,0,0,0,0,0],"split_type":[0,0,0,0,0,0,0,0,0,0,0,0,0,0,0,0,0,0,0,0,0,0,0,0,0,0,0,0,0,0,0,0,0,0,0,0,0,0,0,0,0,0,0],"sum_hessian":[3.2E2,3.17E2,3E0,2.83E2,3.4E1,1.5E1,2.68E2,2E0,3.2E1,9E0,6E0,1.71E2,9.7E1,2.9E1,3E0,7E0,2E0,2E0,4E0,1.42E2,2.9E1,5E0,9.2E1,8E0,2.1E1,6E0,1E0,1E0,1E0,2E0,2E0,1.21E2,2.1E1,2.4E1,5E0,3E0,2E0,1.7E1,7.5E1,5E0,3E0,7E0,1.4E1],"tree_param":{"num_deleted":"0","num_feature":"24","num_nodes":"43","size_leaf_vector":"1"}},{"base_weights":[-9.636949E-3,-4.2834423E-2,-5.669053E-3,2.7459523E-1,-1.3761367E-2,-8.826227E-3,4.7073435E-2,-1.2611574E-1,7.2239023E-3,-4.3191724E-2,-6.1748964E-1,-2.6859628E-2,1.9791107E-1,1.6355697E-2,-4.9902326E-1,-1.5703917E-1,-9.2356764E-2,1.9968024E-3,-5.858066E-1,7.264953E-2,4.5248124E-1,5.867306E-3,-3.6858954E-2,-7.9106346E-2,3.345687E-2,-2.027702E-2,-9.923056E-4,-2.7516736E-2,1.6932139E-3,-6.969935E-2,2.6303131E-2,-1.2897414E-2,2.8348565E-2,5.0538253E-2,1.076828E-2],"categories":[],"categories_nodes":[],"categories_segments":[],"categories_sizes":[],"default_left":[0,0,0,0,0,0,0,0,0,0,0,0,0,0,0,0,0,0,0,0,0,0,0,0,0,0,0,0,0,0,0,0,0,0,0],"id":24,"left_children":[1,-1,3,5,7,-1,-1,9,11,13,15,17,19,21,23,25,-1,27,29,31,33,-1,-1,-1,-1,-1,-1,-1,-1,-1,-1,-1,-1,-1,-1],"loss_changes":[5.308769E-1,0E0,7.272665E-1,6.82083E-1,7.341827E-1,0E0,0E0,1.9699178E0,1.7146297E0,1.1753362E0,8.4150004E-1,3.6141136E0,1.2426417E0,6.5693104E-1,1.4818766E0,2.4898976E-2,0E0,8.9052075E-1,1.2215075E0,1.2268299E0,1.827023E-1,0E0,0E0,0E0,0E0,0E0,0E0,0E0,0E0,0E0,0E0,0E0,0E0,0E0,0E0],"parents":[2147483647,0,0,2,2,3,3,4,4,7,7,8,8,9,9,10,10,11,11,12,12,13,13,14,14,15,15,17,17,18,18,19,19,20,20],"right_children":[2,-1,4,6,8,-1,-1,10,12,14,16,18,20,22,24,26,-1,28,30,32,34,-1,-1,-1,-1,-1,-1,-1,-1,-1,-1,-1,-1,-1,-1],"split_conditions":[2.04E0,-4.2834423E-2,2.25E0,2.3983687E-4,4.9131513E-1,-8.826227E-3,4.7073435E-2,1E0,5.8730747E3,2.41E0,3.5945272E-1,5.287558E3,4.97E0,1E0,3.507519E4,6E-1,-9.2356764E-2,3.6156E0,5.11E0,1.4625E0,3.566661E4,5.867306E-3,-3.6858954E-2,-7.9106346E-2,3.345687E-2,-2.027702E-2,-9.923056E-4,-2.7516736E-2,1.6932139E-3,-6.969935E-2,2.6303131E-2,-1.2897414E-2,2.8348565E-2,5.0538253E-2,1.076828E-2],"split_indices":[1,0,1,15,16,0,0,7,21,18,16,21,2,6,3,0,0,19,0,16,3,0,0,0,0,0,0,0,0,0,0,0,0,0,0],"split_type":[0,0,0,0,0,0,0,0,0,0,0,0,0,0,0,0,0,0,0,0,0,0,0,0,0,0,0,0,0,0,0,0,0,0,0],"sum_hessian":[3.2E2,2E0,3.18E2,8E0,3.1E2,3E0,5E0,4.8E1,2.62E2,4.2E1,6E0,2.23E2,3.9E1,3.8E1,4E0,3E0,3E0,2.13E2,1E1,2.7E1,1.2E1,3.5E1,3E0,3E0,1E0,2E0,1E0,1E1,2.03E2,9E0,1E0,1.4E1,1.3E1,1E1,2E0],"tree_param":{"num_deleted":"0","num_feature":"24","num_nodes":"35","size_leaf_vector":"1"}},{"base_weights":[-9.256795E-3,-2.0740074E-3,-2.3243408E-1,-4.292007E-2,4.526539E-2,-4.1889584E-1,1.5198255E-1,-8.241873E-3,-4.2379156E-1,-9.995296E-3,2.4071705E-1,-5.8689382E-2,-1.4617393E-2,1.9994095E-2,4.0536522E-4,-3.625728E-2,1.8267497E-1,9.1615155E-2,-7.2030807E-1,2.4126606E-2,-3.672757E-1,-1.4643374E-2,3.4127736E-1,-1.1744518E-2,-5.6540966E-1,3.4362778E-1,-2.501529E-1,3.0760202E-1,-2.2690574E-2,-8.555184E-2,-1.6471466E-2,7.920871E-2,-1.6507587E-1,-2.005223E-1,-6.895263E-2,-6.0514916E-2,3.248804E-1,3.9274094E-1,-1.3272682E-1,1.0722176E-3,-3.174844E-2,-1.6926205E-2,-6.107868E-2,1.4606312E-2,5.4854985E-2,-2.8790543E-2,-3.0695125E-3,1.6118955E-3,3.993901E-2,7.941133E-4,3.321634E-2,-7.959325E-2,-3.705195E-3,1.5315306E-2,-3.4393962E-2,9.206936E-3,3.4833737E-2,-5.6650555E-3,4.430269E-2,3.993329E-3,-2.3902351E-2],"categories":[],"categories_nodes":[],"categories_segments":[],"categories_sizes":[],"default_left":[0,0,0,0,0,0,0,0,0,0,0,0,0,0,0,0,0,0,0,0,0,0,0,0,0,0,0,0,0,0,0,0,0,0,0,0,0,0,0,0,0,0,0,0,0,0,0,0,0,0,0,0,0,0,0,0,0,0,0,0,0],"id":25,"left_children":[1,3,5,7,9,11,13,15,17,19,21,-1,-1,-1,-1,23,25,27,29,31,33,35,37,39,41,43,45,47,-1,-1,-1,49,51,53,-1,-1,55,57,59,-1,-1,-1,-1,-1,-1,-1,-1,-1,-1,-1,-1,-1,-1,-1,-1,-1,-1,-1,-1,-1,-1],"loss_changes":[5.140921E-1,6.052348E-1,7.8045493E-1,2.2154403E0,1.568521E0,2.3492849E-1,2.7567253E-2,8.356582E-1,2.2055638E0,1.3986452E0,8.267294E-1,0E0,0E0,0E0,0E0,1.7574136E0,1.4792567E0,4.8257464E-1,5.351815E-1,1.1073508E0,3.990984E-1,2.2015085E0,6.1318827E-1,9.032383E-1,4.47309E-3,5.271574E-1,4.08732E-2,1.005809E-1,0E0,0E0,0E0,1.4756145E0,1.9088628E0,4.584607E-1,0E0,0E0,6.156087E-3,4.9965763E-1,6.460459E-2,0E0,0E0,0E0,0E0,0E0,0E0,0E0,0E0,0E0,0E0,0E0,0E0,0E0,0E0,0E0,0E0,0E0,0E0,0E0,0E0,0E0,0E0],"parents":[2147483647,0,0,1,1,2,2,3,3,4,4,5,5,6,6,7,7,8,8,9,9,10,10,15,15,16,16,17,17,18,18,19,19,20,20,21,21,22,22,23,23,24,24,25,25,26,26,27,27,31,31,32,32,33,33,36,36,37,37,38,38],"right_children":[2,4,6,8,10,12,14,16,18,20,22,-1,-1,-1,-1,24,26,28,30,32,34,36,38,40,42,44,46,48,-1,-1,-1,50,52,54,-1,-1,56,58,60,-1,-1,-1,-1,-1,-1,-1,-1,-1,-1,-1,-1,-1,-1,-1,-1,-1,-1,-1,-1,-1,-1],"split_conditions":[1.18E1,1.3044281E0,5.29E0,1.2391559E0,4.75164E1,-1.71E0,1.189E1,9.4E0,2.076023E4,1E0,1.409128E4,-5.8689382E-2,-1.4617393E-2,1.9994095E-2,4.0536522E-4,9.23E0,1.079E1,9.92E0,1.3009119E0,4.04E0,2.2006463E-4,7.36088E-4,3.751442E4,1E0,-6.5E-1,1.0889788E0,4.75E0,3.96E0,-2.2690574E-2,-8.555184E-2,-1.6471466E-2,1.7982109E-4,2.7846E1,3.2156863E0,-6.895263E-2,-6.0514916E-2,5.02E0,-3.47E0,-3.93E0,1.0722176E-3,-3.174844E-2,-1.6926205E-2,-6.107868E-2,1.4606312E-2,5.4854985E-2,-2.8790543E-2,-3.0695125E-3,1.6118955E-3,3.993901E-2,7.941133E-4,3.321634E-2,-7.959325E-2,-3.705195E-3,1.5315306E-2,-3.4393962E-2,9.206936E-3,3.4833737E-2,-5.6650555E-3,4.430269E-2,3.993329E-3,-2.3902351E-2],"split_indices":[1,16,2,16,19,14,1,1,3,5,3,0,0,0,0,1,1,1,16,2,15,15,3,7,2,16,0,1,0,0,0,15,19,16,0,0,2,0,0,0,0,0,0,0,0,0,0,0,0,0,0,0,0,0,0,0,0,0,0,0,0],"split_type":[0,0,0,0,0,0,0,0,0,0,0,0,0,0,0,0,0,0,0,0,0,0,0,0,0,0,0,0,0,0,0,0,0,0,0,0,0,0,0,0,0,0,0,0,0,0,0,0,0,0,0,0,0,0,0,0,0,0,0,0,0],"sum_hessian":[3.2E2,3.11E2,9E0,1.67E2,1.44E2,6E0,3E0,1.54E2,1.3E1,1.13E2,3.1E1,3E0,3E0,2E0,1E0,1.35E2,1.9E1,5E0,8E0,1.04E2,9E0,9E0,2.2E1,1.3E2,5E0,1.4E1,5E0,3E0,2E0,6E0,2E0,8.1E1,2.3E1,7E0,2E0,3E0,6E0,2E1,2E0,1.22E2,8E0,1E0,4E0,8E0,6E0,4E0,1E0,1E0,2E0,6.4E1,1.7E1,3E0,2E1,2E0,5E0,1E0,5E0,2E0,1.8E1,1E0,1E0],"tree_param":{"num_deleted":"0","num_feature":"24","num_nodes":"61","size_leaf_vector":"1"}},{"base_weights":[-9.397209E-3,-1.3664804E-2,3.32226E-2,-6.5169237E-3,-2.583513E-1,-1.667142E-2,3.349469E-1,4.910536E-2,-5.141377E-1,-7.3711546E-3,-5.676329E-1,3.8723122E-2,1.0130117E-1,2.3954345E-2,-5.8390014E-2,-6.275036E-2,-2.2939248E-2,-2.4560722E-2,1.5292382E-1,-7.3215085E-1,4.5219525E-3,3.6624967E-4,1.4828927E-2,2.7453154E-5,-7.8036375E-3,-1.0937676E-3,-1.2333659E-1,2.0557126E-2,-3.7187777E-2,-2.1250663E-2,-8.345301E-2],"categories":[],"categories_nodes":[],"categories_segments":[],"categories_sizes":[],"default_left":[0,0,0,0,0,0,0,0,0,0,0,0,0,0,0,0,0,0,0,0,0,0,0,0,0,0,0,0,0,0,0],"id":26,"left_children":[1,3,-1,5,7,9,11,13,15,17,19,-1,21,-1,23,-1,-1,25,27,29,-1,-1,-1,-1,-1,-1,-1,-1,-1,-1,-1],"loss_changes":[4.7252887E-1,5.544951E-1,0E0,1.0804758E0,7.330359E-1,1.5432904E0,7.07171E-2,1.16343014E-1,1.7457485E-2,8.2486546E-1,5.372336E-1,0E0,1.32204555E-2,0E0,4.631602E-3,0E0,0E0,4.432764E0,8.7770176E-1,3.5459995E-2,0E0,0E0,0E0,0E0,0E0,0E0,0E0,0E0,0E0,0E0,0E0],"parents":[2147483647,0,0,1,1,3,3,4,4,5,5,6,6,7,7,8,8,9,9,10,10,12,12,14,14,17,17,18,18,19,19],"right_children":[2,4,-1,6,8,10,12,14,16,18,20,-1,22,-1,24,-1,-1,26,28,30,-1,-1,-1,-1,-1,-1,-1,-1,-1,-1,-1],"split_conditions":[2.6608822E5,6.0124816E4,3.32226E-2,1.1792683E1,1.1571525E-5,3.1438117E4,8.0524E0,-4.69E0,2.7E-1,1.0604714E4,3.15E0,3.8723122E-2,-2.47E0,2.3954345E-2,3.47E0,-6.275036E-2,-2.2939248E-2,1.0385578E4,1.105E1,-1.14E0,4.5219525E-3,3.6624967E-4,1.4828927E-2,2.7453154E-5,-7.8036375E-3,-1.0937676E-3,-1.2333659E-1,2.0557126E-2,-3.7187777E-2,-2.1250663E-2,-8.345301E-2],"split_indices":[17,17,0,16,15,17,19,0,2,17,0,0,0,0,0,0,0,17,1,0,0,0,0,0,0,0,0,0,0,0,0],"split_type":[0,0,0,0,0,0,0,0,0,0,0,0,0,0,0,0,0,0,0,0,0,0,0,0,0,0,0,0,0,0,0],"sum_hessian":[3.2E2,3.17E2,3E0,3.09E2,8E0,3.01E2,8E0,4E0,4E0,2.97E2,4E0,6E0,2E0,1E0,3E0,2E0,2E0,2.69E2,2.8E1,3E0,1E0,1E0,1E0,1E0,2E0,2.67E2,2E0,2.6E1,2E0,1E0,2E0],"tree_param":{"num_deleted":"0","num_feature":"24","num_nodes":"31","size_leaf_vector":"1"}},{"base_weights":[-9.154101E-3,-3.9977357E-1,-5.4518674E-3,-1.1948285E-2,-4.801775E-2,2.5505129E-1,-1.2973014E-2,-8.162643E-3,4.3699455E-2,2.4331019E-3,-1.5220352E-1,-6.562954E-2,4.3411553E-2,-4.8544973E-1,5.5354394E-2,4.6788733E-2,-1.525967E-1,-2.3101126E-1,7.8093365E-2,-6.8231905E-1,-7.336888E-2,-4.0902027E-1,1.9701183E-1,-5.369798E-3,2.1166721E-2,-2.5619736E-2,1.4831746E-2,1.502288E-2,-3.6810655E-2,4.1370848E-4,1.9441577E-2,-8.996484E-2,-2.0220797E-3,2.723887E-3,-2.3789993E-2,-1.9942015E-2,-6.237104E-2,5.0454505E-2,8.723147E-3],"categories":[],"categories_nodes":[],"categories_segments":[],"categories_sizes":[],"default_left":[0,0,0,0,0,0,0,0,0,0,0,0,0,0,0,0,0,0,0,0,0,0,0,0,0,0,0,0,0,0,0,0,0,0,0,0,0,0,0],"id":27,"left_children":[1,3,5,-1,-1,7,9,-1,-1,11,13,15,17,19,21,23,25,27,29,31,33,35,37,-1,-1,-1,-1,-1,-1,-1,-1,-1,-1,-1,-1,-1,-1,-1,-1],"loss_changes":[4.6203932E-1,1.0236442E-2,6.2831986E-1,0E0,0E0,5.869765E-1,6.674657E-1,0E0,0E0,7.865867E-1,2.1710763E0,1.0434697E0,1.693117E0,9.2345214E-1,1.3962244E0,7.9006654E-1,1.9084932E0,1.1006244E0,1.3498309E0,1.1329551E0,8.924562E-2,1.00614965E-1,4.9616557E-1,0E0,0E0,0E0,0E0,0E0,0E0,0E0,0E0,0E0,0E0,0E0,0E0,0E0,0E0,0E0,0E0],"parents":[2147483647,0,0,1,1,2,2,5,5,6,6,9,9,10,10,11,11,12,12,13,13,14,14,15,15,16,16,17,17,18,18,19,19,20,20,21,21,22,22],"right_children":[2,4,6,-1,-1,8,10,-1,-1,12,14,16,18,20,22,24,26,28,30,32,34,36,38,-1,-1,-1,-1,-1,-1,-1,-1,-1,-1,-1,-1,-1,-1,-1,-1],"split_conditions":[2.04E0,-1.17E0,2.25E0,-1.1948285E-2,-4.801775E-2,2.3983687E-4,1.72E0,-8.162643E-3,4.3699455E-2,-4.62E0,2.87E0,-8.53E0,-3.537595E4,2.816846E4,1.38E0,-1.112E1,1.5E0,-2.85E0,2.8575122E3,1E0,8.17E0,1E0,6E-1,-5.369798E-3,2.1166721E-2,-2.5619736E-2,1.4831746E-2,1.502288E-2,-3.6810655E-2,4.1370848E-4,1.9441577E-2,-8.996484E-2,-2.0220797E-3,2.723887E-3,-2.3789993E-2,-1.9942015E-2,-6.237104E-2,5.0454505E-2,8.723147E-3],"split_indices":[1,0,1,0,0,15,18,0,0,14,18,18,22,3,14,18,0,14,21,8,0,5,2,0,0,0,0,0,0,0,0,0,0,0,0,0,0,0,0],"split_type":[0,0,0,0,0,0,0,0,0,0,0,0,0,0,0,0,0,0,0,0,0,0,0,0,0,0,0,0,0,0,0,0,0,0,0,0,0,0,0],"sum_hessian":[3.2E2,2E0,3.18E2,1E0,1E0,8E0,3.1E2,3E0,5E0,2.8E2,3E1,1.05E2,1.75E2,1.1E1,1.9E1,4.6E1,5.9E1,1.9E1,1.56E2,7E0,4E0,4E0,1.5E1,2.9E1,1.7E1,4.4E1,1.5E1,5E0,1.4E1,9.6E1,6E1,5E0,2E0,3E0,1E0,3E0,1E0,3E0,1.2E1],"tree_param":{"num_deleted":"0","num_feature":"24","num_nodes":"39","size_leaf_vector":"1"}},{"base_weights":[-8.7294765E-3,-2.1635755E-3,-2.1271263E-1,5.1290165E-3,-2.4825072E-1,-3.860695E-1,1.4384006E-1,-2.480859E-3,3.2835957E-1,3.1903923E-1,-4.559106E-1,-6.0730327E-2,-1.7611536E-1,1.8899275E-2,4.1909964E-4,1.4746932E-2,-1.6279198E-1,4.00584E-2,9.853232E-3,4.331404E-2,4.5418427E-3,-2.1001885E-2,-5.878247E-2,-1.9701317E-2,-4.626207E-3,2.1493055E-2,-4.3924343E-2,-8.323275E-2,-8.236982E-2,-5.818202E-4,1.7662989E-2,1.5635496E-2,-1.9111473E-2],"categories":[],"categories_nodes":[],"categories_segments":[],"categories_sizes":[],"default_left":[0,0,0,0,0,0,0,0,0,0,0,0,0,0,0,0,0,0,0,0,0,0,0,0,0,0,0,0,0,0,0,0,0],"id":28,"left_children":[1,3,5,7,9,11,13,15,17,19,21,-1,23,-1,-1,25,27,-1,-1,-1,-1,-1,-1,-1,-1,29,-1,-1,31,-1,-1,-1,-1],"loss_changes":[4.2946574E-1,5.611926E-1,6.736409E-1,7.485769E-1,1.2056837E0,2.181871E-1,2.4430059E-2,8.2541907E-1,7.6723576E-2,7.3988765E-2,1.0360181E-1,0E0,4.4540167E-3,0E0,0E0,8.3636284E-1,1.4929608E0,0E0,0E0,0E0,0E0,0E0,0E0,0E0,0E0,1.1323018E0,0E0,0E0,7.308045E-1,0E0,0E0,0E0,0E0],"parents":[2147483647,0,0,1,1,2,2,3,3,4,4,5,5,6,6,7,7,8,8,9,9,10,10,12,12,15,15,16,16,25,25,28,28],"right_children":[2,4,6,8,10,12,14,16,18,20,22,-1,24,-1,-1,26,28,-1,-1,-1,-1,-1,-1,-1,-1,30,-1,-1,32,-1,-1,-1,-1],"split_conditions":[1.18E1,9.42E0,5.29E0,9.23E0,2.5069062E-4,1.189E1,1.189E1,1.72E0,3.251509E4,9.8E0,3.9052303E-4,-6.0730327E-2,1.24E0,1.8899275E-2,4.1909964E-4,8.99E0,1.79E0,4.00584E-2,9.853232E-3,4.331404E-2,4.5418427E-3,-2.1001885E-2,-5.878247E-2,-1.9701317E-2,-4.626207E-3,5.11E0,-4.3924343E-2,-8.323275E-2,1.052569E-4,-5.818202E-4,1.7662989E-2,1.5635496E-2,-1.9111473E-2],"split_indices":[1,0,2,0,20,1,1,18,3,0,20,0,0,0,0,0,18,0,0,0,0,0,0,0,0,0,0,0,20,0,0,0,0],"split_type":[0,0,0,0,0,0,0,0,0,0,0,0,0,0,0,0,0,0,0,0,0,0,0,0,0,0,0,0,0,0,0,0,0],"sum_hessian":[3.2E2,3.11E2,9E0,3.03E2,8E0,6E0,3E0,2.97E2,6E0,2E0,6E0,2E0,4E0,2E0,1E0,2.69E2,2.8E1,4E0,2E0,1E0,1E0,3E0,3E0,3E0,1E0,2.66E2,3E0,2E0,2.6E1,2.27E2,3.9E1,8E0,1.8E1],"tree_param":{"num_deleted":"0","num_feature":"24","num_nodes":"33","size_leaf_vector":"1"}},{"base_weights":[-8.359046E-3,-3.848028E-1,-4.792618E-3,-1.132178E-2,-4.639864E-2,2.3066495E-1,-1.1591093E-2,-7.0435666E-3,3.9295457E-2,5.4290693E-2,-3.951536E-2,1.8867724E-1,-4.1988686E-2,-3.5367215E-1,2.7918124E-3,3.14645E-1,-5.873985E-2,-1.0813883E-1,2.6650083E-1,-6.756999E-1,-2.9384121E-2,1.4722024E-1,-3.8084596E-2,3.9065585E-2,-3.9832335E-2,-2.2970105E-2,2.0749195E-2,5.5867084E-3,-2.481385E-2,3.0734753E-2,6.8742745E-3,-2.4296848E-2,-9.1578595E-2,-6.658433E-2,2.0472685E-2,1.9385725E-2,-2.4599252E-2,-7.31691E-2,-2.3958574E-3],"categories":[],"categories_nodes":[],"categories_segments":[],"categories_sizes":[],"default_left":[0,0,0,0,0,0,0,0,0,0,0,0,0,0,0,0,0,0,0,0,0,0,0,0,0,0,0,0,0,0,0,0,0,0,0,0,0,0,0],"id":29,"left_children":[1,3,5,-1,-1,7,9,-1,-1,11,13,15,17,19,21,23,25,27,29,31,33,35,37,-1,-1,-1,-1,-1,-1,-1,-1,-1,-1,-1,-1,-1,-1,-1,-1],"loss_changes":[4.2911732E-1,1.1983722E-2,5.1331365E-1,0E0,0E0,4.6746743E-1,5.7429224E-1,0E0,0E0,1.211217E0,2.911735E0,1.2339789E0,1.1511836E0,2.6953185E0,1.1509277E0,1.5646334E0,6.8487537E-1,1.0700582E0,5.9649706E-2,1.1280985E0,2.2223446E0,8.3623296E-1,1.4717505E0,0E0,0E0,0E0,0E0,0E0,0E0,0E0,0E0,0E0,0E0,0E0,0E0,0E0,0E0,0E0,0E0],"parents":[2147483647,0,0,1,1,2,2,5,5,6,6,9,9,10,10,11,11,12,12,13,13,14,14,15,15,16,16,17,17,18,18,19,19,20,20,21,21,22,22],"right_children":[2,4,6,-1,-1,8,10,-1,-1,12,14,16,18,20,22,24,26,28,30,32,34,36,38,-1,-1,-1,-1,-1,-1,-1,-1,-1,-1,-1,-1,-1,-1,-1,-1],"split_conditions":[2.04E0,-1.17E0,2.25E0,-1.132178E-2,-4.639864E-2,2.3983687E-4,-2.982784E4,-7.0435666E-3,3.9295457E-2,3.358091E4,1.8816597E-4,-2.25E0,1E0,6.14841E-1,3.4995476E-4,1E0,4E-1,1.7269059E-4,3.751442E4,2.050312E4,-3.24E0,1.72E0,3.521645E-4,3.9065585E-2,-3.9832335E-2,-2.2970105E-2,2.0749195E-2,5.5867084E-3,-2.481385E-2,3.0734753E-2,6.8742745E-3,-2.4296848E-2,-9.1578595E-2,-6.658433E-2,2.0472685E-2,1.9385725E-2,-2.4599252E-2,-7.31691E-2,-2.3958574E-3],"split_indices":[1,0,1,0,0,15,22,0,0,3,20,18,12,16,20,9,18,20,3,3,0,18,20,0,0,0,0,0,0,0,0,0,0,0,0,0,0,0,0],"split_type":[0,0,0,0,0,0,0,0,0,0,0,0,0,0,0,0,0,0,0,0,0,0,0,0,0,0,0,0,0,0,0,0,0,0,0,0,0,0,0],"sum_hessian":[3.2E2,2E0,3.18E2,1E0,1E0,8E0,3.1E2,3E0,5E0,9.2E1,2.18E2,3.8E1,5.4E1,2.5E1,1.93E2,2.5E1,1.3E1,4.5E1,9E0,1.2E1,1.3E1,4.2E1,1.51E2,2.3E1,2E0,8E0,5E0,2.1E1,2.4E1,7E0,2E0,5E0,7E0,3E0,1E1,3.8E1,4E0,2E0,1.49E2],"tree_param":{"num_deleted":"0","num_feature":"24","num_nodes":"39","size_leaf_vector":"1"}},{"base_weights":[-8.310801E-3,-1.3829696E-2,2.4122672E-1,-6.544775E-3,-2.607898E-1,2.9723221E-2,6.747532E-3,-4.559948E-2,3.7403237E-2,-5.141988E-2,-4.8385516E-2,-1.3584877E-2,-3.8535598E-1,-1.2136564E-2,2.1271993E-1,-1.03737906E-1,1.1418821E-2,-4.712518E-2,1.4095521E-1,8.600795E-2,-6.5678126E-1,1.8677713E-2,-3.344728E-1,3.5067564E-1,5.284699E-2,-1.21896705E-2,-1.5551344E-3,1.5804851E-3,-1.8468563E-2,-5.6895837E-3,2.6068497E-2,2.7002102E-2,-1.8801214E-2,-8.914129E-2,-2.9079342E-2,-2.7154468E-3,2.148222E-2,-1.783942E-2,-6.391915E-2,9.584933E-3,3.782625E-2,-2.4462648E-2,3.1139597E-2],"categories":[],"categories_nodes":[],"categories_segments":[],"categories_sizes":[],"default_left":[0,0,0,0,0,0,0,0,0,0,0,0,0,0,0,0,0,0,0,0,0,0,0,0,0,0,0,0,0,0,0,0,0,0,0,0,0,0,0,0,0,0,0],"id":30,"left_children":[1,3,5,7,9,-1,-1,11,13,-1,15,17,19,21,23,25,-1,27,29,31,33,35,37,39,41,-1,-1,-1,-1,-1,-1,-1,-1,-1,-1,-1,-1,-1,-1,-1,-1,-1,-1],"loss_changes":[4.4540805E-1,5.650049E-1,4.806143E-2,5.2863324E-1,4.595467E-1,0E0,0E0,1.7677436E0,1.261929E0,0E0,6.583871E-2,7.8414065E-1,1.8476496E0,1.1385589E0,6.872401E-1,6.11116E-3,0E0,1.0763476E0,6.5442574E-1,3.5330692E-1,5.136342E-1,9.49755E-1,3.6157262E-1,8.325148E-2,1.3067591E0,0E0,0E0,0E0,0E0,0E0,0E0,0E0,0E0,0E0,0E0,0E0,0E0,0E0,0E0,0E0,0E0,0E0,0E0],"parents":[2147483647,0,0,1,1,2,2,3,3,4,4,7,7,8,8,10,10,11,11,12,12,13,13,14,14,15,15,17,17,18,18,19,19,20,20,21,21,22,22,23,23,24,24],"right_children":[2,4,6,8,10,-1,-1,12,14,-1,16,18,20,22,24,26,-1,28,30,32,34,36,38,40,42,-1,-1,-1,-1,-1,-1,-1,-1,-1,-1,-1,-1,-1,-1,-1,-1,-1,-1],"split_conditions":[9.8E0,1.18E1,2.232132E4,1.3044281E0,-1.71E0,2.9723221E-2,6.747532E-3,1.2391559E0,4.75164E1,-5.141988E-2,4.82E0,4.768796E3,2.076023E4,1E0,1.042E1,3.23E0,1.1418821E-2,2.9660635E3,-5.39E0,9.92E0,3.118234E4,1.026E1,2.2006463E-4,-4.7E-1,1.105E1,-1.21896705E-2,-1.5551344E-3,1.5804851E-3,-1.8468563E-2,-5.6895837E-3,2.6068497E-2,2.7002102E-2,-1.8801214E-2,-8.914129E-2,-2.9079342E-2,-2.7154468E-3,2.148222E-2,-1.783942E-2,-6.391915E-2,9.584933E-3,3.782625E-2,-2.4462648E-2,3.1139597E-2],"split_indices":[2,1,3,16,14,0,0,16,19,0,0,17,3,5,1,0,0,17,18,1,3,1,15,0,1,0,0,0,0,0,0,0,0,0,0,0,0,0,0,0,0,0,0],"split_type":[0,0,0,0,0,0,0,0,0,0,0,0,0,0,0,0,0,0,0,0,0,0,0,0,0,0,0,0,0,0,0,0,0,0,0,0,0,0,0,0,0,0,0],"sum_hessian":[3.2E2,3.14E2,6E0,3.06E2,8E0,4E0,2E0,1.62E2,1.44E2,3E0,5E0,1.49E2,1.3E1,1.13E2,3.1E1,4E0,1E0,1.23E2,2.6E1,5E0,8E0,1.04E2,9E0,1.6E1,1.5E1,3E0,1E0,8.5E1,3.8E1,1E1,1.6E1,3E0,2E0,4E0,4E0,8.5E1,1.9E1,7E0,2E0,2E0,1.4E1,7E0,8E0],"tree_param":{"num_deleted":"0","num_feature":"24","num_nodes":"43","size_leaf_vector":"1"}},{"base_weights":[-7.8931395E-3,3.1113932E-3,-1.23158835E-1,9.581978E-3,-2.2940977E-1,1.6688593E-1,-2.2778738E-1,3.4860563E-2,-5.9812352E-2,-3.4693375E-1,8.210809E-2,3.175726E-2,-1.9011606E-1,-3.3294106E-1,1.7529257E-1,-5.599432E-2,9.5394455E-2,-5.2983176E-2,-3.3597622E-2,-4.756339E-2,-5.9688967E-3,1.37935905E-2,-1.4773778E-3,-2.5384247E-2,-3.1331622E-3,-4.1391858E-1,1.82927E-2,-1.846121E-2,3.1142175E-2,-3.6757335E-1,-1.4260312E-2,1.3015278E-1,-1.9445145E-1,2.7344918E-3,-3.817385E-1,-5.142574E-1,1.5885568E-1,-6.549605E-2,5.0805868E-3,3.3725835E-3,-4.9208462E-2,1.4474926E-2,-4.5816686E-2,-3.803191E-2,1.1675858E-2,2.8040051E-2,-3.8960986E-3,3.267485E-2,-7.30483E-2,-2.1643018E-2,-5.8196254E-2,2.2068983E-2,1.7593689E-3],"categories":[],"categories_nodes":[],"categories_segments":[],"categories_sizes":[],"default_left":[0,0,0,0,0,0,0,0,0,0,0,0,0,0,0,0,0,0,0,0,0,0,0,0,0,0,0,0,0,0,0,0,0,0,0,0,0,0,0,0,0,0,0,0,0,0,0,0,0,0,0,0,0],"id":31,"left_children":[1,3,5,7,9,11,13,15,17,19,21,-1,23,25,27,29,31,-1,33,-1,-1,-1,-1,-1,-1,35,-1,-1,-1,37,39,41,43,45,47,49,51,-1,-1,-1,-1,-1,-1,-1,-1,-1,-1,-1,-1,-1,-1,-1,-1],"loss_changes":[4.0755412E-1,4.4453532E-1,8.877293E-1,5.0553775E-1,3.2137263E-1,4.9073923E-1,9.4845426E-1,1.1657994E0,9.3094933E-1,1.9342053E-1,1.8263945E-2,0E0,2.2403002E-2,7.858701E-1,3.0245987E-1,1.1000508E0,1.3047769E0,0E0,9.370472E-1,0E0,0E0,0E0,0E0,0E0,0E0,9.437647E-1,0E0,0E0,0E0,1.2356436E0,1.759196E0,1.0452828E0,8.542196E-1,7.9818904E-1,1.9682509E0,1.3618374E-1,2.2321694E-2,0E0,0E0,0E0,0E0,0E0,0E0,0E0,0E0,0E0,0E0,0E0,0E0,0E0,0E0,0E0,0E0],"parents":[2147483647,0,0,1,1,2,2,3,3,4,4,5,5,6,6,7,7,8,8,9,9,10,10,12,12,13,13,14,14,15,15,16,16,18,18,25,25,29,29,30,30,31,31,32,32,33,33,34,34,35,35,36,36],"right_children":[2,4,6,8,10,12,14,16,18,20,22,-1,24,26,28,30,32,-1,34,-1,-1,-1,-1,-1,-1,36,-1,-1,-1,38,40,42,44,46,48,50,52,-1,-1,-1,-1,-1,-1,-1,-1,-1,-1,-1,-1,-1,-1,-1,-1],"split_conditions":[1E0,1.18E1,-2.38E0,-9.9E-1,5.29E0,3.52414E4,-2.04E0,-4.8E0,-5.3E-1,-1.71E0,-1.02E0,3.175726E-2,-4.66E0,1.1666198E4,2.65E0,1.45309E1,3.0437814E4,-5.2983176E-2,1E0,-4.756339E-2,-5.9688967E-3,1.37935905E-2,-1.4773778E-3,-2.5384247E-2,-3.1331622E-3,8.598685E-4,1.82927E-2,-1.846121E-2,3.1142175E-2,2.819374E4,-5.13E0,3.823903E4,3.15E0,4.479479E-5,-4.1E0,9.9655175E-1,-2.3E-1,-6.549605E-2,5.0805868E-3,3.3725835E-3,-4.9208462E-2,1.4474926E-2,-4.5816686E-2,-3.803191E-2,1.1675858E-2,2.8040051E-2,-3.8960986E-3,3.267485E-2,-7.30483E-2,-2.1643018E-2,-5.8196254E-2,2.2068983E-2,1.7593689E-3],"split_indices":[6,1,0,18,2,3,18,14,2,14,0,0,0,17,1,19,17,0,13,0,0,0,0,0,0,15,0,0,0,3,14,3,0,15,14,16,0,0,0,0,0,0,0,0,0,0,0,0,0,0,0,0,0],"split_type":[0,0,0,0,0,0,0,0,0,0,0,0,0,0,0,0,0,0,0,0,0,0,0,0,0,0,0,0,0,0,0,0,0,0,0,0,0,0,0,0,0,0,0,0,0,0,0,0,0,0,0,0,0],"sum_hessian":[3.2E2,2.93E2,2.7E1,2.86E2,7E0,7E0,2E1,2.1E2,7.6E1,5E0,2E0,5E0,2E0,1.6E1,4E0,8.4E1,1.26E2,3E0,7.3E1,3E0,2E0,1E0,1E0,1E0,1E0,1.4E1,2E0,1E0,3E0,9E0,7.5E1,1.13E2,1.3E1,6.7E1,6E0,1.2E1,2E0,5E0,4E0,6.9E1,6E0,1.11E2,2E0,8E0,5E0,8E0,5.9E1,2E0,4E0,3E0,9E0,1E0,1E0],"tree_param":{"num_deleted":"0","num_feature":"24","num_nodes":"53","size_leaf_vector":"1"}},{"base_weights":[-8.026491E-3,-5.2249443E-2,1.8284304E-2,-2.5359951E-2,-4.2553234E-1,-1.0885871E-2,2.842772E-1,7.7888765E-3,-3.0501166E-1,-5.5149597E-1,2.2810647E-2,-4.441654E-2,2.2430211E-1,3.4316534E-1,-4.1729875E-2,-4.4082284E-2,2.2266476E-1,-8.471944E-2,7.1979046E-2,-7.396424E-2,-2.2547555E-1,7.392733E-3,-1.5012965E-1,2.8199977E-1,-2.5434881E-2,3.8583416E-1,-2.1243667E-2,-8.951951E-3,-3.723102E-1,-2.3570497E-2,3.2987776E-1,3.603151E-2,-2.0685395E-2,-2.7097968E-2,-4.4481605E-3,3.9473447E-1,-1.502499E-2,-4.0405834E-1,-7.993216E-3,5.3931255E-2,1.8973131E-1,2.1511701E-1,4.7491625E-2,1.3728941E-2,-1.0210703E-2,-7.916639E-3,-5.3236317E-2,-1.8203352E-2,2.4839139E-2,4.026828E-2,4.7194525E-3,2.2657504E-2,-1.6490458E-2,4.291534E-2,1.1131993E-2,2.7363782E-3,-2.8947879E-2,6.7189033E-3,-5.342036E-2,5.551283E-3,-5.1404327E-2,-4.897795E-3,2.6694788E-2,5.4146247E-3,2.3037767E-2],"categories":[],"categories_nodes":[],"categories_segments":[],"categories_sizes":[],"default_left":[0,0,0,0,0,0,0,0,0,0,0,0,0,0,0,0,0,0,0,0,0,0,0,0,0,0,0,0,0,0,0,0,0,0,0,0,0,0,0,0,0,0,0,0,0,0,0,0,0,0,0,0,0,0,0,0,0,0,0,0,0,0,0,0,0],"id":32,"left_children":[1,3,5,7,9,11,13,15,17,19,-1,21,23,25,-1,27,29,-1,31,-1,33,35,37,39,-1,41,-1,43,45,47,49,-1,51,-1,-1,53,55,57,59,-1,61,63,-1,-1,-1,-1,-1,-1,-1,-1,-1,-1,-1,-1,-1,-1,-1,-1,-1,-1,-1,-1,-1,-1,-1],"loss_changes":[3.7445202E-1,1.1936951E0,1.5704246E0,1.0499E0,7.844775E-1,1.4531027E0,9.6949255E-1,1.1466933E0,2.5137548E0,2.6260567E-1,0E0,8.828938E-1,7.06918E-1,5.3239584E-1,0E0,9.5371985E-1,5.357679E-1,0E0,2.2120124E-1,0E0,2.0890266E-2,9.5241266E-1,1.9096735E0,3.962543E-1,0E0,1.7157865E-1,0E0,1.0493758E0,3.3320308E-1,3.4688687E-1,2.6912618E-1,0E0,2.8698117E-1,0E0,0E0,1.0755658E-2,1.2178323E0,1.2011745E0,1.1533393E0,0E0,3.264237E-1,7.178098E-3,0E0,0E0,0E0,0E0,0E0,0E0,0E0,0E0,0E0,0E0,0E0,0E0,0E0,0E0,0E0,0E0,0E0,0E0,0E0,0E0,0E0,0E0,0E0],"parents":[2147483647,0,0,1,1,2,2,3,3,4,4,5,5,6,6,7,7,8,8,9,9,11,11,12,12,13,13,15,15,16,16,18,18,20,20,21,21,22,22,23,23,25,25,27,27,28,28,29,29,30,30,32,32,35,35,36,36,37,37,38,38,40,40,41,41],"right_children":[2,4,6,8,10,12,14,16,18,20,-1,22,24,26,-1,28,30,-1,32,-1,34,36,38,40,-1,42,-1,44,46,48,50,-1,52,-1,-1,54,56,58,60,-1,62,64,-1,-1,-1,-1,-1,-1,-1,-1,-1,-1,-1,-1,-1,-1,-1,-1,-1,-1,-1,-1,-1,-1,-1],"split_conditions":[2.3102703E3,2.029233E4,3.4715646E-4,1E0,2.428674E4,1E0,6.75E0,6.80238E1,1.14E0,4.545051E-4,2.2810647E-2,2.4E-1,2.3759513E-4,1E0,-4.1729875E-2,1.123E1,-1.037E1,-8.471944E-2,2.89E0,-7.396424E-2,4.75E0,1.716432E4,2.32E0,2.401907E4,-2.5434881E-2,3.19176E1,-2.1243667E-2,-6.9E0,2.71E0,9.42E0,1E0,3.603151E-2,1.2102908E0,-2.7097968E-2,-4.4481605E-3,4.8E0,2.9571826E-4,1.67E0,1E0,5.3931255E-2,2.955278E4,3.9739037E-4,4.7491625E-2,1.3728941E-2,-1.0210703E-2,-7.916639E-3,-5.3236317E-2,-1.8203352E-2,2.4839139E-2,4.026828E-2,4.7194525E-3,2.2657504E-2,-1.6490458E-2,4.291534E-2,1.1131993E-2,2.7363782E-3,-2.8947879E-2,6.7189033E-3,-5.342036E-2,5.551283E-3,-5.1404327E-2,-4.897795E-3,2.6694788E-2,5.4146247E-3,2.3037767E-2],"split_indices":[21,3,15,12,3,12,0,19,0,20,0,14,15,6,0,1,14,0,2,0,0,3,14,3,0,19,0,18,2,2,6,0,16,0,0,2,15,0,9,0,3,15,0,0,0,0,0,0,0,0,0,0,0,0,0,0,0,0,0,0,0,0,0,0,0],"split_type":[0,0,0,0,0,0,0,0,0,0,0,0,0,0,0,0,0,0,0,0,0,0,0,0,0,0,0,0,0,0,0,0,0,0,0,0,0,0,0,0,0,0,0,0,0,0,0,0,0,0,0,0,0,0,0,0,0,0,0,0,0,0,0,0,0],"sum_hessian":[3.2E2,1.19E2,2.01E2,1.12E2,7E0,1.82E2,1.9E1,1.01E2,1.1E1,6E0,1E0,1.6E2,2.2E1,1.8E1,1E0,8.2E1,1.9E1,4E0,7E0,3E0,3E0,1.08E2,5.2E1,2E1,2E0,1.7E1,1E0,7.5E1,7E0,6E0,1.3E1,1E0,6E0,2E0,1E0,5E0,1.03E2,1.8E1,3.4E1,4E0,1.6E1,7E0,1E1,2.9E1,4.6E1,3E0,4E0,4E0,2E0,1E1,3E0,2E0,4E0,4E0,1E0,9E1,1.3E1,4E0,1.4E1,3.1E1,3E0,4E0,1.2E1,1E0,6E0],"tree_param":{"num_deleted":"0","num_feature":"24","num_nodes":"65","size_leaf_vector":"1"}},{"base_weights":[-7.6371953E-3,-1.2336538E-2,2.0492426E-1,-6.498621E-3,-2.1010365E-1,2.4230704E-2,7.431152E-3,-1.3157276E-4,-2.444506E-1,-4.1402724E-2,-3.913731E-2,-7.332924E-3,3.0234396E-1,3.841551E-2,-3.891307E-1,-8.318397E-2,9.054798E-3,3.9230107E-4,-2.2676854E-1,3.648521E-2,9.738245E-3,-4.302338E-2,-7.1256035E-3,-1.1142007E-2,-2.7219867E-3,-1.2033288E-3,2.2485513E-2,-2.9031238E-2,1.7256299E-2],"categories":[],"categories_nodes":[],"categories_segments":[],"categories_sizes":[],"default_left":[0,0,0,0,0,0,0,0,0,0,0,0,0,0,0,0,0,0,0,0,0,0,0,0,0,0,0,0,0],"id":33,"left_children":[1,3,5,7,9,-1,-1,11,13,-1,15,17,19,-1,21,23,-1,25,27,-1,-1,-1,-1,-1,-1,-1,-1,-1,-1],"loss_changes":[3.2317466E-1,3.6231726E-1,1.6172469E-2,4.6508867E-1,2.9757273E-1,0E0,0E0,6.5568686E-1,8.770605E-1,0E0,4.1805357E-2,4.984747E-1,5.415207E-2,0E0,6.0802698E-2,4.868202E-3,0E0,7.975944E-1,3.0384773E-1,0E0,0E0,0E0,0E0,0E0,0E0,0E0,0E0,0E0,0E0],"parents":[2147483647,0,0,1,1,2,2,3,3,4,4,7,7,8,8,10,10,11,11,12,12,14,14,15,15,17,17,18,18],"right_children":[2,4,6,8,10,-1,-1,12,14,-1,16,18,20,-1,22,24,-1,26,28,-1,-1,-1,-1,-1,-1,-1,-1,-1,-1],"split_conditions":[9.8E0,1.18E1,2.232132E4,9.42E0,-1.71E0,2.4230704E-2,7.431152E-3,9.23E0,2.94E0,-4.1402724E-2,4.82E0,9.01621E1,3.251509E4,3.841551E-2,2.298274E4,1.24E0,9.054798E-3,7.5816E1,1.148E1,3.648521E-2,9.738245E-3,-4.302338E-2,-7.1256035E-3,-1.1142007E-2,-2.7219867E-3,-1.2033288E-3,2.2485513E-2,-2.9031238E-2,1.7256299E-2],"split_indices":[2,1,3,0,14,0,0,0,1,0,0,19,3,0,3,0,0,19,1,0,0,0,0,0,0,0,0,0,0],"split_type":[0,0,0,0,0,0,0,0,0,0,0,0,0,0,0,0,0,0,0,0,0,0,0,0,0,0,0,0,0],"sum_hessian":[3.2E2,3.14E2,6E0,3.06E2,8E0,4E0,2E0,2.99E2,7E0,3E0,5E0,2.93E2,6E0,1E0,6E0,4E0,1E0,2.84E2,9E0,4E0,2E0,5E0,1E0,2E0,2E0,2.7E2,1.4E1,8E0,1E0],"tree_param":{"num_deleted":"0","num_feature":"24","num_nodes":"29","size_leaf_vector":"1"}},{"base_weights":[-6.7817373E-3,-4.7337063E-2,1.7344108E-2,-2.3607451E-2,-3.7660068E-1,-8.485317E-3,2.5281614E-1,6.623058E-3,-2.785995E-1,-4.9248728E-1,2.1730283E-2,-3.856724E-2,2.0245709E-1,3.077888E-1,-3.9583214E-2,-4.163273E-2,1.8399104E-1,-7.7845626E-2,6.8635896E-2,-6.658547E-2,-1.9599807E-1,8.093584E-3,-1.3380238E-1,2.5553727E-1,-2.3659E-2,3.472452E-1,-2.012132E-2,-7.3705423E-3,-5.609439E-2,2.3117992E-1,-1.9193178E-1,3.42901E-2,-1.9530693E-2,-2.4283616E-2,-2.7741902E-3,3.652717E-1,-1.2590667E-2,-3.6350587E-1,-5.283296E-3,4.8920643E-2,1.7177945E-1,1.8212818E-1,4.1462634E-2,-5.500918E-3,3.1730928E-2,7.878491E-3,3.487045E-2,-5.3610946E-3,-2.3428675E-2,1.9123139E-2,-1.420818E-2,3.957838E-2,1.0635559E-2,2.660791E-3,-2.6648208E-2,6.2776594E-3,-4.813663E-2,5.3544836E-3,-4.745875E-2,-4.4097053E-3,2.4159508E-2,2.1355173E-2,6.904622E-3],"categories":[],"categories_nodes":[],"categories_segments":[],"categories_sizes":[],"default_left":[0,0,0,0,0,0,0,0,0,0,0,0,0,0,0,0,0,0,0,0,0,0,0,0,0,0,0,0,0,0,0,0,0,0,0,0,0,0,0,0,0,0,0,0,0,0,0,0,0,0,0,0,0,0,0,0,0,0,0,0,0,0,0],"id":34,"left_children":[1,3,5,7,9,11,13,15,17,19,-1,21,23,25,-1,27,29,-1,31,-1,33,35,37,39,-1,41,-1,43,-1,45,47,-1,49,-1,-1,51,53,55,57,-1,59,61,-1,-1,-1,-1,-1,-1,-1,-1,-1,-1,-1,-1,-1,-1,-1,-1,-1,-1,-1,-1,-1],"loss_changes":[3.148975E-1,9.2870504E-1,1.2307308E0,8.7291014E-1,6.576227E-1,1.1690445E0,8.349911E-1,8.8068134E-1,2.1362453E0,2.2930479E-1,0E0,7.165268E-1,5.964659E-1,4.514544E-1,0E0,1.4370773E0,4.3463707E-1,0E0,2.0014524E-1,0E0,2.4786457E-2,8.098869E-1,1.5627074E0,3.269683E-1,0E0,1.2474871E-1,0E0,1.2084372E0,0E0,3.3073044E-1,5.015373E-3,0E0,2.0797439E-1,0E0,0E0,5.3066015E-3,1.0421174E0,9.8481345E-1,9.9170184E-1,0E0,2.6687002E-1,1.0129109E-2,0E0,0E0,0E0,0E0,0E0,0E0,0E0,0E0,0E0,0E0,0E0,0E0,0E0,0E0,0E0,0E0,0E0,0E0,0E0,0E0,0E0],"parents":[2147483647,0,0,1,1,2,2,3,3,4,4,5,5,6,6,7,7,8,8,9,9,11,11,12,12,13,13,15,15,16,16,18,18,20,20,21,21,22,22,23,23,25,25,27,27,29,29,30,30,32,32,35,35,36,36,37,37,38,38,40,40,41,41],"right_children":[2,4,6,8,10,12,14,16,18,20,-1,22,24,26,-1,28,30,-1,32,-1,34,36,38,40,-1,42,-1,44,-1,46,48,-1,50,-1,-1,52,54,56,58,-1,60,62,-1,-1,-1,-1,-1,-1,-1,-1,-1,-1,-1,-1,-1,-1,-1,-1,-1,-1,-1,-1,-1],"split_conditions":[2.3102703E3,2.029233E4,3.4715646E-4,1E0,2.428674E4,1E0,6.75E0,6.5048E1,1.14E0,4.545051E-4,2.1730283E-2,2.4E-1,2.3759513E-4,1E0,-3.9583214E-2,5.94775E1,2.3322226E-3,-7.7845626E-2,2.89E0,-6.658547E-2,4.75E0,1.716432E4,2.32E0,2.401907E4,-2.3659E-2,3.65E0,-2.012132E-2,5.03034E1,-5.609439E-2,1.1283582E0,-2.47E0,3.42901E-2,1.2102908E0,-2.4283616E-2,-2.7741902E-3,4.8E0,2.9571826E-4,1.67E0,1E0,4.8920643E-2,2.955278E4,2.56E0,4.1462634E-2,-5.500918E-3,3.1730928E-2,7.878491E-3,3.487045E-2,-5.3610946E-3,-2.3428675E-2,1.9123139E-2,-1.420818E-2,3.957838E-2,1.0635559E-2,2.660791E-3,-2.6648208E-2,6.2776594E-3,-4.813663E-2,5.3544836E-3,-4.745875E-2,-4.4097053E-3,2.4159508E-2,2.1355173E-2,6.904622E-3],"split_indices":[21,3,15,12,3,12,0,19,0,20,0,14,15,6,0,19,20,0,2,0,0,3,14,3,0,1,0,19,0,16,0,0,16,0,0,2,15,0,9,0,3,1,0,0,0,0,0,0,0,0,0,0,0,0,0,0,0,0,0,0,0,0,0],"split_type":[0,0,0,0,0,0,0,0,0,0,0,0,0,0,0,0,0,0,0,0,0,0,0,0,0,0,0,0,0,0,0,0,0,0,0,0,0,0,0,0,0,0,0,0,0,0,0,0,0,0,0,0,0,0,0,0,0,0,0,0,0,0,0],"sum_hessian":[3.2E2,1.19E2,2.01E2,1.12E2,7E0,1.82E2,1.9E1,1.01E2,1.1E1,6E0,1E0,1.6E2,2.2E1,1.8E1,1E0,8E1,2.1E1,4E0,7E0,3E0,3E0,1.08E2,5.2E1,2E1,2E0,1.7E1,1E0,7.6E1,4E0,1.9E1,2E0,1E0,6E0,2E0,1E0,5E0,1.03E2,1.8E1,3.4E1,4E0,1.6E1,6E0,1.1E1,6.7E1,9E0,9E0,1E1,1E0,1E0,2E0,4E0,4E0,1E0,9E1,1.3E1,4E0,1.4E1,3.1E1,3E0,4E0,1.2E1,4E0,2E0],"tree_param":{"num_deleted":"0","num_feature":"24","num_nodes":"63","size_leaf_vector":"1"}},{"base_weights":[-6.5059485E-3,-2.9250788E-2,3.862277E-2,-1.1209832E-2,-3.3200607E-1,-1.6670129E-1,8.153982E-2,-3.1301863E-2,2.6226842E-1,-4.7125426E-1,2.428232E-2,5.4101158E-2,-4.180486E-1,1.8685816E-1,-3.7921123E-2,-4.0002468E-1,-6.408143E-3,-1.531378E-1,3.8948268E-1,3.572276E-2,-6.0299975E-1,-7.4424684E-2,4.2164497E-2,-6.518235E-2,-1.9252386E-2,-1.16412245E-1,2.4147536E-1,1.1753922E-1,-1.1702402E-1,1.172258E-2,-6.9580454E-1,-2.1441968E-2,3.6605754E-1,-3.5376657E-2,3.1660635E-2,4.315329E-1,-1.5509784E-3,-3.3678263E-3,-7.7384204E-1,7.21485E-2,-2.0611294E-1,-2.4045646E-1,6.774609E-2,2.8155524E-1,-3.6005463E-2,-2.3505097E-2,1.595136E-1,-4.3399975E-2,-5.6632437E-2,1.8457098E-2,-2.2264948E-2,-1.20035205E-2,-7.717603E-2,1.3585445E-4,-2.1785518E-2,7.4987113E-3,4.0207144E-2,3.8266854E-4,4.366427E-3,2.1120539E-2,4.9578678E-2,-2.5212166E-3,2.0160426E-3,-8.784745E-2,-7.3023676E-3,8.32162E-3,1.393889E-3,-4.0134523E-2,5.7823653E-3,-3.186196E-3,-2.846396E-2,9.18699E-3,-2.3126602E-4,1.8370142E-2,4.1073874E-2,3.821112E-2,6.4067775E-3,-5.2694585E-2,-2.9803056E-4],"categories":[],"categories_nodes":[],"categories_segments":[],"categories_sizes":[],"default_left":[0,0,0,0,0,0,0,0,0,0,0,0,0,0,0,0,0,0,0,0,0,0,0,0,0,0,0,0,0,0,0,0,0,0,0,0,0,0,0,0,0,0,0,0,0,0,0,0,0,0,0,0,0,0,0,0,0,0,0,0,0,0,0,0,0,0,0,0,0,0,0,0,0,0,0,0,0,0,0],"id":35,"left_children":[1,3,5,7,9,11,13,15,17,19,-1,21,23,25,27,29,31,33,35,-1,37,39,-1,-1,-1,41,43,45,47,49,51,53,55,-1,57,59,-1,61,63,65,67,69,71,73,-1,-1,75,77,-1,-1,-1,-1,-1,-1,-1,-1,-1,-1,-1,-1,-1,-1,-1,-1,-1,-1,-1,-1,-1,-1,-1,-1,-1,-1,-1,-1,-1,-1,-1],"loss_changes":[3.306187E-1,1.1651452E0,9.652782E-1,1.1236405E0,1.0749587E0,1.0770807E0,1.1394144E0,1.7414243E0,7.9948264E-1,1.3068955E0,0E0,5.5100846E-1,3.4900653E-1,8.231721E-1,5.4254156E-1,1.4695952E0,1.0101745E0,1.59504E-1,1.9402313E-1,0E0,9.193764E-1,1.8858846E-1,0E0,0E0,0E0,1.9904019E-1,1.089854E0,2.594901E-1,9.347215E-1,2.8415966E-1,