{"learner":{"attributes":{"best_iteration":"0","best_score":"0.8932473521537206"},"feature_names":[],"feature_types":[],"gradient_booster":{"model":{"gbtree_model_param":{"num_parallel_tree":"1","num_trees":"51"},"iteration_indptr":[0,1,2,3,4,5,6,7,8,9,10,11,12,13,14,15,16,17,18,19,20,21,22,23,24,25,26,27,28,29,30,31,32,33,34,35,36,37,38,39,40,41,42,43,44,45,46,47,48,49,50,51],"tree_info":[0,0,0,0,0,0,0,0,0,0,0,0,0,0,0,0,0,0,0,0,0,0,0,0,0,0,0,0,0,0,0,0,0,0,0,0,0,0,0,0,0,0,0,0,0,0,0,0,0,0,0],"trees":[{"base_weights":[1.6338039E-9,-4.7727194E-2,3.0594356E-2,-7.1725976E-1,5.773277E-2,-6.505594E-2,-6.9287623E-4,-4.7705915E-2,7.797982E-2,1.0735617E-1,-3.8331783E-1,3.9142025E-1,7.1444646E-3,1.5007188E-2,-7.5006056E-1,-4.029935E-3,2.680755E-2,-3.937669E-2,2.5628589E-3,-5.8164198E-2,-7.1478286E-3],"categories":[],"categories_nodes":[],"categories_segments":[],"categories_sizes":[],"default_left":[0,0,0,0,0,0,0,0,0,0,0,0,0,0,0,0,0,0,0,0,0],"id":0,"left_children":[1,-1,3,5,7,-1,-1,-1,9,11,13,15,17,-1,19,-1,-1,-1,-1,-1,-1],"loss_changes":[9.403576E0,0E0,6.3736286E0,4.499534E0,6.2614746E0,0E0,0E0,0E0,4.06587E0,7.967836E0,4.7369084E0,5.0302553E0,7.331893E0,0E0,2.8441367E0,0E0,0E0,0E0,0E0,0E0,0E0],"parents":[2147483647,0,0,2,2,3,3,4,4,8,8,9,9,10,10,11,11,12,12,14,14],"right_children":[2,-1,4,6,8,-1,-1,-1,10,12,14,16,18,-1,20,-1,-1,-1,-1,-1,-1],"split_conditions":[-4.66E0,-4.7727194E-2,-1.5492308E1,-6.92E0,2.1E0,-6.505594E-2,-6.9287623E-4,-4.7705915E-2,3.751442E4,-2.879833E4,2.32426E1,-6.14E0,-2.740196E4,1.5007188E-2,3.80835E1,-4.029935E-3,2.680755E-2,-3.937669E-2,2.5628589E-3,-5.8164198E-2,-7.1478286E-3],"split_indices":[0,0,16,18,1,0,0,0,3,22,19,14,22,0,19,0,0,0,0,0,0],"split_type":[0,0,0,0,0,0,0,0,0,0,0,0,0,0,0,0,0,0,0,0,0],"sum_hessian":[3.2E2,9E0,3.11E2,1E1,3.01E2,5E0,5E0,5E0,2.96E2,2.79E2,1.7E1,7.2E1,2.07E2,6E0,1.1E1,1.7E1,5.5E1,1E1,1.97E2,6E0,5E0],"tree_param":{"num_deleted":"0","num_feature":"24","num_nodes":"21","size_leaf_vector":"1"}},{"base_weights":[-7.025687E-4,-4.557947E-2,2.8494773E-2,-6.8737394E-1,5.447511E-2,-6.2345274E-2,-6.640064E-4,-4.5718167E-2,7.3864184E-2,1.0130343E-1,-3.840353E-1,-1.868348E-2,2.7466437E-1,-7.464402E-1,2.0239018E-2,-4.4878717E-3,1.6867677E-2,2.4922298E-2,6.954266E-3,-2.2398336E-2,-4.4782013E-2],"categories":[],"categories_nodes":[],"categories_segments":[],"categories_sizes":[],"default_left":[0,0,0,0,0,0,0,0,0,0,0,0,0,0,0,0,0,0,0,0,0],"id":1,"left_children":[1,-1,3,5,7,-1,-1,-1,9,11,13,15,17,19,-1,-1,-1,-1,-1,-1,-1],"loss_changes":[8.563124E0,0E0,5.8401794E0,4.1323853E0,5.740573E0,0E0,0E0,0E0,3.770535E0,5.8502254E0,5.1619453E0,4.2562075E0,3.4197836E0,1.3317013E-1,0E0,0E0,0E0,0E0,0E0,0E0,0E0],"parents":[2147483647,0,0,2,2,3,3,4,4,8,8,9,9,10,10,11,11,12,12,13,13],"right_children":[2,-1,4,6,8,-1,-1,-1,10,12,14,16,18,20,-1,-1,-1,-1,-1,-1,-1],"split_conditions":[-4.66E0,-4.557947E-2,-1.5492308E1,-6.92E0,2.1E0,-6.2345274E-2,-6.640064E-4,-4.5718167E-2,6.21E0,-1.83E0,2.2733754E4,8.87E0,4.42E0,1.767233E4,2.0239018E-2,-4.4878717E-3,1.6867677E-2,2.4922298E-2,6.954266E-3,-2.2398336E-2,-4.4782013E-2],"split_indices":[0,0,16,18,1,0,0,0,14,14,17,2,0,3,0,0,0,0,0,0,0],"split_type":[0,0,0,0,0,0,0,0,0,0,0,0,0,0,0,0,0,0,0,0,0],"sum_hessian":[3.2E2,9E0,3.11E2,1E1,3.01E2,5E0,5E0,5E0,2.96E2,2.8E2,1.6E1,1.66E2,1.14E2,1.1E1,5E0,1.39E2,2.7E1,4.2E1,7.2E1,5E0,6E0],"tree_param":{"num_deleted":"0","num_feature":"24","num_nodes":"21","size_leaf_vector":"1"}},{"base_weights":[-1.1565055E-3,-8.2893866E-1,2.8125681E-2,-7.44706E-2,-1.5154447E-3,4.993613E-2,-4.0209357E-2,-4.381324E-2,6.835509E-2,2.3429182E-1,-5.3686313E-3,3.7130848E-1,-2.7753347E-1,-5.113993E-2,3.51528E-2,-1.8361643E-2,2.2760136E-2,1.6722215E-2,-3.5669453E-2,2.6652118E-2,-3.932701E-4],"categories":[],"categories_nodes":[],"categories_segments":[],"categories_sizes":[],"default_left":[0,0,0,0,0,0,0,0,0,0,0,0,0,0,0,0,0,0,0,0,0],"id":2,"left_children":[1,3,5,-1,-1,7,-1,-1,9,11,13,15,17,-1,19,-1,-1,-1,-1,-1,-1],"loss_changes":[7.804121E0,5.757068E0,5.6857767E0,0E0,0E0,5.246034E0,0E0,0E0,3.6590662E0,6.5548806E0,8.61132E0,4.690201E0,5.573267E0,0E0,4.309274E0,0E0,0E0,0E0,0E0,0E0,0E0],"parents":[2147483647,0,0,1,1,2,2,5,5,8,8,9,9,10,10,11,11,12,12,14,14],"right_children":[2,4,6,-1,-1,8,-1,-1,10,12,14,16,18,-1,20,-1,-1,-1,-1,-1,-1],"split_conditions":[-4.56E0,4.39E0,1.184E1,-7.44706E-2,-1.5154447E-3,2.1E0,-4.0209357E-2,-4.381324E-2,-2.879833E4,3.751442E4,-2.8165896E4,2.83E0,2.32426E1,-5.113993E-2,3.3964497E-1,-1.8361643E-2,2.2760136E-2,1.6722215E-2,-3.5669453E-2,2.6652118E-2,-3.932701E-4],"split_indices":[0,1,1,0,0,1,0,0,22,3,17,1,19,0,16,0,0,0,0,0,0],"split_type":[0,0,0,0,0,0,0,0,0,0,0,0,0,0,0,0,0,0,0,0,0],"sum_hessian":[3.2E2,1E1,3.1E2,5E0,5E0,3.03E2,7E0,5E0,2.98E2,9.1E1,2.07E2,7.2E1,1.9E1,7E0,2E2,7E0,6.5E1,8E0,1.1E1,1.5E1,1.85E2],"tree_param":{"num_deleted":"0","num_feature":"24","num_nodes":"21","size_leaf_vector":"1"}},{"base_weights":[-1.7199826E-3,-7.9439956E-1,2.6322445E-2,-7.136766E-2,-1.4523005E-3,4.71655E-2,-3.8450196E-2,-4.198769E-2,6.480547E-2,2.224191E-1,-5.2198158E-3,3.528033E-1,-2.6460418E-1,-4.8902553E-2,3.3525806E-2,-1.7558323E-2,2.1639373E-2,1.5979005E-2,-3.4034602E-2,-2.9715648E-2,3.3025562E-3],"categories":[],"categories_nodes":[],"categories_segments":[],"categories_sizes":[],"default_left":[0,0,0,0,0,0,0,0,0,0,0,0,0,0,0,0,0,0,0,0,0],"id":3,"left_children":[1,3,5,-1,-1,7,-1,-1,9,11,13,15,17,-1,19,-1,-1,-1,-1,-1,-1],"loss_changes":[7.1563096E0,5.2873073E0,5.1917276E0,0E0,0E0,4.81057E0,0E0,0E0,3.3012056E0,5.935365E0,7.872924E0,4.26235E0,5.0789747E0,0E0,4.143807E0,0E0,0E0,0E0,0E0,0E0,0E0],"parents":[2147483647,0,0,1,1,2,2,5,5,8,8,9,9,10,10,11,11,12,12,14,14],"right_children":[2,4,6,-1,-1,8,-1,-1,10,12,14,16,18,-1,20,-1,-1,-1,-1,-1,-1],"split_conditions":[-4.56E0,4.39E0,1.184E1,-7.136766E-2,-1.4523005E-3,2.1E0,-3.8450196E-2,-4.198769E-2,-2.879833E4,3.751442E4,-2.8165896E4,2.83E0,2.32426E1,-4.8902553E-2,-2.740196E4,-1.7558323E-2,2.1639373E-2,1.5979005E-2,-3.4034602E-2,-2.9715648E-2,3.3025562E-3],"split_indices":[0,1,1,0,0,1,0,0,22,3,17,1,19,0,22,0,0,0,0,0,0],"split_type":[0,0,0,0,0,0,0,0,0,0,0,0,0,0,0,0,0,0,0,0,0],"sum_hessian":[3.2E2,1E1,3.1E2,5E0,5E0,3.03E2,7E0,5E0,2.98E2,9.1E1,2.07E2,7.2E1,1.9E1,7E0,2E2,7E0,6.5E1,8E0,1.1E1,9E0,1.91E2],"tree_param":{"num_deleted":"0","num_feature":"24","num_nodes":"21","size_leaf_vector":"1"}},{"base_weights":[-2.3895865E-3,-7.6129955E-1,2.446057E-2,-6.8394005E-2,-1.3917875E-3,-6.338888E-1,4.8438586E-2,-5.7018813E-2,-1.087664E-3,-4.0238205E-2,6.556959E-2,9.1682754E-2,-3.683867E-1,-2.0132931E-2,2.5228903E-1,-7.144044E-1,1.9252332E-2,-3.8354963E-3,1.8708533E-2,2.3168493E-2,6.2248874E-3,-2.1811672E-2,-4.253895E-2],"categories":[],"categories_nodes":[],"categories_segments":[],"categories_sizes":[],"default_left":[0,0,0,0,0,0,0,0,0,0,0,0,0,0,0,0,0,0,0,0,0,0,0],"id":4,"left_children":[1,3,5,-1,-1,7,9,-1,-1,-1,11,13,15,17,19,21,-1,-1,-1,-1,-1,-1,-1],"loss_changes":[6.5595913E0,4.8558774E0,4.9401226E0,0E0,0E0,3.3856206E0,4.4522495E0,0E0,0E0,0E0,3.3880382E0,5.0334034E0,4.7070017E0,3.7319155E0,3.044355E0,8.408642E-2,0E0,0E0,0E0,0E0,0E0,0E0,0E0],"parents":[2147483647,0,0,1,1,2,2,5,5,6,6,10,10,11,11,12,12,13,13,14,14,15,15],"right_children":[2,4,6,-1,-1,8,10,-1,-1,-1,12,14,16,18,20,22,-1,-1,-1,-1,-1,-1,-1],"split_conditions":[-4.56E0,4.39E0,-1.5492308E1,-6.8394005E-2,-1.3917875E-3,-6.92E0,2.1E0,-5.7018813E-2,-1.087664E-3,-4.0238205E-2,6.21E0,-1.83E0,2.2733754E4,7.5816E1,4.42E0,1.767233E4,1.9252332E-2,-3.8354963E-3,1.8708533E-2,2.3168493E-2,6.2248874E-3,-2.1811672E-2,-4.253895E-2],"split_indices":[0,1,16,0,0,18,1,0,0,0,14,14,17,19,0,3,0,0,0,0,0,0,0],"split_type":[0,0,0,0,0,0,0,0,0,0,0,0,0,0,0,0,0,0,0,0,0,0,0],"sum_hessian":[3.2E2,1E1,3.1E2,5E0,5E0,1E1,3E2,5E0,5E0,5E0,2.95E2,2.79E2,1.6E1,1.65E2,1.14E2,1.1E1,5E0,1.45E2,2E1,4.2E1,7.2E1,5E0,6E0],"tree_param":{"num_deleted":"0","num_feature":"24","num_nodes":"23","size_leaf_vector":"1"}},{"base_weights":[-2.7964646E-3,-7.2957873E-1,2.2918653E-2,-6.5544255E-2,-1.3337965E-3,4.258893E-2,-3.6370836E-2,-3.856161E-2,5.877735E-2,2.0832203E-1,-7.649996E-3,3.311385E-1,-2.503741E-1,-4.6043303E-2,2.873497E-2,-1.6998295E-2,2.0373361E-2,1.5323738E-2,-3.2357313E-2,2.515541E-2,-6.1129103E-4],"categories":[],"categories_nodes":[],"categories_segments":[],"categories_sizes":[],"default_left":[0,0,0,0,0,0,0,0,0,0,0,0,0,0,0,0,0,0,0,0,0],"id":5,"left_children":[1,3,5,-1,-1,7,-1,-1,9,11,13,15,17,-1,19,-1,-1,-1,-1,-1,-1],"loss_changes":[6.0159836E0,4.4596515E0,4.6211233E0,0E0,0E0,4.0503726E0,0E0,0E0,2.9718168E0,5.265769E0,6.9377465E0,3.8779163E0,4.6171756E0,0E0,3.9117224E0,0E0,0E0,0E0,0E0,0E0,0E0],"parents":[2147483647,0,0,1,1,2,2,5,5,8,8,9,9,10,10,11,11,12,12,14,14],"right_children":[2,4,6,-1,-1,8,-1,-1,10,12,14,16,18,-1,20,-1,-1,-1,-1,-1,-1],"split_conditions":[-4.56E0,4.39E0,1.184E1,-6.5544255E-2,-1.3337965E-3,2.1E0,-3.6370836E-2,-3.856161E-2,-2.879833E4,3.751442E4,-2.8165896E4,2.83E0,2.32426E1,-4.6043303E-2,3.3964497E-1,-1.6998295E-2,2.0373361E-2,1.5323738E-2,-3.2357313E-2,2.515541E-2,-6.1129103E-4],"split_indices":[0,1,1,0,0,1,0,0,22,3,17,1,19,0,16,0,0,0,0,0,0],"split_type":[0,0,0,0,0,0,0,0,0,0,0,0,0,0,0,0,0,0,0,0,0],"sum_hessian":[3.2E2,1E1,3.1E2,5E0,5E0,3.03E2,7E0,5E0,2.98E2,9.1E1,2.07E2,7.2E1,1.9E1,7E0,2E2,7E0,6.5E1,8E0,1.1E1,1.5E1,1.85E2],"tree_param":{"num_deleted":"0","num_feature":"24","num_nodes":"21","size_leaf_vector":"1"}},{"base_weights":[-3.2079471E-3,-6.9917965E-1,2.1418732E-2,-6.2813245E-2,-1.278222E-3,-5.970838E-1,4.3950655E-2,-5.3479083E-2,-1.253602E-3,-3.6954876E-2,5.9674773E-2,8.449852E-2,-3.5269722E-1,-2.0818679E-2,2.3578684E-1,-6.840275E-1,1.843731E-2,-4.269895E-3,1.5025727E-2,1.3516091E-2,-2.183262E-2,-2.1092104E-2,-4.0551983E-2],"categories":[],"categories_nodes":[],"categories_segments":[],"categories_sizes":[],"default_left":[0,0,0,0,0,0,0,0,0,0,0,0,0,0,0,0,0,0,0,0,0,0,0],"id":6,"left_children":[1,3,5,-1,-1,7,9,-1,-1,-1,11,13,15,17,19,21,-1,-1,-1,-1,-1,-1,-1],"loss_changes":[5.5167456E0,4.095757E0,4.360355E0,0E0,0E0,2.946201E0,3.7502406E0,0E0,0E0,0E0,3.0598416E0,4.466222E0,4.3158455E0,3.470404E0,2.7886457E0,5.7477474E-2,0E0,0E0,0E0,0E0,0E0,0E0,0E0],"parents":[2147483647,0,0,1,1,2,2,5,5,6,6,10,10,11,11,12,12,13,13,14,14,15,15],"right_children":[2,4,6,-1,-1,8,10,-1,-1,-1,12,14,16,18,20,22,-1,-1,-1,-1,-1,-1,-1],"split_conditions":[-4.56E0,4.39E0,-1.5492308E1,-6.2813245E-2,-1.278222E-3,-6.92E0,2.1E0,-5.3479083E-2,-1.253602E-3,-3.6954876E-2,6.21E0,-1.83E0,2.2733754E4,8.87E0,3.751442E4,1.767233E4,1.843731E-2,-4.269895E-3,1.5025727E-2,1.3516091E-2,-2.183262E-2,-2.1092104E-2,-4.0551983E-2],"split_indices":[0,1,16,0,0,18,1,0,0,0,14,14,17,2,3,3,0,0,0,0,0,0,0],"split_type":[0,0,0,0,0,0,0,0,0,0,0,0,0,0,0,0,0,0,0,0,0,0,0],"sum_hessian":[3.2E2,1E1,3.1E2,5E0,5E0,1E1,3E2,5E0,5E0,5E0,2.95E2,2.79E2,1.6E1,1.65E2,1.14E2,1.1E1,5E0,1.38E2,2.7E1,1.09E2,5E0,5E0,6E0],"tree_param":{"num_deleted":"0","num_feature":"24","num_nodes":"23","size_leaf_vector":"1"}},{"base_weights":[-3.6598502E-3,-6.7004716E-1,1.9921888E-2,-6.019603E-2,-1.2249631E-3,3.85026E-2,-3.4431774E-2,-3.5415094E-2,5.335987E-2,9.107625E-2,-1.9313057E-1,-8.997862E-3,2.621299E-1,-4.5717612E-2,-5.1042553E-2,-3.9774138E-3,1.2765966E-2,1.644328E-2,-1.4172587E-2,-3.5355147E-2,4.404168E-3],"categories":[],"categories_nodes":[],"categories_segments":[],"categories_sizes":[],"default_left":[0,0,0,0,0,0,0,0,0,0,0,0,0,0,0,0,0,0,0,0,0],"id":7,"left_children":[1,3,5,-1,-1,7,-1,-1,9,11,13,15,17,19,-1,-1,-1,-1,-1,-1,-1],"loss_changes":[5.057726E0,3.7615542E0,4.120985E0,0E0,0E0,3.4108195E0,0E0,0E0,2.7973108E0,4.4530497E0,4.8339977E0,3.0971785E0,3.588554E0,3.1595738E0,0E0,0E0,0E0,0E0,0E0,0E0,0E0],"parents":[2147483647,0,0,1,1,2,2,5,5,8,8,9,9,10,10,11,11,12,12,13,13],"right_children":[2,4,6,-1,-1,8,-1,-1,10,12,14,16,18,20,-1,-1,-1,-1,-1,-1,-1],"split_conditions":[-4.56E0,4.39E0,1.184E1,-6.019603E-2,-1.2249631E-3,2.1E0,-3.4431774E-2,-3.5415094E-2,3.91E0,-1.83E0,1E0,3.14726E4,3.465592E4,-5.8E-1,-5.1042553E-2,-3.9774138E-3,1.2765966E-2,1.644328E-2,-1.4172587E-2,-3.5355147E-2,4.404168E-3],"split_indices":[0,1,1,0,0,1,0,0,14,14,13,3,3,2,0,0,0,0,0,0,0],"split_type":[0,0,0,0,0,0,0,0,0,0,0,0,0,0,0,0,0,0,0,0,0],"sum_hessian":[3.2E2,1E1,3.1E2,5E0,5E0,3.03E2,7E0,5E0,2.98E2,2.59E2,3.9E1,1.64E2,9.5E1,3.4E1,5E0,1.3E2,3.4E1,8.5E1,1E1,5E0,2.9E1],"tree_param":{"num_deleted":"0","num_feature":"24","num_nodes":"21","size_leaf_vector":"1"}},{"base_weights":[-4.1067707E-3,-6.421285E-1,1.847312E-2,-5.768786E-2,-1.173922E-3,-3.928409E-2,3.4180496E-2,4.9854587E-3,3.931896E-1,-1.9406524E-1,7.734368E-2,3.52467E-2,1.7993034E-1,-3.7496072E-1,1.2943275E-1,1.3792889E-1,-2.277922E-1,-1.7185086E-2,2.3805827E-2,6.1397636E-3,-3.216155E-2,3.3486854E-2,-4.1280454E-3,9.363498E-3,-2.0043012E-2,-3.2741312E-2,6.261231E-3],"categories":[],"categories_nodes":[],"categories_segments":[],"categories_sizes":[],"default_left":[0,0,0,0,0,0,0,0,0,0,0,0,0,0,0,0,0,0,0,0,0,0,0,0,0,0,0],"id":8,"left_children":[1,3,5,-1,-1,-1,7,9,11,13,15,-1,17,19,21,23,25,-1,-1,-1,-1,-1,-1,-1,-1,-1,-1],"loss_changes":[4.6363363E0,3.4546218E0,3.9551463E0,0E0,0E0,0E0,3.2053127E0,4.105449E0,1.4022555E0,4.4960012E0,3.895144E0,0E0,2.490031E0,6.6221085E0,3.2624445E0,4.7273417E0,5.3582573E0,0E0,0E0,0E0,0E0,0E0,0E0,0E0,0E0,0E0,0E0],"parents":[2147483647,0,0,1,1,2,2,6,6,7,7,8,8,9,9,10,10,12,12,13,13,14,14,15,15,16,16],"right_children":[2,4,6,-1,-1,-1,8,10,12,14,16,-1,18,20,22,24,26,-1,-1,-1,-1,-1,-1,-1,-1,-1,-1],"split_conditions":[-4.56E0,4.39E0,-2.35E1,-5.768786E-2,-1.173922E-3,-3.928409E-2,9.22E0,-4.94E0,3.1551914E-4,4.1351726E-4,1.72E0,3.52467E-2,5.55E0,1.9587082E-4,2.95962E1,3.705788E4,3.07E0,-1.7185086E-2,2.3805827E-2,6.1397636E-3,-3.216155E-2,3.3486854E-2,-4.1280454E-3,9.363498E-3,-2.0043012E-2,-3.2741312E-2,6.261231E-3],"split_indices":[0,1,16,0,0,0,2,14,15,15,18,0,1,15,19,3,18,0,0,0,0,0,0,0,0,0,0],"split_type":[0,0,0,0,0,0,0,0,0,0,0,0,0,0,0,0,0,0,0,0,0,0,0,0,0,0,0],"sum_hessian":[3.2E2,1E1,3.1E2,5E0,5E0,5E0,3.05E2,2.83E2,2.2E1,7.5E1,2.08E2,8E0,1.4E1,4.8E1,2.7E1,1.74E2,3.4E1,5E0,9E0,1.7E1,3.1E1,7E0,2E1,1.6E2,1.4E1,1.5E1,1.9E1],"tree_param":{"num_deleted":"0","num_feature":"24","num_nodes":"27","size_leaf_vector":"1"}},{"base_weights":[-4.1821194E-3,-6.153732E-1,1.7449018E-2,-5.52842E-2,-1.1250094E-3,3.514645E-2,-3.2861724E-2,-3.3554126E-2,4.920072E-2,1.8913712E-1,-1.2930764E-2,2.9794803E-1,-2.1747966E-1,-4.2724084E-2,2.0628132E-2,-1.5574555E-2,1.8887406E-2,1.598215E-2,-3.0109916E-2,-3.757854E-2,2.2080815E-3],"categories":[],"categories_nodes":[],"categories_segments":[],"categories_sizes":[],"default_left":[0,0,0,0,0,0,0,0,0,0,0,0,0,0,0,0,0,0,0,0,0],"id":9,"left_children":[1,3,5,-1,-1,7,-1,-1,9,11,13,15,17,-1,19,-1,-1,-1,-1,-1,-1],"loss_changes":[4.254601E0,3.1727343E0,3.7364902E0,0E0,0E0,3.05038E0,0E0,0E0,2.602088E0,4.135278E0,5.8918624E0,3.6678948E0,4.32531E0,0E0,3.6858716E0,0E0,0E0,0E0,0E0,0E0,0E0],"parents":[2147483647,0,0,1,1,2,2,5,5,8,8,9,9,10,10,11,11,12,12,14,14],"right_children":[2,4,6,-1,-1,8,-1,-1,10,12,14,16,18,-1,20,-1,-1,-1,-1,-1,-1],"split_conditions":[-4.56E0,4.39E0,1.184E1,-5.52842E-2,-1.1250094E-3,2.1E0,-3.2861724E-2,-3.3554126E-2,-2.879833E4,3.751442E4,-2.8165896E4,-8.52E0,2.32426E1,-4.2724084E-2,-2.813184E4,-1.5574555E-2,1.8887406E-2,1.598215E-2,-3.0109916E-2,-3.757854E-2,2.2080815E-3],"split_indices":[0,1,1,0,0,1,0,0,22,3,17,14,19,0,22,0,0,0,0,0,0],"split_type":[0,0,0,0,0,0,0,0,0,0,0,0,0,0,0,0,0,0,0,0,0],"sum_hessian":[3.2E2,1E1,3.1E2,5E0,5E0,3.03E2,7E0,5E0,2.98E2,9.1E1,2.07E2,7.2E1,1.9E1,7E0,2E2,8E0,6.4E1,8E0,1.1E1,5E0,1.95E2],"tree_param":{"num_deleted":"0","num_feature":"24","num_nodes":"21","size_leaf_vector":"1"}},{"base_weights":[-4.632615E-3,-5.897326E-1,1.6077135E-2,-5.2980687E-2,-1.078134E-3,-3.697613E-2,3.0840276E-2,2.9107665E-3,3.7436813E-1,-1.8331857E-1,7.06166E-2,3.3495855E-2,1.7208084E-1,9.8214634E-2,-3.794462E-1,1.2775062E-1,-2.1707115E-1,-1.6839033E-2,2.3009485E-2,-1.7352415E-2,1.183851E-2,-3.1378884E-2,3.3078608E-3,8.7085925E-3,-1.8951032E-2,-3.0985687E-2,5.794823E-3],"categories":[],"categories_nodes":[],"categories_segments":[],"categories_sizes":[],"default_left":[0,0,0,0,0,0,0,0,0,0,0,0,0,0,0,0,0,0,0,0,0,0,0,0,0,0,0],"id":10,"left_children":[1,3,5,-1,-1,-1,7,9,11,13,15,-1,17,19,21,23,25,-1,-1,-1,-1,-1,-1,-1,-1,-1,-1],"loss_changes":[3.8991263E0,2.9138477E0,3.49202E0,0E0,0E0,0E0,2.9348469E0,3.5938482E0,1.2597935E0,4.233717E0,3.4630136E0,0E0,2.354095E0,2.0563674E0,5.01709E0,4.1828804E0,4.764165E0,0E0,0E0,0E0,0E0,0E0,0E0,0E0,0E0,0E0,0E0],"parents":[2147483647,0,0,1,1,2,2,6,6,7,7,8,8,9,9,10,10,12,12,13,13,14,14,15,15,16,16],"right_children":[2,4,6,-1,-1,-1,8,10,12,14,16,-1,18,20,22,24,26,-1,-1,-1,-1,-1,-1,-1,-1,-1,-1],"split_conditions":[-4.56E0,4.39E0,-2.35E1,-5.2980687E-2,-1.078134E-3,-3.697613E-2,9.22E0,-4.94E0,3.1551914E-4,-8.53E0,1.72E0,3.3495855E-2,5.55E0,4.37576E1,4.1351726E-4,3.705788E4,3.07E0,-1.6839033E-2,2.3009485E-2,-1.7352415E-2,1.183851E-2,-3.1378884E-2,3.3078608E-3,8.7085925E-3,-1.8951032E-2,-3.0985687E-2,5.794823E-3],"split_indices":[0,1,16,0,0,0,2,14,15,18,18,0,1,19,15,3,18,0,0,0,0,0,0,0,0,0,0],"split_type":[0,0,0,0,0,0,0,0,0,0,0,0,0,0,0,0,0,0,0,0,0,0,0,0,0,0,0],"sum_hessian":[3.2E2,1E1,3.1E2,5E0,5E0,5E0,3.05E2,2.83E2,2.2E1,7.5E1,2.08E2,8E0,1.4E1,3.1E1,4.4E1,1.74E2,3.4E1,5E0,9E0,7E0,2.4E1,2.8E1,1.6E1,1.6E2,1.4E1,1.5E1,1.9E1],"tree_param":{"num_deleted":"0","num_feature":"24","num_nodes":"27","size_leaf_vector":"1"}},{"base_weights":[-4.7760243E-3,-5.651604E-1,1.5060003E-2,-5.0773162E-2,-1.033211E-3,3.1957302E-2,-3.144599E-2,6.788431E-2,-2.1390274E-1,7.006892E-3,2.6393366E-1,-4.378765E-2,-1.4852577E-2,2.7263675E-2,-2.0632457E-2,-2.672916E-1,3.9416885E-1,-1.9301553E-1,2.6074642E-2,-7.299063E-3,5.7801907E-3,-3.3551183E-2,1.5778322E-2,2.5318792E-2,-9.286394E-3,-2.3975251E-2,6.6716345E-3],"categories":[],"categories_nodes":[],"categories_segments":[],"categories_sizes":[],"default_left":[0,0,0,0,0,0,0,0,0,0,0,0,0,0,0,0,0,0,0,0,0,0,0,0,0,0,0],"id":11,"left_children":[1,3,5,-1,-1,7,-1,9,11,13,15,-1,17,-1,19,21,23,25,-1,-1,-1,-1,-1,-1,-1,-1,-1],"loss_changes":[3.5766833E0,2.6760857E0,3.4042513E0,0E0,0E0,2.6997576E0,0E0,3.1728544E0,5.124908E0,3.0462272E0,4.4639645E0,0E0,3.0629199E0,0E0,3.346901E0,3.2708921E0,3.4125404E0,2.308557E0,0E0,0E0,0E0,0E0,0E0,0E0,0E0,0E0,0E0],"parents":[2147483647,0,0,1,1,2,2,5,5,7,7,8,8,9,9,10,10,12,12,14,14,15,15,16,16,17,17],"right_children":[2,4,6,-1,-1,8,-1,10,12,14,16,-1,18,-1,20,22,24,26,-1,-1,-1,-1,-1,-1,-1,-1,-1],"split_conditions":[-4.56E0,4.39E0,1.184E1,-5.0773162E-2,-1.033211E-3,1.72E0,-3.144599E-2,-2.08E0,1.93E0,-6.2E-1,4.4370822E2,-4.378765E-2,2.7695633E-4,2.7263675E-2,1.4333333E0,4.48E0,4.29E0,5.352E3,2.6074642E-2,-7.299063E-3,5.7801907E-3,-3.3551183E-2,1.5778322E-2,2.5318792E-2,-9.286394E-3,-2.3975251E-2,6.6716345E-3],"split_indices":[0,1,1,0,0,18,0,18,18,2,17,0,15,0,16,0,14,17,0,0,0,0,0,0,0,0,0],"split_type":[0,0,0,0,0,0,0,0,0,0,0,0,0,0,0,0,0,0,0,0,0,0,0,0,0,0,0],"sum_hessian":[3.2E2,1E1,3.1E2,5E0,5E0,3.03E2,7E0,2.65E2,3.8E1,2.03E2,6.2E1,8E0,3E1,9E0,1.94E2,1.2E1,5E1,2.3E1,7E0,1.01E2,9.3E1,7E0,5E0,4.2E1,8E0,1.2E1,1.1E1],"tree_param":{"num_deleted":"0","num_feature":"24","num_nodes":"27","size_leaf_vector":"1"}},{"base_weights":[-4.8308824E-3,-3.859814E-2,3.0133584E-1,-1.1051353E-2,-4.48721E-2,4.9260533E-1,1.4454065E-1,-2.0160107E-1,5.1622506E-2,2.9213239E-2,1.3650767E-2,-6.492058E-2,3.045967E-2,1.7252794E-1,-4.265984E-1,1.0831832E-1,-2.0410547E-1,-2.6070768E-2,1.7131371E-2,-7.069769E-2,4.0343016E-1,-9.4244415E-1,-1.2728357E-1,2.7879396E-1,-5.2817883E-3,-5.629555E-1,1.3028768E-1,1.83806E-2,-2.807617E-2,3.2452177E-2,3.254814E-3,-2.242216E-2,-5.970002E-2,1.4426293E-2,-2.9670134E-2,1.9487977E-2,-9.645423E-3,-6.92565E-3,1.135771E-2,-9.393141E-3,-5.2761257E-2,-6.334656E-3,2.8185908E-2],"categories":[],"categories_nodes":[],"categories_segments":[],"categories_sizes":[],"default_left":[0,0,0,0,0,0,0,0,0,0,0,0,0,0,0,0,0,0,0,0,0,0,0,0,0,0,0,0,0,0,0,0,0,0,0,0,0,0,0,0,0,0,0],"id":12,"left_children":[1,3,5,7,-1,9,11,13,15,-1,-1,17,-1,19,21,23,25,-1,-1,27,29,31,33,35,37,39,41,-1,-1,-1,-1,-1,-1,-1,-1,-1,-1,-1,-1,-1,-1,-1,-1],"loss_changes":[3.3302605E0,6.8510146E0,8.884828E-1,3.3781884E0,0E0,1.22271776E-1,1.8887571E0,5.9660625E0,3.110333E0,0E0,0E0,2.7832606E0,0E0,1.5448775E0,6.6736546E0,3.3905315E0,4.753229E0,0E0,0E0,3.2182937E0,1.1211402E0,1.4528627E0,5.7918973E0,3.7391796E0,3.3140428E0,3.3100505E0,2.4104683E0,0E0,0E0,0E0,0E0,0E0,0E0,0E0,0E0,0E0,0E0,0E0,0E0,0E0,0E0,0E0,0E0],"parents":[2147483647,0,0,1,1,2,2,3,3,5,5,6,6,7,7,8,8,11,11,13,13,14,14,15,15,16,16,19,19,20,20,21,21,22,22,23,23,24,24,25,25,26,26],"right_children":[2,4,6,8,-1,10,12,14,16,-1,-1,18,-1,20,22,24,26,-1,-1,28,30,32,34,36,38,40,42,-1,-1,-1,-1,-1,-1,-1,-1,-1,-1,-1,-1,-1,-1,-1,-1],"split_conditions":[7.5816E1,1.176E1,8.41386E1,-5.66E0,-4.48721E-2,1.062E1,1.147E1,-8.4E0,1.72E0,2.9213239E-2,1.3650767E-2,8.98E0,3.045967E-2,2.8071104E-4,-7.33E0,2.9475897E-4,3.07E0,-2.6070768E-2,1.7131371E-2,1.8932205E-4,9.073846E-4,1.677818E4,-8.1E-1,3.705788E4,9.58E0,6.9E0,2.2078361E-4,1.83806E-2,-2.807617E-2,3.2452177E-2,3.254814E-3,-2.242216E-2,-5.970002E-2,1.4426293E-2,-2.9670134E-2,1.9487977E-2,-9.645423E-3,-6.92565E-3,1.135771E-2,-9.393141E-3,-5.2761257E-2,-6.334656E-3,2.8185908E-2],"split_indices":[19,1,19,14,0,1,1,18,18,0,0,2,0,15,18,20,18,0,0,15,20,3,0,3,1,0,15,0,0,0,0,0,0,0,0,0,0,0,0,0,0,0,0],"split_type":[0,0,0,0,0,0,0,0,0,0,0,0,0,0,0,0,0,0,0,0,0,0,0,0,0,0,0,0,0,0,0,0,0,0,0,0,0,0,0,0,0,0,0],"sum_hessian":[3.2E2,2.89E2,3.1E1,2.81E2,8E0,1.3E1,1.8E1,6.9E1,2.12E2,8E0,5E0,1.3E1,5E0,2.6E1,4.3E1,1.74E2,3.8E1,6E0,7E0,1.3E1,1.3E1,1.5E1,2.8E1,6.9E1,1.05E2,1.8E1,2E1,7E0,6E0,7E0,6E0,6E0,9E0,1.5E1,1.3E1,5.6E1,1.3E1,6.7E1,3.8E1,1.1E1,7E0,1.3E1,7E0],"tree_param":{"num_deleted":"0","num_feature":"24","num_nodes":"43","size_leaf_vector":"1"}},{"base_weights":[-4.8319288E-3,-3.715877E-2,2.8828105E-1,-1.0844119E-2,-4.2877786E-2,4.7103676E-1,1.3844626E-1,2.2326204E-1,-5.86154E-2,2.791487E-2,1.3081983E-2,-6.231308E-2,2.9190516E-2,1.1922241E-1,3.6427867E-2,-6.36669E-1,1.0845733E-3,-2.4953447E-2,1.6381873E-2,4.0184698E-1,-2.6347818E-2,-9.004546E-1,2.8611075E-3,-3.0641869E-2,1.8703938E-2,-4.276727E-3,3.4105916E-2,-1.25435935E-2,2.8316064E-2,-2.146121E-2,-5.701352E-2,2.95941E-2,-2.0443884E-4],"categories":[],"categories_nodes":[],"categories_segments":[],"categories_sizes":[],"default_left":[0,0,0,0,0,0,0,0,0,0,0,0,0,0,0,0,0,0,0,0,0,0,0,0,0,0,0,0,0,0,0,0,0],"id":13,"left_children":[1,3,5,7,-1,9,11,13,15,-1,-1,17,-1,19,-1,21,23,-1,-1,25,27,29,-1,-1,31,-1,-1,-1,-1,-1,-1,-1,-1],"loss_changes":[3.052321E0,6.2513533E0,8.1104803E-1,3.166848E0,0E0,1.09737396E-1,1.7351879E0,2.4365346E0,8.11049E0,0E0,0E0,2.5478983E0,0E0,1.6973983E0,0E0,4.078372E0,2.326282E0,0E0,0E0,1.970732E0,3.8679905E0,1.3187046E0,0E0,0E0,2.732855E0,0E0,0E0,0E0,0E0,0E0,0E0,0E0,0E0],"parents":[2147483647,0,0,1,1,2,2,3,3,5,5,6,6,7,7,8,8,11,11,13,13,15,15,16,16,19,19,20,20,21,21,24,24],"right_children":[2,4,6,8,-1,10,12,14,16,-1,-1,18,-1,20,-1,22,24,-1,-1,26,28,30,-1,-1,32,-1,-1,-1,-1,-1,-1,-1,-1],"split_conditions":[7.5816E1,1.176E1,8.41386E1,-8.4E0,-4.2877786E-2,1.062E1,1.147E1,-2.34E0,-7.33E0,2.791487E-2,1.3081983E-2,8.98E0,2.9190516E-2,1.4081146E0,3.6427867E-2,-5.66E0,2.1E0,-2.4953447E-2,1.6381873E-2,2.4165657E-4,2.717116E4,1.677818E4,2.8611075E-3,-3.0641869E-2,2.33E0,-4.276727E-3,3.4105916E-2,-1.25435935E-2,2.8316064E-2,-2.146121E-2,-5.701352E-2,2.95941E-2,-2.0443884E-4],"split_indices":[19,1,19,18,0,1,1,14,18,0,0,2,0,16,0,14,1,0,0,20,3,3,0,0,1,0,0,0,0,0,0,0,0],"split_type":[0,0,0,0,0,0,0,0,0,0,0,0,0,0,0,0,0,0,0,0,0,0,0,0,0,0,0,0,0,0,0,0,0],"sum_hessian":[3.2E2,2.89E2,3.1E1,2.81E2,8E0,1.3E1,1.8E1,4.7E1,2.34E2,8E0,5E0,1.3E1,5E0,4E1,7E0,2.1E1,2.13E2,6E0,7E0,1.3E1,2.7E1,1.5E1,6E0,5E0,2.08E2,5E0,8E0,2E1,7E0,6E0,9E0,7E0,2.01E2],"tree_param":{"num_deleted":"0","num_feature":"24","num_nodes":"33","size_leaf_vector":"1"}},{"base_weights":[-4.515872E-3,-3.0619401E-2,3.3502635E-1,-1.2797183E-2,-3.8611617E-2,3.3847503E-2,1.7452684E-1,-1.8950471E-1,5.9130747E-2,-9.924103E-2,2.8990055E-2,1.2033435E-1,-4.195974E-1,1.1605237E-1,-1.7693959E-1,1.3640474E-2,-2.2737568E-2,2.4370594E-1,-1.4528342E-2,-6.523137E-1,1.7431485E-2,3.1383954E-2,7.9926915E-2,-3.854905E-2,-4.888965E-2,1.5628934E-3,2.5138801E-2,-4.0616807E-2,8.8253105E-3,3.690261E-2,-1.5825178E-2,-3.313574E-2,5.9243743E-3,-3.3167496E-2,4.1811834E-3],"categories":[],"categories_nodes":[],"categories_segments":[],"categories_sizes":[],"default_left":[0,0,0,0,0,0,0,0,0,0,0,0,0,0,0,0,0,0,0,0,0,0,0,0,0,0,0,0,0,0,0,0,0,0,0],"id":14,"left_children":[1,3,5,7,-1,-1,9,11,13,15,-1,17,19,21,23,-1,-1,25,-1,27,29,-1,31,33,-1,-1,-1,-1,-1,-1,-1,-1,-1,-1,-1],"loss_changes":[2.855362E0,3.9420571E0,1.1440613E0,3.7352965E0,0E0,0E0,1.9437084E0,6.1102858E0,2.828973E0,1.5790063E0,0E0,1.9464737E0,4.994855E0,3.073415E0,4.506359E0,0E0,0E0,1.5804137E0,0E0,4.387534E0,4.5651255E0,0E0,4.6317563E0,2.803482E0,0E0,0E0,0E0,0E0,0E0,0E0,0E0,0E0,0E0,0E0,0E0],"parents":[2147483647,0,0,1,1,2,2,3,3,6,6,7,7,8,8,9,9,11,11,12,12,13,13,14,14,17,17,19,19,20,20,22,22,23,23],"right_children":[2,4,6,8,-1,-1,10,12,14,16,-1,18,20,22,24,-1,-1,26,-1,28,30,-1,32,34,-1,-1,-1,-1,-1,-1,-1,-1,-1,-1,-1],"split_conditions":[9.22E0,1.184E1,9.41E0,-4.94E0,-3.8611617E-2,3.3847503E-2,9.89E0,-8.53E0,3.91E0,4.24E0,2.8990055E-2,7.98E0,4.1351726E-4,-1.8921E0,1E0,1.3640474E-2,-2.2737568E-2,6.02E0,-1.4528342E-2,1E0,2.60403E1,3.1383954E-2,3.051576E-1,-5.8E-1,-4.888965E-2,1.5628934E-3,2.5138801E-2,-4.0616807E-2,8.8253105E-3,3.690261E-2,-1.5825178E-2,-3.313574E-2,5.9243743E-3,-3.3167496E-2,4.1811834E-3],"split_indices":[2,1,2,14,0,0,2,18,14,0,0,2,15,19,13,0,0,2,0,8,19,0,16,2,0,0,0,0,0,0,0,0,0,0,0],"split_type":[0,0,0,0,0,0,0,0,0,0,0,0,0,0,0,0,0,0,0,0,0,0,0,0,0,0,0,0,0,0,0,0,0,0,0],"sum_hessian":[3.2E2,2.98E2,2.2E1,2.92E2,6E0,6E0,1.6E1,8.4E1,2.08E2,1E1,6E0,3.6E1,4.8E1,1.68E2,4E1,5E0,5E0,2.8E1,8E0,3.1E1,1.7E1,1E1,1.58E2,3.5E1,5E0,1.6E1,1.2E1,2.6E1,5E0,5E0,1.2E1,7E0,1.51E2,5E0,3E1],"tree_param":{"num_deleted":"0","num_feature":"24","num_nodes":"35","size_leaf_vector":"1"}},{"base_weights":[-4.4680084E-3,-4.9181932E-1,1.27838645E-2,-4.467107E-2,-4.1236603E-4,-4.8167187E-1,3.0811204E-2,-4.562695E-2,1.4736933E-3,6.3701525E-2,-1.9850081E-1,-2.186577E-2,2.0653455E-1,-5.6302285E-1,1.2339907E-1,-8.274267E-2,3.0911535E-1,2.8492048E-1,-4.4645467E-1,-1.7719561E-1,-5.7200458E-2,-1.1786346E-1,2.650918E-2,-2.4428659E-3,-3.622128E-2,2.0616401E-2,-5.182411E-3,1.803457E-2,-7.3379413E-3,-6.2061106E-3,-3.47189E-2,-2.4186224E-2,1.04977E-2,1.2899118E-2,-3.3099413E-2],"categories":[],"categories_nodes":[],"categories_segments":[],"categories_sizes":[],"default_left":[0,0,0,0,0,0,0,0,0,0,0,0,0,0,0,0,0,0,0,0,0,0,0,0,0,0,0,0,0,0,0,0,0,0,0],"id":15,"left_children":[1,3,5,-1,-1,7,9,-1,-1,11,13,15,17,19,21,23,25,27,29,31,-1,33,-1,-1,-1,-1,-1,-1,-1,-1,-1,-1,-1,-1,-1],"loss_changes":[2.705166E0,2.1288705E0,2.7870083E0,0E0,0E0,2.4494908E0,2.2828307E0,0E0,0E0,3.231081E0,4.528381E0,3.3703284E0,5.1945353E0,3.8321729E0,2.1234686E0,3.0304623E0,1.1504002E0,2.9640117E0,7.9286385E-1,1.5256305E0,0E0,3.0338793E0,0E0,0E0,0E0,0E0,0E0,0E0,0E0,0E0,0E0,0E0,0E0,0E0,0E0],"parents":[2147483647,0,0,1,1,2,2,5,5,6,6,9,9,10,10,11,11,12,12,13,13,14,14,15,15,16,16,17,17,18,18,19,19,21,21],"right_children":[2,4,6,-1,-1,8,10,-1,-1,12,14,16,18,20,22,24,26,28,30,32,-1,34,-1,-1,-1,-1,-1,-1,-1,-1,-1,-1,-1,-1,-1],"split_conditions":[-4.56E0,4.39E0,-1.5492308E1,-4.467107E-2,-4.1236603E-4,-6.92E0,1.72E0,-4.562695E-2,1.4736933E-3,-1.83E0,3.07E0,8.87E0,3.571222E4,6.9E0,2.2078361E-4,8.5E0,1E0,4.1351726E-4,1.82E0,1.16194E1,-5.7200458E-2,1.7862149E-4,2.650918E-2,-2.4428659E-3,-3.622128E-2,2.0616401E-2,-5.182411E-3,1.803457E-2,-7.3379413E-3,-6.2061106E-3,-3.47189E-2,-2.4186224E-2,1.04977E-2,1.2899118E-2,-3.3099413E-2],"split_indices":[0,1,16,0,0,18,18,0,0,14,18,2,3,0,15,2,13,15,2,19,0,15,0,0,0,0,0,0,0,0,0,0,0,0,0],"split_type":[0,0,0,0,0,0,0,0,0,0,0,0,0,0,0,0,0,0,0,0,0,0,0,0,0,0,0,0,0,0,0,0,0,0,0],"sum_hessian":[3.2E2,1E1,3.1E2,5E0,5E0,1E1,3E2,5E0,5E0,2.63E2,3.7E1,1.65E2,9.8E1,1.7E1,2E1,1.4E2,2.5E1,8.8E1,1E1,1.1E1,6E0,1.3E1,7E0,1.34E2,6E0,2E1,5E0,7.5E1,1.3E1,5E0,5E0,6E0,5E0,8E0,5E0],"tree_param":{"num_deleted":"0","num_feature":"24","num_nodes":"35","size_leaf_vector":"1"}},{"base_weights":[-4.890327E-3,-3.4512144E-2,2.637102E-1,-1.0297873E-2,-3.9469566E-2,4.3800083E-1,1.21406056E-1,2.0634398E-1,-5.45043E-2,2.6219333E-2,1.17711E-2,-6.799037E-2,2.7154837E-2,1.0903712E-1,3.3962432E-2,-5.7909477E-1,-3.1974987E-4,-2.3154825E-2,1.4311314E-2,1.9292319E-1,-1.6298495E-2,-8.21798E-1,2.9191698E-3,1.0036875E-1,-1.0778228E-1,1.319659E-2,-9.71369E-3,-1.9456899E-2,-5.2124012E-2,-1.8949565E-3,1.947398E-2,-2.7241798E-3,-3.3216294E-2],"categories":[],"categories_nodes":[],"categories_segments":[],"categories_sizes":[],"default_left":[0,0,0,0,0,0,0,0,0,0,0,0,0,0,0,0,0,0,0,0,0,0,0,0,0,0,0,0,0,0,0,0,0],"id":16,"left_children":[1,3,5,7,-1,9,11,13,15,-1,-1,17,-1,19,-1,21,23,-1,-1,25,-1,27,-1,29,31,-1,-1,-1,-1,-1,-1,-1,-1],"loss_changes":[2.5631173E0,5.292737E0,7.4049664E-1,2.71195E0,0E0,1.2154698E-1,1.5543927E0,2.1347458E0,6.679619E0,0E0,0E0,2.0918946E0,0E0,1.5590194E0,0E0,3.4517756E0,2.3263497E0,0E0,0E0,1.0135764E0,0E0,1.1220179E0,0E0,4.4519577E0,3.0487616E0,0E0,0E0,0E0,0E0,0E0,0E0,0E0,0E0],"parents":[2147483647,0,0,1,1,2,2,3,3,5,5,6,6,7,7,8,8,11,11,13,13,15,15,16,16,19,19,21,21,23,23,24,24],"right_children":[2,4,6,8,-1,10,12,14,16,-1,-1,18,-1,20,-1,22,24,-1,-1,26,-1,28,-1,30,32,-1,-1,-1,-1,-1,-1,-1,-1],"split_conditions":[7.5816E1,1.176E1,8.41386E1,-8.4E0,-3.9469566E-2,1.062E1,1.147E1,-2.34E0,-7.33E0,2.6219333E-2,1.17711E-2,8.98E0,2.7154837E-2,3.510274E0,3.3962432E-2,-5.66E0,2.9475897E-4,-2.3154825E-2,1.4311314E-2,6.12128E1,-1.6298495E-2,1.677818E4,2.9191698E-3,1.9495189E-4,1E0,1.319659E-2,-9.71369E-3,-1.9456899E-2,-5.2124012E-2,-1.8949565E-3,1.947398E-2,-2.7241798E-3,-3.3216294E-2],"split_indices":[19,1,19,18,0,1,1,14,18,0,0,2,0,16,0,14,20,0,0,19,0,3,0,20,12,0,0,0,0,0,0,0,0],"split_type":[0,0,0,0,0,0,0,0,0,0,0,0,0,0,0,0,0,0,0,0,0,0,0,0,0,0,0,0,0,0,0,0,0],"sum_hessian":[3.2E2,2.89E2,3.1E1,2.81E2,8E0,1.3E1,1.8E1,4.7E1,2.34E2,8E0,5E0,1.3E1,5E0,4E1,7E0,2.1E1,2.13E2,6E0,7E0,3.4E1,6E0,1.5E1,6E0,1.1E2,1.03E2,2.9E1,5E0,6E0,9E0,7.5E1,3.5E1,9.5E1,8E0],"tree_param":{"num_deleted":"0","num_feature":"24","num_nodes":"33","size_leaf_vector":"1"}},{"base_weights":[-4.7985953E-3,-3.1991407E-2,7.274113E-3,-2.696632E-1,3.619692E-2,-4.8936404E-2,-5.7220716E-2,3.4932795E-1,1.0162786E-2,-3.77461E-2,1.653061E-1,2.66044E-2,1.18196264E-1,4.160015E-2,-3.585874E-1,4.843503E-1,-1.8690197E-2,-9.890858E-3,2.0725517E-2,-2.3512039E-1,8.407761E-2,6.7615323E-3,-5.6513E-1,3.4729745E-2,1.3306153E-2,-2.0170318E-2,2.2378566E-2,7.0839203E-3,-9.321669E-3,-4.1717585E-2,-1.1119404E-3],"categories":[],"categories_nodes":[],"categories_segments":[],"categories_sizes":[],"default_left":[0,0,0,0,0,0,0,0,0,0,0,0,0,0,0,0,0,0,0,0,0,0,0,0,0,0,0,0,0,0,0],"id":17,"left_children":[1,-1,3,5,7,9,-1,11,13,-1,15,-1,17,19,21,23,-1,-1,-1,25,27,-1,29,-1,-1,-1,-1,-1,-1,-1,-1],"loss_changes":[2.4656096E0,0E0,2.5408592E0,5.7364273E0,2.336101E0,3.906097E0,0E0,8.6642504E-1,3.0985312E0,0E0,3.6210504E0,0E0,1.1120286E0,2.9113474E0,2.2183065E0,4.1160655E-1,0E0,0E0,0E0,3.9718385E0,3.360886E0,0E0,2.1738167E0,0E0,0E0,0E0,0E0,0E0,0E0,0E0,0E0],"parents":[2147483647,0,0,2,2,3,3,4,4,5,5,7,7,8,8,10,10,12,12,13,13,14,14,15,15,19,19,20,20,22,22],"right_children":[2,-1,4,6,8,10,-1,12,14,-1,16,-1,18,20,22,24,-1,-1,-1,26,28,-1,30,-1,-1,-1,-1,-1,-1,-1,-1],"split_conditions":[-2.35E1,-3.1991407E-2,-3.3E0,1E0,-2.38E0,9.3399154E-5,-5.7220716E-2,2.114055E4,1E0,-3.77461E-2,3.174322E-4,2.66044E-2,2.549174E4,-6.17E0,1.0622295E3,2.60403E1,-1.8690197E-2,-9.890858E-3,2.0725517E-2,9.22E0,3.91E0,6.7615323E-3,8.86E0,3.4729745E-2,1.3306153E-2,-2.0170318E-2,2.2378566E-2,7.0839203E-3,-9.321669E-3,-4.1717585E-2,-1.1119404E-3],"split_indices":[16,0,0,10,0,20,0,3,6,0,20,0,3,14,17,19,0,0,0,2,14,0,1,0,0,0,0,0,0,0,0],"split_type":[0,0,0,0,0,0,0,0,0,0,0,0,0,0,0,0,0,0,0,0,0,0,0,0,0,0,0,0,0,0,0],"sum_hessian":[3.2E2,5E0,3.15E2,2.9E1,2.86E2,2.4E1,5E0,2.1E1,2.65E2,5E0,1.9E1,1.1E1,1E1,2.45E2,2E1,1.2E1,7E0,5E0,5E0,3.2E1,2.13E2,6E0,1.4E1,5E0,7E0,2.6E1,6E0,1.76E2,3.7E1,9E0,5E0],"tree_param":{"num_deleted":"0","num_feature":"24","num_nodes":"31","size_leaf_vector":"1"}},{"base_weights":[-4.8585776E-3,-3.2831047E-2,2.4879375E-1,-9.952211E-3,-3.730267E-2,4.1799396E-1,1.11025505E-1,1.9112375E-1,-5.09807E-2,2.503558E-2,1.1212593E-2,-6.89541E-2,2.5623683E-2,9.8978564E-2,3.1973872E-2,-5.3668505E-1,-8.1024965E-4,-2.1823509E-2,1.3062087E-2,1.7912915E-1,-1.5795708E-2,-5.1662624E-2,-2.3607008E-1,9.530417E-2,-1.0338612E-1,1.2230375E-2,-8.905871E-3,-3.0883158E-2,2.1963172E-2,-1.7408315E-3,1.8367816E-2,-1.0747574E-3,-2.2312673E-2],"categories":[],"categories_nodes":[],"categories_segments":[],"categories_sizes":[],"default_left":[0,0,0,0,0,0,0,0,0,0,0,0,0,0,0,0,0,0,0,0,0,0,0,0,0,0,0,0,0,0,0,0,0],"id":18,"left_children":[1,3,5,7,-1,9,11,13,15,-1,-1,17,-1,19,-1,21,23,-1,-1,25,-1,-1,27,29,31,-1,-1,-1,-1,-1,-1,-1,-1],"loss_changes":[2.2857535E0,4.7247066E0,6.995256E-1,2.3361993E0,0E0,1.1207676E-1,1.4081343E0,1.9197596E0,5.7260466E0,0E0,0E0,1.8129562E0,0E0,1.4199992E0,0E0,3.0401425E0,2.1196835E0,0E0,0E0,8.6228573E-1,0E0,0E0,4.136856E0,3.94215E0,2.9104924E0,0E0,0E0,0E0,0E0,0E0,0E0,0E0,0E0],"parents":[2147483647,0,0,1,1,2,2,3,3,5,5,6,6,7,7,8,8,11,11,13,13,15,15,16,16,19,19,22,22,23,23,24,24],"right_children":[2,4,6,8,-1,10,12,14,16,-1,-1,18,-1,20,-1,22,24,-1,-1,26,-1,-1,28,30,32,-1,-1,-1,-1,-1,-1,-1,-1],"split_conditions":[7.5816E1,1.176E1,8.41386E1,-8.4E0,-3.730267E-2,1.062E1,1.147E1,-2.34E0,-7.33E0,2.503558E-2,1.1212593E-2,8.98E0,2.5623683E-2,3.510274E0,3.1973872E-2,4.33E0,2.9475897E-4,-2.1823509E-2,1.3062087E-2,6.12128E1,-1.5795708E-2,-5.1662624E-2,4.529322E3,1.9495189E-4,1.833025E4,1.2230375E-2,-8.905871E-3,-3.0883158E-2,2.1963172E-2,-1.7408315E-3,1.8367816E-2,-1.0747574E-3,-2.2312673E-2],"split_indices":[19,1,19,18,0,1,1,14,18,0,0,2,0,16,0,1,20,0,0,19,0,0,17,20,3,0,0,0,0,0,0,0,0],"split_type":[0,0,0,0,0,0,0,0,0,0,0,0,0,0,0,0,0,0,0,0,0,0,0,0,0,0,0,0,0,0,0,0,0],"sum_hessian":[3.2E2,2.89E2,3.1E1,2.81E2,8E0,1.3E1,1.8E1,4.7E1,2.34E2,8E0,5E0,1.3E1,5E0,4E1,7E0,2.1E1,2.13E2,6E0,7E0,3.4E1,6E0,7E0,1.4E1,1.1E2,1.03E2,2.9E1,5E0,9E0,5E0,7.5E1,3.5E1,8.4E1,1.9E1],"tree_param":{"num_deleted":"0","num_feature":"24","num_nodes":"33","size_leaf_vector":"1"}},{"base_weights":[-4.7154375E-3,-2.9875267E-2,6.5549887E-3,-4.3363777E-1,2.235749E-2,-3.8362443E-2,-1.3876851E-3,-2.7902571E-2,3.3852827E-2,1.6797468E-1,-2.4151634E-2,2.6149076E-1,-1.7708193E-1,4.3593855E-3,-3.7408184E-2,-1.6602788E-2,1.6525984E-2,1.60491E-2,-2.6793653E-2,2.791259E-2,-1.2033855E-3],"categories":[],"categories_nodes":[],"categories_segments":[],"categories_sizes":[],"default_left":[0,0,0,0,0,0,0,0,0,0,0,0,0,0,0,0,0,0,0,0,0],"id":19,"left_children":[1,-1,3,5,7,-1,-1,-1,9,11,13,15,17,19,-1,-1,-1,-1,-1,-1,-1],"loss_changes":[2.148516E0,0E0,2.207837E0,1.4681878E0,2.060522E0,0E0,0E0,0E0,2.3457363E0,2.9827242E0,4.358792E0,3.0597267E0,3.7460241E0,3.2255282E0,0E0,0E0,0E0,0E0,0E0,0E0,0E0],"parents":[2147483647,0,0,2,2,3,3,4,4,8,8,9,9,10,10,11,11,12,12,13,13],"right_children":[2,-1,4,6,8,-1,-1,-1,10,12,14,16,18,20,-1,-1,-1,-1,-1,-1,-1],"split_conditions":[-2.35E1,-2.9875267E-2,-4.56E0,4.39E0,2.1E0,-3.8362443E-2,-1.3876851E-3,-2.7902571E-2,-2.879833E4,3.751442E4,2.790138E4,2.83E0,2.32426E1,2.48E0,-3.7408184E-2,-1.6602788E-2,1.6525984E-2,1.60491E-2,-2.6793653E-2,2.791259E-2,-1.2033855E-3],"split_indices":[16,0,0,1,1,0,0,0,22,3,3,1,19,1,0,0,0,0,0,0,0],"split_type":[0,0,0,0,0,0,0,0,0,0,0,0,0,0,0,0,0,0,0,0,0],"sum_hessian":[3.2E2,5E0,3.15E2,1E1,3.05E2,5E0,5E0,5E0,3E2,9E1,2.1E2,7.1E1,1.9E1,2.03E2,7E0,7E0,6.4E1,8E0,1.1E1,9E0,1.94E2],"tree_param":{"num_deleted":"0","num_feature":"24","num_nodes":"21","size_leaf_vector":"1"}},{"base_weights":[-4.850533E-3,-3.1847727E-2,2.3996313E-1,-1.00093E-2,-3.5628993E-2,3.9882958E-1,1.10274E-1,1.8115442E-1,-4.9012914E-2,2.397637E-2,1.0565559E-2,-6.257214E-2,2.4760133E-2,9.299306E-2,3.0516854E-2,-5.0465083E-1,-1.9426006E-3,-2.0780494E-2,1.2707871E-2,3.5000658E-1,-3.8834877E-2,-7.1871454E-1,2.836529E-3,6.1312232E-2,-1.4471574E-1,-4.7882446E-3,3.0414898E-2,-1.2182568E-2,2.5183136E-2,-1.5990324E-2,-4.6303935E-2,-2.2131964E-3,1.1871724E-2,2.7680015E-2,-1.1188701E-2],"categories":[],"categories_nodes":[],"categories_segments":[],"categories_sizes":[],"default_left":[0,0,0,0,0,0,0,0,0,0,0,0,0,0,0,0,0,0,0,0,0,0,0,0,0,0,0,0,0,0,0,0,0,0,0],"id":20,"left_children":[1,3,5,7,-1,9,11,13,15,-1,-1,17,-1,19,-1,21,23,-1,-1,25,27,29,-1,31,33,-1,-1,-1,-1,-1,-1,-1,-1,-1,-1],"loss_changes":[2.1292217E0,4.304042E0,6.153234E-1,2.1114924E0,0E0,1.10523224E-1,1.2951211E0,1.7594346E0,5.0390697E0,0E0,0E0,1.6710751E0,0E0,1.4027363E0,0E0,2.6845431E0,1.9415264E0,0E0,0E0,1.6701987E0,3.2338667E0,1.0273418E0,0E0,2.7810621E0,3.7675872E0,0E0,0E0,0E0,0E0,0E0,0E0,0E0,0E0,0E0,0E0],"parents":[2147483647,0,0,1,1,2,2,3,3,5,5,6,6,7,7,8,8,11,11,13,13,15,15,16,16,19,19,20,20,21,21,23,23,24,24],"right_children":[2,4,6,8,-1,10,12,14,16,-1,-1,18,-1,20,-1,22,24,-1,-1,26,28,30,-1,32,34,-1,-1,-1,-1,-1,-1,-1,-1,-1,-1],"split_conditions":[7.5816E1,1.176E1,8.41386E1,-8.4E0,-3.5628993E-2,1.062E1,1.147E1,-2.34E0,-7.33E0,2.397637E-2,1.0565559E-2,8.98E0,2.4760133E-2,1.4081146E0,3.0516854E-2,-5.66E0,3.32112E1,-2.0780494E-2,1.2707871E-2,2.4165657E-4,2.717116E4,1.677818E4,2.836529E-3,1.66536E1,1.6428482E-4,-4.7882446E-3,3.0414898E-2,-1.2182568E-2,2.5183136E-2,-1.5990324E-2,-4.6303935E-2,-2.2131964E-3,1.1871724E-2,2.7680015E-2,-1.1188701E-2],"split_indices":[19,1,19,18,0,1,1,14,18,0,0,2,0,16,0,14,19,0,0,20,3,3,0,19,20,0,0,0,0,0,0,0,0,0,0],"split_type":[0,0,0,0,0,0,0,0,0,0,0,0,0,0,0,0,0,0,0,0,0,0,0,0,0,0,0,0,0,0,0,0,0,0,0],"sum_hessian":[3.2E2,2.89E2,3.1E1,2.81E2,8E0,1.3E1,1.8E1,4.7E1,2.34E2,8E0,5E0,1.3E1,5E0,4E1,7E0,2.1E1,2.13E2,6E0,7E0,1.3E1,2.7E1,1.5E1,6E0,1.48E2,6.5E1,5E0,8E0,2E1,7E0,6E0,9E0,9.3E1,5.5E1,6E0,5.9E1],"tree_param":{"num_deleted":"0","num_feature":"24","num_nodes":"35","size_leaf_vector":"1"}},{"base_weights":[-4.4477666E-3,-3.875004E-2,1.7374574E-1,-1.049634E-2,-5.493913E-2,4.7612492E-2,5.4848295E-1,7.279694E-3,-2.901197E-2,1.7080478E-1,-1.9784741E-2,3.3917453E-2,1.7013112E-2,2.1503186E-1,-3.3150263E-2,-3.96341E-3,4.624154E-1,1.0674198E-1,3.3096056E-2,-4.4418555E-1,6.4599426E-3,3.7235284E-1,-2.7354548E-2,7.320629E-3,3.336078E-2,2.241156E-2,-3.4225099E-3,-4.661394E-2,-4.08873E-3,3.3406217E-3,-8.440364E-3,2.8656816E-2,2.129134E-3],"categories":[],"categories_nodes":[],"categories_segments":[],"categories_sizes":[],"default_left":[0,0,0,0,0,0,0,0,0,0,0,0,0,0,0,0,0,0,0,0,0,0,0,0,0,0,0,0,0,0,0,0,0],"id":21,"left_children":[1,3,5,7,-1,9,11,13,-1,15,-1,-1,-1,17,19,21,23,25,-1,27,29,31,-1,-1,-1,-1,-1,-1,-1,-1,-1,-1,-1],"loss_changes":[1.9688268E0,8.0749235E0,2.4317603E0,2.6779559E0,0E0,2.2520685E0,1.2071395E-1,2.1657772E0,0E0,1.632689E0,0E0,0E0,0E0,1.9618756E0,3.5196068E0,4.4958525E0,6.789205E-1,2.1245997E0,0E0,3.2846797E0,2.1056855E0,8.3635557E-1,0E0,0E0,0E0,0E0,0E0,0E0,0E0,0E0,0E0,0E0,0E0],"parents":[2147483647,0,0,1,1,2,2,3,3,5,5,6,6,7,7,9,9,13,13,14,14,15,15,16,16,17,17,19,19,20,20,21,21],"right_children":[2,4,6,8,-1,10,12,14,-1,16,-1,-1,-1,18,20,22,24,26,-1,28,30,32,-1,-1,-1,-1,-1,-1,-1,-1,-1,-1,-1],"split_conditions":[6.50385E1,6.12128E1,-2.18E0,1.171E1,-5.493913E-2,-4.43E0,8.58E0,-8.4E0,-2.901197E-2,6.9208455E-4,-1.9784741E-2,3.3917453E-2,1.7013112E-2,-9.01E0,-7.33E0,4.2531744E-4,7.34979E3,1.691664E4,3.3096056E-2,4.33E0,3.32112E1,8.5E0,-2.7354548E-2,7.320629E-3,3.336078E-2,2.241156E-2,-3.4225099E-3,-4.661394E-2,-4.08873E-3,3.3406217E-3,-8.440364E-3,2.8656816E-2,2.129134E-3],"split_indices":[19,19,18,1,0,18,0,18,0,15,0,0,0,18,18,20,3,3,0,1,19,2,0,0,0,0,0,0,0,0,0,0,0],"split_type":[0,0,0,0,0,0,0,0,0,0,0,0,0,0,0,0,0,0,0,0,0,0,0,0,0,0,0,0,0,0,0,0,0],"sum_hessian":[3.2E2,2.69E2,5.1E1,2.63E2,6E0,3.9E1,1.2E1,2.56E2,7E0,3.1E1,8E0,6E0,6E0,4.1E1,2.15E2,2E1,1.1E1,3.4E1,7E0,1.8E1,1.97E2,1.2E1,8E0,5E0,6E0,1.1E1,2.3E1,7E0,1.1E1,1.47E2,5E1,7E0,5E0],"tree_param":{"num_deleted":"0","num_feature":"24","num_nodes":"33","size_leaf_vector":"1"}},{"base_weights":[-4.2640357E-3,-4.1623098E-1,1.03208525E-2,-4.0801834E-2,2.6473303E-3,-3.3114192E-1,2.8743433E-2,-2.9019537E-4,-4.4125658E-2,4.802601E-2,-4.7521663E-1,-1.943878E-2,1.941218E-2,2.63061E-1,-2.4209077E-2,-4.1930117E-2,-1.6314107E-3,-1.4340778E-2,3.461674E-1,1.5504775E-2,-3.013094E-1,2.1244874E-2,5.337458E-4,-3.989133E-3,1.0142982E-2,-2.8494952E-2,1.4959596E-2],"categories":[],"categories_nodes":[],"categories_segments":[],"categories_sizes":[],"default_left":[0,0,0,0,0,0,0,0,0,0,0,0,0,0,0,0,0,0,0,0,0,0,0,0,0,0,0],"id":22,"left_children":[1,3,5,-1,-1,7,9,11,-1,13,15,-1,-1,17,19,-1,-1,-1,21,23,25,-1,-1,-1,-1,-1,-1],"loss_changes":[1.9330217E0,2.1065855E0,1.9659027E0,0E0,0E0,2.9184978E0,2.8992472E0,1.8112764E0,0E0,4.4488263E0,1.7417712E0,0E0,0E0,3.3895612E0,2.3706868E0,0E0,0E0,0E0,1.6595054E0,3.3903193E0,4.5252957E0,0E0,0E0,0E0,0E0,0E0,0E0],"parents":[2147483647,0,0,1,1,2,2,5,5,6,6,7,7,9,9,10,10,13,13,14,14,18,18,19,19,20,20],"right_children":[2,4,6,-1,-1,8,10,12,-1,14,16,-1,-1,18,20,-1,-1,-1,22,24,26,-1,-1,-1,-1,-1,-1],"split_conditions":[-1.5492308E1,-6.92E0,9.078672E-5,-4.0801834E-2,2.6473303E-3,8.125777E-5,3.814622E4,3.615394E4,-4.4125658E-2,-2.879833E4,3.80835E1,-1.943878E-2,1.941218E-2,-8.52E0,1.72E0,-4.1930117E-2,-1.6314107E-3,-1.4340778E-2,3.6180904E0,-1.83E0,3.88E0,2.1244874E-2,5.337458E-4,-3.989133E-3,1.0142982E-2,-2.8494952E-2,1.4959596E-2],"split_indices":[16,18,20,0,0,20,3,3,0,22,19,0,0,14,18,0,0,0,16,14,18,0,0,0,0,0,0],"split_type":[0,0,0,0,0,0,0,0,0,0,0,0,0,0,0,0,0,0,0,0,0,0,0,0,0,0,0],"sum_hessian":[3.2E2,1E1,3.1E2,5E0,5E0,1.5E1,2.95E2,1E1,5E0,2.85E2,1E1,5E0,5E0,7.1E1,2.14E2,5E0,5E0,9E0,6.2E1,1.88E2,2.6E1,5E1,1.2E1,1.25E2,6.3E1,1.8E1,8E0],"tree_param":{"num_deleted":"0","num_feature":"24","num_nodes":"27","size_leaf_vector":"1"}},{"base_weights":[-4.4427724E-3,-2.7495692E-2,5.928332E-3,-3.1734434E-1,2.3092566E-2,-2.7810578E-4,-4.2287085E-2,1.6484982E-1,-3.1635422E-2,-1.8628832E-2,1.8603338E-2,3.0782095E-1,-1.3208604E-1,1.1043223E-2,-3.615563E-1,-7.056619E-2,4.8427054E-1,1.3017746E-2,-3.0208015E-1,-5.1530086E-2,3.0702144E-1,-5.2907807E-1,1.28554525E-2,1.1657726E-2,-3.1226903E-2,2.9806072E-2,1.3278387E-2,1.5954197E-3,-3.196298E-2,-1.2161089E-3,-3.2331474E-2,-1.1005639E-2,2.1391997E-2,-9.975215E-3,-4.9925037E-2],"categories":[],"categories_nodes":[],"categories_segments":[],"categories_sizes":[],"default_left":[0,0,0,0,0,0,0,0,0,0,0,0,0,0,0,0,0,0,0,0,0,0,0,0,0,0,0,0,0,0,0,0,0,0,0],"id":23,"left_children":[1,-1,3,5,7,9,-1,11,13,-1,-1,15,17,19,21,23,25,-1,27,29,31,33,-1,-1,-1,-1,-1,-1,-1,-1,-1,-1,-1,-1,-1],"loss_changes":[1.8192011E0,0E0,1.7607262E0,2.6803563E0,2.3404E0,1.6634814E0,0E0,3.606732E0,3.073558E0,0E0,0E0,3.83985E0,1.9466023E0,3.6087658E0,2.7270286E0,3.3424158E0,7.957115E-1,0E0,2.2726789E0,2.5910892E0,2.2595503E0,2.8949828E0,0E0,0E0,0E0,0E0,0E0,0E0,0E0,0E0,0E0,0E0,0E0,0E0,0E0],"parents":[2147483647,0,0,2,2,3,3,4,4,5,5,7,7,8,8,11,11,12,12,13,13,14,14,15,15,16,16,18,18,19,19,20,20,21,21],"right_children":[2,-1,4,6,8,10,-1,12,14,-1,-1,16,18,20,22,24,26,-1,28,30,32,34,-1,-1,-1,-1,-1,-1,-1,-1,-1,-1,-1,-1,-1],"split_conditions":[-2.35E1,-2.7495692E-2,9.078672E-5,8.125777E-5,-2.879833E4,3.615394E4,-4.2287085E-2,3.589107E4,3.91E0,-1.8628832E-2,1.8603338E-2,8.7E-1,1.51636E1,4.1E-1,8.1806636E-4,-1.41E0,8.51E0,1.3017746E-2,-2.98E0,1.72E0,2.3562816E-4,4.18728E-4,1.28554525E-2,1.1657726E-2,-3.1226903E-2,2.9806072E-2,1.3278387E-2,1.5954197E-3,-3.196298E-2,-1.2161089E-3,-3.2331474E-2,-1.1005639E-2,2.1391997E-2,-9.975215E-3,-4.9925037E-2],"split_indices":[16,0,20,20,22,3,0,3,14,0,0,0,19,14,20,0,1,0,14,18,20,20,0,0,0,0,0,0,0,0,0,0,0,0,0],"split_type":[0,0,0,0,0,0,0,0,0,0,0,0,0,0,0,0,0,0,0,0,0,0,0,0,0,0,0,0,0,0,0,0,0,0,0],"sum_hessian":[3.2E2,5E0,3.15E2,1.5E1,3E2,1E1,5E0,8.3E1,2.17E2,5E0,5E0,5.6E1,2.7E1,1.93E2,2.4E1,1.8E1,3.8E1,8E0,1.9E1,1.6E2,3.3E1,1.9E1,5E0,1.2E1,6E0,2.4E1,1.4E1,1E1,9E0,1.54E2,6E0,6E0,2.7E1,1.2E1,7E0],"tree_param":{"num_deleted":"0","num_feature":"24","num_nodes":"35","size_leaf_vector":"1"}},{"base_weights":[-4.6376083E-3,-2.923262E-2,2.1839961E-1,-8.974199E-3,-3.303742E-2,-1.2480266E-3,2.875389E-1,1.6890088E-1,-4.5267943E-2,9.334547E-2,2.4506813E-2,8.665633E-2,2.8464576E-2,-3.2357582E-1,1.5217622E-2,1.67831E-2,-3.9285296E-3,3.312435E-1,-3.8732115E-2,-4.573917E-1,1.51157845E-2,3.6814388E-2,-7.754009E-3,-4.306531E-3,2.8634403E-2,-1.1467968E-2,2.3325294E-2,-4.8247516E-2,-1.2229244E-2,1.3557364E-3,-2.8722927E-2],"categories":[],"categories_nodes":[],"categories_segments":[],"categories_sizes":[],"default_left":[0,0,0,0,0,0,0,0,0,0,0,0,0,0,0,0,0,0,0,0,0,0,0,0,0,0,0,0,0,0,0],"id":24,"left_children":[1,3,5,7,-1,-1,9,11,13,15,-1,17,-1,19,21,-1,-1,23,25,27,-1,-1,29,-1,-1,-1,-1,-1,-1,-1,-1],"loss_changes":[1.7672629E0,3.7041886E0,5.456008E-1,1.8281678E0,0E0,0E0,9.3782496E-1,1.5313047E0,3.9608226E0,6.0958654E-1,0E0,1.2702343E0,0E0,3.655954E0,3.2191556E0,0E0,0E0,1.460144E0,2.803737E0,3.5444055E0,0E0,0E0,3.750268E0,0E0,0E0,0E0,0E0,0E0,0E0,0E0,0E0],"parents":[2147483647,0,0,1,1,2,2,3,3,6,6,7,7,8,8,9,9,11,11,13,13,14,14,17,17,18,18,19,19,22,22],"right_children":[2,4,6,8,-1,-1,10,12,14,16,-1,18,-1,20,22,-1,-1,24,26,28,-1,-1,30,-1,-1,-1,-1,-1,-1,-1,-1],"split_conditions":[7.5816E1,1.176E1,2.45964E-4,-8.4E0,-3.303742E-2,-1.2480266E-3,-5.76E0,-2.34E0,-6.63E0,-1.112E1,2.4506813E-2,1.4081146E0,2.8464576E-2,3.9615386E0,-6.2E0,1.67831E-2,-3.9285296E-3,2.4165657E-4,2.717116E4,1.0186E1,1.51157845E-2,3.6814388E-2,1E0,-4.306531E-3,2.8634403E-2,-1.1467968E-2,2.3325294E-2,-4.8247516E-2,-1.2229244E-2,1.3557364E-3,-2.8722927E-2],"split_indices":[19,1,15,18,0,0,18,14,18,14,0,16,0,16,18,0,0,20,3,19,0,0,6,0,0,0,0,0,0,0,0],"split_type":[0,0,0,0,0,0,0,0,0,0,0,0,0,0,0,0,0,0,0,0,0,0,0,0,0,0,0,0,0,0,0],"sum_hessian":[3.2E2,2.89E2,3.1E1,2.81E2,8E0,7E0,2.4E1,4.7E1,2.34E2,1.3E1,1.1E1,4E1,7E0,4.1E1,1.93E2,5E0,8E0,1.3E1,2.7E1,3.4E1,7E0,5E0,1.88E2,5E0,8E0,2E1,7E0,9E0,2.5E1,1.78E2,1E1],"tree_param":{"num_deleted":"0","num_feature":"24","num_nodes":"31","size_leaf_vector":"1"}},{"base_weights":[-4.306627E-3,2.0934142E-2,-2.0471087E-1,-3.844368E-3,3.18451E-1,2.9999085E-2,-6.7663074E-1,-4.6301905E-2,1.9407149E-1,-9.16643E-3,2.8241837E-2,-3.329009E-2,2.8476787E-1,-6.2169816E-2,-4.7085066E-3,-1.3490194E-2,-5.1905043E-2,5.427388E-2,5.555211E-1,4.9859187E-1,-1.3080806E-2,2.5146445E-2,-3.3479817E-2,-1.6346833E-1,5.442085E-1,3.2335915E-2,1.70669E-2,3.4107998E-2,1.087862E-2,-3.959189E-2,-5.3378515E-4,-1.8762821E-2,2.1736884E-2,3.2711383E-2,1.7174402E-2],"categories":[],"categories_nodes":[],"categories_segments":[],"categories_sizes":[],"default_left":[0,0,0,0,0,0,0,0,0,0,0,0,0,0,0,0,0,0,0,0,0,0,0,0,0,0,0,0,0,0,0,0,0,0,0],"id":25,"left_children":[1,3,5,7,9,11,13,15,17,-1,-1,-1,19,-1,-1,21,-1,23,25,27,-1,-1,29,31,33,-1,-1,-1,-1,-1,-1,-1,-1,-1,-1],"loss_changes":[1.6280181E0,2.1096232E0,4.007813E0,2.2357862E0,2.82344E0,4.6213074E0,3.8443317E0,7.11283E0,2.3447495E0,0E0,0E0,0E0,2.3502097E0,0E0,0E0,2.2156422E0,0E0,3.822742E0,3.317833E-2,5.7378745E-1,0E0,0E0,3.5540452E0,3.3304605E0,1.8194199E-2,0E0,0E0,0E0,0E0,0E0,0E0,0E0,0E0,0E0,0E0],"parents":[2147483647,0,0,1,1,2,2,3,3,4,4,5,5,6,6,7,7,8,8,12,12,15,15,17,17,18,18,19,19,22,22,23,23,24,24],"right_children":[2,4,6,8,10,12,14,16,18,-1,-1,-1,20,-1,-1,22,-1,24,26,28,-1,-1,30,32,34,-1,-1,-1,-1,-1,-1,-1,-1,-1,-1],"split_conditions":[1E0,6.4207315E0,4.27E0,6.50385E1,3.6156E0,-1.117E1,8.6E0,6.12128E1,6.9208455E-4,-9.16643E-3,2.8241837E-2,-3.329009E-2,2.740894E4,-6.2169816E-2,-4.7085066E-3,-3.550393E-5,-5.1905043E-2,-2.18E0,-5.69E0,1.7264326E0,-1.3080806E-2,2.5146445E-2,-2.8944787E-5,1.147E1,6.98025E1,3.2335915E-2,1.70669E-2,3.4107998E-2,1.087862E-2,-3.959189E-2,-5.3378515E-4,-1.8762821E-2,2.1736884E-2,3.2711383E-2,1.7174402E-2],"split_indices":[13,16,0,19,19,18,1,19,15,0,0,0,3,0,0,15,0,18,18,16,0,0,15,1,19,0,0,0,0,0,0,0,0,0,0],"split_type":[0,0,0,0,0,0,0,0,0,0,0,0,0,0,0,0,0,0,0,0,0,0,0,0,0,0,0,0,0,0,0,0,0,0,0],"sum_hessian":[3.2E2,2.85E2,3.5E1,2.64E2,2.1E1,2.4E1,1.1E1,2.18E2,4.6E1,7E0,1.4E1,6E0,1.8E1,5E0,6E0,2.12E2,6E0,3.4E1,1.2E1,1.3E1,5E0,7E0,2.05E2,2.4E1,1E1,7E0,5E0,7E0,6E0,5E0,2E2,1.8E1,6E0,5E0,5E0],"tree_param":{"num_deleted":"0","num_feature":"24","num_nodes":"35","size_leaf_vector":"1"}},{"base_weights":[-4.134311E-3,-2.5411343E-2,5.450151E-3,-2.531588E-2,1.5305959E-2,2.6554188E-2,1.6825108E-3,-3.684151E-1,2.0819688E-2,7.676585E-3,-3.6671933E-2,1.8148415E-1,-4.125003E-2,1.5652088E-2,-5.442544E-3,-3.9551098E-2,-9.552133E-4],"categories":[],"categories_nodes":[],"categories_segments":[],"categories_sizes":[],"default_left":[0,0,0,0,0,0,0,0,0,0,0,0,0,0,0,0,0],"id":26,"left_children":[1,-1,3,-1,5,-1,7,9,11,-1,-1,13,15,-1,-1,-1,-1],"loss_changes":[1.5536673E0,0E0,1.6016172E0,0E0,2.1844015E0,0E0,2.1607878E0,2.9704492E0,2.8994815E0,0E0,0E0,3.127933E0,3.4717853E0,0E0,0E0,0E0,0E0],"parents":[2147483647,0,0,2,2,4,4,6,6,7,7,8,8,11,11,12,12],"right_children":[2,-1,4,-1,6,-1,8,10,12,-1,-1,14,16,-1,-1,-1,-1],"split_conditions":[-2.35E1,-2.5411343E-2,2.1E0,-2.531588E-2,2.33E0,2.6554188E-2,9.3399154E-5,8.125777E-5,-2.879833E4,7.676585E-3,-3.6671933E-2,3.589107E4,-2.8165896E4,1.5652088E-2,-5.442544E-3,-3.9551098E-2,-9.552133E-4],"split_indices":[16,0,1,0,1,0,20,20,22,0,0,3,17,0,0,0,0],"split_type":[0,0,0,0,0,0,0,0,0,0,0,0,0,0,0,0,0],"sum_hessian":[3.2E2,5E0,3.15E2,5E0,3.1E2,7E0,3.03E2,1.4E1,2.89E2,6E0,8E0,8E1,2.09E2,5.5E1,2.5E1,5E0,2.04E2],"tree_param":{"num_deleted":"0","num_feature":"24","num_nodes":"17","size_leaf_vector":"1"}},{"base_weights":[-4.187611E-3,-2.691614E-2,2.0192055E-1,-8.138332E-3,-3.0614838E-2,2.5587988E-1,-3.7274936E-3,-1.2395842E-1,4.0791444E-2,-5.306486E-4,3.4968302E-1,-2.5540444E-1,1.2115794E-1,9.223974E-2,-1.7961423E-1,2.1864864E-1,2.2942627E-2,-4.6184853E-1,5.190247E-2,3.0958876E-2,-5.7334006E-2,1.33744E-1,-2.4722454E-1,-4.273528E-2,3.9689676E-4,-1.5171773E-3,2.155997E-2,-4.0095714E-3,-3.24516E-2,-1.3118818E-2,1.5691912E-2,8.461863E-3,-2.5165489E-2,3.5568518E-3,2.5001785E-2,1.0522493E-2,-3.1720456E-2,-7.2832606E-3,2.1926682E-2],"categories":[],"categories_nodes":[],"categories_segments":[],"categories_sizes":[],"default_left":[0,0,0,0,0,0,0,0,0,0,0,0,0,0,0,0,0,0,0,0,0,0,0,0,0,0,0,0,0,0,0,0,0,0,0,0,0,0,0],"id":27,"left_children":[1,3,5,7,-1,9,-1,11,13,-1,15,17,19,21,23,25,-1,27,29,-1,31,33,35,-1,37,-1,-1,-1,-1,-1,-1,-1,-1,-1,-1,-1,-1,-1,-1],"loss_changes":[1.5091708E0,3.1827447E0,4.9645674E-1,1.6031647E0,0E0,6.786535E-1,0E0,2.7373884E0,2.2731276E0,0E0,1.8577194E-1,3.5132642E0,2.7022743E0,2.315517E0,4.6182494E0,5.952424E-1,0E0,2.30547E0,1.9757234E0,0E0,2.4092205E0,3.2896287E0,3.3231912E0,0E0,2.0477295E0,0E0,0E0,0E0,0E0,0E0,0E0,0E0,0E0,0E0,0E0,0E0,0E0,0E0,0E0],"parents":[2147483647,0,0,1,1,2,2,3,3,5,5,7,7,8,8,10,10,11,11,12,12,13,13,14,14,15,15,17,17,18,18,20,20,21,21,22,22,24,24],"right_children":[2,4,6,8,-1,10,-1,12,14,-1,16,18,20,22,24,26,-1,28,30,-1,32,34,36,-1,38,-1,-1,-1,-1,-1,-1,-1,-1,-1,-1,-1,-1,-1,-1],"split_conditions":[7.5816E1,1.176E1,1.7E-1,-4.94E0,-3.0614838E-2,-1.064E1,-3.7274936E-3,4.1351726E-4,1.72E0,-5.306486E-4,-5.76E0,3.022623E4,2.60403E1,3.571222E4,1.93E0,1.142E1,2.2942627E-2,-9.01E0,-8.61E0,3.0958876E-2,-2E-2,3.157551E4,1.20428E1,-4.273528E-2,2.7695633E-4,-1.5171773E-3,2.155997E-2,-4.0095714E-3,-3.24516E-2,-1.3118818E-2,1.5691912E-2,8.461863E-3,-2.5165489E-2,3.5568518E-3,2.5001785E-2,1.0522493E-2,-3.1720456E-2,-7.2832606E-3,2.1926682E-2],"split_indices":[19,1,14,14,0,14,0,15,18,0,18,3,19,3,18,1,0,18,14,0,0,3,19,0,15,0,0,0,0,0,0,0,0,0,0,0,0,0,0],"split_type":[0,0,0,0,0,0,0,0,0,0,0,0,0,0,0,0,0,0,0,0,0,0,0,0,0,0,0,0,0,0,0,0,0,0,0,0,0,0,0],"sum_hessian":[3.2E2,2.89E2,3.1E1,2.81E2,8E0,2.6E1,5E0,8.3E1,1.98E2,7E0,1.9E1,5.4E1,2.9E1,1.61E2,3.7E1,1E1,9E0,3.2E1,2.2E1,7E0,2.2E1,1.44E2,1.7E1,7E0,3E1,5E0,5E0,1.1E1,2.1E1,1E1,1.2E1,1.5E1,7E0,1.24E2,2E1,8E0,9E0,2.3E1,7E0],"tree_param":{"num_deleted":"0","num_feature":"24","num_nodes":"39","size_leaf_vector":"1"}},{"base_weights":[-4.0787035E-3,2.0134574E-2,-1.9632643E-1,-2.8333813E-3,2.9587883E-1,2.6670152E-2,-6.4454216E-1,2.3932468E-2,-1.7752096E-2,-8.930754E-3,2.6460847E-2,-3.141881E-2,2.6659933E-1,-5.891627E-2,-4.7468054E-3,-3.6939874E-2,-5.8203825E-4,4.7285646E-1,-1.2955027E-2,-1.0543959E-1,9.332459E-2,3.2345023E-2,1.0319904E-2,7.1870786E-4,-1.6016204E-2,6.4902278E-3,-1.860037E-2],"categories":[],"categories_nodes":[],"categories_segments":[],"categories_sizes":[],"default_left":[0,0,0,0,0,0,0,0,0,0,0,0,0,0,0,0,0,0,0,0,0,0,0,0,0,0,0],"id":28,"left_children":[1,3,5,7,9,11,13,-1,15,-1,-1,-1,17,-1,-1,-1,19,21,-1,23,25,-1,-1,-1,-1,-1,-1],"loss_changes":[1.4981911E0,1.8121567E0,3.6154103E0,1.9120194E0,2.5303116E0,4.0966434E0,3.4085813E0,0E0,3.193711E0,0E0,0E0,0E0,2.1826746E0,0E0,0E0,0E0,2.501085E0,5.157378E-1,0E0,3.0941381E0,2.3229775E0,0E0,0E0,0E0,0E0,0E0,0E0],"parents":[2147483647,0,0,1,1,2,2,3,3,4,4,5,5,6,6,8,8,12,12,16,16,17,17,19,19,20,20],"right_children":[2,4,6,8,10,12,14,-1,16,-1,-1,-1,18,-1,-1,-1,20,22,-1,24,26,-1,-1,-1,-1,-1,-1],"split_conditions":[1E0,6.4207315E0,4.27E0,-3.550393E-5,3.6156E0,-1.117E1,8.6E0,2.3932468E-2,-2.8944787E-5,-8.930754E-3,2.6460847E-2,-3.141881E-2,2.740894E4,-5.891627E-2,-4.7468054E-3,-3.6939874E-2,2.09E0,1.7264326E0,-1.2955027E-2,-1.6E-1,3.785945E4,3.2345023E-2,1.0319904E-2,7.1870786E-4,-1.6016204E-2,6.4902278E-3,-1.860037E-2],"split_indices":[13,16,0,15,19,18,1,0,15,0,0,0,3,0,0,0,0,16,0,0,3,0,0,0,0,0,0],"split_type":[0,0,0,0,0,0,0,0,0,0,0,0,0,0,0,0,0,0,0,0,0,0,0,0,0,0,0],"sum_hessian":[3.2E2,2.85E2,3.5E1,2.64E2,2.1E1,2.4E1,1.1E1,7E0,2.57E2,7E0,1.4E1,6E0,1.8E1,5E0,6E0,5E0,2.52E2,1.3E1,5E0,1.19E2,1.33E2,7E0,6E0,7.7E1,4.2E1,1.24E2,9E0],"tree_param":{"num_deleted":"0","num_feature":"24","num_nodes":"27","size_leaf_vector":"1"}},{"base_weights":[-4.149715E-3,-1.4037561E-2,2.206981E-2,-2.7050213E-3,-2.5614142E-2,-2.3878E-2,6.676015E-3,-2.3818107E-2,1.634676E-2,2.4895022E-2,3.0975274E-3,-1.6287511E-2,1.2944766E-3],"categories":[],"categories_nodes":[],"categories_segments":[],"categories_sizes":[],"default_left":[0,0,0,0,0,0,0,0,0,0,0,0,0],"id":29,"left_children":[1,3,-1,5,-1,-1,7,-1,9,-1,11,-1,-1],"loss_changes":[1.4203582E0,1.7772255E0,0E0,1.3796695E0,0E0,0E0,1.4278738E0,0E0,1.9061426E0,0E0,2.1970024E0,0E0,0E0],"parents":[2147483647,0,0,1,1,3,3,6,6,8,8,10,10],"right_children":[2,4,-1,6,-1,-1,8,-1,10,-1,12,-1,-1],"split_conditions":[9.89E0,1.184E1,2.206981E-2,-4.74E0,-2.5614142E-2,-2.3878E-2,2.1E0,-2.3818107E-2,2.33E0,2.4895022E-2,2.89E0,-1.6287511E-2,1.2944766E-3],"split_indices":[2,1,0,0,0,0,1,0,1,0,1,0,0],"split_type":[0,0,0,0,0,0,0,0,0,0,0,0,0],"sum_hessian":[3.2E2,3.14E2,6E0,3.08E2,6E0,5E0,3.03E2,5E0,2.98E2,7E0,2.91E2,1.8E1,2.73E2],"tree_param":{"num_deleted":"0","num_feature":"24","num_nodes":"13","size_leaf_vector":"1"}},{"base_weights":[-4.071006E-3,1.9112479E-2,-1.8813783E-1,-2.671867E-3,2.8064606E-1,2.6108842E-2,-6.188069E-1,-4.0959734E-2,1.7579016E-1,-8.596666E-3,2.51656E-2,-2.975576E-2,2.536067E-1,-5.6515366E-2,-4.598849E-3,-1.0235168E-2,-4.8500653E-2,4.3884356E-2,5.1739883E-1,4.510591E-1,-1.2469169E-2,2.282879E-2,-2.8314063E-2,-1.5840632E-1,4.9964643E-1,3.0544197E-2,1.5325944E-2,3.0873297E-2,9.822145E-3,-3.5280567E-2,-3.9776834E-4,-1.7932847E-2,2.0388028E-2,3.059854E-2,1.5202383E-2],"categories":[],"categories_nodes":[],"categories_segments":[],"categories_sizes":[],"default_left":[0,0,0,0,0,0,0,0,0,0,0,0,0,0,0,0,0,0,0,0,0,0,0,0,0,0,0,0,0,0,0,0,0,0,0],"id":30,"left_children":[1,3,5,7,9,11,13,15,17,-1,-1,-1,19,-1,-1,21,-1,23,25,27,-1,-1,29,31,33,-1,-1,-1,-1,-1,-1,-1,-1,-1,-1],"loss_changes":[1.3734025E0,1.6301885E0,3.3378549E0,1.8179269E0,2.3035645E0,3.684104E0,3.1297226E0,6.241375E0,2.0951223E0,0E0,0E0,0E0,1.9995022E0,0E0,0E0,1.8105252E0,0E0,3.3060217E0,6.9036245E-2,4.718814E-1,0E0,0E0,2.8348975E0,2.980628E0,5.5607557E-2,0E0,0E0,0E0,0E0,0E0,0E0,0E0,0E0,0E0,0E0],"parents":[2147483647,0,0,1,1,2,2,3,3,4,4,5,5,6,6,7,7,8,8,12,12,15,15,17,17,18,18,19,19,22,22,23,23,24,24],"right_children":[2,4,6,8,10,12,14,16,18,-1,-1,-1,20,-1,-1,22,-1,24,26,28,-1,-1,30,32,34,-1,-1,-1,-1,-1,-1,-1,-1,-1,-1],"split_conditions":[1E0,6.4207315E0,4.27E0,6.50385E1,3.6156E0,-1.117E1,8.6E0,6.12128E1,6.9208455E-4,-8.596666E-3,2.51656E-2,-2.975576E-2,2.740894E4,-5.6515366E-2,-4.598849E-3,-3.550393E-5,-4.8500653E-2,-2.18E0,-5.69E0,1.7264326E0,-1.2469169E-2,2.282879E-2,-2.8944787E-5,1.147E1,6.98025E1,3.0544197E-2,1.5325944E-2,3.0873297E-2,9.822145E-3,-3.5280567E-2,-3.9776834E-4,-1.7932847E-2,2.0388028E-2,3.059854E-2,1.5202383E-2],"split_indices":[13,16,0,19,19,18,1,19,15,0,0,0,3,0,0,15,0,18,18,16,0,0,15,1,19,0,0,0,0,0,0,0,0,0,0],"split_type":[0,0,0,0,0,0,0,0,0,0,0,0,0,0,0,0,0,0,0,0,0,0,0,0,0,0,0,0,0,0,0,0,0,0,0],"sum_hessian":[3.2E2,2.85E2,3.5E1,2.64E2,2.1E1,2.4E1,1.1E1,2.18E2,4.6E1,7E0,1.4E1,6E0,1.8E1,5E0,6E0,2.12E2,6E0,3.4E1,1.2E1,1.3E1,5E0,7E0,2.05E2,2.4E1,1E1,7E0,5E0,7E0,6E0,5E0,2E2,1.8E1,6E0,5E0,5E0],"tree_param":{"num_deleted":"0","num_feature":"24","num_nodes":"35","size_leaf_vector":"1"}},{"base_weights":[-3.908884E-3,-2.3127012E-2,4.811676E-3,2.0995695E-2,-2.6429018E-1,-4.193859E-2,1.1392331E-1,-5.071223E-1,1.529472E-2,-9.314048E-2,1.5708326E-1,1.6001154E-1,-3.6150554E-1,-1.2153443E-2,-3.4936484E-2,-4.9217403E-2,-3.708189E-2,1.1991899E-2,2.738154E-2,2.554304E-1,-1.574267E-2,-2.161394E-2,-1.1524067E-2,-4.117558E-3,2.8421069E-2,-1.6768625E-2,1.9165574E-2,3.2413345E-2,8.698186E-3,-3.73506E-2,5.5033783E-3],"categories":[],"categories_nodes":[],"categories_segments":[],"categories_sizes":[],"default_left":[0,0,0,0,0,0,0,0,0,0,0,0,0,0,0,0,0,0,0,0,0,0,0,0,0,0,0,0,0,0,0],"id":31,"left_children":[1,-1,3,5,7,9,11,13,-1,15,17,19,21,-1,-1,23,-1,25,-1,27,29,-1,-1,-1,-1,-1,-1,-1,-1,-1,-1],"loss_changes":[1.2860723E0,0E0,1.3817762E0,1.7534297E0,2.64739E0,1.8386934E0,2.709158E0,4.8789024E-1,0E0,4.0367107E0,2.0900404E0,1.8655207E0,2.3709536E-3,0E0,0E0,2.8095436E0,0E0,3.7400815E0,0E0,2.1914473E0,3.7622683E0,0E0,0E0,0E0,0E0,0E0,0E0,0E0,0E0,0E0,0E0],"parents":[2147483647,0,0,2,2,3,3,4,4,5,5,6,6,7,7,9,9,10,10,11,11,12,12,15,15,17,17,19,19,20,20],"right_children":[2,-1,4,6,8,10,12,14,-1,16,18,20,22,-1,-1,24,-1,26,-1,28,30,-1,-1,-1,-1,-1,-1,-1,-1,-1,-1],"split_conditions":[-2.35E1,-2.3127012E-2,6.21E0,-1.83E0,2.2733754E4,9.48E0,1E0,2.192399E0,1.529472E-2,2.8106797E0,-3.67E0,-9.9E-1,4.5E0,-1.2153443E-2,-3.4936484E-2,1.0425807E4,-3.708189E-2,2.428674E4,2.738154E-2,-1.07E0,4.74E0,-2.161394E-2,-1.1524067E-2,-4.117558E-3,2.8421069E-2,-1.6768625E-2,1.9165574E-2,3.2413345E-2,8.698186E-3,-3.73506E-2,5.5033783E-3],"split_indices":[16,0,14,14,17,1,6,16,0,16,14,18,0,0,0,17,0,3,0,14,0,0,0,0,0,0,0,0,0,0,0],"split_type":[0,0,0,0,0,0,0,0,0,0,0,0,0,0,0,0,0,0,0,0,0,0,0,0,0,0,0,0,0,0,0],"sum_hessian":[3.2E2,5E0,3.15E2,2.98E2,1.7E1,1.78E2,1.2E2,1.2E1,5E0,1.42E2,3.6E1,1.1E2,1E1,6E0,6E0,1.34E2,8E0,2.7E1,9E0,7.1E1,3.9E1,5E0,5E0,1.28E2,6E0,1.4E1,1.3E1,1.1E1,6E1,5E0,3.4E1],"tree_param":{"num_deleted":"0","num_feature":"24","num_nodes":"31","size_leaf_vector":"1"}},{"base_weights":[-3.905951E-3,-2.326007E-2,2.0770039E-1,-1.4355484E-1,2.372456E-2,-1.4412099E-1,4.2313185E-1,-2.1326803E-1,2.8668717E-1,4.1842476E-1,-6.1459295E-3,1.6767288E-2,-2.997838E-2,2.7353143E-2,1.2609308E-2,-3.7101606E-1,1.9946413E-2,3.5206322E-3,2.1555502E-2,2.8286165E-2,5.159487E-3,2.1470033E-2,-4.0291816E-1,-1.9370006E-1,-8.6923534E-1,1.6964959E-1,-2.0647176E-2,-2.3352953E-2,4.5913003E-2,5.223207E-3,-4.263704E-2,-2.6437541E-2,1.4938982E-2,-5.576823E-2,-2.3911674E-2,1.5012617E-2,-8.588211E-3,-3.580277E-5,2.0832492E-2],"categories":[],"categories_nodes":[],"categories_segments":[],"categories_sizes":[],"default_left":[0,0,0,0,0,0,0,0,0,0,0,0,0,0,0,0,0,0,0,0,0,0,0,0,0,0,0,0,0,0,0,0,0,0,0,0,0,0,0],"id":32,"left_children":[1,3,5,7,9,11,13,15,17,19,21,-1,-1,-1,-1,23,25,-1,-1,-1,-1,27,29,31,33,35,-1,-1,37,-1,-1,-1,-1,-1,-1,-1,-1,-1,-1],"loss_changes":[1.3194718E0,1.6707474E0,2.1074038E0,2.5506048E0,2.5138175E0,2.603149E0,2.2219157E-1,2.6562166E0,3.4446412E-1,6.381283E-1,2.1891432E0,0E0,0E0,0E0,0E0,3.6303463E0,2.0142057E0,0E0,0E0,0E0,0E0,2.25443E0,3.056097E0,5.6031685E0,5.2520275E-1,1.0771329E0,0E0,0E0,3.0946908E0,0E0,0E0,0E0,0E0,0E0,0E0,0E0,0E0,0E0,0E0],"parents":[2147483647,0,0,1,1,2,2,3,3,4,4,5,5,6,6,7,7,8,8,9,9,10,10,15,15,16,16,21,21,22,22,23,23,24,24,25,25,28,28],"right_children":[2,4,6,8,10,12,14,16,18,20,22,-1,-1,-1,-1,24,26,-1,-1,-1,-1,28,30,32,34,36,-1,-1,38,-1,-1,-1,-1,-1,-1,-1,-1,-1,-1],"split_conditions":[9.01E0,-4.94E0,5.6E0,1E0,-4.03E0,1.473988E-4,1.833025E4,4.44E1,8.213097E-1,6.72E0,3.751442E4,1.6767288E-2,-2.997838E-2,2.7353143E-2,1.2609308E-2,-8.8E-1,8.29E0,3.5206322E-3,2.1555502E-2,2.8286165E-2,5.159487E-3,-1.5492308E1,2.28484E1,-7.33E0,-2.88E0,-8.53E0,-2.0647176E-2,-2.3352953E-2,1E0,5.223207E-3,-4.263704E-2,-2.6437541E-2,1.4938982E-2,-5.576823E-2,-2.3911674E-2,1.5012617E-2,-8.588211E-3,-3.580277E-5,2.0832492E-2],"split_indices":[2,14,1,8,14,20,3,19,16,1,3,0,0,0,0,0,2,0,0,0,0,16,19,18,18,18,0,0,12,0,0,0,0,0,0,0,0,0,0],"split_type":[0,0,0,0,0,0,0,0,0,0,0,0,0,0,0,0,0,0,0,0,0,0,0,0,0,0,0,0,0,0,0,0,0,0,0,0,0,0,0],"sum_hessian":[3.2E2,2.94E2,2.6E1,8.2E1,2.12E2,1E1,1.6E1,7.1E1,1.1E1,1.4E1,1.98E2,5E0,5E0,8E0,8E0,4.2E1,2.9E1,5E0,6E0,9E0,5E0,1.86E2,1.2E1,3.2E1,1E1,2.2E1,7E0,8E0,1.78E2,6E0,6E0,1.9E1,1.3E1,5E0,5E0,1.6E1,6E0,1.59E2,1.9E1],"tree_param":{"num_deleted":"0","num_feature":"24","num_nodes":"39","size_leaf_vector":"1"}},{"base_weights":[-3.8978755E-3,-2.2673888E-2,4.650787E-3,2.4127416E-2,-7.737016E-3,-2.9954824E-1,1.13425385E-2,1.4990315E-2,-5.350182E-1,1.3374235E-1,-4.324818E-2,-3.8016003E-2,-5.3947805E-3,-2.2820888E-1,2.0917538E-1,-3.8455516E-2,-1.7103879E-2,4.179602E-3,-3.2051876E-2,1.3610552E-2,-1.7638734E-2,2.1505661E-2,-2.3010052E-3],"categories":[],"categories_nodes":[],"categories_segments":[],"categories_sizes":[],"default_left":[0,0,0,0,0,0,0,0,0,0,0,0,0,0,0,0,0,0,0,0,0,0,0],"id":33,"left_children":[1,-1,3,-1,5,7,9,-1,11,13,15,-1,-1,17,19,-1,21,-1,-1,-1,-1,-1,-1],"loss_changes":[1.2358104E0,0E0,1.8744853E0,0E0,1.7237947E0,2.8418713E0,1.9502152E0,0E0,1.2652063E0,2.5050125E0,3.820231E0,0E0,0E0,2.113111E0,2.7527466E0,0E0,2.5544324E0,0E0,0E0,0E0,0E0,0E0,0E0],"parents":[2147483647,0,0,2,2,4,4,5,5,6,6,8,8,9,9,10,10,13,13,14,14,16,16],"right_children":[2,-1,4,-1,6,8,10,-1,12,14,16,-1,-1,18,20,-1,22,-1,-1,-1,-1,-1,-1],"split_conditions":[2.1E0,-2.2673888E-2,2.33E0,2.4127416E-2,2.89E0,1.716432E4,-2.879833E4,1.4990315E-2,3.157551E4,-8.52E0,-2.8165896E4,-3.8016003E-2,-5.3947805E-3,-8.4E0,3.844654E4,-3.8455516E-2,3.9806998E-1,4.179602E-3,-3.2051876E-2,1.3610552E-2,-1.7638734E-2,2.1505661E-2,-2.3010052E-3],"split_indices":[1,0,1,0,1,3,22,0,3,14,17,0,0,18,3,0,16,0,0,0,0,0,0],"split_type":[0,0,0,0,0,0,0,0,0,0,0,0,0,0,0,0,0,0,0,0,0,0,0],"sum_hessian":[3.2E2,5E0,3.15E2,7E0,3.08E2,1.8E1,2.9E2,5E0,1.3E1,8.9E1,2.01E2,8E0,5E0,1.5E1,7.4E1,6E0,1.95E2,9E0,6E0,6.7E1,7E0,1.1E1,1.84E2],"tree_param":{"num_deleted":"0","num_feature":"24","num_nodes":"23","size_leaf_vector":"1"}},{"base_weights":[-3.9463383E-3,1.7800037E-2,-1.7659958E-1,1.4682292E-3,3.1276348E-1,2.7998671E-2,-5.881293E-1,-7.604184E-2,7.089414E-2,1.4892666E-3,2.4905305E-2,-2.7904868E-2,2.4245517E-1,-5.3524714E-2,-4.532757E-3,6.9229364E-2,-2.5506744E-1,3.3027002E-1,1.6266705E-2,4.3134332E-1,-1.1934653E-2,-8.506042E-3,5.010808E-1,-4.809196E-1,-9.290973E-2,5.6821376E-1,2.5146505E-2,-1.673566E-1,1.1017031E-1,2.9022902E-2,9.965303E-3,3.804912E-3,-2.575933E-2,9.124128E-3,3.6808282E-2,-4.107642E-3,-3.573514E-2,-2.1277757E-2,7.45592E-3,1.592439E-2,3.8622078E-2,1.622442E-2,-1.6413838E-2,-3.6001738E-4,-4.1355055E-2,1.1787423E-2,-4.796448E-3],"categories":[],"categories_nodes":[],"categories_segments":[],"categories_sizes":[],"default_left":[0,0,0,0,0,0,0,0,0,0,0,0,0,0,0,0,0,0,0,0,0,0,0,0,0,0,0,0,0,0,0,0,0,0,0,0,0,0,0,0,0,0,0,0,0,0,0],"id":34,"left_children":[1,3,5,7,9,11,13,15,17,-1,-1,-1,19,-1,-1,21,23,25,27,29,-1,31,33,35,37,39,41,43,45,-1,-1,-1,-1,-1,-1,-1,-1,-1,-1,-1,-1,-1,-1,-1,-1,-1,-1],"loss_changes":[1.2083644E0,1.3772846E0,3.047604E0,1.4690791E0,7.718824E-1,3.277616E0,2.7825236E0,3.3725953E0,2.034969E0,0E0,0E0,0E0,1.8297396E0,0E0,0E0,2.4213128E0,2.0794907E0,1.8007674E0,2.0875845E0,3.6871362E-1,0E0,2.6969805E0,6.895361E-1,2.1786852E0,2.881292E0,4.680004E-1,1.3760545E0,4.326195E0,2.0931401E0,0E0,0E0,0E0,0E0,0E0,0E0,0E0,0E0,0E0,0E0,0E0,0E0,0E0,0E0,0E0,0E0,0E0,0E0],"parents":[2147483647,0,0,1,1,2,2,3,3,4,4,5,5,6,6,7,7,8,8,12,12,15,15,16,16,17,17,18,18,19,19,21,21,22,22,23,23,24,24,25,25,26,26,27,27,28,28],"right_children":[2,4,6,8,10,12,14,16,18,-1,-1,-1,20,-1,-1,22,24,26,28,30,-1,32,34,36,38,40,42,44,46,-1,-1,-1,-1,-1,-1,-1,-1,-1,-1,-1,-1,-1,-1,-1,-1,-1,-1],"split_conditions":[1E0,1.1279411E1,4.27E0,2.09E0,1.2909101E-5,-1.117E1,8.6E0,-8.1E-1,3.3E0,1.4892666E-3,2.4905305E-2,-2.7904868E-2,2.740894E4,-5.3524714E-2,-4.532757E-3,1E0,-4.94E0,1.2123746E0,1.9205481E3,1.7264326E0,-1.1934653E-2,2.7801723E0,5.7780784E-1,-8.28E0,2.6988682E3,4.55E0,5.02E0,1.546701E3,7.37E0,2.9022902E-2,9.965303E-3,3.804912E-3,-2.575933E-2,9.124128E-3,3.6808282E-2,-4.107642E-3,-3.573514E-2,-2.1277757E-2,7.45592E-3,1.592439E-2,3.8622078E-2,1.622442E-2,-1.6413838E-2,-3.6001738E-4,-4.1355055E-2,1.1787423E-2,-4.796448E-3],"split_indices":[13,16,0,0,15,18,1,0,0,0,0,0,3,0,0,6,14,16,17,16,0,16,16,18,17,1,2,17,0,0,0,0,0,0,0,0,0,0,0,0,0,0,0,0,0,0,0],"split_type":[0,0,0,0,0,0,0,0,0,0,0,0,0,0,0,0,0,0,0,0,0,0,0,0,0,0,0,0,0,0,0,0,0,0,0,0,0,0,0,0,0,0,0,0,0,0,0],"sum_hessian":[3.2E2,2.85E2,3.5E1,2.71E2,1.4E1,2.4E1,1.1E1,1.28E2,1.43E2,6E0,8E0,6E0,1.8E1,5E0,6E0,7.1E1,5.7E1,2.4E1,1.19E2,1.3E1,5E0,6.1E1,1E1,2.3E1,3.4E1,1.3E1,1.1E1,4E1,7.9E1,7E0,6E0,5.3E1,8E0,5E0,5E0,9E0,1.4E1,1.4E1,2E1,7E0,6E0,6E0,5E0,3.3E1,7E0,4.9E1,3E1],"tree_param":{"num_deleted":"0","num_feature":"24","num_nodes":"47","size_leaf_vector":"1"}},{"base_weights":[-3.8816328E-3,-1.2817082E-2,1.9938406E-2,-2.7372811E-3,-2.2796864E-2,1.053148E-2,-2.830813E-1,5.6773466E-1,-1.296666E-2,-5.6039463E-3,-2.4620233E-2,1.5141706E-2,3.568437E-2,1.158319E-2,-2.8042892E-1,1.8920856E-2,-3.769253E-4,-2.7402824E-2,1.1325609E-2],"categories":[],"categories_nodes":[],"categories_segments":[],"categories_sizes":[],"default_left":[0,0,0,0,0,0,0,0,0,0,0,0,0,0,0,0,0,0,0],"id":35,"left_children":[1,3,-1,5,-1,7,9,11,13,-1,-1,-1,-1,15,17,-1,-1,-1,-1],"loss_changes":[1.1600227E0,1.4057194E0,0E0,1.1524049E0,0E0,3.8829603E0,4.4593883E-1,2.4782681E-1,1.8746034E0,0E0,0E0,0E0,0E0,1.840648E0,3.3802552E0,0E0,0E0,0E0,0E0],"parents":[2147483647,0,0,1,1,3,3,5,5,6,6,7,7,8,8,13,13,14,14],"right_children":[2,4,-1,6,-1,8,10,12,14,-1,-1,-1,-1,16,18,-1,-1,-1,-1],"split_conditions":[9.89E0,1.184E1,1.9938406E-2,1.7471106E-3,-2.2796864E-2,4.28775E3,1E0,2.27958E3,-7.78778E3,-5.6039463E-3,-2.4620233E-2,1.5141706E-2,3.568437E-2,9.34432E3,8.87E0,1.8920856E-2,-3.769253E-4,-2.7402824E-2,1.1325609E-2],"split_indices":[2,1,0,15,0,3,4,3,22,0,0,0,0,3,1,0,0,0,0],"split_type":[0,0,0,0,0,0,0,0,0,0,0,0,0,0,0,0,0,0,0],"sum_hessian":[3.2E2,3.14E2,6E0,3.08E2,6E0,2.95E2,1.3E1,1.1E1,2.84E2,8E0,5E0,5E0,6E0,2.61E2,2.3E1,1.2E1,2.49E2,1.5E1,8E0],"tree_param":{"num_deleted":"0","num_feature":"24","num_nodes":"19","size_leaf_vector":"1"}},{"base_weights":[-3.6245857E-3,-2.6301438E-1,9.950124E-3,1.4549487E-3,-3.5201956E-2,1.1711431E-1,-3.247367E-2,-1.7179044E-2,1.7312413E-2,1.8308713E-1,-2.7250683E-1,-2.4821555E-2,-1.0331261E-2,-1.2651381E-2,2.4639106E-1,-4.702433E-4,-2.4833962E-2,-3.0022705E-1,1.49946865E-2,3.1318733E-1,-5.0023537E-2,2.9113369E-2,-4.54435E-2,3.30579E-1,-1.5060778E-2,1.802997E-2,-2.2534058E-4,-2.3970023E-2,1.3913105E-2,1.4994713E-2,-1.0357179E-2,2.336811E-2,5.9138825E-3,-2.1145951E-3,1.5444917E-2],"categories":[],"categories_nodes":[],"categories_segments":[],"categories_sizes":[],"default_left":[0,0,0,0,0,0,0,0,0,0,0,0,0,0,0,0,0,0,0,0,0,0,0,0,0,0,0,0,0,0,0,0,0,0,0],"id":36,"left_children":[1,3,5,7,-1,9,11,-1,-1,13,15,-1,17,-1,19,-1,-1,21,23,25,27,29,-1,31,33,-1,-1,-1,-1,-1,-1,-1,-1,-1,-1],"loss_changes":[1.1329033E0,1.8672243E0,1.3949744E0,1.427591E0,0E0,2.2861753E0,2.254961E0,0E0,0E0,2.1329277E0,7.620713E-1,0E0,1.5536397E0,0E0,1.3224268E0,0E0,0E0,3.434123E0,1.8545604E0,8.15001E-1,1.9658566E0,8.298075E-1,0E0,4.3838882E-1,1.5921607E0,0E0,0E0,0E0,0E0,0E0,0E0,0E0,0E0,0E0,0E0],"parents":[2147483647,0,0,1,1,2,2,3,3,5,5,6,6,9,9,10,10,12,12,14,14,17,17,18,18,19,19,20,20,21,21,23,23,24,24],"right_children":[2,4,6,8,-1,10,12,-1,-1,14,16,-1,18,-1,20,-1,-1,22,24,26,28,30,-1,32,34,-1,-1,-1,-1,-1,-1,-1,-1,-1,-1],"split_conditions":[9.078672E-5,8.125777E-5,-2.879833E4,3.615394E4,-3.5201956E-2,3.814622E4,-2.8165896E4,-1.7179044E-2,1.7312413E-2,-8.52E0,5.8654165E3,-2.4821555E-2,-3.3E0,-1.2651381E-2,3.6180904E0,-4.702433E-4,-2.4833962E-2,-7.74E0,-2.38E0,1.109E1,9.266666E0,3.3024E1,-4.54435E-2,1.5921788E0,1E0,1.802997E-2,-2.2534058E-4,-2.3970023E-2,1.3913105E-2,1.4994713E-2,-1.0357179E-2,2.336811E-2,5.9138825E-3,-2.1145951E-3,1.5444917E-2],"split_indices":[20,20,22,3,0,3,17,0,0,14,17,0,0,0,16,0,0,14,0,1,16,19,0,16,10,0,0,0,0,0,0,0,0,0,0],"split_type":[0,0,0,0,0,0,0,0,0,0,0,0,0,0,0,0,0,0,0,0,0,0,0,0,0,0,0,0,0,0,0,0,0,0,0],"sum_hessian":[3.2E2,1.5E1,3.05E2,1E1,5E0,8.6E1,2.19E2,5E0,5E0,7.4E1,1.2E1,9E0,2.1E2,9E0,6.5E1,6E0,6E0,1.6E1,1.94E2,5.3E1,1.2E1,1.1E1,5E0,1.6E1,1.78E2,4.6E1,7E0,5E0,7E0,5E0,6E0,9E0,7E0,1.65E2,1.3E1],"tree_param":{"num_deleted":"0","num_feature":"24","num_nodes":"35","size_leaf_vector":"1"}},{"base_weights":[-3.7184076E-3,-2.2979066E-2,1.709475E-1,-7.3711094E-3,-2.5473759E-2,1.7840473E-2,9.412647E-2,1.3908285E-1,-3.725374E-2,-2.997752E-2,1.3543491E-2,7.167826E-2,2.33573E-2,-3.8184628E-1,-1.6542565E-3,8.684183E-3,-1.8220827E-2,1.4257187E-1,-1.4651479E-2,-5.5337197E-1,3.2380954E-3,2.1569248E-1,-3.689073E-2,9.811372E-3,-7.4733957E-3,-1.1665577E-2,-3.6103856E-2,2.1326207E-2,-4.6410006E-3,-2.6717095E-2,1.503273E-3],"categories":[],"categories_nodes":[],"categories_segments":[],"categories_sizes":[],"default_left":[0,0,0,0,0,0,0,0,0,0,0,0,0,0,0,0,0,0,0,0,0,0,0,0,0,0,0,0,0,0,0],"id":37,"left_children":[1,3,5,7,-1,-1,9,11,13,15,-1,17,-1,19,21,-1,-1,23,-1,25,-1,27,29,-1,-1,-1,-1,-1,-1,-1,-1],"loss_changes":[1.0838302E0,2.1982756E0,4.2331427E-1,1.2393345E0,0E0,0E0,5.345493E-1,1.027938E0,2.8821876E0,1.0849768E0,0E0,1.1018516E0,0E0,1.721143E0,1.6468829E0,0E0,0E0,5.7776433E-1,0E0,6.954646E-1,0E0,1.9909161E0,6.1779404E0,0E0,0E0,0E0,0E0,0E0,0E0,0E0,0E0],"parents":[2147483647,0,0,1,1,2,2,3,3,6,6,7,7,8,8,9,9,11,11,13,13,14,14,17,17,19,19,21,21,22,22],"right_children":[2,4,6,8,-1,-1,10,12,14,16,-1,18,-1,20,22,-1,-1,24,-1,26,-1,28,30,-1,-1,-1,-1,-1,-1,-1,-1],"split_conditions":[7.5816E1,1.176E1,7.99664E1,-8.4E0,-2.5473759E-2,1.7840473E-2,9.01E0,-2.34E0,-7.33E0,8.5E0,1.3543491E-2,3.510274E0,2.33573E-2,1.8082192E0,-8.1E-1,8.684183E-3,-1.8220827E-2,6.12128E1,-1.4651479E-2,1.677818E4,3.2380954E-3,2.401907E4,8.7E-1,9.811372E-3,-7.4733957E-3,-1.1665577E-2,-3.6103856E-2,2.1326207E-2,-4.6410006E-3,-2.6717095E-2,1.503273E-3],"split_indices":[19,1,19,18,0,0,2,14,18,2,0,16,0,16,0,0,0,19,0,3,0,3,0,0,0,0,0,0,0,0,0],"split_type":[0,0,0,0,0,0,0,0,0,0,0,0,0,0,0,0,0,0,0,0,0,0,0,0,0,0,0,0,0,0,0],"sum_hessian":[3.2E2,2.89E2,3.1E1,2.81E2,8E0,8E0,2.3E1,4.7E1,2.34E2,1.4E1,9E0,4E1,7E0,2.1E1,2.13E2,9E0,5E0,3.4E1,6E0,1.5E1,6E0,2.9E1,1.84E2,2.9E1,5E0,6E0,9E0,1.7E1,1.2E1,2.1E1,1.63E2],"tree_param":{"num_deleted":"0","num_feature":"24","num_nodes":"31","size_leaf_vector":"1"}},{"base_weights":[-3.6746764E-3,1.7137924E-2,-1.6891715E-1,-2.1153884E-2,2.6476556E-2,2.6976127E-2,-5.6295174E-1,2.628811E-2,1.5526591E-2,-2.154364E-2,2.6777992E-1,-5.102813E-2,-4.5146137E-3,-3.737109E-2,1.1670398E-1,2.4739008E-2,-1.1542529E-2,1.8203877E-2,-4.4238013E-1,2.2619565E-1,-7.7458754E-2,1.0223526E-2,-1.9512319E-3,-3.211196E-2,-6.17342E-4,-1.9327579E-2,1.4390396E-2,7.365023E-3,-1.3724116E-2],"categories":[],"categories_nodes":[],"categories_segments":[],"categories_sizes":[],"default_left":[0,0,0,0,0,0,0,0,0,0,0,0,0,0,0,0,0,0,0,0,0,0,0,0,0,0,0,0,0],"id":38,"left_children":[1,3,5,-1,7,9,11,-1,13,-1,15,-1,-1,17,19,-1,-1,21,23,25,27,-1,-1,-1,-1,-1,-1,-1,-1],"loss_changes":[1.1068542E0,1.1869509E0,2.7939806E0,0E0,1.528109E0,2.871673E0,2.5033796E0,0E0,1.481527E0,0E0,2.0384374E0,0E0,0E0,4.1045756E0,2.0371451E0,0E0,0E0,1.7242011E0,1.8828835E0,2.4141703E0,1.5903316E0,0E0,0E0,0E0,0E0,0E0,0E0,0E0,0E0],"parents":[2147483647,0,0,1,1,2,2,4,4,5,5,6,6,8,8,10,10,13,13,14,14,17,17,18,18,19,19,20,20],"right_children":[2,4,6,-1,8,10,12,-1,14,-1,16,-1,-1,18,20,-1,-1,22,24,26,28,-1,-1,-1,-1,-1,-1,-1,-1],"split_conditions":[1E0,2.1E0,4.27E0,-2.1153884E-2,2.22E0,-1.59E0,8.6E0,2.628811E-2,2.819374E4,-2.154364E-2,2.740894E4,-5.102813E-2,-4.5146137E-3,2.41583E4,3.589107E4,2.4739008E-2,-1.1542529E-2,-8.1E-1,2.09E0,2.83E0,2.32426E1,1.0223526E-2,-1.9512319E-3,-3.211196E-2,-6.17342E-4,-1.9327579E-2,1.4390396E-2,7.365023E-3,-1.3724116E-2],"split_indices":[13,1,0,0,1,0,1,0,3,0,3,0,0,3,3,0,0,0,0,1,19,0,0,0,0,0,0,0,0],"split_type":[0,0,0,0,0,0,0,0,0,0,0,0,0,0,0,0,0,0,0,0,0,0,0,0,0,0,0,0,0],"sum_hessian":[3.2E2,2.85E2,3.5E1,5E0,2.8E2,2.4E1,1.1E1,5E0,2.75E2,8E0,1.6E1,5E0,6E0,1.81E2,9.4E1,1.1E1,5E0,1.6E2,2.1E1,6E1,3.4E1,3.7E1,1.23E2,1.4E1,7E0,5E0,5.5E1,1.6E1,1.8E1],"tree_param":{"num_deleted":"0","num_feature":"24","num_nodes":"29","size_leaf_vector":"1"}},{"base_weights":[-3.785365E-3,-2.0829022E-2,4.0644947E-3,1.6451687E-2,-2.6432005E-1,5.295768E-1,-4.691988E-3,-4.899816E-3,-2.3487614E-2,1.41575625E-2,3.3257242E-2,-3.2951158E-2,2.4320312E-1,-1.8165108E-2,-2.2411397E-2,1.3505681E-1,2.402691E-2,3.6656056E-4,-1.31936325E-2,-1.8277343E-2,1.7281493E-2],"categories":[],"categories_nodes":[],"categories_segments":[],"categories_sizes":[],"default_left":[0,0,0,0,0,0,0,0,0,0,0,0,0,0,0,0,0,0,0,0,0],"id":39,"left_children":[1,-1,3,5,7,9,11,-1,-1,-1,-1,13,15,17,-1,19,-1,-1,-1,-1,-1],"loss_changes":[1.0418564E0,0E0,1.0549002E0,3.289838E0,4.323216E-1,2.1255231E-1,2.0535643E0,0E0,0E0,0E0,0E0,1.6067575E0,7.0510745E-1,1.5994171E0,0E0,2.445444E0,0E0,0E0,0E0,0E0,0E0],"parents":[2147483647,0,0,2,2,3,3,4,4,5,5,6,6,11,11,12,12,13,13,15,15],"right_children":[2,-1,4,6,8,10,12,-1,-1,-1,-1,14,16,18,-1,20,-1,-1,-1,-1,-1],"split_conditions":[-4.74E0,-2.0829022E-2,1.7471106E-3,4.28775E3,1E0,2.27958E3,8.87E0,-4.899816E-3,-2.3487614E-2,1.41575625E-2,3.3257242E-2,8.5E0,2.988442E4,-7.78778E3,-2.2411397E-2,3.241563E-4,2.402691E-2,3.6656056E-4,-1.31936325E-2,-1.8277343E-2,1.7281493E-2],"split_indices":[0,0,15,3,4,3,2,0,0,0,0,2,3,22,0,20,0,0,0,0,0],"split_type":[0,0,0,0,0,0,0,0,0,0,0,0,0,0,0,0,0,0,0,0,0],"sum_hessian":[3.2E2,5E0,3.15E2,3.02E2,1.3E1,1.1E1,2.91E2,8E0,5E0,5E0,6E0,2.62E2,2.9E1,2.54E2,8E0,2.1E1,8E0,2.31E2,2.3E1,6E0,1.5E1],"tree_param":{"num_deleted":"0","num_feature":"24","num_nodes":"21","size_leaf_vector":"1"}},{"base_weights":[-3.6397395E-3,1.6157085E-2,-1.608134E-1,1.0763129E-3,2.8854463E-1,2.4979338E-2,-5.344805E-1,-2.995768E-2,1.502807E-1,1.0406129E-3,2.323602E-2,-2.5115168E-2,2.1792668E-1,-4.861441E-2,-4.1431226E-3,-3.3299134E-3,-4.3127533E-2,3.9325558E-2,2.5491579E-2,3.910605E-1,-1.1118667E-2,-3.5989143E-2,1.9694698E-1,-1.280962E-1,3.9879555E-1,2.6149243E-2,9.221202E-3,-3.8302224E-3,8.347141E-3,2.371267E-2,2.1156399E-3,-1.6995525E-2,1.9548738E-2,2.6633898E-2,8.806677E-3],"categories":[],"categories_nodes":[],"categories_segments":[],"categories_sizes":[],"default_left":[0,0,0,0,0,0,0,0,0,0,0,0,0,0,0,0,0,0,0,0,0,0,0,0,0,0,0,0,0,0,0,0,0,0,0],"id":40,"left_children":[1,3,5,7,9,11,13,15,17,-1,-1,-1,19,-1,-1,21,-1,23,-1,25,-1,27,29,31,33,-1,-1,-1,-1,-1,-1,-1,-1,-1,-1],"loss_changes":[1.0014025E0,1.1745244E0,2.512638E0,1.263973E0,6.9784737E-1,2.6529102E0,2.292096E0,5.0075684E0,1.8549694E0,0E0,0E0,0E0,1.5353472E0,0E0,0E0,1.4460834E0,0E0,2.2778587E0,0E0,2.851944E-1,0E0,1.5787956E0,1.3092457E0,2.9915092E0,2.6390374E-1,0E0,0E0,0E0,0E0,0E0,0E0,0E0,0E0,0E0,0E0],"parents":[2147483647,0,0,1,1,2,2,3,3,4,4,5,5,6,6,7,7,8,8,12,12,15,15,17,17,19,19,21,21,22,22,23,23,24,24],"right_children":[2,4,6,8,10,12,14,16,18,-1,-1,-1,20,-1,-1,22,-1,24,-1,26,-1,28,30,32,34,-1,-1,-1,-1,-1,-1,-1,-1,-1,-1],"split_conditions":[1E0,1.1279411E1,4.27E0,6.50385E1,1.2909101E-5,-1.117E1,8.6E0,6.12128E1,7.4207404E-4,1.0406129E-3,2.323602E-2,-2.5115168E-2,2.740894E4,-4.861441E-2,-4.1431226E-3,1E0,-4.3127533E-2,-2.18E0,2.5491579E-2,1.7264326E0,-1.1118667E-2,4.44E1,-6.9E0,1.147E1,4.081629E-4,2.6149243E-2,9.221202E-3,-3.8302224E-3,8.347141E-3,2.371267E-2,2.1156399E-3,-1.6995525E-2,1.9548738E-2,2.6633898E-2,8.806677E-3],"split_indices":[13,16,0,19,15,18,1,19,15,0,0,0,3,0,0,8,0,18,0,16,0,19,18,1,15,0,0,0,0,0,0,0,0,0,0],"split_type":[0,0,0,0,0,0,0,0,0,0,0,0,0,0,0,0,0,0,0,0,0,0,0,0,0,0,0,0,0,0,0,0,0,0,0],"sum_hessian":[3.2E2,2.85E2,3.5E1,2.71E2,1.4E1,2.4E1,1.1E1,2.25E2,4.6E1,6E0,8E0,6E0,1.8E1,5E0,6E0,2.19E2,6E0,3.6E1,1E1,1.3E1,5E0,1.89E2,3E1,2.5E1,1.1E1,7E0,6E0,1.58E2,3.1E1,1E1,2E1,1.8E1,7E0,6E0,5E0],"tree_param":{"num_deleted":"0","num_feature":"24","num_nodes":"35","size_leaf_vector":"1"}},{"base_weights":[-3.3912163E-3,-2.0064702E-2,4.1746325E-3,2.200196E-2,-7.1233967E-3,-2.5562954E-1,9.126569E-3,1.4605068E-2,-4.721121E-1,-4.9597733E-2,1.04802E-1,-3.3738185E-2,-4.4724694E-3,-1.1830831E-1,8.419044E-2,1.982955E-1,-2.0847663E-1,-3.2944714E-3,-3.441636E-2,-1.2063895E-2,1.34614995E-2,1.3539113E-2,-8.14303E-3,-2.524337E-2,8.969243E-3],"categories":[],"categories_nodes":[],"categories_segments":[],"categories_sizes":[],"default_left":[0,0,0,0,0,0,0,0,0,0,0,0,0,0,0,0,0,0,0,0,0,0,0,0,0],"id":41,"left_children":[1,-1,3,-1,5,7,9,-1,11,13,15,-1,-1,17,19,21,23,-1,-1,-1,-1,-1,-1,-1,-1],"loss_changes":[9.680369E-1,0E0,1.5592482E0,0E0,1.2501419E0,2.3908138E0,1.6401736E0,0E0,1.0253036E0,1.6738325E0,3.2924767E0,0E0,0E0,3.5402174E0,3.7988791E0,2.2954965E0,3.0794876E0,0E0,0E0,0E0,0E0,0E0,0E0,0E0,0E0],"parents":[2147483647,0,0,2,2,4,4,5,5,6,6,8,8,9,9,10,10,13,13,14,14,15,15,16,16],"right_children":[2,-1,4,-1,6,8,10,-1,12,14,16,-1,-1,18,20,22,24,-1,-1,-1,-1,-1,-1,-1,-1],"split_conditions":[2.1E0,-2.0064702E-2,2.33E0,2.200196E-2,2.89E0,1.716432E4,-3.45E0,1.4605068E-2,3.157551E4,9.48E0,1.72E0,-3.3738185E-2,-4.4724694E-3,3.9E0,2.8605312E3,8.58E0,3.07E0,-3.2944714E-3,-3.441636E-2,-1.2063895E-2,1.34614995E-2,1.3539113E-2,-8.14303E-3,-2.524337E-2,8.969243E-3],"split_indices":[1,0,1,0,1,3,18,0,3,1,18,0,0,0,17,0,18,0,0,0,0,0,0,0,0],"split_type":[0,0,0,0,0,0,0,0,0,0,0,0,0,0,0,0,0,0,0,0,0,0,0,0,0],"sum_hessian":[3.2E2,5E0,3.15E2,7E0,3.08E2,1.8E1,2.9E2,5E0,1.3E1,1.8E2,1.1E2,8E0,5E0,1.19E2,6.1E1,8.5E1,2.5E1,1.1E2,9E0,2.2E1,3.9E1,7.1E1,1.4E1,1.4E1,1.1E1],"tree_param":{"num_deleted":"0","num_feature":"24","num_nodes":"25","size_leaf_vector":"1"}},{"base_weights":[-3.4361698E-3,-1.9856067E-2,4.049739E-3,1.6101476E-2,-2.5707352E-1,5.0341874E-1,-3.9804038E-3,-4.7931722E-3,-2.2802154E-2,1.3184974E-2,3.184877E-2,-2.9871115E-2,2.3185161E-1,-8.13632E-3,-2.4688007E-1,1.2660366E-1,2.2583444E-2,3.5316215E-4,-1.7997628E-2,-2.446954E-2,1.0584061E-2,-1.7361317E-2,1.6964203E-2],"categories":[],"categories_nodes":[],"categories_segments":[],"categories_sizes":[],"default_left":[0,0,0,0,0,0,0,0,0,0,0,0,0,0,0,0,0,0,0,0,0,0,0],"id":42,"left_children":[1,-1,3,5,7,9,11,-1,-1,-1,-1,13,15,17,19,21,-1,-1,-1,-1,-1,-1,-1],"loss_changes":[9.476245E-1,0E0,9.985877E-1,2.9672363E0,4.0534478E-1,2.16223E-1,1.7898363E0,0E0,0E0,0E0,0E0,1.2431855E0,6.1374116E-1,1.2912786E0,2.7725396E0,2.2340698E0,0E0,0E0,0E0,0E0,0E0,0E0,0E0],"parents":[2147483647,0,0,2,2,3,3,4,4,5,5,6,6,11,11,12,12,13,13,14,14,15,15],"right_children":[2,-1,4,6,8,10,12,-1,-1,-1,-1,14,16,18,20,22,-1,-1,-1,-1,-1,-1,-1],"split_conditions":[-4.74E0,-1.9856067E-2,1.7471106E-3,4.28775E3,1E0,2.27958E3,8.89E0,-4.7931722E-3,-2.2802154E-2,1.3184974E-2,3.184877E-2,-7.78778E3,2.988442E4,8.5E0,8.87E0,3.241563E-4,2.2583444E-2,3.5316215E-4,-1.7997628E-2,-2.446954E-2,1.0584061E-2,-1.7361317E-2,1.6964203E-2],"split_indices":[0,0,15,3,4,3,2,0,0,0,0,22,3,2,1,20,0,0,0,0,0,0,0],"split_type":[0,0,0,0,0,0,0,0,0,0,0,0,0,0,0,0,0,0,0,0,0,0,0],"sum_hessian":[3.2E2,5E0,3.15E2,3.02E2,1.3E1,1.1E1,2.91E2,8E0,5E0,5E0,6E0,2.63E2,2.8E1,2.4E2,2.3E1,2E1,8E0,2.31E2,9E0,1.5E1,8E0,6E0,1.4E1],"tree_param":{"num_deleted":"0","num_feature":"24","num_nodes":"23","size_leaf_vector":"1"}},{"base_weights":[-3.3010005E-3,-1.6596846E-1,1.4039179E-2,-1.7184576E-3,-4.2502854E-2,2.4583614E-1,-3.974752E-3,-2.3852458E-2,1.3417216E-1,2.0305268E-2,6.321817E-2,1.8260287E-2,-2.6954713E-1,3.8393724E-1,-1.2075382E-2,-8.058588E-3,1.3853587E-2,3.5763573E-2,-3.333271E-1,8.484601E-3,-4.565556E-1,2.7082259E-2,1.08832065E-2,3.881648E-1,1.387203E-2,-8.52872E-3,-2.338254E-2,-3.1821016E-2,-4.0344237E-3,2.6053956E-2,9.040527E-3,-1.4815904E-3,8.625556E-3],"categories":[],"categories_nodes":[],"categories_segments":[],"categories_sizes":[],"default_left":[0,0,0,0,0,0,0,0,0,0,0,0,0,0,0,0,0,0,0,0,0,0,0,0,0,0,0,0,0,0,0,0,0],"id":43,"left_children":[1,3,5,7,-1,9,11,-1,13,-1,15,17,19,21,-1,-1,-1,23,25,-1,27,-1,-1,29,31,-1,-1,-1,-1,-1,-1,-1,-1],"loss_changes":[9.077693E-1,3.4817476E0,1.2160693E0,1.7434244E0,0E0,5.889555E-1,1.6051805E0,0E0,2.0631895E0,0E0,5.7250863E-1,1.5565587E0,1.802444E0,2.2299695E-1,0E0,0E0,0E0,1.8461208E0,1.8256927E-1,0E0,9.627273E-1,0E0,0E0,2.916286E-1,1.5717316E0,0E0,0E0,0E0,0E0,0E0,0E0,0E0,0E0],"parents":[2147483647,0,0,1,1,2,2,3,3,5,5,6,6,8,8,10,10,11,11,12,12,13,13,17,17,18,18,20,20,23,23,24,24],"right_children":[2,4,6,8,-1,10,12,-1,14,-1,16,18,20,22,-1,-1,-1,24,26,-1,28,-1,-1,30,32,-1,-1,-1,-1,-1,-1,-1,-1],"split_conditions":[-3.24E0,1E0,-2.38E0,9.3399154E-5,-4.2502854E-2,2.114055E4,1E0,-2.3852458E-2,3.174322E-4,2.0305268E-2,2.26E0,1.7471106E-3,1.0622295E3,2.60403E1,-1.2075382E-2,-8.058588E-3,1.3853587E-2,5.61819E3,2.565493E-3,8.484601E-3,8.86E0,2.7082259E-2,1.08832065E-2,8.14E0,3.198494E4,-8.52872E-3,-2.338254E-2,-3.1821016E-2,-4.0344237E-3,2.6053956E-2,9.040527E-3,-1.4815904E-3,8.625556E-3],"split_indices":[0,10,0,20,0,3,6,0,20,0,2,15,17,19,0,0,0,3,20,0,1,0,0,1,3,0,0,0,0,0,0,0,0],"split_type":[0,0,0,0,0,0,0,0,0,0,0,0,0,0,0,0,0,0,0,0,0,0,0,0,0,0,0,0,0,0,0,0,0],"sum_hessian":[3.2E2,3E1,2.9E2,2.5E1,5E0,2E1,2.7E2,5E0,2E1,1E1,1E1,2.5E2,2E1,1.2E1,8E0,5E0,5E0,2.39E2,1.1E1,6E0,1.4E1,5E0,7E0,1.3E1,2.26E2,6E0,5E0,9E0,5E0,7E0,6E0,1.78E2,4.8E1],"tree_param":{"num_deleted":"0","num_feature":"24","num_nodes":"33","size_leaf_vector":"1"}},{"base_weights":[-3.2337962E-3,1.53509965E-2,-1.5078983E-1,1.5287381E-3,2.6497123E-1,-3.826826E-2,-3.535098E-2,-2.8159618E-2,1.4425299E-1,6.40396E-4,2.158285E-2,1.16146386E-1,-2.4836434E-2,-3.2369334E-3,-4.037106E-2,3.8676817E-2,2.4312947E-2,-1.5741646E-2,3.1212804E-1,-3.3983313E-2,1.8531303E-1,-1.1998761E-1,3.7922665E-1,2.465796E-2,-5.097778E-3,-6.801821E-3,1.7622694E-3,2.2407303E-2,1.9407086E-3,-1.5873507E-2,1.8201595E-2,2.5337696E-2,8.36202E-3],"categories":[],"categories_nodes":[],"categories_segments":[],"categories_sizes":[],"default_left":[0,0,0,0,0,0,0,0,0,0,0,0,0,0,0,0,0,0,0,0,0,0,0,0,0,0,0,0,0,0,0,0,0],"id":44,"left_children":[1,3,5,7,9,11,-1,13,15,-1,-1,17,-1,19,-1,21,-1,-1,23,25,27,29,31,-1,-1,-1,-1,-1,-1,-1,-1,-1,-1],"loss_changes":[8.825925E-1,9.86385E-1,2.226106E0,1.1565938E0,6.2495196E-1,2.2522764E0,0E0,4.386598E0,1.6782539E0,0E0,0E0,2.1254053E0,0E0,1.2816879E0,0E0,2.044729E0,0E0,0E0,1.3246346E0,1.3471453E0,1.1762526E0,2.6007895E0,2.3965871E-1,0E0,0E0,0E0,0E0,0E0,0E0,0E0,0E0,0E0,0E0],"parents":[2147483647,0,0,1,1,2,2,3,3,4,4,5,5,7,7,8,8,11,11,13,13,15,15,18,18,19,19,20,20,21,21,22,22],"right_children":[2,4,6,8,10,12,-1,14,16,-1,-1,18,-1,20,-1,22,-1,-1,24,26,28,30,32,-1,-1,-1,-1,-1,-1,-1,-1,-1,-1],"split_conditions":[1E0,1.1279411E1,3.09E0,6.50385E1,1.2909101E-5,2.740894E4,-3.535098E-2,6.12128E1,7.4207404E-4,6.40396E-4,2.158285E-2,-1.59E0,-2.4836434E-2,1E0,-4.037106E-2,-2.18E0,2.4312947E-2,-1.5741646E-2,6.469799E-4,8.7E-1,-6.9E0,1.147E1,4.081629E-4,2.465796E-2,-5.097778E-3,-6.801821E-3,1.7622694E-3,2.2407303E-2,1.9407086E-3,-1.5873507E-2,1.8201595E-2,2.5337696E-2,8.36202E-3],"split_indices":[13,16,14,19,15,3,0,19,15,0,0,0,0,8,0,18,0,0,20,0,18,1,15,0,0,0,0,0,0,0,0,0,0],"split_type":[0,0,0,0,0,0,0,0,0,0,0,0,0,0,0,0,0,0,0,0,0,0,0,0,0,0,0,0,0,0,0,0,0],"sum_hessian":[3.2E2,2.85E2,3.5E1,2.71E2,1.4E1,3E1,5E0,2.25E2,4.6E1,6E0,8E0,2.3E1,7E0,2.19E2,6E0,3.6E1,1E1,7E0,1.6E1,1.89E2,3E1,2.5E1,1.1E1,1.1E1,5E0,7.6E1,1.13E2,1E1,2E1,1.8E1,7E0,6E0,5E0],"tree_param":{"num_deleted":"0","num_feature":"24","num_nodes":"33","size_leaf_vector":"1"}},{"base_weights":[-3.0561185E-3,1.0256225E-2,-2.039197E-1,-2.0514203E-2,2.162594E-2,-3.791151E-1,1.3402772E-2,3.9043143E-1,5.966461E-3,2.026283E-3,-2.9649405E-2,2.396033E-2,1.1089427E-2,-3.033519E-1,2.556514E-2,4.1241823E-3,-3.2774087E-2,2.5405267E-1,-5.393368E-3,8.4651634E-4,1.7305179E-2,-2.977003E-2,4.944343E-4],"categories":[],"categories_nodes":[],"categories_segments":[],"categories_sizes":[],"default_left":[0,0,0,0,0,0,0,0,0,0,0,0,0,0,0,0,0,0,0,0,0,0,0],"id":45,"left_children":[1,3,5,-1,7,9,-1,11,13,-1,-1,-1,-1,15,17,-1,-1,19,21,-1,-1,-1,-1],"loss_changes":[8.604342E-1,1.4528625E0,1.7553816E0,0E0,1.7013845E0,1.3702784E0,0E0,7.337308E-2,1.7294289E0,0E0,0E0,0E0,0E0,2.3637576E0,1.8971038E0,0E0,0E0,6.926148E-1,2.1428037E0,0E0,0E0,0E0,0E0],"parents":[2147483647,0,0,1,1,2,2,4,4,5,5,7,7,8,8,13,13,14,14,17,17,18,18],"right_children":[2,4,6,-1,8,10,-1,12,14,-1,-1,-1,-1,16,18,-1,-1,20,22,-1,-1,-1,-1],"split_conditions":[6.21E0,-1.5492308E1,2.2733754E4,-2.0514203E-2,-2.2015E0,-5.2474227E0,1.3402772E-2,7.59E0,3.6156E0,2.026283E-3,-2.9649405E-2,2.396033E-2,1.1089427E-2,1.4884258E-4,9.5765885E-5,4.1241823E-3,-3.2774087E-2,1.5969627E-4,9.987029E-5,8.4651634E-4,1.7305179E-2,-2.977003E-2,4.944343E-4],"split_indices":[14,16,17,0,19,16,0,1,19,0,0,0,0,20,15,0,0,20,15,0,0,0,0],"split_type":[0,0,0,0,0,0,0,0,0,0,0,0,0,0,0,0,0,0,0,0,0,0,0],"sum_hessian":[3.2E2,3.01E2,1.9E1,7E0,2.94E2,1.4E1,5E0,1.1E1,2.83E2,5E0,9E0,6E0,5E0,1.6E1,2.67E2,8E0,8E0,3.1E1,2.36E2,9E0,2.2E1,5E0,2.31E2],"tree_param":{"num_deleted":"0","num_feature":"24","num_nodes":"23","size_leaf_vector":"1"}},{"base_weights":[-3.0262317E-3,-1.8590568E-2,3.9855936E-3,2.1202398E-2,-6.902706E-3,-2.4290065E-1,8.529816E-3,1.3977291E-2,-4.4945624E-1,-4.638481E-2,9.799844E-2,-3.1854596E-2,-4.6546697E-3,-2.713177E-2,-2.920363E-2,4.843212E-1,2.2979207E-2,-5.3875227E-3,6.4192503E-3,5.5655926E-3,3.0961195E-2,5.13724E-3,-9.479511E-3],"categories":[],"categories_nodes":[],"categories_segments":[],"categories_sizes":[],"default_left":[0,0,0,0,0,0,0,0,0,0,0,0,0,0,0,0,0,0,0,0,0,0,0],"id":46,"left_children":[1,-1,3,-1,5,7,9,-1,11,13,15,-1,-1,-1,17,19,21,-1,-1,-1,-1,-1,-1],"loss_changes":[8.315419E-1,0E0,1.4482367E0,0E0,1.1274633E0,2.1760142E0,1.4342682E0,0E0,8.7681985E-1,1.5273901E0,3.205833E0,0E0,0E0,0E0,2.1923769E0,8.368325E-1,1.6133173E0,0E0,0E0,0E0,0E0,0E0,0E0],"parents":[2147483647,0,0,2,2,4,4,5,5,6,6,8,8,9,9,10,10,14,14,15,15,16,16],"right_children":[2,-1,4,-1,6,8,10,-1,12,14,16,-1,-1,-1,18,20,22,-1,-1,-1,-1,-1,-1],"split_conditions":[2.1E0,-1.8590568E-2,2.33E0,2.1202398E-2,2.89E0,1.716432E4,-3.45E0,1.3977291E-2,3.157551E4,-1.5492308E1,2.98E0,-3.1854596E-2,-4.6546697E-3,-2.713177E-2,9.48E0,1.004955E4,1.72E0,-5.3875227E-3,6.4192503E-3,5.5655926E-3,3.0961195E-2,5.13724E-3,-9.479511E-3],"split_indices":[1,0,1,0,1,3,18,0,3,16,0,0,0,0,1,3,18,0,0,0,0,0,0],"split_type":[0,0,0,0,0,0,0,0,0,0,0,0,0,0,0,0,0,0,0,0,0,0,0],"sum_hessian":[3.2E2,5E0,3.15E2,7E0,3.08E2,1.8E1,2.9E2,5E0,1.3E1,1.8E2,1.1E2,8E0,5E0,5E0,1.75E2,1.7E1,9.3E1,1.17E2,5.8E1,5E0,1.2E1,6.8E1,2.5E1],"tree_param":{"num_deleted":"0","num_feature":"24","num_nodes":"23","size_leaf_vector":"1"}},{"base_weights":[-2.91802E-3,7.8388285E-3,-2.3936026E-1,4.583793E-1,-1.039122E-2,-1.8339677E-2,-4.158497E-4,1.1453588E-2,2.9472295E-2,-3.5210006E-2,2.1166962E-1,-1.4374098E-1,6.9293445E-3,1.1502948E-1,2.1219114E-2,3.5308048E-2,-2.778079E-1,3.5792282E-1,-2.0257607E-2,-1.631027E-2,3.008804E-1,1.272057E-2,-5.1004346E-3,-2.242567E-2,5.3916494E-3,8.43901E-3,2.909915E-2,3.7651017E-4,-1.8997043E-2,1.9262394E-2,4.802999E-3],"categories":[],"categories_nodes":[],"categories_segments":[],"categories_sizes":[],"default_left":[0,0,0,0,0,0,0,0,0,0,0,0,0,0,0,0,0,0,0,0,0,0,0,0,0,0,0,0,0,0,0],"id":47,"left_children":[1,3,5,7,9,-1,-1,-1,-1,11,13,15,17,19,-1,21,23,25,27,-1,29,-1,-1,-1,-1,-1,-1,-1,-1,-1,-1],"loss_changes":[8.18299E-1,2.5344827E0,4.0914577E-1,2.2562909E-1,1.6443031E0,0E0,0E0,0E0,0E0,1.2266738E0,5.67881E-1,1.8101504E0,1.8584846E0,1.9022349E0,0E0,1.0188086E0,2.8790982E0,4.9508333E-1,1.8119216E0,0E0,2.3947597E-1,0E0,0E0,0E0,0E0,0E0,0E0,0E0,0E0,0E0,0E0],"parents":[2147483647,0,0,1,1,2,2,3,3,4,4,9,9,10,10,11,11,12,12,13,13,15,15,16,16,17,17,18,18,20,20],"right_children":[2,4,6,8,10,-1,-1,-1,-1,12,14,16,18,20,-1,22,24,26,28,-1,30,-1,-1,-1,-1,-1,-1,-1,-1,-1,-1],"split_conditions":[1.7471106E-3,4.28775E3,5.2E0,2.27958E3,8.87E0,-1.8339677E-2,-4.158497E-4,1.1453588E-2,2.9472295E-2,-4.94E0,2.988442E4,-8.53E0,-4.03E0,3.241563E-4,2.1219114E-2,2.104614E-4,7.9E0,-4.21E0,3.751442E4,-1.631027E-2,1.833025E4,1.272057E-2,-5.1004346E-3,-2.242567E-2,5.3916494E-3,8.43901E-3,2.909915E-2,3.7651017E-4,-1.8997043E-2,1.9262394E-2,4.802999E-3],"split_indices":[15,3,1,3,2,0,0,0,0,14,3,18,14,20,0,15,2,14,3,0,3,0,0,0,0,0,0,0,0,0,0],"split_type":[0,0,0,0,0,0,0,0,0,0,0,0,0,0,0,0,0,0,0,0,0,0,0,0,0,0,0,0,0,0,0],"sum_hessian":[3.2E2,3.07E2,1.3E1,1.1E1,2.96E2,8E0,5E0,5E0,6E0,2.67E2,2.9E1,7.4E1,1.93E2,2.1E1,8E0,3.2E1,4.2E1,1.3E1,1.8E2,6E0,1.5E1,1.2E1,2E1,2.9E1,1.3E1,8E0,5E0,1.68E2,1.2E1,1E1,5E0],"tree_param":{"num_deleted":"0","num_feature":"24","num_nodes":"31","size_leaf_vector":"1"}},{"base_weights":[-2.5831873E-3,1.5290828E-2,-1.4451055E-1,-2.1620454E-1,2.8902028E-2,2.2499947E-2,-4.8040655E-1,-2.2438759E-2,7.3462795E-3,4.3211665E-2,-2.5841323E-1,-2.2513544E-2,1.9549446E-1,-4.3931462E-2,-3.5221688E-3,-1.3688242E-2,1.8837702E-1,-8.1014866E-4,-2.3185365E-2,3.5723025E-1,-1.0723572E-2,2.8434351E-2,-3.6683363E-1,2.2958085E-1,-1.5499788E-2,2.3714468E-2,8.620775E-3,5.6798984E-3,-3.934159E-3,-3.0207807E-2,-4.8221607E-4,1.3499783E-2,-2.193203E-4],"categories":[],"categories_nodes":[],"categories_segments":[],"categories_sizes":[],"default_left":[0,0,0,0,0,0,0,0,0,0,0,0,0,0,0,0,0,0,0,0,0,0,0,0,0,0,0,0,0,0,0,0,0],"id":48,"left_children":[1,3,5,7,9,11,13,-1,-1,15,17,-1,19,-1,-1,21,23,-1,-1,25,-1,27,29,31,-1,-1,-1,-1,-1,-1,-1,-1,-1],"loss_changes":[8.1652635E-1,9.074147E-1,2.0303428E0,1.417191E0,1.1253498E0,2.1326942E0,1.8971858E0,0E0,0E0,2.1418915E0,6.389028E-1,0E0,1.3364327E0,0E0,0E0,2.7921305E0,1.570214E0,0E0,0E0,2.211045E-1,0E0,1.541521E0,1.6895547E0,6.4417505E-1,0E0,0E0,0E0,0E0,0E0,0E0,0E0,0E0,0E0],"parents":[2147483647,0,0,1,1,2,2,3,3,4,4,5,5,6,6,9,9,10,10,12,12,15,15,16,16,19,19,21,21,22,22,23,23],"right_children":[2,4,6,8,10,12,14,-1,-1,16,18,-1,20,-1,-1,22,24,-1,-1,26,-1,28,30,32,-1,-1,-1,-1,-1,-1,-1,-1,-1],"split_conditions":[1E0,9.078672E-5,4.27E0,3.615394E4,3.814622E4,-1.117E1,8.6E0,-2.2438759E-2,7.3462795E-3,2.81361E4,5.8654165E3,-2.2513544E-2,2.740894E4,-4.3931462E-2,-3.5221688E-3,2.41583E4,1E0,-8.1014866E-4,-2.3185365E-2,1.7264326E0,-1.0723572E-2,3.32112E1,-4.88E0,3.6180904E0,-1.5499788E-2,2.3714468E-2,8.620775E-3,5.6798984E-3,-3.934159E-3,-3.0207807E-2,-4.8221607E-4,1.3499783E-2,-2.193203E-4],"split_indices":[13,20,0,3,3,18,1,0,0,3,17,0,3,0,0,3,9,0,0,16,0,19,18,16,0,0,0,0,0,0,0,0,0],"split_type":[0,0,0,0,0,0,0,0,0,0,0,0,0,0,0,0,0,0,0,0,0,0,0,0,0,0,0,0,0,0,0,0,0],"sum_hessian":[3.2E2,2.85E2,3.5E1,1.5E1,2.7E2,2.4E1,1.1E1,9E0,6E0,2.58E2,1.2E1,6E0,1.8E1,5E0,6E0,1.86E2,7.2E1,6E0,6E0,1.3E1,5E0,1.67E2,1.9E1,6.7E1,5E0,7E0,6E0,9.3E1,7.4E1,1.1E1,8E0,5.7E1,1E1],"tree_param":{"num_deleted":"0","num_feature":"24","num_nodes":"33","size_leaf_vector":"1"}},{"base_weights":[-2.8235202E-3,-2.410793E-1,7.2093233E-3,3.666712E-3,-2.2337727E-2,2.5530952E-1,-8.109215E-3,2.1824677E-2,1.2813135E-3,1.1436886E-2,-2.0852074E-1,-2.5796248E-2,1.8185048E-1,-3.7826967E-1,2.1042153E-2,1.0503656E-2,-2.6523712E-1,2.8596458E-1,-1.505422E-2,-4.580525E-3,-3.463965E-2,1.3484751E-2,-9.754744E-3,-5.579039E-3,3.9948607E-3,-2.2452978E-2,-3.18661E-3,1.939212E-2,2.2269068E-3],"categories":[],"categories_nodes":[],"categories_segments":[],"categories_sizes":[],"default_left":[0,0,0,0,0,0,0,0,0,0,0,0,0,0,0,0,0,0,0,0,0,0,0,0,0,0,0,0,0],"id":49,"left_children":[1,3,5,-1,-1,7,9,-1,-1,11,13,15,17,19,21,23,25,27,-1,-1,-1,-1,-1,-1,-1,-1,-1,-1,-1],"loss_changes":[7.690509E-1,8.734345E-1,1.1764349E0,0E0,0E0,7.37883E-1,1.1462259E0,0E0,0E0,1.6988146E0,1.0211289E0,1.9149557E0,2.4995546E0,1.2889476E0,6.975332E-1,1.6355146E0,1.0455732E0,9.665663E-1,0E0,0E0,0E0,0E0,0E0,0E0,0E0,0E0,0E0,0E0,0E0],"parents":[2147483647,0,0,1,1,2,2,5,5,6,6,9,9,10,10,11,11,12,12,13,13,14,14,15,15,16,16,17,17],"right_children":[2,4,6,-1,-1,8,10,-1,-1,12,14,16,18,20,22,24,26,28,-1,-1,-1,-1,-1,-1,-1,-1,-1,-1,-1],"split_conditions":[-3.96E0,3.08E0,-9.59E0,3.666712E-3,-2.2337727E-2,4.1683597E-4,1.12E1,2.1824677E-2,1.2813135E-3,9.48E0,5.29E0,8.64E0,3.21E0,1.176E1,-6.94E0,8.7E-1,1.3038417E0,3.9870501E-4,-1.505422E-2,-4.580525E-3,-3.463965E-2,1.3484751E-2,-9.754744E-3,-5.579039E-3,3.9948607E-3,-2.2452978E-2,-3.18661E-3,1.939212E-2,2.2269068E-3],"split_indices":[0,2,14,0,0,20,1,0,0,1,2,1,14,1,18,0,16,15,0,0,0,0,0,0,0,0,0,0,0],"split_type":[0,0,0,0,0,0,0,0,0,0,0,0,0,0,0,0,0,0,0,0,0,0,0,0,0,0,0,0,0],"sum_hessian":[3.2E2,1.2E1,3.08E2,5E0,7E0,1.7E1,2.91E2,9E0,8E0,2.66E2,2.5E1,2.19E2,4.7E1,1.4E1,1.1E1,1.91E2,2.8E1,3.9E1,8E0,8E0,6E0,5E0,6E0,6.9E1,1.22E2,1.4E1,1.4E1,2.7E1,1.2E1],"tree_param":{"num_deleted":"0","num_feature":"24","num_nodes":"29","size_leaf_vector":"1"}},{"base_weights":[-2.8434515E-3,7.464144E-3,-2.2940744E-1,4.3276227E-1,-9.74475E-3,-2.134837E-2,-3.6105544E-3,1.0723134E-2,2.7902652E-2,-3.275731E-2,1.9615893E-1,-2.0868301E-2,-1.862889E-2,1.08245805E-1,1.946311E-2,-4.9030205E-4,-2.2123154E-1,-1.5543184E-2,2.8484085E-1,7.426531E-4,-1.4470805E-2,-2.204897E-2,9.700633E-3,1.8479504E-2,4.0996894E-3],"categories":[],"categories_nodes":[],"categories_segments":[],"categories_sizes":[],"default_left":[0,0,0,0,0,0,0,0,0,0,0,0,0,0,0,0,0,0,0,0,0,0,0,0,0],"id":50,"left_children":[1,3,5,7,9,-1,-1,-1,-1,11,13,15,-1,17,-1,19,21,-1,23,-1,-1,-1,-1,-1,-1],"loss_changes":[7.5135326E-1,2.2584417E0,4.0394807E-1,2.0852971E-1,1.4137217E0,0E0,0E0,0E0,0E0,1.0749793E0,4.6715343E-1,1.0614719E0,0E0,1.716825E0,0E0,1.0549419E0,2.275532E0,0E0,2.4475408E-1,0E0,0E0,0E0,0E0,0E0,0E0],"parents":[2147483647,0,0,1,1,2,2,3,3,4,4,9,9,10,10,11,11,13,13,15,15,16,16,18,18],"right_children":[2,4,6,8,10,-1,-1,-1,-1,12,14,16,-1,18,-1,20,22,-1,24,-1,-1,-1,-1,-1,-1],"split_conditions":[1.7471106E-3,4.28775E3,2.355697E-3,2.27958E3,8.87E0,-2.134837E-2,-3.6105544E-3,1.0723134E-2,2.7902652E-2,8.5E0,2.988442E4,-7.78778E3,-1.862889E-2,3.241563E-4,1.946311E-2,1.18E1,8.87E0,-1.5543184E-2,1.833025E4,7.426531E-4,-1.4470805E-2,-2.204897E-2,9.700633E-3,1.8479504E-2,4.0996894E-3],"split_indices":[15,3,15,3,2,0,0,0,0,2,3,22,0,20,0,1,1,0,3,0,0,0,0,0,0],"split_type":[0,0,0,0,0,0,0,0,0,0,0,0,0,0,0,0,0,0,0,0,0,0,0,0,0],"sum_hessian":[3.2E2,3.07E2,1.3E1,1.1E1,2.96E2,5E0,8E0,5E0,6E0,2.67E2,2.9E1,2.59E2,8E0,2.1E1,8E0,2.36E2,2.3E1,6E0,1.5E1,2.25E2,1.1E1,1.5E1,8E0,1E1,5E0],"tree_param":{"num_deleted":"0","num_feature":"24","num_nodes":"25","size_leaf_vector":"1"}}]},"name":"gbtree"},"learner_model_param":{"base_score":"1.6885678E-9","boost_from_average":"1","num_class":"0","num_feature":"24","num_target":"1"},"objective":{"name":"reg:squarederror","reg_loss_param":{"scale_pos_weight":"1"}}},"version":[3,0,1]}